{"learner":{"attributes":{"scikit_learn":"{\"_estimator_type\": \"regressor\"}"},"feature_names":["cloud_cover","wind_speed","wind_gust","humidity","pressure","global_radiation","precipitation","sunshine","temp_mean","temp_min","temp_max","day_sin","day_cos","month_sin","month_cos","solar_term_index","day_in_term","solar_term_sin","solar_term_cos","stem_index","wuxing_index","polarity","wuxing_x_solar","polarity_x_solar","wuxing_pol_solar","wuxing_sin","wuxing_cos","stem_sin","stem_cos"],"feature_types":["int","float","float","float","float","float","float","float","float","float","float","float","float","float","float","int","int","float","float","int","int","int","int","int","int","float","float","float","float"],"gradient_booster":{"model":{"cats":{"enc":[],"feature_segments":[],"sorted_idx":[]},"gbtree_model_param":{"num_parallel_tree":"1","num_trees":"500"},"iteration_indptr":[0,1,2,3,4,5,6,7,8,9,10,11,12,13,14,15,16,17,18,19,20,21,22,23,24,25,26,27,28,29,30,31,32,33,34,35,36,37,38,39,40,41,42,43,44,45,46,47,48,49,50,51,52,53,54,55,56,57,58,59,60,61,62,63,64,65,66,67,68,69,70,71,72,73,74,75,76,77,78,79,80,81,82,83,84,85,86,87,88,89,90,91,92,93,94,95,96,97,98,99,100,101,102,103,104,105,106,107,108,109,110,111,112,113,114,115,116,117,118,119,120,121,122,123,124,125,126,127,128,129,130,131,132,133,134,135,136,137,138,139,140,141,142,143,144,145,146,147,148,149,150,151,152,153,154,155,156,157,158,159,160,161,162,163,164,165,166,167,168,169,170,171,172,173,174,175,176,177,178,179,180,181,182,183,184,185,186,187,188,189,190,191,192,193,194,195,196,197,198,199,200,201,202,203,204,205,206,207,208,209,210,211,212,213,214,215,216,217,218,219,220,221,222,223,224,225,226,227,228,229,230,231,232,233,234,235,236,237,238,239,240,241,242,243,244,245,246,247,248,249,250,251,252,253,254,255,256,257,258,259,260,261,262,263,264,265,266,267,268,269,270,271,272,273,274,275,276,277,278,279,280,281,282,283,284,285,286,287,288,289,290,291,292,293,294,295,296,297,298,299,300,301,302,303,304,305,306,307,308,309,310,311,312,313,314,315,316,317,318,319,320,321,322,323,324,325,326,327,328,329,330,331,332,333,334,335,336,337,338,339,340,341,342,343,344,345,346,347,348,349,350,351,352,353,354,355,356,357,358,359,360,361,362,363,364,365,366,367,368,369,370,371,372,373,374,375,376,377,378,379,380,381,382,383,384,385,386,387,388,389,390,391,392,393,394,395,396,397,398,399,400,401,402,403,404,405,406,407,408,409,410,411,412,413,414,415,416,417,418,419,420,421,422,423,424,425,426,427,428,429,430,431,432,433,434,435,436,437,438,439,440,441,442,443,444,445,446,447,448,449,450,451,452,453,454,455,456,457,458,459,460,461,462,463,464,465,466,467,468,469,470,471,472,473,474,475,476,477,478,479,480,481,482,483,484,485,486,487,488,489,490,491,492,493,494,495,496,497,498,499,500],"tree_info":[0,0,0,0,0,0,0,0,0,0,0,0,0,0,0,0,0,0,0,0,0,0,0,0,0,0,0,0,0,0,0,0,0,0,0,0,0,0,0,0,0,0,0,0,0,0,0,0,0,0,0,0,0,0,0,0,0,0,0,0,0,0,0,0,0,0,0,0,0,0,0,0,0,0,0,0,0,0,0,0,0,0,0,0,0,0,0,0,0,0,0,0,0,0,0,0,0,0,0,0,0,0,0,0,0,0,0,0,0,0,0,0,0,0,0,0,0,0,0,0,0,0,0,0,0,0,0,0,0,0,0,0,0,0,0,0,0,0,0,0,0,0,0,0,0,0,0,0,0,0,0,0,0,0,0,0,0,0,0,0,0,0,0,0,0,0,0,0,0,0,0,0,0,0,0,0,0,0,0,0,0,0,0,0,0,0,0,0,0,0,0,0,0,0,0,0,0,0,0,0,0,0,0,0,0,0,0,0,0,0,0,0,0,0,0,0,0,0,0,0,0,0,0,0,0,0,0,0,0,0,0,0,0,0,0,0,0,0,0,0,0,0,0,0,0,0,0,0,0,0,0,0,0,0,0,0,0,0,0,0,0,0,0,0,0,0,0,0,0,0,0,0,0,0,0,0,0,0,0,0,0,0,0,0,0,0,0,0,0,0,0,0,0,0,0,0,0,0,0,0,0,0,0,0,0,0,0,0,0,0,0,0,0,0,0,0,0,0,0,0,0,0,0,0,0,0,0,0,0,0,0,0,0,0,0,0,0,0,0,0,0,0,0,0,0,0,0,0,0,0,0,0,0,0,0,0,0,0,0,0,0,0,0,0,0,0,0,0,0,0,0,0,0,0,0,0,0,0,0,0,0,0,0,0,0,0,0,0,0,0,0,0,0,0,0,0,0,0,0,0,0,0,0,0,0,0,0,0,0,0,0,0,0,0,0,0,0,0,0,0,0,0,0,0,0,0,0,0,0,0,0,0,0,0,0,0,0,0,0,0,0,0,0,0,0,0,0,0,0,0,0,0,0,0,0,0,0,0,0,0,0,0,0,0,0,0,0,0,0,0,0,0,0,0,0,0,0,0,0,0,0,0,0,0,0,0,0,0,0,0,0,0,0,0,0,0,0,0,0,0],"trees":[{"base_weights":[-3.0196024E-2,-5.905735E0,5.668429E0,-9.783235E0,-3.7487192E0,3.7869327E0,9.667515E0,-1.175297E1,-8.276822E0,-4.985918E0,-1.6067423E0,2.4419038E0,5.5400815E0,8.89765E0,1.3217208E1,-1.327613E-1,-1.0857535E-1,-9.228144E0,-7.507394E0,-5.8158827E0,-4.1129375E0,-5.2179694E-1,-2.6185446E0,3.3326557E0,1.342939E0,6.5047765E0,4.786251E0,6.9855347E0,9.612969E0,1.3835314E-1,7.7541634E-2,-5.086722E-2,-9.388148E-2,-7.590096E-2,-4.4200547E-2,-4.7240112E-2,-6.264281E-2,-3.4905415E-2,-4.7937535E-2,-1.0578013E-2,1.4519361E-2,-2.030358E-2,-3.364655E-2,4.1481342E-2,2.5878755E-2,1.6415937E-2,-1.2656995E-2,6.834896E-2,4.2388458E-2,2.2667931E-2,5.1614426E-2,7.399688E-2,2.9223405E-2,8.389413E-2,1.08483344E-1],"categories":[],"categories_nodes":[],"categories_segments":[],"categories_sizes":[],"default_left":[0,0,0,0,0,0,0,0,0,0,0,0,0,0,0,0,0,0,0,0,0,0,0,0,0,0,0,0,0,0,0,0,0,0,0,0,0,0,0,0,0,0,0,0,0,0,0,0,0,0,0,0,0,0,0],"id":0,"left_children":[1,3,5,7,9,11,13,15,17,19,21,23,25,27,29,-1,-1,31,33,35,37,39,41,43,45,47,49,51,53,-1,-1,-1,-1,-1,-1,-1,-1,-1,-1,-1,-1,-1,-1,-1,-1,-1,-1,-1,-1,-1,-1,-1,-1,-1,-1],"loss_changes":[7.8884766E4,9.664008E3,8.9610625E3,1.1291523E3,1.970918E3,1.9074727E3,9.241133E2,9.484961E1,1.0325781E2,3.177959E2,3.002008E2,4.4828955E2,2.2444531E2,3.6477148E2,1.1342578E2,0E0,0E0,1.8386719E1,2.2998047E-1,8.6811035E1,8.159326E1,1.43259E2,5.4946045E1,1.4346655E2,1.649436E2,8.3620605E1,1.785039E2,1.2879443E2,2.5169531E2,0E0,0E0,0E0,0E0,0E0,0E0,0E0,0E0,0E0,0E0,0E0,0E0,0E0,0E0,0E0,0E0,0E0,0E0,0E0,0E0,0E0,0E0,0E0,0E0,0E0,0E0],"parents":[2147483647,0,0,1,1,2,2,3,3,4,4,5,5,6,6,7,7,8,8,9,9,10,10,11,11,12,12,13,13,14,14,17,17,18,18,19,19,20,20,21,21,22,22,23,23,24,24,25,25,26,26,27,27,28,28],"right_children":[2,4,6,8,10,12,14,16,18,20,22,24,26,28,30,-1,-1,32,34,36,38,40,42,44,46,48,50,52,54,-1,-1,-1,-1,-1,-1,-1,-1,-1,-1,-1,-1,-1,-1,-1,-1,-1,-1,-1,-1,-1,-1,-1,-1,-1,-1],"split_conditions":[1.48E1,7.7E0,2.23E1,4.4E0,1.2E1,1.92E1,2.15E1,1.4E0,2.8E0,9.9E0,2.5622183E-1,-2.9959476E-1,9E0,1.0128E0,1.2E-1,-1.327613E-1,-1.0857535E-1,-9.659258E-1,9.8430586E-1,6.225287E-1,6.3921165E-1,1.07E1,5.986907E-1,3.5344467E-1,4.9440297E-1,-3.3323526E-2,1.44E1,5.0835645E-1,2.45E1,1.3835314E-1,7.7541634E-2,-5.086722E-2,-9.388148E-2,-7.590096E-2,-4.4200547E-2,-4.7240112E-2,-6.264281E-2,-3.4905415E-2,-4.7937535E-2,-1.0578013E-2,1.4519361E-2,-2.030358E-2,-3.364655E-2,4.1481342E-2,2.5878755E-2,1.6415937E-2,-1.2656995E-2,6.834896E-2,4.2388458E-2,2.2667931E-2,5.1614426E-2,7.399688E-2,2.9223405E-2,8.389413E-2,1.08483344E-1],"split_indices":[10,10,10,10,10,10,8,10,8,10,12,12,2,4,6,0,0,17,11,12,12,8,12,11,12,12,8,11,10,0,0,0,0,0,0,0,0,0,0,0,0,0,0,0,0,0,0,0,0,0,0,0,0,0,0],"split_type":[0,0,0,0,0,0,0,0,0,0,0,0,0,0,0,0,0,0,0,0,0,0,0,0,0,0,0,0,0,0,0,0,0,0,0,0,0,0,0,0,0,0,0,0,0,0,0,0,0,0,0,0,0,0,0],"sum_hessian":[2.354E3,1.159E3,1.195E3,4.13E2,7.46E2,8.14E2,3.81E2,1.76E2,2.37E2,4.72E2,2.74E2,4.62E2,3.52E2,3.16E2,6.5E1,6E1,1.16E2,1.01E2,1.36E2,2.39E2,2.33E2,1.33E2,1.41E2,2.54E2,2.08E2,1.51E2,2.01E2,8.9E1,2.27E2,5.7E1,8E0,5E0,9.6E1,1.31E2,5E0,7.3E1,1.66E2,1.25E2,1.08E2,1.05E2,2.8E1,8.1E1,6E1,1.19E2,1.35E2,1.87E2,2.1E1,1.3E2,2.1E1,2.7E1,1.74E2,8E1,9E0,1.18E2,1.09E2],"tree_param":{"num_deleted":"0","num_feature":"29","num_nodes":"55","size_leaf_vector":"1"}},{"base_weights":[-5.601903E-2,-6.3629894E0,5.075042E0,-9.626423E0,-4.034332E0,2.5908334E0,8.692749E0,-1.1258705E1,-8.09379E0,-2.5074992E0,-5.6545725E0,3.4329736E0,-7.238607E-1,7.7630076E0,1.2642203E1,-3.705039E-2,-1.1424379E1,-8.317357E0,-4.993036E0,-3.721735E0,-1.6346226E0,-6.700141E0,-4.728381E0,2.0517862E0,4.4118934E0,1.0081514E0,-2.3626394E0,6.1915584E0,8.766295E0,1.369824E1,8.5527666E-2,-1.2525629E-1,-1.0587566E-1,-9.394245E-2,-7.700122E-2,-6.230427E-2,-3.3700798E-2,-3.0079436E-2,-5.558674E-2,-2.2404099E-2,1.2751748E-3,-5.0878897E-2,-7.239402E-2,-5.0558906E-2,-3.048564E-2,1.36260735E-2,3.192361E-2,3.1660866E-2,5.3531725E-2,-2.299899E-2,1.3215063E-2,-1.3518887E-2,-3.1389754E-2,7.6841064E-2,5.778238E-2,6.825424E-2,9.575153E-2,7.833491E-2,1.3995327E-1],"categories":[],"categories_nodes":[],"categories_segments":[],"categories_sizes":[],"default_left":[0,0,0,0,0,0,0,0,0,0,0,0,0,0,0,0,0,0,0,0,0,0,0,0,0,0,0,0,0,0,0,0,0,0,0,0,0,0,0,0,0,0,0,0,0,0,0,0,0,0,0,0,0,0,0,0,0,0,0],"id":1,"left_children":[1,3,5,7,9,11,13,15,17,19,21,23,25,27,29,-1,31,33,35,37,39,41,43,45,47,49,51,53,55,57,-1,-1,-1,-1,-1,-1,-1,-1,-1,-1,-1,-1,-1,-1,-1,-1,-1,-1,-1,-1,-1,-1,-1,-1,-1,-1,-1,-1,-1],"loss_changes":[7.61789E4,7.984785E3,1.1641656E4,1.0051797E3,1.513835E3,2.154954E3,1.8386211E3,2.1896289E2,1.1658203E2,3.32542E2,2.5672754E2,8.218247E2,4.4814368E2,6.221699E2,3.0815918E2,0E0,5.3990234E1,6.75332E1,1.4191071E1,1.5681177E2,2.0118362E2,8.191455E1,7.29021E1,1.9721191E2,4.0318115E2,8.2759224E1,5.886664E1,5.9743164E1,3.4117773E2,2.2345703E1,0E0,0E0,0E0,0E0,0E0,0E0,0E0,0E0,0E0,0E0,0E0,0E0,0E0,0E0,0E0,0E0,0E0,0E0,0E0,0E0,0E0,0E0,0E0,0E0,0E0,0E0,0E0,0E0,0E0],"parents":[2147483647,0,0,1,1,2,2,3,3,4,4,5,5,6,6,7,7,8,8,9,9,10,10,11,11,12,12,13,13,14,14,16,16,17,17,18,18,19,19,20,20,21,21,22,22,23,23,24,24,25,25,26,26,27,27,28,28,29,29],"right_children":[2,4,6,8,10,12,14,16,18,20,22,24,26,28,30,-1,32,34,36,38,40,42,44,46,48,50,52,54,56,58,-1,-1,-1,-1,-1,-1,-1,-1,-1,-1,-1,-1,-1,-1,-1,-1,-1,-1,-1,-1,-1,-1,-1,-1,-1,-1,-1,-1,-1],"split_conditions":[1.02E1,4.8E0,1.6E1,1.8E0,5.986907E-1,1.9337648E-1,2.06E1,-6.115299E-1,7.7E0,7.6E0,7E0,1.32E1,-8.425721E-1,1.73E1,1E-2,-3.705039E-2,-5E-1,2.8E0,7.7585876E-1,3.2E0,1.45E0,-4.990686E-1,7.3E0,7.1E0,1.0141E0,1.06E1,4.4E1,4E0,1.0132E0,-8.2354724E-1,8.5527666E-2,-1.2525629E-1,-1.0587566E-1,-9.394245E-2,-7.700122E-2,-6.230427E-2,-3.3700798E-2,-3.0079436E-2,-5.558674E-2,-2.2404099E-2,1.2751748E-3,-5.0878897E-2,-7.239402E-2,-5.0558906E-2,-3.048564E-2,1.36260735E-2,3.192361E-2,3.1660866E-2,5.3531725E-2,-2.299899E-2,1.3215063E-2,-1.3518887E-2,-3.1389754E-2,7.6841064E-2,5.778238E-2,6.825424E-2,9.575153E-2,7.833491E-2,1.3995327E-1],"split_indices":[8,8,8,8,12,12,8,11,7,8,8,8,11,8,6,0,8,8,11,9,5,11,9,7,4,8,22,0,4,11,0,0,0,0,0,0,0,0,0,0,0,0,0,0,0,0,0,0,0,0,0,0,0,0,0,0,0,0,0],"split_type":[0,0,0,0,0,0,0,0,0,0,0,0,0,0,0,0,0,0,0,0,0,0,0,0,0,0,0,0,0,0,0,0,0,0,0,0,0,0,0,0,0,0,0,0,0,0,0,0,0,0,0,0,0,0,0,0,0,0,0],"sum_hessian":[2.352E3,1.055E3,1.297E3,4.38E2,6.17E2,7.7E2,5.27E2,2.09E2,2.29E2,3.19E2,2.98E2,6.14E2,1.56E2,4.29E2,9.8E1,5E0,2.04E2,2.12E2,1.7E1,1.32E2,1.87E2,1.37E2,1.61E2,2.56E2,3.58E2,7.6E1,8E1,1.7E2,2.59E2,7.6E1,2.2E1,8.2E1,1.22E2,7.2E1,1.4E2,8E0,9E0,9.7E1,3.5E1,1.39E2,4.8E1,3.7E1,1E2,1.33E2,2.8E1,1.61E2,9.5E1,1.56E2,2.02E2,6E0,7E1,3.6E1,4.4E1,3.3E1,1.37E2,7.9E1,1.8E2,5E0,7.1E1],"tree_param":{"num_deleted":"0","num_feature":"29","num_nodes":"59","size_leaf_vector":"1"}},{"base_weights":[-1.3323252E-2,-5.7073903E0,5.6322927E0,-9.095849E0,-3.2413037E0,3.6961434E0,9.605368E0,-1.0884681E1,-7.067939E0,-4.531792E0,-1.4821653E0,2.4077334E0,5.379166E0,8.709761E0,1.3017441E1,-1.2968628E-1,-1.023194E1,-5.3926787E0,-7.279164E0,-3.753889E0,-5.073397E0,-3.3509326E-1,-2.4774418E0,3.278425E0,1.3650901E0,3.8044202E0,5.966652E0,7.123601E0,9.858336E0,1.3500156E-1,8.8408865E-2,-1.04988866E-1,-8.482568E-2,-6.4918116E-2,-4.4094007E-2,-5.793121E-2,-7.552053E-2,-3.962527E-2,-1.8359067E-2,-5.5264458E-2,-3.656299E-2,-7.9767695E-3,1.0595722E-2,-1.4799154E-2,-3.1147448E-2,3.9391913E-2,2.6117755E-2,1.8190067E-2,-2.09886E-4,8.406537E-3,4.1002043E-2,6.2059693E-2,3.941943E-2,7.435839E-2,3.6617223E-2,1.0325568E-1,7.82129E-2],"categories":[],"categories_nodes":[],"categories_segments":[],"categories_sizes":[],"default_left":[0,0,0,0,0,0,0,0,0,0,0,0,0,0,0,0,0,0,0,0,0,0,0,0,0,0,0,0,0,0,0,0,0,0,0,0,0,0,0,0,0,0,0,0,0,0,0,0,0,0,0,0,0,0,0,0,0],"id":2,"left_children":[1,3,5,7,9,11,13,15,17,19,21,23,25,27,29,-1,31,33,35,37,39,41,43,45,47,49,51,53,55,-1,-1,-1,-1,-1,-1,-1,-1,-1,-1,-1,-1,-1,-1,-1,-1,-1,-1,-1,-1,-1,-1,-1,-1,-1,-1,-1,-1],"loss_changes":[7.5351445E4,9.721008E3,9.017199E3,1.702418E3,1.5295713E3,1.7058301E3,1.0609609E3,2.1729492E2,4.1927734E1,1.4438525E2,3.276848E2,4.044873E2,2.9364648E2,4.8919727E2,3.566797E1,0E0,3.3769531E0,2.7074585E0,3.764258E1,5.7772217E1,1.2461279E2,8.7914185E1,9.2832825E1,9.6979004E1,1.3045499E2,8.021619E1,9.469043E1,1.1542578E2,8.49375E1,0E0,0E0,0E0,0E0,0E0,0E0,0E0,0E0,0E0,0E0,0E0,0E0,0E0,0E0,0E0,0E0,0E0,0E0,0E0,0E0,0E0,0E0,0E0,0E0,0E0,0E0,0E0,0E0],"parents":[2147483647,0,0,1,1,2,2,3,3,4,4,5,5,6,6,7,7,8,8,9,9,10,10,11,11,12,12,13,13,14,14,16,16,17,17,18,18,19,19,20,20,21,21,22,22,23,23,24,24,25,25,26,26,27,27,28,28],"right_children":[2,4,6,8,10,12,14,16,18,20,22,24,26,28,30,-1,32,34,36,38,40,42,44,46,48,50,52,54,56,-1,-1,-1,-1,-1,-1,-1,-1,-1,-1,-1,-1,-1,-1,-1,-1,-1,-1,-1,-1,-1,-1,-1,-1,-1,-1,-1,-1],"split_conditions":[1.49E1,8.4E0,1.71E1,5.6E0,1.2E1,1.92E1,2.12E1,1.4E0,3.423569E-1,5.986907E-1,2.228204E-1,-2.9959476E-1,1.0128E0,1.0152E0,3E-2,-1.2968628E-1,2.8E0,-1.3E0,-5.285813E-1,9.2E-1,8.5E0,1.07E1,-7.839338E-1,-2.5881904E-1,1.3E1,1.44E1,-6.33914E-2,1.26E0,6E0,1.3500156E-1,8.8408865E-2,-1.04988866E-1,-8.482568E-2,-6.4918116E-2,-4.4094007E-2,-5.793121E-2,-7.552053E-2,-3.962527E-2,-1.8359067E-2,-5.5264458E-2,-3.656299E-2,-7.9767695E-3,1.0595722E-2,-1.4799154E-2,-3.1147448E-2,3.9391913E-2,2.6117755E-2,1.8190067E-2,-2.09886E-4,8.406537E-3,4.1002043E-2,6.2059693E-2,3.941943E-2,7.435839E-2,3.6617223E-2,1.0325568E-1,7.82129E-2],"split_indices":[10,10,8,10,10,10,8,10,12,12,12,12,4,4,6,0,8,9,11,3,8,8,11,18,2,8,12,6,0,0,0,0,0,0,0,0,0,0,0,0,0,0,0,0,0,0,0,0,0,0,0,0,0,0,0,0,0],"split_type":[0,0,0,0,0,0,0,0,0,0,0,0,0,0,0,0,0,0,0,0,0,0,0,0,0,0,0,0,0,0,0,0,0,0,0,0,0,0,0,0,0,0,0,0,0,0,0,0,0,0,0,0,0,0,0,0,0],"sum_hessian":[2.342E3,1.166E3,1.176E3,4.9E2,6.76E2,7.92E2,3.84E2,2.58E2,2.32E2,3.89E2,2.87E2,4.5E2,3.42E2,3.07E2,7.7E1,5.7E1,2.01E2,2.9E1,2.03E2,1.63E2,2.26E2,1.34E2,1.53E2,2.44E2,2.06E2,9.5E1,2.47E2,1.32E2,1.75E2,6.7E1,1E1,1.7E2,3.1E1,1.1E1,1.8E1,3.5E1,1.68E2,1.46E2,1.7E1,1.69E2,5.7E1,1.01E2,3.3E1,6.1E1,9.2E1,1.2E2,1.24E2,1.55E2,5.1E1,9E0,8.6E1,2.19E2,2.8E1,1.2E2,1.2E1,1.39E2,3.6E1],"tree_param":{"num_deleted":"0","num_feature":"29","num_nodes":"57","size_leaf_vector":"1"}},{"base_weights":[-2.9202709E-2,-5.5528083E0,5.456574E0,-9.27017E0,-3.451696E0,3.5887136E0,9.68287E0,-1.0701042E1,-7.5055637E0,-1.233435E0,-4.818332E0,1.7221092E0,4.7718625E0,8.758034E0,1.305448E1,-4.2389788E-2,-1.0825914E1,-7.7938986E0,-3.5961788E0,-3.384018E0,-1.9023475E-1,-6.3826385E0,-3.929721E0,2.2399695E0,-2.0241768E0,6.84525E0,4.283722E0,9.900889E0,7.5280385E0,1.3600154E-1,7.530628E-2,-1.1199809E-1,-8.4840335E-2,-4.535008E-2,-7.900823E-2,-1.48589825E-2,-4.492729E-2,-2.6997132E-2,-4.797666E-2,1.5787683E-2,-9.816523E-3,-5.492047E-2,-7.4553184E-2,-2.9057685E-2,-4.4768896E-2,4.662843E-2,1.8729063E-2,-7.983216E-3,-2.6747227E-2,7.28341E-2,4.0745936E-2,3.182413E-2,4.932404E-2,5.492105E-2,1.0052053E-1,6.652523E-2,8.1296764E-2],"categories":[],"categories_nodes":[],"categories_segments":[],"categories_sizes":[],"default_left":[0,0,0,0,0,0,0,0,0,0,0,0,0,0,0,0,0,0,0,0,0,0,0,0,0,0,0,0,0,0,0,0,0,0,0,0,0,0,0,0,0,0,0,0,0,0,0,0,0,0,0,0,0,0,0,0,0],"id":3,"left_children":[1,3,5,7,9,11,13,15,17,19,21,23,25,27,29,-1,31,33,35,37,39,41,43,45,47,49,51,53,55,-1,-1,-1,-1,-1,-1,-1,-1,-1,-1,-1,-1,-1,-1,-1,-1,-1,-1,-1,-1,-1,-1,-1,-1,-1,-1,-1,-1],"loss_changes":[7.066257E4,9.042641E3,9.200059E3,9.758047E2,2.2489287E3,1.7866191E3,9.9979297E2,1.3739062E2,1.8612988E2,6.3839307E2,6.1331445E2,6.1955255E2,4.7258008E2,3.229453E2,1.2153711E2,0E0,9.915039E1,2.4603516E1,2.1106003E1,7.626306E1,2.71694E2,1.1538867E2,1.5209424E2,2.3874146E2,2.8618927E1,8.208838E1,2.7282324E2,3.9208008E1,1.870996E1,0E0,0E0,0E0,0E0,0E0,0E0,0E0,0E0,0E0,0E0,0E0,0E0,0E0,0E0,0E0,0E0,0E0,0E0,0E0,0E0,0E0,0E0,0E0,0E0,0E0,0E0,0E0,0E0],"parents":[2147483647,0,0,1,1,2,2,3,3,4,4,5,5,6,6,7,7,8,8,9,9,10,10,11,11,12,12,13,13,14,14,16,16,17,17,18,18,19,19,20,20,21,21,22,22,23,23,24,24,25,25,26,26,27,27,28,28],"right_children":[2,4,6,8,10,12,14,16,18,20,22,24,26,28,30,-1,32,34,36,38,40,42,44,46,48,50,52,54,56,-1,-1,-1,-1,-1,-1,-1,-1,-1,-1,-1,-1,-1,-1,-1,-1,-1,-1,-1,-1,-1,-1,-1,-1,-1,-1,-1,-1],"split_conditions":[1.09E1,4.6E0,1.73E1,2.1E0,3.423569E-1,1.35E1,2.12E1,6.123234E-17,7.7E0,7.6E0,6.7E0,4.9440297E-1,4E0,5E0,1.2E-1,-4.2389788E-2,9.8E-1,1.0837701E-1,3E0,6E-2,5E0,8.6114675E-1,6.3921165E-1,5.1E0,7.029131E-1,-1.4889039E-1,1.49E1,1.63E0,1.84E1,1.3600154E-1,7.530628E-2,-1.1199809E-1,-8.4840335E-2,-4.535008E-2,-7.900823E-2,-1.48589825E-2,-4.492729E-2,-2.6997132E-2,-4.797666E-2,1.5787683E-2,-9.816523E-3,-5.492047E-2,-7.4553184E-2,-2.9057685E-2,-4.4768896E-2,4.662843E-2,1.8729063E-2,-7.983216E-3,-2.6747227E-2,7.28341E-2,4.0745936E-2,3.182413E-2,4.932404E-2,5.492105E-2,1.0052053E-1,6.652523E-2,8.1296764E-2],"split_indices":[8,8,8,8,12,8,8,18,7,8,8,12,0,0,6,0,5,12,23,6,0,12,12,9,12,12,8,5,8,0,0,0,0,0,0,0,0,0,0,0,0,0,0,0,0,0,0,0,0,0,0,0,0,0,0,0,0],"split_type":[0,0,0,0,0,0,0,0,0,0,0,0,0,0,0,0,0,0,0,0,0,0,0,0,0,0,0,0,0,0,0,0,0,0,0,0,0,0,0,0,0,0,0,0,0,0,0,0,0,0,0,0,0,0,0,0,0],"sum_hessian":[2.33E3,1.161E3,1.169E3,4.18E2,7.43E2,8.12E2,3.57E2,2.28E2,1.9E2,2.84E2,4.59E2,3.16E2,4.96E2,2.83E2,7.4E1,5E0,2.23E2,1.76E2,1.4E1,9.2E1,1.92E2,1.64E2,2.95E2,2.78E2,3.8E1,9.2E1,4.04E2,1.43E2,1.4E2,6.6E1,8E0,1.89E2,3.4E1,7E0,1.69E2,5E0,9E0,6.4E1,2.8E1,5.9E1,1.33E2,9.3E1,7.1E1,1.05E2,1.9E2,3.5E1,2.43E2,1.4E1,2.4E1,7.8E1,1.4E1,1.52E2,2.52E2,6E0,1.37E2,6.2E1,7.8E1],"tree_param":{"num_deleted":"0","num_feature":"29","num_nodes":"57","size_leaf_vector":"1"}},{"base_weights":[2.376445E-2,-6.07642E0,5.200764E0,-9.540431E0,-3.963824E0,2.79921E0,8.469363E0,-1.137897E1,-8.018583E0,-4.9291587E0,-2.0578873E0,8.318102E-1,3.7332327E0,7.74765E0,1.299136E-1,-1.3133624E-1,-1.0646209E-1,-9.113527E0,-7.1475587E0,-5.7367444E0,-3.9496033E0,-7.707628E-1,-2.903258E0,1.0846415E0,-1.3414719E0,4.360585E0,2.4667733E0,6.200528E0,8.745392E0,-6.0525138E-2,-9.3218856E-2,-7.367358E-2,-4.0908694E-2,-6.1190784E-2,-5.0540872E-2,-3.244989E-2,-4.797119E-2,-1.1043717E-2,1.746791E-2,7.472329E-4,-3.0662082E-2,5.012319E-3,1.7968277E-2,-2.0256443E-2,6.929207E-3,3.839924E-2,5.157701E-2,1.8534644E-2,3.4640424E-2,4.935118E-2,7.538138E-2,6.5858275E-2,9.492327E-2],"categories":[],"categories_nodes":[],"categories_segments":[],"categories_sizes":[],"default_left":[0,0,0,0,0,0,0,0,0,0,0,0,0,0,0,0,0,0,0,0,0,0,0,0,0,0,0,0,0,0,0,0,0,0,0,0,0,0,0,0,0,0,0,0,0,0,0,0,0,0,0,0,0],"id":4,"left_children":[1,3,5,7,9,11,13,15,17,19,21,23,25,27,-1,-1,-1,29,31,33,35,37,39,41,43,45,47,49,51,-1,-1,-1,-1,-1,-1,-1,-1,-1,-1,-1,-1,-1,-1,-1,-1,-1,-1,-1,-1,-1,-1,-1,-1],"loss_changes":[7.3677586E4,7.7984766E3,9.881508E3,1.04E3,1.2163486E3,1.3360454E3,1.6400234E3,9.051758E1,1.4782227E2,3.260293E2,2.4330481E2,1.3110515E2,3.8105176E2,6.5898047E2,0E0,0E0,0E0,3.2700195E0,5.605713E1,3.0597168E1,1.0485498E2,7.829382E1,6.652405E1,8.69548E1,3.633377E1,1.15839355E2,9.457904E1,2.74687E2,3.8592188E2,0E0,0E0,0E0,0E0,0E0,0E0,0E0,0E0,0E0,0E0,0E0,0E0,0E0,0E0,0E0,0E0,0E0,0E0,0E0,0E0,0E0,0E0,0E0,0E0],"parents":[2147483647,0,0,1,1,2,2,3,3,4,4,5,5,6,6,7,7,8,8,9,9,10,10,11,11,12,12,13,13,17,17,18,18,19,19,20,20,21,21,22,22,23,23,24,24,25,25,26,26,27,27,28,28],"right_children":[2,4,6,8,10,12,14,16,18,20,22,24,26,28,-1,-1,-1,30,32,34,36,38,40,42,44,46,48,50,52,-1,-1,-1,-1,-1,-1,-1,-1,-1,-1,-1,-1,-1,-1,-1,-1,-1,-1,-1,-1,-1,-1,-1,-1],"split_conditions":[1.4E1,7.7E0,2.06E1,4.4E0,1.18E1,1.65E1,2.12E1,1.1E0,2.8E0,9.9E0,2.6037648E-1,4.6801534E-1,-2.9959476E-1,1.73E1,1.299136E-1,-1.3133624E-1,-1.0646209E-1,-6.115299E-1,9.3957E-1,9.1E0,6.6528654E-1,1.05E1,1.9E1,1.0161E0,1.24E1,1.93E1,1.84E1,1.0175E0,1.0129E0,-6.0525138E-2,-9.3218856E-2,-7.367358E-2,-4.0908694E-2,-6.1190784E-2,-5.0540872E-2,-3.244989E-2,-4.797119E-2,-1.1043717E-2,1.746791E-2,7.472329E-4,-3.0662082E-2,5.012319E-3,1.7968277E-2,-2.0256443E-2,6.929207E-3,3.839924E-2,5.157701E-2,1.8534644E-2,3.4640424E-2,4.935118E-2,7.538138E-2,6.5858275E-2,9.492327E-2],"split_indices":[10,10,10,10,10,10,8,10,8,10,12,12,12,8,0,0,0,11,11,10,12,8,24,4,8,10,10,4,4,0,0,0,0,0,0,0,0,0,0,0,0,0,0,0,0,0,0,0,0,0,0,0,0],"split_type":[0,0,0,0,0,0,0,0,0,0,0,0,0,0,0,0,0,0,0,0,0,0,0,0,0,0,0,0,0,0,0,0,0,0,0,0,0,0,0,0,0,0,0,0,0,0,0,0,0,0,0,0,0],"sum_hessian":[2.331E3,1.07E3,1.261E3,4.04E2,6.66E2,7.28E2,5.33E2,1.8E2,2.24E2,4.41E2,2.25E2,2.35E2,4.93E2,4.62E2,7.1E1,4.8E1,1.32E2,9.5E1,1.29E2,2.39E2,2.02E2,9E1,1.35E2,2.11E2,2.4E1,3.28E2,1.65E2,1.84E2,2.78E2,8E0,8.7E1,1.19E2,1E1,1.48E2,9.1E1,1.13E2,8.9E1,8E1,1E1,7E0,1.28E2,1.17E2,9.4E1,1.8E1,6E0,2.02E2,1.26E2,1.04E2,6.1E1,9.7E1,8.7E1,7.4E1,2.04E2],"tree_param":{"num_deleted":"0","num_feature":"29","num_nodes":"53","size_leaf_vector":"1"}},{"base_weights":[-1.5860166E-3,-5.974133E0,5.1210346E0,-8.814732E0,-3.6972408E0,2.8327332E0,8.480719E0,-1.0957933E1,-7.4543056E0,-4.6032915E0,-1.9238842E0,7.088069E-1,3.7518325E0,7.6826215E0,1.2290014E1,-1.2462811E-1,-1.02751024E-1,-8.531804E0,-6.923383E0,-5.293916E0,-4.0452356E0,-5.5950254E-1,-2.4800718E0,8.699125E-1,-2.8963977E-2,3.0945723E0,4.8158E0,6.267178E0,8.5976925E0,1.2784037E1,7.1976386E-2,-8.685379E-2,-4.8151433E-2,-6.063521E-2,-7.683599E-2,-5.558343E-2,-4.291684E-2,-4.420884E-2,-3.2492813E-2,-9.596301E-3,1.3374073E-2,1.8199759E-3,-2.6778856E-2,-1.3700695E-3,1.32193575E-2,3.483972E-2,1.8426334E-2,3.185563E-2,5.2052587E-2,2.6370816E-2,6.523933E-2,6.987971E-2,9.535146E-2,1.06556445E-1,1.3824195E-1],"categories":[],"categories_nodes":[],"categories_segments":[],"categories_sizes":[],"default_left":[0,0,0,0,0,0,0,0,0,0,0,0,0,0,0,0,0,0,0,0,0,0,0,0,0,0,0,0,0,0,0,0,0,0,0,0,0,0,0,0,0,0,0,0,0,0,0,0,0,0,0,0,0,0,0],"id":5,"left_children":[1,3,5,7,9,11,13,15,17,19,21,23,25,27,29,-1,-1,31,33,35,37,39,41,43,-1,45,47,49,51,53,-1,-1,-1,-1,-1,-1,-1,-1,-1,-1,-1,-1,-1,-1,-1,-1,-1,-1,-1,-1,-1,-1,-1,-1,-1],"loss_changes":[7.189855E4,6.9836562E3,9.700125E3,1.3218242E3,9.6096875E2,1.4687778E3,1.4601602E3,5.9771484E1,1.0986133E2,1.3142773E2,1.5463196E2,1.353245E2,3.5213916E2,4.9639844E2,1.24856445E2,0E0,0E0,1.0482422E1,8.6041016E1,2.1538574E1,5.2142822E1,4.7545006E1,7.761969E1,1.00432846E2,0E0,1.5294946E2,1.0892578E2,1.4125977E2,3.180293E2,2.2926758E1,0E0,0E0,0E0,0E0,0E0,0E0,0E0,0E0,0E0,0E0,0E0,0E0,0E0,0E0,0E0,0E0,0E0,0E0,0E0,0E0,0E0,0E0,0E0,0E0,0E0],"parents":[2147483647,0,0,1,1,2,2,3,3,4,4,5,5,6,6,7,7,8,8,9,9,10,10,11,11,12,12,13,13,14,14,17,17,18,18,19,19,20,20,21,21,22,22,23,23,25,25,26,26,27,27,28,28,29,29],"right_children":[2,4,6,8,10,12,14,16,18,20,22,24,26,28,30,-1,-1,32,34,36,38,40,42,44,-1,46,48,50,52,54,-1,-1,-1,-1,-1,-1,-1,-1,-1,-1,-1,-1,-1,-1,-1,-1,-1,-1,-1,-1,-1,-1,-1,-1,-1],"split_conditions":[1.4E1,8.4E0,2.09E1,4.6E0,1.2E1,1.65E1,2.77E1,1.4E0,2.8E0,9.9E0,6.123234E-17,1.8E1,1.93E1,2.27E1,1.2E-1,-1.2462811E-1,-1.02751024E-1,7.0710677E-1,2E1,8.7240404E-1,7.8659654E-1,1.05E1,1.7E1,1.04E1,-2.8963977E-2,6.123234E-17,1.0091E0,1.0059E0,1.0154E0,1.0155E0,7.1976386E-2,-8.685379E-2,-4.8151433E-2,-6.063521E-2,-7.683599E-2,-5.558343E-2,-4.291684E-2,-4.420884E-2,-3.2492813E-2,-9.596301E-3,1.3374073E-2,1.8199759E-3,-2.6778856E-2,-1.3700695E-3,1.32193575E-2,3.483972E-2,1.8426334E-2,3.185563E-2,5.2052587E-2,2.6370816E-2,6.523933E-2,6.987971E-2,9.535146E-2,1.06556445E-1,1.3824195E-1],"split_indices":[10,10,10,10,10,10,10,10,8,10,14,15,10,10,6,0,0,17,15,11,11,8,24,8,0,14,4,4,4,4,0,0,0,0,0,0,0,0,0,0,0,0,0,0,0,0,0,0,0,0,0,0,0,0,0],"split_type":[0,0,0,0,0,0,0,0,0,0,0,0,0,0,0,0,0,0,0,0,0,0,0,0,0,0,0,0,0,0,0,0,0,0,0,0,0,0,0,0,0,0,0,0,0,0,0,0,0,0,0,0,0,0,0],"sum_hessian":[2.348E3,1.084E3,1.264E3,4.81E2,6.03E2,7.53E2,5.11E2,1.84E2,2.97E2,3.98E2,2.05E2,2.28E2,5.25E2,4.25E2,8.6E1,5.2E1,1.32E2,9.3E1,2.04E2,1.74E2,2.24E2,6E1,1.45E2,2.19E2,9E0,3.27E2,1.98E2,1.7E2,2.55E2,7.7E1,9E0,8.8E1,5E0,1E2,1.04E2,1.34E2,4E1,1.49E2,7.5E1,5E1,1E1,1E1,1.35E2,6.8E1,1.51E2,2.48E2,7.9E1,4E1,1.58E2,1.2E1,1.58E2,9.7E1,1.58E2,2.9E1,4.8E1],"tree_param":{"num_deleted":"0","num_feature":"29","num_nodes":"55","size_leaf_vector":"1"}},{"base_weights":[8.2166776E-2,-5.5456953E0,5.4033227E0,-9.287155E0,-3.5396874E0,3.0905452E0,8.409144E0,-1.1199826E1,-7.788127E0,-4.708303E0,-1.4930494E0,2.041563E0,4.222293E0,7.499683E0,1.148932E1,-1.2649944E-1,-1.0357593E-1,-8.875307E0,-7.170206E0,-5.5888643E0,-3.9950469E0,-8.491394E-1,-2.9060605E0,2.8630617E0,1.2397853E0,4.3721375E0,7.8739977E-1,6.3066206E0,8.536046E0,1.2270671E1,7.7241473E0,-6.0681745E-2,-9.2441164E-2,-6.4642735E-2,-7.88321E-2,-5.037143E-2,-6.5966405E-2,-3.4082845E-2,-4.628848E-2,-1.3062861E-2,-1.5006406E-4,-3.296058E-2,-1.7071076E-2,2.128662E-2,3.2730374E-2,1.52036E-2,-1.2567737E-2,3.5609554E-2,4.8796017E-2,-9.110808E-3,2.3999555E-2,2.58376E-2,6.515734E-2,5.4126196E-2,8.990949E-2,1.289993E-1,8.821661E-2,5.0316717E-2,8.581376E-2],"categories":[],"categories_nodes":[],"categories_segments":[],"categories_sizes":[],"default_left":[0,0,0,0,0,0,0,0,0,0,0,0,0,0,0,0,0,0,0,0,0,0,0,0,0,0,0,0,0,0,0,0,0,0,0,0,0,0,0,0,0,0,0,0,0,0,0,0,0,0,0,0,0,0,0,0,0,0,0],"id":6,"left_children":[1,3,5,7,9,11,13,15,17,19,21,23,25,27,29,-1,-1,31,33,35,37,39,41,43,45,47,49,51,53,55,57,-1,-1,-1,-1,-1,-1,-1,-1,-1,-1,-1,-1,-1,-1,-1,-1,-1,-1,-1,-1,-1,-1,-1,-1,-1,-1,-1,-1],"loss_changes":[7.055451E4,8.559523E3,8.391488E3,1.0548672E3,1.7789756E3,8.0516113E2,1.3854219E3,7.79668E1,8.725488E1,2.7504688E2,2.4554639E2,2.3184021E2,1.6537793E2,4.5039062E2,2.5036719E2,0E0,0E0,2.3126953E1,2.3105957E1,8.2370605E1,8.234277E1,7.1917984E1,3.3618042E1,4.5483765E1,1.3012341E2,1.1144824E2,4.3418858E1,1.3328369E2,2.5680078E2,9.238086E1,8.545532E0,0E0,0E0,0E0,0E0,0E0,0E0,0E0,0E0,0E0,0E0,0E0,0E0,0E0,0E0,0E0,0E0,0E0,0E0,0E0,0E0,0E0,0E0,0E0,0E0,0E0,0E0,0E0,0E0],"parents":[2147483647,0,0,1,1,2,2,3,3,4,4,5,5,6,6,7,7,8,8,9,9,10,10,11,11,12,12,13,13,14,14,17,17,18,18,19,19,20,20,21,21,22,22,23,23,24,24,25,25,26,26,27,27,28,28,29,29,30,30],"right_children":[2,4,6,8,10,12,14,16,18,20,22,24,26,28,30,-1,-1,32,34,36,38,40,42,44,46,48,50,52,54,56,58,-1,-1,-1,-1,-1,-1,-1,-1,-1,-1,-1,-1,-1,-1,-1,-1,-1,-1,-1,-1,-1,-1,-1,-1,-1,-1,-1,-1],"split_conditions":[1.49E1,7.6E0,2.09E1,4.4E0,1.2E1,1.81E1,2.66E1,1.4E0,5.6E0,9.5E0,5.129784E-1,-2.9959476E-1,9.3957E-1,2.3E1,1E-2,-1.2649944E-1,-1.0357593E-1,4.6801534E-1,1.8E0,8.6114675E-1,6.6528654E-1,1.39E1,4.3E1,1.65E1,4.6801534E-1,1.93E1,9.6E0,1.0059E0,1.0103E0,-6.0384524E-1,3.09017E-1,-6.0681745E-2,-9.2441164E-2,-6.4642735E-2,-7.88321E-2,-5.037143E-2,-6.5966405E-2,-3.4082845E-2,-4.628848E-2,-1.3062861E-2,-1.5006406E-4,-3.296058E-2,-1.7071076E-2,2.128662E-2,3.2730374E-2,1.52036E-2,-1.2567737E-2,3.5609554E-2,4.8796017E-2,-9.110808E-3,2.3999555E-2,2.58376E-2,6.515734E-2,5.4126196E-2,8.990949E-2,1.289993E-1,8.821661E-2,5.0316717E-2,8.581376E-2],"split_indices":[10,10,10,10,10,10,10,10,10,10,12,12,11,10,6,0,0,12,7,12,12,10,23,10,12,10,7,4,4,12,26,0,0,0,0,0,0,0,0,0,0,0,0,0,0,0,0,0,0,0,0,0,0,0,0,0,0,0,0],"split_type":[0,0,0,0,0,0,0,0,0,0,0,0,0,0,0,0,0,0,0,0,0,0,0,0,0,0,0,0,0,0,0,0,0,0,0,0,0,0,0,0,0,0,0,0,0,0,0,0,0,0,0,0,0,0,0,0,0,0,0],"sum_hessian":[2.354E3,1.144E3,1.21E3,3.98E2,7.46E2,6.85E2,5.25E2,1.72E2,2.26E2,4.74E2,2.72E2,3.57E2,3.28E2,4.08E2,1.17E2,5.8E1,1.14E2,7.7E1,1.49E2,2.09E2,2.65E2,1.88E2,8.4E1,1.75E2,1.82E2,3.14E2,1.4E1,1.93E2,2.15E2,9.5E1,2.2E1,1.1E1,6.6E1,8E1,6.9E1,1.39E2,7E1,1.41E2,1.24E2,1.21E2,6.7E1,6.2E1,2.2E1,6.5E1,1.1E2,1.64E2,1.8E1,1.24E2,1.9E2,7E0,7E0,1.1E1,1.82E2,2.9E1,1.86E2,7.8E1,1.7E1,7E0,1.5E1],"tree_param":{"num_deleted":"0","num_feature":"29","num_nodes":"59","size_leaf_vector":"1"}},{"base_weights":[-1.378412E-1,-5.623763E0,5.2363453E0,-8.681609E0,-3.289024E0,3.0181556E0,8.269483E0,-1.0905851E1,-7.24277E0,-4.3855953E0,-1.5908604E0,1.7516693E0,4.3399334E0,6.880635E0,1.0634902E1,-1.2647636E-1,-1.01782426E-1,-8.456321E0,-6.6472597E0,-3.586447E0,-5.0219474E0,-6.9395566E-1,-2.655857E0,1.9739931E0,-1.346311E0,4.5175214E0,5.328776E-1,5.7892427E0,7.9622593E0,9.658253E0,1.3086657E1,-7.358321E-2,-9.609404E-2,-5.5095408E-2,-7.225066E-2,-3.4197588E-2,-5.626768E-2,-5.6302827E-2,-3.976047E-2,8.698262E-4,-1.5960509E-2,-1.5511589E-2,-3.0653145E-2,1.1917763E-2,2.6215129E-2,-1.9687178E-2,-7.9108594E-4,3.7000317E-2,5.0698802E-2,-1.3537879E-2,2.6012667E-2,2.9754959E-2,6.1440714E-2,8.367079E-2,5.7145238E-2,6.4295754E-2,1.0167411E-1,7.64412E-2,1.3529123E-1],"categories":[],"categories_nodes":[],"categories_segments":[],"categories_sizes":[],"default_left":[0,0,0,0,0,0,0,0,0,0,0,0,0,0,0,0,0,0,0,0,0,0,0,0,0,0,0,0,0,0,0,0,0,0,0,0,0,0,0,0,0,0,0,0,0,0,0,0,0,0,0,0,0,0,0,0,0,0,0],"id":7,"left_children":[1,3,5,7,9,11,13,15,17,19,21,23,25,27,29,-1,-1,31,33,35,37,39,41,43,45,47,49,51,53,55,57,-1,-1,-1,-1,-1,-1,-1,-1,-1,-1,-1,-1,-1,-1,-1,-1,-1,-1,-1,-1,-1,-1,-1,-1,-1,-1,-1,-1],"loss_changes":[6.875288E4,8.208969E3,7.899582E3,1.5161641E3,1.214E3,1.1334663E3,1.5578203E3,1.1485156E2,1.634209E2,1.8352686E2,2.4521887E2,2.4378455E2,2.2222412E2,3.2555957E2,3.071328E2,0E0,0E0,5.0404297E1,9.696973E1,4.1070557E1,1.1599414E2,1.00326E2,4.8158142E1,1.6212012E2,1.8568645E1,1.2395654E2,6.6084045E1,1.4154785E2,9.272656E1,1.5325098E2,1.2463867E1,0E0,0E0,0E0,0E0,0E0,0E0,0E0,0E0,0E0,0E0,0E0,0E0,0E0,0E0,0E0,0E0,0E0,0E0,0E0,0E0,0E0,0E0,0E0,0E0,0E0,0E0,0E0,0E0],"parents":[2147483647,0,0,1,1,2,2,3,3,4,4,5,5,6,6,7,7,8,8,9,9,10,10,11,11,12,12,13,13,14,14,17,17,18,18,19,19,20,20,21,21,22,22,23,23,24,24,25,25,26,26,27,27,28,28,29,29,30,30],"right_children":[2,4,6,8,10,12,14,16,18,20,22,24,26,28,30,-1,-1,32,34,36,38,40,42,44,46,48,50,52,54,56,58,-1,-1,-1,-1,-1,-1,-1,-1,-1,-1,-1,-1,-1,-1,-1,-1,-1,-1,-1,-1,-1,-1,-1,-1,-1,-1,-1,-1],"split_conditions":[1.47E1,8.5E0,2.09E1,4.6E0,1.2E1,1.81E1,1.91E1,1.1E0,2.8E0,6.3921165E-1,3.38313E-1,4.9440297E-1,9.3957E-1,1.0171E0,1.22E1,-1.2647636E-1,-1.01782426E-1,7.93844E-1,7.697177E-1,1.8E1,5.5E0,5.3E0,-8.1491596E-1,1.65E1,8.6E-1,1.93E1,1.09E1,1.0065E0,1.4E1,1.0099E0,8E0,-7.358321E-2,-9.609404E-2,-5.5095408E-2,-7.225066E-2,-3.4197588E-2,-5.626768E-2,-5.6302827E-2,-3.976047E-2,8.698262E-4,-1.5960509E-2,-1.5511589E-2,-3.0653145E-2,1.1917763E-2,2.6215129E-2,-1.9687178E-2,-7.9108594E-4,3.7000317E-2,5.0698802E-2,-1.3537879E-2,2.6012667E-2,2.9754959E-2,6.1440714E-2,8.367079E-2,5.7145238E-2,6.4295754E-2,1.0167411E-1,7.64412E-2,1.3529123E-1],"split_indices":[10,10,10,10,10,10,8,10,8,12,12,12,11,4,7,0,0,12,12,2,9,7,11,10,3,10,7,4,16,4,23,0,0,0,0,0,0,0,0,0,0,0,0,0,0,0,0,0,0,0,0,0,0,0,0,0,0,0,0],"split_type":[0,0,0,0,0,0,0,0,0,0,0,0,0,0,0,0,0,0,0,0,0,0,0,0,0,0,0,0,0,0,0,0,0,0,0,0,0,0,0,0,0,0,0,0,0,0,0,0,0,0,0,0,0,0,0,0,0,0,0],"sum_hessian":[2.33E3,1.153E3,1.177E3,4.98E2,6.55E2,6.81E2,4.96E2,1.93E2,3.05E2,3.97E2,2.58E2,3.49E2,3.32E2,3.15E2,1.81E2,5.2E1,1.41E2,9.6E1,2.09E2,1.79E2,2.18E2,1.41E2,1.17E2,3.26E2,2.3E1,3.17E2,1.5E1,1.6E2,1.55E2,1.33E2,4.8E1,5.3E1,4.3E1,7.4E1,1.35E2,1.68E2,1.1E1,1.35E2,8.3E1,7.6E1,6.5E1,3.3E1,8.4E1,1.49E2,1.77E2,1.5E1,8E0,1.31E2,1.86E2,8E0,7E0,1.9E1,1.41E2,1.29E2,2.6E1,2E1,1.13E2,5E0,4.3E1],"tree_param":{"num_deleted":"0","num_feature":"29","num_nodes":"59","size_leaf_vector":"1"}},{"base_weights":[-4.6330925E-2,-5.783109E0,5.03839E0,-8.6661825E0,-3.4340994E0,2.6443534E0,8.216092E0,-1.0261567E1,-6.8454003E0,-4.3005614E0,-1.7962017E0,7.58911E-1,3.5316799E0,7.4815264E0,1.2660504E1,-1.2273851E-1,-9.572163E0,-5.537652E0,-7.091044E0,-3.5604792E0,-4.9340925E0,1.7722453E-1,-2.2505596E0,1.0462255E0,-1.5774546E0,2.9209783E0,4.7611213E0,6.01249E0,8.375792E0,1.3378227E-1,7.888894E-2,-6.969892E-2,-9.764198E-2,-6.739793E-2,-4.660994E-2,-3.6796212E-2,-7.162814E-2,-6.199214E-3,-3.7253395E-2,-5.3626735E-2,-3.3916827E-2,-5.6093098E-3,2.1833556E-2,5.351957E-3,-2.3920488E-2,5.024473E-3,1.8443853E-2,-3.8184945E-2,-8.212699E-3,3.4942795E-2,1.9484065E-2,4.6113865E-3,4.989761E-2,4.8991483E-2,7.081167E-2,6.3845806E-2,9.102714E-2],"categories":[],"categories_nodes":[],"categories_segments":[],"categories_sizes":[],"default_left":[0,0,0,0,0,0,0,0,0,0,0,0,0,0,0,0,0,0,0,0,0,0,0,0,0,0,0,0,0,0,0,0,0,0,0,0,0,0,0,0,0,0,0,0,0,0,0,0,0,0,0,0,0,0,0,0,0],"id":8,"left_children":[1,3,5,7,9,11,13,15,17,19,21,23,25,27,29,-1,31,33,35,37,39,41,43,45,47,49,51,53,55,-1,-1,-1,-1,-1,-1,-1,-1,-1,-1,-1,-1,-1,-1,-1,-1,-1,-1,-1,-1,-1,-1,-1,-1,-1,-1,-1,-1],"loss_changes":[6.729504E4,7.3102812E3,9.281205E3,1.3398008E3,8.4175195E2,1.1663203E3,1.6172422E3,2.3685742E2,3.3354492E1,1.6490967E2,1.8800433E2,1.5263339E2,3.4196484E2,5.4331055E2,1.4233594E2,0E0,2.821875E1,1.0654419E1,1.9078125E1,8.645557E1,1.1843408E2,6.0620426E1,6.8472046E1,8.607703E1,3.8766018E1,1.7107178E2,1.5052466E2,1.7232568E2,3.4417383E2,0E0,0E0,0E0,0E0,0E0,0E0,0E0,0E0,0E0,0E0,0E0,0E0,0E0,0E0,0E0,0E0,0E0,0E0,0E0,0E0,0E0,0E0,0E0,0E0,0E0,0E0,0E0,0E0],"parents":[2147483647,0,0,1,1,2,2,3,3,4,4,5,5,6,6,7,7,8,8,9,9,10,10,11,11,12,12,13,13,14,14,16,16,17,17,18,18,19,19,20,20,21,21,22,22,23,23,24,24,25,25,26,26,27,27,28,28],"right_children":[2,4,6,8,10,12,14,16,18,20,22,24,26,28,30,-1,32,34,36,38,40,42,44,46,48,50,52,54,56,-1,-1,-1,-1,-1,-1,-1,-1,-1,-1,-1,-1,-1,-1,-1,-1,-1,-1,-1,-1,-1,-1,-1,-1,-1,-1,-1,-1],"split_conditions":[1.41E1,8.4E0,2.08E1,5.6E0,1.2E1,1.66E1,2.12E1,1.7E0,-4.990686E-1,6.6528654E-1,-1.8281692E-1,4.9440297E-1,1.94E1,1.73E1,1E-2,-1.2273851E-1,4.6801534E-1,3.5E0,-1.1905873E-1,-3.2003924E-1,8.5E0,1.05E1,-9.8787266E-1,1.0172E0,5E0,-2.9959476E-1,1.0028E0,1.0173E0,1.0129E0,1.3378227E-1,7.888894E-2,-6.969892E-2,-9.764198E-2,-6.739793E-2,-4.660994E-2,-3.6796212E-2,-7.162814E-2,-6.199214E-3,-3.7253395E-2,-5.3626735E-2,-3.3916827E-2,-5.6093098E-3,2.1833556E-2,5.351957E-3,-2.3920488E-2,5.024473E-3,1.8443853E-2,-3.8184945E-2,-8.212699E-3,3.4942795E-2,1.9484065E-2,4.6113865E-3,4.989761E-2,4.8991483E-2,7.081167E-2,6.3845806E-2,9.102714E-2],"split_indices":[10,10,10,10,10,10,8,10,11,12,12,12,10,8,6,0,12,8,12,12,8,8,11,4,16,12,4,4,4,0,0,0,0,0,0,0,0,0,0,0,0,0,0,0,0,0,0,0,0,0,0,0,0,0,0,0,0],"split_type":[0,0,0,0,0,0,0,0,0,0,0,0,0,0,0,0,0,0,0,0,0,0,0,0,0,0,0,0,0,0,0,0,0,0,0,0,0,0,0,0,0,0,0,0,0,0,0,0,0,0,0,0,0,0,0,0,0],"sum_hessian":[2.305E3,1.083E3,1.222E3,4.85E2,5.98E2,6.98E2,5.24E2,2.56E2,2.29E2,3.9E2,2.08E2,2.24E2,4.74E2,4.52E2,7.2E1,6.1E1,1.95E2,4E1,1.89E2,1.83E2,2.07E2,3.9E1,1.69E2,2E2,2.4E1,3.19E2,1.55E2,1.74E2,2.78E2,6.1E1,1.1E1,1.6E1,1.79E2,1.4E1,2.6E1,5E0,1.84E2,1E1,1.73E2,1.6E2,4.7E1,2.9E1,1E1,8E0,1.61E2,1.2E2,8E1,5E0,1.9E1,1.99E2,1.2E2,8E0,1.47E2,8.8E1,8.6E1,7.7E1,2.01E2],"tree_param":{"num_deleted":"0","num_feature":"29","num_nodes":"57","size_leaf_vector":"1"}},{"base_weights":[2.2214869E-2,-5.546079E0,4.764026E0,-9.699112E0,-3.992691E0,2.627595E0,8.102353E0,-1.154553E-1,-8.949319E0,-2.3904111E0,-5.5529037E0,1.2354146E0,4.2226386E0,6.7372923E0,1.0382308E1,-8.032367E0,-9.885429E-2,-3.7961514E0,-1.2949953E0,-6.375238E0,-4.404165E0,2.0112064E0,-8.319934E-1,6.2439694E0,3.6400805E0,8.889716E0,6.226913E0,9.152523E0,1.2459459E-1,-8.516076E-2,-6.390777E-2,-2.0737426E-2,-4.3893375E-2,-1.975694E-2,4.635364E-3,-4.9414877E-2,-6.771591E-2,-4.78014E-2,-2.8586963E-2,2.3762733E-2,3.437432E-3,4.5726276E-3,-1.8680766E-2,7.004002E-2,5.006749E-2,4.6975058E-2,3.2184538E-2,6.635683E-2,9.391199E-2,5.5030327E-2,6.7970194E-2,9.770241E-2,6.659265E-2],"categories":[],"categories_nodes":[],"categories_segments":[],"categories_sizes":[],"default_left":[0,0,0,0,0,0,0,0,0,0,0,0,0,0,0,0,0,0,0,0,0,0,0,0,0,0,0,0,0,0,0,0,0,0,0,0,0,0,0,0,0,0,0,0,0,0,0,0,0,0,0,0,0],"id":9,"left_children":[1,3,5,7,9,11,13,-1,15,17,19,21,23,25,27,29,-1,31,33,35,37,39,41,43,45,47,49,51,-1,-1,-1,-1,-1,-1,-1,-1,-1,-1,-1,-1,-1,-1,-1,-1,-1,-1,-1,-1,-1,-1,-1,-1,-1],"loss_changes":[6.257695E4,6.991789E3,9.106734E3,3.0441602E2,1.9733506E3,1.7307378E3,1.4813672E3,0E0,1.0335547E2,6.012837E2,3.5059375E2,6.738163E2,4.049087E2,2.8917773E2,3.5637695E2,3.460742E1,0E0,1.659851E2,2.6800482E2,9.720703E1,8.493213E1,1.8457568E2,1.5460962E2,3.8957764E1,1.11153564E2,1.6411133E0,6.783887E1,1.1811035E2,0E0,0E0,0E0,0E0,0E0,0E0,0E0,0E0,0E0,0E0,0E0,0E0,0E0,0E0,0E0,0E0,0E0,0E0,0E0,0E0,0E0,0E0,0E0,0E0,0E0],"parents":[2147483647,0,0,1,1,2,2,3,3,4,4,5,5,6,6,8,8,9,9,10,10,11,11,12,12,13,13,14,14,15,15,17,17,18,18,19,19,20,20,21,21,22,22,23,23,24,24,25,25,26,26,27,27],"right_children":[2,4,6,8,10,12,14,-1,16,18,20,22,24,26,28,30,-1,32,34,36,38,40,42,44,46,48,50,52,-1,-1,-1,-1,-1,-1,-1,-1,-1,-1,-1,-1,-1,-1,-1,-1,-1,-1,-1,-1,-1,-1,-1,-1,-1],"split_conditions":[1.03E1,3.2E0,1.63E1,-5E-1,6.123802E-1,1.37E1,1.91E1,-1.154553E-1,8.5227484E-1,7.6E0,7E0,1.9337648E-1,4E0,3E0,2.15E1,1.48E2,-9.885429E-2,4E0,1.45E0,-4.990686E-1,9.4E0,9.3957E-1,-8.425721E-1,9E0,2.5E0,1.71E1,1.73E1,6E0,1.2459459E-1,-8.516076E-2,-6.390777E-2,-2.0737426E-2,-4.3893375E-2,-1.975694E-2,4.635364E-3,-4.9414877E-2,-6.771591E-2,-4.78014E-2,-2.8586963E-2,2.3762733E-2,3.437432E-3,4.5726276E-3,-1.8680766E-2,7.004002E-2,5.006749E-2,4.6975058E-2,3.2184538E-2,6.635683E-2,9.391199E-2,5.5030327E-2,6.7970194E-2,9.770241E-2,6.659265E-2],"split_indices":[8,8,8,8,12,8,8,0,12,8,8,12,0,0,8,24,0,0,5,11,8,11,11,2,1,8,8,0,0,0,0,0,0,0,0,0,0,0,0,0,0,0,0,0,0,0,0,0,0,0,0,0,0],"split_type":[0,0,0,0,0,0,0,0,0,0,0,0,0,0,0,0,0,0,0,0,0,0,0,0,0,0,0,0,0,0,0,0,0,0,0,0,0,0,0,0,0,0,0,0,0,0,0,0,0,0,0,0,0],"sum_hessian":[2.368E3,1.089E3,1.279E3,2.95E2,7.94E2,7.81E2,4.98E2,8.1E1,2.14E2,3.93E2,4.01E2,4.18E2,3.63E2,3.14E2,1.84E2,1.13E2,1.01E2,1.71E2,2.22E2,2.31E2,1.7E2,3.04E2,1.14E2,7.9E1,2.84E2,5.7E1,2.57E2,1.19E2,6.5E1,8.4E1,2.9E1,4.5E1,1.26E2,1.6E2,6.2E1,5.3E1,1.78E2,1.35E2,3.5E1,2.49E2,5.5E1,5.1E1,6.3E1,4.6E1,3.3E1,7.8E1,2.06E2,1.3E1,4.4E1,1.18E2,1.39E2,9.3E1,2.6E1],"tree_param":{"num_deleted":"0","num_feature":"29","num_nodes":"53","size_leaf_vector":"1"}},{"base_weights":[1.20202815E-2,-5.426997E0,5.123952E0,-8.444061E0,-3.1603012E0,2.883996E0,7.9757137E0,-1.0598409E1,-7.1474423E0,-4.110572E0,-1.4546025E0,1.8380483E0,4.0774693E0,6.6952343E0,1.0204376E1,-1.2006933E-1,-9.7864896E-2,-7.9160542E0,-6.260752E0,-3.2741137E0,-4.69946E0,-3.2343933E-1,-2.2083776E0,2.0589812E0,-1.4842719E0,4.5363874E0,2.9589643E0,5.989597E0,7.632931E0,1.0818687E1,5.9095445E0,-5.9072588E-2,-8.178209E-2,-5.4131392E-2,-6.9896504E-2,-3.6686085E-2,-2.3023691E-2,-5.1516578E-2,-3.9906465E-2,2.5672917E-3,-1.7037196E-2,2.7883577E-3,-2.3631603E-2,2.636426E-2,1.4441806E-2,-6.9429325E-3,-2.2738583E-2,3.7888702E-2,5.4107375E-2,3.5626493E-2,1.2392251E-2,6.632776E-2,4.7533527E-2,5.54007E-2,7.972451E-2,9.437919E-2,1.23101406E-1,4.4673156E-2,7.000441E-2],"categories":[],"categories_nodes":[],"categories_segments":[],"categories_sizes":[],"default_left":[0,0,0,0,0,0,0,0,0,0,0,0,0,0,0,0,0,0,0,0,0,0,0,0,0,0,0,0,0,0,0,0,0,0,0,0,0,0,0,0,0,0,0,0,0,0,0,0,0,0,0,0,0,0,0,0,0,0,0],"id":10,"left_children":[1,3,5,7,9,11,13,15,17,19,21,23,25,27,29,-1,-1,31,33,35,37,39,41,43,45,47,49,51,53,55,57,-1,-1,-1,-1,-1,-1,-1,-1,-1,-1,-1,-1,-1,-1,-1,-1,-1,-1,-1,-1,-1,-1,-1,-1,-1,-1,-1,-1],"loss_changes":[6.4560598E4,7.6657695E3,7.6221367E3,1.2688789E3,1.0373081E3,8.307783E2,1.4310664E3,8.501953E1,1.5620508E2,1.8725146E2,1.9684558E2,2.6735706E2,1.4649072E2,1.759043E2,4.356836E2,0E0,0E0,3.401367E1,5.1125977E1,5.7658936E1,5.5452637E1,7.585685E1,5.4379272E1,1.1577881E2,1.247086E1,1.2236963E2,9.269385E1,1.23973145E2,5.4671875E1,2.214375E2,8.486511E0,0E0,0E0,0E0,0E0,0E0,0E0,0E0,0E0,0E0,0E0,0E0,0E0,0E0,0E0,0E0,0E0,0E0,0E0,0E0,0E0,0E0,0E0,0E0,0E0,0E0,0E0,0E0,0E0],"parents":[2147483647,0,0,1,1,2,2,3,3,4,4,5,5,6,6,7,7,8,8,9,9,10,10,11,11,12,12,13,13,14,14,17,17,18,18,19,19,20,20,21,21,22,22,23,23,24,24,25,25,26,26,27,27,28,28,29,29,30,30],"right_children":[2,4,6,8,10,12,14,16,18,20,22,24,26,28,30,-1,-1,32,34,36,38,40,42,44,46,48,50,52,54,56,58,-1,-1,-1,-1,-1,-1,-1,-1,-1,-1,-1,-1,-1,-1,-1,-1,-1,-1,-1,-1,-1,-1,-1,-1,-1,-1,-1,-1],"split_conditions":[1.47E1,8.5E0,2.08E1,4.4E0,1.23E1,1.81E1,2.5E1,1.4E0,6.9E0,5.986907E-1,1.4250833E-1,4.6801534E-1,-3.8044736E-1,2.3E1,7E-2,-1.2006933E-1,-9.7864896E-2,-8.660254E-1,8.041872E-1,5E0,1.04E1,6.3E0,1.8E1,-2.9959476E-1,4.3E1,1.0153E0,-2.5881904E-1,-5.760691E-1,1.0087E0,2.77E1,3.1E1,-5.9072588E-2,-8.178209E-2,-5.4131392E-2,-6.9896504E-2,-3.6686085E-2,-2.3023691E-2,-5.1516578E-2,-3.9906465E-2,2.5672917E-3,-1.7037196E-2,2.7883577E-3,-2.3631603E-2,2.636426E-2,1.4441806E-2,-6.9429325E-3,-2.2738583E-2,3.7888702E-2,5.4107375E-2,3.5626493E-2,1.2392251E-2,6.632776E-2,4.7533527E-2,5.54007E-2,7.972451E-2,9.437919E-2,1.23101406E-1,4.4673156E-2,7.000441E-2],"split_indices":[10,10,10,10,10,10,10,10,10,12,12,12,12,10,6,0,0,17,12,15,10,7,24,12,22,4,18,12,4,10,23,0,0,0,0,0,0,0,0,0,0,0,0,0,0,0,0,0,0,0,0,0,0,0,0,0,0,0,0],"split_type":[0,0,0,0,0,0,0,0,0,0,0,0,0,0,0,0,0,0,0,0,0,0,0,0,0,0,0,0,0,0,0,0,0,0,0,0,0,0,0,0,0,0,0,0,0,0,0,0,0,0,0,0,0,0,0,0,0,0,0],"sum_hessian":[2.32E3,1.124E3,1.196E3,4.81E2,6.43E2,6.71E2,5.25E2,1.78E2,3.03E2,4.12E2,2.31E2,3.59E2,3.12E2,3.36E2,1.89E2,6E1,1.18E2,1.58E2,1.45E2,1.73E2,2.39E2,9.3E1,1.38E2,3.37E2,2.2E1,2.19E2,9.3E1,1.96E2,1.4E2,1.64E2,2.5E1,2.1E1,1.37E2,7.1E1,7.4E1,1.21E2,5.2E1,1.42E2,9.7E1,6.6E1,2.7E1,8E0,1.3E2,1.72E2,1.65E2,1.2E1,1E1,1.21E2,9.8E1,6.8E1,2.5E1,1.26E2,7E1,2.2E1,1.18E2,8.9E1,7.5E1,1.3E1,1.2E1],"tree_param":{"num_deleted":"0","num_feature":"29","num_nodes":"59","size_leaf_vector":"1"}},{"base_weights":[2.0280926E-2,-5.630684E0,4.7974935E0,-8.437836E0,-3.384769E0,2.577587E0,7.949229E0,-1.0624609E1,-7.069045E0,-4.182962E0,-1.7908884E0,1.0015976E0,3.6281328E0,7.0844197E0,1.1473683E1,-1.21119395E-1,-9.8666534E-2,-8.20464E0,-6.376194E0,-4.910079E0,-3.6434276E0,-4.3620715E-1,-2.3068194E0,-3.194243E-2,1.623523E0,2.8380592E0,4.521337E0,5.7108307E0,8.022689E0,1.2091375E1,6.307077E-2,-5.0807085E-2,-8.467858E-2,-4.8277862E-2,-6.6373535E-2,-5.105996E-2,-3.300086E-2,-6.8319747E-3,-3.7451994E-2,-1.1463738E-2,1.8197602E-2,-3.6530353E-2,-1.9112915E-2,2.38672E-3,-3.226741E-2,2.1361878E-2,6.419883E-3,2.9614262E-2,6.190752E-3,4.727042E-2,2.210231E-2,4.3985203E-2,7.001602E-2,5.9491362E-2,8.8437065E-2,7.730381E-2,1.2421346E-1],"categories":[],"categories_nodes":[],"categories_segments":[],"categories_sizes":[],"default_left":[0,0,0,0,0,0,0,0,0,0,0,0,0,0,0,0,0,0,0,0,0,0,0,0,0,0,0,0,0,0,0,0,0,0,0,0,0,0,0,0,0,0,0,0,0,0,0,0,0,0,0,0,0,0,0,0,0],"id":11,"left_children":[1,3,5,7,9,11,13,15,17,19,21,23,25,27,29,-1,-1,31,33,35,37,39,41,43,45,47,49,51,53,55,-1,-1,-1,-1,-1,-1,-1,-1,-1,-1,-1,-1,-1,-1,-1,-1,-1,-1,-1,-1,-1,-1,-1,-1,-1,-1,-1],"loss_changes":[6.3467207E4,6.760336E3,8.89207E3,1.3538906E3,7.552461E2,1.2359844E3,1.5200977E3,8.347266E1,1.7990625E2,1.3778467E2,1.399018E2,1.9368921E2,3.0329053E2,5.0054883E2,2.4741797E2,0E0,0E0,4.5250977E1,4.3237793E1,3.4985107E1,6.719409E1,9.3339226E1,7.020166E1,9.962862E1,9.295212E1,6.378235E1,8.821875E1,2.6618848E2,3.7151367E2,3.1472656E1,0E0,0E0,0E0,0E0,0E0,0E0,0E0,0E0,0E0,0E0,0E0,0E0,0E0,0E0,0E0,0E0,0E0,0E0,0E0,0E0,0E0,0E0,0E0,0E0,0E0,0E0,0E0],"parents":[2147483647,0,0,1,1,2,2,3,3,4,4,5,5,6,6,7,7,8,8,9,9,10,10,11,11,12,12,13,13,14,14,17,17,18,18,19,19,20,20,21,21,22,22,23,23,24,24,25,25,26,26,27,27,28,28,29,29],"right_children":[2,4,6,8,10,12,14,16,18,20,22,24,26,28,30,-1,-1,32,34,36,38,40,42,44,46,48,50,52,54,56,-1,-1,-1,-1,-1,-1,-1,-1,-1,-1,-1,-1,-1,-1,-1,-1,-1,-1,-1,-1,-1,-1,-1,-1,-1,-1,-1],"split_conditions":[1.4E1,8.5E0,2.08E1,4.6E0,1.2E1,1.7E1,2.06E1,1.4E0,3.2E0,9.9E0,6.123234E-17,1.53E1,1.91E1,1.73E1,5E-2,-1.21119395E-1,-9.8666534E-2,-6.9135123E-1,-5.1205516E-1,9.6550715E-1,-5E-1,1.05E1,1.0054E0,1.8E1,1.5E1,5.2E0,1.4E1,1.0175E0,1.0128E0,-8.2354724E-1,6.307077E-2,-5.0807085E-2,-8.467858E-2,-4.8277862E-2,-6.6373535E-2,-5.105996E-2,-3.300086E-2,-6.8319747E-3,-3.7451994E-2,-1.1463738E-2,1.8197602E-2,-3.6530353E-2,-1.9112915E-2,2.38672E-3,-3.226741E-2,2.1361878E-2,6.419883E-3,2.9614262E-2,6.190752E-3,4.727042E-2,2.210231E-2,4.3985203E-2,7.001602E-2,5.9491362E-2,8.8437065E-2,7.730381E-2,1.2421346E-1],"split_indices":[10,10,10,10,10,10,8,10,8,10,14,10,10,8,6,0,0,11,11,11,14,8,4,15,15,1,2,4,4,11,0,0,0,0,0,0,0,0,0,0,0,0,0,0,0,0,0,0,0,0,0,0,0,0,0,0,0],"split_type":[0,0,0,0,0,0,0,0,0,0,0,0,0,0,0,0,0,0,0,0,0,0,0,0,0,0,0,0,0,0,0,0,0,0,0,0,0,0,0,0,0,0,0,0,0,0,0,0,0,0,0,0,0,0,0,0,0],"sum_hessian":[2.349E3,1.076E3,1.273E3,4.77E2,5.99E2,7.48E2,5.25E2,1.81E2,2.96E2,3.98E2,2.01E2,3E2,4.48E2,4.24E2,1.01E2,5.6E1,1.25E2,1.08E2,1.88E2,1.66E2,2.32E2,5.6E1,1.45E2,1.13E2,1.87E2,2.4E2,2.08E2,1.75E2,2.49E2,8.9E1,1.2E1,1E1,9.8E1,3E1,1.58E2,1.46E2,2E1,8E0,2.24E2,4.3E1,1.3E1,3.1E1,1.14E2,1.05E2,8E0,1.22E2,6.5E1,2.27E2,1.3E1,1.9E2,1.8E1,8.9E1,8.6E1,7.3E1,1.76E2,8E0,8.1E1],"tree_param":{"num_deleted":"0","num_feature":"29","num_nodes":"57","size_leaf_vector":"1"}},{"base_weights":[-1.4231699E-2,-5.324719E0,4.974203E0,-8.288374E0,-3.1970377E0,2.7314408E0,7.7546334E0,-1.0528638E1,-7.0833693E0,-4.2089095E0,-1.6137578E0,1.3742999E0,3.5818505E0,6.3725038E0,9.794509E0,-1.1653791E-1,-9.68254E-2,-8.239569E0,-6.476293E0,-4.7876077E0,-3.4753191E0,-4.5294785E-1,-2.167787E0,9.916969E-1,2.1446674E0,2.7046108E0,4.1320653E0,5.5862617E0,7.208941E0,1.0328501E1,6.288606E0,-4.6929922E-2,-8.528145E-2,-6.632528E-2,-4.8493728E-2,-5.057172E-2,-3.471792E-2,-3.7890833E-2,-2.1035165E-2,4.438978E-3,-1.9553453E-2,-9.215524E-3,-2.6443262E-2,1.325053E-2,5.3513126E-4,2.3921229E-2,3.9538517E-4,1.814544E-2,3.538766E-2,4.503116E-2,3.2219876E-2,6.607852E-2,4.7377508E-2,7.8533776E-2,6.23895E-2,8.983321E-2,1.1771402E-1,3.5519682E-2,6.9346264E-2],"categories":[],"categories_nodes":[],"categories_segments":[],"categories_sizes":[],"default_left":[0,0,0,0,0,0,0,0,0,0,0,0,0,0,0,0,0,0,0,0,0,0,0,0,0,0,0,0,0,0,0,0,0,0,0,0,0,0,0,0,0,0,0,0,0,0,0,0,0,0,0,0,0,0,0,0,0,0,0],"id":12,"left_children":[1,3,5,7,9,11,13,15,17,19,21,23,25,27,29,-1,-1,31,33,35,37,39,41,43,45,47,49,51,53,55,57,-1,-1,-1,-1,-1,-1,-1,-1,-1,-1,-1,-1,-1,-1,-1,-1,-1,-1,-1,-1,-1,-1,-1,-1,-1,-1,-1,-1],"loss_changes":[6.1856562E4,7.1041133E3,7.4857305E3,1.1978379E3,1.0499956E3,7.655376E2,1.4499688E3,4.0203125E1,1.6275488E2,1.5319531E2,1.653247E2,7.389847E1,1.8603613E2,1.7086816E2,3.3589258E2,0E0,0E0,6.407129E1,1.9558594E1,6.033252E1,6.9346924E1,1.155497E2,1.011355E2,5.452237E1,4.3940918E1,1.1257849E2,6.913965E1,1.1578662E2,4.5234375E1,2.5125586E2,2.912561E1,0E0,0E0,0E0,0E0,0E0,0E0,0E0,0E0,0E0,0E0,0E0,0E0,0E0,0E0,0E0,0E0,0E0,0E0,0E0,0E0,0E0,0E0,0E0,0E0,0E0,0E0,0E0,0E0],"parents":[2147483647,0,0,1,1,2,2,3,3,4,4,5,5,6,6,7,7,8,8,9,9,10,10,11,11,12,12,13,13,14,14,17,17,18,18,19,19,20,20,21,21,22,22,23,23,24,24,25,25,26,26,27,27,28,28,29,29,30,30],"right_children":[2,4,6,8,10,12,14,16,18,20,22,24,26,28,30,-1,-1,32,34,36,38,40,42,44,46,48,50,52,54,56,58,-1,-1,-1,-1,-1,-1,-1,-1,-1,-1,-1,-1,-1,-1,-1,-1,-1,-1,-1,-1,-1,-1,-1,-1,-1,-1,-1,-1],"split_conditions":[1.46E1,8.4E0,2.05E1,4.4E0,1.2E1,1.72E1,2.46E1,1.7E0,2.8E0,1.04E1,6.123234E-17,1.65E1,1.4E1,1.71E1,1.2E-1,-1.1653791E-1,-9.68254E-2,-6.115299E-1,9.431965E-1,7.8E0,1.07E0,5.3E0,3E0,1.3E1,1.7E1,1.63E0,-1.8369701E-16,2.4E0,1E1,2.06E1,-6.8979603E-1,-4.6929922E-2,-8.528145E-2,-6.632528E-2,-4.8493728E-2,-5.057172E-2,-3.471792E-2,-3.7890833E-2,-2.1035165E-2,4.438978E-3,-1.9553453E-2,-9.215524E-3,-2.6443262E-2,1.325053E-2,5.3513126E-4,2.3921229E-2,3.9538517E-4,1.814544E-2,3.538766E-2,4.503116E-2,3.2219876E-2,6.607852E-2,4.7377508E-2,7.8533776E-2,6.23895E-2,8.983321E-2,1.1771402E-1,3.5519682E-2,6.9346264E-2],"split_indices":[10,10,10,10,10,10,10,10,8,10,14,10,8,8,6,0,0,11,11,8,5,7,19,2,15,5,14,1,2,8,11,0,0,0,0,0,0,0,0,0,0,0,0,0,0,0,0,0,0,0,0,0,0,0,0,0,0,0,0],"split_type":[0,0,0,0,0,0,0,0,0,0,0,0,0,0,0,0,0,0,0,0,0,0,0,0,0,0,0,0,0,0,0,0,0,0,0,0,0,0,0,0,0,0,0,0,0,0,0,0,0,0,0,0,0,0,0,0,0,0,0],"sum_hessian":[2.333E3,1.13E3,1.203E3,4.71E2,6.59E2,6.67E2,5.36E2,1.62E2,3.09E2,4.01E2,2.58E2,2.58E2,4.09E2,3.22E2,2.14E2,6.4E1,9.8E1,1.02E2,2.07E2,2.21E2,1.8E2,8.4E1,1.74E2,1.74E2,8.4E1,1.6E2,2.49E2,1.7E2,1.52E2,1.84E2,3E1,9E0,9.3E1,1.86E2,2.1E1,1.81E2,4E1,1.45E2,3.5E1,5.3E1,3.1E1,4.9E1,1.25E2,1.28E2,4.6E1,7.5E1,9E0,7.9E1,8.1E1,1.74E2,7.5E1,7.4E1,9.6E1,8.7E1,6.5E1,9.9E1,8.5E1,7E0,2.3E1],"tree_param":{"num_deleted":"0","num_feature":"29","num_nodes":"59","size_leaf_vector":"1"}},{"base_weights":[-1.0057999E-1,-5.161006E0,5.0251703E0,-8.130556E0,-2.9556804E0,2.903765E0,7.8180757E0,-9.699884E0,-6.502963E0,-4.1339655E0,-1.3102576E0,2.1075525E0,4.5263777E0,6.914015E0,1.0967836E1,-1.1710607E-1,-9.041256E0,-4.9242873E0,-6.71261E0,-4.739789E0,-3.5575843E0,-1.1496393E-1,-1.9291265E0,1.6655122E0,3.4257329E0,3.3520565E0,5.1475964E0,5.710799E0,7.7904854E0,8.784092E0,1.2515185E1,-9.472837E-2,-7.856783E-2,-6.1454434E-2,-3.8182635E-2,-3.8700137E-2,-6.81652E-2,-4.935182E-2,-3.3211622E-2,-3.3304724E-3,-3.652155E-2,7.2951093E-3,-9.094704E-3,-2.1211257E-2,1.0975346E-3,2.0027995E-2,1.260375E-4,2.519761E-2,3.8800817E-2,-4.7953508E-4,3.5869606E-2,5.383286E-2,3.3580326E-2,4.1533723E-2,6.424879E-2,7.0244126E-2,9.106385E-2,6.693011E-2,1.0372625E-1,1.07308365E-1,1.4057462E-1],"categories":[],"categories_nodes":[],"categories_segments":[],"categories_sizes":[],"default_left":[0,0,0,0,0,0,0,0,0,0,0,0,0,0,0,0,0,0,0,0,0,0,0,0,0,0,0,0,0,0,0,0,0,0,0,0,0,0,0,0,0,0,0,0,0,0,0,0,0,0,0,0,0,0,0,0,0,0,0,0,0],"id":13,"left_children":[1,3,5,7,9,11,13,15,17,19,21,23,25,27,29,-1,31,33,35,37,39,41,43,45,47,49,51,53,55,57,59,-1,-1,-1,-1,-1,-1,-1,-1,-1,-1,-1,-1,-1,-1,-1,-1,-1,-1,-1,-1,-1,-1,-1,-1,-1,-1,-1,-1,-1,-1],"loss_changes":[6.067012E4,7.68283E3,6.8609414E3,1.2149688E3,1.3065913E3,8.4506396E2,1.3490137E3,2.2709961E2,4.8191406E1,1.1988721E2,2.0965717E2,2.5366467E2,1.4019873E2,3.6755664E2,2.5962598E2,0E0,2.3524414E1,2.0109497E1,3.6648438E1,3.5172363E1,6.12041E1,6.643366E1,7.363757E1,1.8709497E2,3.527368E1,6.2822693E1,4.009839E1,1.6020654E2,1.6022852E2,9.163574E1,1.7293945E1,0E0,0E0,0E0,0E0,0E0,0E0,0E0,0E0,0E0,0E0,0E0,0E0,0E0,0E0,0E0,0E0,0E0,0E0,0E0,0E0,0E0,0E0,0E0,0E0,0E0,0E0,0E0,0E0,0E0,0E0],"parents":[2147483647,0,0,1,1,2,2,3,3,4,4,5,5,6,6,7,7,8,8,9,9,10,10,11,11,12,12,13,13,14,14,16,16,17,17,18,18,19,19,20,20,21,21,22,22,23,23,24,24,25,25,26,26,27,27,28,28,29,29,30,30],"right_children":[2,4,6,8,10,12,14,16,18,20,22,24,26,28,30,-1,32,34,36,38,40,42,44,46,48,50,52,54,56,58,60,-1,-1,-1,-1,-1,-1,-1,-1,-1,-1,-1,-1,-1,-1,-1,-1,-1,-1,-1,-1,-1,-1,-1,-1,-1,-1,-1,-1,-1,-1],"split_conditions":[1.49E1,8.5E0,2.09E1,5.6E0,1.2E1,1.91E1,2.66E1,1.4E0,-5.285813E-1,1.01E1,6.123234E-17,1.41E1,1.0127E0,1.0156E0,1.0157E0,-1.1710607E-1,2.1E0,3.5E0,-1.8369701E-16,9.6550715E-1,-5E-1,8.806829E-1,9.912686E-1,1.6E1,1.0106E0,9E0,6.123234E-17,1.71E1,2.41E1,2.15E1,2.91E1,-9.472837E-2,-7.856783E-2,-6.1454434E-2,-3.8182635E-2,-3.8700137E-2,-6.81652E-2,-4.935182E-2,-3.3211622E-2,-3.3304724E-3,-3.652155E-2,7.2951093E-3,-9.094704E-3,-2.1211257E-2,1.0975346E-3,2.0027995E-2,1.260375E-4,2.519761E-2,3.8800817E-2,-4.7953508E-4,3.5869606E-2,5.383286E-2,3.3580326E-2,4.1533723E-2,6.424879E-2,7.0244126E-2,9.106385E-2,6.693011E-2,1.0372625E-1,1.07308365E-1,1.4057462E-1],"split_indices":[10,10,10,10,10,10,10,10,11,10,14,8,4,4,4,0,8,8,14,11,14,11,11,15,4,22,14,8,10,8,10,0,0,0,0,0,0,0,0,0,0,0,0,0,0,0,0,0,0,0,0,0,0,0,0,0,0,0,0,0,0],"split_type":[0,0,0,0,0,0,0,0,0,0,0,0,0,0,0,0,0,0,0,0,0,0,0,0,0,0,0,0,0,0,0,0,0,0,0,0,0,0,0,0,0,0,0,0,0,0,0,0,0,0,0,0,0,0,0,0,0,0,0,0,0],"sum_hessian":[2.337E3,1.176E3,1.161E3,5E2,6.76E2,6.61E2,5E2,2.52E2,2.48E2,3.93E2,2.83E2,4.45E2,2.16E2,3.91E2,1.09E2,5.8E1,1.94E2,3.2E1,2.16E2,1.88E2,2.05E2,9.7E1,1.86E2,3.35E2,1.1E2,7.7E1,1.39E2,1.68E2,2.23E2,4.8E1,6.1E1,1.37E2,5.7E1,1.3E1,1.9E1,9E0,2.07E2,1.63E2,2.5E1,6E0,1.99E2,4.7E1,5E1,1.7E2,1.6E1,2.78E2,5.7E1,3.9E1,7.1E1,5E0,7.2E1,1.21E2,1.8E1,5.5E1,1.13E2,1.45E2,7.8E1,2.3E1,2.5E1,3.2E1,2.9E1],"tree_param":{"num_deleted":"0","num_feature":"29","num_nodes":"61","size_leaf_vector":"1"}},{"base_weights":[-1.9506373E-2,-5.1768126E0,4.7387323E0,-8.388022E0,-3.2844102E0,2.8382194E0,8.139794E0,-9.762345E0,-6.7246146E0,-1.789264E0,-4.856645E0,1.1779532E0,4.0375333E0,7.3786917E0,1.169337E1,-1.1247003E-1,-8.864968E0,-6.9866E0,-3.4162366E0,-3.3610387E0,-9.0126497E-1,-5.409992E0,-3.4707706E0,1.877044E0,-1.3420933E0,3.0261457E0,4.8318305E0,9.366208E0,6.741805E0,1.2185115E-1,7.268512E-2,-4.4000544E-2,-9.0588406E-2,-6.2260564E-2,-7.464208E-2,-4.0697753E-2,-1.9802902E-2,-1.6490007E-2,-3.9670005E-2,-1.7578976E-3,-2.2682022E-2,-4.4159893E-2,-5.8161113E-2,-4.0113967E-2,-2.8822688E-2,3.794228E-2,1.4646593E-2,3.7822074E-3,-2.2122132E-2,3.5358034E-2,1.920854E-2,6.657573E-2,4.3691184E-2,7.129201E-2,1.0032635E-1,5.964752E-2,7.502832E-2],"categories":[],"categories_nodes":[],"categories_segments":[],"categories_sizes":[],"default_left":[0,0,0,0,0,0,0,0,0,0,0,0,0,0,0,0,0,0,0,0,0,0,0,0,0,0,0,0,0,0,0,0,0,0,0,0,0,0,0,0,0,0,0,0,0,0,0,0,0,0,0,0,0,0,0,0,0],"id":14,"left_children":[1,3,5,7,9,11,13,15,17,19,21,23,25,27,29,-1,31,33,35,37,39,41,43,45,47,49,51,53,55,-1,-1,-1,-1,-1,-1,-1,-1,-1,-1,-1,-1,-1,-1,-1,-1,-1,-1,-1,-1,-1,-1,-1,-1,-1,-1,-1,-1],"loss_changes":[5.732476E4,6.7834883E3,7.8292695E3,8.8141797E2,1.652605E3,1.5498345E3,1.0883242E3,1.9805078E2,1.4064062E2,5.0459192E2,2.4413818E2,5.8218555E2,3.4850684E2,3.9220508E2,7.267969E1,0E0,8.430957E1,1.6088867E1,6.3507996E0,1.288003E2,2.3140979E2,7.1791504E1,1.9882812E1,1.9789612E2,1.0879544E2,1.0645337E2,1.8269775E2,5.347754E1,1.17706055E2,0E0,0E0,0E0,0E0,0E0,0E0,0E0,0E0,0E0,0E0,0E0,0E0,0E0,0E0,0E0,0E0,0E0,0E0,0E0,0E0,0E0,0E0,0E0,0E0,0E0,0E0,0E0,0E0],"parents":[2147483647,0,0,1,1,2,2,3,3,4,4,5,5,6,6,7,7,8,8,9,9,10,10,11,11,12,12,13,13,14,14,16,16,17,17,18,18,19,19,20,20,21,21,22,22,23,23,24,24,25,25,26,26,27,27,28,28],"right_children":[2,4,6,8,10,12,14,16,18,20,22,24,26,28,30,-1,32,34,36,38,40,42,44,46,48,50,52,54,56,-1,-1,-1,-1,-1,-1,-1,-1,-1,-1,-1,-1,-1,-1,-1,-1,-1,-1,-1,-1,-1,-1,-1,-1,-1,-1,-1,-1],"split_conditions":[1.06E1,4.6E0,1.66E1,2.1E0,5.707842E-1,1.33E1,2.12E1,-5E-1,7.7E0,7.6E0,8.2E0,3.423569E-1,1.0138E0,3E0,3E-2,-1.1247003E-1,-6.115299E-1,7.697177E-1,9.1E0,4E0,2.4372971E-1,-4.990686E-1,9.2E0,2.1E0,-8.425721E-1,-4.0024394E-1,3E0,1.76E1,1.0152E0,1.2185115E-1,7.268512E-2,-4.4000544E-2,-9.0588406E-2,-6.2260564E-2,-7.464208E-2,-4.0697753E-2,-1.9802902E-2,-1.6490007E-2,-3.9670005E-2,-1.7578976E-3,-2.2682022E-2,-4.4159893E-2,-5.8161113E-2,-4.0113967E-2,-2.8822688E-2,3.794228E-2,1.4646593E-2,3.7822074E-3,-2.2122132E-2,3.5358034E-2,1.920854E-2,6.657573E-2,4.3691184E-2,7.129201E-2,1.0032635E-1,5.964752E-2,7.502832E-2],"split_indices":[8,8,8,8,12,8,8,8,7,8,8,12,4,0,6,0,11,12,7,0,12,11,8,1,11,12,0,8,4,0,0,0,0,0,0,0,0,0,0,0,0,0,0,0,0,0,0,0,0,0,0,0,0,0,0,0,0],"split_type":[0,0,0,0,0,0,0,0,0,0,0,0,0,0,0,0,0,0,0,0,0,0,0,0,0,0,0,0,0,0,0,0,0,0,0,0,0,0,0,0,0,0,0,0,0,0,0,0,0,0,0,0,0,0,0,0,0],"sum_hessian":[2.334E3,1.12E3,1.214E3,4.14E2,7.06E2,7.8E2,4.34E2,2.24E2,1.9E2,3.63E2,3.43E2,3.28E2,4.52E2,3.6E2,7.4E1,8E1,1.44E2,1.75E2,1.5E1,1.3E2,2.33E2,2.43E2,1E2,2.57E2,7.1E1,2.01E2,2.51E2,8.4E1,2.76E2,6.5E1,9E0,7E0,1.37E2,7.3E1,1.02E2,9E0,6E0,3.5E1,9.5E1,1.53E2,8E1,7.4E1,1.69E2,4.9E1,5.1E1,4.4E1,2.13E2,2.4E1,4.7E1,1.36E2,6.5E1,4.8E1,2.03E2,2.2E1,6.2E1,1.41E2,1.35E2],"tree_param":{"num_deleted":"0","num_feature":"29","num_nodes":"57","size_leaf_vector":"1"}},{"base_weights":[5.793159E-2,-5.0344996E0,4.9734583E0,-7.9255667E0,-2.893629E0,3.2646382E0,8.386885E0,-9.841886E0,-6.808099E0,-3.8895783E0,-1.270725E0,1.8091528E0,4.376447E0,7.6018453E0,1.150858E1,-1.1233538E-1,-9.16689E-2,-7.7216535E0,-6.2415E0,-3.185003E0,-4.564381E0,-3.205568E-1,-2.0090084E0,2.695497E0,9.620984E-1,3.8141968E0,5.3102536E0,5.7637906E0,8.080255E0,1.22162856E-1,7.077086E-2,-6.8493605E-2,-8.9047395E-2,-5.5267423E-2,-6.783431E-2,-3.8637243E-2,-2.507326E-2,-4.9012184E-2,-2.512417E-2,1.249729E-3,-1.7149813E-2,-1.1193854E-2,-2.7119167E-2,2.2053923E-2,3.3101436E-2,1.3990136E-2,-5.1886463E-3,-2.2181533E-3,3.948431E-2,5.76138E-2,3.9364424E-2,4.1181467E-2,6.721273E-2,9.7151436E-2,7.332843E-2],"categories":[],"categories_nodes":[],"categories_segments":[],"categories_sizes":[],"default_left":[0,0,0,0,0,0,0,0,0,0,0,0,0,0,0,0,0,0,0,0,0,0,0,0,0,0,0,0,0,0,0,0,0,0,0,0,0,0,0,0,0,0,0,0,0,0,0,0,0,0,0,0,0,0,0],"id":15,"left_children":[1,3,5,7,9,11,13,15,17,19,21,23,25,27,29,-1,-1,31,33,35,37,39,41,43,45,47,49,51,53,-1,-1,-1,-1,-1,-1,-1,-1,-1,-1,-1,-1,-1,-1,-1,-1,-1,-1,-1,-1,-1,-1,-1,-1,-1,-1],"loss_changes":[5.8049164E4,7.025709E3,6.8543125E3,9.677832E2,1.0548535E3,1.2666221E3,8.7371094E2,6.0310547E1,1.10353516E2,1.7772021E2,1.7519794E2,2.5455908E2,2.1299805E2,2.3079688E2,1.5310254E2,0E0,0E0,5.5080566E1,3.719922E1,8.258594E1,1.2863574E2,6.9332924E1,8.475189E1,4.2455566E1,1.1534268E2,1.5402832E2,7.861182E1,7.9958496E1,2.3131836E2,0E0,0E0,0E0,0E0,0E0,0E0,0E0,0E0,0E0,0E0,0E0,0E0,0E0,0E0,0E0,0E0,0E0,0E0,0E0,0E0,0E0,0E0,0E0,0E0,0E0,0E0],"parents":[2147483647,0,0,1,1,2,2,3,3,4,4,5,5,6,6,7,7,8,8,9,9,10,10,11,11,12,12,13,13,14,14,17,17,18,18,19,19,20,20,21,21,22,22,23,23,24,24,25,25,26,26,27,27,28,28],"right_children":[2,4,6,8,10,12,14,16,18,20,22,24,26,28,30,-1,-1,32,34,36,38,40,42,44,46,48,50,52,54,-1,-1,-1,-1,-1,-1,-1,-1,-1,-1,-1,-1,-1,-1,-1,-1,-1,-1,-1,-1,-1,-1,-1,-1,-1,-1],"split_conditions":[1.49E1,8.5E0,2.22E1,4.6E0,1.23E1,1.81E1,2.12E1,1.4E0,3.2E0,6.3921165E-1,1.382503E-1,-2.8726098E-1,2.05E1,1.71E1,1E-2,-1.1233538E-1,-9.16689E-2,8.760579E-1,8.6114675E-1,1.05E1,9.3E0,4.3E0,-1.8369701E-16,1.29E1,1.3E1,4E0,1.1E1,8E0,3E0,1.22162856E-1,7.077086E-2,-6.8493605E-2,-8.9047395E-2,-5.5267423E-2,-6.783431E-2,-3.8637243E-2,-2.507326E-2,-4.9012184E-2,-2.512417E-2,1.249729E-3,-1.7149813E-2,-1.1193854E-2,-2.7119167E-2,2.2053923E-2,3.3101436E-2,1.3990136E-2,-5.1886463E-3,-2.2181533E-3,3.948431E-2,5.76138E-2,3.9364424E-2,4.1181467E-2,6.721273E-2,9.7151436E-2,7.332843E-2],"split_indices":[10,10,10,10,10,10,8,10,8,12,12,12,10,8,6,0,0,12,12,10,8,1,18,8,2,15,2,15,0,0,0,0,0,0,0,0,0,0,0,0,0,0,0,0,0,0,0,0,0,0,0,0,0,0,0],"split_type":[0,0,0,0,0,0,0,0,0,0,0,0,0,0,0,0,0,0,0,0,0,0,0,0,0,0,0,0,0,0,0,0,0,0,0,0,0,0,0,0,0,0,0,0,0,0,0,0,0,0,0,0,0,0,0],"sum_hessian":[2.317E3,1.138E3,1.179E3,4.83E2,6.55E2,7.87E2,3.92E2,1.75E2,3.08E2,4.05E2,2.5E2,3.42E2,4.45E2,3.16E2,7.6E1,5.2E1,1.23E2,1.13E2,1.95E2,2.01E2,2.04E2,1.1E2,1.4E2,1.66E2,1.76E2,2.81E2,1.64E2,6.8E1,2.48E2,6.4E1,1.2E1,6.9E1,4.4E1,8.9E1,1.06E2,9.8E1,1.03E2,1.74E2,3E1,8.4E1,2.6E1,6.3E1,7.7E1,9.5E1,7.1E1,1.36E2,4E1,9E0,2.72E2,1.21E2,4.3E1,2.7E1,4.1E1,7.4E1,1.74E2],"tree_param":{"num_deleted":"0","num_feature":"29","num_nodes":"55","size_leaf_vector":"1"}},{"base_weights":[-6.180448E-3,-5.305681E0,4.5234857E0,-7.841647E0,-3.2090604E0,2.3778164E0,7.3797636E0,-9.339413E0,-6.279588E0,-3.9934537E0,-1.7236162E0,1.033906E0,3.3986478E0,6.242573E0,9.618712E0,-1.09672256E-1,-8.727436E0,-5.0010156E-2,-6.472998E0,-3.267825E0,-4.5662856E0,2.6198903E-1,-2.2528942E0,1.3134553E0,-1.7263134E0,4.0200477E0,2.3510227E0,5.3123918E0,7.168452E0,1.0330949E1,6.0209103E0,-8.815623E-2,-5.2364886E-2,-6.673508E-2,-5.0225362E-2,-3.1191302E-2,-5.3696316E-2,-4.8180398E-2,-2.3892917E-2,-3.0765217E-3,2.0079719E-2,-1.7458301E-2,-3.23284E-2,2.0086933E-3,1.6707802E-2,-3.968546E-2,-1.0896587E-2,3.355637E-2,4.8185103E-2,2.8934592E-2,1.0124007E-2,3.790447E-2,5.9874505E-2,6.3086085E-2,8.086457E-2,8.9648455E-2,1.1409382E-1,6.334467E-2,3.589751E-2],"categories":[],"categories_nodes":[],"categories_segments":[],"categories_sizes":[],"default_left":[0,0,0,0,0,0,0,0,0,0,0,0,0,0,0,0,0,0,0,0,0,0,0,0,0,0,0,0,0,0,0,0,0,0,0,0,0,0,0,0,0,0,0,0,0,0,0,0,0,0,0,0,0,0,0,0,0,0,0],"id":16,"left_children":[1,3,5,7,9,11,13,15,17,19,21,23,25,27,29,-1,31,-1,33,35,37,39,41,43,45,47,49,51,53,55,57,-1,-1,-1,-1,-1,-1,-1,-1,-1,-1,-1,-1,-1,-1,-1,-1,-1,-1,-1,-1,-1,-1,-1,-1,-1,-1,-1,-1],"loss_changes":[5.578762E4,5.6681934E3,7.6606484E3,1.0721562E3,6.776665E2,9.7969946E2,1.3056289E3,1.4638086E2,2.5830078E1,1.4390967E2,2.1623138E2,2.4219913E2,2.548667E2,2.698545E2,3.948457E2,0E0,8.770508E0,0E0,2.4932617E1,3.6469604E1,1.0395801E2,4.4549473E1,7.4355225E1,1.119852E2,3.6568123E1,1.1776221E2,1.085022E2,1.643418E2,8.725879E1,1.137207E2,6.623535E-1,0E0,0E0,0E0,0E0,0E0,0E0,0E0,0E0,0E0,0E0,0E0,0E0,0E0,0E0,0E0,0E0,0E0,0E0,0E0,0E0,0E0,0E0,0E0,0E0,0E0,0E0,0E0,0E0],"parents":[2147483647,0,0,1,1,2,2,3,3,4,4,5,5,6,6,7,7,8,8,9,9,10,10,11,11,12,12,13,13,14,14,16,16,18,18,19,19,20,20,21,21,22,22,23,23,24,24,25,25,26,26,27,27,28,28,29,29,30,30],"right_children":[2,4,6,8,10,12,14,16,18,20,22,24,26,28,30,-1,32,-1,34,36,38,40,42,44,46,48,50,52,54,56,58,-1,-1,-1,-1,-1,-1,-1,-1,-1,-1,-1,-1,-1,-1,-1,-1,-1,-1,-1,-1,-1,-1,-1,-1,-1,-1,-1,-1],"split_conditions":[1.4E1,8.4E0,2.05E1,5.6E0,1.2E1,1.72E1,1.91E1,1.7E0,-4.689652E-1,6.3921165E-1,-1.8281692E-1,4.9440297E-1,-3.9629912E-1,1.0171E0,5E-2,-1.09672256E-1,7.0710677E-1,-5.0010156E-2,9.431965E-1,1.8E1,9.3E0,1.07E1,5.707842E-1,1.5E1,5E0,1.0154E0,-8.857249E-1,1.65E1,1.73E1,2.06E1,8.4E-1,-8.815623E-2,-5.2364886E-2,-6.673508E-2,-5.0225362E-2,-3.1191302E-2,-5.3696316E-2,-4.8180398E-2,-2.3892917E-2,-3.0765217E-3,2.0079719E-2,-1.7458301E-2,-3.23284E-2,2.0086933E-3,1.6707802E-2,-3.968546E-2,-1.0896587E-2,3.355637E-2,4.8185103E-2,2.8934592E-2,1.0124007E-2,3.790447E-2,5.9874505E-2,6.3086085E-2,8.086457E-2,8.9648455E-2,1.1409382E-1,6.334467E-2,3.589751E-2],"split_indices":[10,10,10,10,10,10,8,10,11,12,12,12,12,4,6,0,17,0,11,2,8,8,12,10,16,4,11,8,8,8,3,0,0,0,0,0,0,0,0,0,0,0,0,0,0,0,0,0,0,0,0,0,0,0,0,0,0,0,0],"split_type":[0,0,0,0,0,0,0,0,0,0,0,0,0,0,0,0,0,0,0,0,0,0,0,0,0,0,0,0,0,0,0,0,0,0,0,0,0,0,0,0,0,0,0,0,0,0,0,0,0,0,0,0,0,0,0,0,0,0,0],"sum_hessian":[2.322E3,1.07E3,1.252E3,4.83E2,5.87E2,7.16E2,5.36E2,2.44E2,2.39E2,3.83E2,2.04E2,3.1E2,4.06E2,3.58E2,1.78E2,6.2E1,1.82E2,3.5E1,2.04E2,1.72E2,2.11E2,4.3E1,1.61E2,2.82E2,2.8E1,2.53E2,1.53E2,1.82E2,1.76E2,1.47E2,3.1E1,1.76E2,6E0,1.76E2,2.8E1,1.63E2,9E0,1.88E2,2.3E1,3.3E1,1E1,1.08E2,5.3E1,6.9E1,2.13E2,5E0,2.3E1,1.41E2,1.12E2,1.08E2,4.5E1,5.8E1,1.24E2,9.5E1,8.1E1,6.9E1,7.8E1,2.6E1,5E0],"tree_param":{"num_deleted":"0","num_feature":"29","num_nodes":"59","size_leaf_vector":"1"}},{"base_weights":[5.7666432E-2,-5.063183E0,4.847626E0,-7.866078E0,-2.9245908E0,3.1792226E0,8.347561E0,-9.415246E0,-6.2650027E0,-3.920818E0,-1.3769499E0,2.0936584E0,4.741071E0,7.591754E0,1.1359087E1,-1.1403818E-1,-8.782391E0,-6.403499E0,-4.578129E0,-4.6024337E0,-3.276294E0,-4.7658807E-1,-1.887861E0,9.867797E-1,2.6715264E0,3.7208674E0,5.2096224E0,5.7193136E0,8.2503E0,1.2240224E1,7.283559E-2,-9.217371E-2,-7.567397E-2,-5.052216E-2,-6.556464E-2,-2.78418E-2,-5.8327377E-2,-4.8062112E-2,-3.577279E-2,-3.404486E-2,-7.0851E-3,4.4192947E-4,-2.2689892E-2,-1.3651756E-2,-3.0526688E-2,3.869572E-3,1.6404973E-2,3.8435556E-2,2.3429625E-2,2.6327742E-2,4.7785033E-2,4.8471864E-2,6.1148223E-2,6.025867E-2,2.0030014E-2,6.889207E-2,9.173254E-2,8.159419E-2,1.2700357E-1],"categories":[],"categories_nodes":[],"categories_segments":[],"categories_sizes":[],"default_left":[0,0,0,0,0,0,0,0,0,0,0,0,0,0,0,0,0,0,0,0,0,0,0,0,0,0,0,0,0,0,0,0,0,0,0,0,0,0,0,0,0,0,0,0,0,0,0,0,0,0,0,0,0,0,0,0,0,0,0],"id":17,"left_children":[1,3,5,7,9,11,13,15,17,19,21,23,25,27,29,-1,31,33,35,37,39,41,43,45,47,49,51,53,55,57,-1,-1,-1,-1,-1,-1,-1,-1,-1,-1,-1,-1,-1,-1,-1,-1,-1,-1,-1,-1,-1,-1,-1,-1,-1,-1,-1,-1,-1],"loss_changes":[5.7298945E4,6.743424E3,7.0203496E3,1.1498516E3,9.839082E2,1.3779941E3,7.9728516E2,2.0741406E2,2.6356445E1,1.5546729E2,1.1524509E2,3.0721826E2,1.3985791E2,3.3860742E2,1.8181934E2,0E0,2.9513672E1,1.16015625E1,3.241443E1,2.1033691E1,6.432764E1,8.713347E1,9.341211E1,6.503772E1,1.12833496E2,1.1211609E2,4.3737793E1,8.396362E1,2.2413086E2,8.827148E0,0E0,0E0,0E0,0E0,0E0,0E0,0E0,0E0,0E0,0E0,0E0,0E0,0E0,0E0,0E0,0E0,0E0,0E0,0E0,0E0,0E0,0E0,0E0,0E0,0E0,0E0,0E0,0E0,0E0],"parents":[2147483647,0,0,1,1,2,2,3,3,4,4,5,5,6,6,7,7,8,8,9,9,10,10,11,11,12,12,13,13,14,14,16,16,17,17,18,18,19,19,20,20,21,21,22,22,23,23,24,24,25,25,26,26,27,27,28,28,29,29],"right_children":[2,4,6,8,10,12,14,16,18,20,22,24,26,28,30,-1,32,34,36,38,40,42,44,46,48,50,52,54,56,58,-1,-1,-1,-1,-1,-1,-1,-1,-1,-1,-1,-1,-1,-1,-1,-1,-1,-1,-1,-1,-1,-1,-1,-1,-1,-1,-1,-1,-1],"split_conditions":[1.47E1,8.5E0,2.22E1,5.6E0,1.2E1,1.92E1,2.12E1,1.4E0,2.16E2,1.01E1,4E1,1.65E1,1.0128E0,1.0128E0,1E-2,-1.1403818E-1,2.1E0,6.123234E-17,1.15E2,7.7E0,9E0,5.3E0,7.0710677E-1,1.16E0,1.6E0,1.6E1,1.0214E0,5E-1,2.37E1,1.4E1,7.283559E-2,-9.217371E-2,-7.567397E-2,-5.052216E-2,-6.556464E-2,-2.78418E-2,-5.8327377E-2,-4.8062112E-2,-3.577279E-2,-3.404486E-2,-7.0851E-3,4.4192947E-4,-2.2689892E-2,-1.3651756E-2,-3.0526688E-2,3.869572E-3,1.6404973E-2,3.8435556E-2,2.3429625E-2,2.6327742E-2,4.7785033E-2,4.8471864E-2,6.1148223E-2,6.025867E-2,2.0030014E-2,6.889207E-2,9.173254E-2,8.159419E-2,1.2700357E-1],"split_indices":[10,10,10,10,10,10,8,10,24,10,22,10,4,4,6,0,8,18,22,8,7,1,18,5,7,8,4,13,10,24,0,0,0,0,0,0,0,0,0,0,0,0,0,0,0,0,0,0,0,0,0,0,0,0,0,0,0,0,0],"split_type":[0,0,0,0,0,0,0,0,0,0,0,0,0,0,0,0,0,0,0,0,0,0,0,0,0,0,0,0,0,0,0,0,0,0,0,0,0,0,0,0,0,0,0,0,0,0,0,0,0,0,0,0,0,0,0,0,0,0,0],"sum_hessian":[2.334E3,1.128E3,1.206E3,4.87E2,6.41E2,8.18E2,3.88E2,2.45E2,2.42E2,3.89E2,2.52E2,4.84E2,3.34E2,3.13E2,7.5E1,5.5E1,1.9E2,2.21E2,2.1E1,1.86E2,2.03E2,9.2E1,1.6E2,1.67E2,3.17E2,1.08E2,2.26E2,8.4E1,2.29E2,6E1,1.5E1,1.35E2,5.5E1,2.6E1,1.95E2,1E1,1.1E1,1.52E2,3.4E1,1.93E2,1E1,7.2E1,2E1,1.12E2,4.8E1,8.8E1,7.9E1,6.7E1,2.5E2,5.5E1,5.3E1,1.66E2,6E1,7.7E1,7E0,9.6E1,1.33E2,8E0,5.2E1],"tree_param":{"num_deleted":"0","num_feature":"29","num_nodes":"59","size_leaf_vector":"1"}},{"base_weights":[-2.8315964E-3,-5.2178764E0,4.338863E0,-8.016238E0,-3.3803854E0,2.586789E0,7.8366737E0,-9.37528E0,-6.421638E0,-2.0492349E0,-4.777178E0,1.1076672E0,4.0184946E0,7.0768805E0,1.1221293E1,-9.836286E0,-7.4779215E0,-6.756342E-2,-4.168543E0,4.377719E-2,-2.5148814E0,-5.492009E0,-3.7730668E0,1.8846447E0,-1.1745911E0,5.846491E0,3.5185938E0,8.752542E0,6.278966E0,1.1544642E1,6.370481E-2,-1.206364E-1,-9.523606E-2,-8.325786E-2,-5.4361805E-2,-2.298547E-2,-4.796614E-2,-7.4278037E-3,2.1291487E-2,-3.385261E-2,-1.8758446E-2,-4.904933E-2,-5.9991587E-2,-4.092945E-2,-2.7576085E-2,3.6781024E-2,1.5293177E-2,-2.6665549E-3,-2.0263365E-2,4.1392997E-2,6.8868466E-2,3.8380463E-2,1.8578477E-2,6.849081E-2,9.478062E-2,4.6237048E-2,6.626454E-2,9.805477E-2,1.2601379E-1],"categories":[],"categories_nodes":[],"categories_segments":[],"categories_sizes":[],"default_left":[0,0,0,0,0,0,0,0,0,0,0,0,0,0,0,0,0,0,0,0,0,0,0,0,0,0,0,0,0,0,0,0,0,0,0,0,0,0,0,0,0,0,0,0,0,0,0,0,0,0,0,0,0,0,0,0,0,0,0],"id":18,"left_children":[1,3,5,7,9,11,13,15,17,19,21,23,25,27,29,31,33,-1,35,37,39,41,43,45,47,49,51,53,55,57,-1,-1,-1,-1,-1,-1,-1,-1,-1,-1,-1,-1,-1,-1,-1,-1,-1,-1,-1,-1,-1,-1,-1,-1,-1,-1,-1,-1,-1],"loss_changes":[5.2778887E4,5.4171035E3,7.774041E3,8.4624414E2,1.1813657E3,1.7929355E3,1.00912305E3,1.20646484E2,1.1855127E2,3.2197644E2,2.0229639E2,7.4528204E2,3.7234717E2,4.1016602E2,4.3870117E1,6.2246094E0,3.6457275E1,0E0,2.115097E1,1.0177627E2,1.4329895E2,2.307666E1,3.1229614E1,1.9331787E2,8.197667E1,1.3201465E2,1.7321045E2,8.536133E1,1.0628125E2,2.8466797E0,0E0,0E0,0E0,0E0,0E0,0E0,0E0,0E0,0E0,0E0,0E0,0E0,0E0,0E0,0E0,0E0,0E0,0E0,0E0,0E0,0E0,0E0,0E0,0E0,0E0,0E0,0E0,0E0,0E0],"parents":[2147483647,0,0,1,1,2,2,3,3,4,4,5,5,6,6,7,7,8,8,9,9,10,10,11,11,12,12,13,13,14,14,15,15,16,16,18,18,19,19,20,20,21,21,22,22,23,23,24,24,25,25,26,26,27,27,28,28,29,29],"right_children":[2,4,6,8,10,12,14,16,18,20,22,24,26,28,30,32,34,-1,36,38,40,42,44,46,48,50,52,54,56,58,-1,-1,-1,-1,-1,-1,-1,-1,-1,-1,-1,-1,-1,-1,-1,-1,-1,-1,-1,-1,-1,-1,-1,-1,-1,-1,-1,-1,-1],"split_conditions":[1.02E1,4.6E0,1.66E1,2.1E0,5.986907E-1,1.36E1,2.12E1,6.8E-1,1.09E0,-2.1652709E-1,7.3E0,2.6037648E-1,4E0,4E0,6E0,-2.8E0,1.47E2,-6.756342E-2,4E0,1.0191E0,1.0137E0,8.6114675E-1,9.3E0,3E0,4.7E0,1.0184E0,-6.33914E-2,9.9E0,1.0087E0,1.0163E0,6.370481E-2,-1.206364E-1,-9.523606E-2,-8.325786E-2,-5.4361805E-2,-2.298547E-2,-4.796614E-2,-7.4278037E-3,2.1291487E-2,-3.385261E-2,-1.8758446E-2,-4.904933E-2,-5.9991587E-2,-4.092945E-2,-2.7576085E-2,3.6781024E-2,1.5293177E-2,-2.6665549E-3,-2.0263365E-2,4.1392997E-2,6.8868466E-2,3.8380463E-2,1.8578477E-2,6.849081E-2,9.478062E-2,4.6237048E-2,6.626454E-2,9.805477E-2,1.2601379E-1],"split_indices":[8,8,8,8,12,8,8,5,5,12,8,12,0,0,0,8,24,0,0,4,4,12,8,0,1,4,12,7,4,4,0,0,0,0,0,0,0,0,0,0,0,0,0,0,0,0,0,0,0,0,0,0,0,0,0,0,0,0,0],"split_type":[0,0,0,0,0,0,0,0,0,0,0,0,0,0,0,0,0,0,0,0,0,0,0,0,0,0,0,0,0,0,0,0,0,0,0,0,0,0,0,0,0,0,0,0,0,0,0,0,0,0,0,0,0,0,0,0,0,0,0],"sum_hessian":[2.329E3,1.058E3,1.271E3,4.18E2,6.4E2,8.48E2,4.23E2,2.23E2,1.95E2,3.29E2,3.11E2,4.18E2,4.3E2,3.48E2,7.5E1,1.76E2,4.7E1,1.68E2,2.7E1,6E1,2.69E2,1.79E2,1.32E2,3.12E2,1.06E2,9E1,3.4E2,1.09E2,2.39E2,6.9E1,6E0,1.7E1,1.59E2,3.1E1,1.6E1,8E0,1.9E1,4.4E1,1.6E1,1.12E2,1.57E2,8.8E1,9.1E1,9.8E1,3.4E1,5E1,2.62E2,5.2E1,5.4E1,3.6E1,5.4E1,2.84E2,5.6E1,3.3E1,7.6E1,4.4E1,1.95E2,3E1,3.9E1],"tree_param":{"num_deleted":"0","num_feature":"29","num_nodes":"59","size_leaf_vector":"1"}},{"base_weights":[4.468189E-2,-4.81834E0,4.576822E0,-7.9686956E0,-3.0232027E0,2.8051548E0,7.905522E0,-9.117443E0,-6.6081924E0,-1.6265222E0,-4.54108E0,1.3839353E0,4.1940784E0,7.162029E0,1.1436932E1,-3.2712262E-2,-9.238851E0,-6.7411456E0,-3.822762E-2,-3.115474E0,-8.8701206E-1,-5.035909E0,-3.0711637E0,1.9199159E0,-1.9946821E0,3.0330024E0,5.0638666E0,6.151394E0,8.618891E0,1.1936932E-1,5.994812E-2,-1.0249037E-1,-8.566061E-2,-6.1203904E-2,-7.1862034E-2,-1.416662E-2,-3.71486E-2,-1.006497E-3,-1.950768E-2,-3.0305875E-2,-5.2024953E-2,-4.196544E-2,-2.7043242E-2,1.3280175E-2,2.9696178E-2,-2.337676E-2,-7.2541866E-3,2.7506385E-2,4.393436E-2,6.411527E-2,4.4426482E-2,4.648439E-2,6.796836E-2,9.071943E-2,6.167971E-2],"categories":[],"categories_nodes":[],"categories_segments":[],"categories_sizes":[],"default_left":[0,0,0,0,0,0,0,0,0,0,0,0,0,0,0,0,0,0,0,0,0,0,0,0,0,0,0,0,0,0,0,0,0,0,0,0,0,0,0,0,0,0,0,0,0,0,0,0,0,0,0,0,0,0,0],"id":19,"left_children":[1,3,5,7,9,11,13,15,17,19,21,23,25,27,29,-1,31,33,-1,35,37,39,41,43,45,47,49,51,53,-1,-1,-1,-1,-1,-1,-1,-1,-1,-1,-1,-1,-1,-1,-1,-1,-1,-1,-1,-1,-1,-1,-1,-1,-1,-1],"loss_changes":[5.1308863E4,6.3257344E3,7.0830586E3,5.742676E2,1.5120298E3,1.5491226E3,1.0137207E3,1.2325781E2,4.353711E1,4.0974695E2,2.3320605E2,7.118736E2,3.8576758E2,4.5788672E2,1.198418E2,0E0,5.508789E1,4.415039E0,0E0,1.2048645E2,2.1039594E2,6.8595215E1,2.470337E1,2.0563159E2,2.150676E1,5.3656616E1,1.5963574E2,1.7000586E2,9.7975586E1,0E0,0E0,0E0,0E0,0E0,0E0,0E0,0E0,0E0,0E0,0E0,0E0,0E0,0E0,0E0,0E0,0E0,0E0,0E0,0E0,0E0,0E0,0E0,0E0,0E0,0E0],"parents":[2147483647,0,0,1,1,2,2,3,3,4,4,5,5,6,6,7,7,8,8,9,9,10,10,11,11,12,12,13,13,14,14,16,16,17,17,19,19,20,20,21,21,22,22,23,23,24,24,25,25,26,26,27,27,28,28],"right_children":[2,4,6,8,10,12,14,16,18,20,22,24,26,28,30,-1,32,34,-1,36,38,40,42,44,46,48,50,52,54,-1,-1,-1,-1,-1,-1,-1,-1,-1,-1,-1,-1,-1,-1,-1,-1,-1,-1,-1,-1,-1,-1,-1,-1,-1,-1],"split_conditions":[1.07E1,4.7E0,1.68E1,2.1E0,5.707842E-1,1.4E1,2.15E1,-6.115299E-1,8.1E0,7.6E0,8.5E0,4.9440297E-1,1.0139E0,1.0176E0,5E-2,-3.2712262E-2,-5E-1,7.80585E-1,-3.822762E-2,4E0,1.7647098E-1,-7.379428E-1,1.0002E0,1.0192E0,1.22E1,1.63E1,4E0,1.0099E0,6E0,1.1936932E-1,5.994812E-2,-1.0249037E-1,-8.566061E-2,-6.1203904E-2,-7.1862034E-2,-1.416662E-2,-3.71486E-2,-1.006497E-3,-1.950768E-2,-3.0305875E-2,-5.2024953E-2,-4.196544E-2,-2.7043242E-2,1.3280175E-2,2.9696178E-2,-2.337676E-2,-7.2541866E-3,2.7506385E-2,4.393436E-2,6.411527E-2,4.4426482E-2,4.648439E-2,6.796836E-2,9.071943E-2,6.167971E-2],"split_indices":[8,8,8,8,12,8,8,11,7,8,8,12,4,4,6,0,8,12,0,0,12,11,4,4,8,8,0,4,0,0,0,0,0,0,0,0,0,0,0,0,0,0,0,0,0,0,0,0,0,0,0,0,0,0,0],"split_type":[0,0,0,0,0,0,0,0,0,0,0,0,0,0,0,0,0,0,0,0,0,0,0,0,0,0,0,0,0,0,0,0,0,0,0,0,0,0,0,0,0,0,0,0,0,0,0,0,0,0,0,0,0,0,0],"sum_hessian":[2.326E3,1.122E3,1.204E3,4.06E2,7.16E2,7.87E2,4.17E2,2.17E2,1.89E2,3.74E2,3.42E2,3.9E2,3.97E2,3.47E2,7E1,5E0,2.12E2,1.79E2,1E1,1.23E2,2.51E2,2.54E2,8.8E1,3.37E2,5.3E1,1.72E2,2.25E2,2.08E2,1.39E2,6.3E1,7E0,7.9E1,1.33E2,8.1E1,9.8E1,3.3E1,9E1,1.45E2,1.06E2,2.1E1,2.33E2,1.9E1,6.9E1,2.17E2,1.2E2,4.1E1,1.2E1,1.45E2,2.7E1,6.8E1,1.57E2,6.5E1,1.43E2,1.15E2,2.4E1],"tree_param":{"num_deleted":"0","num_feature":"29","num_nodes":"55","size_leaf_vector":"1"}},{"base_weights":[-5.5463094E-2,-4.824744E0,4.7137804E0,-7.62777E0,-2.847835E0,3.2295213E0,8.177431E0,-9.616311E0,-6.5500546E0,-3.9337747E0,-1.3427132E0,2.0502074E0,4.6521926E0,9.962394E0,6.9710183E0,-1.1086544E1,-8.904562E-2,-7.3860893E0,-5.9580626E0,-3.2537894E0,-4.47551E0,-3.1076643E-1,-2.050175E0,2.8429785E0,1.1150686E0,5.6431656E0,3.7799618E0,9.088961E0,1.1719E-1,6.4719257E0,9.18095E0,-5.6925613E-2,-1.1546922E-1,-6.348052E-2,-8.3870955E-2,-4.0657897E-2,-6.129873E-2,-2.5156834E-3,-3.407942E-2,-4.8254E-2,-2.7691241E-2,-7.759628E-4,-2.3944981E-2,-1.2231731E-2,-2.5479224E-2,3.5097927E-2,2.299798E-2,1.6595991E-2,3.2498948E-3,5.9357416E-2,3.4726374E-2,-4.7054345E-4,3.897866E-2,5.3899195E-2,9.313173E-2,5.7084955E-2,7.466362E-2,9.7875096E-2,5.168905E-2],"categories":[],"categories_nodes":[],"categories_segments":[],"categories_sizes":[],"default_left":[0,0,0,0,0,0,0,0,0,0,0,0,0,0,0,0,0,0,0,0,0,0,0,0,0,0,0,0,0,0,0,0,0,0,0,0,0,0,0,0,0,0,0,0,0,0,0,0,0,0,0,0,0,0,0,0,0,0,0],"id":20,"left_children":[1,3,5,7,9,11,13,15,17,19,21,23,25,27,29,31,-1,33,35,37,39,41,43,45,47,49,51,53,-1,55,57,-1,-1,-1,-1,-1,-1,-1,-1,-1,-1,-1,-1,-1,-1,-1,-1,-1,-1,-1,-1,-1,-1,-1,-1,-1,-1,-1,-1],"loss_changes":[5.3634758E4,6.510457E3,6.0336367E3,9.790762E2,1.1268789E3,1.3773125E3,6.8900977E2,7.612891E1,1.1254004E2,1.3275098E2,2.1230511E2,3.3300745E2,3.009961E2,1.0620508E2,1.750498E2,5.9191406E1,0E0,7.828711E1,3.647998E1,8.3006226E1,1.1782617E2,5.7870686E1,6.7719604E1,8.008655E1,8.960889E1,8.830908E1,9.171484E1,2.9611328E1,0E0,9.1194824E1,3.7954834E1,0E0,0E0,0E0,0E0,0E0,0E0,0E0,0E0,0E0,0E0,0E0,0E0,0E0,0E0,0E0,0E0,0E0,0E0,0E0,0E0,0E0,0E0,0E0,0E0,0E0,0E0,0E0,0E0],"parents":[2147483647,0,0,1,1,2,2,3,3,4,4,5,5,6,6,7,7,8,8,9,9,10,10,11,11,12,12,13,13,14,14,15,15,17,17,18,18,19,19,20,20,21,21,22,22,23,23,24,24,25,25,26,26,27,27,29,29,30,30],"right_children":[2,4,6,8,10,12,14,16,18,20,22,24,26,28,30,32,-1,34,36,38,40,42,44,46,48,50,52,54,-1,56,58,-1,-1,-1,-1,-1,-1,-1,-1,-1,-1,-1,-1,-1,-1,-1,-1,-1,-1,-1,-1,-1,-1,-1,-1,-1,-1,-1,-1],"split_conditions":[1.49E1,8.4E0,1.73E1,4.4E0,1.2E1,1.91E1,4E0,1.1E0,3.2E0,6.3921165E-1,1.4250833E-1,-2.9959476E-1,9E0,2.15E1,2.06E1,1E0,-8.904562E-2,7.80585E-1,3.423569E-1,-3.3628872E-1,7.1E0,5.7E0,-8.1491596E-1,3.5344467E-1,-9.223291E-1,-3.3323526E-2,1.34E1,7.8E0,1.1719E-1,1.016E0,1.2E-1,-5.6925613E-2,-1.1546922E-1,-6.348052E-2,-8.3870955E-2,-4.0657897E-2,-6.129873E-2,-2.5156834E-3,-3.407942E-2,-4.8254E-2,-2.7691241E-2,-7.759628E-4,-2.3944981E-2,-1.2231731E-2,-2.5479224E-2,3.5097927E-2,2.299798E-2,1.6595991E-2,3.2498948E-3,5.9357416E-2,3.4726374E-2,-4.7054345E-4,3.897866E-2,5.3899195E-2,9.313173E-2,5.7084955E-2,7.466362E-2,9.7875096E-2,5.168905E-2],"split_indices":[10,10,8,10,10,10,0,10,8,12,12,12,2,8,8,19,0,12,12,12,9,1,11,11,11,12,8,7,0,4,6,0,0,0,0,0,0,0,0,0,0,0,0,0,0,0,0,0,0,0,0,0,0,0,0,0,0,0,0],"split_type":[0,0,0,0,0,0,0,0,0,0,0,0,0,0,0,0,0,0,0,0,0,0,0,0,0,0,0,0,0,0,0,0,0,0,0,0,0,0,0,0,0,0,0,0,0,0,0,0,0,0,0,0,0,0,0,0,0,0,0],"sum_hessian":[2.356E3,1.178E3,1.178E3,4.86E2,6.92E2,8.26E2,3.52E2,1.68E2,3.18E2,4.01E2,2.91E2,4.53E2,3.73E2,1.39E2,2.13E2,5E1,1.18E2,1.27E2,1.91E2,1.81E2,2.2E2,1.19E2,1.72E2,2.44E2,2.09E2,1.72E2,2.01E2,9.7E1,4.2E1,1.77E2,3.6E1,5E0,4.5E1,6.6E1,6.1E1,1.8E1,1.73E2,9E0,1.72E2,1.81E2,3.9E1,1.08E2,1.1E1,6.6E1,1.06E2,1.07E2,1.37E2,1.23E2,8.6E1,1.5E2,2.2E1,6E0,1.95E2,7E0,9E1,1.04E2,7.3E1,3E1,6E0],"tree_param":{"num_deleted":"0","num_feature":"29","num_nodes":"59","size_leaf_vector":"1"}},{"base_weights":[-2.4242088E-2,-4.8463583E0,4.465113E0,-7.850588E0,-3.0186567E0,2.757255E0,7.7982764E0,-8.917451E0,-6.1445556E0,-1.6478915E0,-4.473472E0,3.6276772E0,7.809261E-1,6.9817257E0,1.0853804E1,-1.0334659E-1,-8.173312E0,-6.4463096E0,-2.4007769E0,-3.1766157E0,-8.5382885E-1,-5.6505284E0,-3.7820306E0,2.5312238E0,4.333336E0,1.7816336E0,-9.015727E-1,5.722806E0,7.9689913E0,1.1442805E1,7.629119E-2,-5.4361336E-2,-8.5535705E-2,-3.5653103E-2,-6.559335E-2,-3.534621E-2,-1.0960662E-2,-3.4623966E-2,3.8826457E-4,1.258393E-2,-1.1635181E-2,-4.5103893E-2,-6.0342845E-2,-4.222598E-2,-2.477244E-2,1.4986856E-2,3.3390723E-2,2.7904205E-2,4.8629455E-2,1.1378357E-2,2.9509291E-2,-1.5206099E-2,5.641052E-3,4.675751E-2,6.3212425E-2,7.14682E-2,9.1175504E-2,7.794142E-2,1.18585356E-1],"categories":[],"categories_nodes":[],"categories_segments":[],"categories_sizes":[],"default_left":[0,0,0,0,0,0,0,0,0,0,0,0,0,0,0,0,0,0,0,0,0,0,0,0,0,0,0,0,0,0,0,0,0,0,0,0,0,0,0,0,0,0,0,0,0,0,0,0,0,0,0,0,0,0,0,0,0,0,0],"id":21,"left_children":[1,3,5,7,9,11,13,15,17,19,21,23,25,27,29,-1,31,33,35,37,39,41,43,45,47,49,51,53,55,57,-1,-1,-1,-1,-1,-1,-1,-1,-1,-1,-1,-1,-1,-1,-1,-1,-1,-1,-1,-1,-1,-1,-1,-1,-1,-1,-1,-1,-1],"loss_changes":[5.0288777E4,6.124953E3,6.8256016E3,7.136035E2,1.3839746E3,1.3677578E3,9.379004E2,1.8576562E2,1.7116943E2,4.351037E2,2.5277344E2,4.1621338E2,4.1419818E2,3.5572266E2,7.033887E1,0E0,1.3320703E2,2.5421875E1,1.637349E1,1.1350305E2,1.5779236E2,2.5545654E1,1.1303638E2,1.7718738E2,2.5940723E2,1.12163086E2,8.442584E1,6.082666E1,1.0224414E2,1.0270508E1,0E0,0E0,0E0,0E0,0E0,0E0,0E0,0E0,0E0,0E0,0E0,0E0,0E0,0E0,0E0,0E0,0E0,0E0,0E0,0E0,0E0,0E0,0E0,0E0,0E0,0E0,0E0,0E0,0E0],"parents":[2147483647,0,0,1,1,2,2,3,3,4,4,5,5,6,6,7,7,8,8,9,9,10,10,11,11,12,12,13,13,14,14,16,16,17,17,18,18,19,19,20,20,21,21,22,22,23,23,24,24,25,25,26,26,27,27,28,28,29,29],"right_children":[2,4,6,8,10,12,14,16,18,20,22,24,26,28,30,-1,32,34,36,38,40,42,44,46,48,50,52,54,56,58,-1,-1,-1,-1,-1,-1,-1,-1,-1,-1,-1,-1,-1,-1,-1,-1,-1,-1,-1,-1,-1,-1,-1,-1,-1,-1,-1,-1,-1],"split_conditions":[1.07E1,4.6E0,1.68E1,2.5E0,5.707842E-1,-1.4889039E-1,2.12E1,-5E-1,7.7E0,7.6E0,6.6E0,1.0135E0,-8.702939E-1,1.0154E0,1E-2,-1.0334659E-1,-4E0,1.0837701E-1,8.660254E-1,1.1E1,2.3E0,-4.990686E-1,9.3E0,1.42E1,1.31E1,1.41E1,9.6825075E-1,1.0099E0,1.01E1,3.3E1,7.629119E-2,-5.4361336E-2,-8.5535705E-2,-3.5653103E-2,-6.559335E-2,-3.534621E-2,-1.0960662E-2,-3.4623966E-2,3.8826457E-4,1.258393E-2,-1.1635181E-2,-4.5103893E-2,-6.0342845E-2,-4.222598E-2,-2.477244E-2,1.4986856E-2,3.3390723E-2,2.7904205E-2,4.8629455E-2,1.1378357E-2,2.9509291E-2,-1.5206099E-2,5.641052E-3,4.675751E-2,6.3212425E-2,7.14682E-2,9.1175504E-2,7.794142E-2,1.18585356E-1],"split_indices":[8,8,8,8,12,12,8,8,7,8,8,4,11,4,6,0,9,12,18,7,9,11,8,8,8,8,11,4,7,24,0,0,0,0,0,0,0,0,0,0,0,0,0,0,0,0,0,0,0,0,0,0,0,0,0,0,0,0,0],"split_type":[0,0,0,0,0,0,0,0,0,0,0,0,0,0,0,0,0,0,0,0,0,0,0,0,0,0,0,0,0,0,0,0,0,0,0,0,0,0,0,0,0,0,0,0,0,0,0,0,0,0,0,0,0,0,0,0,0,0,0],"sum_hessian":[2.321E3,1.119E3,1.202E3,4.22E2,6.97E2,7.96E2,4.06E2,2.57E2,1.65E2,3.6E2,3.37E2,5.52E2,2.44E2,3.23E2,8.3E1,8.4E1,1.73E2,1.52E2,1.3E1,1.22E2,2.38E2,1.22E2,2.15E2,2.18E2,3.34E2,1.53E2,9.1E1,1.45E2,1.78E2,6.8E1,1.5E1,2.3E1,1.5E2,7E0,1.45E2,6E0,7E0,1.12E2,1E1,3E1,2.08E2,3.4E1,8.8E1,1.59E2,5.6E1,9.7E1,1.21E2,8.7E1,2.47E2,1E2,5.3E1,6.4E1,2.7E1,5.6E1,8.9E1,1.08E2,7E1,9E0,5.9E1],"tree_param":{"num_deleted":"0","num_feature":"29","num_nodes":"59","size_leaf_vector":"1"}},{"base_weights":[-8.19361E-3,-4.947785E0,4.218921E0,-8.780331E0,-3.6624217E0,2.479004E0,7.481337E0,-9.622588E0,-7.653506E0,-2.324824E0,-5.0343423E0,8.5336196E-1,3.6875598E0,6.7574816E0,1.1045587E1,-8.155946E0,-1.02947384E-1,-4.1100014E-2,-7.835758E0,-3.7689624E0,-1.5779122E0,-5.935735E0,-3.9580796E0,1.4540503E0,-2.024567E0,2.564852E0,4.523836E0,6.0840435E0,8.433268E0,1.15552016E-1,6.1832592E-2,-8.476408E-2,-4.2696636E-2,-4.866517E-2,-7.955842E-2,-1.9269954E-2,-4.346104E-2,-7.7047525E-3,-2.6726699E-2,-5.0219193E-2,-6.242655E-2,-4.3062557E-2,-2.5043944E-2,8.879629E-3,2.4777055E-2,-2.3086164E-2,1.333379E-3,1.2100655E-2,3.0470561E-2,4.837943E-2,2.2916963E-2,4.7946066E-2,6.47219E-2,9.192999E-2,6.48095E-2],"categories":[],"categories_nodes":[],"categories_segments":[],"categories_sizes":[],"default_left":[0,0,0,0,0,0,0,0,0,0,0,0,0,0,0,0,0,0,0,0,0,0,0,0,0,0,0,0,0,0,0,0,0,0,0,0,0,0,0,0,0,0,0,0,0,0,0,0,0,0,0,0,0,0,0],"id":22,"left_children":[1,3,5,7,9,11,13,15,17,19,21,23,25,27,29,31,-1,-1,33,35,37,39,41,43,45,47,49,51,53,-1,-1,-1,-1,-1,-1,-1,-1,-1,-1,-1,-1,-1,-1,-1,-1,-1,-1,-1,-1,-1,-1,-1,-1,-1,-1],"loss_changes":[4.8630098E4,5.2573516E3,7.104256E3,1.7992773E2,1.4666338E3,1.607435E3,1.0484629E3,6.20625E1,4.4098145E1,4.357622E2,3.6066113E2,6.0967395E2,4.2896875E2,3.591582E2,1.051875E2,2.7294922E1,0E0,0E0,2.9101562E-1,1.387655E2,2.3803021E2,2.7543457E1,8.166382E1,1.6609143E2,3.7915436E1,1.2850366E2,1.7610352E2,9.99707E1,9.014307E1,0E0,0E0,0E0,0E0,0E0,0E0,0E0,0E0,0E0,0E0,0E0,0E0,0E0,0E0,0E0,0E0,0E0,0E0,0E0,0E0,0E0,0E0,0E0,0E0,0E0,0E0],"parents":[2147483647,0,0,1,1,2,2,3,3,4,4,5,5,6,6,7,7,8,8,9,9,10,10,11,11,12,12,13,13,14,14,15,15,18,18,19,19,20,20,21,21,22,22,23,23,24,24,25,25,26,26,27,27,28,28],"right_children":[2,4,6,8,10,12,14,16,18,20,22,24,26,28,30,32,-1,-1,34,36,38,40,42,44,46,48,50,52,54,-1,-1,-1,-1,-1,-1,-1,-1,-1,-1,-1,-1,-1,-1,-1,-1,-1,-1,-1,-1,-1,-1,-1,-1,-1,-1],"split_conditions":[1.03E1,2.8E0,1.66E1,1.1E0,6.3921165E-1,1.32E1,2.15E1,8.500173E-1,-4E0,6.6E0,3.8E0,4.9440297E-1,1.0138E0,9.9E0,1.2E-1,4E0,-1.02947384E-1,-4.1100014E-2,-6.115299E-1,4E0,7E0,-4.3637297E-1,9.3E0,6.7E0,1.24E1,1.42E1,-6.7682765E-2,1.0099E0,1E1,1.15552016E-1,6.1832592E-2,-8.476408E-2,-4.2696636E-2,-4.866517E-2,-7.955842E-2,-1.9269954E-2,-4.346104E-2,-7.7047525E-3,-2.6726699E-2,-5.0219193E-2,-6.242655E-2,-4.3062557E-2,-2.5043944E-2,8.879629E-3,2.4777055E-2,-2.3086164E-2,1.333379E-3,1.2100655E-2,3.0470561E-2,4.837943E-2,2.2916963E-2,4.7946066E-2,6.47219E-2,9.192999E-2,6.48095E-2],"split_indices":[8,8,8,8,12,8,8,12,9,8,9,12,4,7,6,15,0,0,11,0,0,11,8,7,8,8,12,4,2,0,0,0,0,0,0,0,0,0,0,0,0,0,0,0,0,0,0,0,0,0,0,0,0,0,0],"split_type":[0,0,0,0,0,0,0,0,0,0,0,0,0,0,0,0,0,0,0,0,0,0,0,0,0,0,0,0,0,0,0,0,0,0,0,0,0,0,0,0,0,0,0,0,0,0,0,0,0,0,0,0,0,0,0],"sum_hessian":[2.327E3,1.073E3,1.254E3,2.68E2,8.05E2,8.19E2,4.35E2,1.49E2,1.19E2,4.09E2,3.96E2,3.5E2,4.69E2,3.64E2,7.1E1,5.1E1,9.8E1,7E0,1.12E2,1.38E2,2.71E2,2.13E2,1.83E2,2.9E2,6E1,2.02E2,2.67E2,2.63E2,1.01E2,6.3E1,8E0,4.6E1,5E0,6E0,1.06E2,3.4E1,1.04E2,1.57E2,1.14E2,5.8E1,1.55E2,1.46E2,3.7E1,1.88E2,1.02E2,5.3E1,7E0,5.4E1,1.48E2,2.33E2,3.4E1,6.4E1,1.99E2,7E1,3.1E1],"tree_param":{"num_deleted":"0","num_feature":"29","num_nodes":"55","size_leaf_vector":"1"}},{"base_weights":[1.8066734E-2,-4.5911436E0,4.6234307E0,-7.2048144E0,-2.5925663E0,3.084701E0,7.67328E0,-8.546851E0,-5.590682E0,-3.6840086E0,-1.2081051E0,2.1170864E0,4.5183334E0,7.025927E0,1.0840252E-1,-1.0163467E1,-7.9476933E0,-4.7273097E0,-6.166739E0,-4.222376E0,-3.0227656E0,3.1573784E-1,-1.7457839E0,2.8092194E0,1.2537134E0,5.2100387E0,3.7120707E0,8.396459E0,6.3755293E0,-6.2484343E-2,-1.0492479E-1,-4.4887226E-2,-8.100759E-2,-5.9610404E-2,-4.0077075E-2,-6.4530246E-2,-5.106725E-2,-2.9108537E-2,-4.423659E-2,-2.4826853E-2,-3.6485434E-2,-1.3191045E-3,1.1233923E-2,-7.0945523E-3,-2.3364086E-2,3.4123145E-2,2.1695465E-2,1.7590372E-2,4.9761436E-3,5.4975715E-2,2.8167915E-2,2.4858708E-3,3.9856195E-2,7.048752E-2,9.0436764E-2,3.0426063E-2,6.6462435E-2],"categories":[],"categories_nodes":[],"categories_segments":[],"categories_sizes":[],"default_left":[0,0,0,0,0,0,0,0,0,0,0,0,0,0,0,0,0,0,0,0,0,0,0,0,0,0,0,0,0,0,0,0,0,0,0,0,0,0,0,0,0,0,0,0,0,0,0,0,0,0,0,0,0,0,0,0,0],"id":23,"left_children":[1,3,5,7,9,11,13,15,17,19,21,23,25,27,-1,29,31,33,35,37,39,41,43,45,47,49,51,53,55,-1,-1,-1,-1,-1,-1,-1,-1,-1,-1,-1,-1,-1,-1,-1,-1,-1,-1,-1,-1,-1,-1,-1,-1,-1,-1,-1,-1],"loss_changes":[4.9947348E4,6.123324E3,5.498791E3,1.0534141E3,1.00444727E3,1.0773384E3,7.298086E2,1.8474805E2,8.613867E1,1.1929736E2,2.4321832E2,2.769292E2,1.554419E2,2.3914941E2,0E0,2.421875E1,7.144629E1,6.2116943E1,7.4648438E0,3.9979492E1,4.8121582E1,2.8447855E1,1.3208362E2,9.2342285E1,7.9516846E1,9.860156E1,1.3975293E2,2.4486816E1,1.8452734E2,0E0,0E0,0E0,0E0,0E0,0E0,0E0,0E0,0E0,0E0,0E0,0E0,0E0,0E0,0E0,0E0,0E0,0E0,0E0,0E0,0E0,0E0,0E0,0E0,0E0,0E0,0E0,0E0],"parents":[2147483647,0,0,1,1,2,2,3,3,4,4,5,5,6,6,7,7,8,8,9,9,10,10,11,11,12,12,13,13,15,15,16,16,17,17,18,18,19,19,20,20,21,21,22,22,23,23,24,24,25,25,26,26,27,27,28,28],"right_children":[2,4,6,8,10,12,14,16,18,20,22,24,26,28,-1,30,32,34,36,38,40,42,44,46,48,50,52,54,56,-1,-1,-1,-1,-1,-1,-1,-1,-1,-1,-1,-1,-1,-1,-1,-1,-1,-1,-1,-1,-1,-1,-1,-1,-1,-1,-1,-1],"split_conditions":[1.5E1,8.7E0,2.22E1,2.8E0,1.2E1,1.93E1,2.15E1,1.9E0,8.142924E-1,1.04E1,-1.8281692E-1,-2.9959476E-1,2E-2,3E0,1.0840252E-1,1E0,-6.115299E-1,3E0,3.8E0,-6.9135123E-1,6.3921165E-1,1.07E1,-8.1491596E-1,1E-1,-9.223291E-1,-3.3323526E-2,1.4E1,1.76E1,1.65E1,-6.2484343E-2,-1.0492479E-1,-4.4887226E-2,-8.100759E-2,-5.9610404E-2,-4.0077075E-2,-6.4530246E-2,-5.106725E-2,-2.9108537E-2,-4.423659E-2,-2.4826853E-2,-3.6485434E-2,-1.3191045E-3,1.1233923E-2,-7.0945523E-3,-2.3364086E-2,3.4123145E-2,2.1695465E-2,1.7590372E-2,4.9761436E-3,5.4975715E-2,2.8167915E-2,2.4858708E-3,3.9856195E-2,7.048752E-2,9.0436764E-2,3.0426063E-2,6.6462435E-2],"split_indices":[10,10,10,8,10,10,8,10,12,10,12,12,6,0,0,19,11,19,9,11,12,8,11,6,11,12,8,8,8,0,0,0,0,0,0,0,0,0,0,0,0,0,0,0,0,0,0,0,0,0,0,0,0,0,0,0,0],"split_type":[0,0,0,0,0,0,0,0,0,0,0,0,0,0,0,0,0,0,0,0,0,0,0,0,0,0,0,0,0,0,0,0,0,0,0,0,0,0,0,0,0,0,0,0,0,0,0,0,0,0,0,0,0,0,0,0,0],"sum_hessian":[2.351E3,1.175E3,1.176E3,5.08E2,6.67E2,7.83E2,3.93E2,2.75E2,2.33E2,3.72E2,2.95E2,4.69E2,3.14E2,3.29E2,6.4E1,7E1,2.05E2,9.7E1,1.36E2,2.02E2,1.7E2,7.7E1,2.18E2,2.59E2,2.1E2,1.66E2,1.48E2,1.02E2,2.27E2,7E0,6.3E1,1E1,1.95E2,3.3E1,6.4E1,1.03E2,3.3E1,2.9E1,1.73E2,9.4E1,7.6E1,5E1,2.7E1,8E1,1.38E2,1.31E2,1.28E2,1.25E2,8.5E1,1.47E2,1.9E1,1.1E1,1.37E2,3.7E1,6.5E1,1.8E1,2.09E2],"tree_param":{"num_deleted":"0","num_feature":"29","num_nodes":"57","size_leaf_vector":"1"}},{"base_weights":[-1.2185896E-1,-4.611937E0,4.2800465E0,-7.505026E0,-2.9071374E0,2.822975E0,7.6075473E0,-8.547325E0,-5.7595196E0,-1.2270181E0,-3.9514112E0,1.5619725E0,4.055458E0,6.9423704E0,1.0648186E1,-9.981064E-2,-7.8101807E0,-6.186779E0,-3.6700199E0,-2.9756794E0,-3.3615157E-1,-4.836586E0,-3.1640985E0,1.9559246E0,-1.7124065E0,5.0767035E0,3.4321868E0,5.0484037E0,7.7888584E0,1.1088168E1,4.676986E-2,-4.686506E-2,-8.151201E-2,-4.9069624E-2,-6.5426916E-2,-4.2246394E-2,-2.4777034E-2,-3.742358E-2,-1.6337426E-2,2.7642237E-2,-6.6497168E-3,-3.6931198E-2,-5.285282E-2,-8.614712E-3,-3.2709733E-2,3.0077877E-2,1.3314461E-2,-5.251396E-3,-2.3685183E-2,1.9384477E-2,5.303853E-2,3.301591E-2,6.343861E-2,5.4265644E-2,2.2670481E-2,8.28523E-2,6.0678367E-2,7.228527E-2,1.1481947E-1],"categories":[],"categories_nodes":[],"categories_segments":[],"categories_sizes":[],"default_left":[0,0,0,0,0,0,0,0,0,0,0,0,0,0,0,0,0,0,0,0,0,0,0,0,0,0,0,0,0,0,0,0,0,0,0,0,0,0,0,0,0,0,0,0,0,0,0,0,0,0,0,0,0,0,0,0,0,0,0],"id":24,"left_children":[1,3,5,7,9,11,13,15,17,19,21,23,25,27,29,-1,31,33,35,37,39,41,43,45,47,49,51,53,55,57,-1,-1,-1,-1,-1,-1,-1,-1,-1,-1,-1,-1,-1,-1,-1,-1,-1,-1,-1,-1,-1,-1,-1,-1,-1,-1,-1,-1,-1],"loss_changes":[4.5834805E4,5.6392344E3,5.654965E3,7.225586E2,1.2648955E3,1.2613018E3,6.443496E2,1.9928125E2,1.2093555E2,4.3330136E2,2.9471777E2,5.2580304E2,2.4396826E2,4.3234473E2,1.0945215E2,0E0,1.5119336E2,2.7332031E1,8.700806E0,9.005878E1,1.9124887E2,8.630078E1,5.558496E1,2.3334692E2,3.2741943E1,9.8773926E1,7.657617E1,8.579736E1,1.2085156E2,1.762207E0,0E0,0E0,0E0,0E0,0E0,0E0,0E0,0E0,0E0,0E0,0E0,0E0,0E0,0E0,0E0,0E0,0E0,0E0,0E0,0E0,0E0,0E0,0E0,0E0,0E0,0E0,0E0,0E0,0E0],"parents":[2147483647,0,0,1,1,2,2,3,3,4,4,5,5,6,6,7,7,8,8,9,9,10,10,11,11,12,12,13,13,14,14,16,16,17,17,18,18,19,19,20,20,21,21,22,22,23,23,24,24,25,25,26,26,27,27,28,28,29,29],"right_children":[2,4,6,8,10,12,14,16,18,20,22,24,26,28,30,-1,32,34,36,38,40,42,44,46,48,50,52,54,56,58,-1,-1,-1,-1,-1,-1,-1,-1,-1,-1,-1,-1,-1,-1,-1,-1,-1,-1,-1,-1,-1,-1,-1,-1,-1,-1,-1,-1,-1],"split_conditions":[1.08E1,4.9E0,1.71E1,2.8E0,3.423569E-1,1.41E1,2.15E1,-5E-1,9.8E-1,7.6E0,7.3E0,4.6801534E-1,9E0,1.0128E0,1.2E-1,-9.981064E-2,-4E0,-2E-1,7.7E0,1.0179E0,1.9E0,-4.990686E-1,2.4E0,9E0,-7.142921E-1,1.0087E0,2.95E0,1.26E0,6E0,3.3E1,4.676986E-2,-4.686506E-2,-8.151201E-2,-4.9069624E-2,-6.5426916E-2,-4.2246394E-2,-2.4777034E-2,-3.742358E-2,-1.6337426E-2,2.7642237E-2,-6.6497168E-3,-3.6931198E-2,-5.285282E-2,-8.614712E-3,-3.2709733E-2,3.0077877E-2,1.3314461E-2,-5.251396E-3,-2.3685183E-2,1.9384477E-2,5.303853E-2,3.301591E-2,6.343861E-2,5.4265644E-2,2.2670481E-2,8.28523E-2,6.0678367E-2,7.228527E-2,1.1481947E-1],"split_indices":[8,8,8,8,12,8,8,8,5,8,8,12,2,4,6,0,9,9,7,4,1,11,9,2,11,4,5,6,0,24,0,0,0,0,0,0,0,0,0,0,0,0,0,0,0,0,0,0,0,0,0,0,0,0,0,0,0,0,0],"split_type":[0,0,0,0,0,0,0,0,0,0,0,0,0,0,0,0,0,0,0,0,0,0,0,0,0,0,0,0,0,0,0,0,0,0,0,0,0,0,0,0,0,0,0,0,0,0,0,0,0,0,0,0,0,0,0,0,0,0,0],"sum_hessian":[2.317E3,1.147E3,1.17E3,4.24E2,7.23E2,8.15E2,3.55E2,2.63E2,1.61E2,2.78E2,4.45E2,4.04E2,4.11E2,2.94E2,6.1E1,8.5E1,1.78E2,1.32E2,2.9E1,9.3E1,1.85E2,2.07E2,2.38E2,3.61E2,4.3E1,1.53E2,2.58E2,9.3E1,2.01E2,5.6E1,5E0,1.9E1,1.59E2,3.2E1,1E2,1.8E1,1.1E1,5.8E1,3.5E1,1.7E1,1.68E2,6.1E1,1.46E2,1.1E1,2.27E2,1.33E2,2.28E2,1.6E1,2.7E1,1.1E1,1.42E2,2.49E2,9E0,8.1E1,1.2E1,1.53E2,4.8E1,7E0,4.9E1],"tree_param":{"num_deleted":"0","num_feature":"29","num_nodes":"59","size_leaf_vector":"1"}},{"base_weights":[-4.4971332E-2,-4.9015E0,4.2199144E0,-7.336045E0,-2.9361448E0,2.3395777E0,6.983797E0,-8.616654E0,-5.839365E0,-3.6677709E0,-1.5073746E0,5.9305197E-1,3.0739906E0,6.32861E0,1.0460335E1,-1.0469867E-1,-8.040771E0,-6.0080132E0,-3.8700588E0,-3.0460868E0,-4.2559123E0,2.8543004E-1,-1.9471986E0,8.9642453E-1,-1.3851923E0,3.591209E0,1.9661188E0,5.0654736E0,7.15068E0,1.0826064E1,5.8487244E-2,-8.400144E-2,-6.932794E-2,-5.4752093E-2,-6.683318E-2,-4.8522107E-2,-2.0102765E-2,-3.5349723E-2,-2.3276858E-2,-5.416308E-2,-3.856068E-2,9.231957E-3,-1.2006006E-2,-1.5512469E-2,-2.6696716E-2,1.3190752E-2,3.3774208E-3,-3.501707E-2,-8.17821E-3,2.8854057E-2,4.074416E-2,2.3599816E-2,9.138008E-3,4.052767E-2,6.0890224E-2,5.2666683E-2,7.8511216E-2,1.11239806E-1,6.456278E-2],"categories":[],"categories_nodes":[],"categories_segments":[],"categories_sizes":[],"default_left":[0,0,0,0,0,0,0,0,0,0,0,0,0,0,0,0,0,0,0,0,0,0,0,0,0,0,0,0,0,0,0,0,0,0,0,0,0,0,0,0,0,0,0,0,0,0,0,0,0,0,0,0,0,0,0,0,0,0,0],"id":25,"left_children":[1,3,5,7,9,11,13,15,17,19,21,23,25,27,29,-1,31,33,35,37,39,41,43,45,47,49,51,53,55,57,-1,-1,-1,-1,-1,-1,-1,-1,-1,-1,-1,-1,-1,-1,-1,-1,-1,-1,-1,-1,-1,-1,-1,-1,-1,-1,-1,-1,-1],"loss_changes":[4.8860926E4,5.25501E3,6.5101973E3,8.912344E2,6.336929E2,9.5853076E2,1.0892363E3,1.9464453E2,5.2148926E1,1.3402344E2,1.6552234E2,1.3502518E2,2.9436084E2,4.090625E2,6.825488E1,0E0,2.1855469E1,3.775049E1,2.7917847E1,6.1428833E1,7.330249E1,4.0885704E1,4.349536E1,4.519754E1,3.272977E1,1.09643555E2,6.797589E1,1.5363281E2,2.9780566E2,2.0154297E1,0E0,0E0,0E0,0E0,0E0,0E0,0E0,0E0,0E0,0E0,0E0,0E0,0E0,0E0,0E0,0E0,0E0,0E0,0E0,0E0,0E0,0E0,0E0,0E0,0E0,0E0,0E0,0E0,0E0],"parents":[2147483647,0,0,1,1,2,2,3,3,4,4,5,5,6,6,7,7,8,8,9,9,10,10,11,11,12,12,13,13,14,14,16,16,17,17,18,18,19,19,20,20,21,21,22,22,23,23,24,24,25,25,26,26,27,27,28,28,29,29],"right_children":[2,4,6,8,10,12,14,16,18,20,22,24,26,28,30,-1,32,34,36,38,40,42,44,46,48,50,52,54,56,58,-1,-1,-1,-1,-1,-1,-1,-1,-1,-1,-1,-1,-1,-1,-1,-1,-1,-1,-1,-1,-1,-1,-1,-1,-1,-1,-1,-1,-1],"split_conditions":[1.4E1,8.4E0,2.09E1,5.6E0,1.2E1,1.65E1,2.12E1,1.4E0,2.16E2,6.6528654E-1,-1.8281692E-1,4.6801534E-1,-2.9959476E-1,1.74E1,6E0,-1.0469867E-1,2.1E0,2.4E0,3.2E0,7.3E0,6.6E0,5.7E0,5.707842E-1,-1.1478762E-1,5E0,1.43E1,-9.223291E-1,1.0175E0,1.0128E0,3.7E0,5.8487244E-2,-8.400144E-2,-6.932794E-2,-5.4752093E-2,-6.683318E-2,-4.8522107E-2,-2.0102765E-2,-3.5349723E-2,-2.3276858E-2,-5.416308E-2,-3.856068E-2,9.231957E-3,-1.2006006E-2,-1.5512469E-2,-2.6696716E-2,1.3190752E-2,3.3774208E-3,-3.501707E-2,-8.17821E-3,2.8854057E-2,4.074416E-2,2.3599816E-2,9.138008E-3,4.052767E-2,6.0890224E-2,5.2666683E-2,7.8511216E-2,1.11239806E-1,6.456278E-2],"split_indices":[10,10,10,10,10,10,8,10,24,12,12,12,12,8,0,0,8,7,1,8,8,7,12,12,16,8,11,4,4,1,0,0,0,0,0,0,0,0,0,0,0,0,0,0,0,0,0,0,0,0,0,0,0,0,0,0,0,0,0],"split_type":[0,0,0,0,0,0,0,0,0,0,0,0,0,0,0,0,0,0,0,0,0,0,0,0,0,0,0,0,0,0,0,0,0,0,0,0,0,0,0,0,0,0,0,0,0,0,0,0,0,0,0,0,0,0,0,0,0,0,0],"sum_hessian":[2.357E3,1.102E3,1.255E3,4.91E2,6.11E2,7.48E2,5.07E2,2.62E2,2.29E2,4.03E2,2.08E2,2.22E2,5.26E2,4.29E2,7.8E1,5.8E1,2.04E2,2.09E2,2E1,1.99E2,2.04E2,4.1E1,1.67E2,1.93E2,2.9E1,3.57E2,1.69E2,1.72E2,2.57E2,7.1E1,7E0,1.49E2,5.5E1,1.22E2,8.7E1,1.2E1,8E0,1.16E2,8.3E1,4.9E1,1.55E2,2.9E1,1.2E1,1.1E2,5.7E1,1.09E2,8.4E1,5E0,2.4E1,1.48E2,2.09E2,1.22E2,4.7E1,8.9E1,8.3E1,7.2E1,1.85E2,6.5E1,6E0],"tree_param":{"num_deleted":"0","num_feature":"29","num_nodes":"59","size_leaf_vector":"1"}},{"base_weights":[-2.5750218E-2,-4.6360216E0,4.360884E0,-7.2153177E0,-2.7569022E0,2.458537E0,6.8543754E0,-8.601854E0,-5.762813E0,-3.621319E0,-1.3335246E0,1.3481874E0,3.373966E0,6.143259E0,9.313469E0,-1.0374607E-1,-7.9231977E0,-6.5536137E0,-5.4382496E0,-3.9051688E0,-2.7694745E0,-1.7434023E-1,-1.7892344E0,1.5031438E0,-5.50383E-1,3.594051E0,2.8815364E-2,5.067454E0,7.1726394E0,9.819252E0,5.314019E-2,-7.3486485E-2,-8.645543E-2,-5.9015308E-2,-8.6501285E-2,-5.5892374E-2,-3.130681E-2,-4.1716266E-2,-2.670903E-2,-1.482064E-2,-3.126984E-2,8.43937E-3,-9.672801E-3,5.0902874E-3,-1.9570213E-2,1.3586723E-2,3.256774E-2,-1.0842008E-2,8.866317E-3,4.3281786E-2,3.1488176E-2,1.5491832E-2,-2.244618E-2,6.0253568E-2,4.3417647E-2,6.014988E-2,7.998142E-2,9.204354E-2,1.293188E-1],"categories":[],"categories_nodes":[],"categories_segments":[],"categories_sizes":[],"default_left":[0,0,0,0,0,0,0,0,0,0,0,0,0,0,0,0,0,0,0,0,0,0,0,0,0,0,0,0,0,0,0,0,0,0,0,0,0,0,0,0,0,0,0,0,0,0,0,0,0,0,0,0,0,0,0,0,0,0,0],"id":26,"left_children":[1,3,5,7,9,11,13,15,17,19,21,23,25,27,29,-1,31,33,35,37,39,41,43,45,47,49,51,53,55,57,-1,-1,-1,-1,-1,-1,-1,-1,-1,-1,-1,-1,-1,-1,-1,-1,-1,-1,-1,-1,-1,-1,-1,-1,-1,-1,-1,-1,-1],"loss_changes":[4.7201844E4,5.4947734E3,5.655426E3,9.1367773E2,8.067339E2,6.861621E2,8.4531836E2,2.0832227E2,2.3990234E1,8.765381E1,1.3208289E2,9.182898E1,2.7340723E2,4.0982422E2,1.7691113E2,0E0,9.5703125E0,3.4990234E1,4.2254395E1,8.848242E1,4.369232E1,5.896381E1,7.0552246E1,6.757147E1,1.939154E1,9.9697266E1,8.63627E1,1.1252588E2,1.454414E2,7.015137E1,0E0,0E0,0E0,0E0,0E0,0E0,0E0,0E0,0E0,0E0,0E0,0E0,0E0,0E0,0E0,0E0,0E0,0E0,0E0,0E0,0E0,0E0,0E0,0E0,0E0,0E0,0E0,0E0,0E0],"parents":[2147483647,0,0,1,1,2,2,3,3,4,4,5,5,6,6,7,7,8,8,9,9,10,10,11,11,12,12,13,13,14,14,16,16,17,17,18,18,19,19,20,20,21,21,22,22,23,23,24,24,25,25,26,26,27,27,28,28,29,29],"right_children":[2,4,6,8,10,12,14,16,18,20,22,24,26,28,30,-1,32,34,36,38,40,42,44,46,48,50,52,54,56,58,-1,-1,-1,-1,-1,-1,-1,-1,-1,-1,-1,-1,-1,-1,-1,-1,-1,-1,-1,-1,-1,-1,-1,-1,-1,-1,-1,-1,-1],"split_conditions":[1.48E1,8.4E0,2.09E1,5.6E0,1.21E1,1.76E1,2.03E1,1.7E0,3.2E0,5E-1,6.123234E-17,4.1E1,9.3957E-1,1.0171E0,5E-2,-1.0374607E-1,1.0236E0,4.3E1,9.487719E-1,8.7E0,9.3957E-1,1E1,1.8E1,1.46E1,1.0178E0,9E0,5.8778524E-1,-8.660254E-1,1.73E1,1.47E1,5.314019E-2,-7.3486485E-2,-8.645543E-2,-5.9015308E-2,-8.6501285E-2,-5.5892374E-2,-3.130681E-2,-4.1716266E-2,-2.670903E-2,-1.482064E-2,-3.126984E-2,8.43937E-3,-9.672801E-3,5.0902874E-3,-1.9570213E-2,1.3586723E-2,3.256774E-2,-1.0842008E-2,8.866317E-3,4.3281786E-2,3.1488176E-2,1.5491832E-2,-2.244618E-2,6.0253568E-2,4.3417647E-2,6.014988E-2,7.998142E-2,9.204354E-2,1.293188E-1],"split_indices":[10,10,10,10,10,10,8,10,8,17,14,23,11,4,6,0,4,23,11,8,11,2,24,8,4,2,27,18,8,7,0,0,0,0,0,0,0,0,0,0,0,0,0,0,0,0,0,0,0,0,0,0,0,0,0,0,0,0,0],"split_type":[0,0,0,0,0,0,0,0,0,0,0,0,0,0,0,0,0,0,0,0,0,0,0,0,0,0,0,0,0,0,0,0,0,0,0,0,0,0,0,0,0,0,0,0,0,0,0,0,0,0,0,0,0,0,0,0,0,0,0],"sum_hessian":[2.332E3,1.137E3,1.195E3,4.78E2,6.59E2,6.79E2,5.16E2,2.42E2,2.36E2,4.09E2,2.5E2,3.08E2,3.71E2,4.03E2,1.13E2,6.3E1,1.79E2,6.3E1,1.73E2,3.04E2,1.05E2,7.1E1,1.79E2,2.85E2,2.3E1,3.48E2,2.3E1,2E2,2.03E2,9.9E1,1.4E1,1.06E2,7.3E1,5.1E1,1.2E1,1.61E2,1.2E1,2.48E2,5.6E1,2.4E1,8.1E1,3.1E1,4E1,1.2E1,1.67E2,2.65E2,2E1,1.7E1,6E0,1.28E2,2.2E2,1.4E1,9E0,8.3E1,1.17E2,8.8E1,1.15E2,8.6E1,1.3E1],"tree_param":{"num_deleted":"0","num_feature":"29","num_nodes":"59","size_leaf_vector":"1"}},{"base_weights":[-1.4551484E-2,-4.5194864E0,4.4369082E0,-7.099834E0,-2.6609144E0,2.554664E0,6.8326516E0,-8.87661E0,-5.956466E0,-3.6855235E0,-1.1836672E0,1.647361E0,3.4166663E0,6.1219206E0,9.51115E0,-1.0206061E-1,-8.350937E-2,-6.6181307E0,-5.2768393E0,-4.335348E0,-3.1307344E0,-1.1645412E-1,-1.6245512E0,1.0280703E0,2.1217391E0,3.5674665E0,1.431705E-1,7.5371566E0,5.627061E0,1.0033358E1,5.3183875E0,-5.9322845E-2,-7.240133E-2,-4.489107E-2,-5.9382815E-2,-4.6158656E-2,-3.3765305E-2,-3.2439955E-2,-1.2253222E-2,-1.5997237E-2,4.430812E-3,-1.9908492E-2,-5.277543E-3,1.4761679E-2,1.8883202E-3,3.2494996E-2,1.8876188E-2,4.0287487E-2,2.8288718E-2,2.6373347E-2,-1.2212073E-2,3.1339098E-2,7.726877E-2,4.5350254E-2,6.2385757E-2,9.077788E-2,1.1200044E-1,6.360907E-2,2.8515425E-2],"categories":[],"categories_nodes":[],"categories_segments":[],"categories_sizes":[],"default_left":[0,0,0,0,0,0,0,0,0,0,0,0,0,0,0,0,0,0,0,0,0,0,0,0,0,0,0,0,0,0,0,0,0,0,0,0,0,0,0,0,0,0,0,0,0,0,0,0,0,0,0,0,0,0,0,0,0,0,0],"id":27,"left_children":[1,3,5,7,9,11,13,15,17,19,21,23,25,27,29,-1,-1,31,33,35,37,39,41,43,45,47,49,51,53,55,57,-1,-1,-1,-1,-1,-1,-1,-1,-1,-1,-1,-1,-1,-1,-1,-1,-1,-1,-1,-1,-1,-1,-1,-1,-1,-1,-1,-1],"loss_changes":[4.7085707E4,5.576787E3,5.307176E3,9.3701953E2,1.0243989E3,5.12396E2,9.2822656E2,4.4998047E1,9.879297E1,1.3024707E2,1.3138153E2,9.298151E1,1.6646362E2,2.4551367E2,1.7937793E2,0E0,0E0,1.8868652E1,5.2018555E1,3.256714E1,4.3056152E1,6.9709625E1,7.824481E1,5.333142E1,4.1670288E1,9.83042E1,5.7810074E1,6.1578613E1,1.7764746E2,1.0966797E0,1.6944641E1,0E0,0E0,0E0,0E0,0E0,0E0,0E0,0E0,0E0,0E0,0E0,0E0,0E0,0E0,0E0,0E0,0E0,0E0,0E0,0E0,0E0,0E0,0E0,0E0,0E0,0E0,0E0,0E0],"parents":[2147483647,0,0,1,1,2,2,3,3,4,4,5,5,6,6,7,7,8,8,9,9,10,10,11,11,12,12,13,13,14,14,17,17,18,18,19,19,20,20,21,21,22,22,23,23,24,24,25,25,26,26,27,27,28,28,29,29,30,30],"right_children":[2,4,6,8,10,12,14,16,18,20,22,24,26,28,30,-1,-1,32,34,36,38,40,42,44,46,48,50,52,54,56,58,-1,-1,-1,-1,-1,-1,-1,-1,-1,-1,-1,-1,-1,-1,-1,-1,-1,-1,-1,-1,-1,-1,-1,-1,-1,-1,-1,-1],"split_conditions":[1.49E1,8.4E0,2.09E1,4.6E0,1.2E1,1.8E1,2.66E1,1.1E0,6.9E0,9.9E0,6.123234E-17,1.65E1,9.3957E-1,3E0,1.2E-1,-1.0206061E-1,-8.350937E-2,2.1E0,1.9E1,8.7240404E-1,8.1E0,-5.8778524E-1,1.39E1,6.123234E-17,1E0,8E-2,5.3E0,1.25E0,1.73E1,2.27E1,-2.4268684E-1,-5.9322845E-2,-7.240133E-2,-4.489107E-2,-5.9382815E-2,-4.6158656E-2,-3.3765305E-2,-3.2439955E-2,-1.2253222E-2,-1.5997237E-2,4.430812E-3,-1.9908492E-2,-5.277543E-3,1.4761679E-2,1.8883202E-3,3.2494996E-2,1.8876188E-2,4.0287487E-2,2.8288718E-2,2.6373347E-2,-1.2212073E-2,3.1339098E-2,7.726877E-2,4.5350254E-2,6.2385757E-2,9.077788E-2,1.1200044E-1,6.360907E-2,2.8515425E-2],"split_indices":[10,10,10,10,10,10,10,10,10,10,14,10,11,0,6,0,0,7,15,11,7,27,10,14,7,6,9,5,8,8,11,0,0,0,0,0,0,0,0,0,0,0,0,0,0,0,0,0,0,0,0,0,0,0,0,0,0,0,0],"split_type":[0,0,0,0,0,0,0,0,0,0,0,0,0,0,0,0,0,0,0,0,0,0,0,0,0,0,0,0,0,0,0,0,0,0,0,0,0,0,0,0,0,0,0,0,0,0,0,0,0,0,0,0,0,0,0,0,0,0,0],"sum_hessian":[2.346E3,1.166E3,1.18E3,4.87E2,6.79E2,6.62E2,5.18E2,1.88E2,2.99E2,4E2,2.79E2,3.24E2,3.38E2,4.12E2,1.06E2,4.8E1,1.4E2,1.47E2,1.52E2,1.81E2,2.19E2,8.2E1,1.97E2,1.42E2,1.82E2,3.23E2,1.5E1,1.03E2,3.09E2,9.3E1,1.3E1,7.5E1,7.2E1,7.3E1,7.9E1,1.37E2,4.4E1,2.06E2,1.3E1,2.2E1,6E1,1.47E2,5E1,9.2E1,5E1,2.9E1,1.53E2,1.96E2,1.27E2,5E0,1E1,5E0,9.8E1,1.14E2,1.95E2,5.6E1,3.7E1,8E0,5E0],"tree_param":{"num_deleted":"0","num_feature":"29","num_nodes":"59","size_leaf_vector":"1"}},{"base_weights":[5.0656833E-2,-4.505433E0,4.3461075E0,-7.053377E0,-2.6331832E0,2.330233E0,6.7215896E0,-8.364881E0,-5.555211E0,-3.4222405E0,-1.1283907E0,3.0704648E0,1.2219588E0,5.532973E0,8.744416E0,-1.0383185E-1,-7.812456E0,-3.9753106E0,-5.7269993E0,-2.7156525E0,-4.0637546E0,-3.1177247E-1,-1.7998787E0,2.3138864E0,3.6156485E0,1.6465691E0,-2.875855E-1,6.050472E0,4.7174964E0,9.537208E0,5.7686377E0,-7.888321E-2,-4.0533915E-2,-5.423502E-2,-2.8154837E-2,-5.9247736E-2,-4.258614E-2,-3.2246817E-2,-2.1840088E-2,-5.518847E-2,-3.723462E-2,4.269937E-3,-1.4515656E-2,-1.0026558E-2,-2.25741E-2,2.0576601E-3,2.450567E-2,1.9703329E-2,3.798158E-2,1.3098162E-2,3.1938374E-2,-1.1371783E-2,8.413805E-3,6.5303184E-2,5.2012186E-2,4.203058E-2,5.8998518E-2,8.741677E-2,1.1583427E-1,6.243332E-2,3.2177877E-2],"categories":[],"categories_nodes":[],"categories_segments":[],"categories_sizes":[],"default_left":[0,0,0,0,0,0,0,0,0,0,0,0,0,0,0,0,0,0,0,0,0,0,0,0,0,0,0,0,0,0,0,0,0,0,0,0,0,0,0,0,0,0,0,0,0,0,0,0,0,0,0,0,0,0,0,0,0,0,0,0,0],"id":28,"left_children":[1,3,5,7,9,11,13,15,17,19,21,23,25,27,29,-1,31,33,35,37,39,41,43,45,47,49,51,53,55,57,59,-1,-1,-1,-1,-1,-1,-1,-1,-1,-1,-1,-1,-1,-1,-1,-1,-1,-1,-1,-1,-1,-1,-1,-1,-1,-1,-1,-1,-1,-1],"loss_changes":[4.452279E4,5.2469688E3,5.5909688E3,8.697246E2,7.5322363E2,5.1676E2,1.241334E3,1.9245898E2,3.624414E1,1.7776025E2,1.2041287E2,1.4778125E2,1.646973E2,1.1428516E2,4.0820996E2,0E0,2.3298828E1,2.5897614E1,3.0960938E1,4.7082153E1,8.597583E1,8.576837E1,4.1545837E1,4.590869E1,5.770215E1,9.9575745E1,5.565858E1,4.840088E1,5.7522217E1,1.4739355E2,3.2242676E1,0E0,0E0,0E0,0E0,0E0,0E0,0E0,0E0,0E0,0E0,0E0,0E0,0E0,0E0,0E0,0E0,0E0,0E0,0E0,0E0,0E0,0E0,0E0,0E0,0E0,0E0,0E0,0E0,0E0,0E0],"parents":[2147483647,0,0,1,1,2,2,3,3,4,4,5,5,6,6,7,7,8,8,9,9,10,10,11,11,12,12,13,13,14,14,16,16,17,17,18,18,19,19,20,20,21,21,22,22,23,23,24,24,25,25,26,26,27,27,28,28,29,29,30,30],"right_children":[2,4,6,8,10,12,14,16,18,20,22,24,26,28,30,-1,32,34,36,38,40,42,44,46,48,50,52,54,56,58,60,-1,-1,-1,-1,-1,-1,-1,-1,-1,-1,