{"learner":{"attributes":{"scikit_learn":"{\"_estimator_type\": \"regressor\"}"},"feature_names":["cloud_cover","wind_speed","wind_gust","humidity","pressure","global_radiation","precipitation","sunshine","temp_mean","temp_min","temp_max","day_sin","day_cos","month_sin","month_cos","solar_term_index","day_in_term","solar_term_sin","solar_term_cos","stem_index","wuxing_index","polarity","wuxing_x_solar","polarity_x_solar","wuxing_pol_solar","wuxing_sin","wuxing_cos","stem_sin","stem_cos"],"feature_types":["int","float","float","float","float","float","float","float","float","float","float","float","float","float","float","int","int","float","float","int","int","int","int","int","int","float","float","float","float"],"gradient_booster":{"model":{"cats":{"enc":[],"feature_segments":[],"sorted_idx":[]},"gbtree_model_param":{"num_parallel_tree":"1","num_trees":"1000"},"iteration_indptr":[0,1,2,3,4,5,6,7,8,9,10,11,12,13,14,15,16,17,18,19,20,21,22,23,24,25,26,27,28,29,30,31,32,33,34,35,36,37,38,39,40,41,42,43,44,45,46,47,48,49,50,51,52,53,54,55,56,57,58,59,60,61,62,63,64,65,66,67,68,69,70,71,72,73,74,75,76,77,78,79,80,81,82,83,84,85,86,87,88,89,90,91,92,93,94,95,96,97,98,99,100,101,102,103,104,105,106,107,108,109,110,111,112,113,114,115,116,117,118,119,120,121,122,123,124,125,126,127,128,129,130,131,132,133,134,135,136,137,138,139,140,141,142,143,144,145,146,147,148,149,150,151,152,153,154,155,156,157,158,159,160,161,162,163,164,165,166,167,168,169,170,171,172,173,174,175,176,177,178,179,180,181,182,183,184,185,186,187,188,189,190,191,192,193,194,195,196,197,198,199,200,201,202,203,204,205,206,207,208,209,210,211,212,213,214,215,216,217,218,219,220,221,222,223,224,225,226,227,228,229,230,231,232,233,234,235,236,237,238,239,240,241,242,243,244,245,246,247,248,249,250,251,252,253,254,255,256,257,258,259,260,261,262,263,264,265,266,267,268,269,270,271,272,273,274,275,276,277,278,279,280,281,282,283,284,285,286,287,288,289,290,291,292,293,294,295,296,297,298,299,300,301,302,303,304,305,306,307,308,309,310,311,312,313,314,315,316,317,318,319,320,321,322,323,324,325,326,327,328,329,330,331,332,333,334,335,336,337,338,339,340,341,342,343,344,345,346,347,348,349,350,351,352,353,354,355,356,357,358,359,360,361,362,363,364,365,366,367,368,369,370,371,372,373,374,375,376,377,378,379,380,381,382,383,384,385,386,387,388,389,390,391,392,393,394,395,396,397,398,399,400,401,402,403,404,405,406,407,408,409,410,411,412,413,414,415,416,417,418,419,420,421,422,423,424,425,426,427,428,429,430,431,432,433,434,435,436,437,438,439,440,441,442,443,444,445,446,447,448,449,450,451,452,453,454,455,456,457,458,459,460,461,462,463,464,465,466,467,468,469,470,471,472,473,474,475,476,477,478,479,480,481,482,483,484,485,486,487,488,489,490,491,492,493,494,495,496,497,498,499,500,501,502,503,504,505,506,507,508,509,510,511,512,513,514,515,516,517,518,519,520,521,522,523,524,525,526,527,528,529,530,531,532,533,534,535,536,537,538,539,540,541,542,543,544,545,546,547,548,549,550,551,552,553,554,555,556,557,558,559,560,561,562,563,564,565,566,567,568,569,570,571,572,573,574,575,576,577,578,579,580,581,582,583,584,585,586,587,588,589,590,591,592,593,594,595,596,597,598,599,600,601,602,603,604,605,606,607,608,609,610,611,612,613,614,615,616,617,618,619,620,621,622,623,624,625,626,627,628,629,630,631,632,633,634,635,636,637,638,639,640,641,642,643,644,645,646,647,648,649,650,651,652,653,654,655,656,657,658,659,660,661,662,663,664,665,666,667,668,669,670,671,672,673,674,675,676,677,678,679,680,681,682,683,684,685,686,687,688,689,690,691,692,693,694,695,696,697,698,699,700,701,702,703,704,705,706,707,708,709,710,711,712,713,714,715,716,717,718,719,720,721,722,723,724,725,726,727,728,729,730,731,732,733,734,735,736,737,738,739,740,741,742,743,744,745,746,747,748,749,750,751,752,753,754,755,756,757,758,759,760,761,762,763,764,765,766,767,768,769,770,771,772,773,774,775,776,777,778,779,780,781,782,783,784,785,786,787,788,789,790,791,792,793,794,795,796,797,798,799,800,801,802,803,804,805,806,807,808,809,810,811,812,813,814,815,816,817,818,819,820,821,822,823,824,825,826,827,828,829,830,831,832,833,834,835,836,837,838,839,840,841,842,843,844,845,846,847,848,849,850,851,852,853,854,855,856,857,858,859,860,861,862,863,864,865,866,867,868,869,870,871,872,873,874,875,876,877,878,879,880,881,882,883,884,885,886,887,888,889,890,891,892,893,894,895,896,897,898,899,900,901,902,903,904,905,906,907,908,909,910,911,912,913,914,915,916,917,918,919,920,921,922,923,924,925,926,927,928,929,930,931,932,933,934,935,936,937,938,939,940,941,942,943,944,945,946,947,948,949,950,951,952,953,954,955,956,957,958,959,960,961,962,963,964,965,966,967,968,969,970,971,972,973,974,975,976,977,978,979,980,981,982,983,984,985,986,987,988,989,990,991,992,993,994,995,996,997,998,999,1000],"tree_info":[0,0,0,0,0,0,0,0,0,0,0,0,0,0,0,0,0,0,0,0,0,0,0,0,0,0,0,0,0,0,0,0,0,0,0,0,0,0,0,0,0,0,0,0,0,0,0,0,0,0,0,0,0,0,0,0,0,0,0,0,0,0,0,0,0,0,0,0,0,0,0,0,0,0,0,0,0,0,0,0,0,0,0,0,0,0,0,0,0,0,0,0,0,0,0,0,0,0,0,0,0,0,0,0,0,0,0,0,0,0,0,0,0,0,0,0,0,0,0,0,0,0,0,0,0,0,0,0,0,0,0,0,0,0,0,0,0,0,0,0,0,0,0,0,0,0,0,0,0,0,0,0,0,0,0,0,0,0,0,0,0,0,0,0,0,0,0,0,0,0,0,0,0,0,0,0,0,0,0,0,0,0,0,0,0,0,0,0,0,0,0,0,0,0,0,0,0,0,0,0,0,0,0,0,0,0,0,0,0,0,0,0,0,0,0,0,0,0,0,0,0,0,0,0,0,0,0,0,0,0,0,0,0,0,0,0,0,0,0,0,0,0,0,0,0,0,0,0,0,0,0,0,0,0,0,0,0,0,0,0,0,0,0,0,0,0,0,0,0,0,0,0,0,0,0,0,0,0,0,0,0,0,0,0,0,0,0,0,0,0,0,0,0,0,0,0,0,0,0,0,0,0,0,0,0,0,0,0,0,0,0,0,0,0,0,0,0,0,0,0,0,0,0,0,0,0,0,0,0,0,0,0,0,0,0,0,0,0,0,0,0,0,0,0,0,0,0,0,0,0,0,0,0,0,0,0,0,0,0,0,0,0,0,0,0,0,0,0,0,0,0,0,0,0,0,0,0,0,0,0,0,0,0,0,0,0,0,0,0,0,0,0,0,0,0,0,0,0,0,0,0,0,0,0,0,0,0,0,0,0,0,0,0,0,0,0,0,0,0,0,0,0,0,0,0,0,0,0,0,0,0,0,0,0,0,0,0,0,0,0,0,0,0,0,0,0,0,0,0,0,0,0,0,0,0,0,0,0,0,0,0,0,0,0,0,0,0,0,0,0,0,0,0,0,0,0,0,0,0,0,0,0,0,0,0,0,0,0,0,0,0,0,0,0,0,0,0,0,0,0,0,0,0,0,0,0,0,0,0,0,0,0,0,0,0,0,0,0,0,0,0,0,0,0,0,0,0,0,0,0,0,0,0,0,0,0,0,0,0,0,0,0,0,0,0,0,0,0,0,0,0,0,0,0,0,0,0,0,0,0,0,0,0,0,0,0,0,0,0,0,0,0,0,0,0,0,0,0,0,0,0,0,0,0,0,0,0,0,0,0,0,0,0,0,0,0,0,0,0,0,0,0,0,0,0,0,0,0,0,0,0,0,0,0,0,0,0,0,0,0,0,0,0,0,0,0,0,0,0,0,0,0,0,0,0,0,0,0,0,0,0,0,0,0,0,0,0,0,0,0,0,0,0,0,0,0,0,0,0,0,0,0,0,0,0,0,0,0,0,0,0,0,0,0,0,0,0,0,0,0,0,0,0,0,0,0,0,0,0,0,0,0,0,0,0,0,0,0,0,0,0,0,0,0,0,0,0,0,0,0,0,0,0,0,0,0,0,0,0,0,0,0,0,0,0,0,0,0,0,0,0,0,0,0,0,0,0,0,0,0,0,0,0,0,0,0,0,0,0,0,0,0,0,0,0,0,0,0,0,0,0,0,0,0,0,0,0,0,0,0,0,0,0,0,0,0,0,0,0,0,0,0,0,0,0,0,0,0,0,0,0,0,0,0,0,0,0,0,0,0,0,0,0,0,0,0,0,0,0,0,0,0,0,0,0,0,0,0,0,0,0,0,0,0,0,0,0,0,0,0,0,0,0,0,0,0,0,0,0,0,0,0,0,0,0,0,0,0,0,0,0,0,0,0,0,0,0,0,0,0,0,0,0,0,0,0,0,0,0,0,0,0,0,0,0,0,0,0,0,0,0,0,0,0,0,0,0,0,0,0,0,0,0,0,0,0,0,0,0,0,0,0,0,0,0,0,0,0,0,0,0,0,0,0,0,0,0,0,0,0,0,0,0,0,0,0,0,0,0,0,0,0,0,0,0,0,0,0,0,0,0,0,0,0,0,0,0,0,0,0,0,0,0,0,0,0,0,0,0,0,0,0,0,0,0,0,0,0,0,0,0,0,0,0,0,0,0,0,0,0,0,0,0,0,0,0,0,0,0,0,0,0,0,0,0,0,0,0,0,0],"trees":[{"base_weights":[3.2980856E-2,-6.691072E0,6.2305717E0,-1.138127E1,-3.8366601E0,3.170248E0,9.644664E0,-1.425125E1,-9.759103E0,-5.434171E0,-1.8801398E0,1.9738921E0,5.208891E0,7.971067E0,1.1814834E1,-1.5052375E-1,-1.23676024E-1,-1.0887756E-1,-8.516461E0,-6.878094E0,-4.5688033E0,-1.1314874E0,-3.0727987E0,2.2836082E0,-7.202808E-1,5.8752875E0,4.3998938E0,8.3492985E0,5.683985E0,1.2729292E1,1.0133121E1,-8.99161E-2,-7.316341E-2,-7.0548125E-2,-3.8122587E-2,-1.3639592E-2,-4.6708066E-2,-1.991009E-2,-3.7386967E-3,-3.916533E-2,-2.1037854E-2,1.2327936E-2,2.8519826E-2,5.349711E-3,-1.2853891E-2,6.885931E-2,5.2818336E-2,4.7702014E-2,2.044043E-2,9.086827E-2,6.98554E-2,6.3682385E-2,3.656176E-2,7.688325E-2,1.2877038E-1,8.382638E-2,1.08715445E-1],"categories":[],"categories_nodes":[],"categories_segments":[],"categories_sizes":[],"default_left":[0,0,0,0,0,0,0,0,0,0,0,0,0,0,0,0,0,0,0,0,0,0,0,0,0,0,0,0,0,0,0,0,0,0,0,0,0,0,0,0,0,0,0,0,0,0,0,0,0,0,0,0,0,0,0,0,0],"id":0,"left_children":[1,3,5,7,9,11,13,15,17,19,21,23,25,27,29,-1,-1,-1,31,33,35,37,39,41,43,45,47,49,51,53,55,-1,-1,-1,-1,-1,-1,-1,-1,-1,-1,-1,-1,-1,-1,-1,-1,-1,-1,-1,-1,-1,-1,-1,-1,-1,-1],"loss_changes":[9.818139E4,1.5082977E4,1.2777672E4,1.846457E3,2.1894482E3,1.5694341E3,2.0067695E3,4.0472656E1,2.9242773E2,4.509961E2,2.800409E2,3.4391687E2,1.01970215E2,2.3660352E2,2.531914E2,0E0,0E0,0E0,1.0135742E1,4.949463E1,7.3118164E1,1.27303345E2,9.09043E1,2.1586609E2,3.1264875E1,3.9183594E1,8.727588E1,2.1755078E2,4.5091064E1,1.6615234E1,2.7154297E1,0E0,0E0,0E0,0E0,0E0,0E0,0E0,0E0,0E0,0E0,0E0,0E0,0E0,0E0,0E0,0E0,0E0,0E0,0E0,0E0,0E0,0E0,0E0,0E0,0E0,0E0],"parents":[2147483647,0,0,1,1,2,2,3,3,4,4,5,5,6,6,7,7,8,8,9,9,10,10,11,11,12,12,13,13,14,14,18,18,19,19,20,20,21,21,22,22,23,23,24,24,25,25,26,26,27,27,28,28,29,29,30,30],"right_children":[2,4,6,8,10,12,14,16,18,20,22,24,26,28,30,-1,-1,-1,32,34,36,38,40,42,44,46,48,50,52,54,56,-1,-1,-1,-1,-1,-1,-1,-1,-1,-1,-1,-1,-1,-1,-1,-1,-1,-1,-1,-1,-1,-1,-1,-1,-1,-1],"split_conditions":[1E1,2E0,1.65E1,-2.4E0,6.6E0,1.41E1,2.04E1,-3.6E0,2.7E0,3.8E0,4.6801534E-1,4.527447E-1,4E-2,1.33E1,2E-2,-1.5052375E-1,-1.23676024E-1,-1.0887756E-1,4.7E0,9.8E0,-2.8726098E-1,8.4E0,8.1E0,1.17E1,3.6E-1,-6.732749E-1,-1.9970155E-1,-6.0384524E-1,2.59E1,1.009E0,2.16E1,-8.99161E-2,-7.316341E-2,-7.0548125E-2,-3.8122587E-2,-1.3639592E-2,-4.6708066E-2,-1.991009E-2,-3.7386967E-3,-3.916533E-2,-2.1037854E-2,1.2327936E-2,2.8519826E-2,5.349711E-3,-1.2853891E-2,6.885931E-2,5.2818336E-2,4.7702014E-2,2.044043E-2,9.086827E-2,6.98554E-2,6.3682385E-2,3.656176E-2,7.688325E-2,1.2877038E-1,8.382638E-2,1.08715445E-1],"split_indices":[8,8,8,8,8,8,8,8,10,8,12,12,6,2,6,0,0,0,10,7,12,8,8,8,5,12,12,12,10,4,8,0,0,0,0,0,0,0,0,0,0,0,0,0,0,0,0,0,0,0,0,0,0,0,0,0,0],"split_type":[0,0,0,0,0,0,0,0,0,0,0,0,0,0,0,0,0,0,0,0,0,0,0,0,0,0,0,0,0,0,0,0,0,0,0,0,0,0,0,0,0,0,0,0,0,0,0,0,0,0,0,0,0,0,0,0,0],"sum_hessian":[2.354E3,1.129E3,1.225E3,4.26E2,7.03E2,6.47E2,5.78E2,1.51E2,2.75E2,3.86E2,3.17E2,4.09E2,2.38E2,3.29E2,2.49E2,1.01E2,5E1,1.4E2,1.35E2,1.42E2,2.44E2,1.96E2,1.21E2,3.67E2,4.2E1,1.27E2,1.11E2,2.8E2,4.9E1,1.57E2,9.2E1,9.2E1,4.3E1,1.33E2,9E0,8E0,2.36E2,9.1E1,1.05E2,6.3E1,5.8E1,1.3E2,2.37E2,1.3E1,2.9E1,4.3E1,8.4E1,9.5E1,1.6E1,1.78E2,1.02E2,3.5E1,1.4E1,6E0,1.51E2,3.1E1,6.1E1],"tree_param":{"num_deleted":"0","num_feature":"29","num_nodes":"57","size_leaf_vector":"1"}},{"base_weights":[-4.0425014E-2,-6.6608496E0,6.1658335E0,-1.1272965E1,-3.8054867E0,3.2097263E0,9.538404E0,-1.4570719E-1,-9.999129E0,-5.6451354E0,-1.9442899E0,1.8127955E0,5.0906773E0,7.9790325E0,1.1788097E1,-1.0711538E-1,-8.391488E0,-6.808926E0,-4.814208E0,-2.6719346E0,-9.2259073E-1,2.1424348E0,-9.9075407E-1,3.7241077E0,5.581566E0,8.865591E0,6.5624394E0,1.2622928E1,9.818354E0,-4.2281594E-2,-8.561472E-2,-7.400575E-2,-5.672988E-2,-3.902853E-2,-5.438768E-2,-2.0709872E-2,-3.462059E-2,-3.7159894E-3,-2.6880328E-2,1.1300771E-2,2.7391711E-2,-2.1510629E-2,-4.130837E-3,4.4686764E-2,2.6154673E-2,3.903595E-2,5.8525335E-2,7.73048E-2,1.0001865E-1,7.1474425E-2,3.2548144E-2,1.14579454E-1,1.407172E-1,8.336099E-2,1.0961585E-1],"categories":[],"categories_nodes":[],"categories_segments":[],"categories_sizes":[],"default_left":[0,0,0,0,0,0,0,0,0,0,0,0,0,0,0,0,0,0,0,0,0,0,0,0,0,0,0,0,0,0,0,0,0,0,0,0,0,0,0,0,0,0,0,0,0,0,0,0,0,0,0,0,0,0,0],"id":1,"left_children":[1,3,5,7,9,11,13,-1,15,17,19,21,23,25,27,-1,29,31,33,35,37,39,41,43,45,47,49,51,53,-1,-1,-1,-1,-1,-1,-1,-1,-1,-1,-1,-1,-1,-1,-1,-1,-1,-1,-1,-1,-1,-1,-1,-1,-1,-1],"loss_changes":[9.672134E4,1.4955383E4,1.2081273E4,1.6791953E3,2.4021494E3,1.6953662E3,1.8930664E3,0E0,2.7126172E2,3.0838477E2,2.5886426E2,3.4787378E2,1.634336E2,3.6476953E2,2.5203125E2,0E0,3.4708008E1,5.4161133E1,9.7370605E1,8.96156E1,1.4266129E2,1.9889478E2,2.5666065E1,5.0338867E1,6.756885E1,1.8531543E2,2.3498193E2,1.02890625E2,3.0396484E1,0E0,0E0,0E0,0E0,0E0,0E0,0E0,0E0,0E0,0E0,0E0,0E0,0E0,0E0,0E0,0E0,0E0,0E0,0E0,0E0,0E0,0E0,0E0,0E0,0E0,0E0],"parents":[2147483647,0,0,1,1,2,2,3,3,4,4,5,5,6,6,8,8,9,9,10,10,11,11,12,12,13,13,14,14,16,16,17,17,18,18,19,19,20,20,21,21,22,22,23,23,24,24,25,25,26,26,27,27,28,28],"right_children":[2,4,6,8,10,12,14,-1,16,18,20,22,24,26,28,-1,30,32,34,36,38,40,42,44,46,48,50,52,54,-1,-1,-1,-1,-1,-1,-1,-1,-1,-1,-1,-1,-1,-1,-1,-1,-1,-1,-1,-1,-1,-1,-1,-1,-1,-1],"split_conditions":[1E1,2E0,1.65E1,-3.1E0,6.2E0,1.38E1,2.07E1,-1.4570719E-1,6E-1,3.8E0,8.6E0,4.527447E-1,1.0145E0,2E-2,2E-2,-1.0711538E-1,-3.8E0,6E-1,5.986907E-1,1.2E-1,5.422022E-1,1.17E1,1.05E1,-5.0743026E-1,1.42E1,1.85E1,4.7843382E-1,2.28E1,2.24E1,-4.2281594E-2,-8.561472E-2,-7.400575E-2,-5.672988E-2,-3.902853E-2,-5.438768E-2,-2.0709872E-2,-3.462059E-2,-3.7159894E-3,-2.6880328E-2,1.1300771E-2,2.7391711E-2,-2.1510629E-2,-4.130837E-3,4.4686764E-2,2.6154673E-2,3.903595E-2,5.8525335E-2,7.73048E-2,1.0001865E-1,7.1474425E-2,3.2548144E-2,1.14579454E-1,1.407172E-1,8.336099E-2,1.0961585E-1],"split_indices":[8,8,8,8,8,8,8,0,8,8,8,12,4,6,6,0,9,5,12,6,12,8,8,12,8,8,11,8,8,0,0,0,0,0,0,0,0,0,0,0,0,0,0,0,0,0,0,0,0,0,0,0,0,0,0],"split_type":[0,0,0,0,0,0,0,0,0,0,0,0,0,0,0,0,0,0,0,0,0,0,0,0,0,0,0,0,0,0,0,0,0,0,0,0,0,0,0,0,0,0,0,0,0,0,0,0,0,0,0,0,0,0,0],"sum_hessian":[2.352E3,1.138E3,1.214E3,4.34E2,7.04E2,6.48E2,5.66E2,1.18E2,3.16E2,3.53E2,3.51E2,3.73E2,2.75E2,3.37E2,2.29E2,2.15E2,1.01E2,1.44E2,2.09E2,2.04E2,1.47E2,3.34E2,3.9E1,7.5E1,2E2,2.04E2,1.33E2,1.57E2,7.2E1,5E0,9.6E1,9.1E1,5.3E1,8.8E1,1.21E2,1.18E2,8.6E1,1.13E2,3.4E1,1.25E2,2.09E2,1.2E1,2.7E1,4.3E1,3.2E1,3E1,1.7E2,1.06E2,9.8E1,1.12E2,2.1E1,9.2E1,6.5E1,3.5E1,3.7E1],"tree_param":{"num_deleted":"0","num_feature":"29","num_nodes":"55","size_leaf_vector":"1"}},{"base_weights":[-4.0121965E-2,-6.6524715E0,6.000008E0,-1.1226182E1,-3.8352478E0,3.1387377E0,9.358662E0,-1.3579489E1,-9.546996E0,-5.4349666E0,-1.8588775E0,1.9142914E0,5.166475E0,7.680539E0,1.1428549E1,-1.6686904E-1,-1.2873403E1,-1.0446876E-1,-8.120242E-2,-6.5206146E0,-4.753151E0,-1.301747E0,-2.7754476E0,2.7770398E0,9.2618036E-1,5.4010673E0,3.118404E0,4.565863E0,8.005236E0,1.2233178E1,9.496121E0,-1.302247E-1,-7.183215E-2,-6.693838E-2,-3.7928198E-2,-4.4586428E-2,-6.146559E-2,-1.9395037E-2,-5.5863606E-3,-1.8796464E-2,-3.4144092E-2,3.260837E-2,1.42283635E-2,1.946725E-2,3.1935162E-4,4.7453627E-2,6.0018E-2,4.2246528E-2,1.2830178E-2,2.2348076E-2,5.1251665E-2,8.43464E-2,5.933561E-2,1.1135117E-1,1.3583465E-1,7.744395E-2,1.01744E-1],"categories":[],"categories_nodes":[],"categories_segments":[],"categories_sizes":[],"default_left":[0,0,0,0,0,0,0,0,0,0,0,0,0,0,0,0,0,0,0,0,0,0,0,0,0,0,0,0,0,0,0,0,0,0,0,0,0,0,0,0,0,0,0,0,0,0,0,0,0,0,0,0,0,0,0,0,0],"id":2,"left_children":[1,3,5,7,9,11,13,15,17,19,21,23,25,27,29,-1,31,-1,-1,33,35,37,39,41,43,45,47,49,51,53,55,-1,-1,-1,-1,-1,-1,-1,-1,-1,-1,-1,-1,-1,-1,-1,-1,-1,-1,-1,-1,-1,-1,-1,-1,-1,-1],"loss_changes":[9.361811E4,1.4373941E4,1.1741648E4,1.5514453E3,2.1833438E3,1.6355352E3,1.8659062E3,1.6619531E2,2.3685938E2,2.5137988E2,1.5530188E2,3.5084155E2,1.0194043E2,2.7974805E2,2.7038086E2,0E0,2.9125E1,0E0,0E0,4.2077637E1,6.9612305E1,9.155582E1,6.0021545E1,1.3968237E2,1.777003E2,5.78916E1,5.0879944E1,2.9530762E1,2.0026758E2,1.0278125E2,1.2089844E1,0E0,0E0,0E0,0E0,0E0,0E0,0E0,0E0,0E0,0E0,0E0,0E0,0E0,0E0,0E0,0E0,0E0,0E0,0E0,0E0,0E0,0E0,0E0,0E0,0E0,0E0],"parents":[2147483647,0,0,1,1,2,2,3,3,4,4,5,5,6,6,7,7,8,8,9,9,10,10,11,11,12,12,13,13,14,14,16,16,19,19,20,20,21,21,22,22,23,23,24,24,25,25,26,26,27,27,28,28,29,29,30,30],"right_children":[2,4,6,8,10,12,14,16,18,20,22,24,26,28,30,-1,32,-1,-1,34,36,38,40,42,44,46,48,50,52,54,56,-1,-1,-1,-1,-1,-1,-1,-1,-1,-1,-1,-1,-1,-1,-1,-1,-1,-1,-1,-1,-1,-1,-1,-1,-1,-1],"split_conditions":[9.9E0,2E0,1.65E1,-2E0,6.6E0,1.41E1,2.04E1,-3.6E0,3.1E0,3.8E0,4.6801534E-1,-1.8281692E-1,2.2576263E-2,1.0086E0,1.08E1,-1.6686904E-1,5E-1,-1.0446876E-1,-8.120242E-2,9.8E0,9.276396E-1,8.6E0,1E-2,4.5E-1,-9.011687E-1,1.0173E0,1E-2,1.05E1,3.6E-1,2.26E1,2.16E1,-1.302247E-1,-7.183215E-2,-6.693838E-2,-3.7928198E-2,-4.4586428E-2,-6.146559E-2,-1.9395037E-2,-5.5863606E-3,-1.8796464E-2,-3.4144092E-2,3.260837E-2,1.42283635E-2,1.946725E-2,3.1935162E-4,4.7453627E-2,6.0018E-2,4.2246528E-2,1.2830178E-2,2.2348076E-2,5.1251665E-2,8.43464E-2,5.933561E-2,1.1135117E-1,1.3583465E-1,7.744395E-2,1.01744E-1],"split_indices":[8,8,8,8,8,8,8,10,10,8,12,12,12,4,2,0,6,0,0,7,12,8,6,6,11,4,6,9,6,8,8,0,0,0,0,0,0,0,0,0,0,0,0,0,0,0,0,0,0,0,0,0,0,0,0,0,0],"split_type":[0,0,0,0,0,0,0,0,0,0,0,0,0,0,0,0,0,0,0,0,0,0,0,0,0,0,0,0,0,0,0,0,0,0,0,0,0,0,0,0,0,0,0,0,0,0,0,0,0,0,0,0,0,0,0,0,0],"sum_hessian":[2.342E3,1.118E3,1.224E3,4.25E2,6.93E2,6.62E2,5.62E2,1.74E2,2.51E2,3.82E2,3.11E2,4.14E2,2.48E2,3.13E2,2.49E2,2.8E1,1.46E2,1.5E2,1.01E2,1.44E2,2.38E2,1.95E2,1.16E2,2.2E2,1.94E2,2.21E2,2.7E1,3.1E1,2.82E2,1.72E2,7.7E1,1.41E2,5E0,1.34E2,1E1,2E2,3.8E1,1.04E2,9.1E1,5E1,6.6E1,1.61E2,5.9E1,9E1,1.04E2,1.1E2,1.11E2,1.6E1,1.1E1,7E0,2.4E1,2.31E2,5.1E1,1E2,7.2E1,2.5E1,5.2E1],"tree_param":{"num_deleted":"0","num_feature":"29","num_nodes":"57","size_leaf_vector":"1"}},{"base_weights":[-4.099489E-2,-6.487179E0,6.050304E0,-1.1158132E1,-3.7510817E0,3.1328995E0,9.418394E0,-1.3706387E1,-9.680354E0,-5.3304005E0,-1.7233448E0,1.8294854E0,5.03818E0,7.9156814E0,1.1694187E1,-1.4815135E-1,-1.23839855E-1,-1.02898836E-1,-8.401363E-2,-6.6212497E0,-4.535366E0,-9.699041E-1,-2.8450146E0,2.660221E0,8.1101E-1,5.527838E0,4.093121E0,8.346295E0,6.047879E0,1.2110875E1,8.773278E-2,-7.2614454E-2,-5.556019E-2,-1.7135778E-2,-4.6688985E-2,-6.331291E-3,-2.5499204E-2,-3.628477E-2,-1.976142E-2,2.053009E-2,3.5707045E-2,1.5845539E-2,-2.0598816E-3,5.843332E-2,3.1496115E-2,4.7690257E-2,2.8339347E-2,8.8075645E-2,6.91499E-2,4.8925743E-2,7.228473E-2,1.0967181E-1,1.3149E-1],"categories":[],"categories_nodes":[],"categories_segments":[],"categories_sizes":[],"default_left":[0,0,0,0,0,0,0,0,0,0,0,0,0,0,0,0,0,0,0,0,0,0,0,0,0,0,0,0,0,0,0,0,0,0,0,0,0,0,0,0,0,0,0,0,0,0,0,0,0,0,0,0,0],"id":3,"left_children":[1,3,5,7,9,11,13,15,17,19,21,23,25,27,29,-1,-1,-1,-1,31,33,35,37,39,41,43,45,47,49,51,-1,-1,-1,-1,-1,-1,-1,-1,-1,-1,-1,-1,-1,-1,-1,-1,-1,-1,-1,-1,-1,-1,-1],"loss_changes":[9.156749E4,1.4436609E4,1.1750711E4,1.4390703E3,2.2830576E3,1.5893853E3,1.806918E3,3.520703E1,1.2061133E2,3.8141504E2,2.6306927E2,3.223916E2,9.719141E1,2.199375E2,1.5820703E2,0E0,0E0,0E0,0E0,6.1348633E1,8.631543E1,9.916815E1,7.8040955E1,1.0875964E2,1.3734882E2,1.0749951E2,6.48761E1,1.1710156E2,5.4806396E1,7.778125E1,0E0,0E0,0E0,0E0,0E0,0E0,0E0,0E0,0E0,0E0,0E0,0E0,0E0,0E0,0E0,0E0,0E0,0E0,0E0,0E0,0E0,0E0,0E0],"parents":[2147483647,0,0,1,1,2,2,3,3,4,4,5,5,6,6,7,7,8,8,9,9,10,10,11,11,12,12,13,13,14,14,19,19,20,20,21,21,22,22,23,23,24,24,25,25,26,26,27,27,28,28,29,29],"right_children":[2,4,6,8,10,12,14,16,18,20,22,24,26,28,30,-1,-1,-1,-1,32,34,36,38,40,42,44,46,48,50,52,-1,-1,-1,-1,-1,-1,-1,-1,-1,-1,-1,-1,-1,-1,-1,-1,-1,-1,-1,-1,-1,-1,-1],"split_conditions":[1E1,2E0,1.65E1,-2.4E0,6.6E0,1.39E1,2.08E1,-4.5E0,6E-1,3.8E0,4.6801534E-1,-1.1905873E-1,1.6E-1,3.5E-1,4.4E-1,-1.4815135E-1,-1.23839855E-1,-1.02898836E-1,-8.401363E-2,6E-1,-1.8281692E-1,4.8E-1,4.3E0,1.27E1,-5E-1,7.411742E-2,-5.331371E-1,-5.331371E-1,1.46E1,2.26E1,8.773278E-2,-7.2614454E-2,-5.556019E-2,-1.7135778E-2,-4.6688985E-2,-6.331291E-3,-2.5499204E-2,-3.628477E-2,-1.976142E-2,2.053009E-2,3.5707045E-2,1.5845539E-2,-2.0598816E-3,5.843332E-2,3.1496115E-2,4.7690257E-2,2.8339347E-2,8.8075645E-2,6.91499E-2,4.8925743E-2,7.228473E-2,1.0967181E-1,1.3149E-1],"split_indices":[8,8,8,8,8,8,8,8,8,8,12,12,6,6,6,0,0,0,0,5,12,6,9,8,13,12,12,12,9,8,0,0,0,0,0,0,0,0,0,0,0,0,0,0,0,0,0,0,0,0,0,0,0],"split_type":[0,0,0,0,0,0,0,0,0,0,0,0,0,0,0,0,0,0,0,0,0,0,0,0,0,0,0,0,0,0,0,0,0,0,0,0,0,0,0,0,0,0,0,0,0,0,0,0,0,0,0,0,0],"sum_hessian":[2.33E3,1.132E3,1.198E3,4.17E2,7.15E2,6.43E2,5.55E2,1.5E2,2.67E2,4.01E2,3.14E2,3.83E2,2.6E2,3.37E2,2.18E2,7.6E1,7.4E1,1.76E2,9.1E1,1.5E2,2.51E2,1.89E2,1.25E2,2.1E2,1.73E2,1.68E2,9.2E1,2.71E2,6.6E1,1.88E2,3E1,9E1,6E1,1.2E1,2.39E2,1.57E2,3.2E1,6.4E1,6.1E1,1.28E2,8.2E1,9.8E1,7.5E1,1.47E2,2.1E1,5.8E1,3.4E1,2.01E2,7E1,3.6E1,3E1,9.5E1,9.3E1],"tree_param":{"num_deleted":"0","num_feature":"29","num_nodes":"53","size_leaf_vector":"1"}},{"base_weights":[8.805349E-3,-6.320836E0,6.067708E0,-1.1262686E1,-3.6275325E0,3.2093182E0,9.191553E0,-1.3806184E1,-9.558675E0,-5.3204656E0,-1.507766E0,2.0852675E0,5.112204E0,7.7197433E0,1.1176576E1,-1.626271E-1,-1.308341E-1,-1.02081375E1,-8.071718E0,-6.437226E0,-4.404362E0,-7.7030873E-1,-2.6796832E0,9.311941E-1,2.6431704E0,4.0915213E0,5.6252046E0,4.603231E0,7.9708157E0,1.0116885E-1,1.2356417E1,-1.079343E-1,-9.078319E-2,-8.334507E-2,-5.6804292E-2,-7.147107E-2,-5.4109626E-2,-2.936465E-2,-4.708337E-2,4.4169915E-3,-1.1069966E-2,-2.3189418E-2,-4.2056903E-2,1.4475279E-2,-5.0878422E-3,1.6783671E-2,3.0507697E-2,1.5279415E-2,4.3501608E-2,5.8159355E-2,3.7737995E-2,1.5866788E-2,5.2121438E-2,7.253309E-2,8.838037E-2,9.5354974E-2,1.277294E-1],"categories":[],"categories_nodes":[],"categories_segments":[],"categories_sizes":[],"default_left":[0,0,0,0,0,0,0,0,0,0,0,0,0,0,0,0,0,0,0,0,0,0,0,0,0,0,0,0,0,0,0,0,0,0,0,0,0,0,0,0,0,0,0,0,0,0,0,0,0,0,0,0,0,0,0,0,0],"id":4,"left_children":[1,3,5,7,9,11,13,15,17,19,21,23,25,27,29,-1,-1,31,33,35,37,39,41,43,45,47,49,51,53,-1,55,-1,-1,-1,-1,-1,-1,-1,-1,-1,-1,-1,-1,-1,-1,-1,-1,-1,-1,-1,-1,-1,-1,-1,-1,-1,-1],"loss_changes":[8.947212E4,1.514425E4,1.0612828E4,1.6080234E3,2.646875E3,1.3233188E3,1.574207E3,6.659961E1,1.5141406E2,3.9104492E2,2.827896E2,2.5086255E2,9.6967285E1,2.2026758E2,1.7280664E2,0E0,0E0,9.798828E0,8.989258E-1,9.339209E1,8.759033E1,8.380142E1,5.950757E1,9.74866E1,9.86189E1,4.6471924E1,3.0414062E1,4.0644165E1,1.23447266E2,0E0,4.044922E0,0E0,0E0,0E0,0E0,0E0,0E0,0E0,0E0,0E0,0E0,0E0,0E0,0E0,0E0,0E0,0E0,0E0,0E0,0E0,0E0,0E0,0E0,0E0,0E0,0E0,0E0],"parents":[2147483647,0,0,1,1,2,2,3,3,4,4,5,5,6,6,7,7,8,8,9,9,10,10,11,11,12,12,13,13,14,14,17,17,18,18,19,19,20,20,21,21,22,22,23,23,24,24,25,25,26,26,27,27,28,28,30,30],"right_children":[2,4,6,8,10,12,14,16,18,20,22,24,26,28,30,-1,-1,32,34,36,38,40,42,44,46,48,50,52,54,-1,56,-1,-1,-1,-1,-1,-1,-1,-1,-1,-1,-1,-1,-1,-1,-1,-1,-1,-1,-1,-1,-1,-1,-1,-1,-1,-1],"split_conditions":[1.03E1,1.8E0,1.65E1,-2.4E0,6.7E0,1.42E1,2.04E1,-3.6E0,3.1E0,4.1E0,4.6801534E-1,1.17E1,1.0155E0,1.0083E0,2.24E1,-1.626271E-1,-1.308341E-1,0E0,6.6E0,5.9E-1,1.7223625E-1,-3.2003924E-1,5.8E0,3.2E0,1.0137E0,9E0,2.2576263E-2,1.05E1,1.85E1,1.0116885E-1,1.012E0,-1.079343E-1,-9.078319E-2,-8.334507E-2,-5.6804292E-2,-7.147107E-2,-5.4109626E-2,-2.936465E-2,-4.708337E-2,4.4169915E-3,-1.1069966E-2,-2.3189418E-2,-4.2056903E-2,1.4475279E-2,-5.0878422E-3,1.6783671E-2,3.0507697E-2,1.5279415E-2,4.3501608E-2,5.8159355E-2,3.7737995E-2,1.5866788E-2,5.2121438E-2,7.253309E-2,8.838037E-2,9.5354974E-2,1.277294E-1],"split_indices":[8,8,8,8,8,8,8,10,10,8,12,8,4,4,8,0,0,8,10,5,12,12,1,1,4,22,12,9,8,0,4,0,0,0,0,0,0,0,0,0,0,0,0,0,0,0,0,0,0,0,0,0,0,0,0,0,0],"split_type":[0,0,0,0,0,0,0,0,0,0,0,0,0,0,0,0,0,0,0,0,0,0,0,0,0,0,0,0,0,0,0,0,0,0,0,0,0,0,0,0,0,0,0,0,0,0,0,0,0,0,0,0,0,0,0,0,0],"sum_hessian":[2.331E3,1.14E3,1.191E3,4.01E2,7.39E2,6.23E2,5.68E2,1.58E2,2.43E2,4.1E2,3.29E2,3.93E2,2.3E2,3.29E2,2.39E2,3.1E1,1.27E2,1.65E2,7.8E1,1.82E2,2.28E2,2.03E2,1.26E2,1.29E2,2.64E2,8E1,1.5E2,2.6E1,3.03E2,1.31E2,1.08E2,1.03E2,6.2E1,6.8E1,1E1,1.04E2,7.8E1,4.1E1,1.87E2,4.4E1,1.59E2,1.04E2,2.2E1,9.5E1,3.4E1,8E1,1.84E2,8E0,7.2E1,1.34E2,1.6E1,5E0,2.1E1,1.71E2,1.32E2,1.7E1,9.1E1],"tree_param":{"num_deleted":"0","num_feature":"29","num_nodes":"57","size_leaf_vector":"1"}},{"base_weights":[1.7052973E-2,-6.3457427E0,5.960967E0,-9.960265E0,-3.0484273E0,3.0948608E0,9.135008E0,-1.3153601E1,-8.435855E0,-4.6406107E0,-1.5494103E0,1.8716141E0,5.0852203E0,7.7544475E0,1.1399577E1,-1.6237035E-1,-1.2497095E1,-9.830449E0,-7.402044E0,-5.185764E0,-3.8333488E0,-1.8543485E0,-1.7232543E-1,8.696525E-1,2.7199364E0,3.7152336E0,5.595757E0,8.669281E0,6.5503798E0,1.1926012E1,8.617174E0,-1.2658478E-1,-6.578171E-2,-1.0488893E-1,-8.622403E-2,-7.9436585E-2,-6.807E-2,-3.9306834E-2,-5.6087308E-2,-3.2212332E-2,-4.3901104E-2,-2.5234036E-2,-1.3894614E-2,4.343136E-3,-1.16172E-2,-3.2807882E-3,1.5591916E-2,3.809832E-2,2.2728166E-2,9.710035E-3,4.0077914E-2,5.96509E-2,4.5222647E-2,7.505957E-2,9.651103E-2,4.9512096E-2,7.3399335E-2,1.0845963E-1,1.2966692E-1,5.603779E-2,9.1136254E-2],"categories":[],"categories_nodes":[],"categories_segments":[],"categories_sizes":[],"default_left":[0,0,0,0,0,0,0,0,0,0,0,0,0,0,0,0,0,0,0,0,0,0,0,0,0,0,0,0,0,0,0,0,0,0,0,0,0,0,0,0,0,0,0,0,0,0,0,0,0,0,0,0,0,0,0,0,0,0,0,0,0],"id":5,"left_children":[1,3,5,7,9,11,13,15,17,19,21,23,25,27,29,-1,31,33,35,37,39,41,43,45,47,49,51,53,55,57,59,-1,-1,-1,-1,-1,-1,-1,-1,-1,-1,-1,-1,-1,-1,-1,-1,-1,-1,-1,-1,-1,-1,-1,-1,-1,-1,-1,-1,-1,-1],"loss_changes":[8.887676E4,1.349552E4,1.1023527E4,2.5204414E3,1.4122837E3,1.5479966E3,1.7104805E3,1.4441406E2,4.5751367E2,1.0596289E2,1.2881494E2,3.355702E2,1.4824023E2,3.393418E2,2.1156445E2,0E0,5.522461E1,3.0146484E1,1.406543E1,6.671484E1,2.5993774E1,7.44834E1,3.4788998E1,1.5259706E2,9.550525E1,5.1006897E1,4.1358887E1,1.5656445E2,1.6445068E2,5.817578E1,4.305908E0,0E0,0E0,0E0,0E0,0E0,0E0,0E0,0E0,0E0,0E0,0E0,0E0,0E0,0E0,0E0,0E0,0E0,0E0,0E0,0E0,0E0,0E0,0E0,0E0,0E0,0E0,0E0,0E0,0E0,0E0],"parents":[2147483647,0,0,1,1,2,2,3,3,4,4,5,5,6,6,7,7,8,8,9,9,10,10,11,11,12,12,13,13,14,14,16,16,17,17,18,18,19,19,20,20,21,21,22,22,23,23,24,24,25,25,26,26,27,27,28,28,29,29,30,30],"right_children":[2,4,6,8,10,12,14,16,18,20,22,24,26,28,30,-1,32,34,36,38,40,42,44,46,48,50,52,54,56,58,60,-1,-1,-1,-1,-1,-1,-1,-1,-1,-1,-1,-1,-1,-1,-1,-1,-1,-1,-1,-1,-1,-1,-1,-1,-1,-1,-1,-1,-1,-1],"split_conditions":[1E1,3.3E0,1.65E1,-2E0,6.7E0,1.42E1,2.08E1,-3.6E0,3.1E0,7.2E-1,1.82E0,1.21E1,1.0145E0,1E-2,4.4E-1,-1.6237035E-1,3.2E-1,3E-1,2E0,-5.839515E-1,9.1E0,8.1E0,9.912686E-1,9.7E-1,7.5E0,1E0,1.9E-1,1.85E1,1.35E1,2.26E1,1.52E1,-1.2658478E-1,-6.578171E-2,-1.0488893E-1,-8.622403E-2,-7.9436585E-2,-6.807E-2,-3.9306834E-2,-5.6087308E-2,-3.2212332E-2,-4.3901104E-2,-2.5234036E-2,-1.3894614E-2,4.343136E-3,-1.16172E-2,-3.2807882E-3,1.5591916E-2,3.809832E-2,2.2728166E-2,9.710035E-3,4.0077914E-2,5.96509E-2,4.5222647E-2,7.505957E-2,9.651103E-2,4.9512096E-2,7.3399335E-2,1.0845963E-1,1.2966692E-1,5.603779E-2,9.1136254E-2],"split_indices":[8,8,8,8,8,8,8,10,10,5,5,8,4,6,6,0,6,8,8,11,2,8,11,5,2,19,6,8,9,8,9,0,0,0,0,0,0,0,0,0,0,0,0,0,0,0,0,0,0,0,0,0,0,0,0,0,0,0,0,0,0],"split_type":[0,0,0,0,0,0,0,0,0,0,0,0,0,0,0,0,0,0,0,0,0,0,0,0,0,0,0,0,0,0,0,0,0,0,0,0,0,0,0,0,0,0,0,0,0,0,0,0,0,0,0,0,0,0,0,0,0,0,0,0,0],"sum_hessian":[2.348E3,1.134E3,1.214E3,5.4E2,5.94E2,6.39E2,5.75E2,1.72E2,3.68E2,2.87E2,3.07E2,3.97E2,2.42E2,3.6E2,2.15E2,2.6E1,1.46E2,1.53E2,2.15E2,1.68E2,1.19E2,2.51E2,5.6E1,1.83E2,2.14E2,6.8E1,1.74E2,2.01E2,1.59E2,1.78E2,3.7E1,1.41E2,5E0,9.4E1,5.9E1,1.06E2,1.09E2,4.5E1,1.23E2,6E1,5.9E1,1.01E2,1.5E2,3.5E1,2.1E1,6.7E1,1.16E2,6E1,1.54E2,7E0,6.1E1,1.26E2,4.8E1,9.6E1,1.05E2,5.5E1,1.04E2,9.3E1,8.5E1,7E0,3E1],"tree_param":{"num_deleted":"0","num_feature":"29","num_nodes":"61","size_leaf_vector":"1"}},{"base_weights":[4.8690815E-2,-6.4087667E0,5.5895147E0,-1.0385091E1,-3.3903718E0,2.5911016E0,8.59315E0,-1.2356345E1,-8.097368E0,-4.8453546E0,-1.9004366E0,4.1300364E0,7.7511317E-1,6.7724266E0,1.029749E1,-1.424973E-1,-1.12205625E-1,-9.4083525E-2,-7.486256E-2,-2.018791E0,-5.031063E0,1.9116874E-1,-2.4502478E0,2.8226132E0,4.7910314E0,1.9843554E0,-4.3872178E-1,7.695364E0,5.3701024E0,1.107573E1,8.560457E0,-9.132381E-3,-3.1335752E-2,-4.020151E-2,-5.3417664E-2,-4.9434355E-3,1.2422966E-2,-1.1183046E-2,-2.9475464E-2,2.0097248E-2,3.1823635E-2,5.5077866E-2,3.658212E-2,9.388442E-3,2.9213287E-2,-1.659409E-2,8.200489E-3,8.0480725E-2,5.238594E-2,5.9378378E-2,3.783045E-2,1.0031125E-1,1.25112E-1,8.944862E-2,2.7689397E-2],"categories":[],"categories_nodes":[],"categories_segments":[],"categories_sizes":[],"default_left":[0,0,0,0,0,0,0,0,0,0,0,0,0,0,0,0,0,0,0,0,0,0,0,0,0,0,0,0,0,0,0,0,0,0,0,0,0,0,0,0,0,0,0,0,0,0,0,0,0,0,0,0,0,0,0],"id":6,"left_children":[1,3,5,7,9,11,13,15,17,19,21,23,25,27,29,-1,-1,-1,-1,31,33,35,37,39,41,43,45,47,49,51,53,-1,-1,-1,-1,-1,-1,-1,-1,-1,-1,-1,-1,-1,-1,-1,-1,-1,-1,-1,-1,-1,-1,-1,-1],"loss_changes":[8.429678E4,1.3021719E4,1.1396402E4,2.0129453E3,1.3341719E3,1.7737295E3,1.892832E3,3.751836E2,1.04131836E2,1.534375E2,3.5489075E2,2.83E2,4.3109653E2,3.5729395E2,3.425703E2,0E0,0E0,0E0,0E0,2.2615128E1,6.961914E1,4.752539E1,1.5791626E2,2.7592651E1,1.6324854E2,1.4087488E2,2.2731981E2,1.1595117E2,9.009473E1,2.0363672E2,2.0782178E2,0E0,0E0,0E0,0E0,0E0,0E0,0E0,0E0,0E0,0E0,0E0,0E0,0E0,0E0,0E0,0E0,0E0,0E0,0E0,0E0,0E0,0E0,0E0,0E0],"parents":[2147483647,0,0,1,1,2,2,3,3,4,4,5,5,6,6,7,7,8,8,9,9,10,10,11,11,12,12,13,13,14,14,19,19,20,20,21,21,22,22,23,23,24,24,25,25,26,26,27,27,28,28,29,29,30,30],"right_children":[2,4,6,8,10,12,14,16,18,20,22,24,26,28,30,-1,-1,-1,-1,32,34,36,38,40,42,44,46,48,50,52,54,-1,-1,-1,-1,-1,-1,-1,-1,-1,-1,-1,-1,-1,-1,-1,-1,-1,-1,-1,-1,-1,-1,-1,-1],"split_conditions":[1.39E1,5.5E0,2.13E1,1.8E0,1.02E1,-2.83139E-1,2.54E1,-1.2E0,3.1E0,-1.8281692E-1,-1.4889039E-1,1.76E1,-8.702939E-1,-5.795791E-1,2E-2,-1.424973E-1,-1.12205625E-1,-9.4083525E-2,-7.486256E-2,1E1,-5.839515E-1,1.28E1,-8.247651E-1,1.56E1,4.01229E-1,1.71E1,1.73E0,6E-1,2E-2,2.86E1,5.9437615E-1,-9.132381E-3,-3.1335752E-2,-4.020151E-2,-5.3417664E-2,-4.9434355E-3,1.2422966E-2,-1.1183046E-2,-2.9475464E-2,2.0097248E-2,3.1823635E-2,5.5077866E-2,3.658212E-2,9.388442E-3,2.9213287E-2,-1.659409E-2,8.200489E-3,8.0480725E-2,5.238594E-2,5.9378378E-2,3.783045E-2,1.0031125E-1,1.25112E-1,8.944862E-2,2.7689397E-2],"split_indices":[10,10,10,10,10,12,10,10,10,12,12,10,11,12,6,0,0,0,0,16,11,10,11,10,11,10,5,6,6,10,11,0,0,0,0,0,0,0,0,0,0,0,0,0,0,0,0,0,0,0,0,0,0,0,0],"split_type":[0,0,0,0,0,0,0,0,0,0,0,0,0,0,0,0,0,0,0,0,0,0,0,0,0,0,0,0,0,0,0,0,0,0,0,0,0,0,0,0,0,0,0,0,0,0,0,0,0,0,0,0,0,0,0],"sum_hessian":[2.354E3,1.087E3,1.267E3,4.68E2,6.19E2,6.35E2,6.32E2,2.49E2,2.19E2,3.12E2,3.07E2,3.43E2,2.92E2,3.08E2,3.24E2,8.9E1,1.6E2,6.5E1,1.54E2,2E1,2.92E2,6.4E1,2.43E2,1.17E2,2.26E2,1.46E2,1.46E2,1.83E2,1.25E2,2.2E2,1.04E2,1.1E1,9E0,7.2E1,2.2E2,3.9E1,2.5E1,6.7E1,1.76E2,3.8E1,7.9E1,1.36E2,9E1,7E1,7.6E1,7.4E1,7.2E1,1.58E2,2.5E1,9E1,3.5E1,1.32E2,8.8E1,9.7E1,7E0],"tree_param":{"num_deleted":"0","num_feature":"29","num_nodes":"55","size_leaf_vector":"1"}},{"base_weights":[-1.616176E-1,-6.307249E0,5.766613E0,-1.0492813E1,-3.5318518E0,3.0042741E0,8.960259E0,-1.34276285E1,-8.906547E0,-5.228514E0,-1.878014E0,1.808757E0,4.9526877E0,7.7731614E0,1.1417403E1,-1.59226E-1,-1.2742536E-1,-1.013567E1,-7.7448883E0,-6.3111753E0,-4.5692406E0,-2.752463E0,-1.0121028E0,2.1694245E0,-6.787021E-1,3.7632556E0,5.395321E0,8.300587E0,6.2440095E0,9.714557E-2,1.2144467E1,-1.05038166E-1,-8.258077E-2,-8.290757E-2,-6.856847E-2,-6.557868E-2,-4.199047E-2,-3.6877148E-2,-5.1164858E-2,-7.736647E-3,-2.9893888E-2,-3.7754636E-2,-7.152556E-3,1.1844362E-2,2.798211E-2,-2.6623294E-2,-3.0034485E-3,4.2439602E-2,2.2696134E-2,5.8349848E-2,3.9178558E-2,7.150534E-2,9.2526704E-2,5.4421686E-2,8.0160275E-2,1.2325782E-1,7.4424125E-2],"categories":[],"categories_nodes":[],"categories_segments":[],"categories_sizes":[],"default_left":[0,0,0,0,0,0,0,0,0,0,0,0,0,0,0,0,0,0,0,0,0,0,0,0,0,0,0,0,0,0,0,0,0,0,0,0,0,0,0,0,0,0,0,0,0,0,0,0,0,0,0,0,0,0,0,0,0],"id":7,"left_children":[1,3,5,7,9,11,13,15,17,19,21,23,25,27,29,-1,-1,31,33,35,37,39,41,43,45,47,49,51,53,-1,55,-1,-1,-1,-1,-1,-1,-1,-1,-1,-1,-1,-1,-1,-1,-1,-1,-1,-1,-1,-1,-1,-1,-1,-1,-1,-1],"loss_changes":[8.49611E4,1.3262547E4,1.044352E4,2.0010352E3,1.9256133E3,1.4764985E3,1.5136094E3,6.430664E1,3.466328E2,2.1275684E2,2.626134E2,3.5778833E2,1.06188965E2,2.4835352E2,9.897656E1,0E0,0E0,9.537109E0,1.822754E1,3.7039062E1,8.396973E1,7.8887085E1,1.4286314E2,2.1120105E2,3.7180626E1,3.9258667E1,8.9191895E1,2.3330664E2,9.711743E1,0E0,8.597656E0,0E0,0E0,0E0,0E0,0E0,0E0,0E0,0E0,0E0,0E0,0E0,0E0,0E0,0E0,0E0,0E0,0E0,0E0,0E0,0E0,0E0,0E0,0E0,0E0,0E0,0E0],"parents":[2147483647,0,0,1,1,2,2,3,3,4,4,5,5,6,6,7,7,8,8,9,9,10,10,11,11,12,12,13,13,14,14,17,17,18,18,19,19,20,20,21,21,22,22,23,23,24,24,25,25,26,26,27,27,28,28,30,30],"right_children":[2,4,6,8,10,12,14,16,18,20,22,24,26,28,30,-1,-1,32,34,36,38,40,42,44,46,48,50,52,54,-1,56,-1,-1,-1,-1,-1,-1,-1,-1,-1,-1,-1,-1,-1,-1,-1,-1,-1,-1,-1,-1,-1,-1,-1,-1,-1,-1],"split_conditions":[9.9E0,5E0,1.65E1,-2.4E0,6.2E0,1.41E1,2.14E1,-3.6E0,2.7E0,3.8E0,8.1E0,4.2180607E-1,1.0144E0,1.1E1,1.0138E0,-1.59226E-1,-1.2742536E-1,-9E-1,1E-1,9.4E0,5.986907E-1,9E-1,1.0042E0,1.19E1,5.4E0,1.29E1,-2.6659942E-1,1.85E1,1.49E1,9.714557E-2,-6.072676E-1,-1.05038166E-1,-8.258077E-2,-8.290757E-2,-6.856847E-2,-6.557868E-2,-4.199047E-2,-3.6877148E-2,-5.1164858E-2,-7.736647E-3,-2.9893888E-2,-3.7754636E-2,-7.152556E-3,1.1844362E-2,2.798211E-2,-2.6623294E-2,-3.0034485E-3,4.2439602E-2,2.2696134E-2,5.8349848E-2,3.9178558E-2,7.150534E-2,9.2526704E-2,5.4421686E-2,8.0160275E-2,1.2325782E-1,7.4424125E-2],"split_indices":[8,10,8,8,8,8,8,10,10,8,8,12,4,2,4,0,0,9,9,10,12,9,4,8,9,2,12,8,9,0,12,0,0,0,0,0,0,0,0,0,0,0,0,0,0,0,0,0,0,0,0,0,0,0,0,0,0],"split_type":[0,0,0,0,0,0,0,0,0,0,0,0,0,0,0,0,0,0,0,0,0,0,0,0,0,0,0,0,0,0,0,0,0,0,0,0,0,0,0,0,0,0,0,0,0,0,0,0,0,0,0,0,0,0,0,0,0],"sum_hessian":[2.33E3,1.144E3,1.186E3,4.55E2,6.89E2,6.37E2,5.49E2,1.57E2,2.98E2,3.39E2,3.5E2,3.96E2,2.41E2,3.73E2,1.76E2,2.9E1,1.28E2,1.41E2,1.57E2,1.25E2,2.14E2,1.73E2,1.77E2,3.46E2,5E1,6.8E1,1.73E2,2.74E2,9.9E1,5.7E1,1.19E2,1.14E2,2.7E1,9.2E1,6.5E1,1.1E2,1.5E1,8.5E1,1.29E2,1.9E1,1.54E2,1.6E1,1.61E2,1.36E2,2.1E2,7E0,4.3E1,5E1,1.8E1,1.31E2,4.2E1,1.28E2,1.46E2,7.1E1,2.8E1,1.13E2,6E0],"tree_param":{"num_deleted":"0","num_feature":"29","num_nodes":"57","size_leaf_vector":"1"}},{"base_weights":[-8.256485E-2,-6.296565E0,5.730013E0,-1.0995796E1,-3.8226562E0,2.992616E0,8.876884E0,-1.3240128E1,-9.401692E0,-5.4605856E0,-1.9074144E0,1.7459457E0,4.7910657E0,7.7252316E0,1.124585E1,-1.6208671E-1,-1.24693684E-1,-9.987269E-2,-7.633188E-2,-6.4122305E0,-4.4459405E0,-1.2470077E0,-2.8953848E0,2.8603568E0,9.093377E-1,5.223071E0,3.9534316E0,8.189742E0,5.576233E0,1.1696238E1,8.141784E-2,-6.5594025E-2,-3.771639E-2,-1.4938236E-2,-4.5479245E-2,-2.3095885E-2,-8.314766E-3,-2.2758799E-2,-3.9010253E-2,1.9113556E-2,3.3702675E-2,1.7102404E-2,1.491163E-3,5.4798737E-2,3.1475134E-2,5.337997E-2,3.2077968E-2,7.199656E-2,9.101302E-2,4.3025993E-2,6.4213924E-2,1.0173335E-1,1.250931E-1],"categories":[],"categories_nodes":[],"categories_segments":[],"categories_sizes":[],"default_left":[0,0,0,0,0,0,0,0,0,0,0,0,0,0,0,0,0,0,0,0,0,0,0,0,0,0,0,0,0,0,0,0,0,0,0,0,0,0,0,0,0,0,0,0,0,0,0,0,0,0,0,0,0],"id":8,"left_children":[1,3,5,7,9,11,13,15,17,19,21,23,25,27,29,-1,-1,-1,-1,31,33,35,37,39,41,43,45,47,49,51,-1,-1,-1,-1,-1,-1,-1,-1,-1,-1,-1,-1,-1,-1,-1,-1,-1,-1,-1,-1,-1,-1,-1],"loss_changes":[8.332739E4,1.2918887E4,1.0240414E4,1.2470938E3,2.2851543E3,1.4236665E3,1.4226602E3,1.5424219E2,1.5811914E2,3.5084473E2,2.1715991E2,3.5037317E2,7.2879395E1,3.2829102E2,1.5303711E2,0E0,0E0,0E0,0E0,5.2339844E1,5.1009277E1,8.828027E1,7.460889E1,7.142285E1,1.3229123E2,7.196777E1,7.803357E1,2.0991992E2,4.664868E1,6.1158203E1,0E0,0E0,0E0,0E0,0E0,0E0,0E0,0E0,0E0,0E0,0E0,0E0,0E0,0E0,0E0,0E0,0E0,0E0,0E0,0E0,0E0,0E0,0E0],"parents":[2147483647,0,0,1,1,2,2,3,3,4,4,5,5,6,6,7,7,8,8,9,9,10,10,11,11,12,12,13,13,14,14,19,19,20,20,21,21,22,22,23,23,24,24,25,25,26,26,27,27,28,28,29,29],"right_children":[2,4,6,8,10,12,14,16,18,20,22,24,26,28,30,-1,-1,-1,-1,32,34,36,38,40,42,44,46,48,50,52,-1,-1,-1,-1,-1,-1,-1,-1,-1,-1,-1,-1,-1,-1,-1,-1,-1,-1,-1,-1,-1,-1,-1],"split_conditions":[9.9E0,1.4E0,1.65E1,-2.4E0,6.2E0,1.39E1,2.14E1,-3.6E0,3.1E0,3.8E0,4.6801534E-1,-2.9959476E-1,1.6E-1,3.9E-1,4.4E-1,-1.6208671E-1,-1.24693684E-1,-9.987269E-2,-7.633188E-2,9.5E0,-1.8281692E-1,1.1E1,1.2E-1,1.0145E0,-8.857249E-1,1.382503E-1,-8.660254E-1,1.85E1,1.41E1,2.24E1,8.141784E-2,-6.5594025E-2,-3.771639E-2,-1.4938236E-2,-4.5479245E-2,-2.3095885E-2,-8.314766E-3,-2.2758799E-2,-3.9010253E-2,1.9113556E-2,3.3702675E-2,1.7102404E-2,1.491163E-3,5.4798737E-2,3.1475134E-2,5.337997E-2,3.2077968E-2,7.199656E-2,9.101302E-2,4.3025993E-2,6.4213924E-2,1.0173335E-1,1.250931E-1],"split_indices":[8,8,8,8,8,8,8,10,10,8,12,12,6,6,6,0,0,0,0,10,12,10,6,4,11,12,18,8,9,8,0,0,0,0,0,0,0,0,0,0,0,0,0,0,0,0,0,0,0,0,0,0,0],"split_type":[0,0,0,0,0,0,0,0,0,0,0,0,0,0,0,0,0,0,0,0,0,0,0,0,0,0,0,0,0,0,0,0,0,0,0,0,0,0,0,0,0,0,0,0,0,0,0,0,0,0,0,0,0],"sum_hessian":[2.305E3,1.114E3,1.191E3,3.83E2,7.31E2,6.38E2,5.53E2,1.56E2,2.27E2,3.93E2,3.38E2,3.78E2,2.6E2,3.75E2,1.78E2,2.8E1,1.28E2,1.67E2,6E1,2E2,1.93E2,2.04E2,1.34E2,1.61E2,2.17E2,1.68E2,9.2E1,3.06E2,6.9E1,1.53E2,2.5E1,1.88E2,1.2E1,7E0,1.86E2,5.6E1,1.48E2,8.5E1,4.9E1,5.8E1,1.03E2,1.05E2,1.12E2,1.48E2,2E1,3E1,6.2E1,1.51E2,1.55E2,3E1,3.9E1,5.8E1,9.5E1],"tree_param":{"num_deleted":"0","num_feature":"29","num_nodes":"53","size_leaf_vector":"1"}},{"base_weights":[-9.8200835E-5,-6.110613E0,5.6536603E0,-1.05104065E1,-3.5257397E0,3.0233169E0,8.728483E0,-1.3708523E-1,-9.204498E0,-5.155958E0,-1.8854499E0,1.6321963E0,4.6107864E0,7.578518E0,1.1303094E1,-1.00584775E-1,-7.896703E0,-6.2450376E0,-4.374551E0,-2.5655844E0,-8.585913E-1,2.5498273E0,8.9492035E-1,3.7571862E0,5.205847E0,7.990789E0,5.6166534E0,1.209445E1,9.383558E-2,-5.7945427E-2,-8.153555E-2,-6.8972394E-2,-5.1123586E-2,-4.7309935E-2,-3.2889705E-2,-9.434406E-3,-2.8950583E-2,-5.6011616E-3,-3.6043145E-2,1.9276252E-2,3.386418E-2,1.6302329E-2,2.4651866E-3,3.9239995E-2,6.8942527E-3,5.4015074E-2,3.1392623E-2,6.694884E-2,8.824154E-2,6.129081E-2,3.9728876E-2,1.23541184E-1,7.536928E-2],"categories":[],"categories_nodes":[],"categories_segments":[],"categories_sizes":[],"default_left":[0,0,0,0,0,0,0,0,0,0,0,0,0,0,0,0,0,0,0,0,0,0,0,0,0,0,0,0,0,0,0,0,0,0,0,0,0,0,0,0,0,0,0,0,0,0,0,0,0,0,0,0,0],"id":9,"left_children":[1,3,5,7,9,11,13,-1,15,17,19,21,23,25,27,-1,29,31,33,35,37,39,41,43,45,47,49,51,-1,-1,-1,-1,-1,-1,-1,-1,-1,-1,-1,-1,-1,-1,-1,-1,-1,-1,-1,-1,-1,-1,-1,-1,-1],"loss_changes":[8.187733E4,1.2915285E4,9.9285625E3,1.6298125E3,1.9122031E3,1.4604106E3,1.5911719E3,0E0,2.560586E2,2.7798438E2,2.4887952E2,2.3822449E2,1.3700684E2,2.732422E2,1.4715625E2,0E0,1.8312012E1,7.287109E1,6.605786E1,1.1232715E2,1.1639659E2,7.5184326E1,9.428923E1,6.3871826E1,5.4972168E1,2.8928125E2,3.528589E1,4.573047E1,0E0,0E0,0E0,0E0,0E0,0E0,0E0,0E0,0E0,0E0,0E0,0E0,0E0,0E0,0E0,0E0,0E0,0E0,0E0,0E0,0E0,0E0,0E0,0E0,0E0],"parents":[2147483647,0,0,1,1,2,2,3,3,4,4,5,5,6,6,8,8,9,9,10,10,11,11,12,12,13,13,14,14,16,16,17,17,18,18,19,19,20,20,21,21,22,22,23,23,24,24,25,25,26,26,27,27],"right_children":[2,4,6,8,10,12,14,-1,16,18,20,22,24,26,28,-1,30,32,34,36,38,40,42,44,46,48,50,52,-1,-1,-1,-1,-1,-1,-1,-1,-1,-1,-1,-1,-1,-1,-1,-1,-1,-1,-1,-1,-1,-1,-1,-1,-1],"split_conditions":[1E1,2E0,1.65E1,-3.1E0,6.2E0,1.36E1,2.16E1,-1.3708523E-1,3E-1,3.8E0,8.6E0,-2.9959476E-1,1.49E1,1.25E1,1.08E1,-1.00584775E-1,1.7E0,6E-1,9.3E-1,-1.5314166E-1,6.3E0,1.26E1,-9.011687E-1,9.487719E-1,-6.33914E-2,1.82E1,4.4794494E-1,-6.4415926E-1,9.383558E-2,-5.7945427E-2,-8.153555E-2,-6.8972394E-2,-5.1123586E-2,-4.7309935E-2,-3.2889705E-2,-9.434406E-3,-2.8950583E-2,-5.6011616E-3,-3.6043145E-2,1.9276252E-2,3.386418E-2,1.6302329E-2,2.4651866E-3,3.9239995E-2,6.8942527E-3,5.4015074E-2,3.1392623E-2,6.694884E-2,8.824154E-2,6.129081E-2,3.9728876E-2,1.23541184E-1,7.536928E-2],"split_indices":[8,8,8,8,8,8,8,0,8,8,8,12,8,2,2,0,1,5,5,12,1,8,11,11,12,8,11,12,0,0,0,0,0,0,0,0,0,0,0,0,0,0,0,0,0,0,0,0,0,0,0,0,0],"split_type":[0,0,0,0,0,0,0,0,0,0,0,0,0,0,0,0,0,0,0,0,0,0,0,0,0,0,0,0,0,0,0,0,0,0,0,0,0,0,0,0,0,0,0,0,0,0,0,0,0,0,0,0,0],"sum_hessian":[2.368E3,1.138E3,1.23E3,4.2E2,7.18E2,6.64E2,5.66E2,1.19E2,3.01E2,3.59E2,3.59E2,3.55E2,3.09E2,3.94E2,1.72E2,1.78E2,1.23E2,1.47E2,2.12E2,2.15E2,1.44E2,1.57E2,1.98E2,1.3E2,1.79E2,3.23E2,7.1E1,1.18E2,5.4E1,1.6E1,1.07E2,9E1,5.7E1,1.57E2,5.5E1,3.7E1,1.78E2,1.31E2,1.3E1,9.2E1,6.5E1,9.2E1,1.06E2,1.23E2,7E0,1.62E2,1.7E1,1.3E2,1.93E2,5.2E1,1.9E1,1.1E2,8E0],"tree_param":{"num_deleted":"0","num_feature":"29","num_nodes":"53","size_leaf_vector":"1"}},{"base_weights":[4.55352E-2,-6.120682E0,5.472849E0,-1.0251307E1,-3.50417E0,3.1393645E0,9.026101E0,-1.20138445E1,-8.35296E0,-5.159966E0,-1.9341637E0,4.537551E0,1.2693799E0,7.4788966E0,1.0173156E1,-1.3658008E-1,-1.0841997E-1,-9.238397E-2,-7.429542E0,-6.0043745E0,-4.4418454E0,3.7768093E-1,-2.414432E0,3.3065655E0,5.3954625E0,2.9637799E-2,2.4853635E0,7.985054E0,5.100292E0,1.1054292E1,8.329716E0,-6.191234E-2,-8.002385E-2,-7.240525E-2,-5.6213997E-2,-3.995915E-2,-6.099403E-2,1.3800728E-2,-1.9489093E-3,-1.40000945E-2,-2.8098645E-2,3.709777E-2,2.5288172E-2,3.9850414E-2,6.2191457E-2,5.412373E-3,-2.11351E-2,3.760574E-2,1.6131792E-2,8.3451785E-2,4.8078466E-2,5.8961913E-2,2.112974E-2,5.52279E-2,1.12402335E-1,5.171785E-2,8.6847216E-2],"categories":[],"categories_nodes":[],"categories_segments":[],"categories_sizes":[],"default_left":[0,0,0,0,0,0,0,0,0,0,0,0,0,0,0,0,0,0,0,0,0,0,0,0,0,0,0,0,0,0,0,0,0,0,0,0,0,0,0,0,0,0,0,0,0,0,0,0,0,0,0,0,0,0,0,0,0],"id":10,"left_children":[1,3,5,7,9,11,13,15,17,19,21,23,25,27,29,-1,-1,-1,31,33,35,37,39,41,43,45,47,49,51,53,55,-1,-1,-1,-1,-1,-1,-1,-1,-1,-1,-1,-1,-1,-1,-1,-1,-1,-1,-1,-1,-1,-1,-1,-1,-1,-1],"loss_changes":[7.7708E4,1.17108125E4,1.0210398E4,1.3062383E3,1.7232505E3,1.9467554E3,7.899922E2,2.6563867E2,9.812695E1,1.6875488E2,3.830609E2,4.3223438E2,4.8358435E2,2.1320215E2,3.5754297E2,0E0,0E0,0E0,2.422754E1,2.713086E1,1.0692651E2,3.4823967E1,1.09968994E2,4.5815063E1,2.6463086E2,1.7641603E2,1.7357556E2,1.5650684E2,8.184473E1,1.2652539E2,5.9081055E1,0E0,0E0,0E0,0E0,0E0,0E0,0E0,0E0,0E0,0E0,0E0,0E0,0E0,0E0,0E0,0E0,0E0,0E0,0E0,0E0,0E0,0E0,0E0,0E0,0E0,0E0],"parents":[2147483647,0,0,1,1,2,2,3,3,4,4,5,5,6,6,7,7,8,8,9,9,10,10,11,11,12,12,13,13,14,14,18,18,19,19,20,20,21,21,22,22,23,23,24,24,25,25,26,26,27,27,28,28,29,29,30,30],"right_children":[2,4,6,8,10,12,14,16,18,20,22,24,26,28,30,-1,-1,-1,32,34,36,38,40,42,44,46,48,50,52,54,56,-1,-1,-1,-1,-1,-1,-1,-1,-1,-1,-1,-1,-1,-1,-1,-1,-1,-1,-1,-1,-1,-1,-1,-1,-1,-1],"split_conditions":[1.41E1,4.7E0,2.3E1,1.4E0,9.8E0,-2.83139E-1,2.6E1,-1.2E0,3.1E0,7.3E0,-2.83139E-1,1.89E1,1.71E1,-3.9629912E-1,2E-2,-1.3658008E-1,-1.0841997E-1,-9.238397E-2,3.1E-1,1.0091E0,9.276396E-1,3.09017E-1,-1.8369701E-16,-5.5120456E-1,8E0,4.9440297E-1,-5E-1,9.8E-1,2E-2,1.0077E0,8E0,-6.191234E-2,-8.002385E-2,-7.240525E-2,-5.6213997E-2,-3.995915E-2,-6.099403E-2,1.3800728E-2,-1.9489093E-3,-1.40000945E-2,-2.8098645E-2,3.709777E-2,2.5288172E-2,3.9850414E-2,6.2191457E-2,5.412373E-3,-2.11351E-2,3.760574E-2,1.6131792E-2,8.3451785E-2,4.8078466E-2,5.8961913E-2,2.112974E-2,5.52279E-2,1.12402335E-1,5.171785E-2,8.6847216E-2],"split_indices":[10,10,10,10,10,12,10,10,10,10,12,10,10,12,6,0,0,0,5,4,12,28,18,12,15,12,18,6,6,4,15,0,0,0,0,0,0,0,0,0,0,0,0,0,0,0,0,0,0,0,0,0,0,0,0,0,0],"split_type":[0,0,0,0,0,0,0,0,0,0,0,0,0,0,0,0,0,0,0,0,0,0,0,0,0,0,0,0,0,0,0,0,0,0,0,0,0,0,0,0,0,0,0,0,0,0,0,0,0,0,0,0,0,0,0,0,0],"sum_hessian":[2.32E3,1.086E3,1.234E3,4.2E2,6.66E2,7.46E2,4.88E2,2.15E2,2.05E2,3.23E2,3.43E2,4.26E2,3.2E2,2.11E2,2.77E2,8.5E1,1.3E2,1E2,1.05E2,1.45E2,1.78E2,5.9E1,2.84E2,1.77E2,2.49E2,1.59E2,1.61E2,1.72E2,3.9E1,1.84E2,9.3E1,3.7E1,6.8E1,3E1,1.15E2,1.43E2,3.5E1,2.1E1,3.8E1,8.1E1,2.03E2,1.14E2,6.3E1,9.4E1,1.55E2,1.29E2,3E1,6.4E1,9.7E1,1.53E2,1.9E1,3E1,9E0,7E0,1.77E2,1.1E1,8.2E1],"tree_param":{"num_deleted":"0","num_feature":"29","num_nodes":"57","size_leaf_vector":"1"}},{"base_weights":[2.2704313E-2,-5.9363966E0,5.6134167E0,-1.0285886E1,-3.4443624E0,2.9051723E0,8.643102E0,-1.2984406E1,-8.933252E0,-4.9029546E0,-1.5618155E0,1.672196E0,4.6192055E0,7.117894E0,1.0564908E1,-1.536764E-1,-1.2163984E-1,-9.304985E0,-6.3281856E0,-6.11468E0,-4.143819E0,-2.3749723E0,-9.714302E-1,7.8358245E-1,2.322224E0,3.5572808E0,5.051635E0,7.9210477E0,5.83795E0,1.1393712E1,8.870454E0,-1.0285566E-1,-8.589085E-2,-4.8131976E-2,-7.3206425E-2,-6.6580944E-2,-5.1664975E-2,-4.6307273E-2,-3.0454755E-2,-3.0588655E-2,-1.0128512E-2,-8.511663E-3,-4.420817E-2,-5.563189E-3,1.4916862E-2,2.713079E-2,1.0354293E-2,4.5616187E-2,2.8413588E-2,5.2598085E-2,3.3251807E-2,6.932499E-2,8.887599E-2,6.3694924E-2,3.3892162E-2,1.0750301E-1,1.3638557E-1,6.6517144E-2,9.5175385E-2],"categories":[],"categories_nodes":[],"categories_segments":[],"categories_sizes":[],"default_left":[0,0,0,0,0,0,0,0,0,0,0,0,0,0,0,0,0,0,0,0,0,0,0,0,0,0,0,0,0,0,0,0,0,0,0,0,0,0,0,0,0,0,0,0,0,0,0,0,0,0,0,0,0,0,0,0,0,0,0],"id":11,"left_children":[1,3,5,7,9,11,13,15,17,19,21,23,25,27,29,-1,-1,31,33,35,37,39,41,43,45,47,49,51,53,55,57,-1,-1,-1,-1,-1,-1,-1,-1,-1,-1,-1,-1,-1,-1,-1,-1,-1,-1,-1,-1,-1,-1,-1,-1,-1,-1,-1,-1],"loss_changes":[7.8325E4,1.22980625E4,9.926551E3,1.392957E3,1.9824502E3,1.3484258E3,1.5996523E3,7.623047E1,2.0973242E2,3.4894043E2,1.5002234E2,2.1447864E2,1.0423682E2,2.8339453E2,2.494043E2,0E0,0E0,7.965234E1,2.068628E1,4.4283203E1,1.209668E2,1.203902E2,7.286954E1,1.5272968E2,1.0545325E2,4.4539673E1,4.921924E1,1.23125E2,1.4404248E2,8.926172E1,5.998242E1,0E0,0E0,0E0,0E0,0E0,0E0,0E0,0E0,0E0,0E0,0E0,0E0,0E0,0E0,0E0,0E0,0E0,0E0,0E0,0E0,0E0,0E0,0E0,0E0,0E0,0E0,0E0,0E0],"parents":[2147483647,0,0,1,1,2,2,3,3,4,4,5,5,6,6,7,7,8,8,9,9,10,10,11,11,12,12,13,13,14,14,17,17,18,18,19,19,20,20,21,21,22,22,23,23,24,24,25,25,26,26,27,27,28,28,29,29,30,30],"right_children":[2,4,6,8,10,12,14,16,18,20,22,24,26,28,30,-1,-1,32,34,36,38,40,42,44,46,48,50,52,54,56,58,-1,-1,-1,-1,-1,-1,-1,-1,-1,-1,-1,-1,-1,-1,-1,-1,-1,-1,-1,-1,-1,-1,-1,-1,-1,-1,-1,-1],"split_conditions":[1E1,1.8E0,1.65E1,-2.7E0,6.7E0,1.39E1,2.04E1,-3.6E0,4.7E0,3.8E0,8.1E0,1.24E0,1.0145E0,2E-2,2E-2,-1.536764E-1,-1.2163984E-1,1.4E0,7.5E-1,5.9E-1,9.3E-1,1.09E0,2.12E1,8.5E0,9.5079035E-1,8.5E0,6.123234E-17,1.85E1,4.7843382E-1,3.15E1,1.52E1,-1.0285566E-1,-8.589085E-2,-4.8131976E-2,-7.3206425E-2,-6.6580944E-2,-5.1664975E-2,-4.6307273E-2,-3.0454755E-2,-3.0588655E-2,-1.0128512E-2,-8.511663E-3,-4.420817E-2,-5.563189E-3,1.4916862E-2,2.713079E-2,1.0354293E-2,4.5616187E-2,2.8413588E-2,5.2598085E-2,3.3251807E-2,6.932499E-2,8.887599E-2,6.3694924E-2,3.3892162E-2,1.0750301E-1,1.3638557E-1,6.6517144E-2,9.5175385E-2],"split_indices":[8,8,8,8,8,8,8,10,10,8,8,5,4,6,6,0,0,10,5,5,5,5,2,9,11,2,14,8,11,10,9,0,0,0,0,0,0,0,0,0,0,0,0,0,0,0,0,0,0,0,0,0,0,0,0,0,0,0,0],"split_type":[0,0,0,0,0,0,0,0,0,0,0,0,0,0,0,0,0,0,0,0,0,0,0,0,0,0,0,0,0,0,0,0,0,0,0,0,0,0,0,0,0,0,0,0,0,0,0,0,0,0,0,0,0,0,0,0,0,0,0],"sum_hessian":[2.349E3,1.137E3,1.212E3,4.13E2,7.24E2,6.41E2,5.71E2,1.35E2,2.78E2,4.07E2,3.17E2,3.74E2,2.67E2,3.21E2,2.5E2,3E1,1.05E2,2.41E2,3.7E1,1.54E2,2.53E2,1.32E2,1.85E2,1.59E2,2.15E2,8E1,1.87E2,1.94E2,1.27E2,1.64E2,8.6E1,9.6E1,1.45E2,1.7E1,2E1,9.4E1,6E1,1.73E2,8E1,8.7E1,4.5E1,1.8E2,5E0,5.5E1,1.04E2,1.64E2,5.1E1,3.1E1,4.9E1,1.65E2,2.2E1,1E2,9.4E1,1.03E2,2.4E1,1.32E2,3.2E1,2.2E1,6.4E1],"tree_param":{"num_deleted":"0","num_feature":"29","num_nodes":"59","size_leaf_vector":"1"}},{"base_weights":[-2.0083874E-2,-5.918121E0,5.4635625E0,-1.0115663E1,-3.431411E0,2.856088E0,8.5560665E0,-1.300401E1,-8.962841E0,-5.0517197E0,-1.7873282E0,1.8084029E0,4.746302E0,6.897085E0,9.983253E0,-1.5203415E-1,-1.22400045E-1,-9.853677E-2,-7.77169E-2,-6.0707207E0,-4.313887E0,-2.6172395E0,-9.654187E-1,1.1745647E0,2.8193908E0,5.249865E0,3.800646E0,7.589737E0,6.0930448E0,1.0398491E1,7.3056126E0,-6.551703E-2,-5.1452283E-2,-4.778562E-2,-2.9156465E-2,-2.3292886E-2,-4.32771E-2,1.5907885E-3,-1.5345694E-2,5.054515E-3,1.7149089E-2,3.307265E-2,1.0658921E-2,5.3941406E-2,2.680595E-2,2.7166104E-2,4.6584893E-2,7.708814E-2,4.296783E-2,6.495793E-2,4.020167E-2,9.529388E-2,1.1790179E-1,4.120159E-2,8.024698E-2],"categories":[],"categories_nodes":[],"categories_segments":[],"categories_sizes":[],"default_left":[0,0,0,0,0,0,0,0,0,0,0,0,0,0,0,0,0,0,0,0,0,0,0,0,0,0,0,0,0,0,0,0,0,0,0,0,0,0,0,0,0,0,0,0,0,0,0,0,0,0,0,0,0,0,0],"id":12,"left_children":[1,3,5,7,9,11,13,15,17,19,21,23,25,27,29,-1,-1,-1,-1,31,33,35,37,39,41,43,45,47,49,51,53,-1,-1,-1,-1,-1,-1,-1,-1,-1,-1,-1,-1,-1,-1,-1,-1,-1,-1,-1,-1,-1,-1,-1,-1],"loss_changes":[7.552035E4,1.170677E4,9.73141E3,1.2730859E3,1.8763438E3,1.293831E3,1.2387773E3,7.767578E0,2.4211719E2,2.4043262E2,2.3790051E2,2.6863025E2,9.057178E1,9.662988E1,2.5026367E2,0E0,0E0,0E0,0E0,3.0556152E1,1.2174048E2,7.54469E1,1.1494321E2,9.399921E1,1.3548181E2,4.0335938E1,6.565149E1,1.8611816E1,7.718994E1,1.9152539E2,6.421875E1,0E0,0E0,0E0,0E0,0E0,0E0,0E0,0E0,0E0,0E0,0E0,0E0,0E0,0E0,0E0,0E0,0E0,0E0,0E0,0E0,0E0,0E0,0E0,0E0],"parents":[2147483647,0,0,1,1,2,2,3,3,4,4,5,5,6,6,7,7,8,8,9,9,10,10,11,11,12,12,13,13,14,14,19,19,20,20,21,21,22,22,23,23,24,24,25,25,26,26,27,27,28,28,29,29,30,30],"right_children":[2,4,6,8,10,12,14,16,18,20,22,24,26,28,30,-1,-1,-1,-1,32,34,36,38,40,42,44,46,48,50,52,54,-1,-1,-1,-1,-1,-1,-1,-1,-1,-1,-1,-1,-1,-1,-1,-1,-1,-1,-1,-1,-1,-1,-1,-1],"split_conditions":[1E1,2E0,1.65E1,-3.1E0,6.2E0,1.42E1,1.97E1,-3.6E0,2.7E0,3.8E0,8.1E0,1.27E1,1.9E-1,1E-2,4.4E-1,-1.5203415E-1,-1.22400045E-1,-9.853677E-2,-7.77169E-2,6E-1,9.3E-1,5.5E0,6.123234E-17,1.11E0,4.6E-1,1.39E1,1.25E1,6.123234E-17,4.7843382E-1,2.24E1,1.49E1,-6.551703E-2,-5.1452283E-2,-4.778562E-2,-2.9156465E-2,-2.3292886E-2,-4.32771E-2,1.5907885E-3,-1.5345694E-2,5.054515E-3,1.7149089E-2,3.307265E-2,1.0658921E-2,5.3941406E-2,2.680595E-2,2.7166104E-2,4.6584893E-2,7.708814E-2,4.296783E-2,6.495793E-2,4.020167E-2,9.529388E-2,1.1790179E-1,4.120159E-2,8.024698E-2],"split_indices":[8,8,8,8,8,8,8,10,10,8,8,8,6,6,6,0,0,0,0,5,5,1,14,5,6,2,9,14,11,8,9,0,0,0,0,0,0,0,0,0,0,0,0,0,0,0,0,0,0,0,0,0,0,0,0],"split_type":[0,0,0,0,0,0,0,0,0,0,0,0,0,0,0,0,0,0,0,0,0,0,0,0,0,0,0,0,0,0,0,0,0,0,0,0,0,0,0,0,0,0,0,0,0,0,0,0,0,0,0,0,0,0,0],"sum_hessian":[2.333E3,1.124E3,1.209E3,4.17E2,7.07E2,6.57E2,5.52E2,1.16E2,3.01E2,3.55E2,3.52E2,4.24E2,2.33E2,2.58E2,2.94E2,2.5E1,9.1E1,1.68E2,1.33E2,1.46E2,2.09E2,1.74E2,1.78E2,2.62E2,1.62E2,1.49E2,8.4E1,1.34E2,1.24E2,2.52E2,4.2E1,9.2E1,5.4E1,1.55E2,5.4E1,1.51E2,2.3E1,6E1,1.18E2,1.18E2,1.44E2,1.26E2,3.6E1,1.4E2,9E0,3.9E1,4.5E1,1.28E2,6E0,1.02E2,2.2E1,1.6E2,9.2E1,9E0,3.3E1],"tree_param":{"num_deleted":"0","num_feature":"29","num_nodes":"55","size_leaf_vector":"1"}},{"base_weights":[-9.879143E-2,-5.855257E0,5.4214363E0,-9.561741E0,-3.0874856E0,2.5648222E0,8.079599E0,-1.2444502E1,-8.173587E0,-4.509454E0,-1.5195092E0,1.5168808E0,4.0721574E0,6.815328E0,1.031942E1,-1.5068679E-1,-1.1782799E1,-9.513348E-2,-7.049813E0,-5.653825E0,-3.9247448E0,-2.1983624E0,-6.9166124E-1,5.781993E-1,2.1562824E0,4.627238E0,3.3095071E0,5.9489007E0,7.6774173E0,9.193267E0,1.151935E1,-1.196193E-1,-7.543293E-2,-7.5114824E-2,-6.1231196E-2,-5.890431E-2,-3.6928628E-2,-5.156294E-2,-3.623256E-2,-1.9794963E-2,-4.0715832E-2,-3.771113E-3,-3.344013E-2,-2.519182E-2,8.626209E-3,2.559239E-2,1.2598627E-2,9.45329E-3,4.7916606E-2,3.928171E-2,1.4188904E-2,5.0056104E-2,6.585121E-2,6.7613296E-2,8.638414E-2,9.758438E-2,6.673885E-2,8.393848E-2,1.1996523E-1],"categories":[],"categories_nodes":[],"categories_segments":[],"categories_sizes":[],"default_left":[0,0,0,0,0,0,0,0,0,0,0,0,0,0,0,0,0,0,0,0,0,0,0,0,0,0,0,0,0,0,0,0,0,0,0,0,0,0,0,0,0,0,0,0,0,0,0,0,0,0,0,0,0,0,0,0,0,0,0],"id":13,"left_children":[1,3,5,7,9,11,13,15,17,19,21,23,25,27,29,-1,31,-1,33,35,37,39,41,43,45,47,49,51,53,55,57,-1,-1,-1,-1,-1,-1,-1,-1,-1,-1,-1,-1,-1,-1,-1,-1,-1,-1,-1,-1,-1,-1,-1,-1,-1,-1,-1,-1],"loss_changes":[7.4326414E4,1.1715422E4,9.044672E3,1.8530586E3,1.4573999E3,9.046926E2,1.6779727E3,9.238086E1,4.3263867E2,2.0703125E2,1.7465454E2,2.0374622E2,8.379907E1,2.502461E2,1.9066602E2,0E0,6.546875E0,0E0,3.1791016E1,3.0182373E1,6.620947E1,6.18526E1,1.17671326E2,1.2534212E2,6.972101E1,7.60188E1,1.1436633E2,8.770703E1,1.1260254E2,1.0267285E2,5.0878906E1,0E0,0E0,0E0,0E0,0E0,0E0,0E0,0E0,0E0,0E0,0E0,0E0,0E0,0E0,0E0,0E0,0E0,0E0,0E0,0E0,0E0,0E0,0E0,0E0,0E0,0E0,0E0,0E0],"parents":[2147483647,0,0,1,1,2,2,3,3,4,4,5,5,6,6,7,7,8,8,9,9,10,10,11,11,12,12,13,13,14,14,16,16,18,18,19,19,20,20,21,21,22,22,23,23,24,24,25,25,26,26,27,27,28,28,29,29,30,30],"right_children":[2,4,6,8,10,12,14,16,18,20,22,24,26,28,30,-1,32,-1,34,36,38,40,42,44,46,48,50,52,54,56,58,-1,-1,-1,-1,-1,-1,-1,-1,-1,-1,-1,-1,-1,-1,-1,-1,-1,-1,-1,-1,-1,-1,-1,-1,-1,-1,-1,-1],"split_conditions":[1E1,5.5E0,1.59E1,-2.4E0,6.7E0,1.35E1,2.04E1,-3.6E0,2.7E0,4.1E0,8.6E0,1.11E0,9.9E0,1.0164E0,2.24E1,-1.5068679E-1,1.38E1,-9.513348E-2,4E-1,9.8E0,1.0075E0,1.82E1,6.3E0,5.7E0,8.9929616E-1,1.0067E0,-1.8369701E-16,1.77E1,1.8E1,1.25E1,1.012E0,-1.196193E-1,-7.543293E-2,-7.5114824E-2,-6.1231196E-2,-5.890431E-2,-3.6928628E-2,-5.156294E-2,-3.623256E-2,-1.9794963E-2,-4.0715832E-2,-3.771113E-3,-3.344013E-2,-2.519182E-2,8.626209E-3,2.559239E-2,1.2598627E-2,9.45329E-3,4.7916606E-2,3.928171E-2,1.4188904E-2,5.0056104E-2,6.585121E-2,6.7613296E-2,8.638414E-2,9.758438E-2,6.673885E-2,8.393848E-2,1.1996523E-1],"split_indices":[8,10,8,8,8,8,8,10,10,8,8,5,2,4,8,0,2,0,9,10,4,2,1,9,11,4,14,8,8,2,4,0,0,0,0,0,0,0,0,0,0,0,0,0,0,0,0,0,0,0,0,0,0,0,0,0,0,0,0],"split_type":[0,0,0,0,0,0,0,0,0,0,0,0,0,0,0,0,0,0,0,0,0,0,0,0,0,0,0,0,0,0,0,0,0,0,0,0,0,0,0,0,0,0,0,0,0,0,0,0,0,0,0,0,0,0,0,0,0,0,0],"sum_hessian":[2.337E3,1.144E3,1.193E3,4.88E2,6.56E2,5.76E2,6.17E2,1.56E2,3.32E2,3.43E2,3.13E2,3.41E2,2.35E2,3.97E2,2.2E2,2.7E1,1.29E2,1.48E2,1.84E2,1.13E2,2.3E2,1.71E2,1.42E2,1.39E2,2.02E2,1.33E2,1.02E2,2.02E2,1.95E2,1.18E2,1.02E2,1.22E2,7E0,1.18E2,6.6E1,9.9E1,1.4E1,4.2E1,1.88E2,1.55E2,1.6E1,1.28E2,1.4E1,1.1E1,1.28E2,1.38E2,6.4E1,6E0,1.27E2,7.6E1,2.6E1,8.5E1,1.17E2,1.04E2,9.1E1,9.4E1,2.4E1,1.6E1,8.6E1],"tree_param":{"num_deleted":"0","num_feature":"29","num_nodes":"59","size_leaf_vector":"1"}},{"base_weights":[-4.3646872E-2,-5.8112793E0,5.3883324E0,-9.84135E0,-3.3597472E0,2.7753313E0,8.343709E0,-1.2295211E1,-8.472737E0,-4.7729845E0,-1.5282643E0,1.5007085E0,4.232782E0,6.8835096E0,1.0271762E1,-1.3055621E-1,-1.0685664E-1,-9.088442E-2,-7.209752E0,-5.9037423E0,-3.9464657E0,-1.0222659E0,-2.514874E0,2.3108099E0,5.1417136E-1,3.4505498E0,4.931547E0,5.692633E0,7.5375433E0,1.0982361E1,8.785533E0,-4.5595616E-2,-7.4303515E-2,-6.544504E-2,-4.8577733E-2,-9.850946E-3,-4.0469363E-2,-1.716496E-2,-3.6296411E-3,-2.292233E-2,-5.258295E-2,2.902355E-2,1.2707427E-2,1.4873771E-2,-3.1506382E-3,1.1413393E-2,3.6322035E-2,5.2178085E-2,2.6026312E-2,3.1651534E-2,5.9718035E-2,6.5481536E-2,8.324425E-2,1.135647E-1,8.131932E-2,6.713193E-2,9.3352735E-2],"categories":[],"categories_nodes":[],"categories_segments":[],"categories_sizes":[],"default_left":[0,0,0,0,0,0,0,0,0,0,0,0,0,0,0,0,0,0,0,0,0,0,0,0,0,0,0,0,0,0,0,0,0,0,0,0,0,0,0,0,0,0,0,0,0,0,0,0,0,0,0,0,0,0,0,0,0],"id":14,"left_children":[1,3,5,7,9,11,13,15,17,19,21,23,25,27,29,-1,-1,-1,31,33,35,37,39,41,43,45,47,49,51,53,55,-1,-1,-1,-1,-1,-1,-1,-1,-1,-1,-1,-1,-1,-1,-1,-1,-1,-1,-1,-1,-1,-1,-1,-1,-1,-1],"loss_changes":[7.318611E4,1.115948E4,9.265781E3,1.3311367E3,1.8194297E3,1.1820024E3,1.5154336E3,4.2927734E1,1.4902344E2,3.476836E2,1.5133533E2,2.726532E2,1.4503076E2,2.0812402E2,1.5606055E2,0E0,0E0,0E0,2.1046387E1,7.832373E1,6.483472E1,9.3456696E1,5.071472E1,1.115611E2,1.2648043E2,5.578174E1,8.8973145E1,6.415088E1,1.0438086E2,7.525391E1,3.0283691E1,0E0,0E0,0E0,0E0,0E0,0E0,0E0,0E0,0E0,0E0,0E0,0E0,0E0,0E0,0E0,0E0,0E0,0E0,0E0,0E0,0E0,0E0,0E0,0E0,0E0,0E0],"parents":[2147483647,0,0,1,1,2,2,3,3,4,4,5,5,6,6,7,7,8,8,9,9,10,10,11,11,12,12,13,13,14,14,18,18,19,19,20,20,21,21,22,22,23,23,24,24,25,25,26,26,27,27,28,28,29,29,30,30],"right_children":[2,4,6,8,10,12,14,16,18,20,22,24,26,28,30,-1,-1,-1,32,34,36,38,40,42,44,46,48,50,52,54,56,-1,-1,-1,-1,-1,-1,-1,-1,-1,-1,-1,-1,-1,-1,-1,-1,-1,-1,-1,-1,-1,-1,-1,-1,-1,-1],"split_conditions":[1E1,2E0,1.65E1,-2.4E0,6.7E0,1.36E1,2.04E1,-3.6E0,6E-1,4.1E0,4.9440297E-1,-1.1905873E-1,1.0173E0,1.0143E0,1.04E1,-1.3055621E-1,-1.0685664E-1,-9.088442E-2,1.6E0,6E-1,-2.8726098E-1,8.6E0,7.3E0,3.1E-1,-9.011687E-1,8E0,1.382503E-1,-9.6206754E-1,1.82E1,-6.3090664E-1,2.14E1,-4.5595616E-2,-7.4303515E-2,-6.544504E-2,-4.8577733E-2,-9.850946E-3,-4.0469363E-2,-1.716496E-2,-3.6296411E-3,-2.292233E-2,-5.258295E-2,2.902355E-2,1.2707427E-2,1.4873771E-2,-3.1506382E-3,1.1413393E-2,3.6322035E-2,5.2178085E-2,2.6026312E-2,3.1651534E-2,5.9718035E-2,6.5481536E-2,8.324425E-2,1.135647E-1,8.131932E-2,6.713193E-2,9.3352735E-2],"split_indices":[8,8,8,8,8,8,8,8,8,8,12,12,4,4,2,0,0,0,1,5,12,8,1,6,11,22,12,11,8,12,8,0,0,0,0,0,0,0,0,0,0,0,0,0,0,0,0,0,0,0,0,0,0,0,0,0,0],"split_type":[0,0,0,0,0,0,0,0,0,0,0,0,0,0,0,0,0,0,0,0,0,0,0,0,0,0,0,0,0,0,0,0,0,0,0,0,0,0,0,0,0,0,0,0,0,0,0,0,0,0,0,0,0,0,0,0,0],"sum_hessian":[2.334E3,1.132E3,1.202E3,4.27E2,7.05E2,6.39E2,5.63E2,1.5E2,2.77E2,3.97E2,3.08E2,3.42E2,2.97E2,3.23E2,2.4E2,9.7E1,5.3E1,1.82E2,9.5E1,1.65E2,2.32E2,2.05E2,1.03E2,1.87E2,1.55E2,1.43E2,1.54E2,1.18E2,2.05E2,1.58E2,8.2E1,9E0,8.6E1,9.9E1,6.6E1,8E0,2.24E2,9.9E1,1.06E2,9.7E1,6E0,1.18E2,6.9E1,7.1E1,8.4E1,1.1E1,1.32E2,1.36E2,1.8E1,1.3E1,1.05E2,9.5E1,1.1E2,1.37E2,2.1E1,2E1,6.2E1],"tree_param":{"num_deleted":"0","num_feature":"29","num_nodes":"57","size_leaf_vector":"1"}},{"base_weights":[3.5771035E-2,-5.97058E0,5.1104007E0,-9.801364E0,-3.5368578E0,2.5358894E0,8.188905E0,-1.2371958E1,-8.558589E0,-4.858094E0,-1.6180832E0,1.3292283E0,4.2804437E0,6.810663E0,1.0039767E1,-1.2515002E-1,-7.265507E-2,-9.466275E0,-7.366067E0,-6.0006523E0,-4.0445747E0,-8.217763E-1,-2.3125663E0,2.221831E0,4.808254E-1,4.546312E0,2.518377E0,7.5728607E0,5.6613884E0,1.0955393E1,8.218492E0,-9.560149E-2,-5.509413E-2,-7.763801E-2,-6.1072778E-2,-6.589205E-2,-5.006975E-2,-4.4383746E-2,-3.1098578E-2,-1.5370533E-2,-1.876126E-3,-1.659243E-2,-2.9782671E-2,3.1799257E-2,1.7397566E-2,1.3796449E-2,-4.3018116E-3,5.1317845E-2,3.5688467E-2,3.401391E-2,1.2936724E-2,6.705914E-2,8.624922E-2,6.132584E-2,3.4281533E-2,1.0056171E-1,1.2254851E-1,6.28104E-2,8.834304E-2],"categories":[],"categories_nodes":[],"categories_segments":[],"categories_sizes":[],"default_left":[0,0,0,0,0,0,0,0,0,0,0,0,0,0,0,0,0,0,0,0,0,0,0,0,0,0,0,0,0,0,0,0,0,0,0,0,0,0,0,0,0,0,0,0,0,0,0,0,0,0,0,0,0,0,0,0,0,0,0],"id":15,"left_children":[1,3,5,7,9,11,13,15,17,19,21,23,25,27,29,-1,-1,31,33,35,37,39,41,43,45,47,49,51,53,55,57,-1,-1,-1,-1,-1,-1,-1,-1,-1,-1,-1,-1,-1,-1,-1,-1,-1,-1,-1,-1,-1,-1,-1,-1,-1,-1,-1,-1],"loss_changes":[7.068308E4,9.865094E3,9.940695E3,1.2082227E3,1.6418774E3,1.4378379E3,1.3890703E3,3.5136719E0,2.327539E2,3.3258008E2,1.45443E2,3.068772E2,1.1901807E2,2.4575098E2,3.1160547E2,0E0,0E0,3.7685547E0,1.4280762E1,5.8251953E1,6.936719E1,5.66931E1,5.6352966E1,8.5426636E1,1.7264285E2,1.1930664E2,3.730603E1,1.19396484E2,1.21131836E2,5.9154297E1,4.4413574E1,0E0,0E0,0E0,0E0,0E0,0E0,0E0,0E0,0E0,0E0,0E0,0E0,0E0,0E0,0E0,0E0,0E0,0E0,0E0,0E0,0E0,0E0,0E0,0E0,0E0,0E0,0E0,0E0],"parents":[2147483647,0,0,1,1,2,2,3,3,4,4,5,5,6,6,7,7,8,8,9,9,10,10,11,11,12,12,13,13,14,14,17,17,18,18,19,19,20,20,21,21,22,22,23,23,24,24,25,25,26,26,27,27,28,28,29,29,30,30],"right_children":[2,4,6,8,10,12,14,16,18,20,22,24,26,28,30,-1,-1,32,34,36,38,40,42,44,46,48,50,52,54,56,58,-1,-1,-1,-1,-1,-1,-1,-1,-1,-1,-1,-1,-1,-1,-1,-1,-1,-1,-1,-1,-1,-1,-1,-1,-1,-1,-1,-1],"split_conditions":[9.5E0,2E0,1.65E1,-2.7E0,6.6E0,1.38E1,2.04E1,4E-1,2.7E0,3.8E0,2.4372971E-1,-1.8281692E-1,2.2576263E-2,2E-2,2E-2,-1.2515002E-1,-7.265507E-2,1.19E2,5E0,6E-1,9.3E-1,8.2E0,2E-2,8.4E0,-5E-1,1.6E-1,9.5E0,1.85E1,5E-1,2.28E1,1.53E1,-9.560149E-2,-5.509413E-2,-7.763801E-2,-6.1072778E-2,-6.589205E-2,-5.006975E-2,-4.4383746E-2,-3.1098578E-2,-1.5370533E-2,-1.876126E-3,-1.659243E-2,-2.9782671E-2,3.1799257E-2,1.7397566E-2,1.3796449E-2,-4.3018116E-3,5.1317845E-2,3.5688467E-2,3.401391E-2,1.2936724E-2,6.705914E-2,8.624922E-2,6.132584E-2,3.4281533E-2,1.0056171E-1,1.2254851E-1,6.28104E-2,8.834304E-2],"split_indices":[8,8,8,8,8,8,8,6,10,8,12,12,12,6,6,0,0,22,10,5,5,8,6,2,13,6,2,8,13,8,9,0,0,0,0,0,0,0,0,0,0,0,0,0,0,0,0,0,0,0,0,0,0,0,0,0,0,0,0],"split_type":[0,0,0,0,0,0,0,0,0,0,0,0,0,0,0,0,0,0,0,0,0,0,0,0,0,0,0,0,0,0,0,0,0,0,0,0,0,0,0,0,0,0,0,0,0,0,0,0,0,0,0,0,0,0,0,0,0,0,0],"sum_hessian":[2.317E3,1.061E3,1.256E3,4.11E2,6.5E2,6.85E2,5.71E2,1.31E2,2.8E2,3.84E2,2.66E2,4.06E2,2.79E2,3.3E2,2.41E2,1.26E2,5E0,1.55E2,1.25E2,1.57E2,2.27E2,1.25E2,1.41E2,1.97E2,2.09E2,2.41E2,3.8E1,1.95E2,1.35E2,1.57E2,8.4E1,1.5E2,5E0,9.1E1,3.4E1,9.5E1,6.2E1,1.57E2,7E1,5.8E1,6.7E1,7.3E1,6.8E1,6.4E1,1.33E2,1.05E2,1.04E2,1.48E2,9.3E1,2.1E1,1.7E1,1.11E2,8.4E1,1.1E2,2.5E1,9.8E1,5.9E1,2.3E1,6.1E1],"tree_param":{"num_deleted":"0","num_feature":"29","num_nodes":"59","size_leaf_vector":"1"}},{"base_weights":[-3.83319E-2,-5.6862197E0,5.2426972E0,-9.813191E0,-3.3624935E0,2.8136094E0,8.151377E0,-1.2118005E1,-8.418543E0,-4.894116E0,-1.738098E0,1.6557069E0,4.3622365E0,7.107056E0,1.0582316E1,-1.4891087E-1,-1.13874E-1,-8.808995E0,-5.87726E0,-5.864914E0,-4.1093364E0,-1.005417E0,-2.9021995E0,2.462198E0,6.262137E-1,4.947843E0,3.5624526E0,7.9431887E0,5.9064345E0,1.1016458E1,7.314306E-2,-9.228451E-2,-7.8422956E-2,-3.2855656E-2,-6.1764132E-2,-6.006993E-2,-3.0804021E-2,-4.546645E-2,-3.0757701E-2,-1.6730264E-2,-2.353374E-3,-2.675352E-2,-6.1564844E-2,1.3037028E-2,2.8921915E-2,1.6232979E-2,-3.5360046E-3,5.298527E-2,3.445276E-2,4.29615E-2,1.824906E-2,6.8131134E-2,8.831341E-2,4.3322835E-2,6.7417085E-2,1.13731265E-1,8.432007E-2],"categories":[],"categories_nodes":[],"categories_segments":[],"categories_sizes":[],"default_left":[0,0,0,0,0,0,0,0,0,0,0,0,0,0,0,0,0,0,0,0,0,0,0,0,0,0,0,0,0,0,0,0,0,0,0,0,0,0,0,0,0,0,0,0,0,0,0,0,0,0,0,0,0,0,0,0,0],"id":16,"left_children":[1,3,5,7,9,11,13,15,17,19,21,23,25,27,29,-1,-1,31,33,35,37,39,41,43,45,47,49,51,53,55,-1,-1,-1,-1,-1,-1,-1,-1,-1,-1,-1,-1,-1,-1,-1,-1,-1,-1,-1,-1,-1,-1,-1,-1,-1,-1,-1],"loss_changes":[6.931719E4,1.0735203E4,8.4615625E3,1.194543E3,1.7821621E3,1.1684883E3,1.3091406E3,1.3170703E2,1.997832E2,2.5679004E2,2.9606445E2,3.1116382E2,1.12663086E2,3.3819336E2,1.474336E2,0E0,0E0,1.4722656E1,7.4473877E0,4.507373E1,7.9266846E1,1.1097786E2,8.230664E1,1.0091858E2,1.6385284E2,6.46521E1,1.4707764E2,1.6309082E2,1.8269092E2,3.209375E1,0E0,0E0,0E0,0E0,0E0,0E0,0E0,0E0,0E0,0E0,0E0,0E0,0E0,0E0,0E0,0E0,0E0,0E0,0E0,0E0,0E0,0E0,0E0,0E0,0E0,0E0,0E0],"parents":[2147483647,0,0,1,1,2,2,3,3,4,4,5,5,6,6,7,7,8,8,9,9,10,10,11,11,12,12,13,13,14,14,17,17,18,18,19,19,20,20,21,21,22,22,23,23,24,24,25,25,26,26,27,27,28,28,29,29],"right_children":[2,4,6,8,10,12,14,16,18,20,22,24,26,28,30,-1,-1,32,34,36,38,40,42,44,46,48,50,52,54,56,-1,-1,-1,-1,-1,-1,-1,-1,-1,-1,-1,-1,-1,-1,-1,-1,-1,-1,-1,-1,-1,-1,-1,-1,-1,-1,-1],"split_conditions":[1E1,1.8E0,1.65E1,-2.4E0,6.2E0,1.39E1,2.16E1,-3.6E0,4.7E0,3.8E0,4.6801534E-1,-1.1905873E-1,9.9E0,2E-2,5.6E-1,-1.4891087E-1,-1.13874E-1,2.7E0,1.4E0,9.8E0,9.3E-1,8.6E0,7.3E0,1.0134E0,-8.857249E-1,2.8E-1,-4.887854E-1,1.85E1,1.37E1,-7.074868E-1,7.314306E-2,-9.228451E-2,-7.8422956E-2,-3.2855656E-2,-6.1764132E-2,-6.006993E-2,-3.0804021E-2,-4.546645E-2,-3.0757701E-2,-1.6730264E-2,-2.353374E-3,-2.675352E-2,-6.1564844E-2,1.3037028E-2,2.8921915E-2,1.6232979E-2,-3.5360046E-3,5.298527E-2,3.445276E-2,4.29615E-2,1.824906E-2,6.8131134E-2,8.831341E-2,4.3322835E-2,6.7417085E-2,1.13731265E-1,8.432007E-2],"split_indices":[8,8,8,8,8,8,8,10,10,8,12,12,2,6,6,0,0,10,1,7,5,8,1,4,11,6,12,8,9,12,0,0,0,0,0,0,0,0,0,0,0,0,0,0,0,0,0,0,0,0,0,0,0,0,0,0,0],"split_type":[0,0,0,0,0,0,0,0,0,0,0,0,0,0,0,0,0,0,0,0,0,0,0,0,0,0,0,0,0,0,0,0,0,0,0,0,0,0,0,0,0,0,0,0,0,0,0,0,0,0,0,0,0,0,0,0,0],"sum_hessian":[2.322E3,1.122E3,1.2E3,4.03E2,7.19E2,6.55E2,5.45E2,1.49E2,2.54E2,3.69E2,3.5E2,3.76E2,2.79E2,3.84E2,1.61E2,2.7E1,1.22E2,2.18E2,3.6E1,1.62E2,2.07E2,2.16E2,1.34E2,2.1E2,1.66E2,1.58E2,1.21E2,2.23E2,1.61E2,1.4E2,2.1E1,1.46E2,7.2E1,5E0,3.1E1,1.53E2,9E0,1.43E2,6.4E1,1.15E2,1.01E2,1.27E2,7E0,5.8E1,1.52E2,8.2E1,8.4E1,1.26E2,3.2E1,8.4E1,3.7E1,1.02E2,1.21E2,5.8E1,1.03E2,1.2E2,2E1],"tree_param":{"num_deleted":"0","num_feature":"29","num_nodes":"57","size_leaf_vector":"1"}},{"base_weights":[5.602693E-2,-5.6371193E0,5.2638917E0,-9.62408E0,-3.19876E0,2.7381227E0,8.082914E0,-1.1870022E1,-8.307046E0,-4.602822E0,-1.3171786E0,1.7237682E0,4.386768E0,6.67465E0,9.780387E0,-1.2926899E-1,-1.0858826E-1,-9.274761E-2,-7.4209404E0,-5.884896E0,-3.8811283E0,-6.2646276E-1,-2.1127443E0,9.046326E-1,2.4790018E0,5.078535E0,3.755342E0,3.690955E0,6.894427E0,1.0662481E1,8.144322E0,-7.722162E-2,-6.1524477E-2,-6.225599E-2,-4.350952E-2,-4.2489775E-2,-2.9647402E-2,-1.1030701E-2,-1.526207E-3,-3.6669504E-2,-1.4844764E-2,3.734536E-3,2.1120176E-2,2.202235E-2,3.984984E-2,3.037193E-2,5.2879356E-2,3.084814E-2,4.5068953E-2,1.4177301E-2,4.3643784E-2,7.123222E-2,4.7882862E-2,9.9975154E-2,1.3211124E-1,6.032415E-2,8.8926904E-2],"categories":[],"categories_nodes":[],"categories_segments":[],"categories_sizes":[],"default_left":[0,0,0,0,0,0,0,0,0,0,0,0,0,0,0,0,0,0,0,0,0,0,0,0,0,0,0,0,0,0,0,0,0,0,0,0,0,0,0,0,0,0,0,0,0,0,0,0,0,0,0,0,0,0,0,0,0],"id":17,"left_children":[1,3,5,7,9,11,13,15,17,19,21,23,25,27,29,-1,-1,-1,31,33,35,37,39,41,43,45,47,49,51,53,55,-1,-1,-1,-1,-1,-1,-1,-1,-1,-1,-1,-1,-1,-1,-1,-1,-1,-1,-1,-1,-1,-1,-1,-1,-1,-1],"loss_changes":[6.9260375E4,1.0817285E4,8.663434E3,1.1506016E3,1.826794E3,1.0704673E3,1.3099961E3,2.1833984E1,1.610293E2,3.435127E2,1.621565E2,2.4549316E2,8.7061035E1,1.8202246E2,2.850625E2,0E0,0E0,0E0,6.888672E0,4.5544434E1,7.33147E1,3.606577E1,1.2879248E2,1.233822E2,7.7301025E1,3.1837158E1,5.1857666E1,2.9974487E1,1.06853516E2,1.4523633E2,9.500928E1,0E0,0E0,0E0,0E0,0E0,0E0,0E0,0E0,0E0,0E0,0E0,0E0,0E0,0E0,0E0,0E0,0E0,0E0,0E0,0E0,0E0,0E0,0E0,0E0,0E0,0E0],"parents":[2147483647,0,0,1,1,2,2,3,3,4,4,5,5,6,6,7,7,8,8,9,9,10,10,11,11,12,12,13,13,14,14,18,18,19,19,20,20,21,21,22,22,23,23,24,24,25,25,26,26,27,27,28,28,29,29,30,30],"right_children":[2,4,6,8,10,12,14,16,18,20,22,24,26,28,30,-1,-1,-1,32,34,36,38,40,42,44,46,48,50,52,54,56,-1,-1,-1,-1,-1,-1,-1,-1,-1,-1,-1,-1,-1,-1,-1,-1,-1,-1,-1,-1,-1,-1,-1,-1,-1,-1],"split_conditions":[1E1,2E0,1.64E1,-2.4E0,6.7E0,1.41E1,2.02E1,-4.5E0,2.4E0,3.8E0,3E-2,1.21E1,1E-2,1.0083E0,2E-2,-1.2926899E-1,-1.0858826E-1,-9.274761E-2,5E0,5.2E0,9.3E-1,8.5E0,4.3E0,1.73E0,2.53E0,1.06E0,1.25E1,3.2E1,8.8E-1,3.15E1,1.52E1,-7.722162E-2,-6.1524477E-2,-6.225599E-2,-4.350952E-2,-4.2489775E-2,-2.9647402E-2,-1.1030701E-2,-1.526207E-3,-3.6669504E-2,-1.4844764E-2,3.734536E-3,2.1120176E-2,2.202235E-2,3.984984E-2,3.037193E-2,5.2879356E-2,3.084814E-2,4.5068953E-2,1.4177301E-2,4.3643784E-2,7.123222E-2,4.7882862E-2,9.9975154E-2,1.3211124E-1,6.032415E-2,8.8926904E-2],"split_indices":[8,8,8,8,8,8,8,8,10,8,6,8,6,4,6,0,0,0,10,7,5,8,9,5,5,5,9,22,6,10,9,0,0,0,0,0,0,0,0,0,0,0,0,0,0,0,0,0,0,0,0,0,0,0,0,0,0],"split_type":[0,0,0,0,0,0,0,0,0,0,0,0,0,0,0,0,0,0,0,0,0,0,0,0,0,0,0,0,0,0,0,0,0,0,0,0,0,0,0,0,0,0,0,0,0,0,0,0,0,0,0,0,0,0,0,0,0],"sum_hessian":[2.334E3,1.115E3,1.219E3,4.22E2,6.93E2,6.44E2,5.75E2,1.53E2,2.69E2,3.96E2,2.97E2,4E2,2.44E2,3.17E2,2.58E2,6.9E1,8.4E1,1.24E2,1.45E2,1.4E2,2.56E2,1.6E2,1.37E2,1.93E2,2.07E2,1.13E2,1.31E2,2.3E1,2.94E2,1.64E2,9.4E1,1.13E2,3.2E1,1.12E2,2.8E1,1.8E2,7.6E1,7.9E1,8.1E1,3.8E1,9.9E1,1.35E2,5.8E1,1.77E2,3E1,1.2E1,1.01E2,7.2E1,5.9E1,6E0,1.7E1,2.63E2,3.1E1,1.34E2,3E1,2.7E1,6.7E1],"tree_param":{"num_deleted":"0","num_feature":"29","num_nodes":"57","size_leaf_vector":"1"}},{"base_weights":[-4.8651382E-2,-6.024247E0,4.8239326E0,-9.831227E0,-3.6932251E0,2.2923398E0,8.041318E0,-1.2055057E1,-8.356647E0,-4.9312015E0,-1.9715166E0,7.328023E-1,3.7248936E0,6.4112844E0,9.521685E0,-1.4729512E-1,-1.1552713E-1,-9.009741E-2,-7.605047E-2,-5.9370403E0,-4.0529222E0,-2.5851974E0,-1.1124929E0,-1.9754888E0,9.593368E-1,2.7569764E0,4.3646193E0,5.520333E0,7.35536E0,8.708878E0,1.0801208E1,-2.6508452E-2,-6.0380306E-2,-3.553927E-2,-4.905161E-2,-2.021394E-3,-2.8313342E-2,2.5731793E-3,-1.4190543E-2,-2.6861658E-2,-6.884891E-3,1.793832E-2,2.3027211E-3,3.655537E-2,2.0237144E-2,3.1226465E-2,4.8305918E-2,3.2551832E-2,5.8172975E-2,7.506164E-2,4.499509E-2,8.803102E-2,5.0410252E-2,1.17434636E-1,9.6047305E-2],"categories":[],"categories_nodes":[],"categories_segments":[],"categories_sizes":[],"default_left":[0,0,0,0,0,0,0,0,0,0,0,0,0,0,0,0,0,0,0,0,0,0,0,0,0,0,0,0,0,0,0,0,0,0,0,0,0,0,0,0,0,0,0,0,0,0,0,0,0,0,0,0,0,0,0],"id":18,"left_children":[1,3,5,7,9,11,13,15,17,19,21,23,25,27,29,-1,-1,-1,-1,31,33,35,37,39,41,43,45,47,49,51,53,-1,-1,-1,-1,-1,-1,-1,-1,-1,-1,-1,-1,-1,-1,-1,-1,-1,-1,-1,-1,-1,-1,-1,-1],"loss_changes":[6.787084E4,9.253582E3,1.0438854E4,1.1990664E3,1.3771514E3,1.6053921E3,1.3007305E3,3.679297E1,4.8609375E1,3.088662E2,1.4119775E2,2.14072E2,2.1945557E2,1.8689551E2,2.0974414E2,0E0,0E0,0E0,0E0,4.0871094E1,6.8900635E1,9.238721E1,4.919336E1,2.2508438E1,1.9407281E2,9.2184204E1,1.1375488E2,7.7020996E1,2.0582031E1,1.8175781E1,9.084961E0,0E0,0E0,0E0,0E0,0E0,0E0,0E0,0E0,0E0,0E0,0E0,0E0,0E0,0E0,0E0,0E0,0E0,0E0,0E0,0E0,0E0,0E0,0E0,0E0],"parents":[2147483647,0,0,1,1,2,2,3,3,4,4,5,5,6,6,7,7,8,8,9,9,10,10,11,11,12,12,13,13,14,14,19,19,20,20,21,21,22,22,23,23,24,24,25,25,26,26,27,27,28,28,29,29,30,30],"right_children":[2,4,6,8,10,12,14,16,18,20,22,24,26,28,30,-1,-1,-1,-1,32,34,36,38,40,42,44,46,48,50,52,54,-1,-1,-1,-1,-1,-1,-1,-1,-1,-1,-1,-1,-1,-1,-1,-1,-1,-1,-1,-1,-1,-1,-1,-1],"split_conditions":[9.2E0,1.6E0,1.64E1,-2.4E0,6.2E0,1.27E1,1.97E1,-7.7E0,4.9E-1,3.8E0,8E0,1.0063E0,1.42E1,1.0162E0,2.24E1,-1.4729512E-1,-1.1552713E-1,-9.009741E-2,-7.605047E-2,-4E0,8.041872E-1,7E-1,-2.1652709E-1,1.08E1,-1.1905873E-1,-4.159484E-1,1.0145E0,1.0078E0,-1.8281692E-1,-3.8044736E-1,2.4E0,-2.6508452E-2,-6.0380306E-2,-3.553927E-2,-4.905161E-2,-2.021394E-3,-2.8313342E-2,2.5731793E-3,-1.4190543E-2,-2.6861658E-2,-6.884891E-3,1.793832E-2,2.3027211E-3,3.655537E-2,2.0237144E-2,3.1226465E-2,4.8305918E-2,3.2551832E-2,5.8172975E-2,7.506164E-2,4.499509E-2,8.803102E-2,5.0410252E-2,1.17434636E-1,9.6047305E-2],"split_indices":[8,8,8,8,8,8,8,8,5,8,8,4,8,4,8,0,0,0,0,9,12,9,12,8,12,12,4,4,12,12,1,0,0,0,0,0,0,0,0,0,0,0,0,0,0,0,0,0,0,0,0,0,0,0,0],"split_type":[0,0,0,0,0,0,0,0,0,0,0,0,0,0,0,0,0,0,0,0,0,0,0,0,0,0,0,0,0,0,0,0,0,0,0,0,0,0,0,0,0,0,0,0,0,0,0,0,0,0,0,0,0,0,0],"sum_hessian":[2.329E3,1.046E3,1.283E3,3.96E2,6.5E2,7.19E2,5.64E2,1.55E2,2.41E2,3.77E2,2.73E2,3.45E2,3.74E2,2.71E2,2.93E2,2E1,1.35E2,1.23E2,1.18E2,1.73E2,2.04E2,1.58E2,1.15E2,2.6E1,3.19E2,1.51E2,2.23E2,1.43E2,1.28E2,1.84E2,1.09E2,6E0,1.67E2,1.32E2,7.2E1,1.5E1,1.43E2,2.1E1,9.4E1,1.6E1,1E1,1.48E2,1.71E2,6.6E1,8.5E1,6.3E1,1.6E2,1.8E1,1.25E2,1.2E2,8E0,1.78E2,6E0,5.6E1,5.3E1],"tree_param":{"num_deleted":"0","num_feature":"29","num_nodes":"55","size_leaf_vector":"1"}},{"base_weights":[3.4760438E-2,-5.2285724E0,5.3709984E0,-9.481512E0,-2.9703946E0,2.940617E0,7.8816032E0,-1.2047176E-1,-8.487019E0,-4.5315185E0,-1.2562768E0,1.9204897E0,4.457924E0,6.8161964E0,1.0139725E1,-9.286507E0,-7.1836433E0,-5.682805E0,-3.8496733E0,-6.5199846E-1,-2.3653178E0,2.1585336E0,-4.5740795E-1,4.91161E0,3.608337E0,7.3042874E0,4.8688345E0,1.0560798E1,7.102637E0,-8.034574E-2,-9.667756E-2,-5.752395E-2,-7.6315075E-2,-5.8371287E-2,-3.2350644E-2,-3.4090128E-2,-4.7049575E-2,-1.5803708E-2,-3.8568283E-4,-1.51696075E-2,-3.0355677E-2,2.4911815E-2,9.4605675E-3,-1.1783074E-2,5.9797755E-3,5.089484E-2,2.9529175E-2,2.619765E-2,4.4901602E-2,6.301594E-2,8.140568E-2,3.457954E-2,5.8649834E-2,1.0982313E-1,8.581102E-2,7.5873524E-2,4.286479E-2],"categories":[],"categories_nodes":[],"categories_segments":[],"categories_sizes":[],"default_left":[0,0,0,0,0,0,0,0,0,0,0,0,0,0,0,0,0,0,0,0,0,0,0,0,0,0,0,0,0,0,0,0,0,0,0,0,0,0,0,0,0,0,0,0,0,0,0,0,0,0,0,0,0,0,0,0,0],"id":19,"left_children":[1,3,5,7,9,11,13,-1,15,17,19,21,23,25,27,29,31,33,35,37,39,41,43,45,47,49,51,53,55,-1,-1,-1,-1,-1,-1,-1,-1,-1,-1,-1,-1,-1,-1,-1,-1,-1,-1,-1,-1,-1,-1,-1,-1,-1,-1,-1,-1],"loss_changes":[6.538514E4,1.1226355E4,7.0293438E3,9.31625E2,2.0461826E3,9.0248193E2,1.2956992E3,0E0,2.4008203E2,2.919541E2,2.4410828E2,2.0153699E2,7.2390625E1,3.329629E2,1.5341406E2,6.4677734E0,2.9759766E1,3.5737793E1,7.92561E1,1.3588568E2,6.829077E1,1.27171265E2,2.5869926E1,3.6775635E1,6.249597E1,2.0636328E2,9.2628296E1,3.398047E1,4.1552734E-1,0E0,0E0,0E0,0E0,0E0,0E0,0E0,0E0,0E0,0E0,0E0,0E0,0E0,0E0,0E0,0E0,0E0,0E0,0E0,0E0,0E0,0E0,0E0,0E0,0E0,0E0,0E0,0E0],"parents":[2147483647,0,0,1,1,2,2,3,3,4,4,5,5,6,6,8,8,9,9,10,10,11,11,12,12,13,13,14,14,15,15,16,16,17,17,18,18,19,19,20,20,21,21,22,22,23,23,24,24,25,25,26,26,27,27,28,28],"right_children":[2,4,6,8,10,12,14,-1,16,18,20,22,24,26,28,30,32,34,36,38,40,42,44,46,48,50,52,54,56,-1,-1,-1,-1,-1,-1,-1,-1,-1,-1,-1,-1,-1,-1,-1,-1,-1,-1,-1,-1,-1,-1,-1,-1,-1,-1,-1,-1],"split_conditions":[1.06E1,2E0,1.65E1,-3.1E0,6.7E0,1.41E1,2.14E1,-1.2047176E-1,3E-1,3.8E0,4.9440297E-1,4.2180607E-1,1.9E-1,3.1E-1,5.6E-1,1.8E0,2.1E0,9.8E0,8.041872E-1,8.6E0,2E-2,5.1E-1,7.7E-1,1.382503E-1,1.25E1,1.85E1,1.41E1,-7.3137814E-1,-7.3137814E-1,-8.034574E-2,-9.667756E-2,-5.752395E-2,-7.6315075E-2,-5.8371287E-2,-3.2350644E-2,-3.4090128E-2,-4.7049575E-2,-1.5803708E-2,-3.8568283E-4,-1.51696075E-2,-3.0355677E-2,2.4911815E-2,9.4605675E-3,-1.1783074E-2,5.9797755E-3,5.089484E-2,2.9529175E-2,2.619765E-2,4.4901602E-2,6.301594E-2,8.140568E-2,3.457954E-2,5.8649834E-2,1.0982313E-1,8.581102E-2,7.5873524E-2,4.286479E-2],"split_indices":[8,8,8,8,8,8,8,0,8,8,12,12,6,6,6,1,1,7,12,8,6,6,3,12,9,8,9,12,12,0,0,0,0,0,0,0,0,0,0,0,0,0,0,0,0,0,0,0,0,0,0,0,0,0,0,0,0],"split_type":[0,0,0,0,0,0,0,0,0,0,0,0,0,0,0,0,0,0,0,0,0,0,0,0,0,0,0,0,0,0,0,0,0,0,0,0,0,0,0,0,0,0,0,0,0,0,0,0,0,0,0,0,0,0,0,0,0],"sum_hessian":[2.326E3,1.171E3,1.155E3,4.05E2,7.66E2,5.88E2,5.67E2,1.1E2,2.95E2,4E2,3.66E2,3.53E2,2.35E2,3.88E2,1.79E2,1.79E2,1.16E2,1.46E2,2.54E2,2.38E2,1.28E2,3.21E2,3.2E1,1.5E2,8.5E1,3.08E2,8E1,1.55E2,2.4E1,4.7E1,1.32E2,3.1E1,8.5E1,1.36E2,1E1,1.71E2,8.3E1,9.4E1,1.44E2,5.8E1,7E1,2.51E2,7E1,1.9E1,1.3E1,1.36E2,1.4E1,4.2E1,4.3E1,1.44E2,1.64E2,3.5E1,4.5E1,1.24E2,3.1E1,1.9E1,5E0],"tree_param":{"num_deleted":"0","num_feature":"29","num_nodes":"57","size_leaf_vector":"1"}},{"base_weights":[-8.116336E-2,-5.5060244E0,4.97906E0,-9.27063E0,-3.2991533E0,2.65868E0,7.7543654E0,-1.1952394E1,-8.219956E0,-4.6167817E0,-1.6038337E0,9.9396986E-1,3.7423644E0,6.195907E0,9.077277E0,-1.414582E-1,-1.1225348E-1,-9.086959E0,-6.965853E0,-5.6277633E0,-3.9441683E0,-1.0406598E0,-2.455238E0,1.4544381E0,-6.306889E-2,2.710287E0,4.382825E0,4.9282794E0,6.833721E0,8.159786E0,1.05062685E1,-9.288017E-2,-7.1463354E-2,-7.3931456E-2,-5.745411E-2,-6.0865268E-2,-4.7676947E-2,-4.358704E-2,-2.859626E-2,6.650297E-3,-1.232412E-2,-3.2826524E-2,-1.5872642E-2,2.0062719E-2,4.593515E-3,1.06721725E-2,-6.498271E-3,3.6859542E-2,1.9222949E-2,4.6458747E-2,2.3219006E-2,5.5214934E-2,3.5544682E-2,6.979126E-2,3.8138773E-2,8.612265E-2,4.7425512E-2,1.0923682E-1,7.690823E-2],"categories":[],"categories_nodes":[],"categories_segments":[],"categories_sizes":[],"default_left":[0,0,0,0,0,0,0,0,0,0,0,0,0,0,0,0,0,0,0,0,0,0,0,0,0,0,0,0,0,0,0,0,0,0,0,0,0,0,0,0,0,0,0,0,0,0,0,0,0,0,0,0,0,0,0,0,0,0,0],"id":20,"left_children":[1,3,5,7,9,11,13,15,17,19,21,23,25,27,29,-1,-1,31,33,35,37,39,41,43,45,47,49,51,53,55,57,-1,-1,-1,-1,-1,-1,-1,-1,-1,-1,-1,-1,-1,-1,-1,-1,-1,-1,-1,-1,-1,-1,-1,-1,-1,-1,-1,-1],"loss_changes":[6.4729496E4,9.42266E3,7.8348516E3,1.0831484E3,1.5980752E3,1.1972842E3,1.0864766E3,2.3658203E1,2.6672656E2,2.5156543E2,1.4861383E2,1.2872836E2,2.5379688E2,1.7374121E2,3.0310742E2,0E0,0E0,1.0429688E0,2.3481445E1,3.2631836E1,9.741113E1,6.367369E1,8.40744E1,9.987036E1,5.437135E1,1.13058105E2,1.224209E2,5.2813477E1,4.651123E1,2.4541699E2,4.6924805E1,0E0,0E0,0E0,0E0,0E0,0E0,0E0,0E0,0E0,0E0,0E0,0E0,0E0,0E0,0E0,0E0,0E0,0E0,0E0,0E0,0E0,0E0,0E0,0E0,0E0,0E0,0E0,0E0],"parents":[2147483647,0,0,1,1,2,2,3,3,4,4,5,5,6,6,7,7,8,8,9,9,10,10,11,11,12,12,13,13,14,14,17,17,18,18,19,19,20,20,21,21,22,22,23,23,24,24,25,25,26,26,27,27,28,28,29,29,30,30],"right_children":[2,4,6,8,10,12,14,16,18,20,22,24,26,28,30,-1,-1,32,34,36,38,40,42,44,46,48,50,52,54,56,58,-1,-1,-1,-1,-1,-1,-1,-1,-1,-1,-1,-1,-1,-1,-1,-1,-1,-1,-1,-1,-1,-1,-1,-1,-1,-1,-1,-1],"split_conditions":[9.9E0,2E0,1.65E1,-3.1E0,6.6E0,1.27E1,1.97E1,-3.6E0,2.7E0,3.8E0,4.527447E-1,1.7647098E-1,1.42E1,1.0138E0,2.24E1,-1.414582E-1,-1.1225348E-1,-5E-1,5E0,6E-1,9.3E-1,-6.208444E-1,4.3E0,2.7E-1,-8.945422E-1,-4.159484E-1,2.2576263E-2,4.2E-1,-1.8281692E-1,3.9E-1,7.7E-1,-9.288017E-2,-7.1463354E-2,-7.3931456E-2,-5.745411E-2,-6.0865268E-2,-4.7676947E-2,-4.358704E-2,-2.859626E-2,6.650297E-3,-1.232412E-2,-3.2826524E-2,-1.5872642E-2,2.0062719E-2,4.593515E-3,1.06721725E-2,-6.498271E-3,3.6859542E-2,1.9222949E-2,4.6458747E-2,2.3219006E-2,5.5214934E-2,3.5544682E-2,6.979126E-2,3.8138773E-2,8.612265E-2,4.7425512E-2,1.0923682E-1,7.690823E-2],"split_indices":[8,8,8,8,8,8,8,10,10,8,12,12,8,4,8,0,0,9,10,5,5,12,9,6,11,12,12,6,12,6,6,0,0,0,0,0,0,0,0,0,0,0,0,0,0,0,0,0,0,0,0,0,0,0,0,0,0,0,0],"split_type":[0,0,0,0,0,0,0,0,0,0,0,0,0,0,0,0,0,0,0,0,0,0,0,0,0,0,0,0,0,0,0,0,0,0,0,0,0,0,0,0,0,0,0,0,0,0,0,0,0,0,0,0,0,0,0,0,0,0,0],"sum_hessian":[2.356E3,1.137E3,1.219E3,4.19E2,7.18E2,6.65E2,5.54E2,1.15E2,3.04E2,4.03E2,3.15E2,2.63E2,4.02E2,2.57E2,2.97E2,2.4E1,9.1E1,1.76E2,1.28E2,1.58E2,2.45E2,1.91E2,1.24E2,1.83E2,8E1,1.56E2,2.46E2,8.9E1,1.68E2,1.85E2,1.12E2,1.56E2,2E1,9.1E1,3.7E1,9.9E1,5.9E1,1.75E2,7E1,1.9E1,1.72E2,6.2E1,6.2E1,1.17E2,6.6E1,2.7E1,5.3E1,6.8E1,8.8E1,2.17E2,2.9E1,6E1,2.9E1,1.59E2,9E0,1.62E2,2.3E1,9.5E1,1.7E1],"tree_param":{"num_deleted":"0","num_feature":"29","num_nodes":"59","size_leaf_vector":"1"}},{"base_weights":[-3.393811E-2,-5.53269E0,5.015233E0,-9.337953E0,-3.2006302E0,2.5674384E0,7.799968E0,-1.19617485E-1,-8.243132E0,-4.52361E0,-1.5787299E0,1.5811564E0,4.273771E0,6.7378154E0,1.0021465E1,-8.791732E0,-6.9002056E0,-5.478426E0,-3.8835843E0,-9.732242E-1,-2.5256584E0,2.2251277E0,6.9066024E-1,3.128026E0,4.6723485E0,7.5309052E0,5.6743155E0,1.0432397E1,7.1665883E0,-6.5215915E-2,-8.9201E-2,-3.53654E-2,-7.092594E-2,-5.6469098E-2,-3.0619524E-2,-3.38415E-2,-4.9825095E-2,-1.5142307E-2,-3.0173098E-3,-1.6162293E-2,-3.3088025E-2,2.8727148E-2,1.2858622E-2,1.5159982E-2,-1.0578707E-4,4.6665587E-2,2.5158783E-2,4.9279965E-2,3.3887733E-2,6.372693E-2,8.475407E-2,4.3016285E-2,6.333615E-2,5.269752E-2,1.0567783E-1,4.472546E-2,7.7461734E-2],"categories":[],"categories_nodes":[],"categories_segments":[],"categories_sizes":[],"default_left":[0,0,0,0,0,0,0,0,0,0,0,0,0,0,0,0,0,0,0,0,0,0,0,0,0,0,0,0,0,0,0,0,0,0,0,0,0,0,0,0,0,0,0,0,0,0,0,0,0,0,0,0,0,0,0,0,0],"id":21,"left_children":[1,3,5,7,9,11,13,-1,15,17,19,21,23,25,27,29,31,33,35,37,39,41,43,45,47,49,51,53,55,-1,-1,-1,-1,-1,-1,-1,-1,-1,-1,-1,-1,-1,-1,-1,-1,-1,-1,-1,-1,-1,-1,-1,-1,-1,-1,-1,-1],"loss_changes":[6.449613E4,9.836859E3,8.23367E3,1.1116094E3,1.474956E3,1.0798267E3,1.2663203E3,0E0,1.5952148E2,2.100083E2,1.7608374E2,2.3386133E2,9.237842E1,2.8151758E2,1.358164E2,1.4804688E0,3.338965E1,4.290918E1,1.0908423E2,6.911171E1,8.0337585E1,1.4065515E2,1.00870674E2,4.7817078E1,3.923755E1,1.829834E2,1.2463867E2,5.176367E1,4.7302246E0,0E0,0E0,0E0,0E0,0E0,0E0,0E0,0E0,0E0,0E0,0E0,0E0,0E0,0E0,0E0,0E0,0E0,0E0,0E0,0E0,0E0,0E0,0E0,0E0,0E0,0E0,0E0,0E0],"parents":[2147483647,0,0,1,1,2,2,3,3,4,4,5,5,6,6,8,8,9,9,10,10,11,11,12,12,13,13,14,14,15,15,16,16,17,17,18,18,19,19,20,20,21,21,22,22,23,23,24,24,25,25,26,26,27,27,28,28],"right_children":[2,4,6,8,10,12,14,-1,16,18,20,22,24,26,28,30,32,34,36,38,40,42,44,46,48,50,52,54,56,-1,-1,-1,-1,-1,-1,-1,-1,-1,-1,-1,-1,-1,-1,-1,-1,-1,-1,-1,-1,-1,-1,-1,-1,-1,-1,-1,-1],"split_conditions":[9.9E0,2E0,1.65E1,-3.1E0,6.6E0,1.42E1,2.14E1,-1.19617485E-1,6E-1,3.8E0,4.6801534E-1,-1.1905873E-1,1.0145E0,2E-2,5.6E-1,4.4890594E-1,-3.8E0,9.8E0,2.6E-1,8.6E0,2E-2,2.6E-1,-9.011687E-1,1E-2,-1.7011768E-1,1.85E1,1.37E1,1.0086E0,2.22E1,-6.5215915E-2,-8.9201E-2,-3.53654E-2,-7.092594E-2,-5.6469098E-2,-3.0619524E-2,-3.38415E-2,-4.9825095E-2,-1.5142307E-2,-3.0173098E-3,-1.6162293E-2,-3.3088025E-2,2.8727148E-2,1.2858622E-2,1.5159982E-2,-1.0578707E-4,4.6665587E-2,2.5158783E-2,4.9279965E-2,3.3887733E-2,6.372693E-2,8.475407E-2,4.3016285E-2,6.333615E-2,5.269752E-2,1.0567783E-1,4.472546E-2,7.7461734E-2],"split_indices":[8,8,8,8,8,8,8,0,8,8,12,12,4,6,6,12,9,7,6,8,6,6,11,6,12,8,9,4,8,0,0,0,0,0,0,0,0,0,0,0,0,0,0,0,0,0,0,0,0,0,0,0,0,0,0,0,0],"split_type":[0,0,0,0,0,0,0,0,0,0,0,0,0,0,0,0,0,0,0,0,0,0,0,0,0,0,0,0,0,0,0,0,0,0,0,0,0,0,0,0,0,0,0,0,0,0,0,0,0,0,0,0,0,0,0,0,0],"sum_hessian":[2.321E3,1.111E3,1.21E3,4.21E2,6.9E2,6.45E2,5.65E2,1.21E2,3E2,3.79E2,3.11E2,4.1E2,2.35E2,3.85E2,1.8E2,2.09E2,9.1E1,1.49E2,2.3E2,1.91E2,1.2E2,2.37E2,1.73E2,6.3E1,1.72E2,2.17E2,1.68E2,1.55E2,2.5E1,1.4E1,1.95E2,6E0,8.5E1,1.38E2,1.1E1,1.61E2,6.9E1,1.05E2,8.6E1,5.7E1,6.3E1,1.39E2,9.8E1,7.9E1,9.4E1,1.6E1,4.7E1,1.41E2,3.1E1,1.01E2,1.16E2,5.7E1,1.11E2,5E0,1.5E2,6E0,1.9E1],"tree_param":{"num_deleted":"0","num_feature":"29","num_nodes":"57","size_leaf_vector":"1"}},{"base_weights":[5.8177453E-2,-5.361299E0,5.018637E0,-9.14338E0,-3.2099068E0,2.4169757E0,7.45058E0,-1.11779375E1,-8.005401E0,-4.403948E0,-1.5399646E0,1.6563473E0,4.1355352E0,5.8797407E0,9.073576E0,-1.1425899E1,-4.749279E-2,-8.695473E0,-7.002666E0,-5.458434E0,-3.744807E0,-1.0477021E0,-2.5638115E0,2.5801203E0,9.908408E-1,3.2130058E0,4.592178E0,5.04577E0,6.68175E0,8.01772E0,1.0259068E1,-1.253449E-1,-1.04123734E-1,-4.2479232E-2,-8.818005E-2,-4.7175746E-2,-7.228701E-2,-3.5075117E-2,-5.65423E-2,-3.32891E-2,-4.5654867E-2,-1.6576562E-2,-3.6303408E-3,-2.0594822E-2,-3.2767482E-2,3.1438176E-2,1.3322529E-2,1.3323739E-2,-6.025176E-3,3.839485E-2,2.3426685E-2,3.472227E-2,4.9849562E-2,6.202392E-2,4.4255562E-2,6.91072E-2,4.329842E-2,8.4589124E-2,4.8833426E-2,8.83388E-2,1.0921027E-1],"categories":[],"categories_nodes":[],"categories_segments":[],"categories_sizes":[],"default_left":[0,0,0,0,0,0,0,0,0,0,0,0,0,0,0,0,0,0,0,0,0,0,0,0,0,0,0,0,0,0,0,0,0,0,0,0,0,0,0,0,0,0,0,0,0,0,0,0,0,0,0,0,0,0,0,0,0,0,0,0,0],"id":22,"left_children":[1,3,5,7,9,11,13,15,17,19,21,23,25,27,29,31,-1,33,35,37,39,41,43,45,47,49,51,53,55,57,59,-1,-1,-1,-1,-1,-1,-1,-1,-1,-1,-1,-1,-1,-1,-1,-1,-1,-1,-1,-1,-1,-1,-1,-1,-1,-1,-1,-1,-1,-1],"loss_changes":[6.2610723E4,9.025605E3,7.674748E3,8.4165625E2,1.4103428E3,7.625034E2,1.5462227E3,1.704707E2,1.18833984E2,2.663916E2,1.4714514E2,2.4914502E2,6.029297E1,1.804834E2,3.001914E2,2E1,0E0,4.3526367E1,2.2552734E1,3.9223633E1,7.2072754E1,8.397221E1,2.723523E1,1.156488E2,1.314801E2,2.4737732E1,3.3752686E1,8.769922E1,5.5654785E1,1.8829688E2,3.4570312E1,0E0,0E0,0E0,0E0,0E0,0E0,0E0,0E0,0E0,0E0,0E0,0E0,0E0,0E0,0E0,0E0,0E0,0E0,0E0,0E0,0E0,0E0,0E0,0E0,0E0,0E0,0E0,0E0,0E0,0E0],"parents":[2147483647,0,0,1,1,2,2,3,3,4,4,5,5,6,6,7,7,8,8,9,9,10,10,11,11,12,12,13,13,14,14,15,15,17,17,18,18,19,19,20,20,21,21,22,22,23,23,24,24,25,25,26,26,27,27,28,28,29,29,30,30],"right_children":[2,4,6,8,10,12,14,16,18,20,22,24,26,28,30,32,-1,34,36,38,40,42,44,46,48,50,52,54,56,58,60,-1,-1,-1,-1,-1,-1,-1,-1,-1,-1,-1,-1,-1,-1,-1,-1,-1,-1,-1,-1,-1,-1,-1,-1,-1,-1,-1,-1,-1,-1],"split_conditions":[9.9E0,1.8E0,1.59E1,-2.4E0,6.7E0,1.42E1,1.96E1,1.38E1,3E-1,3.8E0,5.422022E-1,-3.1596187E-1,3.2E1,1.016E0,2.2E1,-4.5E0,-4.749279E-2,-7.4E0,5.1E0,1.0837701E-1,2.8E-1,8.6E0,1.2E-1,4.5E-1,4.527447E-1,9.9E0,1.0144E0,-8.578495E-1,-2.3746832E-1,3.9E-1,1.0143E0,-1.253449E-1,-1.04123734E-1,-4.2479232E-2,-8.818005E-2,-4.7175746E-2,-7.228701E-2,-3.5075117E-2,-5.65423E-2,-3.32891E-2,-4.5654867E-2,-1.6576562E-2,-3.6303408E-3,-2.0594822E-2,-3.2767482E-2,3.1438176E-2,1.3322529E-2,1.3323739E-2,-6.025176E-3,3.839485E-2,2.3426685E-2,3.472227E-2,4.9849562E-2,6.202392E-2,4.4255562E-2,6.91072E-2,4.329842E-2,8.4589124E-2,4.8833426E-2,8.83388E-2,1.0921027E-1],"split_indices":[8,8,8,8,8,8,8,2,8,8,12,12,22,4,8,8,0,9,2,12,6,8,6,6,12,2,4,12,12,6,4,0,0,0,0,0,0,0,0,0,0,0,0,0,0,0,0,0,0,0,0,0,0,0,0,0,0,0,0,0,0],"split_type":[0,0,0,0,0,0,0,0,0,0,0,0,0,0,0,0,0,0,0,0,0,0,0,0,0,0,0,0,0,0,0,0,0,0,0,0,0,0,0,0,0,0,0,0,0,0,0,0,0,0,0,0,0,0,0,0,0,0,0,0,0],"sum_hessian":[2.327E3,1.112E3,1.215E3,4.02E2,7.1E2,5.88E2,6.27E2,1.41E2,2.61E2,4.13E2,2.97E2,4.09E2,1.79E2,3.21E2,3.06E2,1.35E2,6E0,1.5E2,1.11E2,1.56E2,2.57E2,2.02E2,9.5E1,1.7E2,2.39E2,6.2E1,1.17E2,1.61E2,1.6E2,1.66E2,1.4E2,5.9E1,7.6E1,5E0,1.45E2,1.2E1,9.9E1,1.6E1,1.4E2,1.74E2,8.3E1,1.06E2,9.6E1,5.8E1,3.7E1,1.16E2,5.4E1,1.97E2,4.2E1,3.4E1,2.8E1,3.3E1,8.4E1,5.3E1,1.08E2,1.44E2,1.6E1,1.44E2,2.2E1,4.9E1,9.1E1],"tree_param":{"num_deleted":"0","num_feature":"29","num_nodes":"61","size_leaf_vector":"1"}},{"base_weights":[3.5499796E-2,-5.3446913E0,4.972875E0,-9.093593E0,-3.0929453E0,2.6610527E0,7.6327114E0,-1.130266E1,-7.883714E0,-4.3859143E0,-1.5233232E0,1.5379343E0,4.0982604E0,6.409097E0,9.564124E0,-1.3678195E-1,-1.0653346E-1,-8.7567784E-2,-6.9464703E0,-5.4675007E0,-3.6517932E0,-2.324794E0,-9.328829E-1,1.798098E0,-6.573719E-1,4.316755E0,2.3926656E0,6.8688674E0,4.556429E0,9.961636E0,7.2639523E0,-7.279543E-2,-5.8378246E-2,-6.0104262E-2,-4.4897318E-2,-4.049005E-2,-2.6870426E-2,-2.6853053E-2,-9.110174E-3,-4.9936348E-3,-1.8114166E-2,9.015207E-3,2.1639127E-2,-1.2676009E-2,1.5333034E-3,4.9188662E-2,3.5688218E-2,3.240223E-2,1.4066267E-2,7.397287E-2,5.610449E-2,3.3873416E-2,5.9453424E-2,9.438882E-2,1.19145356E-1,3.8579974E-2,7.6856226E-2],"categories":[],"categories_nodes":[],"categories_segments":[],"categories_sizes":[],"default_left":[0,0,0,0,0,0,0,0,0,0,0,0,0,0,0,0,0,0,0,0,0,0,0,0,0,0,0,0,0,0,0,0,0,0,0,0,0,0,0,0,0,0,0,0,0,0,0,0,0,0,0,0,0,0,0,0,0],"id":23,"left_children":[1,3,5,7,9,11,13,15,17,19,21,23,25,27,29,-1,-1,-1,31,33,35,37,39,41,43,45,47,49,51,53,55,-1,-1,-1,-1,-1,-1,-1,-1,-1,-1,-1,-1,-1,-1,-1,-1,-1,-1,-1,-1,-1,-1,-1,-1,-1,-1],"loss_changes":[6.250513E4,9.475867E3,7.5235703E3,1.0368594E3,1.4235073E3,1.0552471E3,1.2841914E3,7.85918E1,1.6344336E2,2.8561182E2,1.4893604E2,2.131886E2,9.632715E1,2.673955E2,1.2616016E2,0E0,0E0,0E0,7.148926E0,5.3717285E1,7.7734375E1,6.600116E1,6.9704605E1,1.06632324E2,2.009435E1,9.59834E1,2.4227905E1,1.4339062E2,9.74624E1,7.324805E1,2.0897095E1,0E0,0E0,0E0,0E0,0E0,0E0,0E0,0E0,0E0,0E0,0E0,0E0,0E0,0E0,0E0,0E0,0E0,0E0,0E0,0E0,0E0,0E0,0E0,0E0,0E0,0E0],"parents":[2147483647,0,0,1,1,2,2,3,3,4,4,5,5,6,6,7,7,8,8,9,9,10,10,11,11,12,12,13,13,14,14,18,18,19,19,20,20,21,21,22,22,23,23,24,24,25,25,26,26,27,27,28,28,29,29,30,30],"right_children":[2,4,6,8,10,12,14,16,18,20,22,24,26,28,30,-1,-1,-1,32,34,36,38,40,42,44,46,48,50,52,54,56,-1,-1,-1,-1,-1,-1,-1,-1,-1,-1,-1,-1,-1,-1,-1,-1,-1,-1,-1,-1,-1,-1,-1,-1,-1,-1],"split_conditions":[1E1,2E0,1.65E1,-2.4E0,6.6E0,1.38E1,2.08E1,-3.6E0,2.5E0,3.8E0,8.1E0,4.527447E-1,2.2576263E-2,3.6E-1,4.3E-1,-1.3678195E-1,-1.0653346E-1,-8.7567784E-2,4.9E0,6E-1,9.3E-1,1.54E0,1.3E-1,1.15E1,8.6E0,4E-2,1E-2,-5.795791E-1,1.47E1,3.15E1,1.52E1,-7.279543E-2,-5.8378246E-2,-6.0104262E-2,-4.4897318E-2,-4.049005E-2,-2.6870426E-2,-2.6853053E-2,-9.110174E-3,-4.9936348E-3,-1.8114166E-2,9.015207E-3,2.1639127E-2,-1.2676009E-2,1.5333034E-3,4.9188662E-2,3.5688218E-2,3.240223E-2,1.4066267E-2,7.397287E-2,5.610449E-2,3.3873416E-2,5.9453424E-2,9.438882E-2,1.19145356E-1,3.8579974E-2,7.6856226E-2],"split_indices":[8,8,8,8,8,8,8,10,10,8,8,12,12,6,6,0,0,0,10,5,5,5,6,8,9,6,6,12,9,10,9,0,0,0,0,0,0,0,0,0,0,0,0,0,0,0,0,0,0,0,0,0,0,0,0,0,0],"split_type":[0,0,0,0,0,0,0,0,0,0,0,0,0,0,0,0,0,0,0,0,0,0,0,0,0,0,0,0,0,0,0,0,0,0,0,0,0,0,0,0,0,0,0,0,0,0,0,0,0,0,0,0,0,0,0,0,0],"sum_hessian":[2.351E3,1.125E3,1.226E3,4.21E2,7.04E2,6.57E2,5.69E2,1.46E2,2.75E2,3.85E2,3.19E2,3.7E2,2.87E2,3.51E2,2.18E2,2.7E1,1.19E2,1.38E2,1.37E2,1.53E2,2.32E2,1.34E2,1.85E2,3.31E2,3.9E1,2.53E2,3.4E1,2.79E2,7.2E1,1.83E2,3.5E1,1.01E2,3.6E1,9.5E1,5.8E1,1.62E2,7E1,1.06E2,2.8E1,1.25E2,6E1,9.7E1,2.34E2,2.2E1,1.7E1,1.37E2,1.16E2,1.7E1,1.7E1,1.93E2,8.6E1,4.1E1,3.1E1,1.49E2,3.4E1,5E0,3E1],"tree_param":{"num_deleted":"0","num_feature":"29","num_nodes":"57","size_leaf_vector":"1"}},{"base_weights":[-1.00714386E-1,-5.270614E0,4.770423E0,-9.01966E0,-3.0831487E0,2.2919157E0,7.211959E0,-1.1342522E1,-7.6283717E0,-4.3085356E0,-1.4615095E0,1.0032811E0,3.32652E0,5.9849625E0,9.137289E0,-1.22822374E-1,-1.0113364E1,-8.220705E0,-6.535013E0,-5.332772E0,-3.7287703E0,-8.392628E-1,-2.5269861E0,1.6818476E0,2.7968958E-1,3.9172342E0,2.3675296E0,6.757653E0,4.9725723E0,9.912486E0,7.80295E0,-1.0392684E-1,-6.5672226E-2,-3.494884E-2,-8.345141E-2,-4.847573E-2,-6.9090545E-2,-5.9060454E-2,-4.2351507E-2,-3.2574784E-2,-4.5921553E-2,-1.5290937E-2,-1.7428222E-3,-2.2703031E-2,-5.2297324E-2,2.210185E-2,9.223848E-3,1.4083151E-2,-5.141476E-3,4.516289E-2,2.9057069E-2,3.695216E-2,1.4388643E-2,5.950291E-2,7.701092E-2,6.281401E-2,3.9547767E-2,5.3272247E-2,1.0039291E-1,6.503554E-2,8.625517E-2],"categories":[],"categories_nodes":[],"categories_segments":[],"categories_sizes":[],"default_left":[0,0,0,0,0,0,0,0,0,0,0,0,0,0,0,0,0,0,0,0,0,0,0,0,0,0,0,0,0,0,0,0,0,0,0,0,0,0,0,0,0,0,0,0,0,0,0,0,0,0,0,0,0,0,0,0,0,0,0,0,0],"id":24,"left_children":[1,3,5,7,9,11,13,15,17,19,21,23,25,27,29,-1,31,33,35,37,39,41,43,45,47,49,51,53,55,57,59,-1,-1,-1,-1,-1,-1,-1,-1,-1,-1,-1,-1,-1,-1,-1,-1,-1,-1,-1,-1,-1,-1,-1,-1,-1,-1,-1,-1,-1,-1],"loss_changes":[5.8400066E4,9.197002E3,7.2078477E3,1.2495312E3,1.4079668E3,7.8816626E2,1.3635879E3,5.026953E1,1.144834E2,2.1970508E2,2.0174323E2,1.2994077E2,1.7647241E2,2.5466113E2,1.6085742E2,0E0,1.3696289E0,6.726953E1,2.6556152E1,6.458325E1,9.086572E1,8.9473114E1,6.577057E1,5.261972E1,1.1728633E2,1.0853906E2,1.5199066E2,1.1048242E2,1.9260303E2,2.812793E1,3.8586426E1,0E0,0E0,0E0,0E0,0E0,0E0,0E0,0E0,0E0,0E0,0E0,0E0,0E0,0E0,0E0,0E0,0E0,0E0,0E0,0E0,0E0,0E0,0E0,0E0,0E0,0E0,0E0,0E0,0E0,0E0],"parents":[2147483647,0,0,1,1,2,2,3,3,4,4,5,5,6,6,7,7,8,8,9,9,10,10,11,11,12,12,13,13,14,14,16,16,17,17,18,18,19,19,20,20,21,21,22,22,23,23,24,24,25,25,26,26,27,27,28,28,29,29,30,30],"right_children":[2,4,6,8,10,12,14,16,18,20,22,24,26,28,30,-1,32,34,36,38,40,42,44,46,48,50,52,54,56,58,60,-1,-1,-1,-1,-1,-1,-1,-1,-1,-1,-1,-1,-1,-1,-1,-1,-1,-1,-1,-1,-1,-1,-1,-1,-1,-1,-1,-1,-1,-1],"split_conditions":[1E1,2E0,1.59E1,-2.4E0,6.7E0,1.27E1,2.04E1,-4.5E0,6E-1,3.8E0,4.6801534E-1,-9.768277E-2,-3.2003924E-1,2E-2,2E-2,-1.22822374E-1,1.01E1,-7.4E0,6.2E0,5.9E-1,8.041872E-1,8.6E0,7.2E0,2.7E-1,-8.945422E-1,1.6E-1,7.5E0,1.81E1,-8.578495E-1,1.009E0,2.2E1,-1.0392684E-1,-6.5672226E-2,-3.494884E-2,-8.345141E-2,-4.847573E-2,-6.9090545E-2,-5.9060454E-2,-4.2351507E-2,-3.2574784E-2,-4.5921553E-2,-1.5290937E-2,-1.7428222E-3,-2.2703031E-2,-5.2297324E-2,2.210185E-2,9.223848E-3,1.4083151E-2,-5.141476E-3,4.516289E-2,2.9057069E-2,3.695216E-2,1.4388643E-2,5.950291E-2,7.701092E-2,6.281401E-2,3.9547767E-2,5.3272247E-2,1.0039291E-1,6.503554E-2,8.625517E-2],"split_indices":[8,8,8,8,8,8,8,8,8,8,12,12,12,6,6,0,2,9,2,5,12,8,1,6,11,6,2,8,12,4,8,0,0,0,0,0,0,0,0,0,0,0,0,0,0,0,0,0,0,0,0,0,0,0,0,0,0,0,0,0,0],"split_type":[0,0,0,0,0,0,0,0,0,0,0,0,0,0,0,0,0,0,0,0,0,0,0,0,0,0,0,0,0,0,0,0,0,0,0,0,0,0,0,0,0,0,0,0,0,0,0,0,0,0,0,0,0,0,0,0,0,0,0,0,0],"sum_hessian":[2.317E3,1.124E3,1.193E3,4.13E2,7.11E2,5.93E2,6E2,1.52E2,2.61E2,4.04E2,3.07E2,2.65E2,3.28E2,3.69E2,2.31E2,8.1E1,7.1E1,1.65E2,9.6E1,1.43E2,2.61E2,1.95E2,1.12E2,1.36E2,1.29E2,2.01E2,1.27E2,2.06E2,1.63E2,1.42E2,8.9E1,6.4E1,7E0,5E0,1.6E2,2E1,7.6E1,9.1E1,5.2E1,1.72E2,8.9E1,9.5E1,1E2,1.04E2,8E0,7.9E1,5.7E1,5.3E1,7.6E1,1.24E2,7.7E1,5.1E1,7.6E1,1.15E2,9.1E1,6.9E1,9.4E1,5E0,1.37E2,3.8E1,5.1E1],"tree_param":{"num_deleted":"0","num_feature":"29","num_nodes":"61","size_leaf_vector":"1"}},{"base_weights":[-5.969561E-2,-5.26556E0,4.8836913E0,-8.522586E0,-2.8479342E0,2.6044152E0,7.472295E0,-1.1140384E1,-7.308503E0,-4.1470356E0,-1.4161718E0,1.6251711E0,4.2280107E0,6.4686112E0,9.605574E0,-1.2344133E-1,-1.0084159E-1,-8.312794E0,-6.158392E0,-5.1041584E0,-3.6158013E0,-8.78674E-1,-2.2859292E0,2.417139E0,9.2421204E-1,3.544188E0,4.8085704E0,7.2339544E0,5.3321605E0,1.0029183E1,6.723206E0,-8.526129E-2,-5.949092E-2,-5.702545E-2,-6.8481185E-2,-6.132668E-2,-4.74243E-2,-3.0740904E-2,-4.6432033E-2,-1.480993E-2,-3.248599E-3,-2.0603307E-2,-4.828275E-2,2.899285E-2,1.4731507E-2,1.658048E-2,1.7409788E-3,4.0742345E-2,2.9513108E-2,5.1231287E-2,3.373643E-2,5.850713E-2,7.9227895E-2,4.0471517E-2,6.082043E-2,9.4319806E-2,1.19300805E-1,7.182037E-2,3.980097E-2],"categories":[],"categories_nodes":[],"categories_segments":[],"categories_sizes":[],"default_left":[0,0,0,0,0,0,0,0,0,0,0,0,0,0,0,0,0,0,0,0,0,0,0,0,0,0,0,0,0,0,0,0,0,0,0,0,0,0,0,0,0,0,0,0,0,0,0,0,0,0,0,0,0,0,0,0,0,0,0],"id":25,"left_children":[1,3,5,7,9,11,13,15,17,19,21,23,25,27,29,-1,-1,31,33,35,37,39,41,43,45,47,49,51,53,55,57,-1,-1,-1,-1,-1,-1,-1,-1,-1,-1,-1,-1,-1,-1,-1,-1,-1,-1,-1,-1,-1,-1,-1,-1,-1,-1,-1,-1],"loss_changes":[6.070795E4,9.022127E3,7.118705E3,1.4708867E3,1.2230337E3,1.01802637E3,1.1481426E3,6.780664E1,3.3660938E2,1.5659863E2,1.4540277E2,2.2170728E2,7.819629E1,2.9764355E2,1.4945508E2,0E0,0E0,3.708496E1,1.0313477E1,1.4845703E1,1.10736084E2,6.505211E1,5.818927E1,8.131311E1,1.1842764E2,2.341211E1,3.964209E1,1.7046484E2,1.2854883E2,6.0164062E1,3.022705E0,0E0,0E0,0E0,0E0,0E0,0E0,0E0,0E0,0E0,0E0,0E0,0E0,0E0,0E0,0E0,0E0,0E0,0E0,0E0,0E0,0E0,0E0,0E0,0E0,0E0,0E0,0E0,0E0],"parents":[2147483647,0,0,1,1,2,2,3,3,4,4,5,5,6,6,7,7,8,8,9,9,10,10,11,11,12,12,13,13,14,14,17,17,18,18,19,19,20,20,21,21,22,22,23,23,24,24,25,25,26,26,27,27,28,28,29,29,30,30],"right_children":[2,4,6,8,10,12,14,16,18,20,22,24,26,28,30,-1,-1,32,34,36,38,40,42,44,46,48,50,52,54,56,58,-1,-1,-1,-1,-1,-1,-1,-1,-1,-1,-1,-1,-1,-1,-1,-1,-1,-1,-1,-1,-1,-1,-1,-1,-1,-1,-1,-1],"split_conditions":[1E1,5.5E0,1.65E1,-2.4E0,6.7E0,1.41E1,2.16E1,-4.5E0,6E-1,4.1E0,4.6801534E-1,-2.83139E-1,1.0173E0,2E-2,5.6E-1,-1.2344133E-1,-1.0084159E-1,4.2E0,8.9406115E-1,1.0115E0,8.041872E-1,8.6E0,7.3E0,4.2E-1,-9.011687E-1,1.7E-1,-1.7011768E-1,1.8E1,1.38E1,3.15E1,-7.3430425E-1,-8.526129E-2,-5.949092E-2,-5.702545E-2,-6.8481185E-2,-6.132668E-2,-4.74243E-2,-3.0740904E-2,-4.6432033E-2,-1.480993E-2,-3.248599E-3,-2.0603307E-2,-4.828275E-2,2.899285E-2,1.4731507E-2,1.658048E-2,1.7409788E-3,4.0742345E-2,2.9513108E-2,5.1231287E-2,3.373643E-2,5.850713E-2,7.9227895E-2,4.0471517E-2,6.082043E-2,9.4319806E-2,1.19300805E-1,7.182037E-2,3.980097E-2],"split_indices":[8,10,8,8,8,8,8,8,8,8,12,12,4,6,6,0,0,10,12,4,12,8,1,6,11,6,12,8,9,10,12,0,0,0,0,0,0,0,0,0,0,0,0,0,0,0,0,0,0,0,0,0,0,0,0,0,0,0,0],"split_type":[0,0,0,0,0,0,0,0,0,0,0,0,0,0,0,0,0,0,0,0,0,0,0,0,0,0,0,0,0,0,0,0,0,0,0,0,0,0,0,0,0,0,0,0,0,0,0,0,0,0,0,0,0,0,0,0,0,0,0],"sum_hessian":[2.357E3,1.148E3,1.209E3,4.88E2,6.6E2,6.44E2,5.65E2,1.52E2,3.36E2,3.45E2,3.15E2,4.03E2,2.41E2,3.87E2,1.78E2,6.6E1,8.6E1,1.76E2,1.6E2,1.2E2,2.25E2,1.96E2,1.19E2,1.88E2,2.15E2,1.14E2,1.27E2,2.28E2,1.59E2,1.53E2,2.5E1,1.59E2,1.7E1,1.02E2,5.8E1,2.7E1,9.3E1,1.5E2,7.5E1,9.3E1,1.03E2,1.11E2,8E0,1.23E2,6.5E1,1.08E2,1.07E2,5.7E1,5.7E1,1.02E2,2.5E1,7.9E1,1.49E2,6.1E1,9.8E1,1.21E2,3.2E1,2E1,5E0],"tree_param":{"num_deleted":"0","num_feature":"29","num_nodes":"59","size_leaf_vector":"1"}},{"base_weights":[1.2494803E-2,-4.9094834E0,5.0368237E0,-8.397983E0,-2.5269876E0,2.7246416E0,7.3885326E0,-1.0645283E1,-7.167864E0,-3.9443672E0,-1.1997385E0,1.7764541E0,4.1348515E0,6.227896E0,9.30059E0,-1.0788051E1,-4.999681E-2,-8.122715E0,-6.160303E0,-4.320109E0,-3.0528345E0,-5.9713787E-1,-1.9143037E0,9.8695487E-1,2.3140092E0,3.1736536E0,4.4851723E0,7.0723586E0,5.0440288E0,1.015598E1,7.5785174E0,-1.2117887E-1,-9.794913E-2,-8.5914545E-2,-7.242543E-2,-5.2430138E-2,-6.451383E-2,-5.3689223E-2,-4.0087666E-2,-2.3475574E-2,-4.1200884E-2,1.4483231E-3,-1.2910598E-2,-1.3689685E-2,-3.7125647E-2,1.2825792E-2,-5.4044067E-3,1.5505659E-3,2.4804818E-2,3.5528943E-2,1.16266245E-2,3.6993433E-2,4.7567677E-2,6.0989857E-2,7.976767E-2,2.315588E-2,5.4128703E-2,7.327913E-2,1.0411259E-1,8.721561E-2,6.830564E-2],"categories":[],"categories_nodes":[],"categories_segments":[],"categories_sizes":[],"default_left":[0,0,0,0,0,0,0,0,0,0,0,0,0,0,0,0,0,0,0,0,0,0,0,0,0,0,0,0,0,0,0,0,0,0,0,0,0,0,0,0,0,0,0,0,0,0,0,0,0,0,0,0,0,0,0,0,0,0,0,0,0],"id":26,"left_children":[1,3,5,7,9,11,13,15,17,19,21,23,25,27,29,31,-1,33,35,37,39,41,43,45,47,49,51,53,55,57,59,-1,-1,-1,-1,-1,-1,-1,-1,-1,-1,-1,-1,-1,-1,-1,-1,-1,-1,-1,-1,-1,-1,-1,-1,-1,-1,-1,-1,-1,-1],"loss_changes":[5.771899E4,9.776748E3,6.25926E3,1.2433203E3,1.3153667E3,7.729551E2,1.2099062E3,7.908789E1,2.487002E2,9.9634766E1,1.553432E2,1.4635022E2,6.3793945E1,3.2201758E2,2.3649023E2,9.307031E1,0E0,9.667969E-1,6.658203E0,5.460254E1,6.796289E1,1.02760635E2,1.5719818E2,6.578844E1,7.41084E1,4.5732544E1,1.7626953E1,1.3216992E2,1.4066724E2,2.300586E1,2.9921875E0,0E0,0E0,0E0,0E0,0E0,0E0,0E0,0E0,0E0,0E0,0E0,0E0,0E0,0E0,0E0,0E0,0E0,0E0,0E0,0E0,0E0,0E0,0E0,0E0,0E0,0E0,0E0,0E0,0E0,0E0],"parents":[2147483647,0,0,1,1,2,2,3,3,4,4,5,5,6,6,7,7,8,8,9,9,10,10,11,11,12,12,13,13,14,14,15,15,17,17,18,18,19,19,20,20,21,21,22,22,23,23,24,24,25,25,26,26,27,27,28,28,29,29,30,30],"right_children":[2,4,6,8,10,12,14,16,18,20,22,24,26,28,30,32,-1,34,36,38,40,42,44,46,48,50,52,54,56,58,60,-1,-1,-1,-1,-1,-1,-1,-1,-1,-1,-1,-1,-1,-1,-1,-1,-1,-1,-1,-1,-1,-1,-1,-1,-1,-1,-1,-1,-1,-1],"split_conditions":[1.06E1,5.5E0,1.65E1,-2E0,6.7E0,1.42E1,2.08E1,7.3E-1,3.1E0,9.3E-1,5E-2,1.21E1,1.0145E0,2E-2,1.09E1,-4.5E0,-4.999681E-2,2E-1,-4.3637297E-1,1.0086E0,8E0,5E-1,4.7E0,1.45E1,1.0071E0,6.123234E-17,1.93E1,1.85E1,1.0083E0,-7.931897E-1,2E-2,-1.2117887E-1,-9.794913E-2,-8.5914545E-2,-7.242543E-2,-5.2430138E-2,-6.451383E-2,-5.3689223E-2,-4.0087666E-2,-2.3475574E-2,-4.1200884E-2,1.4483231E-3,-1.2910598E-2,-1.3689685E-2,-3.7125647E-2,1.2825792E-2,-5.4044067E-3,1.5505659E-3,2.4804818E-2,3.5528943E-2,1.16266245E-2,3.6993433E-2,4.7567677E-2,6.0989857E-2,7.976767E-2,2.315588E-2,5.4128703E-2,7.327913E-2,1.0411259E-1,8.721561E-2,6.830564E-2],"split_indices":[8,10,8,8,8,8,8,6,10,5,6,8,4,6,2,8,0,8,11,4,19,14,1,2,4,14,10,8,4,11,6,0,0,0,0,0,0,0,0,0,0,0,0,0,0,0,0,0,0,0,0,0,0,0,0,0,0,0,0,0,0],"split_type":[0,0,0,0,0,0,0,0,0,0,0,0,0,0,0,0,0,0,0,0,0,0,0,0,0,0,0,0,0,0,0,0,0,0,0,0,0,0,0,0,0,0,0,0,0,0,0,0,0,0,0,0,0,0,0,0,0,0,0,0,0],"sum_hessian":[2.332E3,1.178E3,1.154E3,4.77E2,7.01E2,5.83E2,5.71E2,1.66E2,3.11E2,3.38E2,3.63E2,3.5E2,2.33E2,3.58E2,2.13E2,1.61E2,5E0,1.56E2,1.55E2,2.35E2,1.03E2,1.98E2,1.65E2,1.43E2,2.07E2,6.5E1,1.68E2,2.06E2,1.52E2,1.39E2,7.4E1,6.4E1,9.7E1,9.6E1,6E1,4.2E1,1.13E2,5E1,1.85E2,6.4E1,3.9E1,9.6E1,1.02E2,1.28E2,3.7E1,1.2E2,2.3E1,1.5E1,1.92E2,5.4E1,1.1E1,4.7E1,1.21E2,1.03E2,1.03E2,1.9E1,1.33E2,1.4E1,1.25E2,2.5E1,4.9E1],"tree_param":{"num_deleted":"0","num_feature":"29","num_nodes":"61","size_leaf_vector":"1"}},{"base_weights":[-4.1039903E-2,-5.1444297E0,4.775024E0,-8.6599245E0,-3.0029893E0,2.5474908E0,7.3737254E0,-1.0395273E1,-7.2482586E0,-4.2977057E0,-1.4022627E0,1.4807895E0,3.9155562E0,6.137028E0,8.934583E0,-1.2905587E-1,-9.920886E0,-7.919615E0,-6.2547474E0,-5.186615E0,-3.681342E0,-2.0214057E0,-6.1557466E-1,6.504798E-1,2.0551043E0,4.407185E0,3.2217636E0,6.8807163E0,5.1628685E0,9.80643E0,7.247382E0,-1.00636095E-1,-6.692306E-2,-8.0684744E-2,-5.4313004E-2,-5.8468197E-2,-8.224271E-2,-5.2710395E-2,-2.5981639E-2,-4.050461E-2,-3.0936882E-2,-1.7916504E-2,-4.086049E-2,-3.292034E-3,-3.0115714E-2,-1.2816557E-3,1.1749363E-2,1.808477E-2,3.372406E-2,4.7198776E-2,2.9667063E-2,2.165601E-2,3.788501E-2,5.814299E-2,7.472177E-2,5.597265E-2,2.271625E-2,8.931254E-2,1.08603045E-1,6.037534E-2,8.1025176E-2],"categories":[],"categories_nodes":[],"categories_segments":[],"categories_sizes":[],"default_left":[0,0,0,0,0,0,0,0,0,0,0,0,0,0,0,0,0,0,0,0,0,0,0,0,0,0,0,0,0,0,0,0,0,0,0,0,0,0,0,0,0,0,0,0,0,0,0,0,0,0,0,0,0,0,0,0,0,0,0,0,0],"id":27,"left_children":[1,3,5,7,9,11,13,15,17,19,21,23,25,27,29,-1,31,33,35,37,39,41,43,45,47,49,51,53,55,57,59,-1,-1,-1,-1,-1,-1,-1,-1,-1,-1,-1,-1,-1,-1,-1,-1,-1,-1,-1,-1,-1,-1,-1,-1,-1,-1,-1,-1,-1,-1],"loss_changes":[5.7709758E4,8.555004E3,6.972965E3,9.7872656E2,1.4648687E3,9.451372E2,1.0188418E3,9.713867E1,1.09793945E2,1.9479248E2,1.5386804E2,1.7387677E2,8.2248535E1,1.9075488E2,2.8614258E2,0E0,7.0078125E0,6.685547E0,3.2456543E1,2.0045898E1,3.7729492E1,7.6528015E1,9.610704E1,6.2326836E1,6.3882507E1,5.9098877E1,6.4225464E1,6.5606445E1,1.6233057E2,4.675293E1,3.967578E1,0E0,0E0,0E0,0E0,0E0,0E0,0E0,0E0,0E0,0E0,0E0,0E0,0E0,0E0,0E0,0E0,0E0,0E0,0E0,0E0,0E0,0E0,0E0,0E0,0E0,0E0,0E0,0E0,0E0,0E0],"parents":[2147483647,0,0,1,1,2,2,3,3,4,4,5,5,6,6,7,7,8,8,9,9,10,10,11,11,12,12,13,13,14,14,16,16,17,17,18,18,19,19,20,20,21,21,22,22,23,23,24,24,25,25,26,26,27,27,28,28,29,29,30,30],"right_children":[2,4,6,8,10,12,14,16,18,20,22,24,26,28,30,-1,32,34,36,38,40,42,44,46,48,50,52,54,56,58,60,-1,-1,-1,-1,-1,-1,-1,-1,-1,-1,-1,-1,-1,-1,-1,-1,-1,-1,-1,-1,-1,-1,-1,-1,-1,-1,-1,-1,-1,-1],"split_conditions":[1E1,2E0,1.65E1,-1.6E0,6.7E0,1.38E1,2.04E1,-3.6E0,3.1E0,7.1E0,8.6E0,1.17E1,9.7E0,1E-2,2E-2,-1.2905587E-1,1.38E1,7.3E-1,1.53E1,3.2E0,9.3E-1,5.5E0,6.3E0,9.7E-1,1.09E1,2.8E-1,1.07E1,1.79E1,5.7518995E-1,2.28E1,1.68E1,-1.00636095E-1,-6.692306E-2,-8.0684744E-2,-5.4313004E-2,-5.8468197E-2,-8.224271E-2,-5.2710395E-2,-2.5981639E-2,-4.050461E-2,-3.0936882E-2,-1.7916504E-2,-4.086049E-2,-3.292034E-3,-3.0115714E-2,-1.2816557E-3,1.1749363E-2,1.808477E-2,3.372406E-2,4.7198776E-2,2.9667063E-2,2.165601E-2,3.788501E-2,5.814299E-2,7.472177E-2,5.597265E-2,2.271625E-2,8.931254E-2,1.08603045E-1,6.037534E-2,8.1025176E-2],"split_indices":[8,8,8,8,8,8,8,10,10,10,8,8,2,6,6,0,2,5,2,9,5,1,1,5,7,6,9,8,11,8,9,0,0,0,0,0,0,0,0,0,0,0,0,0,0,0,0,0,0,0,0,0,0,0,0,0,0,0,0,0,0],"split_type":[0,0,0,0,0,0,0,0,0,0,0,0,0,0,0,0,0,0,0,0,0,0,0,0,0,0,0,0,0,0,0,0,0,0,0,0,0,0,0,0,0,0,0,0,0,0,0,0,0,0,0,0,0,0,0,0,0,0,0,0,0],"sum_hessian":[2.346E3,1.139E3,1.207E3,4.3E2,7.09E2,6.51E2,5.56E2,1.9E2,2.4E2,3.91E2,3.18E2,3.67E2,2.84E2,3.13E2,2.43E2,2.6E1,1.64E2,1.39E2,1.01E2,1.57E2,2.34E2,1.77E2,1.41E2,1.51E2,2.16E2,1.63E2,1.21E2,1.74E2,1.39E2,1.57E2,8.6E1,1.55E2,9E0,1.29E2,1E1,8.7E1,1.4E1,1.51E2,