{"learner":{"attributes":{"scikit_learn":"{\"_estimator_type\": \"regressor\"}"},"feature_names":["cloud_cover","wind_speed","wind_gust","humidity","pressure","global_radiation","precipitation","sunshine","temp_mean","temp_min","temp_max","day_sin","day_cos","month_sin","month_cos","solar_term_index","day_in_term","solar_term_sin","solar_term_cos","stem_index","wuxing_index","polarity","wuxing_x_solar","polarity_x_solar","wuxing_pol_solar","wuxing_sin","wuxing_cos","stem_sin","stem_cos"],"feature_types":["int","float","float","float","float","float","float","float","float","float","float","float","float","float","float","int","int","float","float","int","int","int","int","int","int","float","float","float","float"],"gradient_booster":{"model":{"cats":{"enc":[],"feature_segments":[],"sorted_idx":[]},"gbtree_model_param":{"num_parallel_tree":"1","num_trees":"500"},"iteration_indptr":[0,1,2,3,4,5,6,7,8,9,10,11,12,13,14,15,16,17,18,19,20,21,22,23,24,25,26,27,28,29,30,31,32,33,34,35,36,37,38,39,40,41,42,43,44,45,46,47,48,49,50,51,52,53,54,55,56,57,58,59,60,61,62,63,64,65,66,67,68,69,70,71,72,73,74,75,76,77,78,79,80,81,82,83,84,85,86,87,88,89,90,91,92,93,94,95,96,97,98,99,100,101,102,103,104,105,106,107,108,109,110,111,112,113,114,115,116,117,118,119,120,121,122,123,124,125,126,127,128,129,130,131,132,133,134,135,136,137,138,139,140,141,142,143,144,145,146,147,148,149,150,151,152,153,154,155,156,157,158,159,160,161,162,163,164,165,166,167,168,169,170,171,172,173,174,175,176,177,178,179,180,181,182,183,184,185,186,187,188,189,190,191,192,193,194,195,196,197,198,199,200,201,202,203,204,205,206,207,208,209,210,211,212,213,214,215,216,217,218,219,220,221,222,223,224,225,226,227,228,229,230,231,232,233,234,235,236,237,238,239,240,241,242,243,244,245,246,247,248,249,250,251,252,253,254,255,256,257,258,259,260,261,262,263,264,265,266,267,268,269,270,271,272,273,274,275,276,277,278,279,280,281,282,283,284,285,286,287,288,289,290,291,292,293,294,295,296,297,298,299,300,301,302,303,304,305,306,307,308,309,310,311,312,313,314,315,316,317,318,319,320,321,322,323,324,325,326,327,328,329,330,331,332,333,334,335,336,337,338,339,340,341,342,343,344,345,346,347,348,349,350,351,352,353,354,355,356,357,358,359,360,361,362,363,364,365,366,367,368,369,370,371,372,373,374,375,376,377,378,379,380,381,382,383,384,385,386,387,388,389,390,391,392,393,394,395,396,397,398,399,400,401,402,403,404,405,406,407,408,409,410,411,412,413,414,415,416,417,418,419,420,421,422,423,424,425,426,427,428,429,430,431,432,433,434,435,436,437,438,439,440,441,442,443,444,445,446,447,448,449,450,451,452,453,454,455,456,457,458,459,460,461,462,463,464,465,466,467,468,469,470,471,472,473,474,475,476,477,478,479,480,481,482,483,484,485,486,487,488,489,490,491,492,493,494,495,496,497,498,499,500],"tree_info":[0,0,0,0,0,0,0,0,0,0,0,0,0,0,0,0,0,0,0,0,0,0,0,0,0,0,0,0,0,0,0,0,0,0,0,0,0,0,0,0,0,0,0,0,0,0,0,0,0,0,0,0,0,0,0,0,0,0,0,0,0,0,0,0,0,0,0,0,0,0,0,0,0,0,0,0,0,0,0,0,0,0,0,0,0,0,0,0,0,0,0,0,0,0,0,0,0,0,0,0,0,0,0,0,0,0,0,0,0,0,0,0,0,0,0,0,0,0,0,0,0,0,0,0,0,0,0,0,0,0,0,0,0,0,0,0,0,0,0,0,0,0,0,0,0,0,0,0,0,0,0,0,0,0,0,0,0,0,0,0,0,0,0,0,0,0,0,0,0,0,0,0,0,0,0,0,0,0,0,0,0,0,0,0,0,0,0,0,0,0,0,0,0,0,0,0,0,0,0,0,0,0,0,0,0,0,0,0,0,0,0,0,0,0,0,0,0,0,0,0,0,0,0,0,0,0,0,0,0,0,0,0,0,0,0,0,0,0,0,0,0,0,0,0,0,0,0,0,0,0,0,0,0,0,0,0,0,0,0,0,0,0,0,0,0,0,0,0,0,0,0,0,0,0,0,0,0,0,0,0,0,0,0,0,0,0,0,0,0,0,0,0,0,0,0,0,0,0,0,0,0,0,0,0,0,0,0,0,0,0,0,0,0,0,0,0,0,0,0,0,0,0,0,0,0,0,0,0,0,0,0,0,0,0,0,0,0,0,0,0,0,0,0,0,0,0,0,0,0,0,0,0,0,0,0,0,0,0,0,0,0,0,0,0,0,0,0,0,0,0,0,0,0,0,0,0,0,0,0,0,0,0,0,0,0,0,0,0,0,0,0,0,0,0,0,0,0,0,0,0,0,0,0,0,0,0,0,0,0,0,0,0,0,0,0,0,0,0,0,0,0,0,0,0,0,0,0,0,0,0,0,0,0,0,0,0,0,0,0,0,0,0,0,0,0,0,0,0,0,0,0,0,0,0,0,0,0,0,0,0,0,0,0,0,0,0,0,0,0,0,0,0,0,0,0,0,0,0,0,0,0,0,0,0,0,0,0,0,0,0,0,0,0,0,0,0,0,0,0,0],"trees":[{"base_weights":[-2.8690811E-2,-5.397375E0,5.258521E0,-9.100193E0,-2.9209988E0,2.74649E0,7.8914547E0,-1.1270955E1,-7.575676E0,-4.3525567E0,-1.5011269E0,1.536477E0,3.8413718E0,6.783385E0,1.06068125E1,-1.2523533E-1,-1.02544695E-1,-8.3588704E-2,-6.6453333E0,-5.2300444E0,-3.6799285E0,-2.447735E0,-7.2504604E-1,2.294865E0,9.09239E-1,2.7618937E0,4.173016E0,6.1508064E0,8.003246E0,1.19355716E-1,9.35102E0,-6.787617E-2,-2.5094401E-2,-4.428673E-2,-5.6638945E-2,-4.104889E-2,-2.9256528E-2,-2.6535342E-2,5.533378E-3,3.2174774E-4,-1.6002148E-2,2.119019E-2,3.7203122E-2,1.5970403E-2,1.3687079E-3,3.4450453E-2,1.9494962E-2,1.245486E-2,4.2673524E-2,5.6328807E-2,7.1632415E-2,6.61037E-2,8.5228086E-2,3.741504E-2,9.500296E-2],"categories":[],"categories_nodes":[],"categories_segments":[],"categories_sizes":[],"default_left":[0,0,0,0,0,0,0,0,0,0,0,0,0,0,0,0,0,0,0,0,0,0,0,0,0,0,0,0,0,0,0,0,0,0,0,0,0,0,0,0,0,0,0,0,0,0,0,0,0,0,0,0,0,0,0],"id":0,"left_children":[1,3,5,7,9,11,13,15,17,19,21,23,25,27,29,-1,-1,-1,31,33,35,37,39,41,43,45,47,49,51,-1,53,-1,-1,-1,-1,-1,-1,-1,-1,-1,-1,-1,-1,-1,-1,-1,-1,-1,-1,-1,-1,-1,-1,-1,-1],"loss_changes":[6.687595E4,1.0691445E4,7.8280938E3,1.4615156E3,1.4197861E3,8.0037646E2,1.6684102E3,1.1248828E2,1.4551465E2,1.8585107E2,2.5797217E2,1.3601874E2,1.019834E2,2.6882422E2,1.6325586E2,0E0,0E0,0E0,5.9715332E1,2.5710693E1,5.171582E1,9.98797E1,1.3009671E2,2.4369019E1,8.513699E1,3.603369E1,6.0967773E1,1.0362012E2,4.20166E1,0E0,3.8493652E1,0E0,0E0,0E0,0E0,0E0,0E0,0E0,0E0,0E0,0E0,0E0,0E0,0E0,0E0,0E0,0E0,0E0,0E0,0E0,0E0,0E0,0E0,0E0,0E0],"parents":[2147483647,0,0,1,1,2,2,3,3,4,4,5,5,6,6,7,7,8,8,9,9,10,10,11,11,12,12,13,13,14,14,18,18,19,19,20,20,21,21,22,22,23,23,24,24,25,25,26,26,27,27,28,28,30,30],"right_children":[2,4,6,8,10,12,14,16,18,20,22,24,26,28,30,-1,-1,-1,32,34,36,38,40,42,44,46,48,50,52,-1,54,-1,-1,-1,-1,-1,-1,-1,-1,-1,-1,-1,-1,-1,-1,-1,-1,-1,-1,-1,-1,-1,-1,-1,-1],"split_conditions":[1.12E1,4.8E0,1.6E1,1E0,8.1E0,1.37E1,2.05E1,-1E0,3E0,6.3E0,9.4E0,-2.9959476E-1,1.0108E0,1.86E1,3E0,-1.2523533E-1,-1.02544695E-1,-8.3588704E-2,9.8E0,2.1E0,6.1E-1,9.4E0,2.2701082E-1,1.0254E0,-9.011687E-1,-5.331371E-1,4E0,1.019E0,1.0138E0,1.19355716E-1,-9.8787266E-1,-6.787617E-2,-2.5094401E-2,-4.428673E-2,-5.6638945E-2,-4.104889E-2,-2.9256528E-2,-2.6535342E-2,5.533378E-3,3.2174774E-4,-1.6002148E-2,2.119019E-2,3.7203122E-2,1.5970403E-2,1.3687079E-3,3.4450453E-2,1.9494962E-2,1.245486E-2,4.2673524E-2,5.6328807E-2,7.1632415E-2,6.61037E-2,8.5228086E-2,3.741504E-2,9.500296E-2],"split_indices":[8,8,8,8,8,8,8,8,8,8,8,12,4,8,0,0,0,0,7,9,5,7,12,4,11,12,15,4,4,0,11,0,0,0,0,0,0,0,0,0,0,0,0,0,0,0,0,0,0,0,0,0,0,0,0],"split_type":[0,0,0,0,0,0,0,0,0,0,0,0,0,0,0,0,0,0,0,0,0,0,0,0,0,0,0,0,0,0,0,0,0,0,0,0,0,0,0,0,0,0,0,0,0,0,0,0,0,0,0,0,0,0,0],"sum_hessian":[2.354E3,1.168E3,1.186E3,4.67E2,7.01E2,6.08E2,5.78E2,1.9E2,2.77E2,3.48E2,3.53E2,2.9E2,3.18E2,4.13E2,1.65E2,8E1,1.1E2,1.46E2,1.31E2,1.48E2,2E2,1.58E2,1.95E2,1.3E2,1.6E2,7.7E1,2.41E2,2.76E2,1.37E2,7.6E1,8.9E1,1.26E2,5E0,5.6E1,9.2E1,1.25E2,7.5E1,1.48E2,1E1,1.05E2,9E1,1.18E2,1.2E1,8.4E1,7.6E1,4E1,3.7E1,8E0,2.33E2,1.87E2,8.9E1,4.1E1,9.6E1,3E0,8.6E1],"tree_param":{"num_deleted":"0","num_feature":"29","num_nodes":"55","size_leaf_vector":"1"}},{"base_weights":[-4.4361155E-2,-5.351563E0,5.2627935E0,-8.963461E0,-2.7980957E0,2.9034467E0,8.030891E0,-1.1176674E1,-7.4847713E0,-4.2376056E0,-1.2905881E0,1.5863376E0,3.9718423E0,6.8627768E0,1.058294E1,-1.2657076E-1,-1.03433184E-1,-8.247127E0,-6.72267E0,-5.3763847E0,-3.507277E0,1.1542813E-1,-1.7619535E0,2.3297868E0,9.464554E-1,4.340525E0,2.916608E0,6.204543E0,7.981394E0,1.2018449E-1,9.172562E0,-8.414551E-2,-5.9179135E-2,-6.871677E-2,-3.150455E-2,-3.0860357E-2,-5.4575853E-2,-9.686823E-3,-3.624187E-2,1.3799672E-2,-2.3812582E-3,-2.6156835E-2,-1.1519293E-2,3.1498368E-3,2.4224361E-2,1.5167589E-2,3.1773644E-4,3.9823454E-2,5.1759668E-2,3.5604335E-2,1.7776549E-2,5.410747E-2,6.801727E-2,6.521525E-2,8.505491E-2,2.9096484E-2,9.35604E-2],"categories":[],"categories_nodes":[],"categories_segments":[],"categories_sizes":[],"default_left":[0,0,0,0,0,0,0,0,0,0,0,0,0,0,0,0,0,0,0,0,0,0,0,0,0,0,0,0,0,0,0,0,0,0,0,0,0,0,0,0,0,0,0,0,0,0,0,0,0,0,0,0,0,0,0,0,0],"id":1,"left_children":[1,3,5,7,9,11,13,15,17,19,21,23,25,27,29,-1,-1,31,33,35,37,39,41,43,45,47,49,51,53,-1,55,-1,-1,-1,-1,-1,-1,-1,-1,-1,-1,-1,-1,-1,-1,-1,-1,-1,-1,-1,-1,-1,-1,-1,-1,-1,-1],"loss_changes":[6.63031E4,1.0829055E4,7.662461E3,1.5082656E3,1.4934976E3,8.895259E2,1.5383945E3,1.0488867E2,1.14453125E2,2.7383887E2,2.2503937E2,1.339989E2,1.2316992E2,2.244414E2,2.2777539E2,0E0,0E0,4.5351562E0,5.8788574E1,7.5964355E0,6.0729736E1,3.8891907E1,1.2889233E2,2.360376E1,8.117375E1,5.5675293E1,6.206598E1,7.574707E1,4.631836E1,0E0,7.38208E1,0E0,0E0,0E0,0E0,0E0,0E0,0E0,0E0,0E0,0E0,0E0,0E0,0E0,0E0,0E0,0E0,0E0,0E0,0E0,0E0,0E0,0E0,0E0,0E0,0E0,0E0],"parents":[2147483647,0,0,1,1,2,2,3,3,4,4,5,5,6,6,7,7,8,8,9,9,10,10,11,11,12,12,13,13,14,14,17,17,18,18,19,19,20,20,21,21,22,22,23,23,24,24,25,25,26,26,27,27,28,28,30,30],"right_children":[2,4,6,8,10,12,14,16,18,20,22,24,26,28,30,-1,-1,32,34,36,38,40,42,44,46,48,50,52,54,-1,56,-1,-1,-1,-1,-1,-1,-1,-1,-1,-1,-1,-1,-1,-1,-1,-1,-1,-1,-1,-1,-1,-1,-1,-1,-1,-1],"split_conditions":[1.13E1,4.8E0,1.63E1,1E0,8.3E0,1.37E1,2.05E1,-1.4E0,2.9E0,6.3E0,-1.4889039E-1,-2.9959476E-1,1.3E1,1.86E1,3E0,-1.2657076E-1,-1.03433184E-1,6.3E0,9.6E0,-8E-1,4E-1,2.9E0,9.4E0,7E0,-8.425721E-1,1.55E1,-2.5881904E-1,1.0156E0,1.0146E0,1.2018449E-1,1.0084E0,-8.414551E-2,-5.9179135E-2,-6.871677E-2,-3.150455E-2,-3.0860357E-2,-5.4575853E-2,-9.686823E-3,-3.624187E-2,1.3799672E-2,-2.3812582E-3,-2.6156835E-2,-1.1519293E-2,3.1498368E-3,2.4224361E-2,1.5167589E-2,3.1773644E-4,3.9823454E-2,5.1759668E-2,3.5604335E-2,1.7776549E-2,5.410747E-2,6.801727E-2,6.521525E-2,8.505491E-2,2.9096484E-2,9.35604E-2],"split_indices":[8,8,8,8,8,8,8,8,8,8,12,12,2,8,0,0,0,1,7,9,9,1,8,24,11,8,18,4,4,0,4,0,0,0,0,0,0,0,0,0,0,0,0,0,0,0,0,0,0,0,0,0,0,0,0,0,0],"split_type":[0,0,0,0,0,0,0,0,0,0,0,0,0,0,0,0,0,0,0,0,0,0,0,0,0,0,0,0,0,0,0,0,0,0,0,0,0,0,0,0,0,0,0,0,0,0,0,0,0,0,0,0,0,0,0,0,0],"sum_hessian":[2.352E3,1.176E3,1.176E3,4.86E2,6.9E2,6.36E2,5.4E2,1.92E2,2.94E2,3.52E2,3.38E2,2.86E2,3.5E2,3.73E2,1.67E2,6.4E1,1.28E2,1.42E2,1.52E2,1.35E2,2.17E2,8.5E1,2.53E2,1.31E2,1.55E2,2.57E2,9.3E1,2.39E2,1.34E2,7.9E1,8.8E1,1.3E2,1.2E1,1.45E2,7E0,6E0,1.29E2,1E1,2.07E2,1.8E1,6.7E1,1.04E2,1.49E2,6E0,1.25E2,9.5E1,6E1,1.84E2,7.3E1,5.8E1,3.5E1,1.07E2,1.32E2,3.9E1,9.5E1,3E0,8.5E1],"tree_param":{"num_deleted":"0","num_feature":"29","num_nodes":"57","size_leaf_vector":"1"}},{"base_weights":[-2.4309333E-2,-5.1735797E0,5.2135234E0,-8.726559E0,-2.6712377E0,2.894571E0,7.9540224E0,-1.0812289E1,-7.1642447E0,-4.120594E0,-1.3867477E0,1.5225027E0,3.970527E0,6.806216E0,1.0701228E1,-1.2036773E-1,-9.993658E-2,-8.191436E0,-6.438734E0,-5.1228104E0,-3.471341E0,-2.3628678E0,-7.174954E-1,2.2294147E0,8.7187815E-1,4.3260074E0,2.9867234E0,6.0832925E0,7.9126196E0,9.4809675E0,1.2201565E-1,-8.276831E-2,-3.7701786E-2,-3.6543455E-2,-6.607752E-2,-4.2895213E-2,-5.61327E-2,-3.0746661E-2,-4.184187E-2,-2.131477E-3,-2.5818598E-2,-2.6917958E-3,-1.6401324E-2,1.7093742E-2,2.7456203E-2,2.3353023E-3,1.6502516E-2,5.0051488E-2,3.7127424E-2,3.5021275E-2,1.9708037E-2,4.929374E-2,6.4722605E-2,6.430437E-2,8.4484E-2,5.58204E-2,9.7920574E-2],"categories":[],"categories_nodes":[],"categories_segments":[],"categories_sizes":[],"default_left":[0,0,0,0,0,0,0,0,0,0,0,0,0,0,0,0,0,0,0,0,0,0,0,0,0,0,0,0,0,0,0,0,0,0,0,0,0,0,0,0,0,0,0,0,0,0,0,0,0,0,0,0,0,0,0,0,0],"id":2,"left_children":[1,3,5,7,9,11,13,15,17,19,21,23,25,27,29,-1,-1,31,33,35,37,39,41,43,45,47,49,51,53,55,-1,-1,-1,-1,-1,-1,-1,-1,-1,-1,-1,-1,-1,-1,-1,-1,-1,-1,-1,-1,-1,-1,-1,-1,-1,-1,-1],"loss_changes":[6.3220062E4,1.0484441E4,7.360504E3,1.5109219E3,1.2876055E3,9.249419E2,1.6029453E3,8.500391E1,1.5595312E2,1.934834E2,2.397066E2,1.2606781E2,1.09799805E2,2.5280664E2,1.6592188E2,0E0,0E0,1.0254395E1,5.4831055E1,2.6427002E1,4.3245605E1,6.978595E1,9.078043E1,3.056482E1,7.2466576E1,8.758496E1,4.334088E1,7.153418E1,6.012793E1,5.2965332E1,0E0,0E0,0E0,0E0,0E0,0E0,0E0,0E0,0E0,0E0,0E0,0E0,0E0,0E0,0E0,0E0,0E0,0E0,0E0,0E0,0E0,0E0,0E0,0E0,0E0,0E0,0E0],"parents":[2147483647,0,0,1,1,2,2,3,3,4,4,5,5,6,6,7,7,8,8,9,9,10,10,11,11,12,12,13,13,14,14,17,17,18,18,19,19,20,20,21,21,22,22,23,23,24,24,25,25,26,26,27,27,28,28,29,29],"right_children":[2,4,6,8,10,12,14,16,18,20,22,24,26,28,30,-1,-1,32,34,36,38,40,42,44,46,48,50,52,54,56,-1,-1,-1,-1,-1,-1,-1,-1,-1,-1,-1,-1,-1,-1,-1,-1,-1,-1,-1,-1,-1,-1,-1,-1,-1,-1,-1],"split_conditions":[1.13E1,5E0,1.64E1,1.2E0,8.1E0,1.37E1,2.05E1,-1E0,2.9E0,6.3E0,9.4E0,-2.9959476E-1,1.3E1,1.86E1,1.11E1,-1.2036773E-1,-9.993658E-2,6.6E-1,-1.7E0,2.1E0,2.3E-1,6.8E-1,6E0,1.0163E0,1.24E1,-6.072676E-1,-2.5881904E-1,1.0127E0,1.0138E0,1.0091E0,1.2201565E-1,-8.276831E-2,-3.7701786E-2,-3.6543455E-2,-6.607752E-2,-4.2895213E-2,-5.61327E-2,-3.0746661E-2,-4.184187E-2,-2.131477E-3,-2.5818598E-2,-2.6917958E-3,-1.6401324E-2,1.7093742E-2,2.7456203E-2,2.3353023E-3,1.6502516E-2,5.0051488E-2,3.7127424E-2,3.5021275E-2,1.9708037E-2,4.929374E-2,6.4722605E-2,6.430437E-2,8.4484E-2,5.58204E-2,9.7920574E-2],"split_indices":[8,8,8,8,8,8,8,8,8,8,8,12,2,8,7,0,0,6,9,9,6,3,1,4,8,12,18,4,4,4,0,0,0,0,0,0,0,0,0,0,0,0,0,0,0,0,0,0,0,0,0,0,0,0,0,0,0],"split_type":[0,0,0,0,0,0,0,0,0,0,0,0,0,0,0,0,0,0,0,0,0,0,0,0,0,0,0,0,0,0,0,0,0,0,0,0,0,0,0,0,0,0,0,0,0,0,0,0,0,0,0,0,0,0,0,0,0],"sum_hessian":[2.342E3,1.181E3,1.161E3,4.87E2,6.94E2,6.3E2,5.31E2,2.06E2,2.81E2,3.25E2,3.69E2,2.78E2,3.52E2,3.77E2,1.54E2,7.7E1,1.29E2,1.12E2,1.69E2,1.25E2,2E2,1.49E2,2.2E2,1.32E2,1.46E2,2.56E2,9.6E1,2.32E2,1.45E2,8.9E1,6.5E1,1.09E2,3E0,1.1E1,1.58E2,5E1,7.5E1,1.32E2,6.8E1,1.4E1,1.35E2,1.49E2,7.1E1,6.8E1,6.4E1,8.1E1,6.5E1,1.18E2,1.38E2,6.2E1,3.4E1,6.2E1,1.7E2,4.2E1,1.03E2,8E0,8.1E1],"tree_param":{"num_deleted":"0","num_feature":"29","num_nodes":"57","size_leaf_vector":"1"}},{"base_weights":[-3.7523318E-2,-5.13567E0,5.148773E0,-8.553821E0,-2.655726E0,3.052649E0,8.062932E0,-1.0505122E1,-6.9483776E0,-4.1308618E0,-1.4037766E0,1.5425661E0,4.0577974E0,6.52274E0,9.951995E0,-1.1965479E1,-9.7482316E-2,-7.761187E-2,-6.3110557E0,-5.0831366E0,-3.5200174E0,-2.346185E0,-6.203043E-1,2.2444086E0,9.521688E-1,3.1779606E0,4.5699606E0,5.9060445E0,7.2274084E0,9.119345E0,1.23847395E-1,-1.2178405E-1,-5.3293657E-2,-3.7602946E-2,-6.49302E-2,-4.146223E-2,-5.5512022E-2,-3.0226966E-2,-4.2351317E-2,-2.5562188E-2,3.4700711E-3,6.792371E-3,-9.620326E-3,5.2432427E-3,2.4420155E-2,-1.7651528E-2,1.0594727E-2,3.476338E-2,2.253095E-2,4.3336503E-2,6.242368E-2,4.3495163E-2,6.09931E-2,7.659985E-2,5.8387186E-2,9.524536E-2,7.411316E-2],"categories":[],"categories_nodes":[],"categories_segments":[],"categories_sizes":[],"default_left":[0,0,0,0,0,0,0,0,0,0,0,0,0,0,0,0,0,0,0,0,0,0,0,0,0,0,0,0,0,0,0,0,0,0,0,0,0,0,0,0,0,0,0,0,0,0,0,0,0,0,0,0,0,0,0,0,0],"id":3,"left_children":[1,3,5,7,9,11,13,15,17,19,21,23,25,27,29,31,-1,-1,33,35,37,39,41,43,45,47,49,51,53,55,-1,-1,-1,-1,-1,-1,-1,-1,-1,-1,-1,-1,-1,-1,-1,-1,-1,-1,-1,-1,-1,-1,-1,-1,-1,-1,-1],"loss_changes":[6.165925E4,9.944908E3,7.035629E3,1.4728164E3,1.2550088E3,1.0162163E3,1.3387344E3,1.2546484E2,9.154883E1,1.6331738E2,2.721762E2,1.0983655E2,1.6675293E2,7.2899414E1,3.2041992E2,3.3668945E1,0E0,0E0,4.835791E1,2.8638184E1,5.5467285E1,9.613922E1,9.12761E1,4.0230713E1,4.5244858E1,3.3540283E1,7.187744E1,1.7248535E1,2.6612305E1,4.1217773E1,0E0,0E0,0E0,0E0,0E0,0E0,0E0,0E0,0E0,0E0,0E0,0E0,0E0,0E0,0E0,0E0,0E0,0E0,0E0,0E0,0E0,0E0,0E0,0E0,0E0,0E0,0E0],"parents":[2147483647,0,0,1,1,2,2,3,3,4,4,5,5,6,6,7,7,8,8,9,9,10,10,11,11,12,12,13,13,14,14,15,15,18,18,19,19,20,20,21,21,22,22,23,23,24,24,25,25,26,26,27,27,28,28,29,29],"right_children":[2,4,6,8,10,12,14,16,18,20,22,24,26,28,30,32,-1,-1,34,36,38,40,42,44,46,48,50,52,54,56,-1,-1,-1,-1,-1,-1,-1,-1,-1,-1,-1,-1,-1,-1,-1,-1,-1,-1,-1,-1,-1,-1,-1,-1,-1,-1,-1],"split_conditions":[1.13E1,5.1E0,1.67E1,1.5E0,8E0,1.36E1,1.96E1,-1E0,3E0,6.3E0,9.4E0,-2.9959476E-1,1.47E1,1.81E1,2.33E1,9E-2,-9.7482316E-2,-7.761187E-2,-1.5E0,2.1E0,1.6E-1,9.4E0,-2.9959476E-1,7E0,5.5E-1,-1.4889039E-1,1.07E1,3.4E1,1E-1,1.2E-1,1.23847395E-1,-1.2178405E-1,-5.3293657E-2,-3.7602946E-2,-6.49302E-2,-4.146223E-2,-5.5512022E-2,-3.0226966E-2,-4.2351317E-2,-2.5562188E-2,3.4700711E-3,6.792371E-3,-9.620326E-3,5.2432427E-3,2.4420155E-2,-1.7651528E-2,1.0594727E-2,3.476338E-2,2.253095E-2,4.3336503E-2,6.242368E-2,4.3495163E-2,6.09931E-2,7.659985E-2,5.8387186E-2,9.524536E-2,7.411316E-2],"split_indices":[8,8,8,8,8,8,8,8,8,8,8,12,8,8,8,6,0,0,9,9,6,7,12,22,3,12,7,24,6,6,0,0,0,0,0,0,0,0,0,0,0,0,0,0,0,0,0,0,0,0,0,0,0,0,0,0,0],"split_type":[0,0,0,0,0,0,0,0,0,0,0,0,0,0,0,0,0,0,0,0,0,0,0,0,0,0,0,0,0,0,0,0,0,0,0,0,0,0,0,0,0,0,0,0,0,0,0,0,0,0,0,0,0,0,0,0,0],"sum_hessian":[2.33E3,1.175E3,1.155E3,4.93E2,6.82E2,6.73E2,4.82E2,2.2E2,2.73E2,3.12E2,3.7E2,2.7E2,4.03E2,2.68E2,2.14E2,7E1,1.5E2,1.15E2,1.58E2,1.19E2,1.93E2,1.67E2,2.03E2,1.22E2,1.48E2,1.51E2,2.52E2,1.48E2,1.2E2,1.63E2,5.1E1,6.7E1,3E0,1.2E1,1.46E2,4.3E1,7.6E1,1.17E2,7.6E1,1.55E2,1.2E1,4.2E1,1.61E2,1.3E1,1.09E2,5E0,1.43E2,1.12E2,3.9E1,2.24E2,2.8E1,1.9E1,1.29E2,8.8E1,3.2E1,1.28E2,3.5E1],"tree_param":{"num_deleted":"0","num_feature":"29","num_nodes":"57","size_leaf_vector":"1"}},{"base_weights":[1.8055232E-2,-5.078512E0,5.180654E0,-8.862337E0,-2.6887271E0,2.7668843E0,7.644183E0,-1.0740058E1,-7.142869E0,-4.21194E0,-1.3332236E0,1.2173824E0,3.601215E0,6.268233E0,9.922679E0,-1.2213046E-1,-9.811546E-2,-7.787083E0,-6.4099774E0,-5.0879254E0,-3.3312566E0,-3.970829E-1,-2.20539E0,1.4402624E0,-5.379225E-1,4.129004E0,3.12255E0,5.6335382E0,7.0894628E0,9.178204E0,1.23040244E-1,-4.231564E-2,-7.870196E-2,-3.2759055E-2,-6.577208E-2,-5.2115355E-2,-2.8408054E-2,-4.2543292E-2,-3.0091168E-2,4.36136E-3,-7.981089E-3,-2.7344601E-2,-1.5649995E-2,2.093218E-2,1.0904554E-2,-1.1344723E-2,7.844863E-3,3.644758E-2,4.9746126E-2,3.400376E-2,2.2431279E-2,4.9379382E-2,6.0920447E-2,3.436837E-2,7.2144896E-2,6.656387E-2,9.418967E-2],"categories":[],"categories_nodes":[],"categories_segments":[],"categories_sizes":[],"default_left":[0,0,0,0,0,0,0,0,0,0,0,0,0,0,0,0,0,0,0,0,0,0,0,0,0,0,0,0,0,0,0,0,0,0,0,0,0,0,0,0,0,0,0,0,0,0,0,0,0,0,0,0,0,0,0,0,0],"id":4,"left_children":[1,3,5,7,9,11,13,15,17,19,21,23,25,27,29,-1,-1,31,33,35,37,39,41,43,45,47,49,51,53,55,-1,-1,-1,-1,-1,-1,-1,-1,-1,-1,-1,-1,-1,-1,-1,-1,-1,-1,-1,-1,-1,-1,-1,-1,-1,-1,-1],"loss_changes":[6.1384816E4,1.0590945E4,6.8696797E3,1.3873203E3,1.4824937E3,7.5400586E2,1.7325938E3,1.7202148E2,6.1979492E1,2.4373584E2,3.1157214E2,8.184805E1,8.263574E1,1.4643262E2,2.643125E2,0E0,0E0,1.8349609E0,3.9313477E1,3.1054688E1,3.7617554E1,6.2534763E1,6.2375305E1,3.942624E1,1.9858166E1,5.3894775E1,4.165088E1,3.515332E1,4.401172E1,3.7091797E1,0E0,0E0,0E0,0E0,0E0,0E0,0E0,0E0,0E0,0E0,0E0,0E0,0E0,0E0,0E0,0E0,0E0,0E0,0E0,0E0,0E0,0E0,0E0,0E0,0E0,0E0,0E0],"parents":[2147483647,0,0,1,1,2,2,3,3,4,4,5,5,6,6,7,7,8,8,9,9,10,10,11,11,12,12,13,13,14,14,17,17,18,18,19,19,20,20,21,21,22,22,23,23,24,24,25,25,26,26,27,27,28,28,29,29],"right_children":[2,4,6,8,10,12,14,16,18,20,22,24,26,28,30,-1,-1,32,34,36,38,40,42,44,46,48,50,52,54,56,-1,-1,-1,-1,-1,-1,-1,-1,-1,-1,-1,-1,-1,-1,-1,-1,-1,-1,-1,-1,-1,-1,-1,-1,-1,-1,-1],"split_conditions":[1.13E1,4.7E0,1.6E1,1.5E0,8E0,1.31E1,1.96E1,-1E0,3E0,9.4E0,3.0574307E-1,5.2766836E-1,3.7E0,1.0173E0,2.33E1,-1.2213046E-1,-9.811546E-2,-3.3E0,-1.3E0,6E0,6.3E0,3.3E0,9.4E0,-4.4698343E-1,1.0181E0,1.51E1,-1.7011768E-1,1.33E1,8E0,1.0102E0,1.23040244E-1,-4.231564E-2,-7.870196E-2,-3.2759055E-2,-6.577208E-2,-5.2115355E-2,-2.8408054E-2,-4.2543292E-2,-3.0091168E-2,4.36136E-3,-7.981089E-3,-2.7344601E-2,-1.5649995E-2,2.093218E-2,1.0904554E-2,-1.1344723E-2,7.844863E-3,3.644758E-2,4.9746126E-2,3.400376E-2,2.2431279E-2,4.9379382E-2,6.0920447E-2,3.436837E-2,7.2144896E-2,6.656387E-2,9.418967E-2],"split_indices":[8,8,8,8,8,8,8,8,8,10,12,12,1,4,8,0,0,9,9,9,8,1,8,12,4,8,12,9,22,4,0,0,0,0,0,0,0,0,0,0,0,0,0,0,0,0,0,0,0,0,0,0,0,0,0,0,0],"split_type":[0,0,0,0,0,0,0,0,0,0,0,0,0,0,0,0,0,0,0,0,0,0,0,0,0,0,0,0,0,0,0,0,0,0,0,0,0,0,0,0,0,0,0,0,0,0,0,0,0,0,0,0,0,0,0,0,0],"sum_hessian":[2.331E3,1.173E3,1.158E3,4.53E2,7.2E2,5.86E2,5.72E2,2.14E2,2.39E2,3.38E2,3.82E2,2.06E2,3.8E2,3.59E2,2.13E2,7.8E1,1.36E2,1.22E2,1.17E2,1.67E2,1.71E2,1.85E2,1.97E2,1.83E2,2.3E1,1.77E2,2.03E2,2.07E2,1.52E2,1.66E2,4.7E1,4E0,1.18E2,7E0,1.1E2,1.57E2,1E1,4.1E1,1.3E2,6E1,1.25E2,1.06E2,9.1E1,6.2E1,1.21E2,1.6E1,7E0,1.16E2,6.1E1,1.52E2,5.1E1,8.7E1,1.2E2,6E0,1.46E2,1.7E1,1.49E2],"tree_param":{"num_deleted":"0","num_feature":"29","num_nodes":"57","size_leaf_vector":"1"}},{"base_weights":[7.319778E-3,-5.04631E0,5.069638E0,-7.749596E0,-2.1190062E0,2.6230848E0,7.536664E0,-1.0478056E1,-6.445203E0,-2.8865893E0,-8.134207E-1,1.3709474E0,3.6089542E0,6.470222E0,1.0274123E1,-1.1783956E1,-9.674976E-2,-7.306231E0,-5.5228453E0,-4.1265783E0,-2.529221E0,-2.5507724E0,-5.762698E-1,3.245456E-1,1.679658E0,3.960372E0,2.6267247E0,5.7503247E0,7.409581E0,9.40344E0,1.2088075E-1,-1.1999786E-1,-5.1977977E-2,-7.7056E-2,-6.520064E-2,-6.1139055E-2,-4.9663264E-2,-4.3727797E-2,-2.2203697E-2,-0E0,-2.6431529E-2,-1.6289903E-2,-3.5667688E-2,-2.5426527E-3,-1.6147329E-2,-1.4870427E-2,7.5483583E-3,1.0485E-2,2.176584E-2,4.1451473E-2,2.8944796E-2,3.204134E-2,1.578517E-2,5.3887747E-2,6.661534E-2,6.0405236E-2,7.917788E-2,5.8564104E-2,9.687228E-2],"categories":[],"categories_nodes":[],"categories_segments":[],"categories_sizes":[],"default_left":[0,0,0,0,0,0,0,0,0,0,0,0,0,0,0,0,0,0,0,0,0,0,0,0,0,0,0,0,0,0,0,0,0,0,0,0,0,0,0,0,0,0,0,0,0,0,0,0,0,0,0,0,0,0,0,0,0,0,0],"id":5,"left_children":[1,3,5,7,9,11,13,15,17,19,21,23,25,27,29,31,-1,33,35,37,39,41,43,45,47,49,51,53,55,57,-1,-1,-1,-1,-1,-1,-1,-1,-1,-1,-1,-1,-1,-1,-1,-1,-1,-1,-1,-1,-1,-1,-1,-1,-1,-1,-1,-1,-1],"loss_changes":[6.0120246E4,9.28868E3,7.0651367E3,2.1053125E3,5.6449634E2,7.2411084E2,1.63675E3,8.9396484E1,2.8874414E2,1.4665259E2,8.515242E1,8.388968E1,1.028457E2,2.4212695E2,1.4004102E2,3.5413086E1,0E0,1.48984375E1,3.596045E1,2.6237793E1,8.05791E1,1.708339E1,6.193344E1,4.859929E1,6.0750427E1,3.476294E1,4.8935974E1,4.3282715E1,7.601367E1,5.6466797E1,0E0,0E0,0E0,0E0,0E0,0E0,0E0,0E0,0E0,0E0,0E0,0E0,0E0,0E0,0E0,0E0,0E0,0E0,0E0,0E0,0E0,0E0,0E0,0E0,0E0,0E0,0E0,0E0,0E0],"parents":[2147483647,0,0,1,1,2,2,3,3,4,4,5,5,6,6,7,7,8,8,9,9,10,10,11,11,12,12,13,13,14,14,15,15,17,17,18,18,19,19,20,20,21,21,22,22,23,23,24,24,25,25,26,26,27,27,28,28,29,29],"right_children":[2,4,6,8,10,12,14,16,18,20,22,24,26,28,30,32,-1,34,36,38,40,42,44,46,48,50,52,54,56,58,-1,-1,-1,-1,-1,-1,-1,-1,-1,-1,-1,-1,-1,-1,-1,-1,-1,-1,-1,-1,-1,-1,-1,-1,-1,-1,-1,-1,-1],"split_conditions":[1.13E1,6.2E0,1.6E1,1.2E0,9.4E0,1.36E1,2.05E1,-1E0,4.1E0,9.4E0,1.002E0,6.6E-1,1.3E1,1.81E1,2.33E1,1E-1,-9.674976E-2,3E0,3.2E-1,7.6E0,5E-1,7.0710677E-1,8.660254E-1,8.1E-1,1.25E1,7.350337E-1,-2.5881904E-1,1.0195E0,1.014E0,1.01E0,1.2088075E-1,-1.1999786E-1,-5.1977977E-2,-7.7056E-2,-6.520064E-2,-6.1139055E-2,-4.9663264E-2,-4.3727797E-2,-2.2203697E-2,-0E0,-2.6431529E-2,-1.6289903E-2,-3.5667688E-2,-2.5426527E-3,-1.6147329E-2,-1.4870427E-2,7.5483583E-3,1.0485E-2,2.176584E-2,4.1451473E-2,2.8944796E-2,3.204134E-2,1.578517E-2,5.3887747E-2,6.661534E-2,6.0405236E-2,7.917788E-2,5.8564104E-2,9.687228E-2],"split_indices":[8,8,8,8,8,8,8,8,8,10,4,5,2,8,8,6,0,8,5,8,9,18,18,3,8,11,18,4,4,4,0,0,0,0,0,0,0,0,0,0,0,0,0,0,0,0,0,0,0,0,0,0,0,0,0,0,0,0,0],"split_type":[0,0,0,0,0,0,0,0,0,0,0,0,0,0,0,0,0,0,0,0,0,0,0,0,0,0,0,0,0,0,0,0,0,0,0,0,0,0,0,0,0,0,0,0,0,0,0,0,0,0,0,0,0,0,0,0,0,0,0],"sum_hessian":[2.348E3,1.175E3,1.173E3,6.1E2,5.65E2,5.9E2,5.83E2,1.95E2,4.15E2,3.55E2,2.1E2,2.61E2,3.29E2,4.22E2,1.61E2,6.9E1,1.26E2,2.11E2,2.04E2,7.7E1,2.78E2,2.4E1,1.86E2,6E1,2.01E2,2.4E2,8.9E1,2.43E2,1.79E2,1.13E2,4.8E1,6.6E1,3E0,1.34E2,7.7E1,9.4E1,1.1E2,6.7E1,1E1,1.2E1,2.66E2,1.4E1,1E1,1.43E2,4.3E1,1.1E1,4.9E1,9E1,1.11E2,2.02E2,3.8E1,5.6E1,3.3E1,1.79E2,6.4E1,5.2E1,1.27E2,1E1,1.03E2],"tree_param":{"num_deleted":"0","num_feature":"29","num_nodes":"59","size_leaf_vector":"1"}},{"base_weights":[7.99945E-2,-5.270421E0,4.710259E0,-8.864418E0,-3.1748178E0,2.452793E0,7.450384E0,-1.0585836E1,-7.332615E0,-5.1236777E0,-2.28545E0,1.1230761E0,3.6004963E0,6.1351333E0,9.454141E0,-1.19647965E-1,-9.888409E0,-6.2027655E0,-7.7983675E0,-4.7314944E0,-5.6939054E0,-2.7370265E0,-9.333982E-1,1.9857726E0,4.6002942E-1,3.794459E0,9.778447E-1,6.643513E0,5.117252E0,8.857288E0,1.1629236E-1,-1.00040816E-1,-4.9757507E-2,-3.3656362E-2,-6.3259356E-2,-7.868008E-2,-4.1991048E-2,-3.944724E-2,-5.1100396E-2,-5.851434E-2,-3.1333834E-2,-3.1592887E-2,-2.0099832E-2,-1.5882062E-2,1.6657612E-3,1.3489973E-2,2.5670463E-2,1.2165901E-2,-3.2542932E-3,4.8474044E-2,3.5143122E-2,1.6566996E-2,-1.1841265E-2,3.459948E-2,6.758089E-2,1.986024E-2,5.3222854E-2,5.6937292E-2,9.173032E-2],"categories":[],"categories_nodes":[],"categories_segments":[],"categories_sizes":[],"default_left":[0,0,0,0,0,0,0,0,0,0,0,0,0,0,0,0,0,0,0,0,0,0,0,0,0,0,0,0,0,0,0,0,0,0,0,0,0,0,0,0,0,0,0,0,0,0,0,0,0,0,0,0,0,0,0,0,0,0,0],"id":6,"left_children":[1,3,5,7,9,11,13,15,17,19,21,23,25,27,29,-1,31,33,35,37,39,41,43,45,47,49,51,53,55,57,-1,-1,-1,-1,-1,-1,-1,-1,-1,-1,-1,-1,-1,-1,-1,-1,-1,-1,-1,-1,-1,-1,-1,-1,-1,-1,-1,-1,-1],"loss_changes":[5.8367156E4,8.20268E3,7.793326E3,9.806094E2,1.18696E3,1.0546118E3,1.4426406E3,5.9345703E1,6.3893555E1,2.0321777E1,2.88313E2,1.836005E2,1.8504736E2,1.4439062E2,1.8574805E2,0E0,2.2598633E1,1.5024414E0,3.1015625E0,1.8845947E1,1.4245117E1,1.0273291E2,8.755964E1,4.796521E1,1.0982652E2,8.419092E1,4.1635952E1,5.876172E1,6.573999E1,1.26081055E2,0E0,0E0,0E0,0E0,0E0,0E0,0E0,0E0,0E0,0E0,0E0,0E0,0E0,0E0,0E0,0E0,0E0,0E0,0E0,0E0,0E0,0E0,0E0,0E0,0E0,0E0,0E0,0E0,0E0],"parents":[2147483647,0,0,1,1,2,2,3,3,4,4,5,5,6,6,7,7,8,8,9,9,10,10,11,11,12,12,13,13,14,14,16,16,17,17,18,18,19,19,20,20,21,21,22,22,23,23,24,24,25,25,26,26,27,27,28,28,29,29],"right_children":[2,4,6,8,10,12,14,16,18,20,22,24,26,28,30,-1,32,34,36,38,40,42,44,46,48,50,52,54,56,58,-1,-1,-1,-1,-1,-1,-1,-1,-1,-1,-1,-1,-1,-1,-1,-1,-1,-1,-1,-1,-1,-1,-1,-1,-1,-1,-1,-1,-1],"split_conditions":[1.44E1,7E0,2.1E1,3.7E0,9.4E0,1.75E1,2.52E1,9E-1,3E-1,4.7E-1,1.3E1,-2.9959476E-1,9.3957E-1,-5.9351116E-1,2.99E1,-1.19647965E-1,7.2E0,-6.9135123E-1,7.5E-1,8.8E-1,8.313949E-1,2.9E1,8.4E-1,1.63E1,-9.011687E-1,1.5E0,9.5105654E-1,8E0,1.0079E0,1.0101E0,1.1629236E-1,-1.00040816E-1,-4.9757507E-2,-3.3656362E-2,-6.3259356E-2,-7.868008E-2,-4.1991048E-2,-3.944724E-2,-5.1100396E-2,-5.851434E-2,-3.1333834E-2,-3.1592887E-2,-2.0099832E-2,-1.5882062E-2,1.6657612E-3,1.3489973E-2,2.5670463E-2,1.2165901E-2,-3.2542932E-3,4.8474044E-2,3.5143122E-2,1.6566996E-2,-1.1841265E-2,3.459948E-2,6.758089E-2,1.986024E-2,5.3222854E-2,5.6937292E-2,9.173032E-2],"split_indices":[10,10,10,10,10,10,10,10,7,5,10,12,11,12,10,0,1,11,6,3,12,23,3,10,11,7,25,22,4,4,0,0,0,0,0,0,0,0,0,0,0,0,0,0,0,0,0,0,0,0,0,0,0,0,0,0,0,0,0],"split_type":[0,0,0,0,0,0,0,0,0,0,0,0,0,0,0,0,0,0,0,0,0,0,0,0,0,0,0,0,0,0,0,0,0,0,0,0,0,0,0,0,0,0,0,0,0,0,0,0,0,0,0,0,0,0,0,0,0,0,0],"sum_hessian":[2.354E3,1.092E3,1.262E3,4.01E2,6.91E2,6.93E2,5.69E2,1.86E2,2.15E2,2.15E2,4.76E2,3.22E2,3.71E2,3.46E2,2.23E2,5.7E1,1.29E2,6.7E1,1.48E2,1.33E2,8.2E1,3.56E2,1.2E2,1.39E2,1.83E2,3.45E2,2.6E1,2.27E2,1.19E2,1.79E2,4.4E1,1.25E2,4E0,4E0,6.3E1,1.44E2,4E0,4.7E1,8.6E1,7.6E1,6E0,2.23E2,1.33E2,7.5E1,4.5E1,6.8E1,7.1E1,9.3E1,9E1,6.9E1,2.76E2,2E1,6E0,9E0,2.18E2,8E0,1.11E2,1.8E1,1.61E2],"tree_param":{"num_deleted":"0","num_feature":"29","num_nodes":"59","size_leaf_vector":"1"}},{"base_weights":[-1.12931795E-1,-5.147123E0,4.827173E0,-8.509028E0,-2.7436805E0,2.4833038E0,7.3356824E0,-1.0438637E1,-7.000247E0,-3.9794958E0,-1.4994519E0,9.8957145E-1,3.4898107E0,6.2312026E0,1.01125345E1,-1.1785511E-1,-9.475414E-2,-7.7007785E0,-6.215361E0,-4.637446E0,-3.260933E0,-2.2987852E0,-7.23216E-1,1.7980409E0,4.7179097E-1,3.7915227E0,2.5945263E0,5.607369E0,7.2814674E0,8.955928E0,1.1302609E-1,-7.795043E-2,-3.576618E-2,-6.372943E-2,-2.9243324E-2,-4.7452457E-2,-2.1227563E-2,-3.378448E-2,-1.2994984E-2,-1.5565504E-2,-2.9537277E-2,3.7060461E-3,-1.197177E-2,9.176033E-3,2.3573343E-2,8.5805514E-4,1.4458981E-2,4.484356E-2,3.336755E-2,2.8584251E-2,1.1066233E-2,4.766974E-2,6.0436174E-2,5.946192E-2,7.749087E-2,5.22916E-2,9.2186905E-2],"categories":[],"categories_nodes":[],"categories_segments":[],"categories_sizes":[],"default_left":[0,0,0,0,0,0,0,0,0,0,0,0,0,0,0,0,0,0,0,0,0,0,0,0,0,0,0,0,0,0,0,0,0,0,0,0,0,0,0,0,0,0,0,0,0,0,0,0,0,0,0,0,0,0,0,0,0],"id":7,"left_children":[1,3,5,7,9,11,13,15,17,19,21,23,25,27,29,-1,-1,31,33,35,37,39,41,43,45,47,49,51,53,55,-1,-1,-1,-1,-1,-1,-1,-1,-1,-1,-1,-1,-1,-1,-1,-1,-1,-1,-1,-1,-1,-1,-1,-1,-1,-1,-1],"loss_changes":[5.7995523E4,9.3081E3,6.9011094E3,1.3255469E3,1.0313896E3,9.1320435E2,1.6773984E3,1.573457E2,1.00850586E2,1.438872E2,2.0775452E2,1.02321335E2,8.784717E1,2.2585449E2,1.1697949E2,0E0,0E0,2.5410156E1,4.992627E1,3.6408936E1,3.3174194E1,7.564746E1,9.021443E1,4.4782013E1,5.687343E1,6.932617E1,3.3742676E1,6.579785E1,4.5588867E1,3.456543E1,0E0,0E0,0E0,0E0,0E0,0E0,0E0,0E0,0E0,0E0,0E0,0E0,0E0,0E0,0E0,0E0,0E0,0E0,0E0,0E0,0E0,0E0,0E0,0E0,0E0,0E0,0E0],"parents":[2147483647,0,0,1,1,2,2,3,3,4,4,5,5,6,6,7,7,8,8,9,9,10,10,11,11,12,12,13,13,14,14,17,17,18,18,19,19,20,20,21,21,22,22,23,23,24,24,25,25,26,26,27,27,28,28,29,29],"right_children":[2,4,6,8,10,12,14,16,18,20,22,24,26,28,30,-1,-1,32,34,36,38,40,42,44,46,48,50,52,54,56,-1,-1,-1,-1,-1,-1,-1,-1,-1,-1,-1,-1,-1,-1,-1,-1,-1,-1,-1,-1,-1,-1,-1,-1,-1,-1,-1],"split_conditions":[1.1E1,4.8E0,1.6E1,1.2E0,8E0,1.32E1,2.05E1,-1E0,3E0,9.4E0,9.4E0,-2.9959476E-1,1.3E1,1.84E1,1.06E1,-1.1785511E-1,-9.475414E-2,7.4E0,9.8E0,6.2E0,9.3E-1,4.9813664E-1,1E1,1.0145E0,1.24E1,-6.732749E-1,2.5881904E-1,1.0141E0,1.0134E0,1.0091E0,1.1302609E-1,-7.795043E-2,-3.576618E-2,-6.372943E-2,-2.9243324E-2,-4.7452457E-2,-2.1227563E-2,-3.378448E-2,-1.2994984E-2,-1.5565504E-2,-2.9537277E-2,3.7060461E-3,-1.197177E-2,9.176033E-3,2.3573343E-2,8.5805514E-4,1.4458981E-2,4.484356E-2,3.336755E-2,2.8584251E-2,1.1066233E-2,4.766974E-2,6.0436174E-2,5.946192E-2,7.749087E-2,5.22916E-2,9.2186905E-2],"split_indices":[8,8,8,8,8,8,8,8,8,10,8,12,2,8,7,0,0,1,7,9,3,12,2,4,8,12,18,4,4,4,0,0,0,0,0,0,0,0,0,0,0,0,0,0,0,0,0,0,0,0,0,0,0,0,0,0,0],"split_type":[0,0,0,0,0,0,0,0,0,0,0,0,0,0,0,0,0,0,0,0,0,0,0,0,0,0,0,0,0,0,0,0,0,0,0,0,0,0,0,0,0,0,0,0,0,0,0,0,0,0,0,0,0,0,0,0,0],"sum_hessian":[2.33E3,1.154E3,1.176E3,4.8E2,6.74E2,6.09E2,5.67E2,2.08E2,2.72E2,3.37E2,3.37E2,2.46E2,3.63E2,4.08E2,1.59E2,8.2E1,1.26E2,1.39E2,1.33E2,1.73E2,1.64E2,1.65E2,1.72E2,9.5E1,1.51E2,2.69E2,9.4E1,2.6E2,1.48E2,8.5E1,7.4E1,1.35E2,4E0,1.26E2,7E0,1.65E2,8E0,1.54E2,1E1,7.9E1,8.6E1,5.2E1,1.2E2,3.8E1,5.7E1,1.09E2,4.2E1,1.03E2,1.66E2,7.9E1,1.5E1,9.3E1,1.67E2,4.2E1,1.06E2,7E0,7.8E1],"tree_param":{"num_deleted":"0","num_feature":"29","num_nodes":"57","size_leaf_vector":"1"}},{"base_weights":[-5.2123226E-2,-4.947524E0,4.941829E0,-8.353009E0,-2.6075704E0,2.5576189E0,7.33813E0,-1.0439406E1,-6.992884E0,-4.0050683E0,-1.3296589E0,1.3802752E0,3.6279917E0,6.284773E0,9.967849E0,-1.1620001E-1,-9.489167E-2,-7.8846805E-2,-6.1646442E0,-4.941384E0,-3.3712564E0,1.2104239E-1,-1.8158164E0,2.0417542E0,9.0565264E-1,2.6409855E0,3.950632E0,5.522457E0,7.204681E0,9.00975E0,1.1800985E-1,-4.2368367E-2,-6.370702E-2,-4.126958E-2,-5.4576434E-2,-3.0462256E-2,-4.0439665E-2,-1.1820122E-2,4.1223825E-3,-2.6080897E-2,-1.0494723E-2,1.8467516E-2,3.5370454E-2,1.4751877E-2,2.239895E-3,1.8304728E-2,3.2704495E-2,4.0322524E-2,1.2303557E-2,5.09957E-2,6.4026944E-2,5.859382E-2,7.642106E-2,5.1044554E-2,9.265023E-2],"categories":[],"categories_nodes":[],"categories_segments":[],"categories_sizes":[],"default_left":[0,0,0,0,0,0,0,0,0,0,0,0,0,0,0,0,0,0,0,0,0,0,0,0,0,0,0,0,0,0,0,0,0,0,0,0,0,0,0,0,0,0,0,0,0,0,0,0,0,0,0,0,0,0,0],"id":8,"left_children":[1,3,5,7,9,11,13,15,17,19,21,23,25,27,29,-1,-1,-1,31,33,35,37,39,41,43,45,47,49,51,53,-1,-1,-1,-1,-1,-1,-1,-1,-1,-1,-1,-1,-1,-1,-1,-1,-1,-1,-1,-1,-1,-1,-1,-1,-1],"loss_changes":[5.640015E4,9.260635E3,6.5048164E3,1.2703555E3,1.2299692E3,7.178445E2,1.5118789E3,9.5166016E1,1.6418848E2,1.7834766E2,2.564021E2,8.419318E1,8.444165E1,2.4575488E2,1.7436328E2,0E0,0E0,0E0,3.351953E1,3.15979E1,3.0702393E1,3.5319153E1,1.6204309E2,2.6170319E1,6.239308E1,3.2787903E1,4.424707E1,5.1069824E1,6.0972656E1,6.093164E1,0E0,0E0,0E0,0E0,0E0,0E0,0E0,0E0,0E0,0E0,0E0,0E0,0E0,0E0,0E0,0E0,0E0,0E0,0E0,0E0,0E0,0E0,0E0,0E0,0E0],"parents":[2147483647,0,0,1,1,2,2,3,3,4,4,5,5,6,6,7,7,8,8,9,9,10,10,11,11,12,12,13,13,14,14,18,18,19,19,20,20,21,21,22,22,23,23,24,24,25,25,26,26,27,27,28,28,29,29],"right_children":[2,4,6,8,10,12,14,16,18,20,22,24,26,28,30,-1,-1,-1,32,34,36,38,40,42,44,46,48,50,52,54,-1,-1,-1,-1,-1,-1,-1,-1,-1,-1,-1,-1,-1,-1,-1,-1,-1,-1,-1,-1,-1,-1,-1,-1,-1],"split_conditions":[1.12E1,4.8E0,1.6E1,1E0,8E0,1.37E1,2.05E1,-1E0,2.9E0,6.2E0,-1.4889039E-1,-2.9959476E-1,1.0108E0,1.81E1,2.33E1,-1.1620001E-1,-9.489167E-2,-7.8846805E-2,-1E0,2.1E0,2.3E-1,1.0052E0,9.4E0,1.0254E0,-9.011687E-1,1.48E1,7.0710677E-1,1.019E0,1.0138E0,1.0098E0,1.1800985E-1,-4.2368367E-2,-6.370702E-2,-4.126958E-2,-5.4576434E-2,-3.0462256E-2,-4.0439665E-2,-1.1820122E-2,4.1223825E-3,-2.6080897E-2,-1.0494723E-2,1.8467516E-2,3.5370454E-2,1.4751877E-2,2.239895E-3,1.8304728E-2,3.2704495E-2,4.0322524E-2,1.2303557E-2,5.09957E-2,6.4026944E-2,5.859382E-2,7.642106E-2,5.1044554E-2,9.265023E-2],"split_indices":[8,8,8,8,8,8,8,8,8,8,12,12,4,8,8,0,0,0,9,9,6,4,8,4,11,8,18,4,4,4,0,0,0,0,0,0,0,0,0,0,0,0,0,0,0,0,0,0,0,0,0,0,0,0,0],"split_type":[0,0,0,0,0,0,0,0,0,0,0,0,0,0,0,0,0,0,0,0,0,0,0,0,0,0,0,0,0,0,0,0,0,0,0,0,0,0,0,0,0,0,0,0,0,0,0,0,0,0,0,0,0,0,0],"sum_hessian":[2.305E3,1.164E3,1.141E3,4.73E2,6.91E2,5.73E2,5.68E2,1.84E2,2.89E2,3.29E2,3.62E2,2.74E2,2.99E2,4.08E2,1.6E2,7.7E1,1.07E2,1.35E2,1.54E2,1.3E2,1.99E2,9.1E1,2.71E2,1.13E2,1.61E2,7.6E1,2.23E2,2.27E2,1.81E2,1.09E2,5.1E1,1.7E1,1.37E2,5.4E1,7.6E1,1.38E2,6.1E1,1.6E1,7.5E1,1.32E2,1.39E2,1.02E2,1.1E1,8.7E1,7.4E1,3.5E1,4.1E1,2.16E2,7E0,1.58E2,6.9E1,4.8E1,1.33E2,8E0,1.01E2],"tree_param":{"num_deleted":"0","num_feature":"29","num_nodes":"55","size_leaf_vector":"1"}},{"base_weights":[8.946298E-3,-5.240736E0,4.434099E0,-8.728206E0,-3.2365456E0,2.1642013E0,7.133238E0,-1.0357975E1,-7.35698E0,-4.60994E0,-2.0429533E0,1.0139953E0,3.582782E0,5.895798E0,9.246408E0,-1.1586698E-1,-9.392418E-2,-8.161616E0,-6.715377E-2,-5.0950084E0,-3.7121043E0,-2.4825585E0,-9.6259457E-1,3.3134785E-1,1.963668E0,3.930053E0,2.588078E0,5.2228875E0,6.421291E0,8.46778E0,1.1582239E-1,-6.2403005E-2,-8.482679E-2,-5.693489E-2,-4.5564797E-2,-4.275896E-2,-2.9593723E-2,-2.9544398E-2,-1.7077804E-2,-4.8761624E-3,-1.4719435E-2,1.4580686E-2,-1.3897285E-3,2.0961922E-2,-5.1104E-3,4.5403123E-2,3.4819186E-2,2.9791739E-2,1.5972035E-2,6.750471E-2,4.8575275E-2,6.527516E-2,3.371552E-2,7.6370485E-2,9.2537194E-2],"categories":[],"categories_nodes":[],"categories_segments":[],"categories_sizes":[],"default_left":[0,0,0,0,0,0,0,0,0,0,0,0,0,0,0,0,0,0,0,0,0,0,0,0,0,0,0,0,0,0,0,0,0,0,0,0,0,0,0,0,0,0,0,0,0,0,0,0,0,0,0,0,0,0,0],"id":9,"left_children":[1,3,5,7,9,11,13,15,17,19,21,23,25,27,29,-1,-1,31,-1,33,35,37,39,41,43,45,47,49,51,53,-1,-1,-1,-1,-1,-1,-1,-1,-1,-1,-1,-1,-1,-1,-1,-1,-1,-1,-1,-1,-1,-1,-1,-1,-1],"loss_changes":[5.505656E4,7.5472305E3,7.8626562E3,8.047656E2,1.1210156E3,1.1380688E3,1.4789297E3,1.0025586E2,5.6249023E1,1.19569824E2,1.7346533E2,2.5065698E2,9.7296875E1,9.7194336E1,2.9094922E2,0E0,0E0,2.3447266E0,0E0,3.9104004E1,3.5851074E1,9.064197E1,2.5456642E1,1.206264E2,5.435901E1,4.6288574E1,2.7336243E1,6.0370605E1,4.3414062E1,3.5370117E1,0E0,0E0,0E0,0E0,0E0,0E0,0E0,0E0,0E0,0E0,0E0,0E0,0E0,0E0,0E0,0E0,0E0,0E0,0E0,0E0,0E0,0E0,0E0,0E0,0E0],"parents":[2147483647,0,0,1,1,2,2,3,3,4,4,5,5,6,6,7,7,8,8,9,9,10,10,11,11,12,12,13,13,14,14,17,17,19,19,20,20,21,21,22,22,23,23,24,24,25,25,26,26,27,27,28,28,29,29],"right_children":[2,4,6,8,10,12,14,16,18,20,22,24,26,28,30,-1,-1,32,-1,34,36,38,40,42,44,46,48,50,52,54,-1,-1,-1,-1,-1,-1,-1,-1,-1,-1,-1,-1,-1,-1,-1,-1,-1,-1,-1,-1,-1,-1,-1,-1,-1],"split_conditions":[1.05E1,4.1E0,1.6E1,1E0,7.3E0,1.37E1,1.96E1,-1E0,2.4E0,6.2E0,9.4E0,1.24E1,1.3E1,1.74E1,2.33E1,-1.1586698E-1,-9.392418E-2,7.5E-1,-6.715377E-2,3.2E-1,2.5E0,6.1E-1,5.4E0,-2.9959476E-1,7.93844E-1,-6.732749E-1,-2.83139E-1,3E0,1.7E1,9.9E0,1.1582239E-1,-6.2403005E-2,-8.482679E-2,-5.693489E-2,-4.5564797E-2,-4.275896E-2,-2.9593723E-2,-2.9544398E-2,-1.7077804E-2,-4.8761624E-3,-1.4719435E-2,1.4580686E-2,-1.3897285E-3,2.0961922E-2,-5.1104E-3,4.5403123E-2,3.4819186E-2,2.9791739E-2,1.5972035E-2,6.750471E-2,4.8575275E-2,6.527516E-2,3.371552E-2,7.6370485E-2,9.2537194E-2],"split_indices":[8,8,8,8,8,8,8,8,8,8,8,8,2,8,8,0,0,3,0,5,7,5,1,12,12,12,12,0,2,7,0,0,0,0,0,0,0,0,0,0,0,0,0,0,0,0,0,0,0,0,0,0,0,0,0],"split_type":[0,0,0,0,0,0,0,0,0,0,0,0,0,0,0,0,0,0,0,0,0,0,0,0,0,0,0,0,0,0,0,0,0,0,0,0,0,0,0,0,0,0,0,0,0,0,0,0,0,0,0,0,0,0,0],"sum_hessian":[2.368E3,1.083E3,1.285E3,3.94E2,6.89E2,6.99E2,5.86E2,1.77E2,2.17E2,3.19E2,3.7E2,3.87E2,3.12E2,3.72E2,2.14E2,7.3E1,1.04E2,9.1E1,1.26E2,2.04E2,1.15E2,2.62E2,1.08E2,2.26E2,1.61E2,2.29E2,8.3E1,1.68E2,2.04E2,1.64E2,5E1,1.6E1,7.5E1,9.2E1,1.12E2,6.3E1,5.2E1,1.61E2,1.01E2,5.7E1,5.1E1,6.6E1,1.6E2,1.53E2,8E0,9.3E1,1.36E2,5.8E1,2.5E1,2.9E1,1.39E2,1.96E2,8E0,8.5E1,7.9E1],"tree_param":{"num_deleted":"0","num_feature":"29","num_nodes":"55","size_leaf_vector":"1"}},{"base_weights":[2.1496587E-2,-5.165951E0,4.470314E0,-8.574359E0,-3.1323264E0,2.216098E0,7.087126E0,-1.0175033E1,-7.1064262E0,-4.9249535E0,-2.2328134E0,6.904271E-1,3.0988452E0,5.9087706E0,9.443224E0,-1.1664499E-1,-9.554616E-2,-5.849928E0,-7.4776006E0,-4.1679053E0,-5.163754E0,-3.1373048E0,-1.6720961E0,1.3182478E0,-2.2016189E-1,3.3257911E0,5.451047E-1,6.326865E0,4.7358503E0,8.705885E0,1.1400291E1,-6.1305422E-2,-3.7857544E-2,-7.9558924E-2,-6.5692924E-2,-4.792421E-2,-3.187081E-2,-5.758613E-2,-4.7125604E-2,-2.8850388E-2,-4.0322512E-2,-1.2191062E-2,-2.4496755E-2,-1.8296578E-3,1.5989808E-2,4.06604E-4,-2.0166112E-2,2.823776E-2,4.0712867E-2,1.6257508E-2,-2.9944023E-3,6.82327E-2,5.2382596E-2,4.9516764E-2,1.4605235E-2,8.840051E-2,4.152396E-2,1.18147865E-1,5.36978E-2],"categories":[],"categories_nodes":[],"categories_segments":[],"categories_sizes":[],"default_left":[0,0,0,0,0,0,0,0,0,0,0,0,0,0,0,0,0,0,0,0,0,0,0,0,0,0,0,0,0,0,0,0,0,0,0,0,0,0,0,0,0,0,0,0,0,0,0,0,0,0,0,0,0,0,0,0,0,0,0],"id":10,"left_children":[1,3,5,7,9,11,13,15,17,19,21,23,25,27,29,-1,-1,31,33,35,37,39,41,43,45,47,49,51,53,55,57,-1,-1,-1,-1,-1,-1,-1,-1,-1,-1,-1,-1,-1,-1,-1,-1,-1,-1,-1,-1,-1,-1,-1,-1,-1,-1,-1,-1],"loss_changes":[5.3587074E4,7.402455E3,7.3569375E3,8.658379E2,1.0734941E3,9.038657E2,1.5473809E3,6.108203E1,5.3796875E1,1.804004E1,2.2249707E2,1.4217831E2,2.4469287E2,1.5920215E2,1.7435742E2,0E0,0E0,6.4991455E0,1.5792969E1,2.0068115E1,1.6368652E1,2.6280884E1,9.5272766E1,6.2385834E1,4.8072105E1,1.3414551E2,3.3475E1,1.1598242E2,6.7058105E1,4.935547E1,5.7319824E1,0E0,0E0,0E0,0E0,0E0,0E0,0E0,0E0,0E0,0E0,0E0,0E0,0E0,0E0,0E0,0E0,0E0,0E0,0E0,0E0,0E0,0E0,0E0,0E0,0E0,0E0,0E0,0E0],"parents":[2147483647,0,0,1,1,2,2,3,3,4,4,5,5,6,6,7,7,8,8,9,9,10,10,11,11,12,12,13,13,14,14,17,17,18,18,19,19,20,20,21,21,22,22,23,23,24,24,25,25,26,26,27,27,28,28,29,29,30,30],"right_children":[2,4,6,8,10,12,14,16,18,20,22,24,26,28,30,-1,-1,32,34,36,38,40,42,44,46,48,50,52,54,56,58,-1,-1,-1,-1,-1,-1,-1,-1,-1,-1,-1,-1,-1,-1,-1,-1,-1,-1,-1,-1,-1,-1,-1,-1,-1,-1,-1,-1],"split_conditions":[1.41E1,6.9E0,2.07E1,3.7E0,9.4E0,1.68E1,2.57E1,6E-1,1E-1,5E-1,1.12E1,3.8E0,5E-1,-5.476112E-1,2.99E1,-1.1664499E-1,-9.554616E-2,2.15E2,5.9E0,4.1E0,1.0136E0,1.7E1,3.8E0,5E0,8.660254E-1,1.92E1,9E0,7E-2,4.5E-1,1.7E1,1.2E1,-6.1305422E-2,-3.7857544E-2,-7.9558924E-2,-6.5692924E-2,-4.792421E-2,-3.187081E-2,-5.758613E-2,-4.7125604E-2,-2.8850388E-2,-4.0322512E-2,-1.2191062E-2,-2.4496755E-2,-1.8296578E-3,1.5989808E-2,4.06604E-4,-2.0166112E-2,2.823776E-2,4.0712867E-2,1.6257508E-2,-2.9944023E-3,6.82327E-2,5.2382596E-2,4.9516764E-2,1.4605235E-2,8.840051E-2,4.152396E-2,1.18147865E-1,5.36978E-2],"split_indices":[10,10,10,10,10,10,10,10,7,18,10,7,18,12,10,0,0,24,10,1,4,2,7,15,18,10,2,6,6,2,2,0,0,0,0,0,0,0,0,0,0,0,0,0,0,0,0,0,0,0,0,0,0,0,0,0,0,0,0],"split_type":[0,0,0,0,0,0,0,0,0,0,0,0,0,0,0,0,0,0,0,0,0,0,0,0,0,0,0,0,0,0,0,0,0,0,0,0,0,0,0,0,0,0,0,0,0,0,0,0,0,0,0,0,0,0,0,0,0,0,0],"sum_hessian":[2.32E3,1.071E3,1.249E3,3.99E2,6.72E2,6.72E2,5.77E2,1.88E2,2.11E2,2.23E2,4.49E2,2.47E2,4.25E2,3.87E2,1.9E2,5E1,1.38E2,5.2E1,1.59E2,5.8E1,1.65E2,1.7E2,2.79E2,1.46E2,1.01E2,3.9E2,3.5E1,2.82E2,1.05E2,1.42E2,4.8E1,4.4E1,8E0,9.9E1,6E1,3.3E1,2.5E1,6.6E1,9.9E1,1.36E2,3.4E1,1.78E2,1.01E2,2.3E1,1.23E2,8.9E1,1.2E1,2.36E2,1.54E2,1.5E1,2E1,1.9E2,9.2E1,9.8E1,7E0,1.37E2,5E0,4.4E1,4E0],"tree_param":{"num_deleted":"0","num_feature":"29","num_nodes":"59","size_leaf_vector":"1"}},{"base_weights":[1.6785853E-2,-4.8624964E0,4.6572347E0,-8.24991E0,-2.6361644E0,2.332081E0,7.1173425E0,-1.0209552E1,-6.8885665E0,-3.9113498E0,-1.4523059E0,1.2478851E0,3.374271E0,6.073546E0,9.875102E0,-1.18958384E-1,-9.560531E0,-7.6828566E0,-6.144681E0,-4.6209426E0,-3.3110764E0,-2.2634985E0,-6.5036166E-1,6.823607E-1,1.8704165E0,3.7217388E0,2.4450912E0,5.4487505E0,7.26291E0,8.950908E0,1.1370136E-1,-9.65711E-2,-5.0400887E-2,-7.912331E-2,-5.258353E-2,-2.3743944E-2,-6.2340908E-2,-5.203321E-2,-3.9841097E-2,-3.594693E-2,-2.454281E-2,-1.2565551E-2,-2.91291E-2,1.901506E-3,-1.1498832E-2,1.0404529E-2,-2.6957823E-3,2.05885E-2,-3.8129156E-3,3.8691066E-2,1.7819447E-2,-5.5622896E-3,2.557419E-2,4.931604E-2,6.2449176E-2,5.8691982E-2,7.797171E-2,3.1800292E-2,9.091233E-2],"categories":[],"categories_nodes":[],"categories_segments":[],"categories_sizes":[],"default_left":[0,0,0,0,0,0,0,0,0,0,0,0,0,0,0,0,0,0,0,0,0,0,0,0,0,0,0,0,0,0,0,0,0,0,0,0,0,0,0,0,0,0,0,0,0,0,0,0,0,0,0,0,0,0,0,0,0,0,0],"id":11,"left_children":[1,3,5,7,9,11,13,15,17,19,21,23,25,27,29,-1,31,33,35,37,39,41,43,45,47,49,51,53,55,57,-1,-1,-1,-1,-1,-1,-1,-1,-1,-1,-1,-1,-1,-1,-1,-1,-1,-1,-1,-1,-1,-1,-1,-1,-1,-1,-1,-1,-1],"loss_changes":[5.3231465E4,8.61973E3,6.875211E3,1.1391191E3,1.0399629E3,6.970188E2,1.622373E3,8.55E1,1.1153223E2,1.2574756E2,2.3307843E2,1.06197784E2,9.230713E1,2.7646387E2,1.15884766E2,0E0,1.0106445E1,2.7735352E1,3.3216797E1,3.3982178E1,3.5285156E1,1.1297461E2,7.71479E1,5.558046E1,6.247589E1,5.7717285E1,3.162738E1,8.501758E1,6.009375E1,5.327246E1,0E0,0E0,0E0,0E0,0E0,0E0,0E0,0E0,0E0,0E0,0E0,0E0,0E0,0E0,0E0,0E0,0E0,0E0,0E0,0E0,0E0,0E0,0E0,0E0,0E0,0E0,0E0,0E0,0E0],"parents":[2147483647,0,0,1,1,2,2,3,3,4,4,5,5,6,6,7,7,8,8,9,9,10,10,11,11,12,12,13,13,14,14,16,16,17,17,18,18,19,19,20,20,21,21,22,22,23,23,24,24,25,25,26,26,27,27,28,28,29,29],"right_children":[2,4,6,8,10,12,14,16,18,20,22,24,26,28,30,-1,32,34,36,38,40,42,44,46,48,50,52,54,56,58,-1,-1,-1,-1,-1,-1,-1,-1,-1,-1,-1,-1,-1,-1,-1,-1,-1,-1,-1,-1,-1,-1,-1,-1,-1,-1,-1,-1,-1],"split_conditions":[1.1E1,4.8E0,1.6E1,1E0,7.9E0,1.36E1,2.05E1,-2.1E0,2.9E0,6.3E0,9.4E0,1.24E1,1.3E1,1.86E1,2.33E1,-1.18958384E-1,5.6E0,1.6E1,-2.5E0,3.2E-1,1.13E1,8.2E-1,4.1E0,5E-1,8.660254E-1,9.272376E-1,7.4E0,1.0175E0,1.0146E0,-9.8787266E-1,1.1370136E-1,-9.65711E-2,-5.0400887E-2,-7.912331E-2,-5.258353E-2,-2.3743944E-2,-6.2340908E-2,-5.203321E-2,-3.9841097E-2,-3.594693E-2,-2.454281E-2,-1.2565551E-2,-2.91291E-2,1.901506E-3,-1.1498832E-2,1.0404529E-2,-2.6957823E-3,2.05885E-2,-3.8129156E-3,3.8691066E-2,1.7819447E-2,-5.5622896E-3,2.557419E-2,4.931604E-2,6.2449176E-2,5.8691982E-2,7.797171E-2,3.1800292E-2,9.091233E-2],"split_indices":[8,8,8,8,8,8,8,8,8,8,8,8,2,8,8,0,10,2,9,5,10,3,1,18,14,11,9,4,4,11,0,0,0,0,0,0,0,0,0,0,0,0,0,0,0,0,0,0,0,0,0,0,0,0,0,0,0,0,0],"split_type":[0,0,0,0,0,0,0,0,0,0,0,0,0,0,0,0,0,0,0,0,0,0,0,0,0,0,0,0,0,0,0,0,0,0,0,0,0,0,0,0,0,0,0,0,0,0,0,0,0,0,0,0,0,0,0,0,0,0,0],"sum_hessian":[2.349E3,1.145E3,1.204E3,4.53E2,6.92E2,6.2E2,5.84E2,1.83E2,2.7E2,3.32E2,3.6E2,3.05E2,3.15E2,4.26E2,1.58E2,4.6E1,1.37E2,1.26E2,1.44E2,1.49E2,1.83E2,1.78E2,1.82E2,1.61E2,1.44E2,2.27E2,8.8E1,2.83E2,1.43E2,1.02E2,5.6E1,1.33E2,4E0,1.13E2,1.3E1,4E0,1.4E2,7.4E1,7.5E1,1.35E2,4.8E1,7.1E1,1.07E2,6.8E1,1.14E2,1.17E2,4.4E1,1.33E2,1.1E1,2.1E2,1.7E1,3E0,8.5E1,1.76E2,1.07E2,4.3E1,1E2,3E0,9.9E1],"tree_param":{"num_deleted":"0","num_feature":"29","num_nodes":"59","size_leaf_vector":"1"}},{"base_weights":[-2.5538284E-2,-4.6948075E0,4.7202783E0,-8.054347E0,-2.520363E0,2.7428083E0,7.335313E0,-9.9215975E0,-6.689408E0,-3.9190443E0,-1.3141876E0,1.4090798E0,3.706953E0,6.279308E0,9.588296E0,-1.12143084E-1,-9.058874E-2,-7.3472013E0,-6.113525E0,-4.781193E0,-3.0326843E0,-2.087639E0,-5.294012E-1,7.2389567E-1,1.9135361E0,3.0073762E0,4.168914E0,5.6595874E0,7.221594E0,1.00609865E1,7.047648E0,-7.5070255E-2,-4.812446E-2,-6.2459826E-2,-2.9691491E-2,-4.0842775E-2,-5.1882736E-2,-2.6525276E-2,-3.595551E-2,-2.4192795E-2,-1.1335577E-2,4.357956E-3,-9.480472E-3,1.3039107E-2,7.9674245E-4,8.562023E-3,2.3317918E-2,3.3679247E-2,1.9461742E-2,4.390264E-2,2.2764923E-2,6.459791E-2,5.160511E-2,7.294565E-2,3.0378634E-2,9.26699E-2,1.13526024E-1,3.456058E-2,7.673817E-2],"categories":[],"categories_nodes":[],"categories_segments":[],"categories_sizes":[],"default_left":[0,0,0,0,0,0,0,0,0,0,0,0,0,0,0,0,0,0,0,0,0,0,0,0,0,0,0,0,0,0,0,0,0,0,0,0,0,0,0,0,0,0,0,0,0,0,0,0,0,0,0,0,0,0,0,0,0,0,0],"id":12,"left_children":[1,3,5,7,9,11,13,15,17,19,21,23,25,27,29,-1,-1,31,33,35,37,39,41,43,45,47,49,51,53,55,57,-1,-1,-1,-1,-1,-1,-1,-1,-1,-1,-1,-1,-1,-1,-1,-1,-1,-1,-1,-1,-1,-1,-1,-1,-1,-1,-1,-1],"loss_changes":[5.1742414E4,8.576785E3,5.9670684E3,1.1094609E3,1.2022573E3,8.4425E2,1.1230273E3,1.1162891E2,5.6015625E1,2.3766064E2,2.3293292E2,9.4786194E1,1.10521484E2,1.5755273E2,1.15930664E2,0E0,0E0,1.1660645E1,4.30083E1,2.497705E1,2.5358154E1,5.8286255E1,7.845099E1,4.459673E1,6.8442505E1,5.260205E1,8.4845215E1,4.9768066E1,1.7105469E1,2.6054688E1,3.5336304E1,0E0,0E0,0E0,0E0,0E0,0E0,0E0,0E0,0E0,0E0,0E0,0E0,0E0,0E0,0E0,0E0,0E0,0E0,0E0,0E0,0E0,0E0,0E0,0E0,0E0,0E0,0E0,0E0],"parents":[2147483647,0,0,1,1,2,2,3,3,4,4,5,5,6,6,7,7,8,8,9,9,10,10,11,11,12,12,13,13,14,14,17,17,18,18,19,19,20,20,21,21,22,22,23,23,24,24,25,25,26,26,27,27,28,28,29,29,30,30],"right_children":[2,4,6,8,10,12,14,16,18,20,22,24,26,28,30,-1,-1,32,34,36,38,40,42,44,46,48,50,52,54,56,58,-1,-1,-1,-1,-1,-1,-1,-1,-1,-1,-1,-1,-1,-1,-1,-1,-1,-1,-1,-1,-1,-1,-1,-1,-1,-1,-1,-1],"split_conditions":[1.13E1,4.8E0,1.66E1,1.2E0,8E0,1.37E1,2.05E1,-1E0,2.9E0,6.5E0,1.3E1,1.24E1,1.48E1,1.87E1,1.1E-1,-1.12143084E-1,-9.058874E-2,6.3E0,9.8E0,2E-2,1.8E-1,7.3E0,9E0,4.2E0,1.62E1,1.3E1,7.350337E-1,9E0,6.5E0,2.33E1,2.67E1,-7.5070255E-2,-4.812446E-2,-6.2459826E-2,-2.9691491E-2,-4.0842775E-2,-5.1882736E-2,-2.6525276E-2,-3.595551E-2,-2.4192795E-2,-1.1335577E-2,4.357956E-3,-9.480472E-3,1.3039107E-2,7.9674245E-4,8.562023E-3,2.3317918E-2,3.3679247E-2,1.9461742E-2,4.390264E-2,2.2764923E-2,6.459791E-2,5.160511E-2,7.294565E-2,3.0378634E-2,9.26699E-2,1.13526024E-1,3.456058E-2,7.673817E-2],"split_indices":[8,8,8,8,8,8,8,8,8,8,10,8,8,8,6,0,0,1,7,6,6,9,2,1,10,2,11,2,1,8,10,0,0,0,0,0,0,0,0,0,0,0,0,0,0,0,0,0,0,0,0,0,0,0,0,0,0,0,0],"split_type":[0,0,0,0,0,0,0,0,0,0,0,0,0,0,0,0,0,0,0,0,0,0,0,0,0,0,0,0,0,0,0,0,0,0,0,0,0,0,0,0,0,0,0,0,0,0,0,0,0,0,0,0,0,0,0,0,0,0,0],"sum_hessian":[2.333E3,1.176E3,1.157E3,4.61E2,7.15E2,6.6E2,4.97E2,1.92E2,2.69E2,3.3E2,3.85E2,2.78E2,3.82E2,3.41E2,1.56E2,7.2E1,1.2E2,1.2E2,1.49E2,1.65E2,1.65E2,1.93E2,1.92E2,1.19E2,1.59E2,1.55E2,2.27E2,2.1E2,1.31E2,1.29E2,2.7E1,1.11E2,9E0,1.42E2,7E0,6.5E1,1E2,1.02E2,6.3E1,1.42E2,5.1E1,5.8E1,1.34E2,6.2E1,5.7E1,4.6E1,1.13E2,1.14E2,4.1E1,2.02E2,2.5E1,7.6E1,1.34E2,1.28E2,3E0,8.5E1,4.4E1,5E0,2.2E1],"tree_param":{"num_deleted":"0","num_feature":"29","num_nodes":"59","size_leaf_vector":"1"}},{"base_weights":[-7.782201E-2,-4.6704574E0,4.686818E0,-7.9797006E0,-2.5096338E0,2.40039E0,7.0090346E0,-9.8985195E0,-6.594739E0,-3.7579563E0,-1.149464E0,1.3165066E0,3.4142852E0,5.806815E0,8.931959E0,-1.1001024E-1,-8.9823686E-2,-7.164507E0,-5.879191E0,-4.5739594E0,-2.9847188E0,-2.1546538E0,-5.6616735E-1,1.7279954E0,6.564697E-1,3.8139753E0,2.326971E0,4.9874516E0,6.4298263E0,8.16592E0,1.12632625E-1,-7.330107E-2,-5.441601E-2,-3.232608E-2,-5.982034E-2,-5.0689597E-2,-4.0499914E-2,-3.3173647E-2,-2.3643652E-2,-2.388487E-2,-3.7690427E-3,-8.060297E-4,-1.284301E-2,-4.734823E-3,1.8242834E-2,1.3933592E-2,1.7505811E-4,3.9070264E-2,1.7071059E-2,2.4417566E-2,2.7964477E-4,5.2894834E-2,3.899787E-2,5.62058E-2,6.840428E-2,5.619474E-2,8.493016E-2],"categories":[],"categories_nodes":[],"categories_segments":[],"categories_sizes":[],"default_left":[0,0,0,0,0,0,0,0,0,0,0,0,0,0,0,0,0,0,0,0,0,0,0,0,0,0,0,0,0,0,0,0,0,0,0,0,0,0,0,0,0,0,0,0,0,0,0,0,0,0,0,0,0,0,0,0,0],"id":13,"left_children":[1,3,5,7,9,11,13,15,17,19,21,23,25,27,29,-1,-1,31,33,35,37,39,41,43,45,47,49,51,53,55,-1,-1,-1,-1,-1,-1,-1,-1,-1,-1,-1,-1,-1,-1,-1,-1,-1,-1,-1,-1,-1,-1,-1,-1,-1,-1,-1],"loss_changes":[5.1182598E4,8.495398E3,6.077633E3,1.1820938E3,1.2210952E3,6.324197E2,1.2620645E3,9.614844E1,6.909766E1,2.2283447E2,2.0196237E2,7.521774E1,1.2045288E2,1.4698633E2,2.9361523E2,0E0,0E0,1.347168E0,1.4580566E1,2.5503662E1,3.2034546E1,5.161682E1,7.682273E1,3.7670715E1,5.1627563E1,3.5311035E1,2.158783E1,3.0029053E1,2.5766113E1,8.996094E1,0E0,0E0,0E0,0E0,0E0,0E0,0E0,0E0,0E0,0E0,0E0,0E0,0E0,0E0,0E0,0E0,0E0,0E0,0E0,0E0,0E0,0E0,0E0,0E0,0E0,0E0,0E0],"parents":[2147483647,0,0,1,1,2,2,3,3,4,4,5,5,6,6,7,7,8,8,9,9,10,10,11,11,12,12,13,13,14,14,17,17,18,18,19,19,20,20,21,21,22,22,23,23,24,24,25,25,26,26,27,27,28,28,29,29],"right_children":[2,4,6,8,10,12,14,16,18,20,22,24,26,28,30,-1,-1,32,34,36,38,40,42,44,46,48,50,52,54,56,-1,-1,-1,-1,-1,-1,-1,-1,-1,-1,-1,-1,-1,-1,-1,-1,-1,-1,-1,-1,-1,-1,-1,-1,-1,-1,-1],"split_conditions":[1.13E1,4.8E0,1.6E1,1E0,8.3E0,1.37E1,1.96E1,-8E-1,3E0,6.5E0,9.4E0,6.123234E-17,1.3E1,1.0156E0,2.33E1,-1.1001024E-1,-8.9823686E-2,1.6E1,-1.5E0,3.2E-1,5.8E-1,1.52E0,1.4E1,5E0,-9.011687E-1,9.3957E-1,4.1E1,5.1E0,1.72E1,1.0102E0,1.12632625E-1,-7.330107E-2,-5.441601E-2,-3.232608E-2,-5.982034E-2,-5.0689597E-2,-4.0499914E-2,-3.3173647E-2,-2.3643652E-2,-2.388487E-2,-3.7690427E-3,-8.060297E-4,-1.284301E-2,-4.734823E-3,1.8242834E-2,1.3933592E-2,1.7505811E-4,3.9070264E-2,1.7071059E-2,2.4417566E-2,2.7964477E-4,5.2894834E-2,3.899787E-2,5.62058E-2,6.840428E-2,5.619474E-2,8.493016E-2],"split_indices":[8,8,8,8,8,8,8,8,8,8,8,14,2,4,8,0,0,2,9,5,5,5,2,23,11,11,23,1,8,4,0,0,0,0,0,0,0,0,0,0,0,0,0,0,0,0,0,0,0,0,0,0,0,0,0,0,0],"split_type":[0,0,0,0,0,0,0,0,0,0,0,0,0,0,0,0,0,0,0,0,0,0,0,0,0,0,0,0,0,0,0,0,0,0,0,0,0,0,0,0,0,0,0,0,0,0,0,0,0,0,0,0,0,0,0,0,0],"sum_hessian":[2.337E3,1.19E3,1.147E3,4.69E2,7.21E2,5.79E2,5.68E2,1.94E2,2.75E2,3.75E2,3.46E2,2.81E2,2.98E2,3.52E2,2.16E2,8.3E1,1.11E2,1.48E2,1.27E2,1.8E2,1.95E2,1.26E2,2.2E2,1.72E2,1.09E2,2.16E2,8.2E1,1.56E2,1.96E2,1.66E2,5E1,1.32E2,1.6E1,6E0,1.21E2,8.8E1,9.2E1,1.24E2,7.1E1,1.11E2,1.5E1,1.32E2,8.8E1,7E0,1.65E2,5E1,5.9E1,2.06E2,1E1,7.8E1,4E0,1.19E2,3.7E1,7.1E1,1.25E2,2.1E1,1.45E2],"tree_param":{"num_deleted":"0","num_feature":"29","num_nodes":"57","size_leaf_vector":"1"}},{"base_weights":[-3.3475928E-2,-4.6898713E0,4.606943E0,-7.84353E0,-2.5335736E0,2.5584357E0,7.171336E0,-9.720638E0,-6.420297E0,-3.7026222E0,-1.2022471E0,1.1949829E0,3.5309727E0,5.887115E0,8.959318E0,-1.119708E-1,-8.869724E-2,-7.1369777E0,-5.8068852E0,-4.5193586E0,-2.9660838E0,-3.7801066E-1,-2.023551E0,5.5321586E-1,1.8461728E0,3.7797554E0,2.3534203E0,4.9115515E0,6.3247657E0,1.0252789E1,7.744538E0,-7.3201716E-2,-4.032761E-2,-5.0682038E-2,-6.496354E-2,-4.5765758E-2,-2.147391E-2,-1.3250629E-2,-3.1231415E-2,5.2745235E-3,-8.160016E-3,-1.7758839E-2,-3.4495294E-2,1.25222E-2,-7.6344854E-4,2.0320103E-2,-2.1966205E-3,3.082837E-2,4.0701903E-2,2.7527107E-2,9.642548E-3,5.433362E-2,3.751227E-2,6.509761E-2,4.557423E-2,8.293449E-2,1.10398225E-1,8.77279E-2,6.982343E-2],"categories":[],"categories_nodes":[],"categories_segments":[],"categories_sizes":[],"default_left":[0,0,0,0,0,0,0,0,0,0,0,0,0,0,0,0,0,0,0,0,0,0,0,0,0,0,0,0,0,0,0,0,0,0,0,0,0,0,0,0,0,0,0,0,0,0,0,0,0,0,0,0,0,0,0,0,0,0,0],"id":14,"left_children":[1,3,5,7,9,11,13,15,17,19,21,23,25,27,29,-1,-1,31,33,35,37,39,41,43,45,47,49,51,53,55,57,-1,-1,-1,-1,-1,-1,-1,-1,-1,-1,-1,-1,-1,-1,-1,-1,-1,-1,-1,-1,-1,-1,-1,-1,-1,-1,-1,-1],"loss_changes":[5.047542E4,7.9081543E3,6.1268965E3,1.199625E3,1.0751895E3,8.598657E2,1.1374785E3,1.5245703E2,7.683789E1,2.0782178E2,2.1968011E2,1.12828766E2,1.0181445E2,9.803418E1,2.5662305E2,0E0,0E0,3.8154297E1,4.333203E1,1.297876E1,4.6190674E1,6.549913E1,5.0917908E1,6.13823E1,5.2455383E1,4.988867E1,3.524698E1,3.8641113E1,3.6904297E1,6.2256836E1,2.7298828E1,0E0,0E0,0E0,0E0,0E0,0E0,0E0,0E0,0E0,0E0,0E0,0E0,0E0,0E0,0E0,0E0,0E0,0E0,0E0,0E0,0E0,0E0,0E0,0E0,0E0,0E0,0E0,0E0],"parents":[2147483647,0,0,1,1,2,2,3,3,4,4,5,5,6,6,7,7,8,8,9,9,10,10,11,11,12,12,13,13,14,14,17,17,18,18,19,19,20,20,21,21,22,22,23,23,24,24,25,25,26,26,27,27,28,28,29,29,30,30],"right_children":[2,4,6,8,10,12,14,16,18,20,22,24,26,28,30,-1,-1,32,34,36,38,40,42,44,46,48,50,52,54,56,58,-1,-1,-1,-1,-1,-1,-1,-1,-1,-1,-1,-1,-1,-1,-1,-1,-1,-1,-1,-1,-1,-1,-1,-1,-1,-1,-1,-1],"split_conditions":[1.12E1,4.8E0,1.65E1,1.2E0,8.3E0,1.36E1,1.96E1,-1E0,2.9E0,6.5E0,2.5622183E-1,1.24E1,-6.33914E-2,1.0141E0,3E0,-1.119708E-1,-8.869724E-2,6.1E0,7.697177E-1,1.08E1,1.7E1,9E0,7.4E-1,4.3E0,5.2766836E-1,1.0127E0,-8.857249E-1,-6.474428E-1,-3.2003924E-1,2.12E1,3E0,-7.3201716E-2,-4.032761E-2,-5.0682038E-2,-6.496354E-2,-4.5765758E-2,-2.147391E-2,-1.3250629E-2,-3.1231415E-2,5.2745235E-3,-8.160016E-3,-1.7758839E-2,-3.4495294E-2,1.25222E-2,-7.6344854E-4,2.0320103E-2,-2.1966205E-3,3.082837E-2,4.0701903E-2,2.7527107E-2,9.642548E-3,5.433362E-2,3.751227E-2,6.509761E-2,4.557423E-2,8.293449E-2,1.10398225E-1,8.77279E-2,6.982343E-2],"split_indices":[8,8,8,8,8,8,8,8,8,8,12,8,12,4,0,0,0,1,12,7,22,2,6,1,12,4,11,12,12,8,1,0,0,0,0,0,0,0,0,0,0,0,0,0,0,0,0,0,0,0,0,0,0,0,0,0,0,0,0],"split_type":[0,0,0,0,0,0,0,0,0,0,0,0,0,0,0,0,0,0,0,0,0,0,0,0,0,0,0,0,0,0,0,0,0,0,0,0,0,0,0,0,0,0,0,0,0,0,0,0,0,0,0,0,0,0,0,0,0,0,0],"sum_hessian":[2.334E3,1.165E3,1.169E3,4.72E2,6.93E2,6.51E2,5.18E2,2.01E2,2.71E2,3.68E2,3.25E2,2.72E2,3.79E2,3.04E2,2.14E2,6.9E1,1.32E2,1.2E2,1.51E2,1.72E2,1.96E2,1.63E2,1.62E2,1.38E2,1.34E2,3.11E2,6.8E1,9.8E1,2.06E2,1E2,1.14E2,1.12E2,8E0,7.7E1,7.4E1,1.67E2,5E0,1.8E1,1.78E2,5.3E1,1.1E2,1.4E2,2.2E1,6.5E1,7.3E1,1.23E2,1.1E1,9.5E1,2.16E2,5.2E1,1.6E1,6.5E1,3.3E1,1.84E2,2.2E1,3.2E1,6.8E1,4.4E1,7E1],"tree_param":{"num_deleted":"0","num_feature":"29","num_nodes":"59","size_leaf_vector":"1"}},{"base_weights":[4.3700904E-2,-4.707675E0,4.46676E0,-7.687913E0,-2.5499222E0,2.3792202E0,7.026078E0,-9.366973E0,-6.336759E0,-3.7895813E0,-1.3059373E0,9.9912745E-1,3.2896097E0,6.0239115E0,9.361687E0,-1.04791254E-1,-8.489086E0,-6.9015865E0,-5.6571765E0,-4.4093986E0,-3.122211E0,-4.5510482E-2,-1.7786481E0,1.2819822E0,-4.0998423E-1,2.6254528E0,3.7462783E0,5.4649076E0,6.9638677E0,1.0713507E-1,8.072753E0,-8.665738E-2,-4.898172E-2,-6.992646E-2,-4.1712172E-2,-5.7854503E-2,-2.6540687E-2,-3.6257382E-2,-4.8645794E-2,-2.7543167E-2,-3.8314085E-2,5.873638E-3,-1.1081083E-2,-1.566033E-2,-3.596188E-2,8.894443E-3,1.9482274E-2,1.0320663E-3,-1.352843E-2,2.9517183E-2,1.5214226E-2,4.0678214E-2,2.5107838E-2,5.7340097E-2,4.0775962E-2,7.0580564E-2,3.6987137E-2,8.218996E-2,2.9950311E-2],"categories":[],"categories_nodes":[],"categories_segments":[],"categories_sizes":[],"default_left":[0,0,0,0,0,0,0,0,0,0,0,0,0,0,0,0,0,0,0,0,0,0,0,0,0,0,0,0,0,0,0,0,0,0,0,0,0,0,0,0,0,0,0,0,0,0,0,0,0,0,0,0,0,0,0,0,0,0,0],"id":15,"left_children":[1,3,5,7,9,11,13,15,17,19,21,23,25,27,29,-1,31,33,35,37,39,41,43,45,47,49,51,53,55,-1,57,-1,-1,-1,-1,-1,-1,-1,-1,-1,-1,-1,-1,-1,-1,-1,-1,-1,-1,-1,-1,-1,-1,-1,-1,-1,-1,-1,-1],"loss_changes":[4.8735207E4,7.1688027E3,6.3989004E3,1.0030781E3,9.969175E2,8.2929224E2,1.2036875E3,1.1124609E2,6.0652344E1,1.1991553E2,1.9397314E2,1.0623489E2,1.10543945E2,1.6036816E2,1.9041797E2,0E0,3.295215E1,4.2753906E0,3.1953613E1,4.0726562E1,3.0534058E1,6.122712E1,8.543738E1,5.578076E1,2.2038582E1,5.48562E1,8.208887E1,6.635596E1,1.5259277E1,0E0,3.812451E1,0E0,0E0,0E0,0E0,0E0,0E0,0E0,0E0,0E0,0E0,0E0,0E0,0E0,0E0,0E0,0E0,0E0,0E0,0E0,0E0,0E0,0E0,0E0,0E0,0E0,0E0,0E0,0E0],"parents":[2147483647,0,0,1,1,2,2,3,3,4,4,5,5,6,6,7,7,8,8,9,9,10,10,11,11,12,12,13,13,14,14,16,16,17,17,18,18,19,19,20,20,21,21,22,22,23,23,24,24,25,25,26,26,27,27,28,28,30,30],"right_children":[2,4,6,8,10,12,14,16,18,20,22,24,26,28,30,-1,32,34,36,38,40,42,44,46,48,50,52,54,56,-1,58,-1,-1,-1,-1,-1,-1,-1,-1,-1,-1,-1,-1,-1,-1,-1,-1,-1,-1,-1,-1,-1,-1,-1,-1,-1,-1,-1,-1],"split_conditions":[1.1E1,4.8E0,1.64E1,1.5E0,8E0,1.32E1,2.05E1,-6E-1,3.3E0,6.5E0,-9.768277E-2,4.2180607E-1,1.45E1,1.86E1,3E0,-1.04791254E-1,1.6E1,6.9E0,9.8E0,2.1E0,2.3E-1,1.2E1,7.4E-1,1.25E1,8E0,1.4E1,-2.5881904E-1,4.9E0,1.7E1,1.0713507E-1,-2.6659942E-1,-8.665738E-2,-4.898172E-2,-6.992646E-2,-4.1712172E-2,-5.7854503E-2,-2.6540687E-2,-3.6257382E-2,-4.8645794E-2,-2.7543167E-2,-3.8314085E-2,5.873638E-3,-1.1081083E-2,-1.566033E-2,-3.596188E-2,8.894443E-3,1.9482274E-2,1.0320663E-3,-1.352843E-2,2.9517183E-2,1.5214226E-2,4.0678214E-2,2.5107838E-2,5.7340097E-2,4.0775962E-2,7.0580564E-2,3.6987137E-2,8.218996E-2,2.9950311E-2],"split_indices":[8,8,8,8,8,8,8,8,8,8,12,12,8,8,0,0,2,1,7,9,6,2,6,8,19,2,18,1,2,0,12,0,0,0,0,0,0,0,0,0,0,0,0,0,0,0,0,0,0,0,0,0,0,0,0,0,0,0,0],"split_type":[0,0,0,0,0,0,0,0,0,0,0,0,0,0,0,0,0,0,0,0,0,0,0,0,0,0,0,0,0,0,0,0,0,0,0,0,0,0,0,0,0,0,0,0,0,0,0,0,0,0,0,0,0,0,0,0,0,0,0],"sum_hessian":[2.317E3,1.117E3,1.2E3,4.68E2,6.49E2,6.62E2,5.38E2,2.06E2,2.62E2,3.24E2,3.25E2,2.64E2,3.98E2,3.79E2,1.59E2,8.6E1,1.2E2,1.38E2,1.24E2,1.65E2,1.59E2,8.9E1,2.36E2,2.2E2,4.4E1,1.65E2,2.33E2,2.42E2,1.37E2,7.4E1,8.5E1,1.13E2,7E0,1.32E2,6E0,1.18E2,6E0,6.4E1,1.01E2,1.08E2,5.1E1,5.6E1,3.3E1,2.13E2,2.3E1,1.4E2,8E1,2.9E1,1.5E1,1.26E2,3.9E1,1.83E2,5E1,2E2,4.2E1,1.32E2,5E0,8.2E1,3E0],"tree_param":{"num_deleted":"0","num_feature":"29","num_nodes":"59","size_leaf_vector":"1"}},{"base_weights":[-1.863533E-2,-4.455908E0,4.4878387E0,-7.603063E0,-2.31977E0,2.5337992E0,6.972407E0,-9.444714E0,-6.3655334E0,-3.6008039E0,-1.1966772E0,1.3036811E0,3.4279664E0,5.7240305E0,8.724522E0,-1.03809506E-1,-8.6700015E-2,-7.1180754E0,-5.7101955E0,-4.2948513E0,-2.9053671E0,-3.5149205E-1,-1.9954908E0,1.5417653E0,-4.78745E-1,3.816107E0,2.3102417E0,4.788909E0,6.298318E0,8.114053E0,1.0601011E-1,-7.363754E-2,-3.8040962E-2,-4.3401077E-2,-5.98378E-2,-4.81738E-2,-3.5806514E-2,-2.6031755E-2,-3.552388E-2,-1.3464679E-2,1.085087E-3,-1.6677208E-2,-3.124009E-2,9.510952E-3,2.0179454E-2,3.918867E-3,-1.1461519E-2,4.5947388E-2,3.4510035E-2,2.6878208E-2,1.3488817E-2,5.1123593E-2,3.5057094E-2,6.4576484E-2,4.235416E-2,6.741719E-2,8.700595E-2],"categories":[],"categories_nodes":[],"categories_segments":[],"categories_sizes":[],"default_left":[0,0,0,0,0,0,0,0,0,0,0,0,0,0,0,0,0,0,0,0,0,0,0,0,0,0,0,0,0,0,0,0,0,0,0,0,0,0,0,0,0,0,0,0,0,0,0,0,0,0,0,0,0,0,0,0,0],"id":16,"left_children":[1,3,5,7,9,11,13,15,17,19,21,23,25,27,29,-1,-1,31,33,35,37,39,41,43,45,47,49,51,53,55,-1,-1,-1,-1,-1,-1,-1,-1,-1,-1,-1,-1,-1,-1,-1,-1,-1,-1,-1,-1,-1,-1,-1,-1,-1,-1,-1],"loss_changes":[4.6471758E4,7.8537207E3,5.579135E3,1.01631055E3,1.0008762E3,7.067134E2,1.0575762E3,4.444922E1,9.9118164E1,1.4415137E2,2.515683E2,1.1712109E2,1.528252E2,1.2930176E2,1.515293E2,0E0,0E0,7.5899414E1,3.222119E1,4.199463E1,2.2593994E1,8.402711E1,6.533057E1,6.58501E1,1.9699757E1,6.1800537E1,3.1906738E1,3.0191895E1,3.1399902E1,7.0197266E1,0E0,0E0,0E0,0E0,0E0,0E0,0E0,0E0,0E0,0E0,0E0,0E0,0E0,0E0,0E0,0E0,0E0,0E0,0E0,0E0,0E0,0E0,0E0,0E0,0E0,0E0,0E0],"parents":[2147483647,0,0,1,1,2,2,3,3,4,4,5,5,6,6,7,7,8,8,9,9,10,10,11,11,12,12,13,13,14,14,17,17,18,18,19,19,20,20,21,21,22,22,23,23,24,24,25,25,26,26,27,27,28,28,29,29],"right_children":[2,4,6,8,10,12,14,16,18,20,22,24,26,28,30,-1,-1,32,34,36,38,40,42,44,46,48,50,52,54,56,-1,-1,-1,-1,-1,-1,-1,-1,-1,-1,-1,-1,-1,-1,-1,-1,-1,-1,-1,-1,-1,-1,-1,-1,-1,-1,-1],"split_conditions":[1.13E1,4.8E0,1.65E1,1E0,8E0,1.37E1,1.96E1,-8E-1,2.9E0,6.5E0,2.6037648E-1,4.2180607E-1,1.3E1,1.0151E0,2.33E1,-1.03809506E-1,-8.6700015E-2,6.1E0,-7E-1,3.7E-1,2.3E-1,9.4E0,1.8E1,1.25E1,2.9E-1,-8.1801987E-1,-2.83139E-1,5.1E0,-3.2003924E-1,1.0142E0,1.0601011E-1,-7.363754E-2,-3.8040962E-2,-4.3401077E-2,-5.98378E-2,-4.81738E-2,-3.5806514E-2,-2.6031755E-2,-3.552388E-2,-1.3464679E-2,1.085087E-3,-1.6677208E-2,-3.124009E-2,9.510952E-3,2.0179454E-2,3.918867E-3,-1.1461519E-2,4.5947388E-2,3.4510035E-2,2.6878208E-2,1.3488817E-2,5.1123593E-2,3.5057094E-2,6.4576484E-2,4.235416E-2,6.741719E-2,8.700595E-2],"split_indices":[8,8,8,8,8,8,8,8,8,8,12,12,2,4,8,0,0,1,9,5,6,8,2,8,5,12,12,1,12,4,0,0,0,0,0,0,0,0,0,0,0,0,0,0,0,0,0,0,0,0,0,0,0,0,0,0,0],"split_type":[0,0,0,0,0,0,0,0,0,0,0,0,0,0,0,0,0,0,0,0,0,0,0,0,0,0,0,0,0,0,0,0,0,0,0,0,0,0,0,0,0,0,0,0,0,0,0,0,0,0,0,0,0,0,0,0,0],"sum_hessian":[2.322E3,1.17E3,1.152E3,4.72E2,6.98E2,6.46E2,5.06E2,1.87E2,2.85E2,3.25E2,3.73E2,2.73E2,3.73E2,2.98E2,2.08E2,7.9E1,1.08E2,1.28E2,1.57E2,1.6E2,1.65E2,1.82E2,1.91E2,2.41E2,3.2E1,2.75E2,9.8E1,1.17E2,1.81E2,1.61E2,4.7E1,1.18E2,1E1,2.9E1,1.28E2,8.9E1,7.1E1,1.16E2,4.9E1,5.7E1,1.25E2,1.5E2,4.1E1,1.09E2,1.32E2,1.4E1,1.8E1,8.4E1,1.91E2,6.9E1,2.9E1,9.1E1,2.6E1,1.66E2,1.5E1,5.2E1,1.09E2],"tree_param":{"num_deleted":"0","num_feature":"29","num_nodes":"57","size_leaf_vector":"1"}},{"base_weights":[3.9992444E-2,-4.5270257E0,4.4988747E0,-7.4714985E0,-2.327249E0,2.4728706E0,6.846114E0,-9.489691E0,-6.2386928E0,-3.5914054E0,-1.2368876E0,1.2273263E0,3.3999605E0,5.82147E0,9.265936E0,-1.06048755E-1,-8.595486E0,-6.9496512E0,-5.514615E0,-4.4037905E0,-2.8605366E0,-2.1012049E0,-5.3958446E-1,7.121051E-1,1.7403646E0,4.388773E0,3.096516E0,5.288281E0,6.810673E0,7.9192543E0,1.04348734E-1,-8.766393E-2,-5.7303414E-2,-7.05004E-2,-3.8487308E-2,-3.1727135E-2,-5.6675956E-2,-4.5222916E-2,-1.441148E-2,-2.999258E-2,-4.143008E-3,-2.4497733E-2,-1.3088739E-3,-8.089542E-3,7.428612E-3,9.795712E-3,-4.2005465E-3,9.857048E-3,2.114016E-2,3.6324807E-2,5.038189E-2,3.4976576E-2,2.5786052E-2,4.8817437E-2,6.15215E-2,5.5653844E-2,7.348674E-2,3.275521E-2,8.121913E-2],"categories":[],"categories_nodes":[],"categories_segments":[],"categories_sizes":[],"default_left":[0,0,0,0,0,0,0,0,0,0,0,0,0,0,0,0,0,0,0,0,0,0,0,0,0,0,0,0,0,0,0,0,0,0,0,0,0,0,0,0,0,0,0,0,0,0,0,0,0,0,0,0,0,0,0,0,0,0,0],"id":17,"left_children":[1,3,5,7,9,11,13,15,17,19,21,23,25,27,29,-1,31,33,35,37,39,41,43,45,47,49,51,53,55,57,-1,-1,-1,-1,-1,-1,-1,-1,-1,-1,-1,-1,-1,-1,-1,-1,-1,-1,-1,-1,-1,-1,-1,-1,-1,-1,-1,-1,-1],"loss_changes":[4.756983E4,7.456299E3,5.60316E3,1.1658281E3,9.075676E2,7.297742E2,1.3008145E3,9.141016E1,1.1949902E2,1.683628E2,2.1376276E2,7.0677E1,9.487988E1,1.6688965E2,1.6897266E2,0E0,1.2006836E0,1.9093262E1,3.7740234E1,4.3090332E1,5.4068604E1,1.0862097E2,6.935252E1,4.2255806E1,3.5955505E1,2.1597168E1,4.896045E1,5.8769043E1,4.6245605E1,4.6603027E1,0E0,0E0,0E0,0E0,0E0,0E0,0E0,0E0,0E0,0E0,0E0,0E0,0E0,0E0,0E0,0E0,0E0,0E0,0E0,0E0,0E0,0E0,0E0,0E0,0E0,0E0,0E0,0E0,0E0],"parents":[2147483647,0,0,1,1,2,2,3,3,4,4,5,5,6,6,7,7,8,8,9,9,10,10,11,11,12,12,13,13,14,14,16,16,17,17,18,18,19,19,20,20,21,21,22,22,23,23,24,24,25,25,26,26,27,27,28,28,29,29],"right_children":[2,4,6,8,10,12,14,16,18,20,22,24,26,28,30,-1,32,34,36,38,40,42,44,46,48,50,52,54,56,58,-1,-1,-1,-1,-1,-1,-1,-1,-1,-1,-1,-1,-1,-1,-1,-1,-1,-1,-1,-1,-1,-1,-1,-1,-1,-1,-1,-1,-1],"split_conditions":[1.12E1,5.1E0,1.63E1,1E0,8E0,1.36E1,2.05E1,-8E-1,3E0,9.4E0,9.4E0,1.24E1,2.7E0,1.86E1,1.04E1,-1.06048755E-1,5.3E0,7.4E0,-1.7E0,5.3E0,9.3E-1,1.56E0,1.83E0,7.0710677E-1,1.0127E0,1.51E1,-5E-1,1.0195E0,1.0138E0,1.0084E0,1.04348734E-1,-8.766393E-2,-5.7303414E-2,-7.05004E-2,-3.8487308E-2,-3.1727135E-2,-5.6675956E-2,-4.5222916E-2,-1.441148E-2,-2.999258E-2,-4.143008E-3,-2.4497733E-2,-1.3088739E-3,-8.089542E-3,7.428612E-3,9.795712E-3,-4.2005465E-3,9.857048E-3,2.114016E-2,3.6324807E-2,5.038189E-2,3.4976576E-2,2.5786052E-2,4.8817437E-2,6.15215E-2,5.5653844E-2,7.348674E-2,3.275521E-2,8.121913E-2],"split_indices":[8,8,8,8,8,8,8,8,8,10,8,8,1,8,7,0,10,1,9,7,3,5,5,18,4,8,18,4,4,4,0,0,0,0,0,0,0,0,0,0,0,0,0,0,0,0,0,0,0,0,0,0,0,0,0,0,0,0,0],"split_type":[0,0,0,0,0,0,0,0,0,0,0,0,0,0,0,0,0,0,0,0,0,0,0,0,0,0,0,0,0,0,0,0,0,0,0,0,0,0,0,0,0,0,0,0,0,0,0,0,0,0,0,0,0,0,0,0,0,0,0],"sum_hessian":[2.334E3,1.153E3,1.181E3,4.92E2,6.61E2,6.35E2,5.46E2,1.84E2,3.08E2,3.05E2,3.56E2,2.72E2,3.63E2,3.86E2,1.6E2,7.7E1,1.07E2,1.51E2,1.57E2,1.42E2,1.63E2,1.58E2,1.98E2,1.37E2,1.35E2,8.2E1,2.81E2,2.55E2,1.31E2,7.8E1,8.2E1,9.9E1,8E0,1.45E2,6E0,1.1E1,1.46E2,1.36E2,6E0,1.54E2,9E0,1.34E2,2.4E1,1.64E2,3.4E1,1.11E2,2.6E1,4.6E1,8.9E1,4.1E1,4.1E1,1.55E2,1.26E2,1.78E2,7.7E1,4.3E1,8.8E1,4E0,7.4E1],"tree_param":{"num_deleted":"0","num_feature":"29","num_nodes":"59","size_leaf_vector":"1"}},{"base_weights":[1.169922E-3,-4.4852366E0,4.4226956E0,-7.3413296E0,-2.2926393E0,2.5011487E0,6.9367685E0,-9.326526E0,-6.091815E0,-3.5057182E0,-1.2727978E0,1.0342965E0,3.205977E0,5.647877E0,8.584569E0,-1.0408007E-1,-8.424803E-2,-6.750469E0,-5.384715E0,-4.1752143E0,-2.9285405E0,-4.2439622E-1,-2.127786E0,1.2785909E0,-1.9261873E-1,2.564674E0,3.8187163E0,4.536553E0,6.145864E0,9.73671E0,7.569007E0,-6.813436E-2,-3.4535885E-2,-5.6213297E-2,-3.8548045E-2,-3.4010645E-2,-4.61277E-2,-3.307816E-2,-2.4666747E-2,5.026726E-3,-8.554091E-3,-2.592477E-2,-1.5757212E-2,9.565739E-3,1.8558007E-2,9.234745E-3,-1.00011295E-2,1.7246744E-2,2.8697066E-2,4.9022615E-2,3.3269454E-2,3.6210176E-2,5.075013E-2,6.31203E-2,4.3629978E-2,8.881103E-2,1.12742126E-1,7.7243105E-2,3.2624125E-2],"categories":[],"categories_nodes":[],"categories_segments":[],"categories_sizes":[],"default_left":[0,0,0,0,0,0,0,0,0,0,0,0,0,0,0,0,0,0,0,0,0,0,0,0,0,0,0,0,0,0,0,0,0,0,0,0,0,0,0,0,0,0,0,0,0,0,0,0,0,0,0,0,0,0,0,0,0,0,0],"id":18,"left_children":[1,3,5,7,9,11,13,15,17,19,21,23,25,27,29,-1,-1,31,33,35,37,39,41,43,45,47,49,51,53,55,57,-1,-1,-1,-1,-1,-1,-1,-1,-1,-1,-1,-1,-1,-1,-1,-1,-1,-1,-1,-1,-1,-1,-1,-1,-1,-1,-1,-1],"loss_changes":[4.623949E4,7.2276445E3,5.6531934E3,1.1868711E3,8.066294E2,6.8585693E2,1.029002E3,9.766992E1,1.0728027E2,1.0260132E2,2.585254E2,6.569568E1,1.6639648E2,1.304375E2,1.8315723E2,0E0,0E0,8.034668E0,3.3492676E1,2.9578125E1,1.9991821E1,7.278899E1,4.116223E1,3.1772156E1,3.427708E1,5.172998E1,1.0435913E2,2.660083E1,2.9458496E1,2.940625E1,5.529883E1,0E0,0E0,0E0,0E0,0E0,0E0,0E0,0E0,0E0,0E0,0E0,0E0,0E0,0E0,0E0,0E0,0E0,0E0,0E0,0E0,0E0,0E0,0E0,0E0,0E0,0E0,0E0,0E0],"parents":[2147483647,0,0,1,1,2,2,3,3,4,4,5,5,6,6,7,7,8,8,9,9,10,10,11,11,12,12,13,13,14,14,17,17,18,18,19,19,20,20,21,21,22,22,23,23,24,24,25,25,26,26,27,27,28,28,29,29,30,30],"right_children":[2,4,6,8,10,12,14,16,18,20,22,24,26,28,30,-1,-1,32,34,36,38,40,42,44,46,48,50,52,54,56,58,-1,-1,-1,-1,-1,-1,-1,-1,-1,-1,-1,-1,-1,-1,-1,-1,-1,-1,-1,-1,-1,-1,-1,-1,-1,-1,-1,-1],"split_conditions":[1.12E1,5.1E0,1.65E1,1.2E0,8E0,1.31E1,1.96E1,-8E-1,3.3E0,6.5E0,3.38313E-1,4.2180607E-1,1.47E1,1.0141E0,3E0,-1.0408007E-1,-8.424803E-2,7.3E0,5.9E0,2.1E0,2.6E1,3.3E0,6.9E0,1.25E1,2.8E-1,1.0108E0,-8.3966464E-1,7.6E-1,-3.2003924E-1,2.33E1,6.1E0,-6.813436E-2,-3.4535885E-2,-5.6213297E-2,-3.8548045E-2,-3.4010645E-2,-4.61277E-2,-3.307816E-2,-2.4666747E-2,5.026726E-3,-8.554091E-3,-2.592477E-2,-1.5757212E-2,9.565739E-3,1.8558007E-2,9.234745E-3,-1.00011295E-2,1.7246744E-2,2.8697066E-2,4.9022615E-2,3.3269454E-2,3.6210176E-2,5.075013E-2,6.31203E-2,4.3629978E-2,8.881103E-2,1.12742126E-1,7.7243105E-2,3.2624125E-2],"split_indices":[8,8,8,8,8,8,8,8,8,8,12,12,8,4,0,0,0,1,7,9,23,1,9,8,5,4,12,3,12,8,1,0,0,0,0,0,0,0,0,0,0,0,0,0,0,0,0,0,0,0,0,0,0,0,0,0,0,0,0],"split_type":[0,0,0,0,0,0,0,0,0,0,0,0,0,0,0,0,0,0,0,0,0,0,0,0,0,0,0,0,0,0,0,0,0,0,0,0,0,0,0,0,0,0,0,0,0,0,0,0,0,0,0,0,0,0,0,0,0,0,0],"sum_hessian":[2.329E3,1.156E3,1.173E3,5.01E2,6.55E2,6.66E2,5.07E2,1.91E2,3.1E2,2.98E2,3.57E2,2.17E2,4.49E2,2.87E2,2.2E2,8.2E1,1.09E2,1.56E2,1.54E2,1.35E2,1.63E2,1.8E2,1.77E2,1.81E2,3.6E1,2.22E2,2.27E2,9.2E1,1.95E2,9.9E1,1.21E2,1.52E2,4E0,1.31E2,2.3E1,5.2E1,8.3E1,8.6E1,7.7E1,5.7E1,1.23E2,9.4E1,8.3E1,1.18E2,6.3E1,1.5E1,2.1E1,6.1E1,1.61E2,6.8E1,1.59E2,3.7E1,5.5E1,1.76E2,1.9E1,6.8E1,3.1E1,1.16E2,5E0],"tree_param":{"num_deleted":"0","num_feature":"29","num_nodes":"59","size_leaf_vector":"1"}},{"base_weights":[4.3431748E-2,-4.3805485E0,4.3846283E0,-6.849751E0,-1.9291645E0,2.2496529E0,6.6007752E0,-8.967949E0,-5.6573715E0,-2.6286893E0,-6.2646866E-1,1.1464834E0,3.1792684E0,5.610219E0,9.054427E0,-1.0164347E-1,-8.271562E0,-6.68561E0,-5.0517116E0,-2.1070704E0,-3.163827E0,8.207652E-2,-1.4413476E0,1.6462101E0,3.2856143E-1,3.2881794E0,1.1334972E0,4.772844E0,6.288235E0,8.151476E0,1.0740966E-1,-8.406157E-2,-5.4420985E-2,-6.832481E-2,-4.6147127E-2,-5.3021744E-2,-4.080253E-2,-7.501663E-5,-2.2572743E-2,-4.1660573E-2,-2.9165443E-2,-1.3460334E-2,3.405424E-3,-2.9049985E-2,-1.106874E-2,2.341246E-2,1.2582781E-2,1.1699396E-2,-2.1861466E-3,3.5763297E-2,2.4352597E-2,-6.416553E-3,1.8732985E-2,4.324725E-2,5.5988465E-2,5.7471607E-2,7.27209E-2,4.730663E-2,8.4423415E-2],"categories":[],"categories_nodes":[],"categories_segments":[],"categories_sizes":[],"default_left":[0,0,0,0,0,0,0,0,0,0,0,0,0,0,0,0,0,0,0,0,0,0,0,0,0,0,0,0,0,0,0,0,0,0,0,0,0,0,0,0,0,0,0,0,0,0,0,0,0,0,0,0,0,0,0,0,0,0,0],"id":19,"left_children":[1,3,5,7,9,11,13,15,17,19,21,23,25,27,29,-1,31,33,35,37,39,41,43,45,47,49,51,53,55,57,-1,-1,-1,-1,-1,-1,-1,-1,-1,-1,-1,-1,-1,-1,-1,-1,-1,-1,-1,-1,-1,-1,-1,-1,-1,-1,-1,-1,-1],"loss_changes":[4.4710094E4,6.9649746E3,5.5436836E3,1.3975527E3,5.26563E2,6.112366E2,1.3476914E3,8.487695E1,1.9547559E2,9.8041504E1,1.1803947E2,1.1207315E2,6.824292E1,2.0336426E2,1.6030664E2,0E0,4.2802734E0,8.08252E0,3.509326E1,6.0937073E1,3.2742676E1,4.096078E1,4.2890854E1,4.2800262E1,4.915139E1,6.6386475E1,2.4963867E1,4.4751953E1,7.667969E1,6.918945E1,0E0,0E0,0E0,0E0,0E0,0E0,0E0,0E0,0E0,0E0,0E0,0E0,0E0,0E0,0E0,0E0,0E0,0E0,0E0,0E0,0E0,0E0,0E0,0E0,0E0,0E0,0E0,0E0,0E0],"parents":[2147483647,0,0,1,1,2,2,3,3,4,4,5,5,6,6,7,7,8,8,9,9,10,10,11,11,12,12,13,13,14,14,16,16,17,17,18,18,19,19,20,20,21,21,22,22,23,23,24,24,25,25,26,26,27,27,28,28,29,29],"right_children":[2,4,6,8,10,12,14,16,18,20,22,24,26,28,30,-1,32,34,36,38,40,42,44,46,48,50,52,54,56,58,-1,-1,-1,-1,-1,-1,-1,-1,-1,-1,-1,-1,-1,-1,-1,-1,-1,-1,-1,-1,-1,-1,-1,-1,-1,-1,-1,-1,-1],"split_conditions":[1.12E1,6.2E0,1.6E1,1.5E0,9.3E0,1.36E1,2.05E1,-1E0,3.3E0,5.8133006E-1,2.2701082E-1,2.2576263E-2,9.1812146E-1,1.0156E0,2.33E1,-1.0164347E-1,1.6E1,6.1E0,4.8E0,5E-1,2.3E1,1.0047E0,1.002E0,9E0,-9.011687E-1,1.3E1,1.41E1,1.84E1,1.87E1,1.01E0,1.0740966E-1,-8.406157E-2,-5.4420985E-2,-6.832481E-2,-4.6147127E-2,-5.3021744E-2,-4.080253E-2,-7.501663E-5,-2.2572743E-2,-4.1660573E-2,-2.9165443E-2,-1.3460334E-2,3.405424E-3,-2.9049985E-2,-1.106874E-2,2.341246E-2,1.2582781E-2,1.1699396E-2,-2.1861466E-3,3.5763297E-2,2.4352597E-2,-6.416553E-3,1.8732985E-2,4.324725E-2,5.5988465E-2,5.7471607E-2,7.27209E-2,4.730663E-2,8.4423415E-2],"split_indices":[8,8,8,8,8,8,8,8,8,12,12,12,11,4,8,0,2,1,7,9,22,4,4,2,11,2,8,8,8,4,0,0,0,0,0,0,0,0,0,0,0,0,0,0,0,0,0,0,0,0,0,0,0,0,0,0,0,0,0],"split_type":[0,0,0,0,0,0,0,0,0,0,0,0,0,0,0,0,0,0,0,0,0,0,0,0,0,0,0,0,0,0,0,0,0,0,0,0,0,0,0,0,0,0,0,0,0,0,0,0,0,0,0,0,0,0,0,0,0,0,0],"sum_hessian":[2.326E3,1.152E3,1.174E3,5.73E2,5.79E2,5.99E2,5.75E2,2.04E2,3.69E2,3.76E2,2.03E2,2.75E2,3.24E2,4.12E2,1.63E2,7E1,1.34E2,1.33E2,2.36E2,1.93E2,1.83E2,1.09E2,9.4E1,1.7E2,1.05E2,3.07E2,1.7E1,1.88E2,2.24E2,1.1E2,5.3E1,1.26E2,8E0,1.22E2,1.1E1,1.84E2,5.2E1,1.3E1,1.8E2,3.3E1,1.5E2,1.6E1,9.3E1,1.6E1,7.8E1,5.9E1,1.11E2,4.1E1,6.4E1,2.27E2,8E1,5E0,1.2E1,1.26E2,6.2E1,1.49E2,7.5E1,1E1,1E2],"tree_param":{"num_deleted":"0","num_feature":"29","num_nodes":"59","size_leaf_vector":"1"}},{"base_weights":[-4.184284E-2,-4.370084E0,4.3084316E0,-7.219907E0,-2.3060634E0,2.2492542E0,6.4935412E0,-9.133709E0,-6.0909166E0,-3.5859327E0,-1.2187581E0,1.2402092E0,3.2244627E0,5.3054085E0,8.45954E0,-1.0176686E-1,-8.323922E-2,-6.9361567E0,-5.3921633E0,-4.2322125E0,-2.8994536E0,-1.503079E-1,-1.7693388E0,1.8817089E0,7.3799366E-1,2.3840067E0,3.6658888E0,4.397647E0,5.7385716E0,7.841228E0,1.036693E-1,-7.002967E-2,-2.905566E-2,-5.584869E-2,-3.5951767E-2,-3.7021056E-2,-4.6900935E-2,-2.551923E-2,-3.370381E-2,3.2752755E-3,-8.801286E-3,-2.4007317E-2,-1.0283543E-2,1.672272E-2,3.2762695E-2,1.2469812E-2,-5.516957E-5,2.6884047E-2,1.4038403E-2,4.1144703E-2,3.0707948E-2,2.016297E-2,4.5488477E-2,5.3751156E-2,6.854949E-2,8.582514E-2,6.985017E-2],"categories":[],"categories_nodes":[],"categories_segments":[],"categories_sizes":[],"default_left":[0,0,0,0,0,0,0,0,0,0,0,0,0,0,0,0,0,0,0,0,0,0,0,0,0,0,0,0,0,0,0,0,0,0,0,0,0,0,0,0,0,0,0,0,0,0,0,0,0,0,0,0,0,0,0,0,0],"id":20,"left_children":[1,3,5,7,9,11,13,15,17,19,21,23,25,27,29,-1,-1,31,33,35,37,39,41,43,45,47,49,51,53,55,-1,-1,-1,-1,-1,-1,-1,-1,-1,-1,-1,-1,-1,-1,-1,-1,-1,-1,-1,-1,-1,-1,-1,-1,-1,-1,-1],"loss_changes":[4.4398875E4,6.9350293E3,5.275967E3,1.01453516E3,9.511843E2,5.928601E2,1.2851875E3,6.71543E1,1.4741016E2,1.2676807E2,2.1896613E2,9.500064E1,1.04923096E2,1.14518555E2,1.6809473E2,0E0,0E0,1.6092285E1,4.0296875E1,2.063379E1,1.6338013E1,4.498151E1,1.1227997E2,3.228781E1,6.446543E1,2.8338013E1,4.0036377E1,3.337915E1,5.890625E1,4.3219727E1,0E0,0E0,0E0,0E0,0E0,0E0,0E0,0E0,0E0,0E0,0E0,0E0,0E0,0E0,0E0,0E0,0E0,0E0,0E0,0E0,0E0,0E0,0E0,0E0,0E0,0E0,0E0],"parents":[2147483647,0,0,1,1,2,2,3,3,4,4,5,5,6,6,7,7,8,8,9,9,10,10,11,11,12,12,13,13,14,14,17,17,18,18,19,19,20,20,21,21,22,22,23,23,24,24,25,25,26,26,27,27,28,28,29,29],"right_children":[2,4,6,8,10,12,14,16,18,20,22,24,26,28,30,-1,-1,32,34,36,38,40,42,44,46,48,50,52,54,56,-1,-1,-1,-1,-1,-1,-1,-1,-1,-1,-1,-1,-1,-1,-1,-1,-1,-1,-1,-1,-1,-1,-1,-1,-1,-1,-1],"split_conditions":[1.12E1,5.1E0,1.6E1,1E0,8E0,1.37E1,1.96E1,-8E-1,2.9E0,6.6E0,5.265806E-2,-2.9959476E-1,1.013E0,1.0141E0,2.33E1,-1.0176686E-1,-8.323922E-2,9.997688E-1,6.9E0,7E-2,1.5E-1,1.2E1,9.4E0,1.0244E0,-8.425721E-1,5.9437615E-1,-4.7370636E-1,8E0,1.86E1,4E0,1.036693E-1,-7.002967E-2,-2.905566E-2,-5.584869E-2,-3.5951767E-2,-3.7021056E-2,-4.6900935E-2,-2.551923E-2,-3.370381E-2,3.2752755E-3,-8.801286E-3,-2.4007317E-2,-1.0283543E-2,1.672272E-2,3.2762695E-2,1.2469812E-2,-5.516957E-5,2.6884047E-2,1.4038403E-2,4.1144703E-2,3.0707948E-2,2.016297E-2,4.5488477E-2,5.3751156E-2,6.854949E-2,8.582514E-2,6.985017E-2],"split_indices":[8,8,8,8,8,8,8,8,8,8,12,12,4,4,8,0,0,12,7,6,6,2,8,4,11,11,12,23,8,0,0,0,0,0,0,0,0,0,0,0,0,0,0,0,0,0,0,0,0,0,0,0,0,0,0,0,0],"split_type":[0,0,0,0,0,0,0,0,0,0,0,0,0,0,0,0,0,0,0,0,0,0,0,0,0,0,0,0,0,0,0,0,0,0,0,0,0,0,0,0,0,0,0,0,0,0,0,0,0,0,0,0,0,0,0,0,0],"sum_hessian":[2.356E3,1.181E3,1.175E3,4.95E2,6.86E2,6.06E2,5.69E2,1.81E2,3.14E2,3.14E2,3.72E2,2.99E2,3.07E2,3.57E2,2.12E2,7.4E1,1.07E2,1.38E2,1.76E2,1.59E2,1.55E2,1.27E2,2.45E2,1.3E2,1.69E2,1.08E2,1.99E2,1.19E2,2.38E2,1.64E2,4.8E1,1.35E2,3E0,1.57E2,1.9E1,7.8E1,8.1E1,9.3E1,6.2E1,7.7E1,5E1,1.31E2,1.14E2,1.15E2,1.5E1,1E2,6.9E1,8.1E1,2.7E1,1.1E2,8.9E1,8E0,1.11E2,1.84E2,5.4E1,8.3E1,8.1E1],"tree_param":{"num_deleted":"0","num_feature":"29","num_nodes":"57","size_leaf_vector":"1"}},{"base_weights":[-1.0687007E-2,-4.3347187E0,4.354413E0,-7.285442E0,-2.2986217E0,2.9773998E0,7.6093235E0,-8.991624E0,-5.9387083E0,-3.466697E0,-1.0927941E0,1.7833929E0,4.239186E0,6.758111E0,9.925975E0,-1.0014632E-1,-8.1724815E-2,-6.6259727E0,-5.3818164E0,-4.386911E0,-2.9249377E0,-1.9460692E0,-5.599081E-1,1.0063956E0,2.5261736E0,3.4961123E0,4.7403955E0,4.892687E0,7.02371E0,1.0197691E-1,6.336342E-2,-6.935484E-2,-5.345158E-2,-3.8539402E-2,-5.7046518E-2,-2.1775622E-2,-4.4959016E-2,-2.5724249E-2,-3.6033772E-2,-2.8846277E-2,-1.4370899E-2,-2.309317E-4,-1.2454767E-2,1.2599367E-2,-2.3014513E-3,1.669948E-2,2.833168E-2,3.6979187E-2,1.9506633E-2,4.3636788E-2,5.504929E-2,1.7767169E-2,5.234208E-2,6.256655E-2,7.7066146E-2],"categories":[],"categories_nodes":[],"categories_segments":[],"categories_sizes":[],"default_left":[0,0,0,0,0,0,0,0,0,0,0,0,0,0,0,0,0,0,0,0,0,0,0,0,0,0,0,0,0,0,0,0,0,0,0,0,0,0,0,0,0,0,0,0,0,0,0,0,0,0,0,0,0,0,0],"id":21,"left_children":[1,3,5,7,9,11,13,15,17,19,21,23,25,27,29,-1,-1,31,33,35,37,39,41,43,45,47,49,51,53,-1,-1,-1,-1,-1,-1,-1,-1,-1,-1,-1,-1,-1,-1,-1,-1,-1,-1,-1,-1,-1,-1,-1,-1,-1,-1],"loss_changes":[4.384623E4,6.993586E3,5.157543E3,1.0388477E3,9.7043604E2,1.2181948E3,6.0763477E2,9.063867E1,6.609473E1,1.6142334E2,1.5416666E2,2.3950269E2,1.2971533E2,9.0288086E1,2.1511719E1,0E0,0E0,7.686035E0,5.302002E1,2.0364502E1,4.368445E1,5.8001984E1,7.786535E1,6.529031E1,5.1069702E1,4.3058228E1,4.2098633E1,2.7245178E1,6.562695E1,0E0,0E0,0E0,0E0,0E0,0E0,0E0,0E0,0E0,0E0,0E0,0E0,0E0,0E0,0E0,0E0,0E0,0E0,0E0,0E0,0E0,0E0,0E0,0E0,0E0,0E0],"parents":[2147483647,0,0,1,1,2,2,3,3,4,4,5,5,6,6,7,7,8,8,9,9,10,10,11,11,12,12,13,13,14,14,17,17,18,18,19,19,20,20,21,21,22,22,23,23,24,24,25,25,26,26,27,27,28,28],"right_children":[2,4,6,8,10,12,14,16,18,20,22,24,26,28,30,-1,-1,32,34,36,38,40,42,44,46,48,50,52,54,-1,-1,-1,-1,-1,-1,-1,-1,-1,-1,-1,-1,-1,-1,-1,-1,-1,-1,-1,-1,-1,-1,-1,-1,-1,-1],"split_conditions":[1.13E1,4.8E0,1.81E1,1.2E0,8.3E0,1.47E1,2.21E1,-8E-1,2.9E0,6.2E0,9.4E0,1.31E1,1.6E1,1.0098E0,3.5344467E-1,-1.0014632E-1,-8.1724815E-2,1.6E-1,-7E-1,-8E-1,2.3E-1,1.0087E0,5E-1,4.2180607E-1,1.0108E0,7.350337E-1,1.019E0,-9.8787266E-1,1.96E1,1.0197691E-1,6.336342E-2,-6.935484E-2,-5.345158E-2,-3.8539402E-2,-5.7046518E-2,-2.1775622E-2,-4.4959016E-2,-2.5724249E-2,-3.6033772E-2,-2.8846277E-2,-1.4370899E-2,-2.309317E-4,-1.2454767E-2,1.2599367E-2,-2.3014513E-3,1.669948E-2,2.833168E-2,3.6979187E-2,1.9506633E-2,4.3636788E-2,5.504929E-2,1.7767169E-2,5.234208E-2,6.256655E-2,7.7066146E-2],"split_indices":[8,8,8,8,8,8,8,8,8,8,8,8,8,4,11,0,0,6,9,9,6,4,18,12,4,11,4,11,8,0,0,0,0,0,0,0,0,0,0,0,0,0,0,0,0,0,0,0,0,0,0,0,0,0,0],"split_type":[0,0,0,0,0,0,0,0,0,0,0,0,0,0,0,0,0,0,0,0,0,0,0,0,0,0,0,0,0,0,0,0,0,0,0,0,0,0,0,0,0,0,0,0,0,0,0,0,0,0,0,0,0,0,0],"sum_hessian":[2.321E3,1.166E3,1.155E3,4.75E2,6.91E2,8.13E2,3.42E2,2.07E2,2.68E2,3.5E2,3.41E2,4.19E2,3.94E2,2.53E2,8.9E1,8.7E1,1.2E2,1.15E2,1.53E2,1.27E2,2.23E2,1.3E2,2.11E2,2.06E2,2.13E2,1.62E2,2.32E2,3.4E1,2.19E2,8.1E1,8E0,8.9E1,2.6E1,2.9E1,1.24E2,7E0,1.2E2,1.5E2,7.3E1,4.4E1,8.6E1,1.19E2,9.2E1,1.71E2,3.5E1,5.8E1,1.55E2,1.42E2,2E1,1.6E2,7.2E1,4E0,3E1,1.08E2,1.11E2],"tree_param":{"num_deleted":"0","num_feature":"29","num_nodes":"55","size_leaf_vector":"1"}},{"base_weights":[2.8606778E-2,-4.2140555E0,4.304248E0,-7.2000084E0,-2.2664695E0,2.5096962E0,6.6348352E0,-8.909573E0,-5.9352493E0,-3.3700986E0,-1.08538E0,1.2695094E0,3.4045048E0,5.643509E0,8.730289E0,-1.0226868E-1,-8.1496626E-2,-6.626887E0,-5.32901E0,-3.8033006E0,-2.482526E0,-5.294474E-1,-1.9207714E0,1.4436866E0,-4.636509E-1,4.2152314E0,3.024349E0,4.6641264E0,6.144672E0,7.8559933E0,1.0211911E-1,-3.6705807E-2,-6.721809E-2,-3.86443E-2,-5.6377087E-2,-3.1990025E-2,-4.1664504E-2,-2.0308532E-2,-3.3664763E-2,-1.2203736E-2,-1.1765014E-4,-1.5250148E-2,-2.9859487E-2,9.046362E-3,1.8817091E-2,-8.552845E-3,1.332267E-2,3.1501923E-2,4.69381E-2,3.3767927E-2,2.002943E-2,4.797743E-2,1.7884063E-2,5.507616E-2,7.127969E-2,2.6971394E-2,7.980301E-2],"categories":[],"categories_nodes":[],"categories_segments":[],"categories_sizes":[],"default_left":[0,0,0,0,0,0,0,0,0,0,0,0,0,0,0,0,0,0,0,0,0,0,0,0,0,0,0,0,0,0,0,0,0,0,0,0,0,0,0,0,0,0,0,0,0,0,0,0,0,0,0,0,0,0,0,0,0],"id":22,"left_children":[1,3,5,7,9,11,13,15,17,19,21,23,25,27,29,-1,-1,31,33,35,37,39,41,43,45,47,49,51,53,55,-1,-1,-1,-1,-1,-1,-1,-1,-1,-1,-1,-1,-1,-1,-1,-1,-1,-1,-1,-1,-1,-1,-1,-1,-1,-1,-1],"loss_changes":[4.2248297E4,6.7809375E3,4.8339707E3,9.4240234E2,9.200669E2,7.243032E2,9.9624414E2,1.090166E2,7.586035E1,1.3065625E2,1.58499E2,8.438736E1,1.0395264E2,1.3959668E2,1.2522949E2,0E0,0E0,8.2421875E0,4.417627E1,3.9480957E1,4.1732056E1,7.425993E1,5.2747772E1,5.7520447E1,1.9378656E1,4.5083984E1,8.737549E1,3.7254395E1,1.00421875E2,4.4743652E1,0E0,0E0,0E0,0E0,0E0,0E0,0E0,0E0,0E0,0E0,0E0,0E0,0E0,0E0,0E0,0E0,0E0,0E0,0E0,0E0,0E0,0E0,0E0,0E0,0E0,0E0,0E0],"parents":[2147483647,0,0,1,1,2,2,3,3,4,4,5,5,6,6,7,7,8,8,9,9,10,10,11,11,12,12,13,13,14,14,17,17,18,18,19,19,20,20,21,21,22,22,23,23,24,24,25,25,26,26,27,27,28,28,29,29],"right_children":[2,4,6,8,10,12,14,16,18,20,22,24,26,28,30,-1,-1,32,34,36,38,40,42,44,46,48,50,52,54,56,-1,-1,-1,-1,-1,-1,-1,-1,-1,-1,-1,-1,-1,-1,-1,-1,-1,-1,-1,-1,-1,-1,-1,-1,-1,-1,-1],"split_conditions":[1.13E1,4.8E0,1.66E1,1.2E0,8.3E0,1.37E1,2.05E1,-1E0,2.9E0,7.3E0,4.9440297E-1,5.2766836E-1,-8.3966464E-1,1.0141E0,2.33E1,-1.0226868E-1,-8.1496626E-2,-3.3E0,-7E-1,2E-2,2.3E-1,5E0,1.9E1,1.25E1,1.11E1,1.48E1,1.3E1,8.211001E-1,1.87E1,-9.8787266E-1,1.0211911E-1,-3.6705807E-2,-6.721809E-2,-3.86443E-2,-5.6377087E-2,-3.1990025E-2,-4.1664504E-2,-2.0308532E-2,-3.3664763E-2,-1.2203736E-2,-1.1765014E-4,-1.5250148E-2,-2.9859487E-2,9.046362E-3,1.8817091E-2,-8.552845E-3,1.332267E-2,3.1501923E-2,4.69381E-2,3.3767927E-2,2.002943E-2,4.797743E-2,1.7884063E-2,5.507616E-2,7.127969E-2,2.6971394E-2,7.980301E-2],"split_indices":[8,8,8,8,8,8,8,8,8,8,12,12,12,4,8,0,0,9,9,6,6,15,2,8,9,8,2,11,8,11,0,0,0,0,0,0,0,0,0,0,0,0,0,0,0,0,0,0,0,0,0,0,0,0,0,0,0],"split_type":[0,0,0,0,0,0,0,0,0,0,0,0,0,0,0,0,0,0,0,0,0,0,0,0,0,0,0,0,0,0,0,0,0,0,0,0,0,0,0,0,0,0,0,0,0,0,0,0,0,0,0,0,0,0,0,0,0],"sum_hessian":[2.327E3,1.168E3,1.159E3,4.6E2,7.08E2,6.56E2,5.03E2,1.93E2,2.67E2,3.65E2,3.43E2,2.76E2,3.8E2,3.44E2,1.59E2,6.6E1,1.27E2,1.2E2,1.47E2,2.43E2,1.22E2,2.07E2,1.36E2,2.51E2,2.5E1,1.18E2,2.62E2,1.2E2,2.24E2,1.04E2,5.5E1,5E0,1.15E2,2.8E1,1.19E2,9.5E1,1.48E2,8.3E1,3.9E1,8.8E1,1.19E2,1.01E2,3.5E1,1.14E2,1.37E2,2.1E1,4E0,3.9E1,7.9E1,1.93E2,6.9E1,1.14E2,6E0,1.4E2,8.4E1,3E0,1.01E2],"tree_param":{"num_deleted":"0","num_feature":"29","num_nodes":"57","size_leaf_vector":"1"}},{"base_weights":[2.5161259E-2,-4.2157536E0,4.2625365E0,-7.0292015E0,-2.1886992E0,2.2808828E0,6.263832E0,-8.519894E0,-5.643768E0,-3.4552555E0,-1.1445225E0,1.2480303E0,3.0887938E0,5.1225204E0,8.203659E0,-9.839908E-2,-7.7877073E0,-6.047658E-2,-5.0163364E0,-4.0534334E0,-2.87958E0,4.0873656E-1,-1.4459705E0,1.8248022E0,7.2380203E-1,3.2012756E0,1.0620536E0,6.3521347E0,4.864549E0,7.5229845E0,1.0354047E-1,-7.898113E-2,-4.2950474E-2,-5.0729804E-2,-2.2645107E-2,-4.1872874E-2,-1.9844208E-2,-7.6378784E-3,-2.9701432E-2,8.441561E-3,-6.969644E-3,-2.0962538E-2,-9.026573E-3,-3.4779538E-3,1.939068E-2,1.1452215E-2,7.696218E-4,2.3819303E-2,3.4661535E-2,1.9694028E-2,-4.1922703E-3,1.984147E-2,6.542132E-2,4.422017E-2,5.643169E-2,7.936595E-2,5.9594277E-2],"categories":[],"categories_nodes":[],"categories_segments":[],"categories_sizes":[],"default_left":[0,0,0,0,0,0,0,0,0,0,0,0,0,0,0,0,0,0,0,0,0,0,0,0,0,0,0,0,0,0,0,0,0,0,0,0,0,0,0,0,0,0,0,0,0,0,0,0,0,0,0,0,0,0,0,0,0],"id":23,"left_children":[1,3,5,7,9,11,13,15,17,19,21,23,25,27,29,-1,31,-1,33,35,37,39,41,43,45,47,49,51,53,55,-1,-1,-1,-1,-1,-1,-1,-1,-1,-1,-1,-1,-1,-1,-1,-1,-1,-1,-1,-1,-1,-1,-1,-1,-1,-1,-1],"loss_changes":[4.228423E4,6.6904375E3,4.6526934E3,9.6660547E2,9.0150415E2,4.90542E2,1.2518027E3,1.4873242E2,3.39375E1,9.404077E1,1.7721631E2,7.764264E1,7.186035E1,8.566113E1,2.3501758E2,0E0,2.5011719E1,0E0,4.4570312E0,3.233838E1,2.8207764E1,3.0452587E1,1.09453125E2,3.1617004E1,3.767977E1,5.9305176E1,2.6517382E1,3.6791016E1,8.119824E1,5.93125E1,0E0,0E0,0E0,0E0,0E0,0E0,0E0,0E0,0E0,0E0,0E0,0E0,0E0,0E0,0E0,0E0,0E0,0E0,0E0,0E0,0E0,0E0,0E0,0E0,0E0,0E0,0E0],"parents":[2147483647,0,0,1,1,2,2,3,3,4,4,5,5,6,6,7,7,8,8,9,9,10,10,11,11,12,12,13,13,14,14,16,16,18,18,19,19,20,20,21,21,22,22,23,23,24,24,25,25,26,26,27,27,28,28,29,29],"right_children":[2,4,6,8,10,12,14,16,18,20,22,24,26,28,30,-1,32,-1,34,36,38,40,42,44,46,48,50,52,54,56,-1,-1,-1,-1,-1,-1,-1,-1,-1,-1,-1,-1,-1,-1,-1,-1,-1,-1,-1,-1,-1,-1,-1,-1,-1,-1,-1],"split_conditions":[1.13E1,5.1E0,1.6E1,1.9E0,8E0,1.36E1,1.96E1,-8E-1,3.9E0,9.4E0,-2.9959476E-1,-2.9959476E-1,9.3957E-1,3E0,2.33E1,-9.839908E-2,5.5E-1,-6.047658E-2,2.36E2,6.2E0,1.4E-1,4.4E-1,9.4E0,7E0,-8.425721E-1,9.5E-1,1E-2,4.7E-1,1.81E1,1.2E-1,1.0354047E-1,-7.898113E-2,-4.2950474E-2,-5.0729804E-2,-2.2645107E-2,-4.1872874E-2,-1.9844208E-2,-7.6378784E-3,-2.9701432E-2,8.441561E-3,-6.969644E-3,-2.0962538E-2,-9.026573E-3,-3.4779538E-3,1.939068E-2,1.1452215E-2,7.696218E-4,2.3819303E-2,3.4661535E-2,1.9694028E-2,-4.1922703E-3,1.984147E-2,6.542132E-2,4.422017E-2,5.643169E-2,7.936595E-2,5.9594277E-2],"split_indices":[8,8,8,8,8,8,8,8,8,10,12,12,11,0,8,0,6,0,24,9,5,6,8,24,11,5,6,3,8,6,0,0,0,0,0,0,0,0,0,0,0,0,0,0,0,0,0,0,0,0,0,0,0,0,0,0,0],"split_type":[0,0,0,0,0,0,0,0,0,0,0,0,0,0,0,0,0,0,0,0,0,0,0,0,0,0,0,0,0,0,0,0,0,0,0,0,0,0,0,0,0,0,0,0,0,0,0,0,0,0,0,0,0,0,0,0,0],"sum_hessian":[2.351E3,1.175E3,1.176E3,4.91E2,6.84E2,5.92E2,5.84E2,2.34E2,2.57E2,3.08E2,3.76E2,2.61E2,3.31E2,3.7E2,2.14E2,7.9E1,1.55E2,1.51E2,1.06E2,1.48E2,1.6E2,6.1E1,3.15E2,1.23E2,1.38E2,3.13E2,1.8E1,6E1,3.1E2,1.66E2,4.8E1,1.49E2,6E0,1.03E2,3E0,1.38E2,1E1,7E0,1.53E2,4.4E1,1.7E1,1.42E2,1.73E2,6E0,1.17E2,8.3E1,5.5E1,7.9E1,2.34E2,1.1E1,7E0,3E0,5.7E1,2.02E2,1.08E2,1.28E2,3.8E1],"tree_param":{"num_deleted":"0","num_feature":"29","num_nodes":"57","size_leaf_vector":"1"}},{"base_weights":[-9.652371E-2,-4.233579E0,4.0512466E0,-7.090343E0,-2.3756008E0,2.1145275E0,6.173415E0,-8.758816E0,-5.769084E0,-3.395827E0,-1.1581944E0,9.8157805E-1,2.8888524E0,5.1232142E0,8.115338E0,-1.02271125E-1,-8.227201E0,-6.4536884E-2,-5.2242813E0,-4.127606E0,-2.697963E0,1.7612779E-1,-1.584126E0,1.1699733E0,-4.7802654E-1,3.5904853E0,2.4308546E0,4.3413854E0,5.518499E0,7.184333E0,9.501477E0,-4.2773817E-2,-8.304376E-2,-5.416125E-2,-3.7922766E-2,-3.533359E-2,-4.6523307E-2,-2.3326773E-2,-3.484467E-2,1.6570017E-2,-3.8689552E-3,-2.1890704E-2,-1.0984873E-2,1.8176645E-2,8.676005E-3,3.4571262E-3,-1.682133E-2,5.3403974E-2,3.1999864E-2,2.8906504E-2,1.8549519E-2,4.645779E-2,2.7718924E-2,3.4134038E-2,5.665865E-2,3.565409E-2,7.412134E-2,9.646041E-2,4.5350958E-2],"categories":[],"categories_nodes":[],"categories_segments":[],"categories_sizes":[],"default_left":[0,0,0,0,0,0,0,0,0,0,0,0,0,0,0,0,0,0,0,0,0,0,0,0,0,0,0,0,0,0,0,0,0,0,0,0,0,0,0,0,0,0,0,0,0,0,0,0,0,0,0,0,0,0,0,0,0,0,0],"id":24,"left_children":[1,3,5,7,9,11,13,15,17,19,21,23,25,27,29,-1,31,-1,33,35,37,39,41,43,45,47,49,51,53,55,57,-1,-1,-1,-1,-1,-1,-1,-1,-1,-1,-1,-1,-1,-1,-1,-1,-1,-1,-1,-1,-1,-1,-1,-1,-1,-1,-1,-1],"loss_changes":[3.979302E4,6.1445723E3,4.745549E3,9.5546484E2,8.712429E2,5.2928076E2,1.0828535E3,7.012695E1,6.134375E1,1.8377295E2,1.8399036E2,6.882413E1,1.0635449E2,8.662109E1,1.778457E2,0E0,9.5546875E0,0E0,1.94729E1,4.04292E1,4.8462646E1,6.663566E1,6.9243774E1,4.1240204E1,2.9479403E1,7.772412E1,5.2683716E1,4.6576416E1,5.2964844E1,7.0578125E1,7.9648438E0,0E0,0E0,0E0,0E0,0E0,0E0,0E0,0E0,0E0,0E0,0E0,0E0,0E0,0E0,0E0,0E0,0E0,0E0,0E0,0E0,0E0,0E0,0E0,0E0,0E0,0E0,0E0,0E0],"parents":[2147483647,0,0,1,1,2,2,3,3,4,4,5,5,6,6,7,7,8,8,9,9,10,10,11,11,12,12,13,13,14,14,16,16,18,18,19,19,20,20,21,21,22,22,23,23,24,24,25,25,26,26,27,27,28,28,29,29,30,30],"right_children":[2,4,6,8,10,12,14,16,18,20,22,24,26,28,30,-1,32,-1,34,36,38,40,42,44,46,48,50,52,54,56,58,-1,-1,-1,-1,-1,-1,-1,-1,-1,-1,-1,-1,-1,-1,-1,-1,-1,-1,-1,-1,-1,-1,-1,-1,-1,-1,-1,-1],"split_conditions":[1.12E1,4.8E0,1.6E1,1.2E0,8.3E0,1.32E1,1.96E1,-2.1E0,2.9E0,6.6E0,-1.7011768E-1,5.2766836E-1,-6.952253E-1,1.0141E0,1.11E1,-1.02271125E-1,-6.515304E-1,-6.4536884E-2,7.1E0,5E-2,2.4E-1,3.3E0,9.4E0,9E0,2.9E-1,8E0,3E-2,-2.5881904E-1,-9.4175893E-1,1.0086E0,7.350337E-1,-4.2773817E-2,-8.304376E-2,-5.416125E-2,-3.7922766E-2,-3.533359E-2,-4.6523307E-2,-2.3326773E-2,-3.484467E-2,1.6570017E-2,-3.8689552E-3,-2.1890704E-2,-1.0984873E-2,1.8176645E-2,8.676005E-3,3.4571262E-3,-1.682133E-2,5.3403974E-2,3.1999864E-2,2.8906504E-2,1.8549519E-2,4.645779E-2,2.7718924E-2,3.4134038E-2,5.665865E-2,3.565409E-2,7.412134E-2,9.646041E-2,4.5350958E-2],"split_indices":[8,8,8,8,8,8,8,8,8,8,12,12,12,4,7,0,11,0,7,6,6,1,8,2,5,2,6,18,11,4,11,0,0,0,0,0,0,0,0,0,0,0,0,0,0,0,0,0,0,0,0,0,0,0,0,0,0,0,0],"split_type":[0,0,0,0,0,0,0,0,0,0,0,0,0,0,0,0,0,0,0,0,0,0,0,0,0,0,0,0,0,0,0,0,0,0,0,0,0,0,0,0,0,0,0,0,0,0,0,0,0,0,0,0,0,0,0,0,0,0,0],"sum_hessian":[2.317E3,1.16E3,1.157E3,4.56E2,7.04E2,6.06E2,5.51E2,1.99E2,2.57E2,3.82E2,3.22E2,2.47E2,3.59E2,3.6E2,1.91E2,4.8E1,1.51E2,1.09E2,1.48E2,1.84E2,1.98E2,7.8E1,2.44E2,2.19E2,2.8E1,1.39E2,2.2E2,1.25E2,2.35E2,1.18E2,7.3E1,4E0,1.47E2,1.28E2,2E1,9E1,9.4E1,1.38E2,6E1,2.1E1,5.7E1,1.07E2,1.37E2,6.8E1,1.51E2,1.7E1,1.1E1,2.3E1,1.16E2,1.2E2,1E2,1.03E2,2.2E1,1.7E1,2.18E2,8E0,1.1E2,7E1,3E0],"tree_param":{"num_deleted":"0","num_feature":"29","num_nodes":"59","size_leaf_vector":"1"}},{"base_weights":[-4.036689E-2,-4.3450456E0,3.9989784E0,-7.0773053E0,-2.409517E0,2.0254698E0,6.227982E0,-8.7626295E0,-5.9043994E0,-3.788662E0,-1.5364392E0,7.941194E-1,2.8451233E0,5.3045845E0,8.506152E0,-1.0030319E-1,-8.219414E0,-6.399609E0,-5.1504745E0,-4.317234E0,-3.0325303E0,-2.0871465E0,-5.8005095E-1,1.6098316E0,3.219099E-1,2.3601577E0,3.3028302E0,4.7180934E0,6.0460973E0,9.395479E-2,7.188968E0,-8.300059E-2,-4.3619573E-2,-6.486229E-2,-1.244958E-2,-2.9487235E-2,-5.3501964E-2,-4.7852993E-2,-3.7565988E-2,-2.6852258E-2,-4.2951472E-2,-2.4692973E-2,-1.4662513E-2,-3.4655838E-3,-2.5368275E-2,4.8116157E-3,1.8310664E-2,9.527812E-3,-2.7486314E-3,1.6106507E-2,2.633634E-2,3.5536196E-2,2.1931292E-2,3.5478394E-2,5.0179012E-2,4.8599847E-2,6.486826E-2,3.549122E-2,7.4731864E-2],"categories":[],"categories_nodes":[],"categories_segments":[],"categories_sizes":[],"default_left":[0,0,0,0,0,0,0,0,0,0,0,0,0,0,0,0,0,0,0,0,0,0,0,0,0,0,0,0,0,0,0,0,0,0,0,0,0,0,0,0,0,0,0,0,0,0,0,0,0,0,0,0,0,0,0,0,0,0,0],"id":25,"left_children":[1,3,5,7,9,11,13,15,17,19,21,23,25,27,29,-1,31,33,35,37,39,41,43,45,47,49,51,53,55,-1,57,-1,-1,-1,-1,-1,-1,-1,-1,-1,-1,-1,-1,-1,-1,-1,-1,-1,-1,-1,-1,-1,-1,-1,-1,-1,-1,-1,-1],"loss_changes":[4.1018508E4,6.0213125E3,5.3400938E3,8.8178906E2,8.0039404E2,6.503816E2,1.1546836E3,4.7947266E1,7.1168945E1,8.9687256E1,2.155188E2,9.943724E1,7.776367E1,1.4826758E2,1.2173633E2,0E0,6.0820312E0,6.526953E1,3.484326E1,2.053125E1,3.6005005E1,5.7914917E1,6.82802E1,2.2609375E1,6.2826515E1,3.4688354E1,4.6456787E1,6.3088867E1,5.9867188E1,0E0,4.4790283E1,0E0,0E0,0E0,0E0,0E0,0E0,0E0,0E0,0E0,0E0,0E0,0E0,0E0,0E0,0E0,0E0,0E0,0E0,0E0,0E0,0E0,0E0,0E0,0E0,0E0,0E0,0E0,0E0],"parents":[2147483647,0,0,1,1,2,2,3,3,4,4,5,5,6,6,7,7,8,8,9,9,10,10,11,11,12,12,13,13,14,14,16,16,17,17,18,18,19,19,20,20,21,21,22,22,23,23,24,24,25,25,26,26,27,27,28,28,30,30],"right_children":[2,4,6,8,10,12,14,16,18,20,22,24,26,28,30,-1,32,34,36,38,40,42,44,46,48,50,52,54,56,-1,58,-1,-1,-1,-1,-1,-1,-1,-1,-1,-1,-1,-1,-1,-1,-1,-1,-1,-1,-1,-1,-1,-1,-1,-1,-1,-1,-1,-1],"split_conditions":[1.09E1,4.8E0,1.6E1,1E0,7.3E0,1.31E1,2.05E1,9E-1,3.3E0,6.3E0,9.4E0,-3.1596187E-1,1.45E1,1.81E1,3.1E0,-1.0030319E-1,5.6E0,7.4E0,3E0,3.2E-1,8.9406115E-1,6.1E-1,9.3545544E-1,1.0098E0,-8.786375E-1,1.0108E0,5.230943E-1,1.0114E0,1.014E0,9.395479E-2,1.0091E0,-8.300059E-2,-4.3619573E-2,-6.486229E-2,-1.244958E-2,-2.9487235E-2,-5.3501964E-2,-4.7852993E-2,-3.7565988E-2,-2.6852258E-2,-4.2951472E-2,-2.4692973E-2,-1.4662513E-2,-3.4655838E-3,-2.5368275E-2,4.8116157E-3,1.8310664E-2,9.527812E-3,-2.7486314E-3,1.6106507E-2,2.633634E-2,3.5536196E-2,2.1931292E-2,3.5478394E-2,5.0179012E-2,4.8599847E-2,6.486826E-2,3.549122E-2,7.4731864E-2],"split_indices":[8,8,8,8,8,8,8,10,8,8,8,12,8,8,1,0,10,1,0,5,12,5,12,4,11,4,11,4,4,0,4,0,0,0,0,0,0,0,0,0,0,0,0,0,0,0,0,0,0,0,0,0,0,0,0,0,0,0,0],"split_type":[0,0,0,0,0,0,0,0,0,0,0,0,0,0,0,0,0,0,0,0,0,0,0,0,0,0,0,0,0,0,0,0,0,0,0,0,0,0,0,0,0,0,0,0,0,0,0,0,0,0,0,0,0,0,0,0,0,0,0],"sum_hessian":[2.357E3,1.141E3,1.216E3,4.72E2,6.69E2,6.46E2,5.7E2,1.91E2,2.81E2,2.58E2,4.11E2,2.59E2,3.87E2,4.08E2,1.62E2,5.2E1,1.39E2,1.65E2,1.16E2,1.49E2,1.09E2,2.6E2,1.51E2,9.4E1,1.65E2,1.91E2,1.96E2,2.32E2,1.76E2,9.3E1,6.9E1,1.35E2,4E0,1.62E2,3E0,1.1E1,1.05E2,7.7E1,7.2E1,8.8E1,2.1E1,1.59E2,1.01E2,1.36E2,1.5E1,1.6E1,7.8E1,8E1,8.5E1,5.3E1,1.38E2,1.58E2,3.8E1,5E1,1.82E2,5.1E1,1.25E2,6E0,6.3E1],"tree_param":{"num_deleted":"0","num_feature":"29","num_nodes":"59","size_leaf_vector":"1"}},{"base_weights":[-9.992315E-3,-4.1516747E0,4.0612364E0,-6.9440646E0,-2.2583346E0,2.0839832E0,6.0789027E0,-8.667181E0,-5.782562E0,-3.3964176E0,-1.1837798E0,1.1815188E0,2.9642005E0,4.9817495E0,7.8097024E0,-1.0048002E-1,-8.167856E0,-6.2661433E0,-5.1150455E0,-4.0790515E0,-2.8662314E0,-1.8700508E0,-6.2900156E-1,6.088425E-1,1.7341981E0,3.3271284E0,1.9696776E0,4.4821806E0,5.6319385E0,8.168257E0,5.399995E0,-5.2582636E-2,-8.324458E-2,-6.37494E-2,-3.7334263E-2,-5.29762E-2,-2.7488172E-2,-3.3410214E-2,-4.4467777E-2,-3.0222276E-2,-1.8410306E-2,-2.119336E-2,-2.1680421E-3,-8.935457E-3,5.1271277E-3,2.6209196E-3,1.7506285E-2,1.8406354E-2,-1.1104023E-2,2.2920515E-2,3.538106E-2,9.26329E-3,2.3766952E-2,4.144062E-2,5.5806827E-2,3.352538E-2,5.7181675E-2,7.6031744E-2,9.759719E-2,2.1283306E-2,5.9233274E-2],"categories":[],"categories_nodes":[],"categories_segments":[],"categories_sizes":[],"default_left":[0,0,0,0,0,0,0,0,0,0,0,0,0,0,0,0,0,0,0,0,0,0,0,0,0,0,0,0,0,0,0,0,0,0,0,0,0,0,0,0,0,0,0,0,0,0,0,0,0,0,0,0,0,0,0,0,0,0,0,0,0],"id":26,"left_children":[1,3,5,7,9,11,13,15,17,19,21,23,25,27,29,-1,31,33,35,37,39,41,43,45,47,49,51,53,55,57,59,-1,-1,-1,-1,-1,-1,-1,-1,-1,-1,-1,-1,-1,-1,-1,-1,-1,-1,-1,-1,-1,-1,-1,-1,-1,-1,-1,-1,-1,-1],"loss_changes":[3.93553E4,6.1003906E3,4.682084E3,8.830918E2,8.405679E2,4.6952466E2,1.0650039E3,4.434961E1,5.7838867E1,1.08858154E2,1.3449384E2,9.239566E1,1.0156006E2,9.035449E1,1.4807422E2,0E0,1.9572266E1,1.9001465E1,3.8202637E1,2.3445068E1,2.4655884E1,6.483557E1,6.0600937E1,5.7539387E1,4.7532623E1,3.913208E1,3.2714996E1,5.3157227E1,9.79834E0,9.762402E1,4.1377502E1,0E0,0E0,0E0,0E0,0E0,0E0,0E0,0E0,0E0,0E0,0E0,0E0,0E0,0E0,0E0,0E0,0E0,0E0,0E0,0E0,0E0,0E0,0E0,0E0,0E0,0E0,0E0,0E0,0E0,0E0],"parents":[2147483647,0,0,1,1,2,2,3,3,4,4,5,5,6,6,7,7,8,8,9,9,10,10,11,11,12,12,13,13,14,14,16,16,17,17,18,18,19,19,20,20,21,21,22,22,23,23,24,24,25,25,26,26,27,27,28,28,29,29,30,30],"right_children":[2,4,6,8,10,12,14,16,18,20,22,24,26,28,30,-1,32,34,36,38,40,42,44,46,48,50,52,54,56,58,60,-1,-1,-1,-1,-1,-1,-1,-1,-1,-1,-1,-1,-1,-1,-1,-1,-1,-1,-1,-1,-1,-1,-1,-1,-1,-1,-1,-1,-1,-1],"split_conditions":[1.12E1,4.8E0,1.6E1,1E0,8E0,1.37E1,1.96E1,-2.1E0,3.3E0,6.3E0,9.3E0,1.25E1,1.3E1,1.0178E0,1.3E1,-1.0048002E-1,-4.840885E-1,7.3E0,1.52E0,2E-2,1E0,1.56E0,9.659258E-1,9.659258E-1,4.3E1,1.0108E0,7.4E-1,1.85E1,8E0,2.99E1,1.0084E0,-5.2582636E-2,-8.324458E-2,-6.37494E-2,-3.7334263E-2,-5.29762E-2,-2.7488172E-2,-3.3410214E-2,-4.4467777E-2,-3.0222276E-2,-1.8410306E-2,-2.119336E-2,-2.1680421E-3,-8.935457E-3,5.1271277E-3,2.6209196E-3,1.7506285E-2,1.8406354E-2,-1.1104023E-2,2.2920515E-2,3.538106E-2,9.26329E-3,2.3766952E-2,4.144062E-2,5.5806827E-2,3.352538E-2,5.7181675E-2,7.6031744E-2,9.759719E-2,2.1283306E-2,5.9233274E-2],"split_indices":[8,8,8,8,8,8,8,8,8,8,8,8,2,4,2,0,11,1,5,6,13,5,17,17,23,4,3,8,22,10,4,0,0,0,0,0,0,0,0,0,0,0,0,0,0,0,0,0,0,0,0,0,0,0,0,0,0,0,0,0,0],"split_type":[0,0,0,0,0,0,0,0,0,0,0,0,0,0,0,0,0,0,0,0,0,0,0,0,0,0,0,0,0,0,0,0,0,0,0,0,0,0,0,0,0,0,0,0,0,0,0,0,0,0,0,0,0,0,0,0,0,0,0,0,0],"sum_hessian":[2.332E3,1.156E3,1.176E3,4.66E2,6.9E2,5.95E2,5.81E2,1.85E2,2.81E2,3.34E2,3.56E2,2.95E2,3E2,3.58E2,2.23E2,4.4E1,1.41E2,1.58E2,1.23E2,1.43E2,1.91E2,1.58E2,1.98E2,1.46E2,1.49E2,2.18E2,8.2E1,2.07E2,1.51E2,1.92E2,3.1E1,9E0,1.32E2,1.5E2,8E0,1.13E2,1E1,5.1E1,9.2E1,1.64E2,2.7E1,1.37E2,2.1E1,1.61E2,3.7E1,1.13E2,3.3E1,1.44E2,5E0,3.9E1,1.79E2,2.4E1,5.8E1,1.62E2,4.5E1,7E0,1.44E2,1.46E2,4.6E1,5E0,2.6E1],"tree_param":{"num_deleted":"0","num_feature":"29","num_nodes":"61","size_leaf_vector":"1"}},{"base_weights":[-2.7984118E-2,-4.291235E0,3.89359E0,-6.9163923E0,-2.3690522E0,1.9461575E0,6.034927E0,-8.6205015E0,-5.7796254E0,-3.313403E0,-1.1212546E0,7.201621E-1,2.78386E0,5.2167435E0,8.178166E0,-9.728168E-2,-8.076127E0,-6.589134E0,-5.3202047E0,-4.087361E0,-2.778569E0,-8.1024057E-1,-2.4175687E0,1.2135925E0,1.7714517E-1,2.541207E0,3.7548492E0,4.594881E0,5.936719E0,9.220543E-2,7.136513E0,-8.156126E-2,-4.392934E-2,-6.821271E-2,-4.9378365E-2,-5.4316968E-2,-3.866772E-2,-4.6696447E-2,-3.5255205E-2,-2.463953E-2,-3.425107E-2,-1.5294028E-2,-2.8822692E-3,-3.4931775E-2,-1.2904612E-2,-3.0949593E-3,1.404214E-2,7.5760763E-3,-3.2762587E-3,2.6366826E-2,8.509483E-3,3.0124975E-2,4.739881E-2,5.8351226E-2,4.3055855E-2,6.2948436E-2,4.7216572E-2,2.4915908E-2,7.276552E-2],"categories":[],"categories_nodes":[],"categories_segments":[],"categories_sizes":[],"default_left":[0,0,0,0,0,0,0,0,0,0,0,0,0,0,0,0,0,0,0,0,0,0,0,0,0,0,0,0,0,0,0,0,0,0,0,0,0,0,0,0,0,0,0,0,0,0,0,0,0,0,0,0,0,0,0,0,0,0,0],"id":27,"left_children":[1,3,5,7,9,11,13,15,17,19,21,23,25,27,29,-1,31,33,35,37,39,41,43,45,47,49,51,53,55,-1,57,-1,-1,-1,-1,-1,-1,-1,-1,-1,-1,-1,-1,-1,-1,-1,-1,-1,-1,-1,-1,-1,-1,-1,-1,-1,-1,-1,-1],"loss_changes":[3.9255426E4,5.6594746E3,5.087502E3,8.688965E2,7.629529E2,6.5699097E2,9.765703E2,3.3015625E1,7.0862305E1,1.4111377E2,1.114129E2,6.984651E1,7.959717E1,1.615039E2,1.05203125E2,0E0,1.8095703E0,3.474121E0,8.693848E0,3.1463135E1,3.612915E1,8.534688E1,6.0479523E1,4.0319763E1,3.720929E1,4.7112427E1,3.905774E1,5.7103027E1,5.315869E1,0E0,3.5532715E1,0E0,0E0,0E0,0E0,0E0,0E0,0E0,0E0,0E0,0E0,0E0,0E0,0E0,0E0,0E0,0E0,0E0,0E0,0E0,0E0,0E0,0E0,0E0,0E0,0E0,0E0,0E0,0E0],"parents":[2147483647,0,0,1,1,2,2,3,3,4,4,5,5,6,6,7,7,8,8,9,9,10,10,11,11,12,12,13,13,14,14,16,16,17,17,18,18,19,19,20,20,21,21,22,22,23,23,24,24,25,25,26,26,27,27,28,28,30,30],"right_children":[2,4,6,8,10,12,14,16,18,20,22,24,26,28,30,-1,32,34,36,38,40,42,44,46,48,50,52,54,56,-1,58,-1,-1,-1,-1,-1,-1,-1,-1,-1,-1,-1,-1,-1,-1,-1,-1,-1,-1,-1,-1,-1,-1,-1,-1,-1,-1,-1,-1],"split_conditions":[1.09E1,4.8E0,1.6E1,3.7E0,8.3E0,1.31E1,2.05E1,9E-1,2.4E0,6.3E0,1.8E1,6.123234E-17,2.05E1,1.81E1,3E0,-9.728168E-2,8E-1,2.1E-1,1.18E0,3.6E-1,2.3E-1,9.3E0,6.9E0,5E0,-8.425721E-1,7.2E0,3E1,3E0,1.1E-1,9.220543E-2,-9.8787266E-1,-8.156126E-2,-4.392934E-2,-6.821271E-2,-4.9378365E-2,-5.4316968E-2,-3.866772E-2,-4.6696447E-2,-3.5255205E-2,-2.463953E-2,-3.425107E-2,-1.5294028E-2,-2.8822692E-3,-3.4931775E-2,-1.2904612E-2,-3.0949593E-3,1.404214E-2,7.5760763E-3,-3.2762587E-3,2.6366826E-2,8.509483E-3,3.0124975E-2,4.739881E-2,5.8351226E-2,4.3055855E-2,6.2948436E-2,4.7216572E-2,2.4915908E-2,7.276552E-2],"split_indices":[8,8,8,10,8,8,8,10,8,8,2,14,10,8,0,0,9,6,5,5,6,8,9,23,11,1,23,0,6,0,11,0,0,0,0,0,0,0,0,0,0,0,0,0,0,0,0,0,0,0,0,0,0,0,0,0,0,0,0],"split_type":[0,0,0,0,0,0,0,0,0,0,0,0,0,0,0,0,0,0,0,0,0,0,0,0,0,0,0,0,0,0,0,0,0,0,0,0,0,0,0,0,0,0,0,0,0,0,0,0,0,0,0,0,0,0,0,0,0,0,0],"sum_hessian":[2.346E3,1.124E3,1.222E3,4.74E2,6.5E2,6.41E2,5.81E2,1.87E2,2.87E2,3.69E2,2.81E2,2.61E2,3.8E2,4.23E2,1.58E2,5.6E1,1.31E2,9.9E1,1.88E2,1.48E2,2.21E2,2.28E2,5.3E1,1.36E2,1.25E2,3.07E2,7.3E1,2.31E2,1.92E2,7.5E1,8.3E1,1.27E2,4E0,8.4E1,1.5E1,1.72E2,1.6E1,6.9E1,7.9E1,1.52E2,6.9E1,9.5E1,1.33E2,2.6E1,2.7E1,1.5E1,1.21E2,5.8E1,6.7E1,2.9E2,1.7E1,4.4E1,2.9E1,4E1,1.91E2,1.45E2,4.7E1,3E0,8E1],"tree_param":{"num_deleted":"0","num_feature":"29","num_nodes":"59","size_leaf_vector":"1"}},{"base_weights":[2.3895705E-2,-4.5808654E0,3.5399933E0,-7.125199E0,-2.8867612E0,1.598078E0,5.9822683E0,-8.608162E0,-5.8822975E0,-4.1012325E0,-2.179793E0,2.86087E-1,2.6349614E0,4.855505E0,7.96978E0,-9.990312E-2,-8.103416E-2,-4.5809803E0,-6.3166356E0,-4.484522E0,-3.0218828E0,-2.5700247E0,-1.1831043E0,1.3935041E0,-1.347699E-1,2.8408833E0,3.916988E-1,5.244467E0,3.7635324E0,8.985816E0,6.954291E0,-4.7308024E-2,-2.0267064E-2,-4.3883707E-2,-6.499718E-2,-4.5480292E-2,-1.6115764E-2,-3.232644E-2,-1.9011168E-2,-2.2906434E-2,-3.1924E-2,-1.2903141E-2,1.26347905E-2,5.5441433E-3,2.018124E-2,4.5612534E-3,-6.19217E-3,2.9047754E-2,-3.8485986E-3,1.9274855E-2,-1.3103376E-3,5.80738E-2,4.592122E-2,3.952601E-2,6.726714E-3,9.518426E-2,7.12047E-2,1.2272111E-2,7.106733E-2],"categories":[],"categories_nodes":[],"categories_segments":[],"categories_sizes":[],"default_left":[0,0,0,0,0,0,0,0,0,0,0,0,0,0,0,0,0,0,0,0,0,0,0,0,0,0,0,0,0,0,0,0,0,0,0,0,0,0,0,0,0,0,0,0,0,0,0,0,0,0,0,0,0,0,0,0,0,0,0],"id":28,"left_children":[1,3,5,7,9,11,13,15,17,19,21,23,25,27,29,-1,-1,31,33,35,37,39,41,43,45,47,49,51,53,55,57,-1,-1,-1,-1,-1,-1,-1,-1,-1,-1,-1,-1,-1,-1,-1,-1,-1,-1,-1,-1,-1,-1,-1,-1,-1,-1,-1,-1],"loss_changes":[3.683397E4,4.2241426E3,6.107754E3,6.722832E2,4.9957715E2,9.7842883E2,1.238748E3,4.0716797E1,9.2625E1,7.5471436E1,1.4321436E2,1.4898816E2,1.8426245E2,1.3524023E2,1.4742969E2,0E0,0E0,1.1932129E1,2.6873535E1,2.0882324E1,7.513855E0,3.9086792E1,2.996112E1,4.4745758E1,6.671049E1,7.72146E1,2.8530415E1,7.070459E1,5.531714E1,2.8916992E1,8.3862305E1,0E0,0E0,0E0,0E0,0E0,0E0,0E0,0E0,0E0,0E0,0E0,0E0,0E0,0E0,0E0,0E0,0E0,0E0,0E0,0E0,0E0,0E0,0E0,0E0,0E0,0E0,0E0,0E0],"parents":[2147483647,0,0,1,1,2,2,3,3,4,4,5,5,6,6,7,7,8,8,9,9,10,10,11,11,12,12,13,13,14,14,17,17,18,18,19,19,20,20,21,21,22,22,23,23,24,24,25,25,26,26,27,27,28,28,29,29,30,30],"right_children":[2,4,6,8,10,12,14,16,18,20,22,24,26,28,30,-1,-1,32,34,36,38,40,42,44,46,48,50,52,54,56,58,-1,-1,-1,-1,-1,-1,-1,-1,-1,-1,-1,-1,-1,-1,-1,-1,-1,-1,-1,-1,-1,-1,-1,-1,-1,-1,-1,-1],"split_conditions":[1.33E1,7E0,2.07E1,3.7E0,9.4E0,1.68E1,2.52E1,6E-1,2E-1,4.1E0,6.5E0,-4.2764622E-1,9.5079035E-1,-5.476112E-1,3E0,-9.990312E-2,-8.103416E-2,2.36E2,-5.1205516E-1,1.18E2,6.2E0,6.6528654E-1,9.8E-1,8.1E-1,-8.425721E-1,4.179029E-1,4.3E0,1E-2,3.5E-1,-6.952253E-1,1.13E1,-4.7308024E-2,-2.0267064E-2,-4.3883707E-2,-6.499718E-2,-4.5480292E-2,