{"learner":{"attributes":{"scikit_learn":"{\"_estimator_type\": \"regressor\"}"},"feature_names":["cloud_cover","wind_speed","wind_gust","humidity","pressure","global_radiation","precipitation","sunshine","temp_mean","temp_min","temp_max","cloud_cover_lag1","cloud_cover_lag2","cloud_cover_lag3","cloud_cover_lag4","cloud_cover_lag5","cloud_cover_lag6","cloud_cover_lag7","wind_speed_lag1","wind_speed_lag2","wind_speed_lag3","wind_speed_lag4","wind_speed_lag5","wind_speed_lag6","wind_speed_lag7","wind_gust_lag1","wind_gust_lag2","wind_gust_lag3","wind_gust_lag4","wind_gust_lag5","wind_gust_lag6","wind_gust_lag7","humidity_lag1","humidity_lag2","humidity_lag3","humidity_lag4","humidity_lag5","humidity_lag6","humidity_lag7","pressure_lag1","pressure_lag2","pressure_lag3","pressure_lag4","pressure_lag5","pressure_lag6","pressure_lag7","global_radiation_lag1","global_radiation_lag2","global_radiation_lag3","global_radiation_lag4","global_radiation_lag5","global_radiation_lag6","global_radiation_lag7","precipitation_lag1","precipitation_lag2","precipitation_lag3","precipitation_lag4","precipitation_lag5","precipitation_lag6","precipitation_lag7","sunshine_lag1","sunshine_lag2","sunshine_lag3","sunshine_lag4","sunshine_lag5","sunshine_lag6","sunshine_lag7","temp_mean_lag1","temp_mean_lag2","temp_mean_lag3","temp_mean_lag4","temp_mean_lag5","temp_mean_lag6","temp_mean_lag7","temp_min_lag1","temp_min_lag2","temp_min_lag3","temp_min_lag4","temp_min_lag5","temp_min_lag6","temp_min_lag7","temp_max_lag1","temp_max_lag2","temp_max_lag3","temp_max_lag4","temp_max_lag5","temp_max_lag6","temp_max_lag7","cloud_cover_roll7_mean","cloud_cover_roll7_std","cloud_cover_roll30_mean","cloud_cover_roll30_std","wind_speed_roll7_mean","wind_speed_roll7_std","wind_speed_roll30_mean","wind_speed_roll30_std","wind_gust_roll7_mean","wind_gust_roll7_std","wind_gust_roll30_mean","wind_gust_roll30_std","humidity_roll7_mean","humidity_roll7_std","humidity_roll30_mean","humidity_roll30_std","pressure_roll7_mean","pressure_roll7_std","pressure_roll30_mean","pressure_roll30_std","global_radiation_roll7_mean","global_radiation_roll7_std","global_radiation_roll30_mean","global_radiation_roll30_std","precipitation_roll7_mean","precipitation_roll7_std","precipitation_roll30_mean","precipitation_roll30_std","sunshine_roll7_mean","sunshine_roll7_std","sunshine_roll30_mean","sunshine_roll30_std","temp_mean_roll7_mean","temp_mean_roll7_std","temp_mean_roll30_mean","temp_mean_roll30_std","temp_min_roll7_mean","temp_min_roll7_std","temp_min_roll30_mean","temp_min_roll30_std","temp_max_roll7_mean","temp_max_roll7_std","temp_max_roll30_mean","temp_max_roll30_std","day_sin","day_cos","month_sin","month_cos","solar_term_index","day_in_term","solar_term_sin","solar_term_cos","stem_index","wuxing_index","polarity","wuxing_x_solar","polarity_x_solar","wuxing_pol_solar","wuxing_sin","wuxing_cos","stem_sin","stem_cos"],"feature_types":["int","float","float","float","float","float","float","float","float","float","float","float","float","float","float","float","float","float","float","float","float","float","float","float","float","float","float","float","float","float","float","float","float","float","float","float","float","float","float","float","float","float","float","float","float","float","float","float","float","float","float","float","float","float","float","float","float","float","float","float","float","float","float","float","float","float","float","float","float","float","float","float","float","float","float","float","float","float","float","float","float","float","float","float","float","float","float","float","float","float","float","float","float","float","float","float","float","float","float","float","float","float","float","float","float","float","float","float","float","float","float","float","float","float","float","float","float","float","float","float","float","float","float","float","float","float","float","float","float","float","float","float","float","float","float","float","int","int","float","float","int","int","int","int","int","int","float","float","float","float"],"gradient_booster":{"model":{"cats":{"enc":[],"feature_segments":[],"sorted_idx":[]},"gbtree_model_param":{"num_parallel_tree":"1","num_trees":"1000"},"iteration_indptr":[0,1,2,3,4,5,6,7,8,9,10,11,12,13,14,15,16,17,18,19,20,21,22,23,24,25,26,27,28,29,30,31,32,33,34,35,36,37,38,39,40,41,42,43,44,45,46,47,48,49,50,51,52,53,54,55,56,57,58,59,60,61,62,63,64,65,66,67,68,69,70,71,72,73,74,75,76,77,78,79,80,81,82,83,84,85,86,87,88,89,90,91,92,93,94,95,96,97,98,99,100,101,102,103,104,105,106,107,108,109,110,111,112,113,114,115,116,117,118,119,120,121,122,123,124,125,126,127,128,129,130,131,132,133,134,135,136,137,138,139,140,141,142,143,144,145,146,147,148,149,150,151,152,153,154,155,156,157,158,159,160,161,162,163,164,165,166,167,168,169,170,171,172,173,174,175,176,177,178,179,180,181,182,183,184,185,186,187,188,189,190,191,192,193,194,195,196,197,198,199,200,201,202,203,204,205,206,207,208,209,210,211,212,213,214,215,216,217,218,219,220,221,222,223,224,225,226,227,228,229,230,231,232,233,234,235,236,237,238,239,240,241,242,243,244,245,246,247,248,249,250,251,252,253,254,255,256,257,258,259,260,261,262,263,264,265,266,267,268,269,270,271,272,273,274,275,276,277,278,279,280,281,282,283,284,285,286,287,288,289,290,291,292,293,294,295,296,297,298,299,300,301,302,303,304,305,306,307,308,309,310,311,312,313,314,315,316,317,318,319,320,321,322,323,324,325,326,327,328,329,330,331,332,333,334,335,336,337,338,339,340,341,342,343,344,345,346,347,348,349,350,351,352,353,354,355,356,357,358,359,360,361,362,363,364,365,366,367,368,369,370,371,372,373,374,375,376,377,378,379,380,381,382,383,384,385,386,387,388,389,390,391,392,393,394,395,396,397,398,399,400,401,402,403,404,405,406,407,408,409,410,411,412,413,414,415,416,417,418,419,420,421,422,423,424,425,426,427,428,429,430,431,432,433,434,435,436,437,438,439,440,441,442,443,444,445,446,447,448,449,450,451,452,453,454,455,456,457,458,459,460,461,462,463,464,465,466,467,468,469,470,471,472,473,474,475,476,477,478,479,480,481,482,483,484,485,486,487,488,489,490,491,492,493,494,495,496,497,498,499,500,501,502,503,504,505,506,507,508,509,510,511,512,513,514,515,516,517,518,519,520,521,522,523,524,525,526,527,528,529,530,531,532,533,534,535,536,537,538,539,540,541,542,543,544,545,546,547,548,549,550,551,552,553,554,555,556,557,558,559,560,561,562,563,564,565,566,567,568,569,570,571,572,573,574,575,576,577,578,579,580,581,582,583,584,585,586,587,588,589,590,591,592,593,594,595,596,597,598,599,600,601,602,603,604,605,606,607,608,609,610,611,612,613,614,615,616,617,618,619,620,621,622,623,624,625,626,627,628,629,630,631,632,633,634,635,636,637,638,639,640,641,642,643,644,645,646,647,648,649,650,651,652,653,654,655,656,657,658,659,660,661,662,663,664,665,666,667,668,669,670,671,672,673,674,675,676,677,678,679,680,681,682,683,684,685,686,687,688,689,690,691,692,693,694,695,696,697,698,699,700,701,702,703,704,705,706,707,708,709,710,711,712,713,714,715,716,717,718,719,720,721,722,723,724,725,726,727,728,729,730,731,732,733,734,735,736,737,738,739,740,741,742,743,744,745,746,747,748,749,750,751,752,753,754,755,756,757,758,759,760,761,762,763,764,765,766,767,768,769,770,771,772,773,774,775,776,777,778,779,780,781,782,783,784,785,786,787,788,789,790,791,792,793,794,795,796,797,798,799,800,801,802,803,804,805,806,807,808,809,810,811,812,813,814,815,816,817,818,819,820,821,822,823,824,825,826,827,828,829,830,831,832,833,834,835,836,837,838,839,840,841,842,843,844,845,846,847,848,849,850,851,852,853,854,855,856,857,858,859,860,861,862,863,864,865,866,867,868,869,870,871,872,873,874,875,876,877,878,879,880,881,882,883,884,885,886,887,888,889,890,891,892,893,894,895,896,897,898,899,900,901,902,903,904,905,906,907,908,909,910,911,912,913,914,915,916,917,918,919,920,921,922,923,924,925,926,927,928,929,930,931,932,933,934,935,936,937,938,939,940,941,942,943,944,945,946,947,948,949,950,951,952,953,954,955,956,957,958,959,960,961,962,963,964,965,966,967,968,969,970,971,972,973,974,975,976,977,978,979,980,981,982,983,984,985,986,987,988,989,990,991,992,993,994,995,996,997,998,999,1000],"tree_info":[0,0,0,0,0,0,0,0,0,0,0,0,0,0,0,0,0,0,0,0,0,0,0,0,0,0,0,0,0,0,0,0,0,0,0,0,0,0,0,0,0,0,0,0,0,0,0,0,0,0,0,0,0,0,0,0,0,0,0,0,0,0,0,0,0,0,0,0,0,0,0,0,0,0,0,0,0,0,0,0,0,0,0,0,0,0,0,0,0,0,0,0,0,0,0,0,0,0,0,0,0,0,0,0,0,0,0,0,0,0,0,0,0,0,0,0,0,0,0,0,0,0,0,0,0,0,0,0,0,0,0,0,0,0,0,0,0,0,0,0,0,0,0,0,0,0,0,0,0,0,0,0,0,0,0,0,0,0,0,0,0,0,0,0,0,0,0,0,0,0,0,0,0,0,0,0,0,0,0,0,0,0,0,0,0,0,0,0,0,0,0,0,0,0,0,0,0,0,0,0,0,0,0,0,0,0,0,0,0,0,0,0,0,0,0,0,0,0,0,0,0,0,0,0,0,0,0,0,0,0,0,0,0,0,0,0,0,0,0,0,0,0,0,0,0,0,0,0,0,0,0,0,0,0,0,0,0,0,0,0,0,0,0,0,0,0,0,0,0,0,0,0,0,0,0,0,0,0,0,0,0,0,0,0,0,0,0,0,0,0,0,0,0,0,0,0,0,0,0,0,0,0,0,0,0,0,0,0,0,0,0,0,0,0,0,0,0,0,0,0,0,0,0,0,0,0,0,0,0,0,0,0,0,0,0,0,0,0,0,0,0,0,0,0,0,0,0,0,0,0,0,0,0,0,0,0,0,0,0,0,0,0,0,0,0,0,0,0,0,0,0,0,0,0,0,0,0,0,0,0,0,0,0,0,0,0,0,0,0,0,0,0,0,0,0,0,0,0,0,0,0,0,0,0,0,0,0,0,0,0,0,0,0,0,0,0,0,0,0,0,0,0,0,0,0,0,0,0,0,0,0,0,0,0,0,0,0,0,0,0,0,0,0,0,0,0,0,0,0,0,0,0,0,0,0,0,0,0,0,0,0,0,0,0,0,0,0,0,0,0,0,0,0,0,0,0,0,0,0,0,0,0,0,0,0,0,0,0,0,0,0,0,0,0,0,0,0,0,0,0,0,0,0,0,0,0,0,0,0,0,0,0,0,0,0,0,0,0,0,0,0,0,0,0,0,0,0,0,0,0,0,0,0,0,0,0,0,0,0,0,0,0,0,0,0,0,0,0,0,0,0,0,0,0,0,0,0,0,0,0,0,0,0,0,0,0,0,0,0,0,0,0,0,0,0,0,0,0,0,0,0,0,0,0,0,0,0,0,0,0,0,0,0,0,0,0,0,0,0,0,0,0,0,0,0,0,0,0,0,0,0,0,0,0,0,0,0,0,0,0,0,0,0,0,0,0,0,0,0,0,0,0,0,0,0,0,0,0,0,0,0,0,0,0,0,0,0,0,0,0,0,0,0,0,0,0,0,0,0,0,0,0,0,0,0,0,0,0,0,0,0,0,0,0,0,0,0,0,0,0,0,0,0,0,0,0,0,0,0,0,0,0,0,0,0,0,0,0,0,0,0,0,0,0,0,0,0,0,0,0,0,0,0,0,0,0,0,0,0,0,0,0,0,0,0,0,0,0,0,0,0,0,0,0,0,0,0,0,0,0,0,0,0,0,0,0,0,0,0,0,0,0,0,0,0,0,0,0,0,0,0,0,0,0,0,0,0,0,0,0,0,0,0,0,0,0,0,0,0,0,0,0,0,0,0,0,0,0,0,0,0,0,0,0,0,0,0,0,0,0,0,0,0,0,0,0,0,0,0,0,0,0,0,0,0,0,0,0,0,0,0,0,0,0,0,0,0,0,0,0,0,0,0,0,0,0,0,0,0,0,0,0,0,0,0,0,0,0,0,0,0,0,0,0,0,0,0,0,0,0,0,0,0,0,0,0,0,0,0,0,0,0,0,0,0,0,0,0,0,0,0,0,0,0,0,0,0,0,0,0,0,0,0,0,0,0,0,0,0,0,0,0,0,0,0,0,0,0,0,0,0,0,0,0,0,0,0,0,0,0,0,0,0,0,0,0,0,0,0,0,0,0,0,0,0,0,0,0,0,0,0,0,0,0,0,0,0,0,0,0,0,0,0,0,0,0,0,0,0,0,0,0,0,0,0,0,0,0,0,0,0,0,0,0,0,0,0,0,0,0,0,0,0,0,0,0,0,0,0,0,0,0,0,0,0,0,0,0,0,0],"trees":[{"base_weights":[2.3875872E-3,-5.615782E0,3.942895E0,-8.273636E0,-3.2120078E0,1.3771749E0,6.4514437E0,-1.1848078E1,-7.4666185E0,-4.2298965E0,-2.115094E0,2.3220557E-1,2.8718412E0,5.3002E0,8.4721E0,-1.2104247E-1,-6.526529E-2,-8.361875E0,-6.3334036E0,-5.1834655E0,-3.6535504E0,-2.7121866E0,-1.3649437E0,-5.2704954E-1,8.6906976E-1,1.7345186E0,3.349664E0,4.679922E0,6.4766636E0,7.6776967E0,9.915047E0,-8.421729E-2,-3.1788763E-2,-3.6238465E-2,-6.532773E-2,-6.038762E-3,-5.322135E-2,-4.1051243E-2,-2.5351323E-2,-6.5412866E-3,-3.0575458E-2,-1.5663367E-2,1.1028132E-2,-9.14689E-3,3.101269E-3,5.170614E-4,1.6547559E-2,1.0185618E-2,2.7773825E-2,3.4610238E-2,4.917021E-3,3.5504777E-2,4.927218E-2,6.554821E-2,1.9211236E-2,2.0961234E-2,7.766408E-2,1.0066846E-1,5.4225314E-2],"categories":[],"categories_nodes":[],"categories_segments":[],"categories_sizes":[],"default_left":[0,0,0,0,0,0,0,0,0,0,0,0,0,0,0,0,0,0,0,0,0,0,0,0,0,0,0,0,0,0,0,0,0,0,0,0,0,0,0,0,0,0,0,0,0,0,0,0,0,0,0,0,0,0,0,0,0,0,0],"id":0,"left_children":[1,3,5,7,9,11,13,15,17,19,21,23,25,27,29,-1,-1,31,33,35,37,39,41,43,45,47,49,51,53,55,57,-1,-1,-1,-1,-1,-1,-1,-1,-1,-1,-1,-1,-1,-1,-1,-1,-1,-1,-1,-1,-1,-1,-1,-1,-1,-1,-1,-1],"loss_changes":[5.2091586E4,6.1694883E3,8.891645E3,1.2365371E3,5.6096875E2,1.1712952E3,1.5797832E3,3.2285156E1,3.290586E2,1.2526904E2,1.069718E2,1.8859026E2,1.5508301E2,2.9549512E2,2.1098047E2,0E0,0E0,3.6594727E1,6.768506E1,5.779297E1,7.37771E1,9.500421E1,5.7436493E1,5.810915E1,1.3588838E2,6.3989563E1,6.410156E1,6.461279E1,4.0679688E1,6.542383E1,2.5117188E0,0E0,0E0,0E0,0E0,0E0,0E0,0E0,0E0,0E0,0E0,0E0,0E0,0E0,0E0,0E0,0E0,0E0,0E0,0E0,0E0,0E0,0E0,0E0,0E0,0E0,0E0,0E0,0E0],"parents":[2147483647,0,0,1,1,2,2,3,3,4,4,5,5,6,6,7,7,8,8,9,9,10,10,11,11,12,12,13,13,14,14,17,17,18,18,19,19,20,20,21,21,22,22,23,23,24,24,25,25,26,26,27,27,28,28,29,29,30,30],"right_children":[2,4,6,8,10,12,14,16,18,20,22,24,26,28,30,-1,-1,32,34,36,38,40,42,44,46,48,50,52,54,56,58,-1,-1,-1,-1,-1,-1,-1,-1,-1,-1,-1,-1,-1,-1,-1,-1,-1,-1,-1,-1,-1,-1,-1,-1,-1,-1,-1,-1],"split_conditions":[9.4E0,4.6E0,1.51E1,-8E-1,7.3E0,1.29E1,1.92E1,1.1E-1,2.4E0,8.2E-1,5.4E0,8.1E-1,7.4E-1,1.34E1,2.21E1,-1.2104247E-1,-6.526529E-2,4.2851906E0,3.2E0,2.8855567E0,6.5E0,2.4E-1,2.7214031E0,7.806667E0,1.12E1,7.3E-1,1.02008E0,7.9933333E0,5.542857E0,1.06E1,5E-1,-8.421729E-2,-3.1788763E-2,-3.6238465E-2,-6.532773E-2,-6.038762E-3,-5.322135E-2,-4.1051243E-2,-2.5351323E-2,-6.5412866E-3,-3.0575458E-2,-1.5663367E-2,1.1028132E-2,-9.14689E-3,3.101269E-3,5.170614E-4,1.6547559E-2,1.0185618E-2,2.7773825E-2,3.4610238E-2,4.917021E-3,3.5504777E-2,4.927218E-2,6.554821E-2,1.9211236E-2,2.0961234E-2,7.766408E-2,1.0066846E-1,5.4225314E-2],"split_indices":[8,8,8,8,8,8,8,6,8,100,9,3,3,9,8,0,0,121,81,99,8,48,95,126,8,32,106,126,92,72,134,0,0,0,0,0,0,0,0,0,0,0,0,0,0,0,0,0,0,0,0,0,0,0,0,0,0,0,0],"split_type":[0,0,0,0,0,0,0,0,0,0,0,0,0,0,0,0,0,0,0,0,0,0,0,0,0,0,0,0,0,0,0,0,0,0,0,0,0,0,0,0,0,0,0,0,0,0,0,0,0,0,0,0,0,0,0,0,0,0,0],"sum_hessian":[2.351E3,9.69E2,1.382E3,4.59E2,5.1E2,6.84E2,6.98E2,8.2E1,3.77E2,2.63E2,2.47E2,3.88E2,2.96E2,4.47E2,2.51E2,7.7E1,5E0,2.07E2,1.7E2,9.6E1,1.67E2,1.36E2,1.11E2,1.77E2,2.11E2,8.9E1,2.07E2,2.96E2,1.51E2,1.66E2,8.5E1,2.04E2,3E0,1.3E1,1.57E2,3E0,9.3E1,1.17E2,5E1,2E1,1.16E2,1.03E2,8E0,1.21E2,5.6E1,1.04E2,1.07E2,5.4E1,3.5E1,1.99E2,8E0,5.6E1,2.4E2,1.48E2,3E0,3E0,1.63E2,8.1E1,4E0],"tree_param":{"num_deleted":"0","num_feature":"150","num_nodes":"59","size_leaf_vector":"1"}},{"base_weights":[-5.8087237E-2,-4.62471E0,4.6507125E0,-8.148459E0,-2.2869582E0,2.4653413E0,6.924217E0,-1.053009E1,-6.846527E0,-3.2718046E0,-6.30572E-1,1.075899E0,3.3162937E0,5.7962904E0,8.645435E0,-1.2098803E-1,-9.288441E-2,-7.6954737E0,-5.9359355E0,-4.376957E0,-2.6224272E0,-1.2365799E0,-7.91666E-2,2.3564562E-1,1.8558304E0,2.8033032E0,4.2703767E0,5.047804E0,6.6100264E0,7.9083233E0,1.0011439E1,-8.208859E-2,-6.6759214E-2,-4.1291032E-2,-6.253313E-2,-2.7590236E-2,-4.80631E-2,-1.24731185E-2,-2.9739007E-2,-1.5232492E-2,7.1892296E-3,8.766748E-3,-5.473476E-3,-5.4791598E-3,6.7517827E-3,-3.9236126E-3,2.0937782E-2,2.2938757E-3,2.9726807E-2,9.7187525E-3,4.3421134E-2,3.571762E-2,5.3698823E-2,6.674151E-2,2.3835465E-2,2.9963002E-2,7.9880476E-2,1.01614654E-1,4.8206225E-2],"categories":[],"categories_nodes":[],"categories_segments":[],"categories_sizes":[],"default_left":[0,0,0,0,0,0,0,0,0,0,0,0,0,0,0,0,0,0,0,0,0,0,0,0,0,0,0,0,0,0,0,0,0,0,0,0,0,0,0,0,0,0,0,0,0,0,0,0,0,0,0,0,0,0,0,0,0,0,0],"id":1,"left_children":[1,3,5,7,9,11,13,15,17,19,21,23,25,27,29,-1,-1,31,33,35,37,39,41,43,45,47,49,51,53,55,57,-1,-1,-1,-1,-1,-1,-1,-1,-1,-1,-1,-1,-1,-1,-1,-1,-1,-1,-1,-1,-1,-1,-1,-1,-1,-1,-1,-1],"loss_changes":[5.048978E4,9.799604E3,5.7255215E3,1.3990098E3,1.1688096E3,6.947612E2,1.0472832E3,2.088164E2,1.9260059E2,3.1076953E2,8.96585E1,1.4746039E2,1.6645508E2,1.7559766E2,1.425664E2,0E0,0E0,2.5887695E1,6.1452637E1,1.0060254E2,1.3409705E2,7.2930145E1,6.3992878E1,3.826677E1,6.3581116E1,1.04065186E2,2.5062988E1,6.73999E1,2.7091309E1,3.3316406E1,7.1450195E0,0E0,0E0,0E0,0E0,0E0,0E0,0E0,0E0,0E0,0E0,0E0,0E0,0E0,0E0,0E0,0E0,0E0,0E0,0E0,0E0,0E0,0E0,0E0,0E0,0E0,0E0,0E0,0E0],"parents":[2147483647,0,0,1,1,2,2,3,3,4,4,5,5,6,6,7,7,8,8,9,9,10,10,11,11,12,12,13,13,14,14,17,17,18,18,19,19,20,20,21,21,22,22,23,23,24,24,25,25,26,26,27,27,28,28,29,29,30,30],"right_children":[2,4,6,8,10,12,14,16,18,20,22,24,26,28,30,-1,-1,32,34,36,38,40,42,44,46,48,50,52,54,56,58,-1,-1,-1,-1,-1,-1,-1,-1,-1,-1,-1,-1,-1,-1,-1,-1,-1,-1,-1,-1,-1,-1,-1,-1,-1,-1,-1,-1],"split_conditions":[1.14E1,4.8E0,1.6E1,7E-1,9E0,1.32E1,1.95E1,-1.4E0,2.9E0,6.5E0,6.8E0,8.1E-1,1.16E1,1.34E1,2.28E1,-1.2098803E-1,-9.288441E-2,5E-2,2.1E0,1.4857143E0,8.8E0,1.4303333E1,6E0,6.6E0,7.857143E0,6E-1,3.2E-1,1.2857143E-2,6E0,5.5E0,1.5E1,-8.208859E-2,-6.6759214E-2,-4.1291032E-2,-6.253313E-2,-2.7590236E-2,-4.80631E-2,-1.24731185E-2,-2.9739007E-2,-1.5232492E-2,7.1892296E-3,8.766748E-3,-5.473476E-3,-5.4791598E-3,6.7517827E-3,-3.9236126E-3,2.0937782E-2,2.2938757E-3,2.9726807E-2,9.7187525E-3,4.3421134E-2,3.571762E-2,5.3698823E-2,6.674151E-2,2.3835465E-2,2.9963002E-2,7.9880476E-2,1.01614654E-1,4.8206225E-2],"split_indices":[8,8,8,8,8,8,8,8,8,8,9,3,9,9,8,0,0,6,68,116,81,122,137,79,96,32,52,112,19,78,31,0,0,0,0,0,0,0,0,0,0,0,0,0,0,0,0,0,0,0,0,0,0,0,0,0,0,0,0],"split_type":[0,0,0,0,0,0,0,0,0,0,0,0,0,0,0,0,0,0,0,0,0,0,0,0,0,0,0,0,0,0,0,0,0,0,0,0,0,0,0,0,0,0,0,0,0,0,0,0,0,0,0,0,0,0,0,0,0,0,0],"sum_hessian":[2.346E3,1.191E3,1.155E3,4.74E2,7.17E2,5.9E2,5.65E2,1.65E2,3.09E2,4.49E2,2.68E2,2.25E2,3.65E2,3.44E2,2.21E2,6.9E1,9.6E1,1.56E2,1.53E2,1.64E2,2.85E2,1.27E2,1.41E2,1.09E2,1.16E2,2.4E2,1.25E2,1.83E2,1.61E2,1.48E2,7.3E1,9.9E1,5.7E1,2.5E1,1.28E2,3.6E1,1.28E2,5.9E1,2.26E2,1.11E2,1.6E1,4.6E1,9.5E1,3.9E1,7E1,1.1E1,1.05E2,1.5E1,2.25E2,3E0,1.22E2,3.5E1,1.48E2,1.58E2,3E0,3E0,1.45E2,7E1,3E0],"tree_param":{"num_deleted":"0","num_feature":"150","num_nodes":"59","size_leaf_vector":"1"}},{"base_weights":[3.9248995E-2,-4.721614E0,4.211739E0,-8.033999E0,-2.74165E0,2.045934E0,6.6084504E0,-9.953843E0,-6.62044E0,-4.058602E0,-1.1723895E0,1.2629856E0,3.9449291E0,5.286409E0,8.07756E0,-1.1307537E-1,-8.345472E0,-7.0745306E0,-4.6735287E0,-4.9290156E0,-3.0283055E0,-1.5547587E0,2.019319E0,5.593223E-1,2.4400566E0,4.3766704E0,1.9616917E0,4.38496E0,6.3330016E0,7.555244E0,1.0150506E1,-8.620477E-2,-3.4086738E-2,-4.648812E-2,-7.210619E-2,-1.0703943E-2,-5.2601516E-2,-3.7230678E-2,-5.3600777E-2,-3.5669528E-2,-1.867778E-2,-1.0537106E-2,-2.5715454E-2,3.3035405E-2,6.8870336E-3,-2.047064E-2,7.2763977E-3,7.7217054E-3,2.8388849E-2,4.0078744E-2,6.144846E-2,6.624161E-3,2.5795622E-2,4.468968E-2,6.6528213E-3,2.8143397E-2,6.4658314E-2,5.094717E-2,7.693228E-2,4.791781E-2,1.0374193E-1],"categories":[],"categories_nodes":[],"categories_segments":[],"categories_sizes":[],"default_left":[0,0,0,0,0,0,0,0,0,0,0,0,0,0,0,0,0,0,0,0,0,0,0,0,0,0,0,0,0,0,0,0,0,0,0,0,0,0,0,0,0,0,0,0,0,0,0,0,0,0,0,0,0,0,0,0,0,0,0,0,0],"id":2,"left_children":[1,3,5,7,9,11,13,15,17,19,21,23,25,27,29,-1,31,33,35,37,39,41,43,45,47,49,51,53,55,57,59,-1,-1,-1,-1,-1,-1,-1,-1,-1,-1,-1,-1,-1,-1,-1,-1,-1,-1,-1,-1,-1,-1,-1,-1,-1,-1,-1,-1,-1,-1],"loss_changes":[4.6443527E4,7.138674E3,6.4533613E3,1.0396797E3,1.4103677E3,9.6984766E2,1.1038164E3,2.7597852E2,1.7617285E2,3.1788086E2,3.8630203E2,3.8430518E2,1.5432324E2,2.6740137E2,2.2253906E2,0E0,8.073926E1,2.8345703E1,9.5193115E1,8.3103516E1,1.0093921E2,1.4008582E2,5.542502E1,1.2989684E2,1.1319165E2,7.608374E1,2.686728E1,5.0260742E1,4.771045E1,3.625586E1,1.2302246E1,0E0,0E0,0E0,0E0,0E0,0E0,0E0,0E0,0E0,0E0,0E0,0E0,0E0,0E0,0E0,0E0,0E0,0E0,0E0,0E0,0E0,0E0,0E0,0E0,0E0,0E0,0E0,0E0,0E0,0E0],"parents":[2147483647,0,0,1,1,2,2,3,3,4,4,5,5,6,6,7,7,8,8,9,9,10,10,11,11,12,12,13,13,14,14,16,16,17,17,18,18,19,19,20,20,21,21,22,22,23,23,24,24,25,25,26,26,27,27,28,28,29,29,30,30],"right_children":[2,4,6,8,10,12,14,16,18,20,22,24,26,28,30,-1,32,34,36,38,40,42,44,46,48,50,52,54,56,58,60,-1,-1,-1,-1,-1,-1,-1,-1,-1,-1,-1,-1,-1,-1,-1,-1,-1,-1,-1,-1,-1,-1,-1,-1,-1,-1,-1,-1,-1,-1],"split_conditions":[6.9E0,8E-1,1.16E1,-2.2E0,4.6E0,1.96E1,2.35E1,2.8E0,9.2E0,9.4E0,1.85E1,9.5E0,8.30797E-1,1.34E1,2.99E1,-1.1307537E-1,2.1E-1,3E0,1.08666666E-1,1.5857143E0,1.3E1,6.0666666E0,5.5E0,1.4E-1,9.543333E-1,2.43E1,4E0,1.11E2,9.543333E-1,8.356667E0,7.285714E0,-8.620477E-2,-3.4086738E-2,-4.648812E-2,-7.210619E-2,-1.0703943E-2,-5.2601516E-2,-3.7230678E-2,-5.3600777E-2,-3.5669528E-2,-1.867778E-2,-1.0537106E-2,-2.5715454E-2,3.3035405E-2,6.8870336E-3,-2.047064E-2,7.2763977E-3,7.7217054E-3,2.8388849E-2,4.0078744E-2,6.144846E-2,6.624161E-3,2.5795622E-2,4.468968E-2,6.6528213E-3,2.8143397E-2,6.4658314E-2,5.094717E-2,7.693228E-2,4.791781E-2,1.0374193E-1],"split_indices":[9,9,9,9,9,10,10,10,10,10,10,9,132,9,10,0,6,11,114,116,10,90,61,46,110,10,13,143,110,126,96,0,0,0,0,0,0,0,0,0,0,0,0,0,0,0,0,0,0,0,0,0,0,0,0,0,0,0,0,0,0],"split_type":[0,0,0,0,0,0,0,0,0,0,0,0,0,0,0,0,0,0,0,0,0,0,0,0,0,0,0,0,0,0,0,0,0,0,0,0,0,0,0,0,0,0,0,0,0,0,0,0,0,0,0,0,0,0,0,0,0,0,0,0,0],"sum_hessian":[2.336E3,1.091E3,1.245E3,4.07E2,6.84E2,6.55E2,5.9E2,1.7E2,2.37E2,3.71E2,3.13E2,4.65E2,1.9E2,3.13E2,2.77E2,8.9E1,8.1E1,1.9E2,4.7E1,1.99E2,1.72E2,2.8E2,3.3E1,2.92E2,1.73E2,1.55E2,3.5E1,1.71E2,1.42E2,2.25E2,5.2E1,7.6E1,5E0,1.2E1,1.78E2,7E0,4E1,5.5E1,1.44E2,1.16E2,5.6E1,1.89E2,9.1E1,1.6E1,1.7E1,1.7E1,2.75E2,3.4E1,1.39E2,1.31E2,2.4E1,1.2E1,2.3E1,1.67E2,4E0,6E0,1.36E2,1.4E1,2.11E2,3E0,4.9E1],"tree_param":{"num_deleted":"0","num_feature":"150","num_nodes":"61","size_leaf_vector":"1"}},{"base_weights":[-3.2223843E-2,-4.5755634E0,4.483805E0,-7.915835E0,-2.3611412E0,2.4229171E0,6.645296E0,-1.0249701E1,-6.668794E0,-3.9030278E0,-1.4990683E0,1.0174681E0,3.283631E0,5.749785E0,8.563729E0,-1.1816334E1,-9.1529556E-2,-7.331322E0,-5.929713E0,-4.908452E0,-3.3547275E0,-2.1738985E0,-6.593069E-1,1.1949875E-1,1.8032322E0,3.1909534E-1,3.4513566E0,4.1653805E0,6.1694093E0,7.799237E0,9.878993E-2,-1.2237403E-1,-7.4319415E-2,-7.5263985E-2,-4.8079472E-2,-4.2001918E-2,-6.2603414E-2,-1.3059872E-2,-5.0217222E-2,-7.511349E-3,-3.5533678E-2,-2.7142635E-2,-1.5790142E-2,-1.1854959E-2,9.278602E-4,1.3621802E-2,-2.505791E-3,-6.54464E-3,2.0782031E-2,-2.2851797E-3,9.543218E-3,2.8756663E-2,3.9695762E-2,3.1899627E-2,5.0416034E-2,6.292743E-2,3.6894303E-2,7.953699E-2,3.5736587E-2],"categories":[],"categories_nodes":[],"categories_segments":[],"categories_sizes":[],"default_left":[0,0,0,0,0,0,0,0,0,0,0,0,0,0,0,0,0,0,0,0,0,0,0,0,0,0,0,0,0,0,0,0,0,0,0,0,0,0,0,0,0,0,0,0,0,0,0,0,0,0,0,0,0,0,0,0,0,0,0],"id":3,"left_children":[1,3,5,7,9,11,13,15,17,19,21,23,25,27,29,31,-1,33,35,37,39,41,43,45,47,49,51,53,55,57,-1,-1,-1,-1,-1,-1,-1,-1,-1,-1,-1,-1,-1,-1,-1,-1,-1,-1,-1,-1,-1,-1,-1,-1,-1,-1,-1,-1,-1],"loss_changes":[4.7745055E4,8.560539E3,5.1815E3,1.2745742E3,9.2273315E2,7.20833E2,9.268574E2,1.629414E2,1.0405859E2,1.20525635E2,2.5329694E2,1.6117284E2,1.8299316E2,2.3322656E2,1.0116992E2,2.1545898E1,0E0,3.9371094E1,5.7862305E1,2.7901611E1,8.223486E1,7.532703E1,8.015937E1,5.012049E1,8.394949E1,7.595688E0,9.261572E1,5.574243E1,6.968652E1,4.7440918E1,0E0,0E0,0E0,0E0,0E0,0E0,0E0,0E0,0E0,0E0,0E0,0E0,0E0,0E0,0E0,0E0,0E0,0E0,0E0,0E0,0E0,0E0,0E0,0E0,0E0,0E0,0E0,0E0,0E0],"parents":[2147483647,0,0,1,1,2,2,3,3,4,4,5,5,6,6,7,7,8,8,9,9,10,10,11,11,12,12,13,13,14,14,15,15,17,17,18,18,19,19,20,20,21,21,22,22,23,23,24,24,25,25,26,26,27,27,28,28,29,29],"right_children":[2,4,6,8,10,12,14,16,18,20,22,24,26,28,30,32,-1,34,36,38,40,42,44,46,48,50,52,54,56,58,-1,-1,-1,-1,-1,-1,-1,-1,-1,-1,-1,-1,-1,-1,-1,-1,-1,-1,-1,-1,-1,-1,-1,-1,-1,-1,-1,-1,-1],"split_conditions":[1.12E1,4.8E0,1.6E1,7E-1,7.3E0,1.32E1,2E1,-1.4E0,2.9E0,8.142857E-1,9.3E0,8.1E-1,6E-1,1.452E1,2.29E1,6.5E0,-9.1529556E-2,6.3E0,2.1E0,1E-1,1.1818066E0,5.3E0,8.4E-1,1.0114E0,7.857143E0,6E0,1.46E1,4.857143E-2,1.024E0,1.1E2,9.878993E-2,-1.2237403E-1,-7.4319415E-2,-7.5263985E-2,-4.8079472E-2,-4.2001918E-2,-6.2603414E-2,-1.3059872E-2,-5.0217222E-2,-7.511349E-3,-3.5533678E-2,-2.7142635E-2,-1.5790142E-2,-1.1854959E-2,9.278602E-4,1.3621802E-2,-2.505791E-3,-6.54464E-3,2.0782031E-2,-2.2851797E-3,9.543218E-3,2.8756663E-2,3.9695762E-2,3.1899627E-2,5.0416034E-2,6.292743E-2,3.6894303E-2,7.953699E-2,3.5736587E-2],"split_indices":[8,8,8,8,8,8,8,8,8,100,8,3,32,122,8,66,0,1,68,63,125,1,3,39,96,144,8,112,40,143,0,0,0,0,0,0,0,0,0,0,0,0,0,0,0,0,0,0,0,0,0,0,0,0,0,0,0,0,0],"split_type":[0,0,0,0,0,0,0,0,0,0,0,0,0,0,0,0,0,0,0,0,0,0,0,0,0,0,0,0,0,0,0,0,0,0,0,0,0,0,0,0,0,0,0,0,0,0,0,0,0,0,0,0,0,0,0,0,0,0,0],"sum_hessian":[2.325E3,1.159E3,1.166E3,4.61E2,6.98E2,5.98E2,5.68E2,1.58E2,3.03E2,2.49E2,4.49E2,2.28E2,3.7E2,3.9E2,1.78E2,6.1E1,9.7E1,1.55E2,1.48E2,8.5E1,1.64E2,2.48E2,2.01E2,1.07E2,1.21E2,2E1,3.5E2,8.4E1,3.06E2,1.17E2,6.1E1,5.4E1,7E0,1.42E2,1.3E1,2.6E1,1.22E2,3E0,8.2E1,1.2E1,1.52E2,1.28E2,1.2E2,1.18E2,8.3E1,2.4E1,8.3E1,1.2E1,1.09E2,1.1E1,9E0,1.69E2,1.81E2,4.2E1,4.2E1,2.9E2,1.6E1,1.12E2,5E0],"tree_param":{"num_deleted":"0","num_feature":"150","num_nodes":"59","size_leaf_vector":"1"}},{"base_weights":[3.137222E-2,-4.7885056E0,4.067027E0,-8.140102E0,-2.7529123E0,2.2980468E0,6.8636203E0,-1.0422756E1,-7.1005106E0,-4.2002487E0,-1.5233974E0,9.542678E-1,3.4027703E0,5.9409833E0,8.149158E0,-2.9629676E-2,-1.0583726E1,-7.335328E0,-5.3154774E0,-5.198342E-1,-4.3630953E0,-2.4668076E0,-5.3883547E-1,-3.7313085E-2,1.8399653E0,1.9210957E0,3.8570104E0,4.3831377E0,6.287985E0,8.353971E0,5.239837E0,-5.628942E-2,-1.0886487E-1,-7.941319E-2,-6.433579E-2,-1.9252468E-2,-5.796958E-2,1.2299788E-2,-1.9984413E-2,-5.864713E-3,-4.426943E-2,-1.8613093E-2,-3.0070452E-2,-9.259189E-3,1.2409459E-2,-1.6020127E-2,2.8868406E-3,3.769917E-2,1.5438991E-2,2.4291659E-2,6.1742184E-3,1.636736E-2,3.9663553E-2,1.6964536E-2,4.6696108E-2,4.22036E-2,6.399923E-2,9.332252E-2,7.7554405E-2,2.0371478E-2,5.8145232E-2],"categories":[],"categories_nodes":[],"categories_segments":[],"categories_sizes":[],"default_left":[0,0,0,0,0,0,0,0,0,0,0,0,0,0,0,0,0,0,0,0,0,0,0,0,0,0,0,0,0,0,0,0,0,0,0,0,0,0,0,0,0,0,0,0,0,0,0,0,0,0,0,0,0,0,0,0,0,0,0,0,0],"id":4,"left_children":[1,3,5,7,9,11,13,15,17,19,21,23,25,27,29,-1,31,33,35,37,39,41,43,45,47,49,51,53,55,57,59,-1,-1,-1,-1,-1,-1,-1,-1,-1,-1,-1,-1,-1,-1,-1,-1,-1,-1,-1,-1,-1,-1,-1,-1,-1,-1,-1,-1,-1,-1],"loss_changes":[4.5243824E4,7.208338E3,6.2463613E3,8.734531E2,1.1692925E3,1.1497764E3,5.313594E2,1.1498633E2,7.6271484E1,1.7884473E2,3.3182593E2,3.093896E2,2.787256E2,1.2759766E2,7.523242E1,0E0,1.1708496E2,8.025879E1,4.6831177E1,3.875689E1,6.683008E1,5.3777832E1,1.2305702E2,8.577845E1,9.992749E1,6.575601E1,7.18501E1,3.4542725E1,2.6086914E1,3.5410156E1,1.681845E1,0E0,0E0,0E0,0E0,0E0,0E0,0E0,0E0,0E0,0E0,0E0,0E0,0E0,0E0,0E0,0E0,0E0,0E0,0E0,0E0,0E0,0E0,0E0,0E0,0E0,0E0,0E0,0E0,0E0,0E0],"parents":[2147483647,0,0,1,1,2,2,3,3,4,4,5,5,6,6,7,7,8,8,9,9,10,10,11,11,12,12,13,13,14,14,16,16,17,17,18,18,19,19,20,20,21,21,22,22,23,23,24,24,25,25,26,26,27,27,28,28,29,29,30,30],"right_children":[2,4,6,8,10,12,14,16,18,20,22,24,26,28,30,-1,32,34,36,38,40,42,44,46,48,50,52,54,56,58,60,-1,-1,-1,-1,-1,-1,-1,-1,-1,-1,-1,-1,-1,-1,-1,-1,-1,-1,-1,-1,-1,-1,-1,-1,-1,-1,-1,-1,-1,-1],"split_conditions":[6.9E0,8E-1,1.25E1,-3E0,3.9E0,9.4E0,1.5E1,8E-2,1.19E1,-3.684844E-1,7.5133336E-1,1.185E1,1.3743334E0,1.03E0,5.9E0,-2.9629676E-2,5E0,-6E-1,0E0,5.1E0,8.635475E-1,1.9119922E0,2.13E0,2.5E0,-9.4355315E-1,1.5E1,5.8E-1,3.4333334E0,7.9E0,6.8E-1,8E-1,-5.628942E-2,-1.0886487E-1,-7.941319E-2,-6.433579E-2,-1.9252468E-2,-5.796958E-2,1.2299788E-2,-1.9984413E-2,-5.864713E-3,-4.426943E-2,-1.8613093E-2,-3.0070452E-2,-9.259189E-3,1.2409459E-2,-1.6020127E-2,2.8868406E-3,3.769917E-2,1.5438991E-2,2.4291659E-2,6.1742184E-3,1.636736E-2,3.9663553E-2,1.6964536E-2,4.6696108E-2,4.22036E-2,6.399923E-2,9.332252E-2,7.7554405E-2,2.0371478E-2,5.8145232E-2],"split_indices":[9,9,9,9,9,9,9,48,84,133,110,122,110,5,1,0,25,9,79,66,125,121,5,75,133,2,34,90,76,3,46,0,0,0,0,0,0,0,0,0,0,0,0,0,0,0,0,0,0,0,0,0,0,0,0,0,0,0,0,0,0],"split_type":[0,0,0,0,0,0,0,0,0,0,0,0,0,0,0,0,0,0,0,0,0,0,0,0,0,0,0,0,0,0,0,0,0,0,0,0,0,0,0,0,0,0,0,0,0,0,0,0,0,0,0,0,0,0,0,0,0,0,0,0,0],"sum_hessian":[2.324E3,1.059E3,1.265E3,3.99E2,6.6E2,7.76E2,4.89E2,1.22E2,2.77E2,3.02E2,3.58E2,3.51E2,4.25E2,2.88E2,2.01E2,3E0,1.19E2,2.42E2,3.5E1,1.3E1,2.89E2,1.82E2,1.76E2,1.66E2,1.85E2,1.01E2,3.24E2,5.5E1,2.33E2,1.86E2,1.5E1,8E0,1.11E2,1.4E2,1.02E2,5E0,3E1,6E0,7E0,5E0,2.84E2,8.8E1,9.4E1,1.45E2,3.1E1,2.8E1,1.38E2,2.3E1,1.62E2,7.2E1,2.9E1,1.6E1,3.08E2,6E0,4.9E1,1.4E1,2.19E2,6.5E1,1.21E2,3E0,1.2E1],"tree_param":{"num_deleted":"0","num_feature":"150","num_nodes":"61","size_leaf_vector":"1"}},{"base_weights":[3.8546E-2,-5.4446573E0,3.5646043E0,-8.430309E0,-3.6540084E0,1.1374269E0,6.1517997E0,-1.1117248E1,-7.636512E0,-4.930431E0,-2.3734295E0,1.7792368E-1,2.8862607E0,5.2202415E0,8.456054E0,-1.1325926E-1,-4.504533E-2,-8.192445E0,-5.945552E0,-5.8490357E0,-3.989804E0,-2.9549897E0,-8.4232455E-1,-5.1553804E-1,1.4929273E0,2.014373E0,3.5909345E0,4.278087E0,6.373751E0,7.609835E0,9.301274E-2,-8.31428E-2,-3.648637E-2,-6.2425755E-2,-2.3662554E-2,-2.2647688E-2,-5.9887495E-2,-4.541057E-2,-3.2196082E-2,-1.1081811E-2,-3.358326E-2,-1.6453722E-2,4.3563503E-3,-1.0272011E-2,4.6650466E-4,2.9956657E-3,2.054075E-2,2.4965528E-2,9.182382E-3,2.8665219E-2,4.801608E-2,3.890366E-2,5.2588046E-2,2.760727E-2,6.461683E-2,3.2576766E-2,7.705863E-2],"categories":[],"categories_nodes":[],"categories_segments":[],"categories_sizes":[],"default_left":[0,0,0,0,0,0,0,0,0,0,0,0,0,0,0,0,0,0,0,0,0,0,0,0,0,0,0,0,0,0,0,0,0,0,0,0,0,0,0,0,0,0,0,0,0,0,0,0,0,0,0,0,0,0,0,0,0],"id":5,"left_children":[1,3,5,7,9,11,13,15,17,19,21,23,25,27,29,-1,-1,31,33,35,37,39,41,43,45,47,49,51,53,55,-1,-1,-1,-1,-1,-1,-1,-1,-1,-1,-1,-1,-1,-1,-1,-1,-1,-1,-1,-1,-1,-1,-1,-1,-1,-1,-1],"loss_changes":[4.5299668E4,4.870502E3,8.946961E3,6.4480664E2,9.2743994E2,1.2358748E3,1.4356074E3,5.2274414E1,2.0181348E2,2.2366553E2,2.5446533E2,4.3584598E2,1.5256348E2,5.085381E2,6.842969E1,0E0,0E0,7.863379E1,5.878711E1,5.7222168E1,4.6166748E1,1.5151282E2,8.396501E1,9.018077E1,1.0964188E2,6.0261627E1,1.1088428E2,8.319336E1,5.1132812E1,1.7264648E1,0E0,0E0,0E0,0E0,0E0,0E0,0E0,0E0,0E0,0E0,0E0,0E0,0E0,0E0,0E0,0E0,0E0,0E0,0E0,0E0,0E0,0E0,0E0,0E0,0E0,0E0,0E0],"parents":[2147483647,0,0,1,1,2,2,3,3,4,4,5,5,6,6,7,7,8,8,9,9,10,10,11,11,12,12,13,13,14,14,17,17,18,18,19,19,20,20,21,21,22,22,23,23,24,24,25,25,26,26,27,27,28,28,29,29],"right_children":[2,4,6,8,10,12,14,16,18,20,22,24,26,28,30,-1,-1,32,34,36,38,40,42,44,46,48,50,52,54,56,-1,-1,-1,-1,-1,-1,-1,-1,-1,-1,-1,-1,-1,-1,-1,-1,-1,-1,-1,-1,-1,-1,-1,-1,-1,-1,-1],"split_conditions":[5.5E0,1E-1,1.11E1,-4.4E0,9.4E0,1.77E1,2.54E1,1.1E-1,7.1E0,2.2E0,1.44E1,8.5E0,1.98E1,1.34E1,1.57E1,-1.1325926E-1,-4.504533E-2,7.3E0,4.6E-1,8E-2,3.7E0,8.7E0,1.0426666E1,5.8366666E0,1.444E1,8.3E0,1.517E1,2.19E1,9.116667E-1,1.4E1,9.301274E-2,-8.31428E-2,-3.648637E-2,-6.2425755E-2,-2.3662554E-2,-2.2647688E-2,-5.9887495E-2,-4.541057E-2,-3.2196082E-2,-1.1081811E-2,-3.358326E-2,-1.6453722E-2,4.3563503E-3,-1.0272011E-2,4.6650466E-4,2.9956657E-3,2.054075E-2,2.4965528E-2,9.182382E-3,2.8665219E-2,4.801608E-2,3.890366E-2,5.2588046E-2,2.760727E-2,6.461683E-2,3.2576766E-2,7.705863E-2],"split_indices":[9,9,9,9,10,10,10,6,10,9,10,9,10,9,9,0,0,1,54,47,9,81,122,126,130,7,122,10,110,86,0,0,0,0,0,0,0,0,0,0,0,0,0,0,0,0,0,0,0,0,0,0,0,0,0,0,0],"split_type":[0,0,0,0,0,0,0,0,0,0,0,0,0,0,0,0,0,0,0,0,0,0,0,0,0,0,0,0,0,0,0,0,0,0,0,0,0,0,0,0,0,0,0,0,0,0,0,0,0,0,0,0,0,0,0,0,0],"sum_hessian":[2.341E3,9.16E2,1.425E3,3.42E2,5.74E2,7.36E2,6.89E2,7.5E1,2.67E2,2.86E2,2.88E2,4.76E2,2.6E2,4.93E2,1.96E2,7.2E1,3E0,1.98E2,6.9E1,1.42E2,1.44E2,2.08E2,8E1,3.12E2,1.64E2,1.18E2,1.42E2,2.74E2,2.19E2,1.03E2,9.3E1,1.92E2,6E0,6.3E1,6E0,6E0,1.36E2,8.1E1,6.3E1,3.8E1,1.7E2,4.9E1,3.1E1,1.63E2,1.49E2,5.3E1,1.11E2,8.1E1,3.7E1,9.1E1,5.1E1,2E2,7.4E1,6E0,2.13E2,3E0,1E2],"tree_param":{"num_deleted":"0","num_feature":"150","num_nodes":"57","size_leaf_vector":"1"}},{"base_weights":[1.26167545E-2,-4.4419847E0,4.299825E0,-7.675671E0,-2.1940527E0,2.2889059E0,6.420661E0,-1.039375E1,-6.6337876E0,-3.2592945E0,-1.0029819E0,8.722451E-1,3.0902877E0,5.5162816E0,8.214377E0,-1.1690756E-1,-9.302696E0,-7.49853E0,-5.892899E0,-4.1192455E0,-2.629047E0,-1.574659E0,-2.4375638E-1,1.5528955E0,3.7641773E-1,2.16746E0,3.597634E0,4.7797313E0,6.3227634E0,7.3439255E0,9.3762455E0,-4.116196E-2,-9.460242E-2,-7.5923465E-2,-2.0338586E-2,-3.7586153E-2,-6.0669787E-2,-4.6749193E-2,-2.4152774E-2,-3.0703144E-3,-2.7928285E-2,-3.301318E-2,-1.4235017E-2,-3.2718673E-2,-3.469005E-4,3.0539377E-2,1.1805364E-2,-2.5109376E-3,8.2105035E-3,7.853874E-3,2.469602E-2,3.0158473E-2,4.3085895E-2,3.227025E-2,5.064013E-2,2.8754432E-2,6.402882E-2,1.9107388E-2,7.471504E-2,9.507632E-2,4.5108385E-2],"categories":[],"categories_nodes":[],"categories_segments":[],"categories_sizes":[],"default_left":[0,0,0,0,0,0,0,0,0,0,0,0,0,0,0,0,0,0,0,0,0,0,0,0,0,0,0,0,0,0,0,0,0,0,0,0,0,0,0,0,0,0,0,0,0,0,0,0,0,0,0,0,0,0,0,0,0,0,0,0,0],"id":6,"left_children":[1,3,5,7,9,11,13,15,17,19,21,23,25,27,29,-1,31,33,35,37,39,41,43,45,47,49,51,53,55,57,59,-1,-1,-1,-1,-1,-1,-1,-1,-1,-1,-1,-1,-1,-1,-1,-1,-1,-1,-1,-1,-1,-1,-1,-1,-1,-1,-1,-1,-1,-1],"loss_changes":[4.4860734E4,8.356184E3,5.0894336E3,1.2660137E3,8.603425E2,6.962446E2,8.974336E2,7.169336E1,1.7486621E2,1.830669E2,1.3962665E2,7.48192E1,1.7562573E2,2.0033496E2,1.2466016E2,0E0,2.098584E1,6.3060547E1,4.6805664E1,1.3002734E2,7.869617E1,4.2851532E1,8.818649E1,4.8510406E1,3.6813744E1,5.7031555E1,9.050659E1,7.46416E1,3.120459E1,6.449902E1,6.211426E0,0E0,0E0,0E0,0E0,0E0,0E0,0E0,0E0,0E0,0E0,0E0,0E0,0E0,0E0,0E0,0E0,0E0,0E0,0E0,0E0,0E0,0E0,0E0,0E0,0E0,0E0,0E0,0E0,0E0,0E0],"parents":[2147483647,0,0,1,1,2,2,3,3,4,4,5,5,6,6,7,7,8,8,9,9,10,10,11,11,12,12,13,13,14,14,16,16,17,17,18,18,19,19,20,20,21,21,22,22,23,23,24,24,25,25,26,26,27,27,28,28,29,29,30,30],"right_children":[2,4,6,8,10,12,14,16,18,20,22,24,26,28,30,-1,32,34,36,38,40,42,44,46,48,50,52,54,56,58,60,-1,-1,-1,-1,-1,-1,-1,-1,-1,-1,-1,-1,-1,-1,-1,-1,-1,-1,-1,-1,-1,-1,-1,-1,-1,-1,-1,-1,-1,-1],"split_conditions":[1.12E1,5E0,1.6E1,2E-1,5E0,1.31E1,1.99E1,-1.7E0,2.4E0,6.6E0,6.8E0,1.0129E0,9.793333E0,1.33E1,2.21E1,-1.1690756E-1,9E-2,9E0,1.7E0,9.1E-1,5.8566666E0,1.8E-1,1.6E0,2.794249E0,9E0,3E0,1.13E1,1.2857143E-2,9.116667E-1,1.6E0,1.6E1,-4.116196E-2,-9.460242E-2,-7.5923465E-2,-2.0338586E-2,-3.7586153E-2,-6.0669787E-2,-4.6749193E-2,-2.4152774E-2,-3.0703144E-3,-2.7928285E-2,-3.301318E-2,-1.4235017E-2,-3.2718673E-2,-3.469005E-4,3.0539377E-2,1.1805364E-2,-2.5109376E-3,8.2105035E-3,7.853874E-3,2.469602E-2,3.0158473E-2,4.3085895E-2,3.227025E-2,5.064013E-2,2.8754432E-2,6.402882E-2,1.9107388E-2,7.471504E-2,9.507632E-2,4.5108385E-2],"split_indices":[8,8,8,8,9,8,8,8,8,8,9,40,126,9,8,0,5,77,83,34,130,49,74,131,27,12,9,112,110,24,31,0,0,0,0,0,0,0,0,0,0,0,0,0,0,0,0,0,0,0,0,0,0,0,0,0,0,0,0,0,0],"split_type":[0,0,0,0,0,0,0,0,0,0,0,0,0,0,0,0,0,0,0,0,0,0,0,0,0,0,0,0,0,0,0,0,0,0,0,0,0,0,0,0,0,0,0,0,0,0,0,0,0,0,0,0,0,0,0,0,0,0,0,0,0],"sum_hessian":[2.347E3,1.151E3,1.196E3,4.71E2,6.8E2,6.15E2,5.81E2,1.28E2,3.43E2,3.58E2,3.22E2,2.23E2,3.92E2,3.89E2,1.92E2,5.4E1,7.4E1,1.54E2,1.89E2,1.49E2,2.09E2,1.83E2,1.39E2,9.3E1,1.3E2,1.41E2,2.51E2,2.07E2,1.82E2,1.14E2,7.8E1,3E0,7.1E1,1.51E2,3E0,1.6E1,1.73E2,1.11E2,3.8E1,1.4E1,1.95E2,1.3E1,1.7E2,8E0,1.31E2,1.7E1,7.6E1,5.4E1,7.6E1,2.6E1,1.15E2,1.41E2,1.1E2,3.4E1,1.73E2,5E0,1.77E2,3E0,1.11E2,7.5E1,3E0],"tree_param":{"num_deleted":"0","num_feature":"150","num_nodes":"61","size_leaf_vector":"1"}},{"base_weights":[-4.3026958E-2,-4.498164E0,4.385315E0,-7.634796E0,-2.3549533E0,2.3926258E0,6.4432073E0,-1.0489728E1,-6.658545E0,-3.4288065E0,-1.0876508E0,1.0227126E0,3.1781657E0,5.3672137E0,8.10747E0,-4.2785853E-2,-1.0613683E1,-7.6896954E0,-5.8491716E0,-4.144571E0,-2.8150387E0,-1.8052199E0,-6.005488E-1,2.1567333E-1,1.7427942E0,2.6673896E0,3.8918743E0,4.1021624E0,5.8973904E0,7.4367557E0,9.4951965E-2,-1.1238071E-1,-8.928551E-2,-7.884068E-2,-4.9972434E-2,-3.7214186E-2,-6.1012216E-2,-5.3860944E-2,-3.4697656E-2,-8.843367E-3,-3.142261E-2,-1.9890534E-2,5.529215E-3,-2.9344964E-3,-2.4513194E-2,-2.9445093E-3,9.4851125E-3,5.653883E-4,1.9377312E-2,2.8529575E-2,9.253677E-3,2.9363101E-2,4.3586254E-2,3.0187067E-2,4.781379E-2,5.2914113E-2,6.3671514E-2,2.8184397E-2,7.571243E-2],"categories":[],"categories_nodes":[],"categories_segments":[],"categories_sizes":[],"default_left":[0,0,0,0,0,0,0,0,0,0,0,0,0,0,0,0,0,0,0,0,0,0,0,0,0,0,0,0,0,0,0,0,0,0,0,0,0,0,0,0,0,0,0,0,0,0,0,0,0,0,0,0,0,0,0,0,0,0,0],"id":7,"left_children":[1,3,5,7,9,11,13,15,17,19,21,23,25,27,29,-1,31,33,35,37,39,41,43,45,47,49,51,53,55,57,-1,-1,-1,-1,-1,-1,-1,-1,-1,-1,-1,-1,-1,-1,-1,-1,-1,-1,-1,-1,-1,-1,-1,-1,-1,-1,-1,-1,-1],"loss_changes":[4.5869637E4,7.7723535E3,4.765162E3,1.2383887E3,9.3483813E2,6.3554565E2,9.8123047E2,4.3948242E1,2.4827539E2,1.5150049E2,1.0982562E2,1.2611548E2,1.2639673E2,2.1022266E2,1.352539E2,0E0,1.8644531E1,3.886035E1,8.464502E1,1.22849365E2,1.2569946E2,5.6732147E1,1.0756486E2,3.9223892E1,3.7493103E1,6.9069824E1,5.5604004E1,6.3527832E1,3.488672E1,7.38916E1,0E0,0E0,0E0,0E0,0E0,0E0,0E0,0E0,0E0,0E0,0E0,0E0,0E0,0E0,0E0,0E0,0E0,0E0,0E0,0E0,0E0,0E0,0E0,0E0,0E0,0E0,0E0,0E0,0E0],"parents":[2147483647,0,0,1,1,2,2,3,3,4,4,5,5,6,6,7,7,8,8,9,9,10,10,11,11,12,12,13,13,14,14,16,16,17,17,18,18,19,19,20,20,21,21,22,22,23,23,24,24,25,25,26,26,27,27,28,28,29,29],"right_children":[2,4,6,8,10,12,14,16,18,20,22,24,26,28,30,-1,32,34,36,38,40,42,44,46,48,50,52,54,56,58,-1,-1,-1,-1,-1,-1,-1,-1,-1,-1,-1,-1,-1,-1,-1,-1,-1,-1,-1,-1,-1,-1,-1,-1,-1,-1,-1,-1,-1],"split_conditions":[1.12E1,4.8E0,1.6E1,-1E-1,5E0,1.31E1,1.95E1,2.7285714E0,2.3E0,6.5E0,9E0,8.1E-1,1.48E1,7E-1,2.28E1,-4.2785853E-2,-8E-1,6.1E0,1.2E0,8.2285714E-1,8.8E0,8.9E-1,1.0231E0,1.24E1,5E0,9.272376E-1,7.5E-1,1.412E1,1.34E1,1.6E0,9.4951965E-2,-1.1238071E-1,-8.928551E-2,-7.884068E-2,-4.9972434E-2,-3.7214186E-2,-6.1012216E-2,-5.3860944E-2,-3.4697656E-2,-8.843367E-3,-3.142261E-2,-1.9890534E-2,5.529215E-3,-2.9344964E-3,-2.4513194E-2,-2.9445093E-3,9.4851125E-3,5.653883E-4,1.9377312E-2,2.8529575E-2,9.253677E-3,2.9363101E-2,4.3586254E-2,3.0187067E-2,4.781379E-2,5.2914113E-2,6.3671514E-2,2.8184397E-2,7.571243E-2],"split_indices":[8,8,8,8,9,8,8,92,8,8,8,3,8,3,8,0,8,1,67,100,81,58,45,8,136,132,3,122,9,24,0,0,0,0,0,0,0,0,0,0,0,0,0,0,0,0,0,0,0,0,0,0,0,0,0,0,0,0,0],"split_type":[0,0,0,0,0,0,0,0,0,0,0,0,0,0,0,0,0,0,0,0,0,0,0,0,0,0,0,0,0,0,0,0,0,0,0,0,0,0,0,0,0,0,0,0,0,0,0,0,0,0,0,0,0,0,0,0,0,0,0],"sum_hessian":[2.323E3,1.158E3,1.165E3,4.69E2,6.89E2,5.93E2,5.72E2,1.17E2,3.52E2,3.72E2,3.17E2,2.17E2,3.76E2,3.5E2,2.22E2,3E0,1.14E2,1.51E2,2.01E2,1.69E2,2.03E2,1.27E2,1.9E2,1.03E2,1.14E2,2.22E2,1.54E2,1.06E2,2.44E2,1.54E2,6.8E1,7.9E1,3.5E1,1.39E2,1.2E1,2.3E1,1.78E2,5.7E1,1.12E2,3E1,1.73E2,1.18E2,9E0,1.64E2,2.6E1,6.1E1,4.2E1,1.2E1,1.02E2,2E2,2.2E1,5.3E1,1.01E2,4.3E1,6.3E1,1.12E2,1.32E2,5E0,1.49E2],"tree_param":{"num_deleted":"0","num_feature":"150","num_nodes":"59","size_leaf_vector":"1"}},{"base_weights":[-4.585991E-2,-4.374277E0,4.2825103E0,-7.5943065E0,-2.1771853E0,2.2445726E0,6.373821E0,-9.801907E0,-6.462217E0,-3.7811682E0,-1.2695293E0,7.3723584E-1,3.0515711E0,5.215637E0,7.8527813E0,-1.1112093E1,-8.689609E0,-7.2631335E0,-5.5534782E0,-4.8409915E0,-3.262782E0,-2.0878332E0,-5.4328966E-1,-1.0253957E-1,1.5082688E0,2.288556E0,3.5174327E0,4.115147E0,5.6664457E0,8.060128E0,3.4928367E0,-7.6664686E-2,-1.1506062E-1,-5.1246848E-2,-8.9302145E-2,-6.1407898E-2,-8.008651E-2,-3.93564E-2,-5.7713326E-2,-1.9092819E-2,-5.0119273E-2,-8.724004E-3,-3.4557473E-2,-7.863347E-3,-2.3961077E-2,-2.1927543E-2,-3.6990228E-3,-8.89199E-3,3.2108536E-3,-4.0627024E-3,1.8259248E-2,-4.5270235E-3,2.4091253E-2,2.8142197E-2,4.1725192E-2,3.18315E-2,4.9255613E-2,2.596675E-2,5.7239555E-2,7.5477056E-2,9.526154E-2,4.2501505E-2,1.4111043E-2],"categories":[],"categories_nodes":[],"categories_segments":[],"categories_sizes":[],"default_left":[0,0,0,0,0,0,0,0,0,0,0,0,0,0,0,0,0,0,0,0,0,0,0,0,0,0,0,0,0,0,0,0,0,0,0,0,0,0,0,0,0,0,0,0,0,0,0,0,0,0,0,0,0,0,0,0,0,0,0,0,0,0,0],"id":8,"left_children":[1,3,5,7,9,11,13,15,17,19,21,23,25,27,29,31,33,35,37,39,41,43,45,47,49,51,53,55,57,59,61,-1,-1,-1,-1,-1,-1,-1,-1,-1,-1,-1,-1,-1,-1,-1,-1,-1,-1,-1,-1,-1,-1,-1,-1,-1,-1,-1,-1,-1,-1,-1,-1],"loss_changes":[4.3090484E4,8.1183945E3,4.886086E3,1.0996582E3,9.9196216E2,7.0776E2,9.2895703E2,1.2880176E2,1.8473535E2,1.190957E2,2.594936E2,1.330316E2,1.26444336E2,1.3495605E2,1.9398438E2,2.1796875E0,2.9168945E1,8.495508E1,2.9183594E1,2.932837E1,7.450537E1,8.044879E1,6.5855774E1,3.333393E1,6.595743E1,4.987146E1,9.535498E1,5.6774902E1,2.4026367E1,1.02930664E2,1.393129E1,0E0,0E0,0E0,0E0,0E0,0E0,0E0,0E0,0E0,0E0,0E0,0E0,0E0,0E0,0E0,0E0,0E0,0E0,0E0,0E0,0E0,0E0,0E0,0E0,0E0,0E0,0E0,0E0,0E0,0E0,0E0,0E0],"parents":[2147483647,0,0,1,1,2,2,3,3,4,4,5,5,6,6,7,7,8,8,9,9,10,10,11,11,12,12,13,13,14,14,15,15,16,16,17,17,18,18,19,19,20,20,21,21,22,22,23,23,24,24,25,25,26,26,27,27,28,28,29,29,30,30],"right_children":[2,4,6,8,10,12,14,16,18,20,22,24,26,28,30,32,34,36,38,40,42,44,46,48,50,52,54,56,58,60,62,-1,-1,-1,-1,-1,-1,-1,-1,-1,-1,-1,-1,-1,-1,-1,-1,-1,-1,-1,-1,-1,-1,-1,-1,-1,-1,-1,-1,-1,-1,-1,-1],"split_conditions":[1.12E1,4.8E0,1.6E1,6E-1,7.3E0,1.3E1,1.92E1,-1.4E0,2.9E0,8.142857E-1,9E0,8.1E-1,1.4606667E1,7E-1,7.232617E-1,-5.2E0,1.7E0,1.3E0,3.7966666E0,2.9470422E0,1.1818066E0,8.9E0,1.8E0,5.5E0,7E0,3.0666666E0,1.46E1,1.74E1,6.4E0,2.33E1,9.039462E-1,-7.6664686E-2,-1.1506062E-1,-5.1246848E-2,-8.9302145E-2,-6.1407898E-2,-8.008651E-2,-3.93564E-2,-5.7713326E-2,-1.9092819E-2,-5.0119273E-2,-8.724004E-3,-3.4557473E-2,-7.863347E-3,-2.3961077E-2,-2.1927543E-2,-3.6990228E-3,-8.89199E-3,3.2108536E-3,-4.0627024E-3,1.8259248E-2,-4.5270235E-3,2.4091253E-2,2.8142197E-2,4.1725192E-2,3.18315E-2,4.9255613E-2,2.596675E-2,5.7239555E-2,7.5477056E-2,9.526154E-2,4.2501505E-2,1.4111043E-2],"split_indices":[8,8,8,8,8,8,8,8,8,100,8,3,122,3,132,80,18,67,94,99,125,81,74,80,29,90,8,8,78,8,132,0,0,0,0,0,0,0,0,0,0,0,0,0,0,0,0,0,0,0,0,0,0,0,0,0,0,0,0,0,0,0,0],"split_type":[0,0,0,0,0,0,0,0,0,0,0,0,0,0,0,0,0,0,0,0,0,0,0,0,0,0,0,0,0,0,0,0,0,0,0,0,0,0,0,0,0,0,0,0,0,0,0,0,0,0,0,0,0,0,0,0,0,0,0,0,0,0,0],"sum_hessian":[2.298E3,1.149E3,1.149E3,4.65E2,6.84E2,5.83E2,5.66E2,1.55E2,3.1E2,2.46E2,4.38E2,2.04E2,3.79E2,3.2E2,2.46E2,6.7E1,8.8E1,1.61E2,1.49E2,7.8E1,1.68E2,2.05E2,2.33E2,9.8E1,1.06E2,1.46E2,2.33E2,9.6E1,2.24E2,2.34E2,1.2E1,9E0,5.8E1,7E0,8.1E1,6.8E1,9.3E1,2E1,1.29E2,5E0,7.3E1,1.3E1,1.55E2,4E1,1.65E2,2.1E1,2.12E2,3.4E1,6.4E1,1.5E1,9.1E1,6E0,1.4E2,1.15E2,1.18E2,4.7E1,4.9E1,5E0,2.19E2,1.78E2,5.6E1,8E0,4E0],"tree_param":{"num_deleted":"0","num_feature":"150","num_nodes":"63","size_leaf_vector":"1"}},{"base_weights":[2.5110543E-2,-4.324267E0,4.194526E0,-7.394326E0,-2.2160954E0,2.22071E0,6.2512503E0,-9.196464E0,-5.921261E0,-3.649907E0,-1.4297E0,9.6810085E-1,3.0860307E0,5.3035707E0,8.1049595E0,-1.0962958E-1,-8.068815E0,-6.4949617E0,-5.2691445E0,-4.4917407E0,-3.142339E0,-2.122851E0,-7.010786E-1,1.7814358E-1,1.6961057E0,1.9779995E-1,3.2175891E0,3.4418604E0,5.5951705E0,7.5820312E0,9.425449E-2,-5.7846375E-2,-8.355305E-2,-6.615967E-2,-2.0056037E-2,-2.1600237E-2,-5.430333E-2,-5.711626E-3,-4.6207007E-2,-7.209668E-3,-3.3036683E-2,-2.7179329E-2,-1.5136142E-2,-1.2184979E-2,5.2983576E-4,-6.708951E-4,1.6179526E-2,-6.5637967E-3,1.9376574E-2,-5.7576555E-3,6.8117795E-3,2.639613E-2,3.8239826E-2,2.1285083E-2,4.1095976E-2,4.812249E-2,6.082971E-2,3.399291E-2,7.674561E-2],"categories":[],"categories_nodes":[],"categories_segments":[],"categories_sizes":[],"default_left":[0,0,0,0,0,0,0,0,0,0,0,0,0,0,0,0,0,0,0,0,0,0,0,0,0,0,0,0,0,0,0,0,0,0,0,0,0,0,0,0,0,0,0,0,0,0,0,0,0,0,0,0,0,0,0,0,0,0,0],"id":9,"left_children":[1,3,5,7,9,11,13,15,17,19,21,23,25,27,29,-1,31,33,35,37,39,41,43,45,47,49,51,53,55,57,-1,-1,-1,-1,-1,-1,-1,-1,-1,-1,-1,-1,-1,-1,-1,-1,-1,-1,-1,-1,-1,-1,-1,-1,-1,-1,-1,-1,-1],"loss_changes":[4.2905895E4,7.4774746E3,4.88926E3,1.1943809E3,7.7002344E2,6.664624E2,9.938965E2,3.2795508E2,6.2620117E1,8.895288E1,2.2347931E2,1.4558397E2,1.3771167E2,1.9373047E2,6.3558594E1,0E0,3.6632812E1,5.9206543E1,5.1658936E1,4.1839844E1,5.776477E1,7.812341E1,8.5627556E1,4.369356E1,7.64086E1,6.759458E0,1.1157739E2,3.973938E1,9.910449E1,2.9698242E1,0E0,0E0,0E0,0E0,0E0,0E0,0E0,0E0,0E0,0E0,0E0,0E0,0E0,0E0,0E0,0E0,0E0,0E0,0E0,0E0,0E0,0E0,0E0,0E0,0E0,0E0,0E0,0E0,0E0],"parents":[2147483647,0,0,1,1,2,2,3,3,4,4,5,5,6,6,7,7,8,8,9,9,10,10,11,11,12,12,13,13,14,14,16,16,17,17,18,18,19,19,20,20,21,21,22,22,23,23,24,24,25,25,26,26,27,27,28,28,29,29],"right_children":[2,4,6,8,10,12,14,16,18,20,22,24,26,28,30,-1,32,34,36,38,40,42,44,46,48,50,52,54,56,58,-1,-1,-1,-1,-1,-1,-1,-1,-1,-1,-1,-1,-1,-1,-1,-1,-1,-1,-1,-1,-1,-1,-1,-1,-1,-1,-1,-1,-1],"split_conditions":[1.12E1,4.8E0,1.6E1,1.5E0,7.3E0,1.32E1,1.99E1,-8E-1,7E0,8.2E-1,9.2E0,8.1E-1,5.9E-1,8.453333E0,2.33E1,-1.0962958E-1,9E-1,8.9E0,3.62E0,2.8855567E0,1.1818066E0,5E0,8.4E-1,1.3E1,7.857143E0,2.9E0,1.46E1,3E0,1.73E1,1.6E0,9.425449E-2,-5.7846375E-2,-8.355305E-2,-6.615967E-2,-2.0056037E-2,-2.1600237E-2,-5.430333E-2,-5.711626E-3,-4.6207007E-2,-7.209668E-3,-3.3036683E-2,-2.7179329E-2,-1.5136142E-2,-1.2184979E-2,5.2983576E-4,-6.708951E-4,1.6179526E-2,-6.5637967E-3,1.9376574E-2,-5.7576555E-3,6.8117795E-3,2.639613E-2,3.8239826E-2,2.1285083E-2,4.1095976E-2,4.812249E-2,6.082971E-2,3.399291E-2,7.674561E-2],"split_indices":[8,8,8,8,8,8,8,8,0,100,8,3,32,126,8,0,81,77,94,99,125,9,3,8,96,23,8,11,8,24,0,0,0,0,0,0,0,0,0,0,0,0,0,0,0,0,0,0,0,0,0,0,0,0,0,0,0,0,0],"split_type":[0,0,0,0,0,0,0,0,0,0,0,0,0,0,0,0,0,0,0,0,0,0,0,0,0,0,0,0,0,0,0,0,0,0,0,0,0,0,0,0,0,0,0,0,0,0,0,0,0,0,0,0,0,0,0,0,0,0,0],"sum_hessian":[2.364E3,1.157E3,1.207E3,4.7E2,6.87E2,6.17E2,5.9E2,2.09E2,2.61E2,2.42E2,4.45E2,2.53E2,3.64E2,3.93E2,1.97E2,7.8E1,1.31E2,1.34E2,1.27E2,8.8E1,1.54E2,2.27E2,2.18E2,1.22E2,1.31E2,1.6E1,3.48E2,5.5E1,3.38E2,1.46E2,5.1E1,1.7E1,1.14E2,1.3E2,4E0,7E0,1.2E2,3E0,8.5E1,1E1,1.44E2,1.13E2,1.14E2,1.29E2,8.9E1,1.05E2,1.7E1,1.2E1,1.19E2,6E0,1E1,1.81E2,1.67E2,2E1,3.5E1,1.34E2,2.04E2,4E0,1.42E2],"tree_param":{"num_deleted":"0","num_feature":"150","num_nodes":"59","size_leaf_vector":"1"}},{"base_weights":[6.9772825E-2,-4.6085334E0,3.872523E0,-7.513793E0,-2.653225E0,2.0516272E0,6.2525897E0,-9.231699E0,-6.2936482E0,-4.0265427E0,-1.5600767E0,7.2187495E-1,3.1180155E0,5.335366E0,7.9903374E0,-9.8755455E0,-6.6303234E0,-6.6217375E0,-4.3714876E0,-4.55846E0,-2.899825E0,-2.0091178E0,9.9888384E-2,9.096164E-2,1.7247612E0,2.6585135E0,4.615087E0,4.549609E0,6.1805425E0,7.132189E0,8.8732876E-2,-1.0012501E-1,-4.2921983E-2,-7.126036E-2,-2.8647985E-2,-2.543513E-2,-6.708735E-2,-2.0586336E-2,-5.5803407E-2,-1.5278806E-2,-4.6862382E-2,-3.127937E-3,-3.404992E-2,-5.3472375E-3,-2.2884164E-2,-3.987745E-3,1.9698812E-2,-2.0692531E-2,2.5273731E-3,9.327E-3,2.487858E-2,2.8817715E-2,5.5300505E-3,5.381773E-2,3.187957E-2,3.1787854E-2,4.8977997E-2,3.5769306E-2,6.2520675E-2,7.6880574E-2,6.005669E-2],"categories":[],"categories_nodes":[],"categories_segments":[],"categories_sizes":[],"default_left":[0,0,0,0,0,0,0,0,0,0,0,0,0,0,0,0,0,0,0,0,0,0,0,0,0,0,0,0,0,0,0,0,0,0,0,0,0,0,0,0,0,0,0,0,0,0,0,0,0,0,0,0,0,0,0,0,0,0,0,0,0],"id":10,"left_children":[1,3,5,7,9,11,13,15,17,19,21,23,25,27,29,31,33,35,37,39,41,43,45,47,49,51,53,55,57,59,-1,-1,-1,-1,-1,-1,-1,-1,-1,-1,-1,-1,-1,-1,-1,-1,-1,-1,-1,-1,-1,-1,-1,-1,-1,-1,-1,-1,-1,-1,-1],"loss_changes":[4.118483E4,5.875592E3,5.520674E3,8.1441797E2,9.2693066E2,1.0254385E3,8.3746484E2,2.1927637E2,1.2572168E2,1.5084863E2,2.597882E2,2.0466751E2,2.6354224E2,2.1320605E2,7.832031E1,5.882422E1,4.7651245E1,5.6164062E1,9.678833E1,6.3858154E1,1.174895E2,1.1132605E2,7.0879845E1,7.023537E1,7.288995E1,1.4378516E2,8.374304E1,7.57439E1,8.870605E0,1.570459E1,0E0,0E0,0E0,0E0,0E0,0E0,0E0,0E0,0E0,0E0,0E0,0E0,0E0,0E0,0E0,0E0,0E0,0E0,0E0,0E0,0E0,0E0,0E0,0E0,0E0,0E0,0E0,0E0,0E0,0E0,0E0],"parents":[2147483647,0,0,1,1,2,2,3,3,4,4,5,5,6,6,7,7,8,8,9,9,10,10,11,11,12,12,13,13,14,14,15,15,16,16,17,17,18,18,19,19,20,20,21,21,22,22,23,23,24,24,25,25,26,26,27,27,28,28,29,29],"right_children":[2,4,6,8,10,12,14,16,18,20,22,24,26,28,30,32,34,36,38,40,42,44,46,48,50,52,54,56,58,60,-1,-1,-1,-1,-1,-1,-1,-1,-1,-1,-1,-1,-1,-1,-1,-1,-1,-1,-1,-1,-1,-1,-1,-1,-1,-1,-1,-1,-1,-1,-1],"split_conditions":[6.7E0,8E-1,1.2E1,-2.2E0,3.9E0,1.68E1,2.54E1,5.3E0,9.4E0,1.05E1,1.54E1,1.6993334E1,2.26E1,1.37E1,1.57E1,5.8966666E-1,7E-2,3.51E0,1.0169E0,1.0435745E0,1.01E0,-8.048257E-1,1.96E1,4E0,9.3E0,9.039462E-1,5.9437615E-1,8.4E-1,1.003E0,3.3E0,8.8732876E-2,-1.0012501E-1,-4.2921983E-2,-7.126036E-2,-2.8647985E-2,-2.543513E-2,-6.708735E-2,-2.0586336E-2,-5.5803407E-2,-1.5278806E-2,-4.6862382E-2,-3.127937E-3,-3.404992E-2,-5.3472375E-3,-2.2884164E-2,-3.987745E-3,1.9698812E-2,-2.0692531E-2,2.5273731E-3,9.327E-3,2.487858E-2,2.8817715E-2,5.5300505E-3,5.381773E-2,3.187957E-2,3.1787854E-2,4.8977997E-2,3.5769306E-2,6.2520675E-2,7.6880574E-2,6.005669E-2],"split_indices":[9,9,9,9,9,10,10,10,10,10,10,130,10,9,9,110,6,94,40,125,4,132,10,68,9,132,132,5,4,1,0,0,0,0,0,0,0,0,0,0,0,0,0,0,0,0,0,0,0,0,0,0,0,0,0,0,0,0,0,0,0],"split_type":[0,0,0,0,0,0,0,0,0,0,0,0,0,0,0,0,0,0,0,0,0,0,0,0,0,0,0,0,0,0,0,0,0,0,0,0,0,0,0,0,0,0,0,0,0,0,0,0,0,0,0,0,0,0,0,0,0,0,0,0,0],"sum_hessian":[2.313E3,1.037E3,1.276E3,4.16E2,6.21E2,7.24E2,5.52E2,1.7E2,2.46E2,2.74E2,3.47E2,3.23E2,4.01E2,3.64E2,1.88E2,1.34E2,3.6E1,2.08E2,3.8E1,1.84E2,9E1,2.73E2,7.4E1,1.99E2,1.24E2,3.09E2,9.2E1,1.92E2,1.72E2,1E2,8.8E1,1.3E2,4E0,3.1E1,5E0,5E0,2.03E2,1.4E1,2.4E1,8E0,1.76E2,1.5E1,7.5E1,4.4E1,2.29E2,5.9E1,1.5E1,1.3E1,1.86E2,6.2E1,6.2E1,2.79E2,3E1,5.8E1,3.4E1,4.1E1,1.51E2,6E0,1.66E2,6.3E1,3.7E1],"tree_param":{"num_deleted":"0","num_feature":"150","num_nodes":"61","size_leaf_vector":"1"}},{"base_weights":[2.8071979E-3,-4.4951124E0,3.719622E0,-7.0735273E0,-2.3928592E0,1.9394917E0,6.18419E0,-9.16814E0,-5.8902774E0,-3.8799908E0,-1.6120138E0,1.7120121E-1,2.7011664E0,5.271183E0,7.7373075E0,-1.0488178E1,-8.228615E0,-6.1860437E0,-4.5944653E0,-4.71136E0,-3.0895057E0,-1.97273E0,-2.7020937E-1,3.4301955E-1,-1.827756E0,1.697685E0,3.4553268E0,3.9258285E0,5.6340137E0,6.861494E0,8.622917E0,-5.296447E-2,-1.08198255E-1,-8.769499E-2,-6.2648274E-2,-6.797119E-2,-5.503408E-2,-4.889132E-2,8.0181835E-3,3.0910452E-3,-4.8777092E-2,-6.327008E-3,-3.3953454E-2,-2.5958518E-2,-1.4098957E-2,1.7926028E-2,-6.8034027E-3,-7.933076E-3,6.1725853E-3,-2.8006865E-2,5.682195E-3,1.4046619E-2,3.365831E-2,3.0985849E-2,4.566496E-2,4.270091E-2,2.2344872E-2,4.5965638E-2,5.985862E-2,3.4889016E-2,6.995575E-2,8.733304E-2,3.930895E-2],"categories":[],"categories_nodes":[],"categories_segments":[],"categories_sizes":[],"default_left":[0,0,0,0,0,0,0,0,0,0,0,0,0,0,0,0,0,0,0,0,0,0,0,0,0,0,0,0,0,0,0,0,0,0,0,0,0,0,0,0,0,0,0,0,0,0,0,0,0,0,0,0,0,0,0,0,0,0,0,0,0,0,0],"id":11,"left_children":[1,3,5,7,9,11,13,15,17,19,21,23,25,27,29,31,33,35,37,39,41,43,45,47,49,51,53,55,57,59,61,-1,-1,-1,-1,-1,-1,-1,-1,-1,-1,-1,-1,-1,-1,-1,-1,-1,-1,-1,-1,-1,-1,-1,-1,-1,-1,-1,-1,-1,-1,-1,-1],"loss_changes":[3.920348E4,5.73326E3,5.620424E3,1.1242363E3,6.736709E2,1.00535645E3,7.2080273E2,1.2266113E2,8.816211E1,1.16758545E2,1.8607074E2,7.8099884E1,3.886609E2,1.4386816E2,9.208496E1,5.6443848E1,5.4024414E1,6.4396484E1,1.0132544E2,8.213916E1,7.709613E1,1.0255676E2,7.132827E1,6.5601746E1,4.3774776E1,1.0526514E2,1.0281494E2,3.4060303E1,6.888965E1,2.1573242E1,1.3089844E1,0E0,0E0,0E0,0E0,0E0,0E0,0E0,0E0,0E0,0E0,0E0,0E0,0E0,0E0,0E0,0E0,0E0,0E0,0E0,0E0,0E0,0E0,0E0,0E0,0E0,0E0,0E0,0E0,0E0,0E0,0E0,0E0],"parents":[2147483647,0,0,1,1,2,2,3,3,4,4,5,5,6,6,7,7,8,8,9,9,10,10,11,11,12,12,13,13,14,14,15,15,16,16,17,17,18,18,19,19,20,20,21,21,22,22,23,23,24,24,25,25,26,26,27,27,28,28,29,29,30,30],"right_children":[2,4,6,8,10,12,14,16,18,20,22,24,26,28,30,32,34,36,38,40,42,44,46,48,50,52,54,56,58,60,62,-1,-1,-1,-1,-1,-1,-1,-1,-1,-1,-1,-1,-1,-1,-1,-1,-1,-1,-1,-1,-1,-1,-1,-1,-1,-1,-1,-1,-1,-1,-1,-1],"split_conditions":[6.7E0,1.6E0,1.2E1,-2.1E0,3.5E0,1.1342857E1,1.5E1,-4.4E0,1.13E1,4.1E-1,1.6063334E1,9.6E-1,9.5E0,1.01E0,7.2E0,8.2766664E-1,6.6E0,-1E-1,8.9428574E-1,9.974E-1,7.8497803E-1,5E0,1.4E1,7.2E0,9.4E-1,2.77E0,8.8E0,3.309306E0,1.28E1,1.96E1,5E-1,-5.296447E-2,-1.08198255E-1,-8.769499E-2,-6.2648274E-2,-6.797119E-2,-5.503408E-2,-4.889132E-2,8.0181835E-3,3.0910452E-3,-4.8777092E-2,-6.327008E-3,-3.3953454E-2,-2.5958518E-2,-1.4098957E-2,1.7926028E-2,-6.8034027E-3,-7.933076E-3,6.1725853E-3,-2.8006865E-2,5.682195E-3,1.4046619E-2,3.365831E-2,3.0985849E-2,4.566496E-2,4.270091E-2,2.2344872E-2,4.5965638E-2,5.985862E-2,3.4889016E-2,6.995575E-2,8.733304E-2,3.930895E-2],"split_indices":[9,9,9,9,9,120,9,9,84,46,130,55,9,5,7,102,60,9,100,44,93,9,144,9,34,5,7,123,9,81,134,0,0,0,0,0,0,0,0,0,0,0,0,0,0,0,0,0,0,0,0,0,0,0,0,0,0,0,0,0,0,0,0],"split_type":[0,0,0,0,0,0,0,0,0,0,0,0,0,0,0,0,0,0,0,0,0,0,0,0,0,0,0,0,0,0,0,0,0,0,0,0,0,0,0,0,0,0,0,0,0,0,0,0,0,0,0,0,0,0,0,0,0,0,0,0,0,0,0],"sum_hessian":[2.343E3,1.06E3,1.283E3,4.75E2,5.85E2,7.46E2,5.37E2,1.69E2,3.06E2,2E2,3.85E2,2.25E2,5.21E2,3.41E2,1.96E2,6.6E1,1.03E2,2.46E2,6E1,9.5E1,1.05E2,3.03E2,8.2E1,2.08E2,1.7E1,2.25E2,2.96E2,7.5E1,2.66E2,1.03E2,9.3E1,5E0,6.1E1,7.8E1,2.5E1,1.25E2,1.21E2,5.7E1,3E0,3E0,9.2E1,1.2E1,9.3E1,1.42E2,1.61E2,1.3E1,6.9E1,4E1,1.68E2,1.2E1,5E0,1.93E2,3.2E1,2.27E2,6.9E1,6.1E1,1.4E1,7.1E1,1.95E2,5E0,9.8E1,9E1,3E0],"tree_param":{"num_deleted":"0","num_feature":"150","num_nodes":"63","size_leaf_vector":"1"}},{"base_weights":[-4.0408522E-2,-4.209064E0,4.0890036E0,-7.2197304E0,-2.1373436E0,2.123065E0,6.1194563E0,-9.936255E0,-6.26513E0,-3.6885953E0,-1.3084847E0,7.1281856E-1,2.8279169E0,5.4795732E0,8.105321E0,-1.1295555E1,-8.95061E0,-6.6794524E0,-4.964611E0,-3.3958774E0,-5.5398684E0,-1.9351597E0,-5.220308E-1,-2.1355824E-1,1.2831266E0,2.3508136E0,3.5972085E0,4.77395E0,6.182232E0,7.386457E0,9.258228E-2,-1.16605386E-1,-5.877591E-2,-9.096988E-2,-4.0531456E-2,-6.7383364E-2,-1.1423865E-2,-2.6190165E-2,-5.260541E-2,-2.7514793E-2,-3.814606E-2,-2.7522024E-2,-5.736683E-2,-2.5652952E-2,-1.3786347E-2,-1.606996E-2,-1.4176265E-3,-1.1887759E-2,3.348348E-3,-9.250282E-3,1.5288666E-2,1.9442864E-2,3.0928265E-2,2.4624057E-2,4.044085E-2,4.2543784E-2,5.5978734E-2,3.3372328E-2,6.275129E-2,3.2558344E-2,7.539557E-2],"categories":[],"categories_nodes":[],"categories_segments":[],"categories_sizes":[],"default_left":[0,0,0,0,0,0,0,0,0,0,0,0,0,0,0,0,0,0,0,0,0,0,0,0,0,0,0,0,0,0,0,0,0,0,0,0,0,0,0,0,0,0,0,0,0,0,0,0,0,0,0,0,0,0,0,0,0,0,0,0,0],"id":12,"left_children":[1,3,5,7,9,11,13,15,17,19,21,23,25,27,29,31,33,35,37,39,41,43,45,47,49,51,53,55,57,59,-1,-1,-1,-1,-1,-1,-1,-1,-1,-1,-1,-1,-1,-1,-1,-1,-1,-1,-1,-1,-1,-1,-1,-1,-1,-1,-1,-1,-1,-1,-1],"loss_changes":[4.0091637E4,7.212617E3,4.6565254E3,1.1601172E3,8.792825E2,5.9006323E2,6.8489453E2,5.898828E1,1.5534375E2,1.0980835E2,2.205271E2,1.06045006E2,1.366604E2,1.8655664E2,4.4323242E1,2.2651367E1,1.557959E1,7.759082E1,4.721216E1,4.5241455E1,3.708496E-1,8.374054E1,8.252544E1,4.1663235E1,6.876103E1,6.829175E1,6.545886E1,7.0663086E1,3.5185547E1,3.1289062E1,0E0,0E0,0E0,0E0,0E0,0E0,0E0,0E0,0E0,0E0,0E0,0E0,0E0,0E0,0E0,0E0,0E0,0E0,0E0,0E0,0E0,0E0,0E0,0E0,0E0,0E0,0E0,0E0,0E0,0E0,0E0],"parents":[2147483647,0,0,1,1,2,2,3,3,4,4,5,5,6,6,7,7,8,8,9,9,10,10,11,11,12,12,13,13,14,14,15,15,16,16,17,17,18,18,19,19,20,20,21,21,22,22,23,23,24,24,25,25,26,26,27,27,28,28,29,29],"right_children":[2,4,6,8,10,12,14,16,18,20,22,24,26,28,30,32,34,36,38,40,42,44,46,48,50,52,54,56,58,60,-1,-1,-1,-1,-1,-1,-1,-1,-1,-1,-1,-1,-1,-1,-1,-1,-1,-1,-1,-1,-1,-1,-1,-1,-1,-1,-1,-1,-1,-1,-1],"split_conditions":[1.12E1,4.8E0,1.6E1,2E-1,7.3E0,1.29E1,2.07E1,-2.1E0,1E0,7.5E0,9.4E0,7.8E-1,1.48E1,1.34E1,2.33E1,6.4E0,2.1E1,1.66E0,3.5118844E-2,2.1477563E0,1.7538136E0,5E0,7.9E0,5.5E0,8E0,2.0836666E1,7.4E-1,1.79E1,5.5E-1,1.0092E0,9.258228E-2,-1.16605386E-1,-5.877591E-2,-9.096988E-2,-4.0531456E-2,-6.7383364E-2,-1.1423865E-2,-2.6190165E-2,-5.260541E-2,-2.7514793E-2,-3.814606E-2,-2.7522024E-2,-5.736683E-2,-2.5652952E-2,-1.3786347E-2,-1.606996E-2,-1.4176265E-3,-1.1887759E-2,3.348348E-3,-9.250282E-3,1.5288666E-2,1.9442864E-2,3.0928265E-2,2.4624057E-2,4.044085E-2,4.2543784E-2,5.5978734E-2,3.3372328E-2,6.275129E-2,3.2558344E-2,7.539557E-2],"split_indices":[8,8,8,8,8,8,8,8,9,7,8,3,8,9,8,66,30,55,101,117,91,9,68,80,96,130,3,8,48,4,0,0,0,0,0,0,0,0,0,0,0,0,0,0,0,0,0,0,0,0,0,0,0,0,0,0,0,0,0,0,0],"split_type":[0,0,0,0,0,0,0,0,0,0,0,0,0,0,0,0,0,0,0,0,0,0,0,0,0,0,0,0,0,0,0,0,0,0,0,0,0,0,0,0,0,0,0,0,0,0,0,0,0,0,0,0,0,0,0,0,0,0,0,0,0],"sum_hessian":[2.327E3,1.158E3,1.169E3,4.71E2,6.87E2,5.95E2,5.74E2,1.2E2,3.51E2,2.38E2,4.49E2,1.99E2,3.96E2,4.37E2,1.37E2,4.6E1,7.4E1,2.63E2,8.8E1,2.08E2,3E1,2.49E2,2E2,7.6E1,1.23E2,2.47E2,1.49E2,2.22E2,2.15E2,8.9E1,4.8E1,4.2E1,4E0,7.1E1,3E0,2.6E2,3E0,1.1E1,7.7E1,8.5E1,1.23E2,3E0,2.7E1,1.15E2,1.34E2,5.1E1,1.49E2,2.7E1,4.9E1,1.2E1,1.11E2,1.62E2,8.5E1,4.4E1,1.05E2,1.4E2,8.2E1,8E0,2.07E2,4E0,8.5E1],"tree_param":{"num_deleted":"0","num_feature":"150","num_nodes":"61","size_leaf_vector":"1"}},{"base_weights":[-2.9806832E-2,-4.1376967E0,4.0991974E0,-7.247523E0,-2.0980256E0,2.224169E0,6.069335E0,-8.925301E0,-5.717805E0,-3.545991E0,-1.28488E0,8.74703E-1,2.884693E0,5.1381936E0,7.933482E0,-1.0762472E1,-7.9323144E0,-1.8821571E-2,-5.7894554E0,-2.6000133E0,-3.9126008E0,-2.0480597E0,-6.042794E-1,2.721235E-1,1.6085125E0,2.2383442E0,3.5098662E0,3.030687E0,5.454412E0,7.32368E0,9.297927E-2,-1.0997871E-1,-5.2943878E-2,-8.045203E-2,-3.940697E-2,-6.300271E-2,-5.1168207E-2,-1.5499181E-2,-3.3608016E-2,-4.4421375E-2,-3.1212386E-2,-2.6802858E-2,-1.38984965E-2,-3.5813318E-3,-1.9136397E-2,-1.055727E-2,5.6206724E-3,-1.2585012E-3,1.9352715E-2,-1.3914922E-3,2.4049034E-2,1.753225E-2,3.6927212E-2,3.2301806E-2,-1.4578089E-3,4.8368525E-2,5.900263E-2,3.585112E-2,7.410365E-2],"categories":[],"categories_nodes":[],"categories_segments":[],"categories_sizes":[],"default_left":[0,0,0,0,0,0,0,0,0,0,0,0,0,0,0,0,0,0,0,0,0,0,0,0,0,0,0,0,0,0,0,0,0,0,0,0,0,0,0,0,0,0,0,0,0,0,0,0,0,0,0,0,0,0,0,0,0,0,0],"id":13,"left_children":[1,3,5,7,9,11,13,15,17,19,21,23,25,27,29,31,33,-1,35,37,39,41,43,45,47,49,51,53,55,57,-1,-1,-1,-1,-1,-1,-1,-1,-1,-1,-1,-1,-1,-1,-1,-1,-1,-1,-1,-1,-1,-1,-1,-1,-1,-1,-1,-1,-1],"loss_changes":[3.9588133E4,7.4051953E3,4.2855586E3,1.1358047E3,8.2856445E2,5.301311E2,9.4211914E2,3.1227734E2,5.5668945E1,7.7264404E1,2.348335E2,8.692558E1,1.5360474E2,2.3653223E2,8.583496E1,3.5395508E1,3.2887695E1,0E0,4.908252E1,5.341858E1,6.1227783E1,8.49212E1,7.708266E1,4.289425E1,5.0862442E1,7.975995E1,5.7865723E1,3.3730988E1,6.125E1,1.5760254E1,0E0,0E0,0E0,0E0,0E0,0E0,0E0,0E0,0E0,0E0,0E0,0E0,0E0,0E0,0E0,0E0,0E0,0E0,0E0,0E0,0E0,0E0,0E0,0E0,0E0,0E0,0E0,0E0,0E0],"parents":[2147483647,0,0,1,1,2,2,3,3,4,4,5,5,6,6,7,7,8,8,9,9,10,10,11,11,12,12,13,13,14,14,15,15,16,16,18,18,19,19,20,20,21,21,22,22,23,23,24,24,25,25,26,26,27,27,28,28,29,29],"right_children":[2,4,6,8,10,12,14,16,18,20,22,24,26,28,30,32,34,-1,36,38,40,42,44,46,48,50,52,54,56,58,-1,-1,-1,-1,-1,-1,-1,-1,-1,-1,-1,-1,-1,-1,-1,-1,-1,-1,-1,-1,-1,-1,-1,-1,-1,-1,-1,-1,-1],"split_conditions":[1.12E1,4.8E0,1.6E1,1.5E0,7.3E0,1.29E1,1.99E1,-1E0,1.7454045E-1,1.6714286E0,9E0,8.3E-1,1.07E1,8.453333E0,2.33E1,9E-2,7.3E0,-1.8821571E-2,3.4E0,3.9E0,6.2E0,5E0,7.4E0,4E0,8.714286E0,5.6E-1,6.5E-1,2.54E1,1.75E1,9.471429E0,9.297927E-2,-1.0997871E-1,-5.2943878E-2,-8.045203E-2,-3.940697E-2,-6.300271E-2,-5.1168207E-2,-1.5499181E-2,-3.3608016E-2,-4.4421375E-2,-3.1212386E-2,-2.6802858E-2,-1.38984965E-2,-3.5813318E-3,-1.9136397E-2,-1.055727E-2,5.6206724E-3,-1.2585012E-3,1.9352715E-2,-1.3914922E-3,2.4049034E-2,1.753225E-2,3.6927212E-2,3.2301806E-2,-1.4578089E-3,4.8368525E-2,5.900263E-2,3.585112E-2,7.410365E-2],"split_indices":[8,8,8,8,8,8,8,8,115,116,8,3,9,126,8,6,1,0,8,74,8,9,60,11,96,32,52,82,8,124,0,0,0,0,0,0,0,0,0,0,0,0,0,0,0,0,0,0,0,0,0,0,0,0,0,0,0,0,0],"split_type":[0,0,0,0,0,0,0,0,0,0,0,0,0,0,0,0,0,0,0,0,0,0,0,0,0,0,0,0,0,0,0,0,0,0,0,0,0,0,0,0,0,0,0,0,0,0,0,0,0,0,0,0,0,0,0,0,0,0,0],"sum_hessian":[2.332E3,1.169E3,1.163E3,4.62E2,7.07E2,5.97E2,5.66E2,2.18E2,2.44E2,2.53E2,4.54E2,1.97E2,4E2,3.8E2,1.86E2,7.3E1,1.45E2,5E0,2.39E2,7.3E1,1.8E2,2.13E2,2.41E2,1.09E2,8.8E1,1.99E2,2.01E2,5.1E1,3.29E2,1.33E2,5.3E1,6.9E1,4E0,1.4E2,5E0,1.31E2,1.08E2,3.2E1,4.1E1,1.05E2,7.5E1,1.07E2,1.06E2,2.04E2,3.7E1,1.9E1,9E1,1.4E1,7.4E1,1.3E1,1.86E2,2E1,1.81E2,4.8E1,3E0,1.43E2,1.86E2,4E0,1.29E2],"tree_param":{"num_deleted":"0","num_feature":"150","num_nodes":"59","size_leaf_vector":"1"}},{"base_weights":[3.149506E-2,-4.0878835E0,4.070366E0,-6.993567E0,-2.1207852E0,2.5268924E0,6.467105E0,-1.0383466E1,-6.3355412E0,-3.5541027E0,-1.3166089E0,1.163718E0,3.3872542E0,5.8359613E0,8.4938124E-2,-5.2997015E-2,-1.05968275E1,-7.2574687E0,-5.4137034E0,-4.406515E0,-3.0539844E0,-1.9727763E0,-5.447034E-1,2.8918755E-1,1.8309901E0,2.5163414E0,3.8257015E0,3.5791502E0,6.0720406E0,-1.0918605E-1,-6.12674E-2,-7.3354326E-2,-1.7147912E-2,-3.0643946E-2,-5.5601023E-2,-4.5317683E-2,-5.8694575E-3,2.5147945E-3,-3.163587E-2,-3.3066352E-3,-2.1625992E-2,-2.2766212E-2,-3.0192633E-3,-7.076486E-3,7.3260623E-3,-2.6217644E-4,2.0124285E-2,1.1313831E-2,2.9589258E-2,2.9231505E-2,4.1729894E-2,4.42604E-2,1.9250344E-2,5.516402E-2,6.7336515E-2],"categories":[],"categories_nodes":[],"categories_segments":[],"categories_sizes":[],"default_left":[0,0,0,0,0,0,0,0,0,0,0,0,0,0,0,0,0,0,0,0,0,0,0,0,0,0,0,0,0,0,0,0,0,0,0,0,0,0,0,0,0,0,0,0,0,0,0,0,0,0,0,0,0,0,0],"id":14,"left_children":[1,3,5,7,9,11,13,15,17,19,21,23,25,27,-1,-1,29,31,33,35,37,39,41,43,45,47,49,51,53,-1,-1,-1,-1,-1,-1,-1,-1,-1,-1,-1,-1,-1,-1,-1,-1,-1,-1,-1,-1,-1,-1,-1,-1,-1,-1],"loss_changes":[3.874906E4,6.574533E3,4.3331367E3,9.69791E2,7.890029E2,8.365176E2,5.3740234E2,2.2516113E1,2.9259082E2,9.109448E1,2.2305273E2,1.6206891E2,1.573706E2,1.659082E2,0E0,0E0,3.2086426E1,6.991797E1,5.088623E1,3.9406982E1,5.869043E1,7.3534424E1,8.525112E1,5.4446854E1,5.349243E1,8.818756E1,7.799121E1,4.127539E1,7.8899414E1,0E0,0E0,0E0,0E0,0E0,0E0,0E0,0E0,0E0,0E0,0E0,0E0,0E0,0E0,0E0,0E0,0E0,0E0,0E0,0E0,0E0,0E0,0E0,0E0,0E0,0E0],"parents":[2147483647,0,0,1,1,2,2,3,3,4,4,5,5,6,6,7,7,8,8,9,9,10,10,11,11,12,12,13,13,16,16,17,17,18,18,19,19,20,20,21,21,22,22,23,23,24,24,25,25,26,26,27,27,28,28],"right_children":[2,4,6,8,10,12,14,16,18,20,22,24,26,28,-1,-1,30,32,34,36,38,40,42,44,46,48,50,52,54,-1,-1,-1,-1,-1,-1,-1,-1,-1,-1,-1,-1,-1,-1,-1,-1,-1,-1,-1,-1,-1,-1,-1,-1,-1,-1],"split_conditions":[1.12E1,4.8E0,1.71E1,-8E-1,7.3E0,1.36E1,2.16E1,3E0,2.3E0,8.2E-1,9.3E0,8E-1,1.0006667E1,8.453333E0,8.4938124E-2,-5.2997015E-2,1.1E-1,9E0,3.1E0,7.2E0,8.635475E-1,6.757143E0,6.1E0,5.5E0,7.857143E0,4.142857E-2,1.46E1,4.7414155E0,1.92E1,-1.0918605E-1,-6.12674E-2,-7.3354326E-2,-1.7147912E-2,-3.0643946E-2,-5.5601023E-2,-4.5317683E-2,-5.8694575E-3,2.5147945E-3,-3.163587E-2,-3.3066352E-3,-2.1625992E-2,-2.2766212E-2,-3.0192633E-3,-7.076486E-3,7.3260623E-3,-2.6217644E-4,2.0124285E-2,1.1313831E-2,2.9589258E-2,2.9231505E-2,4.1729894E-2,4.42604E-2,1.9250344E-2,5.516402E-2,6.7336515E-2],"split_indices":[8,8,8,8,8,8,8,17,8,100,8,3,126,126,0,0,6,77,81,8,125,128,68,80,96,112,8,131,8,0,0,0,0,0,0,0,0,0,0,0,0,0,0,0,0,0,0,0,0,0,0,0,0,0,0],"split_type":[0,0,0,0,0,0,0,0,0,0,0,0,0,0,0,0,0,0,0,0,0,0,0,0,0,0,0,0,0,0,0,0,0,0,0,0,0,0,0,0,0,0,0,0,0,0,0,0,0,0,0,0,0,0,0],"sum_hessian":[2.327E3,1.152E3,1.175E3,4.64E2,6.88E2,7.16E2,4.59E2,7.3E1,3.91E2,2.46E2,4.42E2,2.78E2,4.38E2,3.53E2,1.06E2,4E0,6.9E1,1.92E2,1.99E2,8.8E1,1.58E2,2.38E2,2.04E2,1.21E2,1.57E2,1.49E2,2.89E2,3.5E1,3.18E2,6.3E1,6E0,1.89E2,3E0,1.3E1,1.86E2,8.5E1,3E0,5E0,1.53E2,2.5E1,2.13E2,2.4E1,1.8E2,3.7E1,8.4E1,1.4E1,1.43E2,3.7E1,1.12E2,8.3E1,2.06E2,2.2E1,1.3E1,1.78E2,1.4E2],"tree_param":{"num_deleted":"0","num_feature":"150","num_nodes":"55","size_leaf_vector":"1"}},{"base_weights":[2.0284194E-2,-4.072062E0,3.959843E0,-7.133855E0,-2.0247405E0,2.0447583E0,5.923975E0,-9.341698E0,-5.9690228E0,-2.8228106E0,-5.8343095E-1,7.333594E-1,2.8335826E0,5.205313E0,8.009648E0,-1.0711717E1,-8.1167795E-2,-6.847754E0,-5.408567E0,-3.48465E0,-1.8542595E0,-3.8039115E-1,-2.1974773E0,-2.9776918E-2,1.3734636E0,1.068009E-1,2.9632132E0,4.4679885E0,5.9735513E0,8.136837E0,2.750123E-2,-1.0947016E-1,-4.0675163E-2,-7.0388876E-2,-3.8458936E-2,-4.1975275E-2,-5.8645267E-2,5.3543625E-3,-3.566287E-2,-3.0200243E-2,-1.6371822E-2,-1.9758862E-2,-1.5352261E-3,-2.5577687E-2,-4.934955E-3,-9.64601E-3,3.977088E-3,-4.4411514E-3,1.5932148E-2,-3.0626603E-3,1.0006458E-2,2.6667178E-2,3.8759608E-2,4.83875E-2,3.359901E-2,2.7756702E-2,6.05351E-2,5.0493114E-2,8.23447E-2],"categories":[],"categories_nodes":[],"categories_segments":[],"categories_sizes":[],"default_left":[0,0,0,0,0,0,0,0,0,0,0,0,0,0,0,0,0,0,0,0,0,0,0,0,0,0,0,0,0,0,0,0,0,0,0,0,0,0,0,0,0,0,0,0,0,0,0,0,0,0,0,0,0,0,0,0,0,0,0],"id":15,"left_children":[1,3,5,7,9,11,13,15,17,19,21,23,25,27,29,31,-1,33,35,37,39,41,43,45,47,49,51,53,55,57,-1,-1,-1,-1,-1,-1,-1,-1,-1,-1,-1,-1,-1,-1,-1,-1,-1,-1,-1,-1,-1,-1,-1,-1,-1,-1,-1,-1,-1],"loss_changes":[3.7274145E4,7.093088E3,4.4181133E3,1.1102891E3,7.81344E2,6.161743E2,8.2784375E2,1.7128809E2,1.09484375E2,2.7377393E2,7.886894E1,1.1057329E2,1.3122266E2,2.1866895E2,7.487012E1,6.3407715E1,0E0,3.6675293E1,7.818799E1,8.721362E1,4.014093E1,7.839266E1,1.5008743E1,4.200121E1,4.9950516E1,7.0218225E0,8.5352295E1,7.5771484E1,3.6012207E1,2.0019531E-1,0E0,0E0,0E0,0E0,0E0,0E0,0E0,0E0,0E0,0E0,0E0,0E0,0E0,0E0,0E0,0E0,0E0,0E0,0E0,0E0,0E0,0E0,0E0,0E0,0E0,0E0,0E0,0E0,0E0],"parents":[2147483647,0,0,1,1,2,2,3,3,4,4,5,5,6,6,7,7,8,8,9,9,10,10,11,11,12,12,13,13,14,14,15,15,17,17,18,18,19,19,20,20,21,21,22,22,23,23,24,24,25,25,26,26,27,27,28,28,29,29],"right_children":[2,4,6,8,10,12,14,16,18,20,22,24,26,28,30,32,-1,34,36,38,40,42,44,46,48,50,52,54,56,58,-1,-1,-1,-1,-1,-1,-1,-1,-1,-1,-1,-1,-1,-1,-1,-1,-1,-1,-1,-1,-1,-1,-1,-1,-1,-1,-1,-1,-1],"split_conditions":[1.12E1,4.8E0,1.6E1,6E-1,9E0,1.31E1,2.08E1,-1.4E0,2.4E0,4.3E0,8.4E0,8.1E-1,6E-1,1.34E1,1.09E2,1E-1,-8.1167795E-2,6E0,2.8E0,2E0,8.5E0,1.0013E0,1.71E1,5.5E0,7.857143E0,7.143866E-3,1.2E1,4.9346814E-1,1.51E1,1.357E1,2.750123E-2,-1.0947016E-1,-4.0675163E-2,-7.0388876E-2,-3.8458936E-2,-4.1975275E-2,-5.8645267E-2,5.3543625E-3,-3.566287E-2,-3.0200243E-2,-1.6371822E-2,-1.9758862E-2,-1.5352261E-3,-2.5577687E-2,-4.934955E-3,-9.64601E-3,3.977088E-3,-4.4411514E-3,1.5932148E-2,-3.0626603E-3,1.0006458E-2,2.6667178E-2,3.8759608E-2,4.83875E-2,3.359901E-2,2.7756702E-2,6.05351E-2,5.0493114E-2,8.23447E-2],"split_indices":[8,8,8,8,8,8,8,8,8,9,7,3,32,9,143,6,0,1,67,82,10,4,10,80,96,107,9,132,87,122,0,0,0,0,0,0,0,0,0,0,0,0,0,0,0,0,0,0,0,0,0,0,0,0,0,0,0,0,0],"split_type":[0,0,0,0,0,0,0,0,0,0,0,0,0,0,0,0,0,0,0,0,0,0,0,0,0,0,0,0,0,0,0,0,0,0,0,0,0,0,0,0,0,0,0,0,0,0,0,0,0,0,0,0,0,0,0,0,0,0,0],"sum_hessian":[2.31E3,1.133E3,1.177E3,4.53E2,6.8E2,5.97E2,5.8E2,1.54E2,2.99E2,4.37E2,2.43E2,2.25E2,3.72E2,4.34E2,1.46E2,6.9E1,8.5E1,1.12E2,1.87E2,2.58E2,1.79E2,2.17E2,2.6E1,1.03E2,1.22E2,1.7E1,3.55E2,2.25E2,2.09E2,1.42E2,4E0,6.6E1,3E0,1.04E2,8E0,5.4E1,1.33E2,5E0,2.53E2,2.6E1,1.53E2,2.6E1,1.91E2,2.1E1,5E0,3.2E1,7.1E1,1.3E1,1.09E2,1.2E1,5E0,2.71E2,8.4E1,1.66E2,5.9E1,6E0,2.03E2,6E0,1.36E2],"tree_param":{"num_deleted":"0","num_feature":"150","num_nodes":"59","size_leaf_vector":"1"}},{"base_weights":[-9.086886E-3,-4.3172145E0,3.5616949E0,-7.1756773E0,-2.4628134E0,1.6883357E0,5.664267E0,-8.785409E0,-5.9185805E0,-3.8340483E0,-1.3617082E0,1.692944E-1,2.38783E0,4.517563E0,6.710998E0,-6.498942E0,-9.276036E0,-6.1397204E0,-3.7144027E0,-4.7649493E0,-3.369919E0,-1.8680476E0,-2.4103947E-1,-1.8825889E0,3.2361075E-1,1.201962E0,2.8312955E0,4.0647664E0,5.499319E0,6.086237E0,7.6357384E0,-7.18221E-2,-3.282635E-2,-9.566318E-2,-5.5849914E-2,-6.2090345E-2,-2.0083182E-2,-1.0170068E-2,-4.7593888E-2,-1.4172907E-2,-4.8998736E-2,-3.4738544E-2,4.317123E-3,-2.1070058E-2,-2.6604277E-3,-5.208123E-3,2.3660399E-2,-2.850849E-2,1.46783935E-2,7.232009E-3,-6.3513196E-3,1.5982617E-2,-1.8892173E-3,2.9259106E-2,4.0293566E-4,4.7039513E-2,3.422412E-2,5.652576E-2,1.804742E-2,2.0876145E-2,6.138687E-2,7.852344E-2,4.05661E-2],"categories":[],"categories_nodes":[],"categories_segments":[],"categories_sizes":[],"default_left":[0,0,0,0,0,0,0,0,0,0,0,0,0,0,0,0,0,0,0,0,0,0,0,0,0,0,0,0,0,0,0,0,0,0,0,0,0,0,0,0,0,0,0,0,0,0,0,0,0,0,0,0,0,0,0,0,0,0,0,0,0,0,0],"id":16,"left_children":[1,3,5,7,9,11,13,15,17,19,21,23,25,27,29,31,33,35,37,39,41,43,45,47,49,51,53,55,57,59,61,-1,-1,-1,-1,-1,-1,-1,-1,-1,-1,-1,-1,-1,-1,-1,-1,-1,-1,-1,-1,-1,-1,-1,-1,-1,-1,-1,-1,-1,-1,-1,-1],"loss_changes":[3.5674137E4,5.5524375E3,4.9841934E3,7.822754E2,9.5906885E2,7.1338086E2,6.851328E2,1.3894043E2,9.075586E1,1.05833984E2,2.0134705E2,6.789747E1,2.3810376E2,1.047168E2,1.3125488E2,5.229309E1,1.0041699E2,4.741797E1,6.223181E1,3.397827E1,7.8062744E1,9.299115E1,8.273944E1,5.298419E1,7.670586E1,7.044615E1,8.778516E1,6.561572E1,3.8880127E1,2.6210938E1,6.076172E1,0E0,0E0,0E0,0E0,0E0,0E0,0E0,0E0,0E0,0E0,0E0,0E0,0E0,0E0,0E0,0E0,0E0,0E0,0E0,0E0,0E0,0E0,0E0,0E0,0E0,0E0,0E0,0E0,0E0,0E0,0E0,0E0],"parents":[2147483647,0,0,1,1,2,2,3,3,4,4,5,5,6,6,7,7,8,8,9,9,10,10,11,11,12,12,13,13,14,14,15,15,16,16,17,17,18,18,19,19,20,20,21,21,22,22,23,23,24,24,25,25,26,26,27,27,28,28,29,29,30,30],"right_children":[2,4,6,8,10,12,14,16,18,20,22,24,26,28,30,32,34,36,38,40,42,44,46,48,50,52,54,56,58,60,62,-1,-1,-1,-1,-1,-1,-1,-1,-1,-1,-1,-1,-1,-1,-1,-1,-1,-1,-1,-1,-1,-1,-1,-1,-1,-1,-1,-1,-1,-1,-1,-1],"split_conditions":[6.7E0,8E-1,1.16E1,-2.2E0,3.8E0,1.1342857E1,1.38E1,2.4E0,9.3E0,6E-1,1.4353333E1,4E0,8.5E0,2.22E0,1.59E1,3.8E0,5.8966666E-1,1.82E0,1E1,3.4066668E0,7.190271E-1,1.0302565E-1,1.13E1,2.2480643E0,1.9533672E0,4E-1,4.0614724E-1,2.4597075E0,4.4432936E0,1.0016E0,5.7E0,-7.18221E-2,-3.282635E-2,-9.566318E-2,-5.5849914E-2,-6.2090345E-2,-2.0083182E-2,-1.0170068E-2,-4.7593888E-2,-1.4172907E-2,-4.8998736E-2,-3.4738544E-2,4.317123E-3,-2.1070058E-2,-2.6604277E-3,-5.208123E-3,2.3660399E-2,-2.850849E-2,1.46783935E-2,7.232009E-3,-6.3513196E-3,1.5982617E-2,-1.8892173E-3,2.9259106E-2,4.0293566E-4,4.7039513E-2,3.422412E-2,5.652576E-2,1.804742E-2,2.0876145E-2,6.138687E-2,7.852344E-2,4.05661E-2],"split_indices":[9,9,9,9,9,120,9,18,70,60,130,68,9,5,9,1,110,52,31,94,109,101,66,95,95,53,133,127,121,39,1,0,0,0,0,0,0,0,0,0,0,0,0,0,0,0,0,0,0,0,0,0,0,0,0,0,0,0,0,0,0,0,0],"split_type":[0,0,0,0,0,0,0,0,0,0,0,0,0,0,0,0,0,0,0,0,0,0,0,0,0,0,0,0,0,0,0,0,0,0,0,0,0,0,0,0,0,0,0,0,0,0,0,0,0,0,0,0,0,0,0,0,0,0,0,0,0,0,0],"sum_hessian":[2.317E3,1.05E3,1.267E3,4.12E2,6.38E2,6.71E2,5.96E2,1.78E2,2.34E2,2.83E2,3.55E2,2.12E2,4.59E2,2.87E2,3.09E2,3.4E1,1.44E2,2.11E2,2.3E1,9.1E1,1.92E2,2.44E2,1.11E2,1.4E1,1.98E2,1.26E2,3.33E2,2E2,8.7E1,1.89E2,1.2E2,2.7E1,7E0,1.32E2,1.2E1,2.07E2,4E0,7E0,1.6E1,4E0,8.7E1,1.87E2,5E0,2.12E2,3.2E1,1.01E2,1E1,1.1E1,3E0,1.4E2,5.8E1,9.8E1,2.8E1,3.22E2,1.1E1,9.7E1,1.03E2,8.3E1,4E0,3E0,1.86E2,1.12E2,8E0],"tree_param":{"num_deleted":"0","num_feature":"150","num_nodes":"63","size_leaf_vector":"1"}},{"base_weights":[-7.621462E-3,-4.426211E0,3.5518212E0,-7.614301E0,-2.7978833E0,1.3565952E0,5.4205556E0,-9.68568E0,-6.702523E0,-4.2306747E0,-1.772861E0,3.7434304E-1,2.4749389E0,4.5095367E0,7.2743196E0,-7.610131E0,-1.01738214E-1,-3.6650085E0,-6.841609E0,-3.8761725E0,-5.054076E0,-2.3893628E0,-1.02221E0,-5.1533896E-1,8.95279E-1,1.2332648E0,2.8400505E0,3.93335E0,5.4753985E0,6.6342444E0,8.775828E0,-8.114036E-2,-4.0524796E-2,-4.2171273E-2,-1.3434597E-2,-7.38516E-2,-6.08497E-2,-4.6626046E-2,-3.3240464E-2,-2.6567921E-2,-5.3083837E-2,-8.649129E-3,-2.7107289E-2,-1.2553532E-2,4.0344312E-4,-1.1122406E-2,3.1669224E-3,4.9984665E-3,2.2146739E-2,2.1596111E-2,6.7217946E-3,2.0372037E-2,3.240551E-2,2.2833832E-2,4.1298237E-2,1.741168E-2,5.5755768E-2,2.6571939E-2,6.7678206E-2,4.2994168E-2,8.9214705E-2],"categories":[],"categories_nodes":[],"categories_segments":[],"categories_sizes":[],"default_left":[0,0,0,0,0,0,0,0,0,0,0,0,0,0,0,0,0,0,0,0,0,0,0,0,0,0,0,0,0,0,0,0,0,0,0,0,0,0,0,0,0,0,0,0,0,0,0,0,0,0,0,0,0,0,0,0,0,0,0,0,0],"id":17,"left_children":[1,3,5,7,9,11,13,15,17,19,21,23,25,27,29,31,-1,33,35,37,39,41,43,45,47,49,51,53,55,57,59,-1,-1,-1,-1,-1,-1,-1,-1,-1,-1,-1,-1,-1,-1,-1,-1,-1,-1,-1,-1,-1,-1,-1,-1,-1,-1,-1,-1,-1,-1],"loss_changes":[3.6661383E4,5.3765586E3,5.2880293E3,5.9635547E2,1.0052637E3,6.523933E2,1.1431211E3,2.717871E1,7.8225586E1,6.3291016E1,1.8417871E2,1.4788199E2,1.2212134E2,2.3908496E2,1.5936328E2,8.926636E0,0E0,1.04414215E1,5.036328E1,7.2715576E1,3.5700928E1,1.0556726E2,4.5753983E1,5.9035408E1,1.0348958E2,3.2049538E1,6.1680298E1,8.6532715E1,5.427832E1,6.8197754E1,2.6972656E0,0E0,0E0,0E0,0E0,0E0,0E0,0E0,0E0,0E0,0E0,0E0,0E0,0E0,0E0,0E0,0E0,0E0,0E0,0E0,0E0,0E0,0E0,0E0,0E0,0E0,0E0,0E0,0E0,0E0,0E0],"parents":[2147483647,0,0,1,1,2,2,3,3,4,4,5,5,6,6,7,7,8,8,9,9,10,10,11,11,12,12,13,13,14,14,15,15,17,17,18,18,19,19,20,20,21,21,22,22,23,23,24,24,25,25,26,26,27,27,28,28,29,29,30,30],"right_children":[2,4,6,8,10,12,14,16,18,20,22,24,26,28,30,32,-1,34,36,38,40,42,44,46,48,50,52,54,56,58,60,-1,-1,-1,-1,-1,-1,-1,-1,-1,-1,-1,-1,-1,-1,-1,-1,-1,-1,-1,-1,-1,-1,-1,-1,-1,-1,-1,-1,-1,-1],"split_conditions":[1.03E1,3.3E0,1.51E1,-4E-1,6.5E0,1.29E1,1.93E1,3.1E0,-2.9E0,6.5E-1,5.4E0,7.8E-1,5E0,1.34E1,2.29E1,2.7E0,-1.01738214E-1,1.4E1,-8E-1,4.7E0,3.6903992E-2,8.8E0,1.14E1,7.6E0,4.4E-1,1.25E0,9.663333E0,1.08E1,9.116667E-1,5E0,1.3387983E-3,-8.114036E-2,-4.0524796E-2,-4.2171273E-2,-1.3434597E-2,-7.38516E-2,-6.08497E-2,-4.6626046E-2,-3.3240464E-2,-2.6567921E-2,-5.3083837E-2,-8.649129E-3,-2.7107289E-2,-1.2553532E-2,4.0344312E-4,-1.1122406E-2,3.1669224E-3,4.9984665E-3,2.2146739E-2,2.1596111E-2,6.7217946E-3,2.0372037E-2,3.240551E-2,2.2833832E-2,4.1298237E-2,1.741168E-2,5.5755768E-2,2.6571939E-2,6.7678206E-2,4.2994168E-2,8.9214705E-2],"split_indices":[8,8,8,8,8,8,8,19,70,5,9,3,0,9,8,79,0,2,9,8,101,81,73,79,54,47,126,73,110,79,105,0,0,0,0,0,0,0,0,0,0,0,0,0,0,0,0,0,0,0,0,0,0,0,0,0,0,0,0,0,0],"split_type":[0,0,0,0,0,0,0,0,0,0,0,0,0,0,0,0,0,0,0,0,0,0,0,0,0,0,0,0,0,0,0,0,0,0,0,0,0,0,0,0,0,0,0,0,0,0,0,0,0,0,0,0,0,0,0,0,0,0,0,0,0],"sum_hessian":[2.329E3,1.039E3,1.29E3,3.5E2,6.89E2,5.94E2,6.96E2,1.04E2,2.46E2,2.86E2,4.03E2,3.17E2,2.77E2,4.69E2,2.27E2,2.3E1,8.1E1,1.2E1,2.34E2,2.04E2,8.2E1,2.2E2,1.83E2,1.17E2,2E2,6.4E1,2.13E2,2.97E2,1.72E2,1.63E2,6.4E1,1.9E1,4E0,9E0,3E0,1.31E2,1.03E2,8.1E1,1.23E2,9E0,7.3E1,3.9E1,1.81E2,1.5E2,3.3E1,6.8E1,4.9E1,1.55E2,4.5E1,2.3E1,4.1E1,7.3E1,1.4E2,3.3E1,2.64E2,5E0,1.67E2,6E0,1.57E2,3E0,6.1E1],"tree_param":{"num_deleted":"0","num_feature":"150","num_nodes":"61","size_leaf_vector":"1"}},{"base_weights":[-6.136631E-3,-3.8985214E0,3.9130576E0,-6.7495923E0,-1.970255E0,2.0754645E0,5.8048635E0,-8.344035E0,-5.3837533E0,-3.1669223E0,-9.6916896E-1,8.376742E-1,2.6810179E0,5.1091313E0,7.6178374E0,-1.0172335E1,-7.465242E0,-5.887713E0,-4.713788E0,-2.5190392E0,-3.818782E0,-1.4426045E0,-2.4575229E-1,-3.914533E-2,1.7069664E0,1.9373937E0,3.1088562E0,3.100859E0,5.394318E0,7.8106055E0,5.0975738E0,-1.0499669E-1,-6.433291E-2,-7.568968E-2,-3.714941E-2,-5.0848823E-2,-6.555383E-2,-3.6104884E-2,-5.3211678E-2,-1.9317145E-2,-3.2431915E-2,-4.229617E-2,-2.5191197E-2,-1.1298771E-2,-2.2175295E-2,-1.946649E-2,4.1007122E-4,-1.6233033E-2,1.7865973E-3,-6.753337E-3,1.9565847E-2,2.7754623E-2,1.2922675E-2,2.521119E-2,3.7089325E-2,2.0743985E-2,3.9107587E-2,5.006329E-2,6.1342094E-2,6.773361E-2,8.327785E-2,2.2415807E-2,5.6636102E-2],"categories":[],"categories_nodes":[],"categories_segments":[],"categories_sizes":[],"default_left":[0,0,0,0,0,0,0,0,0,0,0,0,0,0,0,0,0,0,0,0,0,0,0,0,0,0,0,0,0,0,0,0,0,0,0,0,0,0,0,0,0,0,0,0,0,0,0,0,0,0,0,0,0,0,0,0,0,0,0,0,0,0,0],"id":18,"left_children":[1,3,5,7,9,11,13,15,17,19,21,23,25,27,29,31,33,35,37,39,41,43,45,47,49,51,53,55,57,59,61,-1,-1,-1,-1,-1,-1,-1,-1,-1,-1,-1,-1,-1,-1,-1,-1,-1,-1,-1,-1,-1,-1,-1,-1,-1,-1,-1,-1,-1,-1,-1,-1],"loss_changes":[3.545265E4,6.3960586E3,4.0128008E3,9.7724805E2,8.315E2,4.3888623E2,6.7877344E2,2.677373E2,5.7620117E1,1.23624756E2,1.2996573E2,1.48865E2,1.19142334E2,2.2010742E2,3.4682617E1,1.276123E1,2.8714844E1,4.1618164E1,5.6958984E1,6.2118164E1,7.196631E1,5.289795E1,7.440812E1,3.424817E1,5.9726715E1,7.548364E1,7.7845215E1,3.6180786E1,7.20957E1,1.8794922E1,9.146393E0,0E0,0E0,0E0,0E0,0E0,0E0,0E0,0E0,0E0,0E0,0E0,0E0,0E0,0E0,0E0,0E0,0E0,0E0,0E0,0E0,0E0,0E0,0E0,0E0,0E0,0E0,0E0,0E0,0E0,0E0,0E0,0E0],"parents":[2147483647,0,0,1,1,2,2,3,3,4,4,5,5,6,6,7,7,8,8,9,9,10,10,11,11,12,12,13,13,14,14,15,15,16,16,17,17,18,18,19,19,20,20,21,21,22,22,23,23,24,24,25,25,26,26,27,27,28,28,29,29,30,30],"right_children":[2,4,6,8,10,12,14,16,18,20,22,24,26,28,30,32,34,36,38,40,42,44,46,48,50,52,54,56,58,60,62,-1,-1,-1,-1,-1,-1,-1,-1,-1,-1,-1,-1,-1,-1,-1,-1,-1,-1,-1,-1,-1,-1,-1,-1,-1,-1,-1,-1,-1,-1,-1,-1],"split_conditions":[1.14E1,4.8E0,1.6E1,1.5E0,7.9E0,1.3E1,2.05E1,-1E0,3.4E0,4.8E-1,6.8E0,8.1E-1,1.4606667E1,8.453333E0,6.9473255E-3,6.2E0,7.3E0,-2E-1,3.9E0,2.2E0,7.2E0,1.0207E0,7.2E-1,1.8644545E0,8.714286E0,2.785366E0,1.46E1,5.6188457E-2,1.87E1,2.78E1,7.2033334E-1,-1.0499669E-1,-6.433291E-2,-7.568968E-2,-3.714941E-2,-5.0848823E-2,-6.555383E-2,-3.6104884E-2,-5.3211678E-2,-1.9317145E-2,-3.2431915E-2,-4.229617E-2,-2.5191197E-2,-1.1298771E-2,-2.2175295E-2,-1.946649E-2,4.1007122E-4,-1.6233033E-2,1.7865973E-3,-6.753337E-3,1.9565847E-2,2.7754623E-2,1.2922675E-2,2.521119E-2,3.7089325E-2,2.0743985E-2,3.9107587E-2,5.006329E-2,6.1342094E-2,6.773361E-2,8.327785E-2,2.2415807E-2,5.6636102E-2],"split_indices":[8,8,8,8,8,8,8,8,8,50,9,3,122,126,107,66,1,74,68,62,8,40,36,97,96,127,8,113,8,10,102,0,0,0,0,0,0,0,0,0,0,0,0,0,0,0,0,0,0,0,0,0,0,0,0,0,0,0,0,0,0,0,0],"split_type":[0,0,0,0,0,0,0,0,0,0,0,0,0,0,0,0,0,0,0,0,0,0,0,0,0,0,0,0,0,0,0,0,0,0,0,0,0,0,0,0,0,0,0,0,0,0,0,0,0,0,0,0,0,0,0,0,0,0,0,0,0,0,0],"sum_hessian":[2.322E3,1.165E3,1.157E3,4.69E2,6.96E2,5.88E2,5.69E2,2.14E2,2.55E2,3.16E2,3.8E2,1.94E2,3.94E2,4.14E2,1.55E2,6.6E1,1.48E2,1.41E2,1.14E2,1.61E2,1.55E2,2.29E2,1.51E2,9.7E1,9.7E1,1.46E2,2.48E2,5.3E1,3.61E2,1.42E2,1.3E1,5.9E1,7E0,1.43E2,5E0,6.8E1,7.3E1,4.3E1,7.1E1,9.1E1,7E1,1.16E2,3.9E1,1.65E2,6.4E1,2.1E1,1.3E2,1.1E1,8.6E1,9E0,8.8E1,6.2E1,8.4E1,1.28E2,1.2E2,2.5E1,2.8E1,2.42E2,1.19E2,5.2E1,9E1,3E0,1E1],"tree_param":{"num_deleted":"0","num_feature":"150","num_nodes":"63","size_leaf_vector":"1"}},{"base_weights":[5.908226E-2,-3.8465E0,3.8454447E0,-6.10828E0,-1.5135581E0,2.0487463E0,5.6847577E0,-8.271347E0,-4.90348E0,-2.220086E0,-4.0650305E-1,8.1531805E-1,2.7437859E0,4.839406E0,7.262566E0,-9.801944E0,-7.241275E0,-5.618877E0,-4.2209554E0,-1.9410629E0,-3.7135708E0,-1.7831798E-1,-1.9076484E0,-8.07618E-2,1.2432524E0,2.3201907E-1,2.867082E0,2.996343E0,5.1204453E0,1.4814054E-2,7.3421726E0,-1.0041578E-1,-5.1561985E-2,-7.381487E-2,-3.768853E-2,-4.7573976E-2,-6.2746584E-2,-2.951818E-2,-4.6462946E-2,-2.2794513E-2,-1.1028364E-2,-4.346964E-2,-2.2349186E-2,-3.8143797E-3,1.33524025E-2,-2.384529E-3,-2.2412952E-2,6.6965274E-3,-9.200262E-3,4.9293926E-3,1.7835638E-2,-4.416576E-3,6.7013525E-3,2.3927331E-2,3.307627E-2,1.7786741E-2,3.7998922E-2,4.459828E-2,5.6390755E-2,6.847524E-2,8.597389E-2],"categories":[],"categories_nodes":[],"categories_segments":[],"categories_sizes":[],"default_left":[0,0,0,0,0,0,0,0,0,0,0,0,0,0,0,0,0,0,0,0,0,0,0,0,0,0,0,0,0,0,0,0,0,0,0,0,0,0,0,0,0,0,0,0,0,0,0,0,0,0,0,0,0,0,0,0,0,0,0,0,0],"id":19,"left_children":[1,3,5,7,9,11,13,15,17,19,21,23,25,27,29,31,33,35,37,39,41,43,45,47,49,51,53,55,57,-1,59,-1,-1,-1,-1,-1,-1,-1,-1,-1,-1,-1,-1,-1,-1,-1,-1,-1,-1,-1,-1,-1,-1,-1,-1,-1,-1,-1,-1,-1,-1],"loss_changes":[3.433762E4,6.0211504E3,3.8838105E3,1.4696406E3,4.3997607E2,5.1006152E2,7.39916E2,2.5210254E2,1.5840332E2,1.3557678E2,7.515234E1,8.342819E1,1.17326904E2,1.8171191E2,8.074512E1,3.5765625E1,3.289795E1,7.073535E1,9.132861E1,7.9972534E1,3.926483E1,5.974868E1,1.5368309E1,4.5356667E1,5.8487366E1,5.9266424E0,6.758154E1,4.4541565E1,8.69043E1,0E0,6.2520508E1,0E0,0E0,0E0,0E0,0E0,0E0,0E0,0E0,0E0,0E0,0E0,0E0,0E0,0E0,0E0,0E0,0E0,0E0,0E0,0E0,0E0,0E0,0E0,0E0,0E0,0E0,0E0,0E0,0E0,0E0],"parents":[2147483647,0,0,1,1,2,2,3,3,4,4,5,5,6,6,7,7,8,8,9,9,10,10,11,11,12,12,13,13,14,14,15,15,16,16,17,17,18,18,19,19,20,20,21,21,22,22,23,23,24,24,25,25,26,26,27,27,28,28,30,30],"right_children":[2,4,6,8,10,12,14,16,18,20,22,24,26,28,30,32,34,36,38,40,42,44,46,48,50,52,54,56,58,-1,60,-1,-1,-1,-1,-1,-1,-1,-1,-1,-1,-1,-1,-1,-1,-1,-1,-1,-1,-1,-1,-1,-1,-1,-1,-1,-1,-1,-1,-1,-1],"split_conditions":[1.12E1,6.2E0,1.6E1,1.5E0,9.2E0,1.31E1,1.99E1,-8E-1,8E-1,5.385714E0,8.4E0,5.6433334E0,6E-1,8.453333E0,1.6E0,1.1E-1,1.6E1,1E-1,1.5714285E0,5.8E0,1E-1,1.0726666E1,5E-1,1.37E1,8.1E-1,2.9E0,1.11E1,5.6188457E-2,1.75E1,1.4814054E-2,2.33E1,-1.0041578E-1,-5.1561985E-2,-7.381487E-2,-3.768853E-2,-4.7573976E-2,-6.2746584E-2,-2.951818E-2,-4.6462946E-2,-2.2794513E-2,-1.1028364E-2,-4.346964E-2,-2.2349186E-2,-3.8143797E-3,1.33524025E-2,-2.384529E-3,-2.2412952E-2,6.6965274E-3,-9.200262E-3,4.9293926E-3,1.7835638E-2,-4.416576E-3,6.7013525E-3,2.3927331E-2,3.307627E-2,1.7786741E-2,3.7998922E-2,4.459828E-2,5.6390755E-2,6.847524E-2,8.597389E-2],"split_indices":[8,8,8,8,8,8,8,8,9,116,7,126,32,126,24,6,2,74,116,9,6,126,47,84,3,23,77,113,8,0,8,0,0,0,0,0,0,0,0,0,0,0,0,0,0,0,0,0,0,0,0,0,0,0,0,0,0,0,0,0,0],"split_type":[0,0,0,0,0,0,0,0,0,0,0,0,0,0,0,0,0,0,0,0,0,0,0,0,0,0,0,0,0,0,0,0,0,0,0,0,0,0,0,0,0,0,0,0,0,0,0,0,0,0,0,0,0,0,0,0,0,0,0,0,0],"sum_hessian":[2.32E3,1.142E3,1.178E3,5.79E2,5.63E2,5.97E2,5.81E2,2.05E2,3.74E2,3.43E2,2.2E2,2.16E2,3.81E2,3.81E2,2E2,7.9E1,1.26E2,1.79E2,1.95E2,2.91E2,5.2E1,1.92E2,2.8E1,7E1,1.46E2,1.8E1,3.63E2,5.2E1,3.29E2,3E0,1.97E2,7.4E1,5E0,1.2E2,6E0,8.1E1,9.8E1,5.1E1,1.44E2,2.06E2,8.5E1,3.5E1,1.7E1,1.7E2,2.2E1,5E0,2.3E1,3.7E1,3.3E1,6.2E1,8.4E1,7E0,1.1E1,1.78E2,1.85E2,2.2E1,3E1,1.49E2,1.8E2,1.46E2,5.1E1],"tree_param":{"num_deleted":"0","num_feature":"150","num_nodes":"61","size_leaf_vector":"1"}},{"base_weights":[-4.5809116E-2,-3.8442814E0,3.7429438E0,-6.6129527E0,-1.9559505E0,1.9807975E0,5.6511116E0,-8.605965E0,-5.6327357E0,-3.3938518E0,-1.1981457E0,7.6519185E-1,2.6866267E0,4.9676933E0,7.5424476E0,-9.625259E-2,-7.475054E-2,-6.135043E0,-4.758175E0,-1.6499158E0,-3.5875945E0,-1.8277321E0,-4.9651095E-1,1.1120929E0,-3.649186E-1,1.8741128E0,3.174035E0,3.0871398E0,5.255794E0,7.662329E0,2.561366E-2,-4.49441E-2,-6.396005E-2,-3.046594E-2,-5.043354E-2,-9.630435E-4,-2.329504E-2,-2.3285845E-2,-3.9047107E-2,-2.3794234E-2,-1.2915136E-2,-2.9159652E-3,-2.0709831E-2,5.584528E-4,1.52489515E-2,8.989508E-3,-9.233623E-3,2.4977814E-2,1.3942844E-2,2.3994433E-2,3.580066E-2,3.2995984E-2,6.792331E-3,4.462495E-2,5.646606E-2,7.91419E-2,5.9013627E-2],"categories":[],"categories_nodes":[],"categories_segments":[],"categories_sizes":[],"default_left":[0,0,0,0,0,0,0,0,0,0,0,0,0,0,0,0,0,0,0,0,0,0,0,0,0,0,0,0,0,0,0,0,0,0,0,0,0,0,0,0,0,0,0,0,0,0,0,0,0,0,0,0,0,0,0,0,0],"id":20,"left_children":[1,3,5,7,9,11,13,15,17,19,21,23,25,27,29,-1,-1,31,33,35,37,39,41,43,45,47,49,51,53,55,-1,-1,-1,-1,-1,-1,-1,-1,-1,-1,-1,-1,-1,-1,-1,-1,-1,-1,-1,-1,-1,-1,-1,-1,-1,-1,-1],"loss_changes":[3.386314E4,6.1293066E3,3.9490332E3,8.800078E2,7.582283E2,5.2441724E2,6.91584E2,1.0501367E2,1.1117285E2,7.498511E1,2.0206024E2,8.947281E1,1.4720508E2,2.094082E2,6.7728516E1,0E0,0E0,5.622168E1,4.3374756E1,2.6984299E1,7.6522705E1,6.8150024E1,6.9816284E1,7.562453E1,3.8945694E1,4.0417786E1,6.660864E1,2.7032532E1,8.571289E1,1.5782227E1,0E0,0E0,0E0,0E0,0E0,0E0,0E0,0E0,0E0,0E0,0E0,0E0,0E0,0E0,0E0,0E0,0E0,0E0,0E0,0E0,0E0,0E0,0E0,0E0,0E0,0E0,0E0],"parents":[2147483647,0,0,1,1,2,2,3,3,4,4,5,5,6,6,7,7,8,8,9,9,10,10,11,11,12,12,13,13,14,14,17,17,18,18,19,19,20,20,21,21,22,22,23,23,24,24,25,25,26,26,27,27,28,28,29,29],"right_children":[2,4,6,8,10,12,14,16,18,20,22,24,26,28,30,-1,-1,32,34,36,38,40,42,44,46,48,50,52,54,56,-1,-1,-1,-1,-1,-1,-1,-1,-1,-1,-1,-1,-1,-1,-1,-1,-1,-1,-1,-1,-1,-1,-1,-1,-1,-1,-1],"split_conditions":[1.12E1,4.8E0,1.6E1,7E-1,7.2E0,1.31E1,2.08E1,-8E-1,3.4E0,1.01053E0,9.2E0,1.0214E0,1.0006667E1,8.586667E0,1.09E2,-9.625259E-2,-7.475054E-2,2.6E0,-1.7E0,4.3915503E-2,7E0,5E0,1.0248E0,9.3E0,3E0,4.7E0,6E0,2.69E1,1.73E1,2.2177216E-1,2.561366E-2,-4.49441E-2,-6.396005E-2,-3.046594E-2,-5.043354E-2,-9.630435E-4,-2.329504E-2,-2.3285845E-2,-3.9047107E-2,-2.3794234E-2,-1.2915136E-2,-2.9159652E-3,-2.0709831E-2,5.584528E-4,1.52489515E-2,8.989508E-3,-9.233623E-3,2.4977814E-2,1.3942844E-2,2.3994433E-2,3.580066E-2,3.2995984E-2,6.792331E-3,4.462495E-2,5.646606E-2,7.91419E-2,5.9013627E-2],"split_indices":[8,8,8,8,8,8,8,8,8,106,8,4,126,126,143,0,0,81,76,101,81,9,44,122,7,7,0,81,8,132,0,0,0,0,0,0,0,0,0,0,0,0,0,0,0,0,0,0,0,0,0,0,0,0,0,0,0],"split_type":[0,0,0,0,0,0,0,0,0,0,0,0,0,0,0,0,0,0,0,0,0,0,0,0,0,0,0,0,0,0,0,0,0,0,0,0,0,0,0,0,0,0,0,0,0,0,0,0,0,0,0,0,0,0,0,0,0],"sum_hessian":[2.351E3,1.174E3,1.177E3,4.75E2,6.99E2,6.13E2,5.64E2,1.54E2,3.21E2,2.4E2,4.59E2,2.26E2,3.87E2,4.17E2,1.47E2,7.7E1,7.7E1,2E2,1.21E2,2.5E1,2.15E2,2.41E2,2.18E2,1.73E2,5.3E1,1.47E2,2.4E2,5.7E1,3.6E2,1.43E2,4E0,3E1,1.7E2,1.9E1,1.02E2,8E0,1.7E1,4.5E1,1.7E2,1.17E2,1.24E2,1.94E2,2.4E1,4.9E1,1.24E2,1.6E1,3.7E1,6.2E1,8.5E1,8.5E1,1.55E2,5.2E1,5E0,1.23E2,2.37E2,1.22E2,2.1E1],"tree_param":{"num_deleted":"0","num_feature":"150","num_nodes":"57","size_leaf_vector":"1"}},{"base_weights":[3.26343E-2,-3.8445613E0,3.7397482E0,-6.601032E0,-1.9848341E0,1.9535867E0,5.5805984E0,-8.851835E0,-5.5651107E0,-2.7398927E0,-5.769951E-1,7.007398E-1,2.6919427E0,4.779972E0,7.1127257E0,-1.0047195E1,-7.798591E0,-5.9978566E0,-4.2396746E0,-3.7139652E0,-2.1661797E0,-2.52318E0,-3.7656626E-1,1.5439047E-1,1.4322468E0,1.6488512E-1,2.8172119E0,2.998721E0,5.06036E0,6.533661E0,8.497682E0,-6.151E-2,-1.0422595E-1,-4.400783E-2,-7.965101E-2,-6.1674073E-2,-4.0714107E-2,-1.9696828E-2,-4.4264343E-2,-2.2577278E-2,-4.141217E-2,-3.9991066E-2,-1.9462548E-2,-1.6926061E-2,-4.046894E-2,-9.742687E-3,1.3230513E-3,-5.1237238E-3,7.3464965E-3,-6.475436E-3,1.7101908E-2,-3.2603112E-3,7.5768433E-3,3.232428E-2,2.2374572E-2,2.0013591E-2,3.7030865E-2,4.3309215E-2,5.496327E-2,3.3618376E-2,6.719472E-2,8.721275E-2,3.4415517E-2],"categories":[],"categories_nodes":[],"categories_segments":[],"categories_sizes":[],"default_left":[0,0,0,0,0,0,0,0,0,0,0,0,0,0,0,0,0,0,0,0,0,0,0,0,0,0,0,0,0,0,0,0,0,0,0,0,0,0,0,0,0,0,0,0,0,0,0,0,0,0,0,0,0,0,0,0,0,0,0,0,0,0,0],"id":21,"left_children":[1,3,5,7,9,11,13,15,17,19,21,23,25,27,29,31,33,35,37,39,41,43,45,47,49,51,53,55,57,59,61,-1,-1,-1,-1,-1,-1,-1,-1,-1,-1,-1,-1,-1,-1,-1,-1,-1,-1,-1,-1,-1,-1,-1,-1,-1,-1,-1,-1,-1,-1,-1,-1],"loss_changes":[3.3317086E4,5.794117E3,3.8846914E3,1.01253125E3,7.1880225E2,5.555781E2,6.7995703E2,9.86416E1,1.5422363E2,2.3781445E2,9.159692E1,8.954335E1,1.19214355E2,1.7680469E2,1.0176758E2,2.6378906E1,8.97168E0,5.0624023E1,2.4981201E1,9.080347E1,1.0449194E2,2.0418503E1,6.6214455E1,5.0695026E1,5.6707947E1,5.8194747E0,7.9121826E1,3.065625E1,8.079297E1,6.127002E1,3.094751E1,0E0,0E0,0E0,0E0,0E0,0E0,0E0,0E0,0E0,0E0,0E0,0E0,0E0,0E0,0E0,0E0,0E0,0E0,0E0,0E0,0E0,0E0,0E0,0E0,0E0,0E0,0E0,0E0,0E0,0E0,0E0,0E0],"parents":[2147483647,0,0,1,1,2,2,3,3,4,4,5,5,6,6,7,7,8,8,9,9,10,10,11,11,12,12,13,13,14,14,15,15,16,16,17,17,18,18,19,19,20,20,21,21,22,22,23,23,24,24,25,25,26,26,27,27,28,28,29,29,30,30],"right_children":[2,4,6,8,10,12,14,16,18,20,22,24,26,28,30,32,34,36,38,40,42,44,46,48,50,52,54,56,58,60,62,-1,-1,-1,-1,-1,-1,-1,-1,-1,-1,-1,-1,-1,-1,-1,-1,-1,-1,-1,-1,-1,-1,-1,-1,-1,-1,-1,-1,-1,-1,-1,-1],"split_conditions":[1.12E1,4.8E0,1.6E1,6E-1,9E0,1.31E1,1.99E1,-1.4E0,1E0,6.5E0,3.857143E0,8.3E-1,6E-1,8.453333E0,2.33E1,-5.2E0,5E0,6.1E0,-3.3E0,1.5428572E0,3E0,4.1033335E0,6.8E0,3.0937726E0,7.857143E0,9.866667E0,4.8E0,5.6188457E-2,1.73E1,5.3E-1,1.4E1,-6.151E-2,-1.0422595E-1,-4.400783E-2,-7.965101E-2,-6.1674073E-2,-4.0714107E-2,-1.9696828E-2,-4.4264343E-2,-2.2577278E-2,-4.141217E-2,-3.9991066E-2,-1.9462548E-2,-1.6926061E-2,-4.046894E-2,-9.742687E-3,1.3230513E-3,-5.1237238E-3,7.3464965E-3,-6.475436E-3,1.7101908E-2,-3.2603112E-3,7.5768433E-3,3.232428E-2,2.2374572E-2,2.0013591E-2,3.7030865E-2,4.3309215E-2,5.496327E-2,3.3618376E-2,6.719472E-2,8.721275E-2,3.4415517E-2],"split_indices":[8,8,8,8,8,8,8,8,9,8,88,3,32,126,8,80,25,1,74,116,0,94,9,97,96,98,7,113,8,32,31,0,0,0,0,0,0,0,0,0,0,0,0,0,0,0,0,0,0,0,0,0,0,0,0,0,0,0,0,0,0,0,0],"split_type":[0,0,0,0,0,0,0,0,0,0,0,0,0,0,0,0,0,0,0,0,0,0,0,0,0,0,0,0,0,0,0,0,0,0,0,0,0,0,0,0,0,0,0,0,0,0,0,0,0,0,0,0,0,0,0,0,0,0,0,0,0,0,0],"sum_hessian":[2.316E3,1.132E3,1.184E3,4.55E2,6.77E2,6.02E2,5.82E2,1.41E2,3.14E2,4.4E2,2.37E2,2.24E2,3.78E2,3.85E2,1.97E2,6.2E1,7.9E1,2.34E2,8E1,1.61E2,2.79E2,2.1E1,2.16E2,1.29E2,9.5E1,1.8E1,3.6E2,5.4E1,3.31E2,1.43E2,5.4E1,7E0,5.5E1,5E0,7.4E1,2.13E2,2.1E1,7E0,7.3E1,3.8E1,1.23E2,2.8E1,2.51E2,1.5E1,6E0,9.9E1,1.17E2,6E1,6.9E1,1.1E1,8.4E1,1E1,8E0,2.07E2,1.53E2,2.4E1,3E1,1.28E2,2.03E2,9E0,1.34E2,5.1E1,3E0],"tree_param":{"num_deleted":"0","num_feature":"150","num_nodes":"63","size_leaf_vector":"1"}},{"base_weights":[-2.8770044E-2,-3.7998748E0,3.7357826E0,-6.6760416E0,-1.8657833E0,2.0085692E0,5.513663E0,-8.81034E0,-5.5940146E0,-3.3111508E0,-1.0958947E0,9.978905E-1,2.843752E0,4.5898433E0,6.981327E0,-1.0362047E1,-8.03819E-2,-6.2181907E0,-4.8121686E0,-4.2250714E0,-2.8387754E0,-1.8423959E0,-5.484549E-1,3.617033E-1,1.7839754E0,-1.6298932E-1,2.9808307E0,3.3160424E0,4.9734845E0,6.2203536E0,8.001829E0,-1.0630442E-1,-4.7270894E-2,-5.347554E-2,-6.848193E-2,-3.3483624E-2,-5.254621E-2,-3.418877E-2,-4.9823817E-2,4.136521E-3,-2.9456275E-2,-2.1796824E-2,-8.389084E-3,-7.0009506E-3,1.2348147E-2,-2.0760428E-3,8.7725315E-3,2.3695314E-3,2.0360377E-2,3.6577599E-3,-6.8388097E-3,3.4113746E-2,2.344582E-2,4.1522305E-2,2.5495023E-2,4.3722123E-2,5.4246876E-2,2.3187948E-2,6.456368E-2,8.1384026E-2,4.716722E-2],"categories":[],"categories_nodes":[],"categories_segments":[],"categories_sizes":[],"default_left":[0,0,0,0,0,0,0,0,0,0,0,0,0,0,0,0,0,0,0,0,0,0,0,0,0,0,0,0,0,0,0,0,0,0,0,0,0,0,0,0,0,0,0,0,0,0,0,0,0,0,0,0,0,0,0,0,0,0,0,0,0],"id":22,"left_children":[1,3,5,7,9,11,13,15,17,19,21,23,25,27,29,31,-1,33,35,37,39,41,43,45,47,49,51,53,55,57,59,-1,-1,-1,-1,-1,-1,-1,-1,-1,-1,-1,-1,-1,-1,-1,-1,-1,-1,-1,-1,-1,-1,-1,-1,-1,-1,-1,-1,-1,-1],"loss_changes":[3.2964332E4,6.4395E3,3.556417E3,1.0254395E3,7.693071E2,4.9564185E2,7.423496E2,1.00581055E2,1.212334E2,9.134253E1,1.8469281E2,1.3366632E2,1.3389575E2,1.5567285E2,1.1887402E2,2.0808105E1,0E0,5.5404785E1,7.416113E1,3.0968994E1,5.7771362E1,6.285443E1,7.220068E1,4.4275063E1,4.608383E1,4.413399E0,7.607178E1,4.322638E1,4.8551758E1,1.038584E2,7.080078E-1,0E0,0E0,0E0,0E0,0E0,0E0,0E0,0E0,0E0,0E0,0E0,0E0,0E0,0E0,0E0,0E0,0E0,0E0,0E0,0E0,0E0,0E0,0E0,0E0,0E0,0E0,0E0,0E0,0E0,0E0],"parents":[2147483647,0,0,1,1,2,2,3,3,4,4,5,5,6,6,7,7,8,8,9,9,10,10,11,11,12,12,13,13,14,14,15,15,17,17,18,18,19,19,20,20,21,21,22,22,23,23,24,24,25,25,26,26,27,27,28,28,29,29,30,30],"right_children":[2,4,6,8,10,12,14,16,18,20,22,24,26,28,30,32,-1,34,36,38,40,42,44,46,48,50,52,54,56,58,60,-1,-1,-1,-1,-1,-1,-1,-1,-1,-1,-1,-1,-1,-1,-1,-1,-1,-1,-1,-1,-1,-1,-1,-1,-1,-1,-1,-1,-1,-1],"split_conditions":[1.12E1,4.8E0,1.6E1,7E-1,7.3E0,1.36E1,1.95E1,-2.1E0,3E0,8.142857E-1,5.5E0,8.3E-1,5.9E-1,6.9E-1,2.82E1,6.4E0,-8.03819E-2,2E0,2.8E0,1.0172429E0,8.635475E-1,9.3E0,1.1E1,1.24E1,8E0,1.2E1,5E0,2.8829065E-1,1.34E1,5.6E-1,1.5E1,-1.0630442E-1,-4.7270894E-2,-5.347554E-2,-6.848193E-2,-3.3483624E-2,-5.254621E-2,-3.418877E-2,-4.9823817E-2,4.136521E-3,-2.9456275E-2,-2.1796824E-2,-8.389084E-3,-7.0009506E-3,1.2348147E-2,-2.0760428E-3,8.7725315E-3,2.3695314E-3,2.0360377E-2,3.6577599E-3,-6.8388097E-3,3.4113746E-2,2.344582E-2,4.1522305E-2,2.5495023E-2,4.3722123E-2,5.4246876E-2,2.3187948E-2,6.456368E-2,8.1384026E-2,4.716722E-2],"split_indices":[8,8,8,8,8,8,8,8,8,100,9,3,32,3,10,66,0,67,67,104,125,8,79,8,28,137,7,132,9,3,31,0,0,0,0,0,0,0,0,0,0,0,0,0,0,0,0,0,0,0,0,0,0,0,0,0,0,0,0,0,0],"split_type":[0,0,0,0,0,0,0,0,0,0,0,0,0,0,0,0,0,0,0,0,0,0,0,0,0,0,0,0,0,0,0,0,0,0,0,0,0,0,0,0,0,0,0,0,0,0,0,0,0,0,0,0,0,0,0,0,0,0,0,0,0],"sum_hessian":[2.32E3,1.159E3,1.161E3,4.65E2,6.94E2,5.9E2,5.71E2,1.54E2,3.11E2,2.4E2,4.54E2,2.68E2,3.22E2,3.53E2,2.18E2,4.7E1,1.07E2,1.69E2,1.42E2,7.9E1,1.61E2,1.91E2,2.63E2,1.49E2,1.19E2,1.4E1,3.08E2,8.4E1,2.69E2,1.29E2,8.9E1,4.4E1,3E0,7.5E1,9.4E1,3.5E1,1.07E2,4.1E1,3.8E1,5E0,1.56E2,1.42E2,4.9E1,2.43E2,2E1,7.1E1,7.8E1,1.7E1,1.02E2,7E0,7E0,1.81E2,1.27E2,3.8E1,4.6E1,1.2E2,1.49E2,8E0,1.21E2,8.4E1,5E0],"tree_param":{"num_deleted":"0","num_feature":"150","num_nodes":"61","size_leaf_vector":"1"}},{"base_weights":[1.117128E-2,-3.5361228E0,3.6442401E0,-5.902516E0,-1.8170137E0,1.7918364E0,4.834452E0,-7.912424E0,-5.104211E0,-2.8241217E0,-8.159904E-1,6.139131E-1,2.3517091E0,4.173301E0,6.1812935E0,-9.490571E-2,-6.33261E0,-7.091392E0,-4.5560355E0,-3.3321373E0,-1.6236618E0,-1.1442055E0,1.1544912E0,-2.2832774E-1,1.073547E0,2.648115E0,1.1553992E0,2.321587E0,4.6408334E0,5.526553E0,7.2731037E0,-6.748937E-2,-3.6455374E-2,-7.953783E-2,-4.6085324E-2,-5.197144E-3,-4.7005575E-2,-2.3633331E-2,-4.054875E-2,-8.194355E-3,-4.2661056E-2,-1.6214002E-2,-2.3750162E-3,-2.094884E-2,1.564308E-2,2.2772755E-2,-5.987723E-3,1.50059275E-2,-9.933477E-3,3.0373199E-2,1.5160618E-2,1.4804477E-3,2.0636594E-2,2.5888275E-2,-1.5080857E-2,4.7882736E-2,3.0520402E-2,8.7871505E-3,5.6488633E-2,2.167985E-3,7.5337544E-2],"categories":[],"categories_nodes":[],"categories_segments":[],"categories_sizes":[],"default_left":[0,0,0,0,0,0,0,0,0,0,0,0,0,0,0,0,0,0,0,0,0,0,0,0,0,0,0,0,0,0,0,0,0,0,0,0,0,0,0,0,0,0,0,0,0,0,0,0,0,0,0,0,0,0,0,0,0,0,0,0,0],"id":23,"left_children":[1,3,5,7,9,11,13,15,17,19,21,23,25,27,29,-1,31,33,35,37,39,41,43,45,47,49,51,53,55,57,59,-1,-1,-1,-1,-1,-1,-1,-1,-1,-1,-1,-1,-1,-1,-1,-1,-1,-1,-1,-1,-1,-1,-1,-1,-1,-1,-1,-1,-1,-1],"loss_changes":[3.0234234E4,4.8173223E3,2.5459844E3,7.589668E2,6.919392E2,2.9832642E2,6.009453E2,2.873623E2,3.586836E2,2.0327344E2,2.257393E2,5.7623764E1,1.0577478E2,4.0062012E2,1.2294043E2,0E0,5.6022217E1,1.24819336E2,1.6328613E2,1.5782104E2,2.1700839E2,1.28366E2,6.9806435E1,5.038964E1,8.627658E1,1.0332776E2,5.7114517E1,1.0430975E2,7.33833E1,7.8518555E1,1.5024805E2,0E0,0E0,0E0,0E0,0E0,0E0,0E0,0E0,0E0,0E0,0E0,0E0,0E0,0E0,0E0,0E0,0E0,0E0,0E0,0E0,0E0,0E0,0E0,0E0,0E0,0E0,0E0,0E0,0E0,0E0],"parents":[2147483647,0,0,1,1,2,2,3,3,4,4,5,5,6,6,7,7,8,8,9,9,10,10,11,11,12,12,13,13,14,14,16,16,17,17,18,18,19,19,20,20,21,21,22,22,23,23,24,24,25,25,26,26,27,27,28,28,29,29,30,30],"right_children":[2,4,6,8,10,12,14,16,18,20,22,24,26,28,30,-1,32,34,36,38,40,42,44,46,48,50,52,54,56,58,60,-1,-1,-1,-1,-1,-1,-1,-1,-1,-1,-1,-1,-1,-1,-1,-1,-1,-1,-1,-1,-1,-1,-1,-1,-1,-1,-1,-1,-1,-1],"split_conditions":[1.14E1,5.1E0,1.51E1,5E0,8.3E0,1.2E1,1.95E1,4.7E0,-1E-1,5.8E0,1.842E1,1.63E1,1.0216E0,1.4473333E1,1.01E1,-9.490571E-2,9.2E0,1.1E-1,2E0,1.0166E0,4.5220292E-1,2.9E1,1.44E1,5.3E0,9.912686E-1,5.175855E-1,1.07E1,4.4766665E0,-2.83139E-1,1.4953898E-1,5E0,-6.748937E-2,-3.6455374E-2,-7.953783E-2,-4.6085324E-2,-5.197144E-3,-4.7005575E-2,-2.3633331E-2,-4.054875E-2,-8.194355E-3,-4.2661056E-2,-1.6214002E-2,-2.3750162E-3,-2.094884E-2,1.564308E-2,2.2772755E-2,-5.987723E-3,1.50059275E-2,-9.933477E-3,3.0373199E-2,1.5160618E-2,1.4804477E-3,2.0636594E-2,2.5888275E-2,-1.5080857E-2,4.7882736E-2,3.0520402E-2,8.7871505E-3,5.6488633E-2,2.167985E-3,7.5337544E-2],"split_indices":[67,67,67,0,67,70,67,81,67,1,130,81,4,122,7,0,81,6,11,4,115,144,87,71,132,132,77,94,133,109,80,0,0,0,0,0,0,0,0,0,0,0,0,0,0,0,0,0,0,0,0,0,0,0,0,0,0,0,0,0,0],"split_type":[0,0,0,0,0,0,0,0,0,0,0,0,0,0,0,0,0,0,0,0,0,0,0,0,0,0,0,0,0,0,0,0,0,0,0,0,0,0,0,0,0,0,0,0,0,0,0,0,0,0,0,0,0,0,0,0,0,0,0,0,0],"sum_hessian":[2.344E3,1.186E3,1.158E3,4.98E2,6.88E2,4.54E2,7.04E2,1.39E2,3.59E2,3.42E2,3.46E2,1.47E2,3.07E2,4.75E2,2.29E2,6.7E1,7.2E1,7.5E1,2.84E2,2.39E2,1.03E2,2.97E2,4.9E1,5.2E1,9.5E1,2.45E2,6.2E1,9.7E1,3.78E2,1.47E2,8.2E1,6.1E1,1.1E1,5.4E1,2.1E1,1E1,2.74E2,1.04E2,1.35E2,8E1,2.3E1,1.94E2,1.03E2,5E0,4.4E1,6E0,4.6E1,7.9E1,1.6E1,1.81E2,6.4E1,3E1,3.2E1,9.1E1,6E0,3.44E2,3.4E1,4E0,1.43E2,3E0,7.9E1],"tree_param":{"num_deleted":"0","num_feature":"150","num_nodes":"61","size_leaf_vector":"1"}},{"base_weights":[-6.503188E-2,-4.374068E0,2.9846585E0,-7.045089E0,-2.8203287E0,1.0215317E0,4.9548383E0,-9.34321E0,-6.2665863E0,-3.9225037E0,-1.8482115E0,-2.723488E-2,2.0523236E0,4.096559E0,6.5793185E0,-5.626551E-2,-9.54782E-2,-7.0121408E0,-5.575569E0,-4.628512E0,-3.421248E0,-3.4560819E0,-1.6481302E0,-7.457331E-1,3.974506E-1,1.633683E0,2.8672483E0,3.5677435E0,5.112111E0,5.937956E0,7.8413987E0,-5.297479E-2,-7.369685E-2,-5.679788E-2,-5.090184E-3,-5.7041124E-2,-4.10537E-2,-1.9591574E-2,-3.840808E-2,-1.227568E-2,-3.9657973E-2,-1.20197795E-2,-2.4145093E-2,-6.3936585E-3,-3.8050916E-2,6.9145975E-3,-1.1678171E-2,2.0991456E-2,1.1448465E-2,1.0614512E-2,2.9914066E-2,4.1230038E-2,3.1371552E-2,2.8583642E-2,5.234986E-2,2.2087807E-2,6.1214533E-2,4.1661218E-2,7.98837E-2],"categories":[],"categories_nodes":[],"categories_segments":[],"categories_sizes":[],"default_left":[0,0,0,0,0,0,0,0,0,0,0,0,0,0,0,0,0,0,0,0,0,0,0,0,0,0,0,0,0,0,0,0,0,0,0,0,0,0,0,0,0,0,0,0,0,0,0,0,0,0,0,0,0,0,0,0,0,0,0],"id":24,"left_children":[1,3,5,7,9,11,13,15,17,19,21,23,25,27,29,-1,-1,31,33,35,37,39,41,43,45,47,49,51,53,55,57,-1,-1,-1,-1,-1,-1,-1,-1,-1,-1,-1,-1,-1,-1,-1,-1,-1,-1,-1,-1,-1,-1,-1,-1,-1,-1,-1,-1],"loss_changes":[3.0408848E4,3.9590605E3,5.235092E3,5.696504E2,6.4361084E2,7.353794E2,9.1449805E2,1.0921875E1,9.668457E1,8.3864746E1,9.834766E1,1.0346711E2,1.1188391E2,2.1987646E2,1.3985254E2,0E0,0E0,3.571289E1,7.199805E1,4.031128E1,9.61792E1,3.436917E1,9.623535E1,3.812506E1,9.878312E1,4.937799E1,2.2203003E1,5.7109863E1,2.5766357E1,9.376416E1,6.015625E0,0E0,0E0,0E0,0E0,0E0,0E0,0E0,0E0,0E0,0E0,0E0,0E0,0E0,0E0,0E0,0E0,0E0,0E0,0E0,0E0,0E0,0E0,0E0,0E0,0E0,0E0,0E0,0E0],"parents":[2147483647,0,0,1,1,2,2,3,3,4,4,5,5,6,6,7,7,8,8,9,9,10,10,11,11,12,12,13,13,14,14,17,17,18,18,19,19,20,20,21,21,22,22,23,23,24,24,25,25,26,26,27,27,28,28,29,29,30,30],"right_children":[2,4,6,8,10,12,14,16,18,20,22,24,26,28,30,-1,-1,32,34,36,38,40,42,44,46,48,50,52,54,56,58,-1,-1,-1,-1,-1,-1,-1,-1,-1,-1,-1,-1,-1,-1,-1,-1,-1,-1,-1,-1,-1,-1,-1,-1,-1,-1,-1,-1],"split_conditions":[9.4E0,3.4E0,1.51E1,-8E-1,6.5E0,1.24E1,1.92E1,3E0,1.5E0,4.8E0,4E0,7.8E-1,1.07E1,1.34E1,2.21E1,-5.626551E-2,-9.54782E-2,2E0,1.29E0,5.8E0,1.5857143E0,3.0428572E0,1.4E-1,9.7E-1,1.0209E0,2.8159318E0,1E-1,1.0157E0,3.6666667E0,7.806667E0,1.357E1,-5.297479E-2,-7.369685E-2,-5.679788E-2,-5.090184E-3,-5.7041124E-2,-4.10537E-2,-1.9591574E-2,-3.840808E-2,-1.227568E-2,-3.9657973E-2,-1.20197795E-2,-2.4145093E-2,-6.3936585E-3,-3.8050916E-2,6.9145975E-3,-1.1678171E-2,2.0991456E-2,1.1448465E-2,1.0614512E-2,2.9914066E-2,4.1230038E-2,3.1371552E-2,2.8583642E-2,5.234986E-2,2.2087807E-2,6.1214533E-2,4.1661218E-2,7.98837E-2],"split_indices":[8,8,8,8,8,8,8,17,8,8,88,3,9,9,8,0,0,81,55,87,116,92,57,36,104,127,66,104,90,126,122,0,0,0,0,0,0,0,0,0,0,0,0,0,0,0,0,0,0,0,0,0,0,0,0,0,0,0,0],"split_type":[0,0,0,0,0,0,0,0,0,0,0,0,0,0,0,0,0,0,0,0,0,0,0,0,0,0,0,0,0,0,0,0,0,0,0,0,0,0,0,0,0,0,0,0,0,0,0,0,0,0,0,0,0,0,0,0,0,0,0],"sum_hessian":[2.312E3,9.58E2,1.354E3,3.51E2,6.07E2,6.79E2,6.75E2,8.6E1,2.65E2,2.83E2,3.24E2,3.37E2,3.42E2,4.44E2,2.31E2,6E0,8E1,1.23E2,1.42E2,1.14E2,1.69E2,3.4E1,2.9E2,1.25E2,2.12E2,2.28E2,1.14E2,2.95E2,1.49E2,1.57E2,7.4E1,2.4E1,9.9E1,1.39E2,3E0,3.4E1,8E1,3.9E1,1.3E2,7E0,2.7E1,1.85E2,1.05E2,1.22E2,3E0,1.79E2,3.3E1,1.15E2,1.13E2,8E0,1.06E2,1.25E2,1.7E2,9E0,1.4E2,8E0,1.49E2,4E0,7E1],"tree_param":{"num_deleted":"0","num_feature":"150","num_nodes":"59","size_leaf_vector":"1"}},{"base_weights":[-3.4232423E-4,-3.7110355E0,3.6446187E0,-6.3179584E0,-1.8646104E0,1.9556057E0,5.4027705E0,-7.8039503E0,-5.0553217E0,-2.8853858E0,-9.9026227E-1,8.52202E-1,2.5939047E0,4.7322E0,7.297328E0,-9.173529E0,-6.9863396E0,-5.472301E0,-4.360235E0,-3.3935156E0,-2.2497783E0,-1.3578821E0,-2.3151757E-2,1.9183299E-2,1.2541304E0,2.112222E0,3.162532E0,4.0149317E0,5.404682E0,4.0283497E-2,7.4284782E0,-5.549774E-2,-9.44737E-2,-5.3200528E-2,-7.3480584E-2,-5.6823824E-2,-3.3526447E-2,-1.540593E-2,-4.5781158E-2,-1.5544752E-2,-3.7991524E-2,-8.463403E-3,-2.4835968E-2,-1.7485239E-2,-8.823408E-3,1.0041425E-2,-8.079838E-3,5.594282E-3,-8.349702E-3,1.5792541E-2,-2.9381807E-3,1.6310867E-2,2.8050683E-2,3.6565293E-2,2.2547789E-2,2.0036638E-2,4.223957E-2,2.4840942E-2,5.4605834E-2,7.550343E-2,4.7640085E-2],"categories":[],"categories_nodes":[],"categories_segments":[],"categories_sizes":[],"default_left":[0,0,0,0,0,0,0,0,0,0,0,0,0,0,0,0,0,0,0,0,0,0,0,0,0,0,0,0,0,0,0,0,0,0,0,0,0,0,0,0,0,0,0,0,0,0,0,0,0,0,0,0,0,0,0,0,0,0,0,0,0],"id":25,"left_children":[1,3,5,7,9,11,13,15,17,19,21,23,25,27,29,31,33,35,37,39,41,43,45,47,49,51,53,55,57,-1,59,-1,-1,-1,-1,-1,-1,-1,-1,-1,-1,-1,-1,-1,-1,-1,-1,-1,-1,-1,-1,-1,-1,-1,-1,-1,-1,-1,-1,-1,-1],"loss_changes":[3.1825113E4,5.599927E3,3.513544E3,8.655E2,6.0723413E2,4.2495605E2,7.0238477E2,1.8064648E2,5.167334E1,9.3536865E1,1.3137619E2,7.4846924E1,9.796948E1,1.8573438E2,3.323877E1,2.4463867E1,4.5228516E1,5.173877E1,5.622705E1,1.22614136E2,4.449048E1,4.7979492E1,8.383583E1,3.4587006E1,7.658707E1,6.531854E1,6.919055E1,8.046069E1,2.155957E1,0E0,9.231934E0,0E0,0E0,0E0,0E0,0E0,0E0,0E0,0E0,0E0,0E0,0E0,0E0,0E0,0E0,0E0,0E0,0E0,0E0,0E0,0E0,0E0,0E0,0E0,0E0,0E0,0E0,0E0,0E0,0E0,0E0],"parents":[2147483647,0,0,1,1,2,2,3,3,4,4,5,5,6,6,7,7,8,8,9,9,10,10,11,11,12,12,13,13,14,14,15,15,16,16,17,17,18,18,19,19,20,20,21,21,22,22,23,23,24,24,25,25,26,26,27,27,28,28,30,30],"right_children":[2,4,6,8,10,12,14,16,18,20,22,24,26,28,30,32,34,36,38,40,42,44,46,48,50,52,54,56,58,-1,60,-1,-1,-1,-1,-1,-1,-1,-1,-1,-1,-1,-1,-1,-1,-1,-1,-1,-1,-1,-1,-1,-1,-1,-1,-1,-1,-1,-1,-1,-1],"split_conditions":[1.12E1,4.8E0,1.6E1,1.5E0,7.9E0,1.31E1,2.08E1,-8E-1,6E-2,3.7E0,7.2E0,6.0633335E0,1.47E1,1.33E1,7.5E0,-5.2E0,1.7E0,2.2E0,-3.3E0,6.9E0,3.9E0,1.2E1,7E0,5.1E0,1.0233E0,1.07E1,6.1E0,1.08E1,1.14E1,4.0283497E-2,8.3E-1,-5.549774E-2,-9.44737E-2,-5.3200528E-2,-7.3480584E-2,-5.6823824E-2,-3.3526447E-2,-1.540593E-2,-4.5781158E-2,-1.5544752E-2,-3.7991524E-2,-8.463403E-3,-2.4835968E-2,-1.7485239E-2,-8.823408E-3,1.0041425E-2,-8.079838E-3,5.594282E-3,-8.349702E-3,