{"learner":{"attributes":{"scikit_learn":"{\"_estimator_type\": \"regressor\"}"},"feature_names":["cloud_cover","wind_speed","wind_gust","humidity","pressure","global_radiation","precipitation","sunshine","temp_mean","temp_min","temp_max","cloud_cover_lag1","cloud_cover_lag2","cloud_cover_lag3","cloud_cover_lag4","cloud_cover_lag5","cloud_cover_lag6","cloud_cover_lag7","wind_speed_lag1","wind_speed_lag2","wind_speed_lag3","wind_speed_lag4","wind_speed_lag5","wind_speed_lag6","wind_speed_lag7","wind_gust_lag1","wind_gust_lag2","wind_gust_lag3","wind_gust_lag4","wind_gust_lag5","wind_gust_lag6","wind_gust_lag7","humidity_lag1","humidity_lag2","humidity_lag3","humidity_lag4","humidity_lag5","humidity_lag6","humidity_lag7","pressure_lag1","pressure_lag2","pressure_lag3","pressure_lag4","pressure_lag5","pressure_lag6","pressure_lag7","global_radiation_lag1","global_radiation_lag2","global_radiation_lag3","global_radiation_lag4","global_radiation_lag5","global_radiation_lag6","global_radiation_lag7","precipitation_lag1","precipitation_lag2","precipitation_lag3","precipitation_lag4","precipitation_lag5","precipitation_lag6","precipitation_lag7","sunshine_lag1","sunshine_lag2","sunshine_lag3","sunshine_lag4","sunshine_lag5","sunshine_lag6","sunshine_lag7","temp_mean_lag1","temp_mean_lag2","temp_mean_lag3","temp_mean_lag4","temp_mean_lag5","temp_mean_lag6","temp_mean_lag7","temp_min_lag1","temp_min_lag2","temp_min_lag3","temp_min_lag4","temp_min_lag5","temp_min_lag6","temp_min_lag7","temp_max_lag1","temp_max_lag2","temp_max_lag3","temp_max_lag4","temp_max_lag5","temp_max_lag6","temp_max_lag7","cloud_cover_roll7_mean","cloud_cover_roll7_std","cloud_cover_roll30_mean","cloud_cover_roll30_std","wind_speed_roll7_mean","wind_speed_roll7_std","wind_speed_roll30_mean","wind_speed_roll30_std","wind_gust_roll7_mean","wind_gust_roll7_std","wind_gust_roll30_mean","wind_gust_roll30_std","humidity_roll7_mean","humidity_roll7_std","humidity_roll30_mean","humidity_roll30_std","pressure_roll7_mean","pressure_roll7_std","pressure_roll30_mean","pressure_roll30_std","global_radiation_roll7_mean","global_radiation_roll7_std","global_radiation_roll30_mean","global_radiation_roll30_std","precipitation_roll7_mean","precipitation_roll7_std","precipitation_roll30_mean","precipitation_roll30_std","sunshine_roll7_mean","sunshine_roll7_std","sunshine_roll30_mean","sunshine_roll30_std","temp_mean_roll7_mean","temp_mean_roll7_std","temp_mean_roll30_mean","temp_mean_roll30_std","temp_min_roll7_mean","temp_min_roll7_std","temp_min_roll30_mean","temp_min_roll30_std","temp_max_roll7_mean","temp_max_roll7_std","temp_max_roll30_mean","temp_max_roll30_std","day_sin","day_cos","month_sin","month_cos","solar_term_index","day_in_term","solar_term_sin","solar_term_cos","stem_index","wuxing_index","polarity","wuxing_x_solar","polarity_x_solar","wuxing_pol_solar","wuxing_sin","wuxing_cos","stem_sin","stem_cos"],"feature_types":["int","float","float","float","float","float","float","float","float","float","float","float","float","float","float","float","float","float","float","float","float","float","float","float","float","float","float","float","float","float","float","float","float","float","float","float","float","float","float","float","float","float","float","float","float","float","float","float","float","float","float","float","float","float","float","float","float","float","float","float","float","float","float","float","float","float","float","float","float","float","float","float","float","float","float","float","float","float","float","float","float","float","float","float","float","float","float","float","float","float","float","float","float","float","float","float","float","float","float","float","float","float","float","float","float","float","float","float","float","float","float","float","float","float","float","float","float","float","float","float","float","float","float","float","float","float","float","float","float","float","float","float","float","float","float","float","int","int","float","float","int","int","int","int","int","int","float","float","float","float"],"gradient_booster":{"model":{"cats":{"enc":[],"feature_segments":[],"sorted_idx":[]},"gbtree_model_param":{"num_parallel_tree":"1","num_trees":"500"},"iteration_indptr":[0,1,2,3,4,5,6,7,8,9,10,11,12,13,14,15,16,17,18,19,20,21,22,23,24,25,26,27,28,29,30,31,32,33,34,35,36,37,38,39,40,41,42,43,44,45,46,47,48,49,50,51,52,53,54,55,56,57,58,59,60,61,62,63,64,65,66,67,68,69,70,71,72,73,74,75,76,77,78,79,80,81,82,83,84,85,86,87,88,89,90,91,92,93,94,95,96,97,98,99,100,101,102,103,104,105,106,107,108,109,110,111,112,113,114,115,116,117,118,119,120,121,122,123,124,125,126,127,128,129,130,131,132,133,134,135,136,137,138,139,140,141,142,143,144,145,146,147,148,149,150,151,152,153,154,155,156,157,158,159,160,161,162,163,164,165,166,167,168,169,170,171,172,173,174,175,176,177,178,179,180,181,182,183,184,185,186,187,188,189,190,191,192,193,194,195,196,197,198,199,200,201,202,203,204,205,206,207,208,209,210,211,212,213,214,215,216,217,218,219,220,221,222,223,224,225,226,227,228,229,230,231,232,233,234,235,236,237,238,239,240,241,242,243,244,245,246,247,248,249,250,251,252,253,254,255,256,257,258,259,260,261,262,263,264,265,266,267,268,269,270,271,272,273,274,275,276,277,278,279,280,281,282,283,284,285,286,287,288,289,290,291,292,293,294,295,296,297,298,299,300,301,302,303,304,305,306,307,308,309,310,311,312,313,314,315,316,317,318,319,320,321,322,323,324,325,326,327,328,329,330,331,332,333,334,335,336,337,338,339,340,341,342,343,344,345,346,347,348,349,350,351,352,353,354,355,356,357,358,359,360,361,362,363,364,365,366,367,368,369,370,371,372,373,374,375,376,377,378,379,380,381,382,383,384,385,386,387,388,389,390,391,392,393,394,395,396,397,398,399,400,401,402,403,404,405,406,407,408,409,410,411,412,413,414,415,416,417,418,419,420,421,422,423,424,425,426,427,428,429,430,431,432,433,434,435,436,437,438,439,440,441,442,443,444,445,446,447,448,449,450,451,452,453,454,455,456,457,458,459,460,461,462,463,464,465,466,467,468,469,470,471,472,473,474,475,476,477,478,479,480,481,482,483,484,485,486,487,488,489,490,491,492,493,494,495,496,497,498,499,500],"tree_info":[0,0,0,0,0,0,0,0,0,0,0,0,0,0,0,0,0,0,0,0,0,0,0,0,0,0,0,0,0,0,0,0,0,0,0,0,0,0,0,0,0,0,0,0,0,0,0,0,0,0,0,0,0,0,0,0,0,0,0,0,0,0,0,0,0,0,0,0,0,0,0,0,0,0,0,0,0,0,0,0,0,0,0,0,0,0,0,0,0,0,0,0,0,0,0,0,0,0,0,0,0,0,0,0,0,0,0,0,0,0,0,0,0,0,0,0,0,0,0,0,0,0,0,0,0,0,0,0,0,0,0,0,0,0,0,0,0,0,0,0,0,0,0,0,0,0,0,0,0,0,0,0,0,0,0,0,0,0,0,0,0,0,0,0,0,0,0,0,0,0,0,0,0,0,0,0,0,0,0,0,0,0,0,0,0,0,0,0,0,0,0,0,0,0,0,0,0,0,0,0,0,0,0,0,0,0,0,0,0,0,0,0,0,0,0,0,0,0,0,0,0,0,0,0,0,0,0,0,0,0,0,0,0,0,0,0,0,0,0,0,0,0,0,0,0,0,0,0,0,0,0,0,0,0,0,0,0,0,0,0,0,0,0,0,0,0,0,0,0,0,0,0,0,0,0,0,0,0,0,0,0,0,0,0,0,0,0,0,0,0,0,0,0,0,0,0,0,0,0,0,0,0,0,0,0,0,0,0,0,0,0,0,0,0,0,0,0,0,0,0,0,0,0,0,0,0,0,0,0,0,0,0,0,0,0,0,0,0,0,0,0,0,0,0,0,0,0,0,0,0,0,0,0,0,0,0,0,0,0,0,0,0,0,0,0,0,0,0,0,0,0,0,0,0,0,0,0,0,0,0,0,0,0,0,0,0,0,0,0,0,0,0,0,0,0,0,0,0,0,0,0,0,0,0,0,0,0,0,0,0,0,0,0,0,0,0,0,0,0,0,0,0,0,0,0,0,0,0,0,0,0,0,0,0,0,0,0,0,0,0,0,0,0,0,0,0,0,0,0,0,0,0,0,0,0,0,0,0,0,0,0,0,0,0,0,0,0,0,0,0,0,0,0,0,0,0,0,0,0,0,0,0,0,0,0,0,0,0,0,0,0,0,0,0,0,0,0,0,0,0],"trees":[{"base_weights":[-1.3264111E-2,-5.4495716E0,5.299626E0,-9.064979E0,-2.8953102E0,2.9155252E0,8.163792E0,-1.1100906E1,-7.5251594E0,-4.4388447E0,-1.4896163E0,1.1878495E0,3.8884E0,6.9804306E0,1.0930023E1,-1.2462688E-1,-1.00909166E-1,-8.219038E0,-6.7336783E0,-5.337099E0,-3.5014834E0,-2.408604E0,-6.95072E-1,3.2207787E-1,1.6997807E0,3.3473568E0,4.732523E0,6.307488E0,8.132186E0,9.931048E0,1.2654774E1,-8.3320476E-2,-4.818848E-2,-6.841051E-2,-3.2683246E-2,-5.637852E-2,-4.0184014E-2,-3.124966E-2,-4.729712E-2,-1.4521055E-2,-3.056459E-2,-1.757482E-2,-1.3275516E-3,2.1928098E-2,-5.502956E-4,3.4411002E-3,1.8960105E-2,2.1860603E-2,3.5446253E-2,5.5836596E-2,4.219568E-2,6.489474E-2,4.521164E-2,8.49704E-2,6.91374E-2,3.958508E-2,1.0065602E-1,6.0585078E-2,1.2916894E-1],"categories":[],"categories_nodes":[],"categories_segments":[],"categories_sizes":[],"default_left":[0,0,0,0,0,0,0,0,0,0,0,0,0,0,0,0,0,0,0,0,0,0,0,0,0,0,0,0,0,0,0,0,0,0,0,0,0,0,0,0,0,0,0,0,0,0,0,0,0,0,0,0,0,0,0,0,0,0,0],"id":0,"left_children":[1,3,5,7,9,11,13,15,17,19,21,23,25,27,29,-1,-1,31,33,35,37,39,41,43,45,47,49,51,53,55,57,-1,-1,-1,-1,-1,-1,-1,-1,-1,-1,-1,-1,-1,-1,-1,-1,-1,-1,-1,-1,-1,-1,-1,-1,-1,-1,-1,-1],"loss_changes":[6.796054E4,1.0712508E4,8.100957E3,1.4225156E3,1.4747256E3,1.0890825E3,1.6895781E3,1.539414E2,9.528613E1,2.540747E2,2.6014886E2,1.0384918E2,1.7334082E2,2.425625E2,1.4774414E2,0E0,0E0,1.3482422E1,2.6861328E1,4.1422363E1,5.9351196E1,9.797644E1,1.15475426E2,6.3121002E1,3.8494904E1,5.0553223E1,4.531421E1,4.92041E1,6.1621094E-1,4.39375E1,1.4942383E1,0E0,0E0,0E0,0E0,0E0,0E0,0E0,0E0,0E0,0E0,0E0,0E0,0E0,0E0,0E0,0E0,0E0,0E0,0E0,0E0,0E0,0E0,0E0,0E0,0E0,0E0,0E0,0E0],"parents":[2147483647,0,0,1,1,2,2,3,3,4,4,5,5,6,6,7,7,8,8,9,9,10,10,11,11,12,12,13,13,14,14,17,17,18,18,19,19,20,20,21,21,22,22,23,23,24,24,25,25,26,26,27,27,28,28,29,29,30,30],"right_children":[2,4,6,8,10,12,14,16,18,20,22,24,26,28,30,-1,-1,32,34,36,38,40,42,44,46,48,50,52,54,56,58,-1,-1,-1,-1,-1,-1,-1,-1,-1,-1,-1,-1,-1,-1,-1,-1,-1,-1,-1,-1,-1,-1,-1,-1,-1,-1,-1,-1],"split_conditions":[1.12E1,4.8E0,1.63E1,1.2E0,8E0,1.32E1,2.05E1,-8E-1,3E0,6.5E0,9.4E0,1.5393333E1,1.51E1,1.86E1,2.33E1,-1.2462688E-1,-1.00909166E-1,7.348793E-1,1.57E1,4.7E0,6.4E0,8.1266665E-1,3.43E0,4.4E0,7E0,1.46E1,3.1E0,5.5E0,9E-2,1.6E0,1.78E1,-8.3320476E-2,-4.818848E-2,-6.841051E-2,-3.2683246E-2,-5.637852E-2,-4.0184014E-2,-3.124966E-2,-4.729712E-2,-1.4521055E-2,-3.056459E-2,-1.757482E-2,-1.3275516E-3,2.1928098E-2,-5.502956E-4,3.4411002E-3,1.8960105E-2,2.1860603E-2,3.5446253E-2,5.5836596E-2,4.219568E-2,6.489474E-2,4.521164E-2,8.49704E-2,6.91374E-2,3.958508E-2,1.0065602E-1,6.0585078E-2,1.2916894E-1],"split_indices":[8,8,8,8,8,8,8,8,8,8,8,130,8,8,8,0,0,113,85,7,74,102,118,74,27,85,1,1,6,24,85,0,0,0,0,0,0,0,0,0,0,0,0,0,0,0,0,0,0,0,0,0,0,0,0,0,0,0,0],"split_type":[0,0,0,0,0,0,0,0,0,0,0,0,0,0,0,0,0,0,0,0,0,0,0,0,0,0,0,0,0,0,0,0,0,0,0,0,0,0,0,0,0,0,0,0,0,0,0,0,0,0,0,0,0,0,0,0,0,0,0],"sum_hessian":[2.351E3,1.162E3,1.189E3,4.8E2,6.82E2,6.5E2,5.39E2,2.04E2,2.76E2,3.24E2,3.58E2,2.35E2,4.15E2,3.8E2,1.59E2,8.2E1,1.22E2,1.42E2,1.34E2,1.63E2,1.61E2,1.65E2,1.93E2,8.8E1,1.47E2,2.56E2,1.59E2,2.44E2,1.36E2,1.05E2,5.4E1,1.36E2,6E0,1.29E2,5E0,1.3E2,3.3E1,1.26E2,3.5E1,6.8E1,9.7E1,6.6E1,1.27E2,1.4E1,7.4E1,1.9E1,1.28E2,3.9E1,2.17E2,5.6E1,1.03E2,2.19E2,2.5E1,1E2,3.6E1,3E0,1.02E2,3E0,5.1E1],"tree_param":{"num_deleted":"0","num_feature":"150","num_nodes":"59","size_leaf_vector":"1"}},{"base_weights":[-5.2463684E-2,-5.4498525E0,5.0846624E0,-8.957427E0,-2.958574E0,2.5821373E0,7.89637E0,-1.0976304E1,-7.3567414E0,-4.4506636E0,-1.6175857E0,1.1062773E0,3.6756554E0,6.7291846E0,1.079004E1,-1.2432011E-1,-1.0024996E1,-8.413209E0,-6.5194E0,-5.436726E0,-3.7171662E0,-7.4362284E-1,-2.3467999E0,2.0294158E0,4.797436E-1,4.033173E0,2.641579E0,6.0775833E0,7.9231014E0,1.20419145E-1,9.46729E-2,-5.6842335E-2,-1.01513416E-1,-4.5179613E-2,-8.5119754E-2,-6.931143E-2,-5.3998485E-2,-7.7825678E-3,-5.537473E-2,-3.3420675E-2,-4.990847E-2,1.7222965E-2,-8.826529E-3,-3.2118317E-2,-1.4005235E-2,2.7606108E-3,2.3238586E-2,1.1754519E-2,-1.6375296E-3,2.97566E-2,4.3079846E-2,1.7217966E-2,3.1090518E-2,6.3174136E-2,4.5109484E-2,6.4083055E-2,8.549588E-2],"categories":[],"categories_nodes":[],"categories_segments":[],"categories_sizes":[],"default_left":[0,0,0,0,0,0,0,0,0,0,0,0,0,0,0,0,0,0,0,0,0,0,0,0,0,0,0,0,0,0,0,0,0,0,0,0,0,0,0,0,0,0,0,0,0,0,0,0,0,0,0,0,0,0,0,0,0],"id":1,"left_children":[1,3,5,7,9,11,13,15,17,19,21,23,25,27,29,-1,31,33,35,37,39,41,43,45,47,49,51,53,55,-1,-1,-1,-1,-1,-1,-1,-1,-1,-1,-1,-1,-1,-1,-1,-1,-1,-1,-1,-1,-1,-1,-1,-1,-1,-1,-1,-1],"loss_changes":[6.510317E4,9.977715E3,8.443318E3,1.4524258E3,1.3347808E3,1.0251104E3,1.8372734E3,1.6116602E2,1.8073633E2,2.0815381E2,2.2418958E2,1.5667249E2,1.2398828E2,2.6629688E2,1.5044727E2,0E0,1.255957E1,4.48291E0,3.2328613E1,5.7479492E1,7.0871826E1,5.731862E1,1.5302246E2,5.588736E1,7.371414E1,6.4918945E1,3.5871216E1,7.073926E1,7.657617E1,0E0,0E0,0E0,0E0,0E0,0E0,0E0,0E0,0E0,0E0,0E0,0E0,0E0,0E0,0E0,0E0,0E0,0E0,0E0,0E0,0E0,0E0,0E0,0E0,0E0,0E0,0E0,0E0],"parents":[2147483647,0,0,1,1,2,2,3,3,4,4,5,5,6,6,7,7,8,8,9,9,10,10,11,11,12,12,13,13,14,14,16,16,17,17,18,18,19,19,20,20,21,21,22,22,23,23,24,24,25,25,26,26,27,27,28,28],"right_children":[2,4,6,8,10,12,14,16,18,20,22,24,26,28,30,-1,32,34,36,38,40,42,44,46,48,50,52,54,56,-1,-1,-1,-1,-1,-1,-1,-1,-1,-1,-1,-1,-1,-1,-1,-1,-1,-1,-1,-1,-1,-1,-1,-1,-1,-1,-1,-1],"split_conditions":[1.1E1,4.8E0,1.6E1,1.2E0,8E0,1.32E1,2.05E1,-1E0,2.9E0,6.2E0,8.09E-1,-3.0369502E-1,1.3E1,1.86E1,3E0,-1.2432011E-1,-3.4E0,5E0,3.6E0,4.4880795E-1,6.2E0,1.6E0,9.4E0,1.36E1,-9.020987E-1,1.78E1,1.92E1,-3.322355E-1,1.0138E0,1.20419145E-1,9.46729E-2,-5.6842335E-2,-1.01513416E-1,-4.5179613E-2,-8.5119754E-2,-6.931143E-2,-5.3998485E-2,-7.7825678E-3,-5.537473E-2,-3.3420675E-2,-4.990847E-2,1.7222965E-2,-8.826529E-3,-3.2118317E-2,-1.4005235E-2,2.7606108E-3,2.3238586E-2,1.1754519E-2,-1.6375296E-3,2.97566E-2,4.3079846E-2,1.7217966E-2,3.1090518E-2,6.3174136E-2,4.5109484E-2,6.4083055E-2,8.549588E-2],"split_indices":[8,8,8,8,8,8,8,8,8,8,102,133,2,8,0,0,70,31,60,117,74,9,8,85,132,10,130,133,4,0,0,0,0,0,0,0,0,0,0,0,0,0,0,0,0,0,0,0,0,0,0,0,0,0,0,0,0],"split_type":[0,0,0,0,0,0,0,0,0,0,0,0,0,0,0,0,0,0,0,0,0,0,0,0,0,0,0,0,0,0,0,0,0,0,0,0,0,0,0,0,0,0,0,0,0,0,0,0,0,0,0,0,0,0,0,0,0],"sum_hessian":[2.346E3,1.144E3,1.202E3,4.74E2,6.7E2,6.37E2,5.65E2,2.07E2,2.67E2,3.16E2,3.54E2,2.72E2,3.65E2,4.05E2,1.6E2,7.7E1,1.3E2,1.14E2,1.53E2,1.32E2,1.84E2,1.62E2,1.92E2,1.09E2,1.63E2,2.69E2,9.6E1,2.66E2,1.39E2,7.8E1,8.2E1,5E0,1.25E2,4E0,1.1E2,1.08E2,4.5E1,3E0,1.29E2,1.45E2,3.9E1,8E0,1.54E2,9.9E1,9.3E1,1.6E1,9.3E1,7.8E1,8.5E1,5.8E1,2.11E2,3.4E1,6.2E1,2.28E2,3.8E1,4.4E1,9.5E1],"tree_param":{"num_deleted":"0","num_feature":"150","num_nodes":"57","size_leaf_vector":"1"}},{"base_weights":[5.0696515E-2,-5.377867E0,4.8741775E0,-8.92659E0,-3.1386876E0,2.3573978E0,7.634204E0,-1.09403715E1,-7.580304E0,-4.3958573E0,-1.6129825E0,7.7617854E-1,3.2831101E0,6.2725687E0,9.979509E0,-1.138557E1,-8.771058E-2,-8.503336E0,-6.8800106E0,-5.306967E0,-3.4555213E0,-2.4477882E0,-4.719627E-1,1.50225E0,-1.0125425E-1,2.2295327E0,4.0078883E0,6.793595E0,4.915823E0,9.143168E0,1.2361473E1,-9.080765E-2,-1.1773443E-1,-8.650531E-2,-2.5254343E-2,-6.950362E-2,-2.5144044E-2,-5.9102356E-2,-4.2214025E-2,-4.253388E-2,-2.9545955E-2,-1.6569883E-2,-3.0530956E-2,-1.002999E-2,1.0696117E-2,7.968878E-3,2.333736E-2,-1.767062E-2,2.8744817E-3,2.8478596E-2,1.0864649E-2,3.2638416E-2,4.6492852E-2,6.8805665E-2,3.505453E-2,2.5154041E-2,5.2748647E-2,7.260246E-2,9.95895E-2,1.2856026E-1,7.2606966E-2],"categories":[],"categories_nodes":[],"categories_segments":[],"categories_sizes":[],"default_left":[0,0,0,0,0,0,0,0,0,0,0,0,0,0,0,0,0,0,0,0,0,0,0,0,0,0,0,0,0,0,0,0,0,0,0,0,0,0,0,0,0,0,0,0,0,0,0,0,0,0,0,0,0,0,0,0,0,0,0,0,0],"id":2,"left_children":[1,3,5,7,9,11,13,15,17,19,21,23,25,27,29,31,-1,33,35,37,39,41,43,45,47,49,51,53,55,57,59,-1,-1,-1,-1,-1,-1,-1,-1,-1,-1,-1,-1,-1,-1,-1,-1,-1,-1,-1,-1,-1,-1,-1,-1,-1,-1,-1,-1,-1,-1],"loss_changes":[6.1219508E4,8.711627E3,8.580621E3,1.0674453E3,1.2889248E3,9.4702295E2,1.8199102E3,6.0371094E1,1.0672754E2,2.9778223E2,2.9097943E2,1.5382822E2,3.0275684E2,2.3122754E2,3.1313477E2,1.2582031E1,0E0,7.118799E1,2.8261719E1,9.584668E1,6.0651367E1,7.91958E1,1.0830697E2,7.524509E1,7.188129E1,1.159599E2,9.904614E1,5.176953E1,7.903247E1,1.7635059E2,3.8342285E1,0E0,0E0,0E0,0E0,0E0,0E0,0E0,0E0,0E0,0E0,0E0,0E0,0E0,0E0,0E0,0E0,0E0,0E0,0E0,0E0,0E0,0E0,0E0,0E0,0E0,0E0,0E0,0E0,0E0,0E0],"parents":[2147483647,0,0,1,1,2,2,3,3,4,4,5,5,6,6,7,7,8,8,9,9,10,10,11,11,12,12,13,13,14,14,15,15,17,17,18,18,19,19,20,20,21,21,22,22,23,23,24,24,25,25,26,26,27,27,28,28,29,29,30,30],"right_children":[2,4,6,8,10,12,14,16,18,20,22,24,26,28,30,32,-1,34,36,38,40,42,44,46,48,50,52,54,56,58,60,-1,-1,-1,-1,-1,-1,-1,-1,-1,-1,-1,-1,-1,-1,-1,-1,-1,-1,-1,-1,-1,-1,-1,-1,-1,-1,-1,-1,-1,-1],"split_conditions":[1.44E1,7.3E0,2.06E1,3.5E0,1.12E1,1.68E1,2.52E1,-8E-1,-1E-1,3.7E0,6.8E0,3.8E0,9.793333E0,-5.476112E-1,2.99E1,2.4E0,-8.771058E-2,1.56E0,7.7E0,9.4E0,6.114286E0,3.0679357E0,1.0356667E0,1.75E1,4E0,-3.0369502E-1,-8.425721E-1,1.017402E-2,1.48E1,1.0137E0,1.2E1,-9.080765E-2,-1.1773443E-1,-8.650531E-2,-2.5254343E-2,-6.950362E-2,-2.5144044E-2,-5.9102356E-2,-4.2214025E-2,-4.253388E-2,-2.9545955E-2,-1.6569883E-2,-3.0530956E-2,-1.002999E-2,1.0696117E-2,7.968878E-3,2.333736E-2,-1.767062E-2,2.8744817E-3,2.8478596E-2,1.0864649E-2,3.2638416E-2,4.6492852E-2,6.8805665E-2,3.505453E-2,2.5154041E-2,5.2748647E-2,7.260246E-2,9.95895E-2,1.2856026E-1,7.2606966E-2],"split_indices":[10,10,10,10,10,10,10,9,9,9,9,7,126,133,10,18,0,55,62,10,120,127,110,85,136,133,132,107,87,4,2,0,0,0,0,0,0,0,0,0,0,0,0,0,0,0,0,0,0,0,0,0,0,0,0,0,0,0,0,0,0],"split_type":[0,0,0,0,0,0,0,0,0,0,0,0,0,0,0,0,0,0,0,0,0,0,0,0,0,0,0,0,0,0,0,0,0,0,0,0,0,0,0,0,0,0,0,0,0,0,0,0,0,0,0,0,0,0,0,0,0,0,0,0,0],"sum_hessian":[2.336E3,1.099E3,1.237E3,4.24E2,6.75E2,6.48E2,5.89E2,1.67E2,2.57E2,3.69E2,3.06E2,2.4E2,4.08E2,3.75E2,2.14E2,1.35E2,3.2E1,1.06E2,1.51E2,1.85E2,1.84E2,1.76E2,1.3E2,1.31E2,1.09E2,1.68E2,2.4E2,2.68E2,1.07E2,1.62E2,5.2E1,2.3E1,1.12E2,1.03E2,3E0,1.48E2,3E0,1.16E2,6.9E1,6.8E1,1.16E2,7.8E1,9.8E1,9.7E1,3.3E1,7.2E1,5.9E1,2E1,8.9E1,1.08E2,6E1,1.14E2,1.26E2,2.6E2,8E0,1.5E1,9.2E1,5.2E1,1.1E2,4.6E1,6E0],"tree_param":{"num_deleted":"0","num_feature":"150","num_nodes":"61","size_leaf_vector":"1"}},{"base_weights":[-2.7504057E-2,-5.2811127E0,4.992059E0,-8.636341E0,-2.8253515E0,2.5966196E0,7.601675E0,-1.0869149E1,-7.260092E0,-4.1159344E0,-1.627831E0,1.3234395E0,3.6901898E0,6.5453873E0,1.0481694E1,-1.2128102E-1,-9.9843645E0,-8.185779E0,-6.473253E0,-4.908105E0,-3.3972528E0,-2.3654938E0,-5.913006E-1,7.0068634E-1,2.0478666E0,2.092192E0,3.9250853E0,5.7584414E0,7.547789E0,9.514143E0,1.2138874E-1,-4.1822236E-2,-1.01047695E-1,-8.3295204E-2,-3.7143648E-2,-7.127147E-2,-5.671803E-2,-5.2997306E-2,-3.8597222E-2,-3.597171E-2,-1.5147657E-2,-2.982209E-2,-1.5121473E-2,4.490943E-3,-1.1010703E-2,-5.344666E-3,1.0734133E-2,2.1781262E-2,-1.0556555E-2,2.7419219E-2,6.0327034E-3,4.2775843E-2,2.9932188E-2,5.8385085E-2,2.2564279E-2,7.685808E-2,4.7069695E-2,5.6150213E-2,9.791078E-2],"categories":[],"categories_nodes":[],"categories_segments":[],"categories_sizes":[],"default_left":[0,0,0,0,0,0,0,0,0,0,0,0,0,0,0,0,0,0,0,0,0,0,0,0,0,0,0,0,0,0,0,0,0,0,0,0,0,0,0,0,0,0,0,0,0,0,0,0,0,0,0,0,0,0,0,0,0,0,0],"id":3,"left_children":[1,3,5,7,9,11,13,15,17,19,21,23,25,27,29,-1,31,33,35,37,39,41,43,45,47,49,51,53,55,57,-1,-1,-1,-1,-1,-1,-1,-1,-1,-1,-1,-1,-1,-1,-1,-1,-1,-1,-1,-1,-1,-1,-1,-1,-1,-1,-1,-1,-1],"loss_changes":[6.136492E4,9.342924E3,7.4181426E3,1.3942695E3,1.00966455E3,8.606328E2,1.6606602E3,7.831445E1,1.6405566E2,1.6239941E2,2.6056677E2,1.2866953E2,1.1655713E2,2.8572852E2,1.2445703E2,0E0,3.4554688E1,5.398242E1,4.581494E1,3.9393555E1,5.7641724E1,1.0029541E2,7.693179E1,7.290644E1,5.6178772E1,4.1544235E1,8.1729004E1,5.303076E1,3.3551758E1,5.146289E1,0E0,0E0,0E0,0E0,0E0,0E0,0E0,0E0,0E0,0E0,0E0,0E0,0E0,0E0,0E0,0E0,0E0,0E0,0E0,0E0,0E0,0E0,0E0,0E0,0E0,0E0,0E0,0E0,0E0],"parents":[2147483647,0,0,1,1,2,2,3,3,4,4,5,5,6,6,7,7,8,8,9,9,10,10,11,11,12,12,13,13,14,14,16,16,17,17,18,18,19,19,20,20,21,21,22,22,23,23,24,24,25,25,26,26,27,27,28,28,29,29],"right_children":[2,4,6,8,10,12,14,16,18,20,22,24,26,28,30,-1,32,34,36,38,40,42,44,46,48,50,52,54,56,58,-1,-1,-1,-1,-1,-1,-1,-1,-1,-1,-1,-1,-1,-1,-1,-1,-1,-1,-1,-1,-1,-1,-1,-1,-1,-1,-1,-1,-1],"split_conditions":[1.1E1,5E0,1.6E1,9E-1,8E0,1.36E1,2.05E1,-1E0,2.9E0,9.4E0,8.6233336E-1,1.24E1,1.48E1,1.81E1,2.33E1,-1.2128102E-1,-3.4E0,6.4285713E-1,3.9E-1,2.1E-1,9.2E-1,9.4E0,9E0,8.82E-1,4.9933333E0,3.3024216E0,1.3E1,4.7697754E0,9.4E-1,5.3E-1,1.2138874E-1,-4.1822236E-2,-1.01047695E-1,-8.3295204E-2,-3.7143648E-2,-7.127147E-2,-5.671803E-2,-5.2997306E-2,-3.8597222E-2,-3.597171E-2,-1.5147657E-2,-2.982209E-2,-1.5121473E-2,4.490943E-3,-1.1010703E-2,-5.344666E-3,1.0734133E-2,2.1781262E-2,-1.0556555E-2,2.7419219E-2,6.0327034E-3,4.2775843E-2,2.9932188E-2,5.8385085E-2,2.2564279E-2,7.685808E-2,4.7069695E-2,5.6150213E-2,9.791078E-2],"split_indices":[8,8,8,8,8,8,8,8,8,10,110,8,87,8,8,0,70,112,46,58,33,8,2,110,94,127,2,123,6,32,0,0,0,0,0,0,0,0,0,0,0,0,0,0,0,0,0,0,0,0,0,0,0,0,0,0,0,0,0],"split_type":[0,0,0,0,0,0,0,0,0,0,0,0,0,0,0,0,0,0,0,0,0,0,0,0,0,0,0,0,0,0,0,0,0,0,0,0,0,0,0,0,0,0,0,0,0,0,0,0,0,0,0,0,0,0,0,0,0,0,0],"sum_hessian":[2.325E3,1.136E3,1.189E3,4.79E2,6.57E2,6.21E2,5.68E2,1.8E2,2.99E2,3.15E2,3.42E2,2.88E2,3.33E2,4.18E2,1.5E2,6.9E1,1.11E2,1.33E2,1.66E2,1.47E2,1.68E2,1.99E2,1.43E2,1.56E2,1.32E2,4.4E1,2.89E2,2.38E2,1.8E2,9.9E1,5.1E1,3E0,1.08E2,1.28E2,5E0,8.7E1,7.9E1,1.04E2,4.3E1,1.51E2,1.7E1,1.14E2,8.5E1,4.7E1,9.6E1,3.6E1,1.2E2,1.27E2,5E0,3E1,1.4E1,2.07E2,8.2E1,2.32E2,6E0,1.7E2,1E1,8E0,9.1E1],"tree_param":{"num_deleted":"0","num_feature":"150","num_nodes":"59","size_leaf_vector":"1"}},{"base_weights":[3.143532E-2,-5.2515216E0,4.5712013E0,-8.237735E0,-2.8824654E0,2.7656775E0,7.494911E0,-1.0326847E1,-6.927676E0,-3.6073737E0,-6.3860863E-1,4.5335436E-1,3.8271718E0,1.0811983E1,6.695303E0,-1.0726421E1,-5.8352833E0,-7.5666156E0,-3.9341393E0,-4.579061E0,-2.129472E0,-1.95219E0,1.5815663E-1,-8.94953E-1,1.5593452E0,3.2934008E0,6.5122404E0,1.0968795E1,4.6341237E-2,5.7718205E0,8.039664E0,-1.17552966E-1,-9.667714E-2,-2.8823333E-2,-6.255034E-2,-7.9283886E-2,-5.0321E-2,5.1032784E-3,-4.400112E-2,-5.648883E-2,-3.821826E-2,5.198449E-3,-2.698792E-2,-2.2683064E-2,5.7038367E-3,-1.0091038E-2,7.044013E-3,-0E0,-2.3105964E-2,2.3057219E-2,-2.6844242E-3,1.7028905E-2,3.958399E-2,3.4259684E-2,6.9125436E-2,1.0233535E-1,1.3254052E-1,3.737626E-2,6.2383156E-2,8.167318E-2,2.5565999E-2],"categories":[],"categories_nodes":[],"categories_segments":[],"categories_sizes":[],"default_left":[0,0,0,0,0,0,0,0,0,0,0,0,0,0,0,0,0,0,0,0,0,0,0,0,0,0,0,0,0,0,0,0,0,0,0,0,0,0,0,0,0,0,0,0,0,0,0,0,0,0,0,0,0,0,0,0,0,0,0,0,0],"id":4,"left_children":[1,3,5,7,9,11,13,15,17,19,21,23,25,27,29,31,33,35,37,39,41,43,45,47,49,51,53,55,-1,57,59,-1,-1,-1,-1,-1,-1,-1,-1,-1,-1,-1,-1,-1,-1,-1,-1,-1,-1,-1,-1,-1,-1,-1,-1,-1,-1,-1,-1,-1,-1],"loss_changes":[5.5785312E4,7.5802383E3,6.5820566E3,1.2267422E3,9.7485205E2,1.9000879E3,1.1910352E3,2.6059766E2,5.333242E2,6.415493E2,1.5538736E2,3.668098E2,7.386079E2,3.57666E1,4.3267383E2,6.394336E1,2.1287842E0,1.8070312E2,1.1446857E2,1.9862354E2,2.7613306E2,4.6119537E1,5.9978065E1,1.4066638E2,1.8499213E2,4.6336377E2,8.276758E1,9.87793E0,0E0,1.9678955E2,8.653613E1,0E0,0E0,0E0,0E0,0E0,0E0,0E0,0E0,0E0,0E0,0E0,0E0,0E0,0E0,0E0,0E0,0E0,0E0,0E0,0E0,0E0,0E0,0E0,0E0,0E0,0E0,0E0,0E0,0E0,0E0],"parents":[2147483647,0,0,1,1,2,2,3,3,4,4,5,5,6,6,7,7,8,8,9,9,10,10,11,11,12,12,13,13,14,14,15,15,16,16,17,17,18,18,19,19,20,20,21,21,22,22,23,23,24,24,25,25,26,26,27,27,29,29,30,30],"right_children":[2,4,6,8,10,12,14,16,18,20,22,24,26,28,30,32,34,36,38,40,42,44,46,48,50,52,54,56,-1,58,60,-1,-1,-1,-1,-1,-1,-1,-1,-1,-1,-1,-1,-1,-1,-1,-1,-1,-1,-1,-1,-1,-1,-1,-1,-1,-1,-1,-1,-1,-1],"split_conditions":[1.43E1,1.7E0,1.26E1,-2.1E0,6.9E0,1.3583333E0,3E0,5.8966666E-1,1.18E0,6.386667E-1,1.08E1,7.8E0,2.66E0,1.8138357E0,1.5E1,-4.1E0,1E0,1.13E1,9.866667E0,3.7E0,-3.1596187E-1,1.27E1,2.8E-1,8.158629E-3,2.2187512E0,8.7E0,5.7E-1,2.472E0,4.6341237E-2,1.02E0,7.744068E-3,-1.17552966E-1,-9.667714E-2,-2.8823333E-2,-6.255034E-2,-7.9283886E-2,-5.0321E-2,5.1032784E-3,-4.400112E-2,-5.648883E-2,-3.821826E-2,5.198449E-3,-2.698792E-2,-2.2683064E-2,5.7038367E-3,-1.0091038E-2,7.044013E-3,-0E0,-2.3105964E-2,2.3057219E-2,-2.6844242E-3,1.7028905E-2,3.958399E-2,3.4259684E-2,6.9125436E-2,1.0233535E-1,1.3254052E-1,3.737626E-2,6.2383156E-2,8.167318E-2,2.5565999E-2],"split_indices":[81,9,9,9,9,110,0,110,5,110,82,9,5,93,9,9,0,84,98,9,133,81,5,107,121,9,34,110,0,5,107,0,0,0,0,0,0,0,0,0,0,0,0,0,0,0,0,0,0,0,0,0,0,0,0,0,0,0,0,0,0],"split_type":[0,0,0,0,0,0,0,0,0,0,0,0,0,0,0,0,0,0,0,0,0,0,0,0,0,0,0,0,0,0,0,0,0,0,0,0,0,0,0,0,0,0,0,0,0,0,0,0,0,0,0,0,0,0,0,0,0,0,0,0,0],"sum_hessian":[2.324E3,1.074E3,1.25E3,4.74E2,6E2,7.74E2,4.76E2,1.8E2,2.94E2,4.53E2,1.47E2,2.44E2,5.3E2,9E1,3.86E2,1.64E2,1.6E1,2.41E2,5.3E1,2.72E2,1.81E2,5.5E1,9.2E1,1.1E2,1.34E2,4.44E2,8.6E1,8.7E1,3E0,2.32E2,1.54E2,7.8E1,8.6E1,3E0,1.3E1,2.09E2,3.2E1,5E0,4.8E1,1.1E2,1.62E2,3.2E1,1.49E2,4.9E1,6E0,2.9E1,6.3E1,6.8E1,4.2E1,9.5E1,3.9E1,1.32E2,3.12E2,1.1E1,7.5E1,7E1,1.7E1,4.5E1,1.87E2,1.5E2,4E0],"tree_param":{"num_deleted":"0","num_feature":"150","num_nodes":"61","size_leaf_vector":"1"}},{"base_weights":[4.2190168E-2,-5.3450103E0,4.736674E0,-8.971301E0,-3.2739527E0,2.3882544E0,7.3422723E0,-1.0627524E1,-7.597561E0,-5.343905E0,-2.2800686E0,8.727846E-1,3.2922454E0,6.0297985E0,9.814932E0,-1.1020631E-1,-8.138467E0,-7.814941E0,-5.1607237E0,-5.843332E0,-3.8714247E0,-2.9324045E0,-8.867805E-1,-4.218258E-1,1.4370482E0,1.6169878E0,3.6528711E0,3.5798438E0,6.2685513E0,9.06362E0,1.19457035E1,-8.488715E-2,-3.8897984E-2,-7.8759484E-2,-2.8315717E-2,-2.8418925E-2,-5.7014897E-2,-5.9198245E-2,-1.240431E-2,-4.2799E-2,-2.4743738E-2,-3.24432E-2,-1.4603677E-2,-1.2808971E-2,1.1625678E-2,-2.2692638E-2,6.8023894E-4,1.9020159E-2,4.80612E-3,2.2224564E-2,1.4712585E-3,3.4302402E-2,5.5461705E-2,1.1855551E-2,4.303524E-2,5.3664736E-2,6.679733E-2,9.2199534E-2,4.4268508E-2,1.2439893E-1,6.231656E-2],"categories":[],"categories_nodes":[],"categories_segments":[],"categories_sizes":[],"default_left":[0,0,0,0,0,0,0,0,0,0,0,0,0,0,0,0,0,0,0,0,0,0,0,0,0,0,0,0,0,0,0,0,0,0,0,0,0,0,0,0,0,0,0,0,0,0,0,0,0,0,0,0,0,0,0,0,0,0,0,0,0],"id":5,"left_children":[1,3,5,7,9,11,13,15,17,19,21,23,25,27,29,-1,31,33,35,37,39,41,43,45,47,49,51,53,55,57,59,-1,-1,-1,-1,-1,-1,-1,-1,-1,-1,-1,-1,-1,-1,-1,-1,-1,-1,-1,-1,-1,-1,-1,-1,-1,-1,-1,-1,-1,-1],"loss_changes":[5.925473E4,8.1630938E3,7.6425293E3,8.184219E2,1.4189282E3,9.0089087E2,1.8636973E3,8.158203E1,7.491016E1,1.418711E2,4.260149E2,1.818721E2,2.4307617E2,2.0469824E2,2.1620703E2,0E0,7.4091797E0,3.7432617E1,9.275513E0,5.0387207E1,2.2974121E1,1.4217896E2,1.24268654E2,6.915198E1,7.578281E1,6.6182724E1,1.2296875E2,5.8458923E1,9.425293E1,7.017578E1,6.1803223E1,0E0,0E0,0E0,0E0,0E0,0E0,0E0,0E0,0E0,0E0,0E0,0E0,0E0,0E0,0E0,0E0,0E0,0E0,0E0,0E0,0E0,0E0,0E0,0E0,0E0,0E0,0E0,0E0,0E0,0E0],"parents":[2147483647,0,0,1,1,2,2,3,3,4,4,5,5,6,6,7,7,8,8,9,9,10,10,11,11,12,12,13,13,14,14,16,16,17,17,18,18,19,19,20,20,21,21,22,22,23,23,24,24,25,25,26,26,27,27,28,28,29,29,30,30],"right_children":[2,4,6,8,10,12,14,16,18,20,22,24,26,28,30,-1,32,34,36,38,40,42,44,46,48,50,52,54,56,58,60,-1,-1,-1,-1,-1,-1,-1,-1,-1,-1,-1,-1,-1,-1,-1,-1,-1,-1,-1,-1,-1,-1,-1,-1,-1,-1,-1,-1,-1,-1],"split_conditions":[1.44E1,7E0,2.06E1,3.7E0,9.4E0,1.68E1,2.54E1,-7E-1,2.8E0,4.1E0,6.8E0,9.606667E0,6.363333E0,1.3583333E0,2.99E1,-1.1020631E-1,6.1E0,3.9633334E-1,1.5E-1,1.18E2,5.9E0,1.3E1,1.75E1,9E0,4.1E0,1.2E1,1.38E1,6.6E0,1.0143E0,3.9795585E0,1.2E1,-8.488715E-2,-3.8897984E-2,-7.8759484E-2,-2.8315717E-2,-2.8418925E-2,-5.7014897E-2,-5.9198245E-2,-1.240431E-2,-4.2799E-2,-2.4743738E-2,-3.24432E-2,-1.4603677E-2,-1.2808971E-2,1.1625678E-2,-2.2692638E-2,6.8023894E-4,1.9020159E-2,4.80612E-3,2.2224564E-2,1.4712585E-3,3.4302402E-2,5.5461705E-2,1.1855551E-2,4.303524E-2,5.3664736E-2,6.679733E-2,9.2199534E-2,4.4268508E-2,1.2439893E-1,6.231656E-2],"split_indices":[10,10,10,10,10,10,10,9,9,9,9,122,126,110,10,0,1,114,52,143,9,10,87,28,7,137,9,79,4,127,2,0,0,0,0,0,0,0,0,0,0,0,0,0,0,0,0,0,0,0,0,0,0,0,0,0,0,0,0,0,0],"split_type":[0,0,0,0,0,0,0,0,0,0,0,0,0,0,0,0,0,0,0,0,0,0,0,0,0,0,0,0,0,0,0,0,0,0,0,0,0,0,0,0,0,0,0,0,0,0,0,0,0,0,0,0,0,0,0,0,0,0,0,0,0],"sum_hessian":[2.341E3,1.09E3,1.251E3,3.95E2,6.95E2,6.59E2,5.92E2,1.76E2,2.19E2,2.24E2,4.71E2,2.47E2,4.12E2,3.89E2,2.03E2,1.49E2,2.7E1,1.99E2,2E1,1.65E2,5.9E1,3.2E2,1.51E2,7.5E1,1.72E2,7.4E1,3.38E2,3.6E1,3.53E2,1.54E2,4.9E1,2.4E1,3E0,1.96E2,3E0,5E0,1.5E1,1.62E2,3E0,4.4E1,1.5E1,2.63E2,5.7E1,1.27E2,2.4E1,1.5E1,6E1,1.15E2,5.7E1,5.2E1,2.2E1,3.05E2,3.3E1,9E0,2.7E1,1.15E2,2.38E2,1.48E2,6E0,4.4E1,5E0],"tree_param":{"num_deleted":"0","num_feature":"150","num_nodes":"61","size_leaf_vector":"1"}},{"base_weights":[3.0643577E-2,-5.0286093E0,4.899757E0,-8.407102E0,-2.5940902E0,2.539534E0,7.3892713E0,-1.0528645E1,-7.0262303E0,-3.8956547E0,-1.2845078E0,1.2951517E0,3.5656097E0,6.056039E0,9.619859E0,-1.1797488E-1,-9.6006446E-2,-7.725838E0,-6.268626E0,-4.8164263E0,-3.1622384E0,-2.0988677E0,-4.1701528E-1,-2.1725437E-1,1.5633799E0,1.6212252E0,3.778111E0,5.2717237E0,6.720298E0,8.719455E0,1.1371854E1,-7.857803E-2,-3.254369E-2,-1.4163487E-2,-6.359185E-2,-5.4062877E-2,-4.143056E-2,-2.642841E-2,-3.842124E-2,-3.2311592E-2,-1.7875532E-2,6.7787496E-3,-9.6157845E-3,1.9709013E-2,-5.59667E-3,1.0348096E-2,2.0401718E-2,-1.4837581E-3,2.3390006E-2,4.7737725E-2,3.5017427E-2,2.2803048E-2,5.402336E-2,6.1474904E-2,7.5349905E-2,5.866504E-2,9.071288E-2,1.1653316E-1,6.4106956E-2],"categories":[],"categories_nodes":[],"categories_segments":[],"categories_sizes":[],"default_left":[0,0,0,0,0,0,0,0,0,0,0,0,0,0,0,0,0,0,0,0,0,0,0,0,0,0,0,0,0,0,0,0,0,0,0,0,0,0,0,0,0,0,0,0,0,0,0,0,0,0,0,0,0,0,0,0,0,0,0],"id":6,"left_children":[1,3,5,7,9,11,13,15,17,19,21,23,25,27,29,-1,-1,31,33,35,37,39,41,43,45,47,49,51,53,55,57,-1,-1,-1,-1,-1,-1,-1,-1,-1,-1,-1,-1,-1,-1,-1,-1,-1,-1,-1,-1,-1,-1,-1,-1,-1,-1,-1,-1],"loss_changes":[5.7865438E4,9.452301E3,7.013582E3,1.3363242E3,1.1382012E3,7.814238E2,1.6709785E3,1.0596289E2,1.0652832E2,2.10875E2,2.3624066E2,1.1406195E2,1.3257812E2,1.5457715E2,2.3957422E2,0E0,0E0,6.123828E1,5.481006E1,3.5033936E1,5.629236E1,5.4704468E1,9.846305E1,3.317977E1,5.7561584E1,4.5022293E1,6.583252E1,5.4507324E1,4.330957E1,9.28418E1,2.1234375E1,0E0,0E0,0E0,0E0,0E0,0E0,0E0,0E0,0E0,0E0,0E0,0E0,0E0,0E0,0E0,0E0,0E0,0E0,0E0,0E0,0E0,0E0,0E0,0E0,0E0,0E0,0E0,0E0],"parents":[2147483647,0,0,1,1,2,2,3,3,4,4,5,5,6,6,7,7,8,8,9,9,10,10,11,11,12,12,13,13,14,14,17,17,18,18,19,19,20,20,21,21,22,22,23,23,24,24,25,25,26,26,27,27,28,28,29,29,30,30],"right_children":[2,4,6,8,10,12,14,16,18,20,22,24,26,28,30,-1,-1,32,34,36,38,40,42,44,46,48,50,52,54,56,58,-1,-1,-1,-1,-1,-1,-1,-1,-1,-1,-1,-1,-1,-1,-1,-1,-1,-1,-1,-1,-1,-1,-1,-1,-1,-1,-1,-1],"split_conditions":[1.12E1,5.1E0,1.6E1,9E-1,8.3E0,1.36E1,1.96E1,-1E0,3E0,9.4E0,8.6233336E-1,8.3566666E-1,1.43E1,1.0156E0,2.24E1,-1.1797488E-1,-9.6006446E-2,9E0,9.948E-1,6.2E0,1.0174571E0,1.0008E0,3.3E0,8.2E0,1.25E1,3E0,2.7E0,7.7E0,1.81E1,1.0102E0,3.634816E-1,-7.857803E-2,-3.254369E-2,-1.4163487E-2,-6.359185E-2,-5.4062877E-2,-4.143056E-2,-2.642841E-2,-3.842124E-2,-3.2311592E-2,-1.7875532E-2,6.7787496E-3,-9.6157845E-3,1.9709013E-2,-5.59667E-3,1.0348096E-2,2.0401718E-2,-1.4837581E-3,2.3390006E-2,4.7737725E-2,3.5017427E-2,2.2803048E-2,5.402336E-2,6.1474904E-2,7.5349905E-2,5.866504E-2,9.071288E-2,1.1653316E-1,6.4106956E-2],"split_indices":[8,8,8,8,8,8,8,8,8,10,110,110,87,4,8,0,0,77,43,8,104,4,1,85,8,140,1,76,8,4,132,0,0,0,0,0,0,0,0,0,0,0,0,0,0,0,0,0,0,0,0,0,0,0,0,0,0,0,0],"split_type":[0,0,0,0,0,0,0,0,0,0,0,0,0,0,0,0,0,0,0,0,0,0,0,0,0,0,0,0,0,0,0,0,0,0,0,0,0,0,0,0,0,0,0,0,0,0,0,0,0,0,0,0,0,0,0,0,0,0,0],"sum_hessian":[2.347E3,1.151E3,1.196E3,4.81E2,6.7E2,6.15E2,5.81E2,1.87E2,2.94E2,3.35E2,3.35E2,2.79E2,3.36E2,3.66E2,2.15E2,7.4E1,1.13E2,1.48E2,1.46E2,1.46E2,1.89E2,1.72E2,1.63E2,4.2E1,2.37E2,3.4E1,3.02E2,1.72E2,1.94E2,1.46E2,6.9E1,1.43E2,5E0,3E0,1.43E2,7.4E1,7.2E1,1.1E2,7.9E1,3.5E1,1.37E2,5.4E1,1.09E2,5E0,3.7E1,1.14E2,1.23E2,1E1,2.4E1,6.2E1,2.4E2,8E0,1.64E2,1.19E2,7.5E1,1.8E1,1.28E2,6.4E1,5E0],"tree_param":{"num_deleted":"0","num_feature":"150","num_nodes":"59","size_leaf_vector":"1"}},{"base_weights":[-6.0646567E-2,-5.117254E0,4.96557E0,-8.405353E0,-2.8699732E0,2.730915E0,7.5330863E0,-1.0190445E1,-6.8335924E0,-4.0578933E0,-1.4590831E0,1.1325331E0,3.578014E0,6.131187E0,9.572275E0,-1.15589604E-1,-9.296221E0,-7.6189575E0,-6.1339474E0,-4.9608407E0,-3.2297137E0,-2.4227421E0,-7.844302E-1,2.8304142E-1,1.6519758E0,2.9881854E0,4.1819634E0,5.3291254E0,6.727141E0,8.495548E0,1.0938641E1,-4.6102423E-2,-9.3659796E-2,-7.752476E-2,-3.1110622E-2,-4.5436528E-2,-6.6446945E-2,-5.0244883E-2,-9.26955E-3,-2.8696662E-2,-4.8216574E-2,-3.0643152E-2,-1.6902069E-2,4.9185944E-3,-1.16699785E-2,-3.8651782E-3,1.1063636E-2,2.0159947E-2,5.921458E-3,2.1352444E-2,3.283831E-2,3.0827459E-2,4.6447862E-2,1.9004155E-2,5.4388583E-2,4.662865E-2,6.910958E-2,3.3846468E-2,8.6334266E-2,1.1310416E-1,7.478287E-2],"categories":[],"categories_nodes":[],"categories_segments":[],"categories_sizes":[],"default_left":[0,0,0,0,0,0,0,0,0,0,0,0,0,0,0,0,0,0,0,0,0,0,0,0,0,0,0,0,0,0,0,0,0,0,0,0,0,0,0,0,0,0,0,0,0,0,0,0,0,0,0,0,0,0,0,0,0,0,0,0,0],"id":7,"left_children":[1,3,5,7,9,11,13,15,17,19,21,23,25,27,29,-1,31,33,35,37,39,41,43,45,47,49,51,53,55,57,59,-1,-1,-1,-1,-1,-1,-1,-1,-1,-1,-1,-1,-1,-1,-1,-1,-1,-1,-1,-1,-1,-1,-1,-1,-1,-1,-1,-1,-1,-1],"loss_changes":[5.909129E4,8.538928E3,6.6683438E3,1.2473555E3,1.1499844E3,8.4171924E2,1.4891777E3,1.5724023E2,9.09082E1,2.628369E2,2.038717E2,9.553406E1,1.3212695E2,1.1781445E2,2.2732031E2,0E0,2.0703125E-1,4.4012207E1,8.159131E1,4.0191895E1,9.888281E1,5.5442017E1,9.243574E1,4.6805706E1,5.0628174E1,4.540161E1,8.614819E1,4.273291E1,3.5677734E1,5.9072266E1,3.3180664E1,0E0,0E0,0E0,0E0,0E0,0E0,0E0,0E0,0E0,0E0,0E0,0E0,0E0,0E0,0E0,0E0,0E0,0E0,0E0,0E0,0E0,0E0,0E0,0E0,0E0,0E0,0E0,0E0,0E0,0E0],"parents":[2147483647,0,0,1,1,2,2,3,3,4,4,5,5,6,6,7,7,8,8,9,9,10,10,11,11,12,12,13,13,14,14,16,16,17,17,18,18,19,19,20,20,21,21,22,22,23,23,24,24,25,25,26,26,27,27,28,28,29,29,30,30],"right_children":[2,4,6,8,10,12,14,16,18,20,22,24,26,28,30,-1,32,34,36,38,40,42,44,46,48,50,52,54,56,58,60,-1,-1,-1,-1,-1,-1,-1,-1,-1,-1,-1,-1,-1,-1,-1,-1,-1,-1,-1,-1,-1,-1,-1,-1,-1,-1,-1,-1,-1,-1],"split_conditions":[1.12E1,4.8E0,1.63E1,1.5E0,8.3E0,1.31E1,1.96E1,-8E-1,3E0,6.5E0,3.3933334E0,8.7E-1,1.47E1,1.0156E0,2.18E1,-1.15589604E-1,8.08E-1,3.9633334E-1,1E-1,8.655579E-1,6.8E0,6.8E0,2.9E0,8.8E-1,1.41E1,1.0109E0,1.37E1,7E0,1.1E1,1.6593171E0,7E-2,-4.6102423E-2,-9.3659796E-2,-7.752476E-2,-3.1110622E-2,-4.5436528E-2,-6.6446945E-2,-5.0244883E-2,-9.26955E-3,-2.8696662E-2,-4.8216574E-2,-3.0643152E-2,-1.6902069E-2,4.9185944E-3,-1.16699785E-2,-3.8651782E-3,1.1063636E-2,2.0159947E-2,5.921458E-3,2.1352444E-2,3.283831E-2,3.0827459E-2,4.6447862E-2,1.9004155E-2,5.4388583E-2,4.662865E-2,6.910958E-2,3.3846468E-2,8.6334266E-2,1.1310416E-1,7.478287E-2],"split_indices":[8,8,8,8,8,8,8,8,8,8,118,5,8,4,8,0,102,114,74,113,74,9,1,3,67,4,73,76,73,117,6,0,0,0,0,0,0,0,0,0,0,0,0,0,0,0,0,0,0,0,0,0,0,0,0,0,0,0,0,0,0],"split_type":[0,0,0,0,0,0,0,0,0,0,0,0,0,0,0,0,0,0,0,0,0,0,0,0,0,0,0,0,0,0,0,0,0,0,0,0,0,0,0,0,0,0,0,0,0,0,0,0,0,0,0,0,0,0,0,0,0,0,0,0,0],"sum_hessian":[2.323E3,1.158E3,1.165E3,4.69E2,6.89E2,6.24E2,5.41E2,2.17E2,2.52E2,3.73E2,3.16E2,2.17E2,4.07E2,3.23E2,2.18E2,8.1E1,1.36E2,1.14E2,1.38E2,1.76E2,1.97E2,1.29E2,1.87E2,8.3E1,1.34E2,2.09E2,1.98E2,1.42E2,1.81E2,1.26E2,9.2E1,3E0,1.33E2,1.1E2,4E0,3.6E1,1.02E2,1.73E2,3E0,1.63E2,3.4E1,6.7E1,6.2E1,4.3E1,1.44E2,4.6E1,3.7E1,9.9E1,3.5E1,5.6E1,1.53E2,6.1E1,1.37E2,5E0,1.37E2,1.7E1,1.64E2,4E0,1.22E2,8.1E1,1.1E1],"tree_param":{"num_deleted":"0","num_feature":"150","num_nodes":"61","size_leaf_vector":"1"}},{"base_weights":[-4.706662E-2,-4.964994E0,4.870815E0,-8.40619E0,-2.6165824E0,2.4837108E0,7.320723E0,-1.0208368E1,-6.9882035E0,-3.986474E0,-1.3241512E0,1.3060585E0,3.6015196E0,5.9780326E0,9.4583435E0,-1.14587784E-1,-9.265455E0,-7.8987327E0,-6.2428765E0,-4.9752216E0,-3.3250265E0,-4.9346623E-1,-2.1996813E0,-1.6209735E-1,1.6182191E0,3.996454E0,2.5419078E0,5.016927E0,6.4428115E0,8.68721E0,1.14687696E-1,-5.1988594E-2,-9.395059E-2,-8.1133306E-2,-5.372319E-2,-6.824401E-2,-5.4397967E-2,-1.1723989E-2,-5.0544094E-2,-2.9921424E-2,-4.519534E-2,5.07288E-3,-9.7452905E-3,-2.2842795E-2,1.0627634E-2,6.969093E-3,-1.2424928E-2,1.7381052E-2,-2.573087E-3,1.4027778E-2,4.1150656E-2,1.2719967E-2,3.0567514E-2,3.7000105E-2,5.5423364E-2,5.83026E-2,7.367274E-2,5.6249876E-2,9.008966E-2],"categories":[],"categories_nodes":[],"categories_segments":[],"categories_sizes":[],"default_left":[0,0,0,0,0,0,0,0,0,0,0,0,0,0,0,0,0,0,0,0,0,0,0,0,0,0,0,0,0,0,0,0,0,0,0,0,0,0,0,0,0,0,0,0,0,0,0,0,0,0,0,0,0,0,0,0,0,0,0],"id":8,"left_children":[1,3,5,7,9,11,13,15,17,19,21,23,25,27,29,-1,31,33,35,37,39,41,43,45,47,49,51,53,55,57,-1,-1,-1,-1,-1,-1,-1,-1,-1,-1,-1,-1,-1,-1,-1,-1,-1,-1,-1,-1,-1,-1,-1,-1,-1,-1,-1,-1,-1],"loss_changes":[5.562731E4,9.270451E3,6.706248E3,1.1177891E3,1.206977E3,7.6357715E2,1.5692949E3,1.3109961E2,1.2843555E2,1.9975684E2,2.561057E2,1.3148181E2,1.1431201E2,1.2332422E2,2.3476953E2,0E0,1.3469727E1,1.7413086E1,3.1702148E1,3.290039E1,6.604761E1,8.864197E1,5.0021484E1,4.8251873E1,5.365979E1,6.0125977E1,5.0598633E1,6.0907715E1,8.766992E1,1.0649219E2,0E0,0E0,0E0,0E0,0E0,0E0,0E0,0E0,0E0,0E0,0E0,0E0,0E0,0E0,0E0,0E0,0E0,0E0,0E0,0E0,0E0,0E0,0E0,0E0,0E0,0E0,0E0,0E0,0E0],"parents":[2147483647,0,0,1,1,2,2,3,3,4,4,5,5,6,6,7,7,8,8,9,9,10,10,11,11,12,12,13,13,14,14,16,16,17,17,18,18,19,19,20,20,21,21,22,22,23,23,24,24,25,25,26,26,27,27,28,28,29,29],"right_children":[2,4,6,8,10,12,14,16,18,20,22,24,26,28,30,-1,32,34,36,38,40,42,44,46,48,50,52,54,56,58,-1,-1,-1,-1,-1,-1,-1,-1,-1,-1,-1,-1,-1,-1,-1,-1,-1,-1,-1,-1,-1,-1,-1,-1,-1,-1,-1,-1,-1],"split_conditions":[1.12E1,4.8E0,1.6E1,1.2E0,8E0,1.37E1,1.96E1,-8E-1,2.9E0,6.2E0,3.2614416E-1,8.3566666E-1,1.3E1,1.0141E0,2.33E1,-1.14587784E-1,-3.4E0,6.3E0,3.8E-1,2.8855567E0,4.5220292E-1,9E0,1.9E1,1.2E-1,9.95827E-1,1.16E1,1.6223333E0,2.043E1,1.8E1,1.0102E0,1.14687696E-1,-5.1988594E-2,-9.395059E-2,-8.1133306E-2,-5.372319E-2,-6.824401E-2,-5.4397967E-2,-1.1723989E-2,-5.0544094E-2,-2.9921424E-2,-4.519534E-2,5.07288E-3,-9.7452905E-3,-2.2842795E-2,1.0627634E-2,6.969093E-3,-1.2424928E-2,1.7381052E-2,-2.573087E-3,1.4027778E-2,4.1150656E-2,1.2719967E-2,3.0567514E-2,3.7000105E-2,5.5423364E-2,5.83026E-2,7.367274E-2,5.6249876E-2,9.008966E-2],"split_indices":[8,8,8,8,8,8,8,8,8,8,133,110,2,4,8,0,70,1,46,99,115,2,84,6,132,86,110,130,8,4,0,0,0,0,0,0,0,0,0,0,0,0,0,0,0,0,0,0,0,0,0,0,0,0,0,0,0,0,0],"split_type":[0,0,0,0,0,0,0,0,0,0,0,0,0,0,0,0,0,0,0,0,0,0,0,0,0,0,0,0,0,0,0,0,0,0,0,0,0,0,0,0,0,0,0,0,0,0,0,0,0,0,0,0,0,0,0,0,0,0,0],"sum_hessian":[2.298E3,1.149E3,1.149E3,4.65E2,6.84E2,5.83E2,5.66E2,2.02E2,2.63E2,3.31E2,3.53E2,2.85E2,2.98E2,3.5E2,2.16E2,8.2E1,1.2E2,1.14E2,1.49E2,1.3E2,2.01E2,1.82E2,1.71E2,5E1,2.35E2,2.15E2,8.3E1,1.18E2,2.32E2,1.6E2,5.6E1,5E0,1.15E2,1.03E2,1.1E1,8.2E1,6.7E1,3E0,1.27E2,1.6E2,4.1E1,5.9E1,1.23E2,1.67E2,4E0,2.8E1,2.2E1,2.21E2,1.4E1,1E1,2.05E2,2.5E1,5.8E1,3.6E1,8.2E1,1.44E2,8.8E1,1.7E1,1.43E2],"tree_param":{"num_deleted":"0","num_feature":"150","num_nodes":"59","size_leaf_vector":"1"}},{"base_weights":[5.7619266E-2,-4.8911486E0,4.8015895E0,-8.185392E0,-2.6286778E0,2.4391582E0,7.2636547E0,-1.0203828E1,-6.7470407E0,-3.9313684E0,-1.423618E0,1.3057009E0,3.4700074E0,5.9978065E0,9.401561E0,-1.1448342E-1,-9.267444E0,-7.6003695E0,-6.020203E0,-4.8395796E0,-3.2016804E0,-2.3485024E0,-4.6938995E-1,6.5143085E-1,1.7730151E0,2.3496604E0,3.7816222E0,5.1071434E0,6.625203E0,8.706815E0,1.1450043E1,-9.3887195E-2,-4.677384E-2,-7.75531E-2,-3.888452E-2,-6.690504E-2,-5.214675E-2,-5.5244267E-3,-4.925558E-2,-2.8281434E-2,-4.491887E-2,-2.4406573E-2,7.4482034E-3,6.502505E-3,-9.894729E-3,9.221354E-3,-7.2835046E-3,2.2626298E-2,1.0926792E-2,9.753608E-3,2.9214097E-2,2.9697053E-2,4.224214E-2,4.044793E-2,5.542692E-2,3.2531857E-2,6.722097E-2,7.787561E-2,9.542113E-2,5.7213496E-2,1.1681976E-1],"categories":[],"categories_nodes":[],"categories_segments":[],"categories_sizes":[],"default_left":[0,0,0,0,0,0,0,0,0,0,0,0,0,0,0,0,0,0,0,0,0,0,0,0,0,0,0,0,0,0,0,0,0,0,0,0,0,0,0,0,0,0,0,0,0,0,0,0,0,0,0,0,0,0,0,0,0,0,0,0,0],"id":9,"left_children":[1,3,5,7,9,11,13,15,17,19,21,23,25,27,29,-1,31,33,35,37,39,41,43,45,47,49,51,53,55,57,59,-1,-1,-1,-1,-1,-1,-1,-1,-1,-1,-1,-1,-1,-1,-1,-1,-1,-1,-1,-1,-1,-1,-1,-1,-1,-1,-1,-1,-1,-1],"loss_changes":[5.5546125E4,8.608129E3,7.0075938E3,1.296877E3,1.0739043E3,7.170774E2,1.5414727E3,1.1791016E2,1.25305664E2,2.0239551E2,3.1545154E2,8.910449E1,1.0326611E2,1.7398047E2,2.0854297E2,0E0,1.9251953E1,3.9995605E1,4.7612305E1,5.0178223E1,7.62052E1,5.386914E1,1.0432777E2,4.738015E1,5.448578E1,5.4121033E1,7.693237E1,5.0192383E1,4.7708984E1,5.2189453E1,5.136719E-1,0E0,0E0,0E0,0E0,0E0,0E0,0E0,0E0,0E0,0E0,0E0,0E0,0E0,0E0,0E0,0E0,0E0,0E0,0E0,0E0,0E0,0E0,0E0,0E0,0E0,0E0,0E0,0E0,0E0,0E0],"parents":[2147483647,0,0,1,1,2,2,3,3,4,4,5,5,6,6,7,7,8,8,9,9,10,10,11,11,12,12,13,13,14,14,16,16,17,17,18,18,19,19,20,20,21,21,22,22,23,23,24,24,25,25,26,26,27,27,28,28,29,29,30,30],"right_children":[2,4,6,8,10,12,14,16,18,20,22,24,26,28,30,-1,32,34,36,38,40,42,44,46,48,50,52,54,56,58,60,-1,-1,-1,-1,-1,-1,-1,-1,-1,-1,-1,-1,-1,-1,-1,-1,-1,-1,-1,-1,-1,-1,-1,-1,-1,-1,-1,-1,-1,-1],"split_conditions":[1.12E1,4.8E0,1.6E1,1.2E0,8E0,1.36E1,1.96E1,-8E-1,2.9E0,6.3E0,8.6233336E-1,1.2663333E0,1.3583333E0,1.0156E0,2.33E1,-1.1448342E-1,1.01E0,7.348793E-1,3.8E-1,4.4880795E-1,6.3E0,9.8E0,9E0,1.8E1,1.36E1,1.2366667E1,1.0129E0,1.176E1,1.8E0,9.8E0,6E0,-9.3887195E-2,-4.677384E-2,-7.75531E-2,-3.888452E-2,-6.690504E-2,-5.214675E-2,-5.5244267E-3,-4.925558E-2,-2.8281434E-2,-4.491887E-2,-2.4406573E-2,7.4482034E-3,6.502505E-3,-9.894729E-3,9.221354E-3,-7.2835046E-3,2.2626298E-2,1.0926792E-2,9.753608E-3,2.9214097E-2,2.9697053E-2,4.224214E-2,4.044793E-2,5.542692E-2,3.2531857E-2,6.722097E-2,7.787561E-2,9.542113E-2,5.7213496E-2,1.1681976E-1],"split_indices":[8,8,8,8,8,8,8,8,8,8,110,110,110,4,8,0,54,113,46,117,74,7,2,2,67,122,4,126,23,7,27,0,0,0,0,0,0,0,0,0,0,0,0,0,0,0,0,0,0,0,0,0,0,0,0,0,0,0,0,0,0],"split_type":[0,0,0,0,0,0,0,0,0,0,0,0,0,0,0,0,0,0,0,0,0,0,0,0,0,0,0,0,0,0,0,0,0,0,0,0,0,0,0,0,0,0,0,0,0,0,0,0,0,0,0,0,0,0,0,0,0,0,0,0,0],"sum_hessian":[2.364E3,1.157E3,1.207E3,4.7E2,6.87E2,6.17E2,5.9E2,1.93E2,2.77E2,3.29E2,3.58E2,2.95E2,3.22E2,3.73E2,2.17E2,7.8E1,1.15E2,1.23E2,1.54E2,1.44E2,1.85E2,1.81E2,1.77E2,1.24E2,1.71E2,7.2E1,2.5E2,1.58E2,2.15E2,1.66E2,5.1E1,1.11E2,4E0,1.17E2,6E0,8E1,7.4E1,3E0,1.41E2,1.46E2,3.9E1,1.76E2,5E0,5.6E1,1.21E2,1.04E2,2E1,9.8E1,7.3E1,2.2E1,5E1,9.1E1,1.59E2,4.9E1,1.09E2,7E0,2.08E2,8.4E1,8.2E1,3E0,4.8E1],"tree_param":{"num_deleted":"0","num_feature":"150","num_nodes":"61","size_leaf_vector":"1"}},{"base_weights":[7.1151085E-2,-5.093279E0,4.556184E0,-8.56201E0,-3.0846794E0,2.3298006E0,7.225109E0,-1.0247018E1,-7.1822906E0,-5.1133194E0,-2.1479154E0,1.0436332E0,3.4658945E0,5.9302506E0,9.172292E0,-1.0346888E1,-4.7620766E-2,-7.966466E0,-6.474027E0,-4.1825333E0,-5.6331735E0,-2.7862225E0,-7.439777E-1,3.1025803E-1,1.9665446E0,2.50191E0,4.0774536E0,4.628401E0,6.364379E0,8.522676E0,1.1361039E1,-1.15252055E-1,-9.6720085E-2,-8.20522E-2,-4.1826375E-2,-6.586177E-2,-3.2101166E-2,-5.3122014E-2,-3.581571E-2,-5.7670034E-2,-2.7752453E-2,-2.3533195E-2,-3.576011E-2,-1.1697415E-2,6.1033564E-3,1.1535184E-2,-2.035988E-3,4.252974E-3,2.2941815E-2,2.8769294E-2,1.3572078E-2,4.974542E-2,3.5812095E-2,2.0777043E-2,5.03605E-2,5.472609E-2,6.9695145E-2,5.663933E-2,8.91475E-2,9.2875704E-2,1.2893127E-1],"categories":[],"categories_nodes":[],"categories_segments":[],"categories_sizes":[],"default_left":[0,0,0,0,0,0,0,0,0,0,0,0,0,0,0,0,0,0,0,0,0,0,0,0,0,0,0,0,0,0,0,0,0,0,0,0,0,0,0,0,0,0,0,0,0,0,0,0,0,0,0,0,0,0,0,0,0,0,0,0,0],"id":10,"left_children":[1,3,5,7,9,11,13,15,17,19,21,23,25,27,29,31,-1,33,35,37,39,41,43,45,47,49,51,53,55,57,59,-1,-1,-1,-1,-1,-1,-1,-1,-1,-1,-1,-1,-1,-1,-1,-1,-1,-1,-1,-1,-1,-1,-1,-1,-1,-1,-1,-1,-1,-1],"loss_changes":[5.3621492E4,7.4692266E3,7.344412E3,8.4064453E2,1.2862339E3,9.851687E2,1.3636035E3,4.5078125E1,6.9168945E1,7.9489746E1,4.1786548E2,2.1507425E2,2.0078271E2,1.6216699E2,2.1825781E2,2.2390625E1,0E0,5.4782715E1,2.2169922E1,3.5074585E1,3.4774902E1,1.01083984E2,8.610927E1,7.7893265E1,6.9953E1,5.6630554E1,7.837744E1,8.136658E1,9.7143555E1,1.453164E2,3.0519531E1,0E0,0E0,0E0,0E0,0E0,0E0,0E0,0E0,0E0,0E0,0E0,0E0,0E0,0E0,0E0,0E0,0E0,0E0,0E0,0E0,0E0,0E0,0E0,0E0,0E0,0E0,0E0,0E0,0E0,0E0],"parents":[2147483647,0,0,1,1,2,2,3,3,4,4,5,5,6,6,7,7,8,8,9,9,10,10,11,11,12,12,13,13,14,14,15,15,17,17,18,18,19,19,20,20,21,21,22,22,23,23,24,24,25,25,26,26,27,27,28,28,29,29,30,30],"right_children":[2,4,6,8,10,12,14,16,18,20,22,24,26,28,30,32,-1,34,36,38,40,42,44,46,48,50,52,54,56,58,60,-1,-1,-1,-1,-1,-1,-1,-1,-1,-1,-1,-1,-1,-1,-1,-1,-1,-1,-1,-1,-1,-1,-1,-1,-1,-1,-1,-1,-1,-1],"split_conditions":[1.44E1,6.9E0,2.1E1,3.7E0,9.4E0,1.75E1,2.52E1,7.4E0,-1E-1,2.0548432E0,6.8E0,9.1E0,1.0171429E1,9.6E0,2.99E1,-4.1E0,-4.7620766E-2,3.37E-1,1.11E0,4.6E0,6.457143E0,1.0203E0,1.0356667E0,-2.8726098E-1,1.1342857E1,3.9770115E-2,2.3023353E0,1.3583333E0,1.0154E0,1.0107E0,1.0164E0,-1.15252055E-1,-9.6720085E-2,-8.20522E-2,-4.1826375E-2,-6.586177E-2,-3.2101166E-2,-5.3122014E-2,-3.581571E-2,-5.7670034E-2,-2.7752453E-2,-2.3533195E-2,-3.576011E-2,-1.1697415E-2,6.1033564E-3,1.1535184E-2,-2.035988E-3,4.252974E-3,2.2941815E-2,2.8769294E-2,1.3572078E-2,4.974542E-2,3.5812095E-2,2.0777043E-2,5.03605E-2,5.472609E-2,6.9695145E-2,5.663933E-2,8.91475E-2,9.2875704E-2,1.2893127E-1],"split_indices":[10,10,10,10,10,10,10,1,9,117,9,9,124,78,10,9,0,114,48,69,124,40,110,133,120,133,127,110,4,4,4,0,0,0,0,0,0,0,0,0,0,0,0,0,0,0,0,0,0,0,0,0,0,0,0,0,0,0,0,0,0],"split_type":[0,0,0,0,0,0,0,0,0,0,0,0,0,0,0,0,0,0,0,0,0,0,0,0,0,0,0,0,0,0,0,0,0,0,0,0,0,0,0,0,0,0,0,0,0,0,0,0,0,0,0,0,0,0,0,0,0,0,0,0,0],"sum_hessian":[2.313E3,1.075E3,1.238E3,3.93E2,6.82E2,6.76E2,5.62E2,1.74E2,2.19E2,2.14E2,4.68E2,3.18E2,3.58E2,3.4E2,2.22E2,1.7E2,4E0,9.9E1,1.2E2,8E1,1.34E2,3.21E2,1.47E2,1.78E2,1.4E2,1.41E2,2.17E2,8.8E1,2.52E2,1.75E2,4.7E1,5.6E1,1.14E2,9.2E1,7E0,1.15E2,5E0,2.5E1,5.5E1,1.27E2,7E0,2.1E2,1.11E2,1.12E2,3.5E1,6.7E1,1.11E2,2.5E1,1.15E2,1.05E2,3.6E1,7.4E1,1.43E2,1.3E1,7.5E1,1.06E2,1.46E2,2.3E1,1.52E2,2.3E1,2.4E1],"tree_param":{"num_deleted":"0","num_feature":"150","num_nodes":"61","size_leaf_vector":"1"}},{"base_weights":[-4.5998096E-3,-4.820031E0,4.3085794E0,-7.7000484E0,-2.7405767E0,2.7300735E0,7.092001E0,-9.727501E0,-6.505245E0,-3.5527084E0,-5.385507E-1,5.913746E-1,3.6659553E0,5.971355E0,9.748893E0,-1.0046206E1,-5.451478E0,-6.954981E0,-2.7208292E0,-4.3487325E0,-2.0905414E0,-1.0875875E0,1.7673839E0,-6.350967E-1,1.6020548E0,2.9329972E0,5.770543E0,5.2500863E0,7.298638E0,8.597998E0,1.0889437E1,-1.1010726E-1,-9.0984866E-2,-1.9137176E-2,-6.2332567E-2,-7.33376E-2,-5.149012E-2,1.4730812E-2,-3.5259232E-2,-5.4828823E-2,-3.4576543E-2,-2.373625E-2,1.18578095E-2,-2.7615992E-2,-8.215084E-3,-5.240933E-3,2.3845851E-2,6.1181686E-3,-1.4771576E-2,2.3158763E-2,-0E0,1.2492799E-2,3.5458624E-2,2.1004608E-2,6.46725E-2,3.8092367E-2,5.7268385E-2,3.0015362E-2,7.390994E-2,8.800538E-2,4.1848663E-2,5.721326E-2,1.11454904E-1],"categories":[],"categories_nodes":[],"categories_segments":[],"categories_sizes":[],"default_left":[0,0,0,0,0,0,0,0,0,0,0,0,0,0,0,0,0,0,0,0,0,0,0,0,0,0,0,0,0,0,0,0,0,0,0,0,0,0,0,0,0,0,0,0,0,0,0,0,0,0,0,0,0,0,0,0,0,0,0,0,0,0,0],"id":11,"left_children":[1,3,5,7,9,11,13,15,17,19,21,23,25,27,29,31,33,35,37,39,41,43,45,47,49,51,53,55,57,59,61,-1,-1,-1,-1,-1,-1,-1,-1,-1,-1,-1,-1,-1,-1,-1,-1,-1,-1,-1,-1,-1,-1,-1,-1,-1,-1,-1,-1,-1,-1,-1,-1],"loss_changes":[4.870527E4,6.6135137E3,5.4145977E3,1.0590938E3,1.1511538E3,1.5806484E3,1.271127E3,1.753584E2,4.821953E2,5.384717E2,2.2341171E2,3.010902E2,8.306216E2,2.638994E2,7.637988E1,4.1320312E1,2.597702E1,1.4089844E2,1.1682352E2,2.87375E2,1.587489E2,6.0622574E1,4.9522095E1,1.1648776E2,1.520669E2,4.181665E2,3.460918E2,1.2079883E2,2.0035156E1,2.4440918E1,1.6591797E1,0E0,0E0,0E0,0E0,0E0,0E0,0E0,0E0,0E0,0E0,0E0,0E0,0E0,0E0,0E0,0E0,0E0,0E0,0E0,0E0,0E0,0E0,0E0,0E0,0E0,0E0,0E0,0E0,0E0,0E0,0E0,0E0],"parents":[2147483647,0,0,1,1,2,2,3,3,4,4,5,5,6,6,7,7,8,8,9,9,10,10,11,11,12,12,13,13,14,14,15,15,16,16,17,17,18,18,19,19,20,20,21,21,22,22,23,23,24,24,25,25,26,26,27,27,28,28,29,29,30,30],"right_children":[2,4,6,8,10,12,14,16,18,20,22,24,26,28,30,32,34,36,38,40,42,44,46,48,50,52,54,56,58,60,62,-1,-1,-1,-1,-1,-1,-1,-1,-1,-1,-1,-1,-1,-1,-1,-1,-1,-1,-1,-1,-1,-1,-1,-1,-1,-1,-1,-1,-1,-1,-1,-1],"split_conditions":[1.44E1,1.5E0,1.27E1,-2.1E0,6.7E0,1.3666667E0,8.9E0,5.8966666E-1,1.58E0,6.8866664E-1,1.2426667E0,7.8E0,9.9E0,1.52E1,1.55E1,-4.1E0,2.5678292E-1,1.07E1,1.08666666E-1,3.7E0,1.6433333E0,7.1E0,5.6E0,1E1,2.2187512E0,8.7E0,6.3E0,1.02E0,1.96E1,1.1857142E1,1.5356667E1,-1.1010726E-1,-9.0984866E-2,-1.9137176E-2,-6.2332567E-2,-7.33376E-2,-5.149012E-2,1.4730812E-2,-3.5259232E-2,-5.4828823E-2,-3.4576543E-2,-2.373625E-2,1.18578095E-2,-2.7615992E-2,-8.215084E-3,-5.240933E-3,2.3845851E-2,6.1181686E-3,-1.4771576E-2,2.3158763E-2,-0E0,1.2492799E-2,3.5458624E-2,2.1004608E-2,6.46725E-2,3.8092367E-2,5.7268385E-2,3.0015362E-2,7.390994E-2,8.800538E-2,4.1848663E-2,5.721326E-2,1.11454904E-1],"split_indices":[81,9,9,9,9,110,7,110,5,110,110,9,7,9,9,9,115,84,114,9,110,82,80,25,121,9,9,5,81,96,122,0,0,0,0,0,0,0,0,0,0,0,0,0,0,0,0,0,0,0,0,0,0,0,0,0,0,0,0,0,0,0,0],"split_type":[0,0,0,0,0,0,0,0,0,0,0,0,0,0,0,0,0,0,0,0,0,0,0,0,0,0,0,0,0,0,0,0,0,0,0,0,0,0,0,0,0,0,0,0,0,0,0,0,0,0,0,0,0,0,0,0,0,0,0,0,0,0,0],"sum_hessian":[2.343E3,1.107E3,1.236E3,4.63E2,6.44E2,7.9E2,4.46E2,1.69E2,2.94E2,4.7E2,1.74E2,2.41E2,5.49E2,3.16E2,1.3E2,1.56E2,1.3E1,2.62E2,3.2E1,3.03E2,1.67E2,1.41E2,3.3E1,1.09E2,1.32E2,4.09E2,1.4E2,2.08E2,1.08E2,6.9E1,6.1E1,7.2E1,8.4E1,3E0,1E1,2.14E2,4.8E1,5E0,2.7E1,1.31E2,1.72E2,1.54E2,1.3E1,1.8E1,1.23E2,7E0,2.6E1,4.4E1,6.5E1,9.1E1,4.1E1,1.1E2,2.99E2,2.3E1,1.17E2,5.4E1,1.54E2,3E0,1.05E2,6.5E1,4E0,4E0,5.7E1],"tree_param":{"num_deleted":"0","num_feature":"150","num_nodes":"63","size_leaf_vector":"1"}},{"base_weights":[-3.6700048E-2,-4.8788786E0,4.558252E0,-7.9368463E0,-2.6943545E0,2.2810416E0,7.009537E0,-9.980785E0,-6.64236E0,-4.3307967E0,-1.7675217E0,1.1976674E0,3.4137654E0,5.8364387E0,8.946184E0,-1.1501571E-1,-9.188153E-2,-7.296935E0,-5.888901E0,-4.881031E0,-3.4443254E0,-2.5098097E0,-7.025243E-1,5.7025605E-1,1.9180529E0,2.263127E0,3.8229482E0,4.890976E0,6.3160653E0,8.238913E0,1.1172067E1,-7.4275926E-2,-2.8630003E-2,-6.568709E-2,-4.915135E-2,-5.134919E-2,-3.5775602E-2,-2.7262365E-2,-4.5945853E-2,-1.646267E-2,-2.9209062E-2,-1.1786223E-2,3.1035803E-3,-5.113356E-3,9.818252E-3,2.0312838E-2,-1.0836293E-2,4.043145E-3,2.6384072E-2,4.1006617E-2,2.6372595E-2,2.0281276E-2,5.0414953E-2,5.772533E-2,7.102979E-2,3.1085769E-2,8.37745E-2,6.0899436E-2,1.16089E-1],"categories":[],"categories_nodes":[],"categories_segments":[],"categories_sizes":[],"default_left":[0,0,0,0,0,0,0,0,0,0,0,0,0,0,0,0,0,0,0,0,0,0,0,0,0,0,0,0,0,0,0,0,0,0,0,0,0,0,0,0,0,0,0,0,0,0,0,0,0,0,0,0,0,0,0,0,0,0,0],"id":12,"left_children":[1,3,5,7,9,11,13,15,17,19,21,23,25,27,29,-1,-1,31,33,35,37,39,41,43,45,47,49,51,53,55,57,-1,-1,-1,-1,-1,-1,-1,-1,-1,-1,-1,-1,-1,-1,-1,-1,-1,-1,-1,-1,-1,-1,-1,-1,-1,-1,-1,-1],"loss_changes":[5.1819285E4,7.5529023E3,6.6536797E3,1.1808828E3,9.97313E2,7.575193E2,1.2526367E3,1.1043359E2,9.972266E1,9.893164E1,3.3389307E2,1.4283841E2,1.3339868E2,1.3169043E2,2.4449023E2,0E0,0E0,6.576367E1,5.990381E1,2.874414E1,6.521094E1,8.348462E1,8.532535E1,7.711485E1,5.2598694E1,5.58302E1,6.161255E1,4.336377E1,5.865039E1,9.150391E1,3.6314453E1,0E0,0E0,0E0,0E0,0E0,0E0,0E0,0E0,0E0,0E0,0E0,0E0,0E0,0E0,0E0,0E0,0E0,0E0,0E0,0E0,0E0,0E0,0E0,0E0,0E0,0E0,0E0,0E0],"parents":[2147483647,0,0,1,1,2,2,3,3,4,4,5,5,6,6,7,7,8,8,9,9,10,10,11,11,12,12,13,13,14,14,17,17,18,18,19,19,20,20,21,21,22,22,23,23,24,24,25,25,26,26,27,27,28,28,29,29,30,30],"right_children":[2,4,6,8,10,12,14,16,18,20,22,24,26,28,30,-1,-1,32,34,36,38,40,42,44,46,48,50,52,54,56,58,-1,-1,-1,-1,-1,-1,-1,-1,-1,-1,-1,-1,-1,-1,-1,-1,-1,-1,-1,-1,-1,-1,-1,-1,-1,-1,-1,-1],"split_conditions":[1.1E1,4.8E0,1.6E1,3.7E0,7.3E0,1.37E1,1.96E1,9E-1,3E0,6.3E0,9.4E0,1.25E1,1.0109E0,1.0141E0,2.33E1,-1.1501571E-1,-9.188153E-2,9E0,3.8E-1,6.9E0,1.1E1,8.08E-1,1.55E1,9.6E0,7.93844E-1,1.48E1,1.3E1,1.21E1,1.81E1,1.6E0,1.91E1,-7.4275926E-2,-2.8630003E-2,-6.568709E-2,-4.915135E-2,-5.134919E-2,-3.5775602E-2,-2.7262365E-2,-4.5945853E-2,-1.646267E-2,-2.9209062E-2,-1.1786223E-2,3.1035803E-3,-5.113356E-3,9.818252E-3,2.0312838E-2,-1.0836293E-2,4.043145E-3,2.6384072E-2,4.1006617E-2,2.6372595E-2,2.0281276E-2,5.0414953E-2,5.772533E-2,7.102979E-2,3.1085769E-2,8.37745E-2,6.0899436E-2,1.16089E-1],"split_indices":[8,8,8,10,8,8,8,10,8,8,8,8,4,4,8,0,0,77,46,63,81,102,86,71,133,87,2,70,8,24,85,0,0,0,0,0,0,0,0,0,0,0,0,0,0,0,0,0,0,0,0,0,0,0,0,0,0,0,0],"split_type":[0,0,0,0,0,0,0,0,0,0,0,0,0,0,0,0,0,0,0,0,0,0,0,0,0,0,0,0,0,0,0,0,0,0,0,0,0,0,0,0,0,0,0,0,0,0,0,0,0,0,0,0,0,0,0,0,0,0,0],"sum_hessian":[2.327E3,1.133E3,1.194E3,4.71E2,6.62E2,6.2E2,5.74E2,1.8E2,2.91E2,2.38E2,4.24E2,3.18E2,3.02E2,3.6E2,2.14E2,5.7E1,1.23E2,1.51E2,1.4E2,1.44E2,9.4E1,2.49E2,1.75E2,1.71E2,1.47E2,8.1E1,2.21E2,1.25E2,2.35E2,1.66E2,4.8E1,1.46E2,5E0,7.9E1,6.1E1,1.18E2,2.6E1,6E1,3.4E1,8.2E1,1.67E2,1.19E2,5.6E1,4.7E1,1.24E2,1.42E2,5E0,1.4E1,6.7E1,1.77E2,4.4E1,7E0,1.18E2,1.44E2,9.1E1,5E0,1.61E2,5E0,4.3E1],"tree_param":{"num_deleted":"0","num_feature":"150","num_nodes":"59","size_leaf_vector":"1"}},{"base_weights":[-3.9561264E-2,-4.70569E0,4.6505675E0,-7.9787884E0,-2.5584438E0,2.5270693E0,7.168282E0,-9.855516E0,-6.526423E0,-3.796124E0,-1.3846893E0,1.2705986E0,3.5008664E0,6.067904E0,9.733937E0,-1.1788791E-1,-9.217542E0,-7.2609873E0,-5.758854E0,-4.6991143E0,-3.0301843E0,-2.2432125E0,-6.6469157E-1,6.623064E-1,1.891087E0,2.7087605E0,3.886739E0,5.329588E0,6.863141E0,8.856818E-2,1.12573355E-1,-4.525728E-2,-9.279711E-2,-7.3767334E-2,-3.603476E-2,-2.9424643E-2,-5.937294E-2,-4.458242E-3,-4.7789443E-2,-2.3942169E-2,-3.571253E-2,-1.2264854E-2,-2.9179016E-2,-1.9246555E-3,-1.7616777E-2,9.094155E-3,-9.800008E-3,2.0435791E-2,-8.107945E-3,3.1144347E-2,1.11845955E-2,3.1314302E-2,4.31114E-2,5.4435704E-2,1.4112614E-2,5.590286E-2,7.390327E-2],"categories":[],"categories_nodes":[],"categories_segments":[],"categories_sizes":[],"default_left":[0,0,0,0,0,0,0,0,0,0,0,0,0,0,0,0,0,0,0,0,0,0,0,0,0,0,0,0,0,0,0,0,0,0,0,0,0,0,0,0,0,0,0,0,0,0,0,0,0,0,0,0,0,0,0,0,0],"id":13,"left_children":[1,3,5,7,9,11,13,15,17,19,21,23,25,27,29,-1,31,33,35,37,39,41,43,45,47,49,51,53,55,-1,-1,-1,-1,-1,-1,-1,-1,-1,-1,-1,-1,-1,-1,-1,-1,-1,-1,-1,-1,-1,-1,-1,-1,-1,-1,-1,-1],"loss_changes":[5.1079E4,8.201463E3,6.204082E3,1.1960371E3,1.02276025E3,7.6958057E2,1.441293E3,1.3591211E2,1.05734375E2,2.2291113E2,2.238374E2,1.0341995E2,9.762451E1,1.823789E2,1.094043E2,0E0,1.8330078E0,2.7778809E1,4.8984375E1,5.031543E1,5.5888306E1,1.0987866E2,1.03070625E2,5.85119E1,5.822635E1,7.351074E1,6.172705E1,8.0510254E1,7.616113E1,0E0,0E0,0E0,0E0,0E0,0E0,0E0,0E0,0E0,0E0,0E0,0E0,0E0,0E0,0E0,0E0,0E0,0E0,0E0,0E0,0E0,0E0,0E0,0E0,0E0,0E0,0E0,0E0],"parents":[2147483647,0,0,1,1,2,2,3,3,4,4,5,5,6,6,7,7,8,8,9,9,10,10,11,11,12,12,13,13,14,14,16,16,17,17,18,18,19,19,20,20,21,21,22,22,23,23,24,24,25,25,26,26,27,27,28,28],"right_children":[2,4,6,8,10,12,14,16,18,20,22,24,26,28,30,-1,32,34,36,38,40,42,44,46,48,50,52,54,56,-1,-1,-1,-1,-1,-1,-1,-1,-1,-1,-1,-1,-1,-1,-1,-1,-1,-1,-1,-1,-1,-1,-1,-1,-1,-1,-1,-1],"split_conditions":[1.12E1,4.8E0,1.63E1,1.2E0,8E0,1.36E1,2.05E1,-2.1E0,3E0,6.3E0,9.4E0,1.24E1,9.793333E0,1.81E1,2.33E1,-1.1788791E-1,1E0,9E0,-1.5E0,4.4880795E-1,7E0,8.09E-1,4.321159E0,1.8E1,1.9E1,1.4E1,1.1E0,4.7697754E0,1.0148E0,8.856818E-2,1.12573355E-1,-4.525728E-2,-9.279711E-2,-7.3767334E-2,-3.603476E-2,-2.9424643E-2,-5.937294E-2,-4.458242E-3,-4.7789443E-2,-2.3942169E-2,-3.571253E-2,-1.2264854E-2,-2.9179016E-2,-1.9246555E-3,-1.7616777E-2,9.094155E-3,-9.800008E-3,2.0435791E-2,-8.107945E-3,3.1144347E-2,1.11845955E-2,3.1314302E-2,4.31114E-2,5.4435704E-2,1.4112614E-2,5.590286E-2,7.390327E-2],"split_indices":[8,8,8,8,8,8,8,8,8,8,8,8,126,8,8,0,16,77,9,117,11,102,99,2,136,2,5,123,4,0,0,0,0,0,0,0,0,0,0,0,0,0,0,0,0,0,0,0,0,0,0,0,0,0,0,0,0],"split_type":[0,0,0,0,0,0,0,0,0,0,0,0,0,0,0,0,0,0,0,0,0,0,0,0,0,0,0,0,0,0,0,0,0,0,0,0,0,0,0,0,0,0,0,0,0,0,0,0,0,0,0,0,0,0,0,0,0],"sum_hessian":[2.332E3,1.169E3,1.163E3,4.62E2,7.07E2,6.32E2,5.31E2,1.99E2,2.63E2,3.43E2,3.64E2,2.77E2,3.55E2,3.74E2,1.57E2,4.5E1,1.54E2,1.3E2,1.33E2,1.55E2,1.88E2,1.65E2,1.99E2,1.41E2,1.36E2,1.19E2,2.36E2,1.98E2,1.76E2,1.04E2,5.3E1,3E0,1.51E2,1.25E2,5E0,9E0,1.24E2,3E0,1.52E2,8.9E1,9.9E1,6.7E1,9.8E1,1.4E2,5.9E1,1.23E2,1.8E1,1.29E2,7E0,9.4E1,2.5E1,8.8E1,1.48E2,1.92E2,6E0,5.5E1,1.21E2],"tree_param":{"num_deleted":"0","num_feature":"150","num_nodes":"57","size_leaf_vector":"1"}},{"base_weights":[5.7257023E-3,-4.650903E0,4.571361E0,-7.6255584E0,-2.4329553E0,3.088529E0,7.991689E0,-9.559497E0,-6.3449244E0,-3.7831578E0,-1.3032761E0,1.3521833E0,4.057732E0,7.121497E0,1.0200035E1,-1.0900845E-1,-8.659338E0,-7.124397E0,-5.659234E0,-4.6741457E0,-3.3024797E0,-2.1236362E0,-4.041305E-1,7.6787806E-1,1.9075236E0,3.339594E0,5.0365133E0,5.045811E0,7.413584E0,1.0398963E1,5.399975E-2,-4.2554285E-2,-8.734391E-2,-7.1961574E-2,-2.9322587E-2,-1.190888E-2,-5.7628743E-2,-1.4084493E-2,-4.8253704E-2,-2.974305E-2,-4.3572485E-2,-2.6631232E-2,-1.4864245E-2,4.354764E-3,-8.50726E-3,1.9777832E-3,1.6528096E-2,-9.2147235E-3,2.0729322E-2,2.2118859E-2,3.68152E-2,4.5607686E-2,5.9759624E-2,5.4597467E-2,1.4502474E-2,7.6382816E-2,5.4047983E-2,1.05406046E-1,4.5872763E-2],"categories":[],"categories_nodes":[],"categories_segments":[],"categories_sizes":[],"default_left":[0,0,0,0,0,0,0,0,0,0,0,0,0,0,0,0,0,0,0,0,0,0,0,0,0,0,0,0,0,0,0,0,0,0,0,0,0,0,0,0,0,0,0,0,0,0,0,0,0,0,0,0,0,0,0,0,0,0,0],"id":14,"left_children":[1,3,5,7,9,11,13,15,17,19,21,23,25,27,29,-1,31,33,35,37,39,41,43,45,47,49,51,53,55,57,-1,-1,-1,-1,-1,-1,-1,-1,-1,-1,-1,-1,-1,-1,-1,-1,-1,-1,-1,-1,-1,-1,-1,-1,-1,-1,-1,-1,-1],"loss_changes":[4.9515625E4,7.5875137E3,5.938615E3,1.1562793E3,1.0043064E3,1.377292E3,6.078262E2,1.3789062E2,1.18211914E2,1.12677734E2,2.6590863E2,9.431622E1,3.527705E2,1.17768555E2,3.5842773E1,0E0,1.5263672E0,1.8798828E1,6.839111E1,4.3447266E1,5.5190674E1,6.059857E1,6.565585E1,7.314494E1,7.2684326E1,1.09644775E2,7.0464355E1,4.3482666E1,5.8518555E1,2.669043E1,0E0,0E0,0E0,0E0,0E0,0E0,0E0,0E0,0E0,0E0,0E0,0E0,0E0,0E0,0E0,0E0,0E0,0E0,0E0,0E0,0E0,0E0,0E0,0E0,0E0,0E0,0E0,0E0,0E0],"parents":[2147483647,0,0,1,1,2,2,3,3,4,4,5,5,6,6,7,7,8,8,9,9,10,10,11,11,12,12,13,13,14,14,16,16,17,17,18,18,19,19,20,20,21,21,22,22,23,23,24,24,25,25,26,26,27,27,28,28,29,29],"right_children":[2,4,6,8,10,12,14,16,18,20,22,24,26,28,30,-1,32,34,36,38,40,42,44,46,48,50,52,54,56,58,-1,-1,-1,-1,-1,-1,-1,-1,-1,-1,-1,-1,-1,-1,-1,-1,-1,-1,-1,-1,-1,-1,-1,-1,-1,-1,-1,-1,-1],"split_conditions":[1.12E1,5.1E0,1.81E1,1.2E0,8E0,1.37E1,2.18E1,-8E-1,3E0,6.2E0,8.6233336E-1,1.25E1,1.6E1,1.0099E0,8.3E-1,-1.0900845E-1,9.959E-1,9E0,9.948E-1,1.0899978E0,6.3E0,9.4E0,3.3E0,1.29E1,4.69E-1,8.2E0,1.019E0,-2.4998097E-1,3.5867481E0,4.151477E0,5.399975E-2,-4.2554285E-2,-8.734391E-2,-7.1961574E-2,-2.9322587E-2,-1.190888E-2,-5.7628743E-2,-1.4084493E-2,-4.8253704E-2,-2.974305E-2,-4.3572485E-2,-2.6631232E-2,-1.4864245E-2,4.354764E-3,-8.50726E-3,1.9777832E-3,1.6528096E-2,-9.2147235E-3,2.0729322E-2,2.2118859E-2,3.68152E-2,4.5607686E-2,5.9759624E-2,5.4597467E-2,1.4502474E-2,7.6382816E-2,5.4047983E-2,1.05406046E-1,4.5872763E-2],"split_indices":[8,8,8,8,8,8,8,8,8,8,110,8,8,4,56,0,42,77,43,125,74,8,1,73,110,77,4,133,121,121,0,0,0,0,0,0,0,0,0,0,0,0,0,0,0,0,0,0,0,0,0,0,0,0,0,0,0,0,0],"split_type":[0,0,0,0,0,0,0,0,0,0,0,0,0,0,0,0,0,0,0,0,0,0,0,0,0,0,0,0,0,0,0,0,0,0,0,0,0,0,0,0,0,0,0,0,0,0,0,0,0,0,0,0,0,0,0,0,0,0,0],"sum_hessian":[2.327E3,1.152E3,1.175E3,4.91E2,6.61E2,8.21E2,3.54E2,1.93E2,2.98E2,3E2,3.61E2,2.95E2,5.26E2,2.57E2,9.7E1,7.3E1,1.2E2,1.35E2,1.63E2,1.02E2,1.98E2,1.88E2,1.73E2,1.45E2,1.5E2,3.06E2,2.2E2,3.4E1,2.23E2,9.2E1,5E0,3E0,1.17E2,1.32E2,3E0,4E0,1.59E2,5E0,9.7E1,1.54E2,4.4E1,1E2,8.8E1,6E1,1.13E2,8.9E1,5.6E1,8E0,1.42E2,7.3E1,2.33E2,1.5E2,7E1,3E1,4E0,1.98E2,2.5E1,8.9E1,3E0],"tree_param":{"num_deleted":"0","num_feature":"150","num_nodes":"59","size_leaf_vector":"1"}},{"base_weights":[4.571401E-2,-4.6087837E0,4.5264053E0,-7.827267E0,-2.4562135E0,2.399138E0,6.975778E0,-9.505945E0,-6.2769675E0,-3.717192E0,-1.3078526E0,1.1279917E0,3.41981E0,5.9584856E0,9.35602E0,-1.0964307E-1,-8.635231E0,-6.9250674E0,-5.3681345E0,-4.6719017E0,-2.992234E0,-2.1837335E0,-6.7249393E-1,5.760089E-1,1.745446E0,3.7693393E0,2.481537E0,5.4179397E0,6.9226265E0,8.264566E0,1.0481025E-1,-3.7192278E-2,-8.715003E-2,-2.4643932E-2,-7.006403E-2,-5.518584E-2,-1.2655204E-2,-1.8437898E-2,-4.7857266E-2,-2.8521491E-2,-5.75761E-2,-3.0426187E-2,-1.3061E-2,1.5856293E-3,-1.1395672E-2,-5.089255E-3,9.996435E-3,-1.1800499E-2,1.9181326E-2,2.1752045E-2,3.9341558E-2,1.02966465E-2,2.7940877E-2,4.158237E-2,5.73204E-2,5.6449752E-2,7.457344E-2,3.882111E-2,8.4832266E-2],"categories":[],"categories_nodes":[],"categories_segments":[],"categories_sizes":[],"default_left":[0,0,0,0,0,0,0,0,0,0,0,0,0,0,0,0,0,0,0,0,0,0,0,0,0,0,0,0,0,0,0,0,0,0,0,0,0,0,0,0,0,0,0,0,0,0,0,0,0,0,0,0,0,0,0,0,0,0,0],"id":15,"left_children":[1,3,5,7,9,11,13,15,17,19,21,23,25,27,29,-1,31,33,35,37,39,41,43,45,47,49,51,53,55,57,-1,-1,-1,-1,-1,-1,-1,-1,-1,-1,-1,-1,-1,-1,-1,-1,-1,-1,-1,-1,-1,-1,-1,-1,-1,-1,-1,-1,-1],"loss_changes":[4.821761E4,7.8361113E3,6.12026E3,1.1202676E3,9.8076416E2,8.1565894E2,1.2672285E3,1.7764062E2,1.0237012E2,2.0950293E2,1.9747223E2,9.52157E1,1.04805176E2,1.6242871E2,1.1042383E2,0E0,2.1246094E1,3.1128906E1,5.6530273E1,3.4936523E1,5.5158813E1,1.0865906E2,8.140519E1,6.995979E1,6.952817E1,5.7304443E1,4.1211487E1,7.4885254E1,4.8822754E1,4.9199707E1,0E0,0E0,0E0,0E0,0E0,0E0,0E0,0E0,0E0,0E0,0E0,0E0,0E0,0E0,0E0,0E0,0E0,0E0,0E0,0E0,0E0,0E0,0E0,0E0,0E0,0E0,0E0,0E0,0E0],"parents":[2147483647,0,0,1,1,2,2,3,3,4,4,5,5,6,6,7,7,8,8,9,9,10,10,11,11,12,12,13,13,14,14,16,16,17,17,18,18,19,19,20,20,21,21,22,22,23,23,24,24,25,25,26,26,27,27,28,28,29,29],"right_children":[2,4,6,8,10,12,14,16,18,20,22,24,26,28,30,-1,32,34,36,38,40,42,44,46,48,50,52,54,56,58,-1,-1,-1,-1,-1,-1,-1,-1,-1,-1,-1,-1,-1,-1,-1,-1,-1,-1,-1,-1,-1,-1,-1,-1,-1,-1,-1,-1,-1],"split_conditions":[1.12E1,4.8E0,1.63E1,1.5E0,8E0,1.36E1,2.05E1,-1E0,4.157143E-1,6.3E0,5.5E-1,1.25E1,1.3E1,1.86E1,1.11E1,-1.0964307E-1,9.937E-1,1.7454045E-1,5.989743E-1,1.0899978E0,8.5E-1,6.8E0,6.794315E-3,5.5E0,2.6533455E-1,1.48E1,1.6226667E1,1.0113E0,1.0146E0,6E0,1.0481025E-1,-3.7192278E-2,-8.715003E-2,-2.4643932E-2,-7.006403E-2,-5.518584E-2,-1.2655204E-2,-1.8437898E-2,-4.7857266E-2,-2.8521491E-2,-5.75761E-2,-3.0426187E-2,-1.3061E-2,1.5856293E-3,-1.1395672E-2,-5.089255E-3,9.996435E-3,-1.1800499E-2,1.9181326E-2,2.1752045E-2,3.9341558E-2,1.02966465E-2,2.7940877E-2,4.158237E-2,5.73204E-2,5.6449752E-2,7.457344E-2,3.882111E-2,8.4832266E-2],"split_indices":[8,8,8,8,8,8,8,8,108,8,46,8,2,8,7,0,43,115,115,125,56,9,107,80,111,84,130,4,4,31,0,0,0,0,0,0,0,0,0,0,0,0,0,0,0,0,0,0,0,0,0,0,0,0,0,0,0,0,0],"split_type":[0,0,0,0,0,0,0,0,0,0,0,0,0,0,0,0,0,0,0,0,0,0,0,0,0,0,0,0,0,0,0,0,0,0,0,0,0,0,0,0,0,0,0,0,0,0,0,0,0,0,0,0,0,0,0,0,0,0,0],"sum_hessian":[2.31E3,1.133E3,1.177E3,4.53E2,6.8E2,6.31E2,5.46E2,2.15E2,2.38E2,3.23E2,3.57E2,2.82E2,3.49E2,3.85E2,1.61E2,7.6E1,1.39E2,1.35E2,1.03E2,1.37E2,1.86E2,1.49E2,2.08E2,1.5E2,1.32E2,2.52E2,9.7E1,2.51E2,1.34E2,8.6E1,7.5E1,3E0,1.36E2,3E0,1.32E2,9.9E1,4E0,6E0,1.31E2,1.79E2,7E0,7.4E1,7.5E1,7.5E1,1.33E2,4.2E1,1.08E2,7E0,1.25E2,2.5E1,2.27E2,1.8E1,7.9E1,5.3E1,1.98E2,4.3E1,9.1E1,5E0,8.1E1],"tree_param":{"num_deleted":"0","num_feature":"150","num_nodes":"59","size_leaf_vector":"1"}},{"base_weights":[-5.201449E-3,-4.5942593E0,4.078871E0,-7.7020473E0,-2.8077934E0,2.259771E0,6.388799E0,-8.522845E0,-4.9558177E0,-4.1826577E0,-1.4086304E0,3.974528E-1,3.163711E0,5.470066E0,9.10374E0,-9.621341E0,-7.210415E0,-5.6948824E0,-2.6842039E0,-5.164926E0,-2.6355143E0,-1.9103695E0,5.6022364E-1,-7.4006003E-1,1.5027049E0,2.3907332E0,5.062898E0,4.3605065E0,6.3696084E0,9.328552E0,4.9087454E-2,-7.41548E-2,-1.01234786E-1,-7.505064E-2,-3.360076E-2,-3.965734E-2,-6.4545564E-2,3.6888605E-3,-3.4709204E-2,-4.1270155E-2,-5.769803E-2,-2.906407E-2,1.11255245E-2,-2.4863906E-2,-5.1604677E-3,-9.993307E-4,2.3774913E-2,-1.3935418E-2,7.971493E-3,2.5677013E-3,2.0659562E-2,1.0476918E-2,3.0449845E-2,1.893061E-2,5.707564E-2,2.8261853E-2,4.763587E-2,6.797241E-2,4.9114708E-2,9.4351776E-2,3.6660165E-2],"categories":[],"categories_nodes":[],"categories_segments":[],"categories_sizes":[],"default_left":[0,0,0,0,0,0,0,0,0,0,0,0,0,0,0,0,0,0,0,0,0,0,0,0,0,0,0,0,0,0,0,0,0,0,0,0,0,0,0,0,0,0,0,0,0,0,0,0,0,0,0,0,0,0,0,0,0,0,0,0,0],"id":16,"left_children":[1,3,5,7,9,11,13,15,17,19,21,23,25,27,29,31,33,35,37,39,41,43,45,47,49,51,53,55,57,59,-1,-1,-1,-1,-1,-1,-1,-1,-1,-1,-1,-1,-1,-1,-1,-1,-1,-1,-1,-1,-1,-1,-1,-1,-1,-1,-1,-1,-1,-1,-1],"loss_changes":[4.3462844E4,6.0400605E3,5.140539E3,8.535469E2,1.3304922E3,1.1565825E3,1.2956699E3,3.686621E2,1.4168945E2,5.1750635E2,3.430017E2,2.8532422E2,6.6684814E2,3.7637988E2,8.010156E1,1.0372266E2,1.359292E2,6.531201E1,6.163852E1,1.0892139E2,1.4352759E2,2.2008868E2,8.564272E1,1.1367878E2,7.9941376E1,2.8724597E2,2.602185E2,1.0019214E2,1.0387207E2,4.077832E1,0E0,0E0,0E0,0E0,0E0,0E0,0E0,0E0,0E0,0E0,0E0,0E0,0E0,0E0,0E0,0E0,0E0,0E0,0E0,0E0,0E0,0E0,0E0,0E0,0E0,0E0,0E0,0E0,0E0,0E0,0E0],"parents":[2147483647,0,0,1,1,2,2,3,3,4,4,5,5,6,6,7,7,8,8,9,9,10,10,11,11,12,12,13,13,14,14,15,15,16,16,17,17,18,18,19,19,20,20,21,21,22,22,23,23,24,24,25,25,26,26,27,27,28,28,29,29],"right_children":[2,4,6,8,10,12,14,16,18,20,22,24,26,28,30,32,34,36,38,40,42,44,46,48,50,52,54,56,58,60,-1,-1,-1,-1,-1,-1,-1,-1,-1,-1,-1,-1,-1,-1,-1,-1,-1,-1,-1,-1,-1,-1,-1,-1,-1,-1,-1,-1,-1,-1,-1],"split_conditions":[1.44E1,6E-1,1.2E1,5.5233335E-1,4.7E0,1.3583333E0,9.6E0,-2.1E0,1.76E0,5.7E-1,1.0356667E0,8.453333E0,9.4E0,1.38E1,9.6E-1,2.4E0,1.14E1,8E0,1.1433333E-1,1.0164E0,1.6016667E0,7.7E0,8.3E0,1.72E0,7.9E0,8.7E0,6.3E0,7.8E-1,4.7E0,9.9E-1,4.9087454E-2,-7.41548E-2,-1.01234786E-1,-7.505064E-2,-3.360076E-2,-3.965734E-2,-6.4545564E-2,3.6888605E-3,-3.4709204E-2,-4.1270155E-2,-5.769803E-2,-2.906407E-2,1.11255245E-2,-2.4863906E-2,-5.1604677E-3,-9.993307E-4,2.3774913E-2,-1.3935418E-2,7.971493E-3,2.5677013E-3,2.0659562E-2,1.0476918E-2,3.0449845E-2,1.893061E-2,5.707564E-2,2.8261853E-2,4.763587E-2,6.797241E-2,4.9114708E-2,9.4351776E-2,3.6660165E-2],"split_indices":[81,9,9,110,9,110,7,9,5,5,110,126,7,9,56,18,84,25,114,43,110,9,9,5,9,9,9,5,1,53,0,0,0,0,0,0,0,0,0,0,0,0,0,0,0,0,0,0,0,0,0,0,0,0,0,0,0,0,0,0,0],"split_type":[0,0,0,0,0,0,0,0,0,0,0,0,0,0,0,0,0,0,0,0,0,0,0,0,0,0,0,0,0,0,0,0,0,0,0,0,0,0,0,0,0,0,0,0,0,0,0,0,0,0,0,0,0,0,0,0,0,0,0,0,0],"sum_hessian":[2.317E3,1.091E3,1.226E3,3.97E2,6.94E2,6.87E2,5.39E2,3.04E2,9.3E1,3.49E2,3.45E2,2.25E2,4.62E2,4.05E2,1.34E2,1.62E2,1.42E2,6.9E1,2.4E1,2.12E2,1.37E2,2.75E2,7E1,1.11E2,1.14E2,3.3E2,1.32E2,1.84E2,2.21E2,1.26E2,8E0,3.3E1,1.29E2,1.31E2,1.1E1,2.3E1,4.6E1,5E0,1.9E1,8.1E1,1.31E2,1.28E2,9E0,1.94E2,8.1E1,5.2E1,1.8E1,7.8E1,3.3E1,3.6E1,7.8E1,1.09E2,2.21E2,2.3E1,1.09E2,4E1,1.44E2,1.68E2,5.3E1,1.23E2,3E0],"tree_param":{"num_deleted":"0","num_feature":"150","num_nodes":"61","size_leaf_vector":"1"}},{"base_weights":[-1.8065111E-3,-4.5716867E0,4.448036E0,-7.660207E0,-2.448555E0,2.281531E0,6.704128E0,-9.366726E0,-6.317225E0,-3.7289352E0,-1.3225555E0,9.901766E-1,3.078348E0,5.5008397E0,8.817666E0,-1.0700606E-1,-8.524359E0,-6.951663E0,-5.4671063E0,-4.444819E0,-2.932405E0,-2.115934E0,-3.5810825E-1,-2.3339054E-1,1.31118E0,1.7974957E0,3.289221E0,4.93245E0,6.2778096E0,7.947086E0,1.060914E1,-4.380996E-2,-8.620331E-2,-7.051157E-2,-1.582096E-2,-4.2284794E-2,-5.87766E-2,-3.720658E-2,-5.2128386E-2,-3.1554513E-2,-9.4341785E-3,-2.53432E-2,-1.5068014E-2,-1.3416532E-2,8.8869565E-4,1.8898789E-2,-5.1989565E-3,-2.2117924E-2,1.4023115E-2,2.5295563E-2,6.646484E-3,2.0285202E-2,3.47269E-2,4.637279E-2,6.0635924E-2,6.391175E-2,2.418497E-2,5.1275745E-2,8.3083846E-2,4.9275592E-2,1.08029656E-1],"categories":[],"categories_nodes":[],"categories_segments":[],"categories_sizes":[],"default_left":[0,0,0,0,0,0,0,0,0,0,0,0,0,0,0,0,0,0,0,0,0,0,0,0,0,0,0,0,0,0,0,0,0,0,0,0,0,0,0,0,0,0,0,0,0,0,0,0,0,0,0,0,0,0,0,0,0,0,0,0,0],"id":17,"left_children":[1,3,5,7,9,11,13,15,17,19,21,23,25,27,29,-1,31,33,35,37,39,41,43,45,47,49,51,53,55,57,59,-1,-1,-1,-1,-1,-1,-1,-1,-1,-1,-1,-1,-1,-1,-1,-1,-1,-1,-1,-1,-1,-1,-1,-1,-1,-1,-1,-1,-1,-1],"loss_changes":[4.7401477E4,7.52117E3,5.75634E3,1.011834E3,9.7924976E2,6.180449E2,1.4200312E3,1.3608008E2,1.0367969E2,1.6812988E2,2.7828253E2,9.153627E1,9.432568E1,1.3175586E2,2.382334E2,0E0,1.2629883E1,6.704883E1,3.41416E1,7.2035645E1,6.4933105E1,4.6747803E1,7.32219E1,3.0653595E1,6.2094604E1,4.3611496E1,6.618994E1,4.3931152E1,5.0601074E1,1.0274609E2,1.6774902E1,0E0,0E0,0E0,0E0,0E0,0E0,0E0,0E0,0E0,0E0,0E0,0E0,0E0,0E0,0E0,0E0,0E0,0E0,0E0,0E0,0E0,0E0,0E0,0E0,0E0,0E0,0E0,0E0,0E0,0E0],"parents":[2147483647,0,0,1,1,2,2,3,3,4,4,5,5,6,6,7,7,8,8,9,9,10,10,11,11,12,12,13,13,14,14,16,16,17,17,18,18,19,19,20,20,21,21,22,22,23,23,24,24,25,25,26,26,27,27,28,28,29,29,30,30],"right_children":[2,4,6,8,10,12,14,16,18,20,22,24,26,28,30,-1,32,34,36,38,40,42,44,46,48,50,52,54,56,58,60,-1,-1,-1,-1,-1,-1,-1,-1,-1,-1,-1,-1,-1,-1,-1,-1,-1,-1,-1,-1,-1,-1,-1,-1,-1,-1,-1,-1,-1,-1],"split_conditions":[1.12E1,4.8E0,1.6E1,1.2E0,7.9E0,1.31E1,1.96E1,-1E0,3.3E0,9.4E0,8.6233336E-1,8.6233336E-1,1.52E1,1.0175E0,2.29E1,-1.0700606E-1,8.635475E-1,7.4E0,1E-1,2.3133333E-1,9.2E-1,9.4E0,9.2E0,5.9428573E0,5.5E-1,1.1E1,1.67E1,1.85E1,8.860129E-3,1.0102E0,1.78E1,-4.380996E-2,-8.620331E-2,-7.051157E-2,-1.582096E-2,-4.2284794E-2,-5.87766E-2,-3.720658E-2,-5.2128386E-2,-3.1554513E-2,-9.4341785E-3,-2.53432E-2,-1.5068014E-2,-1.3416532E-2,8.8869565E-4,1.8898789E-2,-5.1989565E-3,-2.2117924E-2,1.4023115E-2,2.5295563E-2,6.646484E-3,2.0285202E-2,3.47269E-2,4.637279E-2,6.0635924E-2,6.391175E-2,2.418497E-2,5.1275745E-2,8.3083846E-2,4.9275592E-2,1.08029656E-1],"split_indices":[8,8,8,8,8,8,8,8,8,10,110,110,85,4,8,0,125,1,74,114,33,8,8,120,32,2,10,8,107,4,85,0,0,0,0,0,0,0,0,0,0,0,0,0,0,0,0,0,0,0,0,0,0,0,0,0,0,0,0,0,0],"split_type":[0,0,0,0,0,0,0,0,0,0,0,0,0,0,0,0,0,0,0,0,0,0,0,0,0,0,0,0,0,0,0,0,0,0,0,0,0,0,0,0,0,0,0,0,0,0,0,0,0,0,0,0,0,0,0,0,0,0,0,0,0],"sum_hessian":[2.329E3,1.149E3,1.18E3,4.67E2,6.82E2,6.03E2,5.77E2,2.03E2,2.64E2,3.18E2,3.64E2,2.31E2,3.72E2,3.7E2,2.07E2,7.4E1,1.29E2,1.47E2,1.17E2,1.65E2,1.53E2,1.99E2,1.65E2,4.8E1,1.83E2,5.4E1,3.18E2,2.18E2,1.52E2,1.43E2,6.4E1,4E0,1.25E2,1.44E2,3E0,3.2E1,8.5E1,8.8E1,7.7E1,1.37E2,1.6E1,1.16E2,8.3E1,5.1E1,1.14E2,5E0,4.3E1,4E0,1.79E2,3.2E1,2.2E1,4.2E1,2.76E2,1.77E2,4.1E1,1.47E2,5E0,1.8E1,1.25E2,3E0,6.1E1],"tree_param":{"num_deleted":"0","num_feature":"150","num_nodes":"61","size_leaf_vector":"1"}},{"base_weights":[-5.387497E-3,-4.4980764E0,4.3576612E0,-7.829605E0,-2.6570342E0,2.199113E0,6.659866E0,-9.357565E0,-6.588542E0,-3.9179265E0,-1.3184335E0,1.1913493E0,3.0846963E0,5.4712024E0,8.567824E0,-1.0517042E-1,-8.486275E0,-6.6454697E0,-1.714222E-2,-4.69591E0,-3.0631404E0,-1.9349446E0,-5.173566E-1,6.740284E-2,1.4630965E0,2.452397E0,3.6218336E0,4.7158437E0,6.0222173E0,7.7856507E0,9.915205E0,-8.606016E-2,-4.2784065E-2,-7.128648E-2,-5.7483647E-2,-4.298961E-2,-5.616818E-2,-3.2142118E-2,-1.5767692E-2,-1.6770812E-2,-3.4831233E-2,4.779742E-3,-1.0397204E-2,7.841417E-3,-1.1039607E-2,9.760156E-3,1.8894553E-2,9.021354E-3,2.6932625E-2,3.8892128E-2,2.3666117E-2,3.6388364E-2,5.086339E-2,6.1265383E-2,2.7271554E-2,5.4315943E-2,8.020133E-2,4.6562996E-2,1.00661695E-1],"categories":[],"categories_nodes":[],"categories_segments":[],"categories_sizes":[],"default_left":[0,0,0,0,0,0,0,0,0,0,0,0,0,0,0,0,0,0,0,0,0,0,0,0,0,0,0,0,0,0,0,0,0,0,0,0,0,0,0,0,0,0,0,0,0,0,0,0,0,0,0,0,0,0,0,0,0,0,0],"id":18,"left_children":[1,3,5,7,9,11,13,15,17,19,21,23,25,27,29,-1,31,33,-1,35,37,39,41,43,45,47,49,51,53,55,57,-1,-1,-1,-1,-1,-1,-1,-1,-1,-1,-1,-1,-1,-1,-1,-1,-1,-1,-1,-1,-1,-1,-1,-1,-1,-1,-1,-1],"loss_changes":[4.5554645E4,7.0009883E3,5.843416E3,7.085449E2,1.2416187E3,5.402971E2,1.2444355E3,9.069336E1,5.1038086E1,2.3754346E2,1.7654791E2,8.7406525E1,1.0055078E2,1.1786621E2,1.4972656E2,0E0,1.6308594E1,5.526367E1,0E0,4.6875977E1,3.5769775E1,7.468384E1,8.270125E1,4.8688698E1,4.584134E1,5.396826E1,4.823242E1,4.206909E1,5.149951E1,3.347461E1,1.1994141E1,0E0,0E0,0E0,0E0,0E0,0E0,0E0,0E0,0E0,0E0,0E0,0E0,0E0,0E0,0E0,0E0,0E0,0E0,0E0,0E0,0E0,0E0,0E0,0E0,0E0,0E0,0E0,0E0],"parents":[2147483647,0,0,1,1,2,2,3,3,4,4,5,5,6,6,7,7,8,8,9,9,10,10,11,11,12,12,13,13,14,14,16,16,17,17,19,19,20,20,21,21,22,22,23,23,24,24,25,25,26,26,27,27,28,28,29,29,30,30],"right_children":[2,4,6,8,10,12,14,16,18,20,22,24,26,28,30,-1,32,34,-1,36,38,40,42,44,46,48,50,52,54,56,58,-1,-1,-1,-1,-1,-1,-1,-1,-1,-1,-1,-1,-1,-1,-1,-1,-1,-1,-1,-1,-1,-1,-1,-1,-1,-1,-1,-1],"split_conditions":[1.12E1,4.1E0,1.6E1,3.7E0,7.9E0,1.36E1,1.96E1,-8E-1,1.6E0,6.2E0,8.9633334E-1,8.82E-1,1.0151E0,1.0155E0,2.24E1,-1.0517042E-1,7.3E0,2.9E0,-1.714222E-2,3.9E0,4.9999046E-1,7.1E-1,3.1E0,1.5E1,1.24E1,1.52E1,-4.6215046E-2,1.5356667E1,8.860129E-3,1.0102E0,1.8E1,-8.606016E-2,-4.2784065E-2,-7.128648E-2,-5.7483647E-2,-4.298961E-2,-5.616818E-2,-3.2142118E-2,-1.5767692E-2,-1.6770812E-2,-3.4831233E-2,4.779742E-3,-1.0397204E-2,7.841417E-3,-1.1039607E-2,9.760156E-3,1.8894553E-2,9.021354E-3,2.6932625E-2,3.8892128E-2,2.3666117E-2,3.6388364E-2,5.086339E-2,6.1265383E-2,2.7271554E-2,5.4315943E-2,8.020133E-2,4.6562996E-2,1.00661695E-1],"split_indices":[8,8,8,10,8,8,8,8,55,8,110,110,4,4,8,0,1,8,0,74,109,6,1,2,8,85,133,122,107,4,85,0,0,0,0,0,0,0,0,0,0,0,0,0,0,0,0,0,0,0,0,0,0,0,0,0,0,0,0],"split_type":[0,0,0,0,0,0,0,0,0,0,0,0,0,0,0,0,0,0,0,0,0,0,0,0,0,0,0,0,0,0,0,0,0,0,0,0,0,0,0,0,0,0,0,0,0,0,0,0,0,0,0,0,0,0,0,0,0,0,0],"sum_hessian":[2.322E3,1.144E3,1.178E3,4.06E2,7.38E2,6.09E2,5.69E2,1.79E2,2.27E2,3.79E2,3.59E2,2.86E2,3.23E2,3.53E2,2.16E2,7.2E1,1.07E2,2.24E2,3E0,1.96E2,1.83E2,2.02E2,1.57E2,5.6E1,2.3E2,1.51E2,1.72E2,1.53E2,2E2,1.41E2,7.5E1,1.03E2,4E0,1.41E2,8.3E1,1.41E2,5.5E1,1.65E2,1.8E1,1.75E2,2.7E1,5.4E1,1.03E2,3.5E1,2.1E1,1.09E2,1.21E2,2.1E1,1.3E2,1.4E2,3.2E1,4.2E1,1.11E2,1.93E2,7E0,1.5E1,1.26E2,3E0,7.2E1],"tree_param":{"num_deleted":"0","num_feature":"150","num_nodes":"59","size_leaf_vector":"1"}},{"base_weights":[9.873145E-2,-4.3534455E0,4.414965E0,-6.8024035E0,-1.8271174E0,2.5919318E0,6.999867E0,-9.017031E0,-5.5674286E0,-2.5852664E0,-4.863333E-1,1.2653174E0,3.5375414E0,5.9614987E0,9.045596E0,-1.0244102E-1,-8.172285E0,-6.7446623E0,-5.126224E0,-3.0068083E0,-1.8246565E0,-1.1498879E0,3.0839485E-1,5.8529896E-1,1.7763296E0,4.3910155E0,3.077878E0,5.3295927E0,6.7520876E0,9.36622E0,5.9547057E0,-8.3094105E-2,-4.6202045E-2,-7.1547285E-2,-4.876094E-2,-5.5844113E-2,-4.5643933E-2,-4.5087017E-2,-2.7758097E-2,-2.0851066E-2,-3.563416E-3,-2.2254443E-2,-7.636852E-3,2.7514163E-2,1.6813369E-3,3.2412133E-3,2.3543878E-2,-5.824168E-3,1.88515E-2,3.857903E-2,5.8063667E-2,1.744916E-2,3.3629116E-2,5.4328322E-2,4.8574703E-3,7.05581E-2,5.0565824E-2,8.629687E-2,1.0631065E-1,2.8434858E-2,6.9249064E-2],"categories":[],"categories_nodes":[],"categories_segments":[],"categories_sizes":[],"default_left":[0,0,0,0,0,0,0,0,0,0,0,0,0,0,0,0,0,0,0,0,0,0,0,0,0,0,0,0,0,0,0,0,0,0,0,0,0,0,0,0,0,0,0,0,0,0,0,0,0,0,0,0,0,0,0,0,0,0,0,0,0],"id":19,"left_children":[1,3,5,7,9,11,13,15,17,19,21,23,25,27,29,-1,31,33,35,37,39,41,43,45,47,49,51,53,55,57,59,-1,-1,-1,-1,-1,-1,-1,-1,-1,-1,-1,-1,-1,-1,-1,-1,-1,-1,-1,-1,-1,-1,-1,-1,-1,-1,-1,-1,-1,-1],"loss_changes":[4.462104E4,7.0583027E3,5.5367734E3,1.5346465E3,5.717495E2,8.643838E2,9.790703E2,1.2797461E2,1.5901367E2,1.0945679E2,1.0854462E2,9.9498535E1,1.4423145E2,1.25668945E2,1.0323828E2,0E0,2.2174805E1,3.9768066E1,4.4802246E1,6.655127E1,4.911026E1,4.452443E1,3.1455574E1,5.718689E1,4.3580444E1,8.1514404E1,9.4684814E1,8.97832E1,3.5720215E1,4.1414062E1,3.3665466E1,0E0,0E0,0E0,0E0,0E0,0E0,0E0,0E0,0E0,0E0,0E0,0E0,0E0,0E0,0E0,0E0,0E0,0E0,0E0,0E0,0E0,0E0,0E0,0E0,0E0,0E0,0E0,0E0,0E0,0E0],"parents":[2147483647,0,0,1,1,2,2,3,3,4,4,5,5,6,6,7,7,8,8,9,9,10,10,11,11,12,12,13,13,14,14,16,16,17,17,18,18,19,19,20,20,21,21,22,22,23,23,24,24,25,25,26,26,27,27,28,28,29,29,30,30],"right_children":[2,4,6,8,10,12,14,16,18,20,22,24,26,28,30,-1,32,34,36,38,40,42,44,46,48,50,52,54,56,58,60,-1,-1,-1,-1,-1,-1,-1,-1,-1,-1,-1,-1,-1,-1,-1,-1,-1,-1,-1,-1,-1,-1,-1,-1,-1,-1,-1,-1,-1,-1],"split_conditions":[1.12E1,6.2E0,1.68E1,1.5E0,9.4E0,1.37E1,2.05E1,-8E-1,2.9E0,6.7E-1,1.0356667E0,1.24E1,9E0,1.86E1,1.3E1,-1.0244102E-1,1.6E1,5.5E0,8.8E0,3.7E0,1.5066667E0,8.4285714E-2,1.3972763E0,2.23E1,4.69E-1,2.17E0,1.3336667E0,4.802054E0,1.22E1,2.33E1,1.86E0,-8.3094105E-2,-4.6202045E-2,-7.1547285E-2,-4.876094E-2,-5.5844113E-2,-4.5643933E-2,-4.5087017E-2,-2.7758097E-2,-2.0851066E-2,-3.563416E-3,-2.2254443E-2,-7.636852E-3,2.7514163E-2,1.6813369E-3,3.2412133E-3,2.3543878E-2,-5.824168E-3,1.88515E-2,3.857903E-2,5.8063667E-2,1.744916E-2,3.3629116E-2,5.4328322E-2,4.8574703E-3,7.05581E-2,5.0565824E-2,8.629687E-2,1.0631065E-1,2.8434858E-2,6.9249064E-2],"split_indices":[8,8,8,8,8,8,8,8,8,5,110,8,2,8,2,0,2,60,86,9,110,112,97,85,110,5,110,123,60,8,50,0,0,0,0,0,0,0,0,0,0,0,0,0,0,0,0,0,0,0,0,0,0,0,0,0,0,0,0,0,0],"split_type":[0,0,0,0,0,0,0,0,0,0,0,0,0,0,0,0,0,0,0,0,0,0,0,0,0,0,0,0,0,0,0,0,0,0,0,0,0,0,0,0,0,0,0,0,0,0,0,0,0,0,0,0,0,0,0,0,0,0,0,0,0],"sum_hessian":[2.32E3,1.142E3,1.178E3,5.79E2,5.63E2,6.92E2,4.86E2,2.05E2,3.74E2,3.59E2,2.04E2,2.89E2,4.03E2,3.25E2,1.61E2,7.9E1,1.26E2,9.8E1,2.76E2,2.29E2,1.3E2,1.11E2,9.3E1,1.25E2,1.64E2,1.38E2,2.65E2,1.85E2,1.4E2,1.44E2,1.7E1,1.2E2,6E0,7.8E1,2E1,1.47E2,1.29E2,2.8E1,2.01E2,1.1E2,2E1,2.8E1,8.3E1,4E0,8.9E1,1.1E2,1.5E1,7E0,1.57E2,1.03E2,3.5E1,4.8E1,2.17E2,1.81E2,4E0,1.16E2,2.4E1,9.6E1,4.8E1,5E0,1.2E1],"tree_param":{"num_deleted":"0","num_feature":"150","num_nodes":"61","size_leaf_vector":"1"}},{"base_weights":[-5.14265E-2,-4.3816605E0,4.2677383E0,-7.239543E0,-2.3194387E0,2.30233E0,6.641634E0,-9.032989E0,-6.0312767E0,-3.5224125E0,-1.2203053E0,1.1993817E0,3.2548883E0,5.470905E0,8.333996E0,-1.0082877E-1,-8.268079E0,-6.8355575E0,-5.4623346E0,-4.3288317E0,-2.9508862E0,-2.045726E0,-6.107656E-1,6.178961E-1,1.820029E0,3.570785E0,2.3014472E0,4.771661E0,5.9799266E0,9.470204E0,7.345278E0,-8.3600566E-2,-3.508695E-2,-7.565222E-2,-6.0652964E-2,-5.677541E-2,-3.7514746E-2,-1.31693315E-2,-4.484914E-2,-4.517877E-2,-2.7339803E-2,-2.6808035E-2,-1.3014623E-2,4.3996423E-3,-9.466925E-3,1.0830775E-2,-7.3431403E-4,1.5619117E-3,1.981951E-2,2.7791187E-2,3.923271E-2,1.3946905E-2,2.9477619E-2,3.58766E-2,5.2293792E-2,6.0984246E-2,2.6574094E-2,9.6031025E-2,3.954537E-2,1.8597847E-2,7.517538E-2],"categories":[],"categories_nodes":[],"categories_segments":[],"categories_sizes":[],"default_left":[0,0,0,0,0,0,0,0,0,0,0,0,0,0,0,0,0,0,0,0,0,0,0,0,0,0,0,0,0,0,0,0,0,0,0,0,0,0,0,0,0,0,0,0,0,0,0,0,0,0,0,0,0,0,0,0,0,0,0,0,0],"id":20,"left_children":[1,3,5,7,9,11,13,15,17,19,21,23,25,27,29,-1,31,33,35,37,39,41,43,45,47,49,51,53,55,57,59,-1,-1,-1,-1,-1,-1,-1,-1,-1,-1,-1,-1,-1,-1,-1,-1,-1,-1,-1,-1,-1,-1,-1,-1,-1,-1,-1,-1,-1,-1],"loss_changes":[4.4008156E4,6.9072188E3,5.4799785E3,1.0101582E3,8.9963184E2,6.7435254E2,1.00905664E3,7.2200195E1,9.7336914E1,1.3674829E2,1.7910742E2,1.0726175E2,9.540625E1,8.357715E1,1.7140918E2,0E0,2.1573242E1,1.963379E1,4.3663574E1,5.6037598E1,5.2861572E1,6.7957825E1,7.388462E1,5.067056E1,3.854138E1,6.0421875E1,4.7613037E1,5.5686523E1,5.378662E1,3.1771484E1,9.8473145E1,0E0,0E0,0E0,0E0,0E0,0E0,0E0,0E0,0E0,0E0,0E0,0E0,0E0,0E0,0E0,0E0,0E0,0E0,0E0,0E0,0E0,0E0,0E0,0E0,0E0,0E0,0E0,0E0,0E0,0E0],"parents":[2147483647,0,0,1,1,2,2,3,3,4,4,5,5,6,6,7,7,8,8,9,9,10,10,11,11,12,12,13,13,14,14,16,16,17,17,18,18,19,19,20,20,21,21,22,22,23,23,24,24,25,25,26,26,27,27,28,28,29,29,30,30],"right_children":[2,4,6,8,10,12,14,16,18,20,22,24,26,28,30,-1,32,34,36,38,40,42,44,46,48,50,52,54,56,58,60,-1,-1,-1,-1,-1,-1,-1,-1,-1,-1,-1,-1,-1,-1,-1,-1,-1,-1,-1,-1,-1,-1,-1,-1,-1,-1,-1,-1,-1,-1],"split_conditions":[1.12E1,5E0,1.63E1,1.2E0,8.1E0,1.37E1,1.96E1,-8E-1,2.9E0,6.3E0,5.4E-1,1.28E1,1.3E1,1.0156E0,3E0,-1.0082877E-1,6.4E0,3.7E-1,6.9E0,1.0899978E0,1.6E-1,9.4E0,3.1E0,1.6532795E0,7.428571E0,9.3E0,1.0183333E1,1.134E1,8.6143315E-3,4.151477E0,1.6E0,-8.3600566E-2,-3.508695E-2,-7.565222E-2,-6.0652964E-2,-5.677541E-2,-3.7514746E-2,-1.31693315E-2,-4.484914E-2,-4.517877E-2,-2.7339803E-2,-2.6808035E-2,-1.3014623E-2,4.3996423E-3,-9.466925E-3,1.0830775E-2,-7.3431403E-4,1.5619117E-3,1.981951E-2,2.7791187E-2,3.923271E-2,1.3946905E-2,2.9477619E-2,3.58766E-2,5.2293792E-2,6.0984246E-2,2.6574094E-2,9.6031025E-2,3.954537E-2,1.8597847E-2,7.517538E-2],"split_indices":[8,8,8,8,8,8,8,8,8,8,46,69,2,4,0,0,1,47,7,125,47,8,1,95,96,77,126,126,107,121,24,0,0,0,0,0,0,0,0,0,0,0,0,0,0,0,0,0,0,0,0,0,0,0,0,0,0,0,0,0,0],"split_type":[0,0,0,0,0,0,0,0,0,0,0,0,0,0,0,0,0,0,0,0,0,0,0,0,0,0,0,0,0,0,0,0,0,0,0,0,0,0,0,0,0,0,0,0,0,0,0,0,0,0,0,0,0,0,0,0,0,0,0,0,0],"sum_hessian":[2.351E3,1.174E3,1.177E3,4.91E2,6.83E2,6.45E2,5.32E2,1.95E2,2.96E2,3.25E2,3.58E2,3E2,3.45E2,3.17E2,2.15E2,7.7E1,1.18E2,1.18E2,1.78E2,1.32E2,1.93E2,1.51E2,2.07E2,1.56E2,1.44E2,2.57E2,8.8E1,1.38E2,1.79E2,9.6E1,1.19E2,1.15E2,3E0,5.6E1,6.2E1,1.56E2,2.2E1,7E0,1.25E2,2.1E1,1.72E2,8E1,7.1E1,5E1,1.57E2,9.3E1,6.3E1,1.3E1,1.31E2,8.2E1,1.75E2,3.8E1,5E1,4.1E1,9.7E1,1.72E2,7E0,9.3E1,3E0,4E0,1.15E2],"tree_param":{"num_deleted":"0","num_feature":"150","num_nodes":"61","size_leaf_vector":"1"}},{"base_weights":[2.9707383E-2,-4.3767824E0,4.242892E0,-7.657521E0,-2.5897195E0,2.1442285E0,6.406101E0,-9.410403E0,-6.5633736E0,-3.799588E0,-1.2765573E0,8.464014E-1,2.9087849E0,5.484051E0,8.788219E0,-1.03526205E-1,-8.636581E0,-7.1743073E0,-5.8001966E0,-4.608393E0,-3.0161498E0,-2.0265584E0,-4.045771E-1,1.8240196E0,3.2477555E-1,2.352624E0,3.4101484E0,4.8026433E0,6.2556324E0,9.948422E0,7.547922E0,-3.9629437E-2,-8.7523706E-2,-7.288515E-2,-1.6154349E-2,-5.986321E-2,-3.857341E-2,-4.6999406E-2,-1.9714698E-2,-2.6369777E-2,-4.1680396E-2,-2.5530938E-2,-1.3158063E-2,6.527708E-3,-9.257442E-3,-1.893028E-2,1.9992752E-2,8.836812E-3,-3.8149639E-3,3.0693201E-2,1.7260728E-2,2.0310882E-2,3.6260217E-2,6.1197266E-2,4.5247428E-2,4.9374476E-2,6.776926E-2,1.0109644E-1,5.4881625E-2,2.5599744E-2,7.769612E-2],"categories":[],"categories_nodes":[],"categories_segments":[],"categories_sizes":[],"default_left":[0,0,0,0,0,0,0,0,0,0,0,0,0,0,0,0,0,0,0,0,0,0,0,0,0,0,0,0,0,0,0,0,0,0,0,0,0,0,0,0,0,0,0,0,0,0,0,0,0,0,0,0,0,0,0,0,0,0,0,0,0],"id":21,"left_children":[1,3,5,7,9,11,13,15,17,19,21,23,25,27,29,-1,31,33,35,37,39,41,43,45,47,49,51,53,55,57,59,-1,-1,-1,-1,-1,-1,-1,-1,-1,-1,-1,-1,-1,-1,-1,-1,-1,-1,-1,-1,-1,-1,-1,-1,-1,-1,-1,-1,-1,-1],"loss_changes":[4.303449E4,6.621797E3,5.365129E3,7.018867E2,1.1623765E3,5.954966E2,1.2308984E3,1.8785156E1,7.31875E1,2.2739209E2,2.3044806E2,1.1393167E2,9.708081E1,1.9124707E2,1.5483789E2,0E0,1.2206543E1,7.240723E1,1.7871094E1,3.496826E1,7.437109E1,6.735864E1,9.155568E1,5.4607086E1,5.8808777E1,7.639813E1,5.071704E1,5.5063965E1,9.936377E1,4.84375E-1,6.975098E1,0E0,0E0,0E0,0E0,0E0,0E0,0E0,0E0,0E0,0E0,0E0,0E0,0E0,0E0,0E0,0E0,0E0,0E0,0E0,0E0,0E0,0E0,0E0,0E0,0E0,0E0,0E0,0E0,0E0,0E0],"parents":[2147483647,0,0,1,1,2,2,3,3,4,4,5,5,6,6,7,7,8,8,9,9,10,10,11,11,12,12,13,13,14,14,16,16,17,17,18,18,19,19,20,20,21,21,22,22,23,23,24,24,25,25,26,26,27,27,28,28,29,29,30,30],"right_children":[2,4,6,8,10,12,14,16,18,20,22,24,26,28,30,-1,32,34,36,38,40,42,44,46,48,50,52,54,56,58,60,-1,-1,-1,-1,-1,-1,-1,-1,-1,-1,-1,-1,-1,-1,-1,-1,-1,-1,-1,-1,-1,-1,-1,-1,-1,-1,-1,-1,-1,-1],"split_conditions":[1.12E1,4.1E0,1.6E1,7E-1,8E0,1.31E1,2.05E1,-1.4E0,2.5E0,6.2E0,8.6233336E-1,-3.0369502E-1,1.1E1,1.81E1,3E0,-1.03526205E-1,1E0,9E0,3.9993453E-1,9.7E-1,6.3E0,9.5E0,3.3E0,3.3E0,2.335849E0,1E1,1.36E1,3E0,1.014E0,7E-2,6E0,-3.9629437E-2,-8.7523706E-2,-7.288515E-2,-1.6154349E-2,-5.986321E-2,-3.857341E-2,-4.6999406E-2,-1.9714698E-2,-2.6369777E-2,-4.1680396E-2,-2.5530938E-2,-1.3158063E-2,6.527708E-3,-9.257442E-3,-1.893028E-2,1.9992752E-2,8.836812E-3,-3.8149639E-3,3.0693201E-2,1.7260728E-2,2.0310882E-2,3.6260217E-2,6.1197266E-2,4.5247428E-2,4.9374476E-2,6.776926E-2,1.0109644E-1,5.4881625E-2,2.5599744E-2,7.769612E-2],"split_indices":[8,8,8,8,8,8,8,8,8,8,110,133,77,8,0,0,16,77,109,34,74,8,1,77,125,2,8,0,4,54,31,0,0,0,0,0,0,0,0,0,0,0,0,0,0,0,0,0,0,0,0,0,0,0,0,0,0,0,0,0,0],"split_type":[0,0,0,0,0,0,0,0,0,0,0,0,0,0,0,0,0,0,0,0,0,0,0,0,0,0,0,0,0,0,0,0,0,0,0,0,0,0,0,0,0,0,0,0,0,0,0,0,0,0,0,0,0,0,0,0,0,0,0,0,0],"sum_hessian":[2.316E3,1.132E3,1.184E3,3.98E2,7.34E2,6.02E2,5.82E2,1.5E2,2.48E2,3.81E2,3.53E2,2.24E2,3.78E2,4.22E2,1.6E2,6.2E1,8.8E1,1.33E2,1.15E2,1.85E2,1.96E2,1.89E2,1.64E2,7.7E1,1.47E2,1.82E2,1.96E2,2.28E2,1.94E2,7.9E1,8.1E1,3E0,8.5E1,1.3E2,3E0,1.03E2,1.2E1,1.78E2,7E0,1.5E2,4.6E1,1.07E2,8.2E1,5.4E1,1.1E2,3E0,7.4E1,8.2E1,6.5E1,8.3E1,9.9E1,2.8E1,1.68E2,3.6E1,1.92E2,5.8E1,1.36E2,7.5E1,4E0,4E0,7.7E1],"tree_param":{"num_deleted":"0","num_feature":"150","num_nodes":"61","size_leaf_vector":"1"}},{"base_weights":[-2.3467967E-2,-4.316902E0,4.262511E0,-7.3622828E0,-2.268608E0,2.2835908E0,6.299537E0,-9.155553E0,-6.014589E0,-3.4637885E0,-1.2212772E0,1.3086734E0,3.162762E0,5.3736773E0,8.777041E0,-1.0563029E-1,-8.5537E0,-6.759086E0,-5.3106327E0,-4.389294E0,-2.8675284E0,-1.9112331E0,-3.8961664E-1,6.91438E-1,1.8313651E0,2.0710971E0,3.5204291E0,4.82494E0,6.4553456E0,1.0065663E-1,7.5215964E0,-5.787978E-2,-8.694466E-2,-8.0798134E-2,-6.2473945E-2,-5.568695E-2,-3.2036055E-2,-4.4803858E-2,-4.8867734E-3,-2.5976589E-2,-4.306867E-2,-1.9972943E-2,7.69525E-3,6.5062973E-3,-8.93653E-3,1.561579E-3,1.6426587E-2,1.9659556E-2,-2.6641726E-3,1.225872E-4,2.4024937E-2,3.7820194E-2,2.1677446E-2,4.391417E-2,5.8634434E-2,5.251354E-2,6.9090806E-2,2.5569567E-2,7.742129E-2],"categories":[],"categories_nodes":[],"categories_segments":[],"categories_sizes":[],"default_left":[0,0,0,0,0,0,0,0,0,0,0,0,0,0,0,0,0,0,0,0,0,0,0,0,0,0,0,0,0,0,0,0,0,0,0,0,0,0,0,0,0,0,0,0,0,0,0,0,0,0,0,0,0,0,0,0,0,0,0],"id":22,"left_children":[1,3,5,7,9,11,13,15,17,19,21,23,25,27,29,-1,31,33,35,37,39,41,43,45,47,49,51,53,55,-1,57,-1,-1,-1,-1,-1,-1,-1,-1,-1,-1,-1,-1,-1,-1,-1,-1,-1,-1,-1,-1,-1,-1,-1,-1,-1,-1,-1,-1],"loss_changes":[4.272844E4,7.2182246E3,4.668908E3,1.0696328E3,8.6526685E2,5.019712E2,1.2634844E3,7.5458984E1,1.0387891E2,1.6548462E2,2.1248224E2,8.9461426E1,1.1318994E2,2.1642383E2,1.716709E2,0E0,4.2910156E0,3.3916504E1,5.903833E1,4.1728027E1,6.5808716E1,4.8493774E1,8.974048E1,6.6264824E1,4.360962E1,5.3630127E1,7.329956E1,1.00186035E2,3.7890625E1,0E0,6.8953125E1,0E0,0E0,0E0,0E0,0E0,0E0,0E0,0E0,0E0,0E0,0E0,0E0,0E0,0E0,0E0,0E0,0E0,0E0,0E0,0E0,0E0,0E0,0E0,0E0,0E0,0E0,0E0,0E0],"parents":[2147483647,0,0,1,1,2,2,3,3,4,4,5,5,6,6,7,7,8,8,9,9,10,10,11,11,12,12,13,13,14,14,16,16,17,17,18,18,19,19,20,20,21,21,22,22,23,23,24,24,25,25,26,26,27,27,28,28,30,30],"right_children":[2,4,6,8,10,12,14,16,18,20,22,24,26,28,30,-1,32,34,36,38,40,42,44,46,48,50,52,54,56,-1,58,-1,-1,-1,-1,-1,-1,-1,-1,-1,-1,-1,-1,-1,-1,-1,-1,-1,-1,-1,-1,-1,-1,-1,-1,-1,-1,-1,-1],"split_conditions":[1.12E1,4.8E0,1.6E1,1.2E0,8E0,1.37E1,2.05E1,-1.7E0,3E0,6.2E0,8.6233336E-1,1.24E1,1.0109E0,1.86E1,3E0,-1.0563029E-1,8E-2,1.7E-1,7.1E0,8.217751E-1,6.8E0,1.9E1,9E0,5.069329E-1,4.71E0,1.48E1,-4.6215046E-2,1.0194E0,1.0138E0,1.0065663E-1,1.0084E0,-5.787978E-2,-8.694466E-2,-8.0798134E-2,-6.2473945E-2,-5.568695E-2,-3.2036055E-2,-4.4803858E-2,-4.8867734E-3,-2.5976589E-2,-4.306867E-2,-1.9972943E-2,7.69525E-3,6.5062973E-3,-8.93653E-3,1.561579E-3,1.6426587E-2,1.9659556E-2,-2.6641726E-3,1.225872E-4,2.4024937E-2,3.7820194E-2,2.1677446E-2,4.391417E-2,5.8634434E-2,5.251354E-2,6.9090806E-2,2.5569567E-2,7.742129E-2],"split_indices":[8,8,8,8,8,8,8,8,8,8,110,8,4,8,0,0,48,47,7,113,74,84,2,109,94,87,133,4,4,0,4,0,0,0,0,0,0,0,0,0,0,0,0,0,0,0,0,0,0,0,0,0,0,0,0,0,0,0,0],"split_type":[0,0,0,0,0,0,0,0,0,0,0,0,0,0,0,0,0,0,0,0,0,0,0,0,0,0,0,0,0,0,0,0,0,0,0,0,0,0,0,0,0,0,0,0,0,0,0,0,0,0,0,0,0,0,0,0,0,0,0],"sum_hessian":[2.32E3,1.159E3,1.161E3,4.65E2,6.94E2,5.9E2,5.71E2,1.97E2,2.68E2,3.23E2,3.71E2,2.81E2,3.09E2,4.18E2,1.53E2,5.4E1,1.43E2,1.26E2,1.42E2,1.24E2,1.99E2,2.02E2,1.69E2,1.3E2,1.51E2,7.8E1,2.31E2,2.81E2,1.37E2,7.2E1,8.1E1,9E0,1.34E2,3.1E1,9.5E1,1.25E2,1.7E1,1.21E2,3E0,1.7E2,2.9E1,1.96E2,6E0,5.5E1,1.14E2,8.4E1,4.6E1,1.42E2,9E0,1.1E1,6.7E1,1.92E2,3.9E1,2.02E2,7.9E1,4.1E1,9.6E1,4E0,7.7E1],"tree_param":{"num_deleted":"0","num_feature":"150","num_nodes":"59","size_leaf_vector":"1"}},{"base_weights":[3.1439144E-2,-4.0776668E0,4.09878E0,-6.8889437E0,-2.3665924E0,2.5095344E0,5.993912E0,-8.27356E0,-5.8556333E0,-3.595023E0,-1.2837756E0,8.3423185E-1,3.3430555E0,8.317493E0,5.184874E0,-6.899288E0,-9.201281E0,-6.274913E0,-4.20745E0,-4.003754E0,-2.4653418E0,3.8627857E-1,-1.8044893E0,1.8904158E0,-4.4499198E-1,4.0946293E0,2.5243416E0,7.2703714E0,1.0165803E1,3.108182E0,5.4515305E0,-2.4572615E-2,-7.102099E-2,-9.382282E-2,-4.5438662E-2,-6.738936E-2,-4.453218E-2,-5.857653E-2,-3.2436308E-2,-4.1857213E-2,-1.5850011E-2,-3.2647796E-2,-9.098553E-3,-3.4154742E-3,1.2068472E-2,-2.8784422E-2,-1.3132299E-2,7.21616E-3,2.5742749E-2,1.2010906E-2,-7.5815255E-3,3.041636E-2,4.7499537E-2,1.9314501E-2,3.54865E-2,1.4950207E-2,7.449133E-2,4.782978E-2,1.04218364E-1,3.559632E-2,-3.0257824E-4,5.833497E-2,4.0909067E-2],"categories":[],"categories_nodes":[],"categories_segments":[],"categories_sizes":[],"default_left":[0,0,0,0,0,0,0,0,0,0,0,0,0,0,0,0,0,0,0,0,0,0,0,0,0,0,0,0,0,0,0,0,0,0,0,0,0,0,0,0,0,0,0,0,0,0,0,0,0,0,0,0,0,0,0,0,0,0,0,0,0,0,0],"id":23,"left_children":[1,3,5,7,9,11,13,15,17,19,21,23,25,27,29,31,33,35,37,39,41,43,45,47,49,51,53,55,57,59,61,-1,-1,-1,-1,-1,-1,-1,-1,-1,-1,-1,-1,-1,-1,-1,-1,-1,-1,-1,-1,-1,-1,-1,-1,-1,-1,-1,-1,-1,-1,-1,-1],"loss_changes":[3.920901E4,5.5963945E3,3.5350566E3,5.810957E2,9.61927E2,8.9467896E2,9.650137E2,1.7204688E2,1.4945898E2,1.4647266E2,3.382514E2,2.9147137E2,2.5297559E2,1.8949707E2,2.0425879E2,5.276294E1,4.7018555E1,1.3962305E2,6.756714E1,1.0194165E2,1.1225897E2,5.6041233E1,1.5196722E2,9.212952E1,5.138416E1,1.3796509E2,1.18917114E2,8.191846E1,1.3406738E1,6.846939E1,1.591211E2,0E0,0E0,0E0,0E0,0E0,0E0,0E0,0E0,0E0,0E0,0E0,0E0,0E0,0E0,0E0,0E0,0E0,0E0,0E0,0E0,0E0,0E0,0E0,0E0,0E0,0E0,0E0,0E0,0E0,0E0,0E0,0E0],"parents":[2147483647,0,0,1,1,2,2,3,3,4,4,5,5,6,6,7,7,8,8,9,9,10,10,11,11,12,12,13,13,14,14,15,15,16,16,17,17,18,18,19,19,20,20,21,21,22,22,23,23,24,24,25,25,26,26,27,27,28,28,29,29,30,30],"right_children":[2,4,6,8,10,12,14,16,18,20,22,24,26,28,30,32,34,36,38,40,42,44,46,48,50,52,54,56,58,60,62,-1,-1,-1,-1,-1,-1,-1,-1,-1,-1,-1,-1,-1,-1,-1,-1,-1,-1,-1,-1,-1,-1,-1,-1,-1,-1,-1,-1,-1,-1,-1,-1],"split_conditions":[1.12E1,7.3E0,1.64E1,3.7E0,1.09E1,1.3666667E0,3E0,1E0,5.5233335E-1,8.7E0,-1.9970155E-1,-9.020987E-1,2E-2,2.12E1,1.8726667E1,1.6E0,9.997688E-1,5.8E0,-1E0,1.58E0,2.9E1,1.016E0,8.5E0,1.67E1,3.7142856E0,1.38E1,1.51E1,5.2E-1,1.0138E0,5.904699E0,4.7E0,-2.4572615E-2,-7.102099E-2,-9.382282E-2,-4.5438662E-2,-6.738936E-2,-4.453218E-2,-5.857653E-2,-3.2436308E-2,-4.1857213E-2,-1.5850011E-2,-3.2647796E-2,-9.098553E-3,-3.4154742E-3,1.2068472E-2,-2.8784422E-2,-1.3132299E-2,7.21616E-3,2.5742749E-2,1.2010906E-2,-7.5815255E-3,3.041636E-2,4.7499537E-2,1.9314501E-2,3.54865E-2,1.4950207E-2,7.449133E-2,4.782978E-2,1.04218364E-1,3.559632E-2,-3.0257824E-4,5.833497E-2,4.0909067E-2],"split_indices":[67,81,67,81,81,110,0,7,110,70,133,132,6,67,130,21,133,1,79,5,144,39,67,81,124,67,67,32,40,131,1,0,0,0,0,0,0,0,0,0,0,0,0,0,0,0,0,0,0,0,0,0,0,0,0,0,0,0,0,0,0,0,0],"split_type":[0,0,0,0,0,0,0,0,0,0,0,0,0,0,0,0,0,0,0,0,0,0,0,0,0,0,0,0,0,0,0,0,0,0,0,0,0,0,0,0,0,0,0,0,0,0,0,0,0,0,0,0,0,0,0,0,0,0,0,0,0,0,0],"sum_hessian":[2.344E3,1.166E3,1.178E3,4.4E2,7.26E2,6.42E2,5.36E2,1.85E2,2.55E2,3.39E2,3.87E2,2.14E2,4.28E2,1.36E2,4E2,7.8E1,1.07E2,2.01E2,5.4E1,2.47E2,9.2E1,9.2E1,2.95E2,1.17E2,9.7E1,2.21E2,2.07E2,9E1,4.6E1,4.7E1,3.53E2,4E0,7.4E1,1.02E2,5E0,1.58E2,4.3E1,1.8E1,3.6E1,2.29E2,1.8E1,6E1,3.2E1,4.9E1,4.3E1,9.1E1,2.04E2,4.4E1,7.3E1,1.5E1,8.2E1,8.7E1,1.34E2,1.33E2,7.4E1,3E0,8.7E1,3E0,4.3E1,4.1E1,6E0,2.73E2,8E1],"tree_param":{"num_deleted":"0","num_feature":"150","num_nodes":"63","size_leaf_vector":"1"}},{"base_weights":[-5.6456827E-2,-4.346409E0,3.960625E0,-7.1097746E0,-2.3706062E0,2.036254E0,6.1758704E0,-8.666437E0,-5.8097396E0,-3.819533E0,-1.5267192E0,8.4985876E-1,2.853894E0,5.3469872E0,8.617369E0,-9.8172665E-2,-7.896721E0,-6.2961783E0,-5.079411E0,-1.9967263E0,-3.9757123E0,-2.0639236E0,-6.657637E-1,1.1019555E0,-5.806299E-1,3.1799052E0,1.971923E0,4.8233566E0,6.347861E0,9.791223E-2,7.42058E0,-3.1825896E-2,-7.9815626E-2,-6.4186186E-2,-2.863667E-2,-2.577625E-2,-5.3073723E-2,-1.4340201E-3,-2.7218292E-2,-2.6962154E-2,-4.1786253E-2,-1.2399582E-2,-2.5129534E-2,-3.825098E-2,-4.7491547E-3,7.176394E-3,1.8545618E-2,-2.1846669E-2,3.6326183E-3,3.5301115E-2,2.5406377E-2,7.934829E-3,2.3100598E-2,4.8917394E-2,8.913847E-3,5.0759837E-2,6.822315E-2,7.627334E-2,1.9222334E-2],"categories":[],"categories_nodes":[],"categories_segments":[],"categories_sizes":[],"default_left":[0,0,0,0,0,0,0,0,0,0,0,0,0,0,0,0,0,0,0,0,0,0,0,0,0,0,0,0,0,0,0,0,0,0,0,0,0,0,0,0,0,0,0,0,0,0,0,0,0,0,0,0,0,0,0,0,0,0,0],"id":24,"left_children":[1,3,5,7,9,11,13,15,17,19,21,23,25,27,29,-1,31,33,35,37,39,41,43,45,47,49,51,53,55,-1,57,-1,-1,-1,-1,-1,-1,-1,-1,-1,-1,-1,-1,-1,-1,-1,-1,-1,-1,-1,-1,-1,-1,-1,-1,-1,-1,-1,-1],"loss_changes":[3.9877387E4,6.091785E3,5.080832E3,8.912539E2,7.9330005E2,6.190027E2,1.0756895E3,1.0672461E2,5.8182617E1,5.9788574E1,1.9029407E2,9.5535446E1,1.02188965E2,1.8680957E2,1.2089746E2,0E0,2.5876465E1,4.37334E1,4.7124756E1,2.7544037E1,4.516382E1,9.085486E1,9.4828865E1,6.3201324E1,6.1537235E1,5.1989746E1,3.969641E1,6.980957E1,4.8662598E1,0E0,6.737036E1,0E0,0E0,0E0,0E0,0E0,0E0,0E0,0E0,0E0,0E0,0E0,0E0,0E0,0E0,0E0,0E0,0E0,0E0,0E0,0E0,0E0,0E0,0E0,0E0,0E0,0E0,0E0,0E0],"parents":[2147483647,0,0,1,1,2,2,3,3,4,4,5,5,6,6,7,7,8,8,9,9,10,10,11,11,12,12,13,13,14,14,16,16,17,17,18,18,19,19,20,20,21,21,22,22,23,23,24,24,25,25,26,26,27,27,28,28,30,30],"right_children":[2,4,6,8,10,12,14,16,18,20,22,24,26,28,30,-1,32,34,36,38,40,42,44,46,48,50,52,54,56,-1,58,-1,-1,-1,-1,-1,-1,-1,-1,-1,-1,-1,-1,-1,-1,-1,-1,-1,-1,-1,-1,-1,-1,-1,-1,-1,-1,-1,-1],"split_conditions":[1.09E1,4.8E0,1.6E1,1.5E0,7.3E0,1.31E1,2.05E1,-1E0,4.157143E-1,1.2579273E0,9.4E0,4.2180607E-1,1.3E1,1.86E1,3E0,-9.8172665E-2,8.635475E-1,1.1E1,9.666667E0,3.3E-1,1E0,8.08E-1,8.142857E-1,1.24E1,1.1266666E1,-3.6448303E-1,1.2773334E1,4.7697754E0,1.0138E0,9.791223E-2,1.0212715E0,-3.1825896E-2,-7.9815626E-2,-6.4186186E-2,-2.863667E-2,-2.577625E-2,-5.3073723E-2,-1.4340201E-3,-2.7218292E-2,-2.6962154E-2,-4.1786253E-2,-1.2399582E-2,-2.5129534E-2,-3.825098E-2,-4.7491547E-3,7.176394E-3,1.8545618E-2,-2.1846669E-2,3.6326183E-3,3.5301115E-2,2.5406377E-2,7.934829E-3,2.3100598E-2,4.8917394E-2,8.913847E-3,5.0759837E-2,6.822315E-2,7.627334E-2,1.9222334E-2],"split_indices":[8,8,8,8,8,8,8,8,108,125,8,133,2,8,0,0,125,72,98,50,9,102,116,8,98,133,122,123,4,0,104,0,0,0,0,0,0,0,0,0,0,0,0,0,0,0,0,0,0,0,0,0,0,0,0,0,0,0,0],"split_type":[0,0,0,0,0,0,0,0,0,0,0,0,0,0,0,0,0,0,0,0,0,0,0,0,0,0,0,0,0,0,0,0,0,0,0,0,0,0,0,0,0,0,0,0,0,0,0,0,0,0,0,0,0,0,0,0,0,0,0],"sum_hessian":[2.312E3,1.118E3,1.194E3,4.65E2,6.53E2,6.4E2,5.54E2,2.09E2,2.56E2,2.39E2,4.14E2,2.62E2,3.78E2,4.16E2,1.38E2,7.9E1,1.3E2,1.49E2,1.07E2,2E1,2.19E2,2.54E2,1.6E2,2.23E2,3.9E1,2.74E2,1.04E2,2.77E2,1.39E2,6.6E1,7.2E1,3E0,1.27E2,1.43E2,6E0,1E1,9.7E1,6E0,1.4E1,3.2E1,1.87E2,9.1E1,1.63E2,8E0,1.52E2,1.49E2,7.4E1,1.4E1,2.5E1,1.74E2,1E2,2.4E1,8E1,2.72E2,5E0,4.1E1,9.8E1,6.9E1,3E0],"tree_param":{"num_deleted":"0","num_feature":"150","num_nodes":"59","size_leaf_vector":"1"}},{"base_weights":[-7.285884E-3,-4.237572E0,4.1480813E0,-6.86474E0,-2.184492E0,2.3205543E0,6.4478955E0,-8.745498E0,-5.7703056E0,-3.2312312E0,-1.1081787E0,1.1977403E0,3.1689017E0,5.5316358E0,8.701002E0,-9.592172E-2,-8.0724125E0,-6.5627165E0,-5.1456647E0,-4.029696E0,-2.5900168E0,-1.8216106E0,-2.2033016E-1,-8.889751E-2,1.4569349E0,2.4287508E0,3.5347834E0,4.939654E0,6.3803525E0,7.6971345E0,9.828223E-2,-3.23331E-2,-8.176935E-2,-6.719518E-2,-1.9242326E-2,-2.9120907E-2,-5.351304E-2,-3.4281116E-2,-4.7662582E-2,-2.3251707E-2,-3.949345E-2,-3.1081578E-2,-1.5324083E-2,6.449805E-4,-1.6750611E-2,2.3148349E-2,-3.562256E-3,8.74094E-3,1.9220097E-2,-7.756988E-4,2.5534676E-2,2.3878235E-2,3.8307276E-2,5.020221E-2,3.5452067E-3,5.3053584E-2,6.799822E-2,3.7740406E-2,7.844864E-2],"categories":[],"categories_nodes":[],"categories_segments":[],"categories_sizes":[],"default_left":[0,0,0,0,0,0,0,0,0,0,0,0,0,0,0,0,0,0,0,0,0,0,0,0,0,0,0,0,0,0,0,0,0,0,0,0,0,0,0,0,0,0,0,0,0,0,0,0,0,0,0,0,0,0,0,0,0,0,0],"id":25,"left_children":[1,3,5,7,9,11,13,15,17,19,21,23,25,27,29,-1,31,33,35,37,39,41,43,45,47,49,51,53,55,57,-1,-1,-1,-1,-1,-1,-1,-1,-1,-1,-1,-1,-1,-1,-1,-1,-1,-1,-1,-1,-1,-1,-1,-1,-1,-1,-1,-1,-1],"loss_changes":[4.136197E4,6.273252E3,4.97309E3,9.999082E2,7.3504785E2,6.2729956E2,1.0342734E3,2.6800781E1,1.2641992E2,1.5888062E2,2.0525574E2,9.597781E1,9.291333E1,1.5626367E2,9.233594E1,0E0,2.8058594E1,8.803027E1,6.948193E1,4.7534668E1,5.7511963E1,6.1746033E1,6.0763966E1,3.211542E1,6.2824768E1,4.0456055E1,7.508984E1,8.116992E1,3.08042E1,1.7914062E1,0E0,0E0,0E0,0E0,0E0,0E0,0E0,0E0,0E0,0E0,0E0,0E0,0E0,0E0,0E0,0E0,0E0,0E0,0E0,0E0,0E0,0E0,0E0,0E0,0E0,0E0,0E0,0E0,0E0],"parents":[2147483647,0,0,1,1,2,2,3,3,4,4,5,5,6,6,7,7,8,8,9,9,10,10,11,11,12,12,13,13,14,14,16,16,17,17,18,18,19,19,20,20,21,21,22,22,23,23,24,24,25,25,26,26,27,27,28,28,29,29],"right_children":[2,4,6,8,10,12,14,16,18,20,22,24,26,28,30,-1,32,34,36,38,40,42,44,46,48,50,52,54,56,58,-1,-1,-1,-1,-1,-1,-1,-1,-1,-1,-1,-1,-1,-1,-1,-1,-1,-1,-1,-1,-1,-1,-1,-1,-1,-1,-1,-1,-1],"split_conditions":[1.12E1,5.1E0,1.65E1,3.7E0,8.3E0,1.37E1,2.08E1,-8E-1,2.9E0,9.4E0,9.116667E-1,8.3566666E-1,1.0127E0,1.86E1,1.09E1,-9.592172E-2,8.1386787E-1,7.42515E-1,1.5E0,2.3833333E-1,6.8E0,1.0008E0,6E0,5.8285713E0,1.24E1,8.9633334E-1,8.3E0,5.843268E0,1.0138E0,-3.09017E-1,9.828223E-2,-3.23331E-2,-8.176935E-2,-6.719518E-2,-1.9242326E-2,-2.9120907E-2,-5.351304E-2,-3.4281116E-2,-4.7662582E-2,-2.3251707E-2,-3.949345E-2,-3.1081578E-2,-1.5324083E-2,6.449805E-4,-1.6750611E-2,2.3148349E-2,-3.562256E-3,8.74094E-3,1.9220097E-2,-7.756988E-4,2.5534676E-2,2.3878235E-2,3.8307276E-2,5.020221E-2,3.5452067E-3,5.3053584E-2,6.799822E-2,3.7740406E-2,7.844864E-2],"split_indices":[8,8,8,10,8,8,8,8,8,10,110,110,4,8,7,0,125,113,67,114,74,4,1,120,8,110,77,131,4,149,0,0,0,0,0,0,0,0,0,0,0,0,0,0,0,0,0,0,0,0,0,0,0,0,0,0,0,0,0],"split_type":[0,0,0,0,0,0,0,0,0,0,0,0,0,0,0,0,0,0,0,0,0,0,0,0,0,0,0,0,0,0,0,0,0,0,0,0,0,0,0,0,0,0,0,0,0,0,0,0,0,0,0,0,0,0,0,0,0,0,0],"sum_hessian":[2.351E3,1.165E3,1.186E3,5.1E2,6.55E2,6.62E2,5.24E2,1.85E2,3.25E2,3.31E2,3.24E2,2.86E2,3.76E2,3.75E2,1.49E2,7.6E1,1.09E2,1.39E2,1.86E2,1.45E2,1.86E2,1.79E2,1.45E2,4.8E1,2.38E2,1.27E2,2.49E2,2.25E2,1.5E2,8.3E1,6.6E1,3E0,1.06E2,1.34E2,5E0,1.7E1,1.69E2,8.3E1,6.2E1,1.58E2,2.8E1,3.1E1,1.48E2,1.22E2,2.3E1,4E0,4.4E1,1.07E2,1.31E2,6E0,1.21E2,5.3E1,1.96E2,2.21E2,4E0,4.6E1,1.04E2,4E0,7.9E1],"tree_param":{"num_deleted":"0","num_feature":"150","num_nodes":"59","size_leaf_vector":"1"}},{"base_weights":[1.2963702E-2,-4.141001E0,4.0822277E0,-6.929796E0,-2.249968E0,2.2388966E0,6.4273267E0,-8.532362E0,-5.576184E0,-3.4520586E0,-1.2890629E0,1.0348696E0,3.0906289E0,5.4405017E0,8.409019E0,-9.979621E-2,-7.9312353E0,-6.0743694E0,-4.9160066E0,-3.9856436E0,-2.7679133E0,-1.9631758E0,-3.4253892E-1,4.1248718E-1,1.5425712E0,3.6231027E0,2.4341366E0,4.301959E0,5.921012E0,9.508331E-2,7.2498107E0,-7.997094E-2,-3.4372404E-2,-1.3630831E-2,-6.1661866E-2,-5.054141E-2,-8.462129E-3,-4.3961592E-2,-3.1851213E-2,-1.6958542E-2,-3.3259243E-2,-1.6981479E-2,-3.1742528E-2,1.184586E-3,-1.0446516E-2,-5.3149513E-3,8.320599E-3,-1.5521077E-2,1.659869E-2,2.6018785E-2,4.0299077E-2,6.6231173E-3,2.7224366E-2,2.83802E-2,4.7593135E-2,2.5211232E-2,6.026046E-2,5.8664307E-3,7.4796066E-2],"categories":[],"categories_nodes":[],"categories_segments":[],"categories_sizes":[],"default_left":[0,0,0,0,0,0,0,0,0,0,0,0,0,0,0,0,0,0,0,0,0,0,0,0,0,0,0,0,0,0,0,0,0,0,0,0,0,0,0,0,0,0,0,0,0,0,0,0,0,0,0,0,0,0,0,0,0,0,0],"id":26,"left_children":[1,3,5,7,9,11,13,15,17,19,21,23,25,27,29,-1,31,33,35,37,39,41,43,45,47,49,51,53,55,-1,57,-1,-1,-1,-1,-1,-1,-1,-1,-1,-1,-1,-1,-1,-1,-1,-1,-1,-1,-1,-1,-1,-1,-1,-1,-1,-1,-1,-1],"loss_changes":[3.9351527E4,6.058797E3,5.0683516E3,9.597129E2,7.897815E2,6.7322485E2,9.6390234E2,1.02625E2,5.290674E1,9.963281E1,2.4411359E2,8.6063965E1,1.2550757E2,1.6389062E2,1.4602734E2,0E0,1.6948242E1,5.1835938E1,5.9783936E1,4.0777344E1,7.581384E1,6.601947E1,5.2327595E1,4.9980938E1,5.7399994E1,7.650928E1,8.776221E1,5.73739E1,7.037207E1,0E0,1.2801709E2,0E0,0E0,0E0,0E0,0E0,0E0,0E0,0E0,0E0,0E0,0E0,0E0,0E0,0E0,0E0,0E0,0E0,0E0,0E0,0E0,0E0,0E0,0E0,0E0,0E0,0E0,0E0,0E0],"parents":[2147483647,0,0,1,1,2,2,3,3,4,4,5,5,6,6,7,7,8,8,9,9,10,10,11,11,12,12,13,13,14,14,16,16,17,17,18,18,19,19,20,20,21,21,22,22,23,23,24,24,25,25,26,26,27,27,28,28,30,30],"right_children":[2,4,6,8,10,12,14,16,18,20,22,24,26,28,30,-1,32,34,36,38,40,42,44,46,48,50,52,54,56,-1,58,-1,-1,-1,-1,-1,-1,-1,-1,-1,-1,-1,-1,-1,-1,-1,-1,-1,-1,-1,-1,-1,-1,-1,-1,-1,-1,-1,-1],"split_conditions":[1.12E1,4.8E0,1.65E1,1.5E0,7.8E0,1.36E1,2.05E1,-1.7E0,4.157143E-1,9.4E0,9.116667E-1,1.62E1,1.1E1,1.0141E0,3E0,