{"learner":{"attributes":{"scikit_learn":"{\"_estimator_type\": \"regressor\"}"},"feature_names":["cloud_cover","wind_speed","wind_gust","humidity","pressure","global_radiation","precipitation","sunshine","temp_mean","temp_min","temp_max"],"feature_types":["int","float","float","float","float","float","float","float","float","float","float"],"gradient_booster":{"model":{"cats":{"enc":[],"feature_segments":[],"sorted_idx":[]},"gbtree_model_param":{"num_parallel_tree":"1","num_trees":"1000"},"iteration_indptr":[0,1,2,3,4,5,6,7,8,9,10,11,12,13,14,15,16,17,18,19,20,21,22,23,24,25,26,27,28,29,30,31,32,33,34,35,36,37,38,39,40,41,42,43,44,45,46,47,48,49,50,51,52,53,54,55,56,57,58,59,60,61,62,63,64,65,66,67,68,69,70,71,72,73,74,75,76,77,78,79,80,81,82,83,84,85,86,87,88,89,90,91,92,93,94,95,96,97,98,99,100,101,102,103,104,105,106,107,108,109,110,111,112,113,114,115,116,117,118,119,120,121,122,123,124,125,126,127,128,129,130,131,132,133,134,135,136,137,138,139,140,141,142,143,144,145,146,147,148,149,150,151,152,153,154,155,156,157,158,159,160,161,162,163,164,165,166,167,168,169,170,171,172,173,174,175,176,177,178,179,180,181,182,183,184,185,186,187,188,189,190,191,192,193,194,195,196,197,198,199,200,201,202,203,204,205,206,207,208,209,210,211,212,213,214,215,216,217,218,219,220,221,222,223,224,225,226,227,228,229,230,231,232,233,234,235,236,237,238,239,240,241,242,243,244,245,246,247,248,249,250,251,252,253,254,255,256,257,258,259,260,261,262,263,264,265,266,267,268,269,270,271,272,273,274,275,276,277,278,279,280,281,282,283,284,285,286,287,288,289,290,291,292,293,294,295,296,297,298,299,300,301,302,303,304,305,306,307,308,309,310,311,312,313,314,315,316,317,318,319,320,321,322,323,324,325,326,327,328,329,330,331,332,333,334,335,336,337,338,339,340,341,342,343,344,345,346,347,348,349,350,351,352,353,354,355,356,357,358,359,360,361,362,363,364,365,366,367,368,369,370,371,372,373,374,375,376,377,378,379,380,381,382,383,384,385,386,387,388,389,390,391,392,393,394,395,396,397,398,399,400,401,402,403,404,405,406,407,408,409,410,411,412,413,414,415,416,417,418,419,420,421,422,423,424,425,426,427,428,429,430,431,432,433,434,435,436,437,438,439,440,441,442,443,444,445,446,447,448,449,450,451,452,453,454,455,456,457,458,459,460,461,462,463,464,465,466,467,468,469,470,471,472,473,474,475,476,477,478,479,480,481,482,483,484,485,486,487,488,489,490,491,492,493,494,495,496,497,498,499,500,501,502,503,504,505,506,507,508,509,510,511,512,513,514,515,516,517,518,519,520,521,522,523,524,525,526,527,528,529,530,531,532,533,534,535,536,537,538,539,540,541,542,543,544,545,546,547,548,549,550,551,552,553,554,555,556,557,558,559,560,561,562,563,564,565,566,567,568,569,570,571,572,573,574,575,576,577,578,579,580,581,582,583,584,585,586,587,588,589,590,591,592,593,594,595,596,597,598,599,600,601,602,603,604,605,606,607,608,609,610,611,612,613,614,615,616,617,618,619,620,621,622,623,624,625,626,627,628,629,630,631,632,633,634,635,636,637,638,639,640,641,642,643,644,645,646,647,648,649,650,651,652,653,654,655,656,657,658,659,660,661,662,663,664,665,666,667,668,669,670,671,672,673,674,675,676,677,678,679,680,681,682,683,684,685,686,687,688,689,690,691,692,693,694,695,696,697,698,699,700,701,702,703,704,705,706,707,708,709,710,711,712,713,714,715,716,717,718,719,720,721,722,723,724,725,726,727,728,729,730,731,732,733,734,735,736,737,738,739,740,741,742,743,744,745,746,747,748,749,750,751,752,753,754,755,756,757,758,759,760,761,762,763,764,765,766,767,768,769,770,771,772,773,774,775,776,777,778,779,780,781,782,783,784,785,786,787,788,789,790,791,792,793,794,795,796,797,798,799,800,801,802,803,804,805,806,807,808,809,810,811,812,813,814,815,816,817,818,819,820,821,822,823,824,825,826,827,828,829,830,831,832,833,834,835,836,837,838,839,840,841,842,843,844,845,846,847,848,849,850,851,852,853,854,855,856,857,858,859,860,861,862,863,864,865,866,867,868,869,870,871,872,873,874,875,876,877,878,879,880,881,882,883,884,885,886,887,888,889,890,891,892,893,894,895,896,897,898,899,900,901,902,903,904,905,906,907,908,909,910,911,912,913,914,915,916,917,918,919,920,921,922,923,924,925,926,927,928,929,930,931,932,933,934,935,936,937,938,939,940,941,942,943,944,945,946,947,948,949,950,951,952,953,954,955,956,957,958,959,960,961,962,963,964,965,966,967,968,969,970,971,972,973,974,975,976,977,978,979,980,981,982,983,984,985,986,987,988,989,990,991,992,993,994,995,996,997,998,999,1000],"tree_info":[0,0,0,0,0,0,0,0,0,0,0,0,0,0,0,0,0,0,0,0,0,0,0,0,0,0,0,0,0,0,0,0,0,0,0,0,0,0,0,0,0,0,0,0,0,0,0,0,0,0,0,0,0,0,0,0,0,0,0,0,0,0,0,0,0,0,0,0,0,0,0,0,0,0,0,0,0,0,0,0,0,0,0,0,0,0,0,0,0,0,0,0,0,0,0,0,0,0,0,0,0,0,0,0,0,0,0,0,0,0,0,0,0,0,0,0,0,0,0,0,0,0,0,0,0,0,0,0,0,0,0,0,0,0,0,0,0,0,0,0,0,0,0,0,0,0,0,0,0,0,0,0,0,0,0,0,0,0,0,0,0,0,0,0,0,0,0,0,0,0,0,0,0,0,0,0,0,0,0,0,0,0,0,0,0,0,0,0,0,0,0,0,0,0,0,0,0,0,0,0,0,0,0,0,0,0,0,0,0,0,0,0,0,0,0,0,0,0,0,0,0,0,0,0,0,0,0,0,0,0,0,0,0,0,0,0,0,0,0,0,0,0,0,0,0,0,0,0,0,0,0,0,0,0,0,0,0,0,0,0,0,0,0,0,0,0,0,0,0,0,0,0,0,0,0,0,0,0,0,0,0,0,0,0,0,0,0,0,0,0,0,0,0,0,0,0,0,0,0,0,0,0,0,0,0,0,0,0,0,0,0,0,0,0,0,0,0,0,0,0,0,0,0,0,0,0,0,0,0,0,0,0,0,0,0,0,0,0,0,0,0,0,0,0,0,0,0,0,0,0,0,0,0,0,0,0,0,0,0,0,0,0,0,0,0,0,0,0,0,0,0,0,0,0,0,0,0,0,0,0,0,0,0,0,0,0,0,0,0,0,0,0,0,0,0,0,0,0,0,0,0,0,0,0,0,0,0,0,0,0,0,0,0,0,0,0,0,0,0,0,0,0,0,0,0,0,0,0,0,0,0,0,0,0,0,0,0,0,0,0,0,0,0,0,0,0,0,0,0,0,0,0,0,0,0,0,0,0,0,0,0,0,0,0,0,0,0,0,0,0,0,0,0,0,0,0,0,0,0,0,0,0,0,0,0,0,0,0,0,0,0,0,0,0,0,0,0,0,0,0,0,0,0,0,0,0,0,0,0,0,0,0,0,0,0,0,0,0,0,0,0,0,0,0,0,0,0,0,0,0,0,0,0,0,0,0,0,0,0,0,0,0,0,0,0,0,0,0,0,0,0,0,0,0,0,0,0,0,0,0,0,0,0,0,0,0,0,0,0,0,0,0,0,0,0,0,0,0,0,0,0,0,0,0,0,0,0,0,0,0,0,0,0,0,0,0,0,0,0,0,0,0,0,0,0,0,0,0,0,0,0,0,0,0,0,0,0,0,0,0,0,0,0,0,0,0,0,0,0,0,0,0,0,0,0,0,0,0,0,0,0,0,0,0,0,0,0,0,0,0,0,0,0,0,0,0,0,0,0,0,0,0,0,0,0,0,0,0,0,0,0,0,0,0,0,0,0,0,0,0,0,0,0,0,0,0,0,0,0,0,0,0,0,0,0,0,0,0,0,0,0,0,0,0,0,0,0,0,0,0,0,0,0,0,0,0,0,0,0,0,0,0,0,0,0,0,0,0,0,0,0,0,0,0,0,0,0,0,0,0,0,0,0,0,0,0,0,0,0,0,0,0,0,0,0,0,0,0,0,0,0,0,0,0,0,0,0,0,0,0,0,0,0,0,0,0,0,0,0,0,0,0,0,0,0,0,0,0,0,0,0,0,0,0,0,0,0,0,0,0,0,0,0,0,0,0,0,0,0,0,0,0,0,0,0,0,0,0,0,0,0,0,0,0,0,0,0,0,0,0,0,0,0,0,0,0,0,0,0,0,0,0,0,0,0,0,0,0,0,0,0,0,0,0,0,0,0,0,0,0,0,0,0,0,0,0,0,0,0,0,0,0,0,0,0,0,0,0,0,0,0,0,0,0,0,0,0,0,0,0,0,0,0,0,0,0,0,0,0,0,0,0,0,0,0,0,0,0,0,0,0,0,0,0,0,0,0,0,0,0,0,0,0,0,0,0,0,0,0,0,0,0,0,0,0,0,0,0,0,0,0,0,0,0,0,0,0,0,0,0,0,0,0,0,0,0,0,0,0,0,0,0,0,0,0,0,0,0,0,0,0,0,0,0,0,0,0,0,0,0,0,0,0,0,0,0,0,0,0,0,0,0,0,0,0,0,0,0,0,0],"trees":[{"base_weights":[-2.2533746E-2,-6.2452416E0,6.868016E0,-1.109889E1,-4.0825543E0,4.2022257E0,9.613228E0,-1.409809E1,-9.648501E0,-5.5229177E0,-1.2567501E0,2.0430257E0,5.629113E0,8.059697E0,1.089957E1,-1.4732926E1,-8.9652404E-2,-1.0183502E1,-7.6515737E0,-6.227355E0,-3.621921E0,-2.8111086E0,1.1803777E0,8.313769E-1,3.960065E0,4.3877716E0,6.598566E0,6.728959E0,9.2278056E-2,9.505858E0,1.240386E1,-1.5656796E-1,-1.141195E-1,-1.0939796E-1,-8.6646415E-2,-6.9136135E-2,-9.19649E-2,-6.872855E-2,-5.300645E-2,-6.1473355E-2,-3.1828023E-2,-3.7231665E-2,-2.1986758E-2,7.539064E-3,3.938161E-2,-1.5938101E-2,1.2939645E-2,2.4790913E-2,4.2783387E-2,3.4146916E-2,5.7220973E-2,7.0546284E-2,4.5193184E-2,4.7453202E-2,7.116906E-2,8.861785E-2,1.0530462E-1,1.3669276E-1,1.1053829E-1],"categories":[],"categories_nodes":[],"categories_segments":[],"categories_sizes":[],"default_left":[0,0,0,0,0,0,0,0,0,0,0,0,0,0,0,0,0,0,0,0,0,0,0,0,0,0,0,0,0,0,0,0,0,0,0,0,0,0,0,0,0,0,0,0,0,0,0,0,0,0,0,0,0,0,0,0,0,0,0],"id":0,"left_children":[1,3,5,7,9,11,13,15,17,19,21,23,25,27,29,31,-1,33,35,37,39,41,43,45,47,49,51,53,-1,55,57,-1,-1,-1,-1,-1,-1,-1,-1,-1,-1,-1,-1,-1,-1,-1,-1,-1,-1,-1,-1,-1,-1,-1,-1,-1,-1,-1,-1],"loss_changes":[1.0102023E5,1.2948363E4,8.139922E3,1.5189531E3,3.4845996E3,1.7407842E3,1.0093594E3,2.6308398E2,1.9806836E2,7.370879E2,1.1058389E3,5.258219E2,3.8151855E2,3.2958594E2,5.0466797E2,1.4691211E2,0E0,1.3528906E2,2.072998E0,2.0940625E2,1.5249854E2,9.064795E1,1.3063896E2,1.6021484E2,3.0197144E1,1.7820312E2,1.4713086E2,5.8926758E1,0E0,9.670898E0,8.559766E1,0E0,0E0,0E0,0E0,0E0,0E0,0E0,0E0,0E0,0E0,0E0,0E0,0E0,0E0,0E0,0E0,0E0,0E0,0E0,0E0,0E0,0E0,0E0,0E0,0E0,0E0,0E0,0E0],"parents":[2147483647,0,0,1,1,2,2,3,3,4,4,5,5,6,6,7,7,8,8,9,9,10,10,11,11,12,12,13,13,14,14,15,15,17,17,18,18,19,19,20,20,21,21,22,22,23,23,24,24,25,25,26,26,27,27,29,29,30,30],"right_children":[2,4,6,8,10,12,14,16,18,20,22,24,26,28,30,32,-1,34,36,38,40,42,44,46,48,50,52,54,-1,56,58,-1,-1,-1,-1,-1,-1,-1,-1,-1,-1,-1,-1,-1,-1,-1,-1,-1,-1,-1,-1,-1,-1,-1,-1,-1,-1,-1,-1],"split_conditions":[4.7E0,-3.6E0,1.06E1,-9E0,1.3E0,9.6E-1,1.65E0,1.4E-1,6E-1,6.3E-1,9.1E-1,8.2E0,7.9E0,1.32E1,1.38E1,6.1E-1,-8.9652404E-2,8.8E-1,2.7E0,-7E-1,-2.2E0,1.3E-1,1.2E1,1.1E-1,8.7E0,2.2E0,3.8E0,4.5E-1,9.2278056E-2,1.17E1,8.4E0,-1.5656796E-1,-1.141195E-1,-1.0939796E-1,-8.6646415E-2,-6.9136135E-2,-9.19649E-2,-6.872855E-2,-5.300645E-2,-6.1473355E-2,-3.1828023E-2,-3.7231665E-2,-2.1986758E-2,7.539064E-3,3.938161E-2,-1.5938101E-2,1.2939645E-2,2.4790913E-2,4.2783387E-2,3.4146916E-2,5.7220973E-2,7.0546284E-2,4.5193184E-2,4.7453202E-2,7.116906E-2,8.861785E-2,1.0530462E-1,1.3669276E-1,1.1053829E-1],"split_indices":[9,9,9,9,9,5,5,6,5,5,5,9,9,9,9,5,0,3,1,9,9,5,7,5,9,5,1,5,0,7,2,0,0,0,0,0,0,0,0,0,0,0,0,0,0,0,0,0,0,0,0,0,0,0,0,0,0,0,0],"split_type":[0,0,0,0,0,0,0,0,0,0,0,0,0,0,0,0,0,0,0,0,0,0,0,0,0,0,0,0,0,0,0,0,0,0,0,0,0,0,0,0,0,0,0,0,0,0,0,0,0,0,0,0,0,0,0,0,0,0,0],"sum_hessian":[2.354E3,1.237E3,1.117E3,3.8E2,8.57E2,5.68E2,5.49E2,1.21E2,2.59E2,5.67E2,2.9E2,2.27E2,3.41E2,2.52E2,2.97E2,1.06E2,1.5E1,2.01E2,5.8E1,4.12E2,1.55E2,1.77E2,1.13E2,1.4E2,8.7E1,1.52E2,1.89E2,1.21E2,1.31E2,1.58E2,1.39E2,8E1,2.6E1,1.3E2,7.1E1,4.3E1,1.5E1,2.39E2,1.73E2,2.1E1,1.34E2,6.9E1,1.08E2,9.9E1,1.4E1,2.2E1,1.18E2,1.7E1,7E1,9E1,6.2E1,1.53E2,3.6E1,2.2E1,9.9E1,1.03E2,5.5E1,6.7E1,7.2E1],"tree_param":{"num_deleted":"0","num_feature":"11","num_nodes":"59","size_leaf_vector":"1"}},{"base_weights":[4.435215E-3,-6.796557E0,6.3584394E0,-1.0939792E1,-4.5328746E0,3.1667926E0,9.416338E0,-1.4959538E1,-9.625184E0,-6.3880453E0,-2.8474555E0,1.5710949E0,4.8616157E0,8.291398E0,1.2375399E1,-1.557068E-1,-1.0217008E-1,-1.0509141E1,-8.21229E0,-7.6959414E0,-5.271152E0,-4.0469766E0,-1.348349E0,3.7611492E-2,3.074206E0,4.1647687E0,7.1974464E-2,7.0335393E0,9.035947E0,1.1374712E-1,1.4240919E-1,-9.868441E-2,-1.3722739E-1,-8.710758E-2,-7.012614E-2,-8.830484E-2,-6.65436E-2,-5.863364E-2,-4.1778978E-2,-4.9425703E-2,-3.0426167E-2,-6.1383996E-2,-1.1697179E-2,-6.545344E-3,1.5361799E-2,1.7663896E-2,3.5242412E-2,2.2495263E-3,4.308518E-2,5.792194E-2,7.9018965E-2,8.359187E-2,9.562567E-2],"categories":[],"categories_nodes":[],"categories_segments":[],"categories_sizes":[],"default_left":[0,0,0,0,0,0,0,0,0,0,0,0,0,0,0,0,0,0,0,0,0,0,0,0,0,0,0,0,0,0,0,0,0,0,0,0,0,0,0,0,0,0,0,0,0,0,0,0,0,0,0,0,0],"id":1,"left_children":[1,3,5,7,9,11,13,15,17,19,21,23,25,27,29,-1,-1,31,33,35,37,39,41,43,45,47,-1,49,51,-1,-1,-1,-1,-1,-1,-1,-1,-1,-1,-1,-1,-1,-1,-1,-1,-1,-1,-1,-1,-1,-1,-1,-1],"loss_changes":[1.0172462E5,1.061275E4,1.1846516E4,1.9725977E3,2.285295E3,1.6062607E3,1.9624844E3,1.1947461E2,2.9275E2,4.6940918E2,6.917092E2,7.11817E2,4.3929883E2,3.5908984E2,1.5093945E2,0E0,0E0,2.410664E2,1.0297852E1,1.27583984E2,9.880762E1,1.7755542E2,1.4097244E2,1.6082675E2,8.5061646E1,1.2600513E2,0E0,1.3934277E2,1.8419922E1,0E0,0E0,0E0,0E0,0E0,0E0,0E0,0E0,0E0,0E0,0E0,0E0,0E0,0E0,0E0,0E0,0E0,0E0,0E0,0E0,0E0,0E0,0E0,0E0],"parents":[2147483647,0,0,1,1,2,2,3,3,4,4,5,5,6,6,7,7,8,8,9,9,10,10,11,11,12,12,13,13,14,14,17,17,18,18,19,19,20,20,21,21,22,22,23,23,24,24,25,25,27,27,28,28],"right_children":[2,4,6,8,10,12,14,16,18,20,22,24,26,28,30,-1,-1,32,34,36,38,40,42,44,46,48,-1,50,52,-1,-1,-1,-1,-1,-1,-1,-1,-1,-1,-1,-1,-1,-1,-1,-1,-1,-1,-1,-1,-1,-1,-1,-1],"split_conditions":[1.06E1,1.6E0,1.82E1,-3.7E0,5.6E0,1.47E1,2.38E1,1.9E-1,-4E0,7E0,2E0,7E0,1.14E1,1.07E1,2.67E1,-1.557068E-1,-1.0217008E-1,1.14E1,8.9E-1,3.6E0,4.1E0,6E0,5.5E-1,1.35E1,1.18E1,1.1E0,7.1974464E-2,1.99E1,2.09E1,1.1374712E-1,1.4240919E-1,-9.868441E-2,-1.3722739E-1,-8.710758E-2,-7.012614E-2,-8.830484E-2,-6.65436E-2,-5.863364E-2,-4.1778978E-2,-4.9425703E-2,-3.0426167E-2,-6.1383996E-2,-1.1697179E-2,-6.545344E-3,1.5361799E-2,1.7663896E-2,3.5242412E-2,2.2495263E-3,4.308518E-2,5.792194E-2,7.9018965E-2,8.359187E-2,9.562567E-2],"split_indices":[10,10,10,10,10,10,10,6,9,0,9,0,9,9,10,0,0,2,3,10,10,0,3,10,10,9,0,10,10,0,0,0,0,0,0,0,0,0,0,0,0,0,0,0,0,0,0,0,0,0,0,0,0],"split_type":[0,0,0,0,0,0,0,0,0,0,0,0,0,0,0,0,0,0,0,0,0,0,0,0,0,0,0,0,0,0,0,0,0,0,0,0,0,0,0,0,0,0,0,0,0,0,0,0,0,0,0,0,0],"sum_hessian":[2.352E3,1.136E3,1.216E3,4E2,7.36E2,5.96E2,6.2E2,9.6E1,3.04E2,3.49E2,3.87E2,3.08E2,2.88E2,4.52E2,1.68E2,8.3E1,1.3E1,1.83E2,1.21E2,1.58E2,1.91E2,2.14E2,1.73E2,1.53E2,1.55E2,2.24E2,6.4E1,1.72E2,2.8E2,1.14E2,5.4E1,1.56E2,2.7E1,8.1E1,4E1,7.2E1,8.6E1,1.21E2,7E1,1.11E2,1.03E2,5E0,1.68E2,1.05E2,4.8E1,4.1E1,1.14E2,8E0,2.16E2,7.4E1,9.8E1,1.3E2,1.5E2],"tree_param":{"num_deleted":"0","num_feature":"11","num_nodes":"53","size_leaf_vector":"1"}},{"base_weights":[-5.1498994E-2,-6.602997E0,6.556097E0,-1.1133997E1,-4.3173885E0,3.4523554E0,9.403859E0,-1.4870298E1,-9.724716E0,-6.0223446E0,-2.4510474E0,1.644234E0,4.904891E0,8.49408E0,1.2815921E-1,-1.531513E-1,-9.627185E-2,-1.102437E-1,-8.708655E0,-6.7660832E0,-5.0379987E0,-3.6642234E0,-1.5447836E0,4.485893E-1,2.5288546E0,3.8386836E0,5.63311E0,7.373854E0,9.266034E0,-7.659311E-2,-9.301284E-2,-6.0802944E-2,-7.30248E-2,-5.424051E-2,-3.679551E-2,-4.012904E-2,-2.7649492E-2,-2.130518E-2,-8.107743E-3,-2.239677E-3,1.2352347E-2,1.951592E-2,2.9403022E-2,2.2261059E-2,3.9260764E-2,5.99166E-2,5.014293E-2,7.530628E-2,5.46226E-2,8.651236E-2,9.947472E-2],"categories":[],"categories_nodes":[],"categories_segments":[],"categories_sizes":[],"default_left":[0,0,0,0,0,0,0,0,0,0,0,0,0,0,0,0,0,0,0,0,0,0,0,0,0,0,0,0,0,0,0,0,0,0,0,0,0,0,0,0,0,0,0,0,0,0,0,0,0,0,0],"id":2,"left_children":[1,3,5,7,9,11,13,15,17,19,21,23,25,27,-1,-1,-1,-1,29,31,33,35,37,39,41,43,45,47,49,-1,-1,-1,-1,-1,-1,-1,-1,-1,-1,-1,-1,-1,-1,-1,-1,-1,-1,-1,-1,-1,-1],"loss_changes":[1.0147095E5,1.2139504E4,1.0281031E4,1.9275352E3,2.4791035E3,1.462043E3,1.7763789E3,9.7291016E1,2.836543E2,2.641582E2,4.0721484E2,2.6404858E2,2.1812354E2,3.476914E2,0E0,0E0,0E0,0E0,3.091504E1,3.8867188E1,7.3529785E1,3.8396484E1,9.127429E1,5.7516685E1,2.7974426E1,8.824585E0,9.236816E0,1.8103516E1,3.022461E1,0E0,0E0,0E0,0E0,0E0,0E0,0E0,0E0,0E0,0E0,0E0,0E0,0E0,0E0,0E0,0E0,0E0,0E0,0E0,0E0,0E0,0E0],"parents":[2147483647,0,0,1,1,2,2,3,3,4,4,5,5,6,6,7,7,8,8,9,9,10,10,11,11,12,12,13,13,18,18,19,19,20,20,21,21,22,22,23,23,24,24,25,25,26,26,27,27,28,28],"right_children":[2,4,6,8,10,12,14,16,18,20,22,24,26,28,-1,-1,-1,-1,30,32,34,36,38,40,42,44,46,48,50,-1,-1,-1,-1,-1,-1,-1,-1,-1,-1,-1,-1,-1,-1,-1,-1,-1,-1,-1,-1,-1,-1],"split_conditions":[7.2E0,-1E0,1.38E1,-6.5E0,3E0,1.05E1,1.9E1,2.2E-1,-3.4E0,1.4E0,4.7E0,8.6E0,1.19E1,1.58E1,1.2815921E-1,-1.531513E-1,-9.627185E-2,-1.102437E-1,1.6E0,2E0,2.7E-1,6E-2,6E0,1.014E0,9.4E0,1.25E1,6.4E0,4.4E0,1.73E1,-7.659311E-2,-9.301284E-2,-6.0802944E-2,-7.30248E-2,-5.424051E-2,-3.679551E-2,-4.012904E-2,-2.7649492E-2,-2.130518E-2,-8.107743E-3,-2.239677E-3,1.2352347E-2,1.951592E-2,2.9403022E-2,2.2261059E-2,3.9260764E-2,5.99166E-2,5.014293E-2,7.530628E-2,5.46226E-2,8.651236E-2,9.947472E-2],"split_indices":[8,8,8,8,8,8,8,6,8,8,8,8,8,8,0,0,0,0,1,1,6,6,8,4,8,10,7,1,8,0,0,0,0,0,0,0,0,0,0,0,0,0,0,0,0,0,0,0,0,0,0],"split_type":[0,0,0,0,0,0,0,0,0,0,0,0,0,0,0,0,0,0,0,0,0,0,0,0,0,0,0,0,0,0,0,0,0,0,0,0,0,0,0,0,0,0,0,0,0,0,0,0,0,0,0],"sum_hessian":[2.342E3,1.176E3,1.166E3,3.93E2,7.83E2,5.59E2,6.07E2,1.05E2,2.88E2,4.08E2,3.75E2,2.5E2,3.09E2,4.82E2,1.25E2,9.5E1,1E1,1.22E2,1.66E2,2.29E2,1.79E2,1.59E2,2.16E2,1.07E2,1.43E2,1.28E2,1.81E2,2.01E2,2.81E2,6.5E1,1.01E2,1.06E2,1.23E2,1.37E2,4.2E1,1.12E2,4.7E1,1.19E2,9.7E1,5.8E1,4.9E1,6.2E1,8.1E1,8E0,1.2E2,1.09E2,7.2E1,1.83E2,1.8E1,1.55E2,1.26E2],"tree_param":{"num_deleted":"0","num_feature":"11","num_nodes":"51","size_leaf_vector":"1"}},{"base_weights":[-8.041406E-2,-6.510389E0,6.4049273E0,-1.0983596E1,-4.2278576E0,3.0515847E0,9.129833E0,-1.4283559E1,-9.508672E0,-5.8947353E0,-2.47962E0,1.1254864E0,4.2248626E0,8.13748E0,1.24607115E1,-1.619827E-1,-1.2827533E-1,-1.06612965E-1,-8.643592E0,-6.6276035E0,-4.9069314E0,-3.7705982E0,-1.7389044E0,4.7051087E-1,1.9972122E0,3.4803448E0,5.2538033E0,7.0715575E0,8.851509E-2,1.11087434E-1,1.3362727E-1,-7.5751014E-2,-9.075001E-2,-6.747266E-2,-3.93299E-2,-5.28766E-2,-3.3083905E-2,-4.69625E-2,-3.3575006E-2,-1.4942265E-2,-3.154431E-2,-2.7290892E-3,1.1824502E-2,1.3404793E-2,2.6668647E-2,3.0591676E-2,3.8727008E-2,3.6847748E-2,5.434478E-2,7.284517E-2,5.1666737E-2],"categories":[],"categories_nodes":[],"categories_segments":[],"categories_sizes":[],"default_left":[0,0,0,0,0,0,0,0,0,0,0,0,0,0,0,0,0,0,0,0,0,0,0,0,0,0,0,0,0,0,0,0,0,0,0,0,0,0,0,0,0,0,0,0,0,0,0,0,0,0,0],"id":3,"left_children":[1,3,5,7,9,11,13,15,17,19,21,23,25,27,29,-1,-1,-1,31,33,35,37,39,41,43,45,47,49,-1,-1,-1,-1,-1,-1,-1,-1,-1,-1,-1,-1,-1,-1,-1,-1,-1,-1,-1,-1,-1,-1,-1],"loss_changes":[9.724577E4,1.1908227E4,1.0579609E4,1.7843438E3,2.2488008E3,1.1743511E3,2.0120039E3,1.2385742E2,1.8111914E2,2.5372559E2,3.572229E2,1.1243434E2,2.2904688E2,3.133203E2,2.59375E1,0E0,0E0,0E0,4.727539E0,4.4945312E1,8.6936035E1,3.6196045E1,7.933063E1,6.127968E1,3.3405945E1,1.9022705E1,1.7050049E1,4.3874023E1,0E0,0E0,0E0,0E0,0E0,0E0,0E0,0E0,0E0,0E0,0E0,0E0,0E0,0E0,0E0,0E0,0E0,0E0,0E0,0E0,0E0,0E0,0E0],"parents":[2147483647,0,0,1,1,2,2,3,3,4,4,5,5,6,6,7,7,8,8,9,9,10,10,11,11,12,12,13,13,14,14,18,18,19,19,20,20,21,21,22,22,23,23,24,24,25,25,26,26,27,27],"right_children":[2,4,6,8,10,12,14,16,18,20,22,24,26,28,30,-1,-1,-1,32,34,36,38,40,42,44,46,48,50,-1,-1,-1,-1,-1,-1,-1,-1,-1,-1,-1,-1,-1,-1,-1,-1,-1,-1,-1,-1,-1,-1,-1],"split_conditions":[7.2E0,-1E0,1.34E1,-5.7E0,3E0,9.8E0,1.88E1,-8.8E0,-3.4E0,1.4E0,4.4E0,8.6E0,1.19E1,1.55E1,2.02E1,-1.619827E-1,-1.2827533E-1,-1.06612965E-1,5.8E0,8.6E-1,2.7E-1,1E-1,1.36E1,1.014E0,1.2E-1,1.08E1,9.995E-1,1.31E1,8.851509E-2,1.11087434E-1,1.3362727E-1,-7.5751014E-2,-9.075001E-2,-6.747266E-2,-3.93299E-2,-5.28766E-2,-3.3083905E-2,-4.69625E-2,-3.3575006E-2,-1.4942265E-2,-3.154431E-2,-2.7290892E-3,1.1824502E-2,1.3404793E-2,2.6668647E-2,3.0591676E-2,3.8727008E-2,3.6847748E-2,5.434478E-2,7.284517E-2,5.1666737E-2],"split_indices":[8,8,8,8,8,8,8,8,8,8,8,8,8,8,8,0,0,0,2,6,6,5,2,4,6,8,4,2,0,0,0,0,0,0,0,0,0,0,0,0,0,0,0,0,0,0,0,0,0,0,0],"split_type":[0,0,0,0,0,0,0,0,0,0,0,0,0,0,0,0,0,0,0,0,0,0,0,0,0,0,0,0,0,0,0,0,0,0,0,0,0,0,0,0,0,0,0,0,0,0,0,0,0,0,0],"sum_hessian":[2.33E3,1.17E3,1.16E3,3.94E2,7.76E2,5.21E2,6.39E2,1.19E2,2.75E2,3.96E2,3.8E2,1.98E2,3.23E2,4.95E2,1.44E2,4.7E1,7.2E1,1.13E2,1.62E2,2.24E2,1.72E2,1.37E2,2.43E2,1.14E2,8.4E1,1.9E2,1.33E2,2.03E2,2.92E2,6.3E1,8.1E1,5.2E1,1.1E2,2.13E2,1.1E1,1.37E2,3.5E1,3.9E1,9.8E1,2.09E2,3.4E1,5.6E1,5.8E1,4.4E1,4E1,9.6E1,9.4E1,1.6E1,1.17E2,1.8E2,2.3E1],"tree_param":{"num_deleted":"0","num_feature":"11","num_nodes":"51","size_leaf_vector":"1"}},{"base_weights":[3.3241183E-2,-5.97305E0,6.9063106E0,-1.0080373E1,-3.2577405E0,3.8204453E0,9.354276E0,-1.4299106E1,-8.600808E0,-4.904628E0,-1.141546E0,2.706192E0,5.1287174E0,8.481702E0,1.257775E-1,-1.5580109E-1,-1.2835993E-1,-1.0579076E-1,-7.8660355E0,-6.164283E0,-4.359455E0,-1.8917886E0,-2.931217E-2,1.8488947E0,3.272591E0,3.911007E-2,5.3596573E0,7.8780375E0,9.628227E-2,-6.959511E-2,-8.365486E-2,-6.859037E-2,-5.537863E-2,-4.822905E-2,-3.6786567E-2,-2.1875968E-2,-1.1782333E-2,-7.3248926E-3,4.682477E-3,1.9489123E-2,-1.4288805E-3,2.981243E-2,3.6922496E-2,4.7499318E-2,5.7664063E-2,7.164852E-2,8.258686E-2],"categories":[],"categories_nodes":[],"categories_segments":[],"categories_sizes":[],"default_left":[0,0,0,0,0,0,0,0,0,0,0,0,0,0,0,0,0,0,0,0,0,0,0,0,0,0,0,0,0,0,0,0,0,0,0,0,0,0,0,0,0,0,0,0,0,0,0],"id":4,"left_children":[1,3,5,7,9,11,13,15,17,19,21,23,25,27,-1,-1,-1,-1,29,31,33,35,37,39,41,-1,43,45,-1,-1,-1,-1,-1,-1,-1,-1,-1,-1,-1,-1,-1,-1,-1,-1,-1,-1,-1],"loss_changes":[9.631017E4,1.3850879E4,8.181801E3,2.9644648E3,2.6111328E3,6.894292E2,1.5957227E3,3.520508E1,4.513125E2,2.61875E2,2.7511926E2,1.211427E2,4.0260254E1,2.5461719E2,0E0,0E0,0E0,0E0,6.3851562E1,1.5176758E1,7.543213E1,3.8667725E1,4.7252354E1,2.1774933E1,7.520996E0,0E0,1.694336E1,2.6158203E1,0E0,0E0,0E0,0E0,0E0,0E0,0E0,0E0,0E0,0E0,0E0,0E0,0E0,0E0,0E0,0E0,0E0,0E0,0E0],"parents":[2147483647,0,0,1,1,2,2,3,3,4,4,5,5,6,6,7,7,8,8,9,9,10,10,11,11,12,12,13,13,18,18,19,19,20,20,21,21,22,22,23,23,24,24,26,26,27,27],"right_children":[2,4,6,8,10,12,14,16,18,20,22,24,26,28,-1,-1,-1,-1,30,32,34,36,38,40,42,-1,44,46,-1,-1,-1,-1,-1,-1,-1,-1,-1,-1,-1,-1,-1,-1,-1,-1,-1,-1,-1],"split_conditions":[8.4E0,4E-1,1.38E1,-5.7E0,4.4E0,1.15E1,1.9E1,-8.3E0,-3.4E0,1.4E0,6.7E0,9.8E0,1.19E1,1.69E1,1.257775E-1,-1.5580109E-1,-1.2835993E-1,-1.0579076E-1,6.4E0,7E0,3E0,6E0,6.8E-1,1.62E1,1.08E1,3.911007E-2,6.7E-1,1.51E1,9.628227E-2,-6.959511E-2,-8.365486E-2,-6.859037E-2,-5.537863E-2,-4.822905E-2,-3.6786567E-2,-2.1875968E-2,-1.1782333E-2,-7.3248926E-3,4.682477E-3,1.9489123E-2,-1.4288805E-3,2.981243E-2,3.6922496E-2,4.7499318E-2,5.7664063E-2,7.164852E-2,8.258686E-2],"split_indices":[8,8,8,8,8,8,8,8,8,8,8,8,8,8,0,0,0,0,2,0,8,8,3,2,8,0,3,8,0,0,0,0,0,0,0,0,0,0,0,0,0,0,0,0,0,0,0],"split_type":[0,0,0,0,0,0,0,0,0,0,0,0,0,0,0,0,0,0,0,0,0,0,0,0,0,0,0,0,0,0,0,0,0,0,0,0,0,0,0,0,0,0,0,0,0,0,0],"sum_hessian":[2.331E3,1.244E3,1.087E3,4.94E2,7.5E2,4.82E2,6.05E2,1.26E2,3.68E2,4.21E2,3.29E2,2.62E2,2.2E2,4.79E2,1.26E2,6.2E1,6.4E1,9.6E1,2.72E2,1.24E2,2.97E2,1.96E2,1.33E2,1.06E2,1.56E2,3.8E1,1.82E2,3.19E2,1.6E2,1.02E2,1.7E2,5.4E1,7E1,1.73E2,1.24E2,1.37E2,5.9E1,5.5E1,7.8E1,1.01E2,5E0,9.7E1,5.9E1,7.8E1,1.04E2,1.18E2,2.01E2],"tree_param":{"num_deleted":"0","num_feature":"11","num_nodes":"47","size_leaf_vector":"1"}},{"base_weights":[7.446796E-3,-6.3978667E0,6.347755E0,-1.1084774E1,-4.364848E0,3.0270379E0,9.111882E0,-1.4273872E1,-9.523349E0,-5.9612637E0,-2.4577005E0,1.0740601E0,4.0057025E0,8.223553E0,1.259379E1,-1.5699178E-1,-1.2997906E-1,-1.0552789E1,-8.711943E0,-6.7377977E0,-4.7169986E0,-3.6239598E0,-1.5391022E0,5.228248E-1,1.9597921E0,3.2771788E0,5.0649166E0,7.0487967E0,8.962616E0,1.13516845E-1,1.371327E-1,-1.0979807E-1,-8.269374E-2,-7.203205E-2,-9.109E-2,-6.049797E-2,-7.284717E-2,-5.828158E-2,-4.3070138E-2,-3.723889E-2,-8.364164E-3,-2.1501707E-2,-8.887703E-3,-4.3576444E-3,1.0156536E-2,2.8989794E-2,1.203907E-2,2.9084925E-2,3.7028577E-2,3.2608792E-2,5.146324E-2,7.205251E-2,5.3375363E-2,8.361017E-2,9.5441714E-2],"categories":[],"categories_nodes":[],"categories_segments":[],"categories_sizes":[],"default_left":[0,0,0,0,0,0,0,0,0,0,0,0,0,0,0,0,0,0,0,0,0,0,0,0,0,0,0,0,0,0,0,0,0,0,0,0,0,0,0,0,0,0,0,0,0,0,0,0,0,0,0,0,0,0,0],"id":5,"left_children":[1,3,5,7,9,11,13,15,17,19,21,23,25,27,29,-1,-1,31,33,35,37,39,41,43,45,47,49,51,53,-1,-1,-1,-1,-1,-1,-1,-1,-1,-1,-1,-1,-1,-1,-1,-1,-1,-1,-1,-1,-1,-1,-1,-1,-1,-1],"loss_changes":[9.54374E4,1.1088969E4,1.0811473E4,1.6194609E3,2.4719453E3,1.0234751E3,1.8862969E3,4.0039062E-1,1.06609375E2,3.960713E2,3.945808E2,8.709976E1,2.5882275E2,3.8322266E2,2.1203125E1,0E0,0E0,5.760742E0,1.6623047E1,5.656836E1,5.31521E1,4.2113037E1,8.163602E1,5.3884064E1,4.5083923E1,2.2311768E1,3.5256348E0,1.4905273E1,2.7917969E1,0E0,0E0,0E0,0E0,0E0,0E0,0E0,0E0,0E0,0E0,0E0,0E0,0E0,0E0,0E0,0E0,0E0,0E0,0E0,0E0,0E0,0E0,0E0,0E0,0E0,0E0],"parents":[2147483647,0,0,1,1,2,2,3,3,4,4,5,5,6,6,7,7,8,8,9,9,10,10,11,11,12,12,13,13,14,14,17,17,18,18,19,19,20,20,21,21,22,22,23,23,24,24,25,25,26,26,27,27,28,28],"right_children":[2,4,6,8,10,12,14,16,18,20,22,24,26,28,30,-1,-1,32,34,36,38,40,42,44,46,48,50,52,54,-1,-1,-1,-1,-1,-1,-1,-1,-1,-1,-1,-1,-1,-1,-1,-1,-1,-1,-1,-1,-1,-1,-1,-1,-1,-1],"split_conditions":[7.2E0,-1.5E0,1.34E1,-5.7E0,3E0,9.4E0,1.9E1,-8.8E0,-3.4E0,1.4E0,4.7E0,8.6E0,1.19E1,1.55E1,2.1E1,-1.5699178E-1,-1.2997906E-1,9E-1,-6.4E0,2E0,5E0,1.27E1,6E0,6.3E-1,1.7E0,1.08E1,9.962E-1,4.4E0,1.7E1,1.13516845E-1,1.371327E-1,-1.0979807E-1,-8.269374E-2,-7.203205E-2,-9.109E-2,-6.049797E-2,-7.284717E-2,-5.828158E-2,-4.3070138E-2,-3.723889E-2,-8.364164E-3,-2.1501707E-2,-8.887703E-3,-4.3576444E-3,1.0156536E-2,2.8989794E-2,1.203907E-2,2.9084925E-2,3.7028577E-2,3.2608792E-2,5.146324E-2,7.205251E-2,5.3375363E-2,8.361017E-2,9.5441714E-2],"split_indices":[8,8,8,8,8,8,8,8,8,8,8,8,8,8,8,0,0,3,9,1,0,7,8,3,7,8,4,1,8,0,0,0,0,0,0,0,0,0,0,0,0,0,0,0,0,0,0,0,0,0,0,0,0,0,0],"split_type":[0,0,0,0,0,0,0,0,0,0,0,0,0,0,0,0,0,0,0,0,0,0,0,0,0,0,0,0,0,0,0,0,0,0,0,0,0,0,0,0,0,0,0,0,0,0,0,0,0,0,0,0,0,0,0],"sum_hessian":[2.348E3,1.168E3,1.18E3,3.52E2,8.16E2,5.37E2,6.43E2,1.13E2,2.39E2,4.43E2,3.73E2,1.8E2,3.57E2,5.15E2,1.28E2,4.8E1,6.5E1,1E2,1.39E2,2.7E2,1.73E2,1.63E2,2.1E2,1.12E2,6.8E1,2.14E2,1.43E2,2.03E2,3.12E2,6.6E1,6.2E1,8.1E1,1.9E1,3.3E1,1.06E2,1.25E2,1.45E2,4.3E1,1.3E2,1.57E2,6E0,1.07E2,1.03E2,3.8E1,7.4E1,2.9E1,3.9E1,1.19E2,9.5E1,8E0,1.35E2,1.83E2,2E1,1.61E2,1.51E2],"tree_param":{"num_deleted":"0","num_feature":"11","num_nodes":"55","size_leaf_vector":"1"}},{"base_weights":[6.713036E-2,-6.3426304E0,6.25239E0,-1.0808891E1,-4.152886E0,3.2189064E0,9.0988865E0,-1.4577143E1,-9.392151E0,-6.017015E0,-2.4991174E0,1.4340205E0,4.5028653E0,8.209048E0,1.2281311E1,-1.5020937E-1,-8.9821376E-2,-1.0949075E1,-8.446653E0,-6.5208526E0,-4.971897E0,-3.6118233E0,-1.520057E0,3.061784E-1,2.1456125E0,3.5332355E0,5.2390337E0,7.442991E0,9.108566E-2,1.1072224E-1,1.3374324E-1,-1.1417217E-1,-8.7232284E-2,-6.7919716E-2,-8.8319816E-2,-5.852742E-2,-7.103927E-2,-5.247873E-2,-3.4618318E-2,-4.5196343E-2,-3.1573076E-2,-2.2871034E-2,-1.0174606E-2,-9.135068E-3,7.73683E-3,1.6817113E-2,2.678821E-2,3.715262E-2,2.4262125E-2,4.56497E-2,5.647489E-2,7.539049E-2,4.7571596E-2],"categories":[],"categories_nodes":[],"categories_segments":[],"categories_sizes":[],"default_left":[0,0,0,0,0,0,0,0,0,0,0,0,0,0,0,0,0,0,0,0,0,0,0,0,0,0,0,0,0,0,0,0,0,0,0,0,0,0,0,0,0,0,0,0,0,0,0,0,0,0,0,0,0],"id":6,"left_children":[1,3,5,7,9,11,13,15,17,19,21,23,25,27,29,-1,-1,31,33,35,37,39,41,43,45,47,49,51,-1,-1,-1,-1,-1,-1,-1,-1,-1,-1,-1,-1,-1,-1,-1,-1,-1,-1,-1,-1,-1,-1,-1,-1,-1],"loss_changes":[9.340606E4,1.1269043E4,1.0322609E4,1.8893711E3,2.3825586E3,1.326731E3,1.6472148E3,1.15947266E2,3.1628516E2,1.586289E2,4.45011E2,1.9572589E2,2.2187988E2,2.654453E2,2.5240234E1,0E0,0E0,4.676758E0,5.194336E1,5.179004E1,3.2220947E1,6.459668E1,8.292682E1,5.54328E1,3.2162354E1,2.0396484E1,2.5509766E1,3.204883E1,0E0,0E0,0E0,0E0,0E0,0E0,0E0,0E0,0E0,0E0,0E0,0E0,0E0,0E0,0E0,0E0,0E0,0E0,0E0,0E0,0E0,0E0,0E0,0E0,0E0],"parents":[2147483647,0,0,1,1,2,2,3,3,4,4,5,5,6,6,7,7,8,8,9,9,10,10,11,11,12,12,13,13,14,14,17,17,18,18,19,19,20,20,21,21,22,22,23,23,24,24,25,25,26,26,27,27],"right_children":[2,4,6,8,10,12,14,16,18,20,22,24,26,28,30,-1,-1,32,34,36,38,40,42,44,46,48,50,52,-1,-1,-1,-1,-1,-1,-1,-1,-1,-1,-1,-1,-1,-1,-1,-1,-1,-1,-1,-1,-1,-1,-1,-1,-1],"split_conditions":[7.2E0,-1E0,1.38E1,-6.5E0,2.6E0,1.03E1,1.9E1,2.2E-1,-3.7E0,1.4E0,4.7E0,8.4E0,1.19E1,1.63E1,2.08E1,-1.5020937E-1,-8.9821376E-2,9E-1,1.2E0,2.1E0,4.4E-1,7E-1,1.0046E0,6.3E-1,1E-1,8.7E-1,6E0,4.9E0,9.108566E-2,1.1072224E-1,1.3374324E-1,-1.1417217E-1,-8.7232284E-2,-6.7919716E-2,-8.8319816E-2,-5.852742E-2,-7.103927E-2,-5.247873E-2,-3.4618318E-2,-4.5196343E-2,-3.1573076E-2,-2.2871034E-2,-1.0174606E-2,-9.135068E-3,7.73683E-3,1.6817113E-2,2.678821E-2,3.715262E-2,2.4262125E-2,4.56497E-2,5.647489E-2,7.539049E-2,4.7571596E-2],"split_indices":[8,8,8,8,8,8,8,6,8,8,8,8,8,8,8,0,0,3,1,1,6,3,4,3,6,3,0,1,0,0,0,0,0,0,0,0,0,0,0,0,0,0,0,0,0,0,0,0,0,0,0,0,0],"split_type":[0,0,0,0,0,0,0,0,0,0,0,0,0,0,0,0,0,0,0,0,0,0,0,0,0,0,0,0,0,0,0,0,0,0,0,0,0,0,0,0,0,0,0,0,0,0,0,0,0,0,0,0,0],"sum_hessian":[2.354E3,1.156E3,1.198E3,3.79E2,7.77E2,5.81E2,6.17E2,1.01E2,2.78E2,3.64E2,4.13E2,2.44E2,3.37E2,4.85E2,1.32E2,9.2E1,9E0,1.01E2,1.77E2,2.42E2,1.22E2,1.92E2,2.21E2,9.5E1,1.49E2,1.48E2,1.89E2,2.67E2,2.18E2,6.8E1,6.4E1,8E1,2.1E1,3.7E1,1.4E2,1.18E2,1.24E2,1.01E2,2.1E1,6.1E1,1.31E2,8.6E1,1.35E2,2.6E1,6.9E1,8.2E1,6.7E1,1.25E2,2.3E1,7.6E1,1.13E2,2.56E2,1.1E1],"tree_param":{"num_deleted":"0","num_feature":"11","num_nodes":"53","size_leaf_vector":"1"}},{"base_weights":[-1.7044635E-1,-6.3109374E0,6.1626654E0,-1.1106059E1,-4.3819103E0,2.8923702E0,8.79065E0,-1.4043732E-1,-9.473529E0,-6.1212687E0,-2.6028912E0,1.3340578E0,4.267809E0,7.8981223E0,1.1895621E1,-1.04146875E-1,-8.638176E0,-6.8329954E0,-5.056765E0,-3.80485E0,-1.7199007E0,2.950387E-1,2.1826143E0,3.4400651E0,4.8884716E0,6.9115877E0,8.763297E0,1.0745765E-1,1.3206978E-1,-7.112374E-2,-9.1630705E-2,-6.0264133E-2,-7.279191E-2,-5.4856792E-2,-4.5140445E-2,-5.0630126E-2,-3.602386E-2,-2.2475993E-2,-8.6753545E-3,-1.1989654E-2,6.6215163E-3,2.8671099E-2,1.907875E-2,2.716184E-2,3.629766E-2,3.8078867E-2,5.0307773E-2,7.169242E-2,5.650722E-2,6.05288E-2,8.8692084E-2],"categories":[],"categories_nodes":[],"categories_segments":[],"categories_sizes":[],"default_left":[0,0,0,0,0,0,0,0,0,0,0,0,0,0,0,0,0,0,0,0,0,0,0,0,0,0,0,0,0,0,0,0,0,0,0,0,0,0,0,0,0,0,0,0,0,0,0,0,0,0,0],"id":7,"left_children":[1,3,5,7,9,11,13,-1,15,17,19,21,23,25,27,-1,29,31,33,35,37,39,41,43,45,47,49,-1,-1,-1,-1,-1,-1,-1,-1,-1,-1,-1,-1,-1,-1,-1,-1,-1,-1,-1,-1,-1,-1,-1,-1],"loss_changes":[9.0687805E4,1.09016875E4,9.839648E3,1.4903984E3,2.6010166E3,1.093292E3,1.6665977E3,0E0,8.188086E1,2.8776855E2,4.3865723E2,2.1247159E2,1.2209082E2,3.620664E2,6.678906E1,0E0,3.1710938E1,4.585547E1,1.4974121E1,2.5982178E1,1.07487854E2,6.1071724E1,1.9064087E1,5.9848633E0,3.4865723E0,3.520117E1,1.9748047E1,0E0,0E0,0E0,0E0,0E0,0E0,0E0,0E0,0E0,0E0,0E0,0E0,0E0,0E0,0E0,0E0,0E0,0E0,0E0,0E0,0E0,0E0,0E0,0E0],"parents":[2147483647,0,0,1,1,2,2,3,3,4,4,5,5,6,6,8,8,9,9,10,10,11,11,12,12,13,13,14,14,16,16,17,17,18,18,19,19,20,20,21,21,22,22,23,23,24,24,25,25,26,26],"right_children":[2,4,6,8,10,12,14,-1,16,18,20,22,24,26,28,-1,30,32,34,36,38,40,42,44,46,48,50,-1,-1,-1,-1,-1,-1,-1,-1,-1,-1,-1,-1,-1,-1,-1,-1,-1,-1,-1,-1,-1,-1,-1,-1],"split_conditions":[7.2E0,-1.8E0,1.34E1,-6E0,2.6E0,1.03E1,1.88E1,-1.4043732E-1,-3.6E0,9E-1,4.4E0,8.6E0,1.17E1,1.58E1,2.1E1,-1.04146875E-1,-6.6E0,-2.9E0,1.8E0,3E0,6E0,1.0052E0,1E-1,1.0048E0,3.6E-1,3.8E0,9.973E-1,1.0745765E-1,1.3206978E-1,-7.112374E-2,-9.1630705E-2,-6.0264133E-2,-7.279191E-2,-5.4856792E-2,-4.5140445E-2,-5.0630126E-2,-3.602386E-2,-2.2475993E-2,-8.6753545E-3,-1.1989654E-2,6.6215163E-3,2.8671099E-2,1.907875E-2,2.716184E-2,3.629766E-2,3.8078867E-2,5.0307773E-2,7.169242E-2,5.650722E-2,6.05288E-2,8.8692084E-2],"split_indices":[8,8,8,8,8,8,8,0,8,8,8,8,8,8,8,0,9,9,8,0,8,4,7,4,5,1,4,0,0,0,0,0,0,0,0,0,0,0,0,0,0,0,0,0,0,0,0,0,0,0,0],"split_type":[0,0,0,0,0,0,0,0,0,0,0,0,0,0,0,0,0,0,0,0,0,0,0,0,0,0,0,0,0,0,0,0,0,0,0,0,0,0,0,0,0,0,0,0,0,0,0,0,0,0,0],"sum_hessian":[2.33E3,1.183E3,1.147E3,3.38E2,8.45E2,5.12E2,6.35E2,1.18E2,2.2E2,4.26E2,4.19E2,2.41E2,2.71E2,4.96E2,1.39E2,9.8E1,1.22E2,2.52E2,1.74E2,1.76E2,2.43E2,1.09E2,1.32E2,1.19E2,1.52E2,2.36E2,2.6E2,7.9E1,6E1,3.5E1,8.7E1,9.5E1,1.57E2,9.2E1,8.2E1,2.1E1,1.55E2,1.49E2,9.4E1,2.1E1,8.8E1,3.5E1,9.7E1,2.8E1,9.1E1,2.1E1,1.31E2,1.92E2,4.4E1,1.2E1,2.48E2],"tree_param":{"num_deleted":"0","num_feature":"11","num_nodes":"51","size_leaf_vector":"1"}},{"base_weights":[-4.5616254E-2,-6.203783E0,6.247432E0,-1.0517767E1,-4.0718293E0,3.1523404E0,9.082168E0,-1.3546178E1,-9.128259E0,-5.620707E0,-2.375526E0,1.6492292E0,4.687943E0,8.125568E0,1.1994196E1,-1.4106838E-1,-9.346517E-2,-1.0302779E1,-8.385621E0,-6.3724394E0,-4.6516743E0,-3.4337008E0,-1.5802318E0,4.7305822E-1,2.439338E0,3.72051E0,5.1269927E0,7.160578E0,8.763387E0,1.0929596E-1,1.3169244E-1,-8.8816516E-2,-1.1152513E-1,-7.012696E-2,-8.716573E-2,-5.665483E-2,-7.010819E-2,-4.9575344E-2,-3.359532E-2,-3.9028153E-2,-2.4910092E-2,-1.3134114E-2,-3.1874046E-2,-1.4124393E-2,7.996603E-3,1.6335309E-2,2.7916927E-2,1.7381085E-2,3.8431477E-2,5.5658735E-2,4.49111E-2,7.3274165E-2,4.7745798E-2,5.7636723E-2,8.8453E-2],"categories":[],"categories_nodes":[],"categories_segments":[],"categories_sizes":[],"default_left":[0,0,0,0,0,0,0,0,0,0,0,0,0,0,0,0,0,0,0,0,0,0,0,0,0,0,0,0,0,0,0,0,0,0,0,0,0,0,0,0,0,0,0,0,0,0,0,0,0,0,0,0,0,0,0],"id":8,"left_children":[1,3,5,7,9,11,13,15,17,19,21,23,25,27,29,-1,-1,31,33,35,37,39,41,43,45,47,49,51,53,-1,-1,-1,-1,-1,-1,-1,-1,-1,-1,-1,-1,-1,-1,-1,-1,-1,-1,-1,-1,-1,-1,-1,-1,-1,-1],"loss_changes":[8.940466E4,1.067966E4,9.981012E3,1.4941602E3,2.0404492E3,1.2542095E3,1.5579883E3,1.4600195E2,1.44625E2,2.6646484E2,3.096577E2,2.5690118E2,9.472266E1,2.1324219E2,3.504297E1,0E0,0E0,1.849414E1,1.4088867E1,6.1458984E1,5.4442383E1,6.0395752E1,8.799011E1,7.0654434E1,4.212964E1,1.4156372E1,2.506836E1,3.7448242E1,1.31640625E1,0E0,0E0,0E0,0E0,0E0,0E0,0E0,0E0,0E0,0E0,0E0,0E0,0E0,0E0,0E0,0E0,0E0,0E0,0E0,0E0,0E0,0E0,0E0,0E0,0E0,0E0],"parents":[2147483647,0,0,1,1,2,2,3,3,4,4,5,5,6,6,7,7,8,8,9,9,10,10,11,11,12,12,13,13,14,14,17,17,18,18,19,19,20,20,21,21,22,22,23,23,24,24,25,25,26,26,27,27,28,28],"right_children":[2,4,6,8,10,12,14,16,18,20,22,24,26,28,30,-1,-1,32,34,36,38,40,42,44,46,48,50,52,54,-1,-1,-1,-1,-1,-1,-1,-1,-1,-1,-1,-1,-1,-1,-1,-1,-1,-1,-1,-1,-1,-1,-1,-1,-1,-1],"split_conditions":[7.2E0,-1E0,1.38E1,-5.7E0,3E0,1.08E1,1.88E1,1.4E-1,-3.4E0,1.4E0,4.7E0,8.6E0,1.19E1,1.58E1,2.08E1,-1.4106838E-1,-9.346517E-2,5.9E0,1.2E0,2E0,2.7E-1,5E-2,1.35E1,9.986E-1,9.4E0,6.3E0,6.4E0,1.3E1,9.973E-1,1.0929596E-1,1.3169244E-1,-8.8816516E-2,-1.1152513E-1,-7.012696E-2,-8.716573E-2,-5.665483E-2,-7.010819E-2,-4.9575344E-2,-3.359532E-2,-3.9028153E-2,-2.4910092E-2,-1.3134114E-2,-3.1874046E-2,-1.4124393E-2,7.996603E-3,1.6335309E-2,2.7916927E-2,1.7381085E-2,3.8431477E-2,5.5658735E-2,4.49111E-2,7.3274165E-2,4.7745798E-2,5.7636723E-2,8.8453E-2],"split_indices":[8,8,8,8,8,8,8,6,8,8,8,8,8,8,8,0,0,2,1,1,6,6,2,4,8,2,7,2,4,0,0,0,0,0,0,0,0,0,0,0,0,0,0,0,0,0,0,0,0,0,0,0,0,0,0],"split_type":[0,0,0,0,0,0,0,0,0,0,0,0,0,0,0,0,0,0,0,0,0,0,0,0,0,0,0,0,0,0,0,0,0,0,0,0,0,0,0,0,0,0,0,0,0,0,0,0,0,0,0,0,0,0,0],"sum_hessian":[2.305E3,1.165E3,1.14E3,3.84E2,7.81E2,5.46E2,5.94E2,1.18E2,2.66E2,4.07E2,3.74E2,2.77E2,2.69E2,4.5E2,1.44E2,1.02E2,1.6E1,9.8E1,1.68E2,2.26E2,1.81E2,1.59E2,2.15E2,1.12E2,1.65E2,8.7E1,1.82E2,1.84E2,2.66E2,8.1E1,6.3E1,4.1E1,5.7E1,3.7E1,1.31E2,1.12E2,1.14E2,1.44E2,3.7E1,1.04E2,5.5E1,1.86E2,2.9E1,1.6E1,9.6E1,5.2E1,1.13E2,6E0,8.1E1,1.03E2,7.9E1,1.7E2,1.4E1,9E0,2.57E2],"tree_param":{"num_deleted":"0","num_feature":"11","num_nodes":"55","size_leaf_vector":"1"}},{"base_weights":[7.981764E-2,-5.5892E0,6.58072E0,-9.024738E0,-2.816025E0,3.822755E0,9.011954E0,-1.2087603E1,-7.3902826E0,-4.3632836E0,-1.14606E0,2.771291E0,5.296121E0,8.165149E0,1.19187094E-1,-1.4349803E1,-1.0790593E-1,-8.16619E0,-6.511844E0,-4.8017077E0,-3.5364146E0,-2.224054E0,-3.185409E-1,2.056849E0,3.4487715E0,4.7131763E0,5.6547384E0,7.330745E-2,8.928572E-2,-1.4893481E-1,-6.232865E-2,-6.758067E-2,-8.467162E-2,-6.649426E-2,-3.5117634E-2,-5.088273E-2,-3.5115093E-2,-4.285523E-2,-3.191226E-2,-2.9929785E-2,-1.4848633E-2,-1.0197638E-2,6.1631325E-4,1.5433896E-2,2.5419287E-2,2.9074494E-2,3.7501313E-2,5.152717E-2,4.026248E-2,5.0780125E-2,6.349177E-2],"categories":[],"categories_nodes":[],"categories_segments":[],"categories_sizes":[],"default_left":[0,0,0,0,0,0,0,0,0,0,0,0,0,0,0,0,0,0,0,0,0,0,0,0,0,0,0,0,0,0,0,0,0,0,0,0,0,0,0,0,0,0,0,0,0,0,0,0,0,0,0],"id":9,"left_children":[1,3,5,7,9,11,13,15,17,19,21,23,25,27,-1,29,-1,31,33,35,37,39,41,43,45,47,49,-1,-1,-1,-1,-1,-1,-1,-1,-1,-1,-1,-1,-1,-1,-1,-1,-1,-1,-1,-1,-1,-1,-1,-1],"loss_changes":[8.734336E4,1.2035027E4,7.366871E3,2.7371797E3,1.8083242E3,7.885464E2,1.3430898E3,4.1479102E2,1.9822461E2,1.1414209E2,3.014459E2,1.3998193E2,1.72583E1,2.240332E2,0E0,2.0514453E2,0E0,2.3050781E1,4.9516113E1,6.815869E1,1.9192139E1,7.866022E1,5.1609657E1,3.327765E1,1.3716553E1,4.906006E0,1.7880127E1,0E0,0E0,0E0,0E0,0E0,0E0,0E0,0E0,0E0,0E0,0E0,0E0,0E0,0E0,0E0,0E0,0E0,0E0,0E0,0E0,0E0,0E0,0E0,0E0],"parents":[2147483647,0,0,1,1,2,2,3,3,4,4,5,5,6,6,7,7,8,8,9,9,10,10,11,11,12,12,13,13,15,15,17,17,18,18,19,19,20,20,21,21,22,22,23,23,24,24,25,25,26,26],"right_children":[2,4,6,8,10,12,14,16,18,20,22,24,26,28,-1,30,-1,32,34,36,38,40,42,44,46,48,50,-1,-1,-1,-1,-1,-1,-1,-1,-1,-1,-1,-1,-1,-1,-1,-1,-1,-1,-1,-1,-1,-1,-1,-1],"split_conditions":[8.4E0,9E-1,1.41E1,-3.7E0,4.4E0,1.19E1,1.9E1,-7.8E0,-1E0,3E0,6E0,1.03E1,6.6E-1,1.63E1,1.19187094E-1,1.9E-1,-1.0790593E-1,-6.4E0,8.6E-1,3.8E-1,1E-1,7E0,6.8E0,1E-1,6E0,8.2E0,1.31E1,7.330745E-2,8.928572E-2,-1.4893481E-1,-6.232865E-2,-6.758067E-2,-8.467162E-2,-6.649426E-2,-3.5117634E-2,-5.088273E-2,-3.5115093E-2,-4.285523E-2,-3.191226E-2,-2.9929785E-2,-1.4848633E-2,-1.0197638E-2,6.1631325E-4,1.5433896E-2,2.5419287E-2,2.9074494E-2,3.7501313E-2,5.152717E-2,4.026248E-2,5.0780125E-2,6.349177E-2],"split_indices":[8,8,8,8,8,8,8,8,8,8,8,8,3,8,0,6,0,9,6,6,5,0,8,6,0,9,8,0,0,0,0,0,0,0,0,0,0,0,0,0,0,0,0,0,0,0,0,0,0,0,0],"split_type":[0,0,0,0,0,0,0,0,0,0,0,0,0,0,0,0,0,0,0,0,0,0,0,0,0,0,0,0,0,0,0,0,0,0,0,0,0,0,0,0,0,0,0,0,0,0,0,0,0,0,0],"sum_hessian":[2.368E3,1.265E3,1.103E3,5.64E2,7.01E2,5.18E2,5.85E2,1.94E2,3.7E2,3.63E2,3.38E2,3.04E2,2.14E2,4.56E2,1.29E2,6.7E1,1.27E2,1.92E2,1.78E2,2.34E2,1.29E2,1.46E2,1.92E2,1.5E2,1.54E2,8.7E1,1.27E2,2.23E2,2.33E2,6.2E1,5E0,3.8E1,1.54E2,1.69E2,9E0,1.89E2,4.5E1,3.7E1,9.2E1,7E1,7.6E1,6.7E1,1.25E2,7.5E1,7.5E1,5.9E1,9.5E1,4.9E1,3.8E1,7.4E1,5.3E1],"tree_param":{"num_deleted":"0","num_feature":"11","num_nodes":"51","size_leaf_vector":"1"}},{"base_weights":[-1.5481444E-2,-5.8941293E0,6.1007175E0,-9.009606E0,-3.035721E0,3.18801E0,8.554903E0,-1.2415312E1,-7.4785576E0,-4.2237067E0,-9.215339E-1,1.0395273E0,4.151662E0,7.490359E0,1.1243153E1,-1.3880325E1,-1.0560664E1,-9.177756E0,-6.6976724E0,-4.8562503E0,-2.9916987E0,-2.885662E0,-2.8007162E-1,6.0849983E-2,2.7169092E0,3.631802E0,6.2520547E0,5.383724E0,7.8044224E0,1.0387656E-1,1.2843251E-1,-1.4371894E-1,-8.855583E-2,-5.749272E-2,-1.0800239E-1,-1.0727414E-1,-8.639667E-2,-8.2561135E-2,-6.0651507E-2,-6.467369E-2,-3.9498642E-2,-3.346898E-2,-1.4169267E-2,-3.931886E-2,-2.172623E-2,7.6920227E-3,-1.2005314E-2,-7.898344E-3,1.8384304E-2,1.8596933E-3,3.0457888E-2,2.7133694E-2,4.2332E-2,4.0614385E-2,6.7738324E-2,2.6771657E-2,5.7398617E-2,7.132018E-2,8.359548E-2],"categories":[],"categories_nodes":[],"categories_segments":[],"categories_sizes":[],"default_left":[0,0,0,0,0,0,0,0,0,0,0,0,0,0,0,0,0,0,0,0,0,0,0,0,0,0,0,0,0,0,0,0,0,0,0,0,0,0,0,0,0,0,0,0,0,0,0,0,0,0,0,0,0,0,0,0,0,0,0],"id":10,"left_children":[1,3,5,7,9,11,13,15,17,19,21,23,25,27,29,31,33,35,37,39,41,43,45,47,49,51,53,55,57,-1,-1,-1,-1,-1,-1,-1,-1,-1,-1,-1,-1,-1,-1,-1,-1,-1,-1,-1,-1,-1,-1,-1,-1,-1,-1,-1,-1,-1,-1],"loss_changes":[8.348744E4,1.0515328E4,8.1063477E3,2.856457E3,1.5502886E3,1.0759087E3,1.6796172E3,3.237422E2,4.5840625E2,2.9328906E2,2.81096E2,2.6714026E2,3.6939258E2,2.5108203E2,1.0108203E2,1.0258594E2,2.9620117E1,6.2783203E0,2.1760254E2,3.5308984E2,7.141333E1,3.1876984E1,1.6515504E2,1.5882156E2,4.9052826E1,1.4855127E2,5.141577E1,4.259021E1,8.253906E1,0E0,0E0,0E0,0E0,0E0,0E0,0E0,0E0,0E0,0E0,0E0,0E0,0E0,0E0,0E0,0E0,0E0,0E0,0E0,0E0,0E0,0E0,0E0,0E0,0E0,0E0,0E0,0E0,0E0,0E0],"parents":[2147483647,0,0,1,1,2,2,3,3,4,4,5,5,6,6,7,7,8,8,9,9,10,10,11,11,12,12,13,13,14,14,15,15,16,16,17,17,18,18,19,19,20,20,21,21,22,22,23,23,24,24,25,25,26,26,27,27,28,28],"right_children":[2,4,6,8,10,12,14,16,18,20,22,24,26,28,30,32,34,36,38,40,42,44,46,48,50,52,54,56,58,-1,-1,-1,-1,-1,-1,-1,-1,-1,-1,-1,-1,-1,-1,-1,-1,-1,-1,-1,-1,-1,-1,-1,-1,-1,-1,-1,-1,-1,-1],"split_conditions":[1.15E1,3.6E0,1.82E1,-1.9E0,2.2E0,5.6E0,2.36E1,-3.7E0,7.8E-1,7.3E0,7.2E0,1.46E1,1.14E1,8.3E0,2.67E1,2.2E-1,2.5E0,-3E-1,2E-1,5E0,3E-2,1.003E0,1E-1,6E0,1.1E0,1.45E1,1.57E1,4.7E0,1.22E1,1.0387656E-1,1.2843251E-1,-1.4371894E-1,-8.855583E-2,-5.749272E-2,-1.0800239E-1,-1.0727414E-1,-8.639667E-2,-8.2561135E-2,-6.0651507E-2,-6.467369E-2,-3.9498642E-2,-3.346898E-2,-1.4169267E-2,-3.931886E-2,-2.172623E-2,7.6920227E-3,-1.2005314E-2,-7.898344E-3,1.8384304E-2,1.8596933E-3,3.0457888E-2,2.7133694E-2,4.2332E-2,4.0614385E-2,6.7738324E-2,2.6771657E-2,5.7398617E-2,7.132018E-2,8.359548E-2],"split_indices":[10,10,10,10,9,9,10,10,3,10,10,10,9,9,10,6,2,10,10,0,6,4,7,0,9,10,10,9,9,0,0,0,0,0,0,0,0,0,0,0,0,0,0,0,0,0,0,0,0,0,0,0,0,0,0,0,0,0,0],"split_type":[0,0,0,0,0,0,0,0,0,0,0,0,0,0,0,0,0,0,0,0,0,0,0,0,0,0,0,0,0,0,0,0,0,0,0,0,0,0,0,0,0,0,0,0,0,0,0,0,0,0,0,0,0,0,0,0,0,0,0],"sum_hessian":[2.32E3,1.183E3,1.137E3,5.65E2,6.18E2,5.21E2,6.16E2,1.73E2,3.92E2,3.95E2,2.23E2,1.62E2,3.59E2,4.44E2,1.72E2,9.3E1,8E1,1.2E2,2.72E2,2.59E2,1.36E2,5.4E1,1.69E2,1.03E2,5.9E1,2.9E2,6.9E1,6E1,3.84E2,1.17E2,5.5E1,8.3E1,1E1,5E0,7.5E1,2.6E1,9.4E1,7.5E1,1.97E2,9.1E1,1.68E2,1.1E2,2.6E1,2E1,3.4E1,7.9E1,9E1,7E1,3.3E1,7E0,5.2E1,1.17E2,1.73E2,1.5E1,5.4E1,8E0,5.2E1,1.8E2,2.04E2],"tree_param":{"num_deleted":"0","num_feature":"11","num_nodes":"59","size_leaf_vector":"1"}},{"base_weights":[-3.4902308E-2,-5.6784945E0,6.104827E0,-8.874135E0,-2.973934E0,3.6885552E0,8.873543E0,-1.2017151E1,-7.3451796E0,-4.3020735E0,-1.2622966E0,2.3519392E0,5.418838E0,7.69539E0,1.1218839E1,-1.4271903E-1,-1.0846606E1,-6.414364E0,-8.625801E0,-4.882551E0,-2.8070254E0,-2.3929665E0,-1.899957E-1,1.0928192E0,3.5607862E0,4.7846966E0,7.088416E-2,6.788495E0,8.2412325E-2,1.0250835E-1,1.291378E-1,-5.7013616E-2,-1.1014041E-1,-7.576243E-2,-5.8363907E-2,-9.401567E-2,-7.2838746E-2,-5.9980568E-2,-4.103314E-2,-3.424375E-2,-1.9439325E-2,-3.3347934E-2,-1.5298694E-2,1.1398266E-2,-9.430909E-3,-1.9242889E-3,2.3366334E-2,2.4809395E-3,3.697557E-2,3.4465116E-2,5.2530587E-2,8.3536595E-2,6.25603E-2],"categories":[],"categories_nodes":[],"categories_segments":[],"categories_sizes":[],"default_left":[0,0,0,0,0,0,0,0,0,0,0,0,0,0,0,0,0,0,0,0,0,0,0,0,0,0,0,0,0,0,0,0,0,0,0,0,0,0,0,0,0,0,0,0,0,0,0,0,0,0,0,0,0],"id":11,"left_children":[1,3,5,7,9,11,13,15,17,19,21,23,25,27,29,-1,31,33,35,37,39,41,43,45,47,49,-1,51,-1,-1,-1,-1,-1,-1,-1,-1,-1,-1,-1,-1,-1,-1,-1,-1,-1,-1,-1,-1,-1,-1,-1,-1,-1],"loss_changes":[8.146242E4,1.0559859E4,7.498914E3,2.6056992E3,1.5057529E3,1.3810518E3,1.3596445E3,3.2303516E2,3.9613672E2,3.1009863E2,3.5331314E2,5.161958E2,2.4228906E2,1.1679883E2,1.4915039E2,0E0,4.236035E1,1.04865234E2,9.329297E1,2.0733496E2,4.9819336E1,1.0984186E2,1.522792E2,2.7082913E2,7.752417E1,1.0198926E2,0E0,6.128662E1,0E0,0E0,0E0,0E0,0E0,0E0,0E0,0E0,0E0,0E0,0E0,0E0,0E0,0E0,0E0,0E0,0E0,0E0,0E0,0E0,0E0,0E0,0E0,0E0,0E0],"parents":[2147483647,0,0,1,1,2,2,3,3,4,4,5,5,6,6,7,7,8,8,9,9,10,10,11,11,12,12,13,13,14,14,16,16,17,17,18,18,19,19,20,20,21,21,22,22,23,23,24,24,25,25,27,27],"right_children":[2,4,6,8,10,12,14,16,18,20,22,24,26,28,30,-1,32,34,36,38,40,42,44,46,48,50,-1,52,-1,-1,-1,-1,-1,-1,-1,-1,-1,-1,-1,-1,-1,-1,-1,-1,-1,-1,-1,-1,-1,-1,-1,-1,-1],"split_conditions":[1.18E1,3.6E0,1.93E1,-1.6E0,1.5E0,8.6E0,2.36E1,-5E0,5E-1,7.8E0,8.5E0,1.47E1,1.22E1,2.08E1,2.67E1,-1.4271903E-1,2.5E0,5E-1,1.9E0,5E0,9.3E0,1.0046E0,1E-1,6E0,1.1E0,1.46E1,7.088416E-2,3.1E0,8.2412325E-2,1.0250835E-1,1.291378E-1,-5.7013616E-2,-1.1014041E-1,-7.576243E-2,-5.8363907E-2,-9.401567E-2,-7.2838746E-2,-5.9980568E-2,-4.103314E-2,-3.424375E-2,-1.9439325E-2,-3.3347934E-2,-1.5298694E-2,1.1398266E-2,-9.430909E-3,-1.9242889E-3,2.3366334E-2,2.4809395E-3,3.697557E-2,3.4465116E-2,5.2530587E-2,8.3536595E-2,6.25603E-2],"split_indices":[10,10,10,10,9,9,10,10,7,10,10,10,9,10,10,0,2,10,10,0,10,4,7,0,9,10,0,7,0,0,0,0,0,0,0,0,0,0,0,0,0,0,0,0,0,0,0,0,0,0,0,0,0],"split_type":[0,0,0,0,0,0,0,0,0,0,0,0,0,0,0,0,0,0,0,0,0,0,0,0,0,0,0,0,0,0,0,0,0,0,0,0,0,0,0,0,0,0,0,0,0,0,0,0,0,0,0,0,0],"sum_hessian":[2.349E3,1.224E3,1.125E3,5.6E2,6.64E2,6.02E2,5.23E2,1.81E2,3.79E2,3.73E2,2.91E2,3.41E2,2.61E2,3.51E2,1.72E2,5.8E1,1.23E2,2.23E2,1.56E2,2.67E2,1.06E2,1.41E2,1.5E2,1.68E2,1.73E2,1.92E2,6.9E1,1.37E2,2.14E2,1.14E2,5.8E1,5E0,1.18E2,7E1,1.53E2,9.5E1,6.1E1,1.07E2,1.6E2,6E1,4.6E1,6.6E1,7.5E1,5.4E1,9.6E1,8.3E1,8.5E1,7E0,1.66E2,5.2E1,1.4E2,3.1E1,1.06E2],"tree_param":{"num_deleted":"0","num_feature":"11","num_nodes":"53","size_leaf_vector":"1"}},{"base_weights":[1.4425956E-3,-5.978607E0,5.795014E0,-1.0127073E1,-3.9793065E0,2.9809203E0,8.680808E0,-1.3458699E1,-8.753624E0,-4.969511E0,-1.5875968E0,1.3326068E0,4.2213883E0,7.701292E0,1.1572631E1,-1.3952762E1,-8.805268E-2,-1.0002943E-1,-7.9572816E0,-6.0667806E0,-4.0649123E0,-1.433965E0,-3.8373735E-2,4.0969133E-1,2.0497484E0,3.2944975E0,4.8439016E0,7.114431E0,8.754983E-2,1.0178603E-1,1.250691E-1,-1.5281282E-1,-1.2331474E-1,-6.948246E-2,-8.3734185E-2,-5.739296E-2,-7.518388E-2,-4.4072807E-2,-3.187199E-2,-1.8841548E-2,-6.591527E-3,-1.6196014E-2,7.792584E-3,1.7498897E-2,3.1024529E-2,2.9312825E-2,3.8073193E-2,3.7636526E-2,4.9538564E-2,7.1798444E-2,4.8053846E-2],"categories":[],"categories_nodes":[],"categories_segments":[],"categories_sizes":[],"default_left":[0,0,0,0,0,0,0,0,0,0,0,0,0,0,0,0,0,0,0,0,0,0,0,0,0,0,0,0,0,0,0,0,0,0,0,0,0,0,0,0,0,0,0,0,0,0,0,0,0,0,0],"id":12,"left_children":[1,3,5,7,9,11,13,15,17,19,21,23,25,27,29,31,-1,-1,33,35,37,39,-1,41,43,45,47,49,-1,-1,-1,-1,-1,-1,-1,-1,-1,-1,-1,-1,-1,-1,-1,-1,-1,-1,-1,-1,-1,-1,-1],"loss_changes":[8.089802E4,9.488133E3,9.60434E3,1.5867461E3,1.8316104E3,1.2247173E3,1.5660117E3,1.2086914E2,1.8424414E2,5.192578E2,7.3121155E1,1.7099817E2,1.8113916E2,2.0820898E2,6.058008E1,1.3421875E1,0E0,0E0,1.0830078E1,7.246777E1,7.654639E1,7.384732E1,0E0,8.742345E1,4.0172546E1,1.4429077E1,4.5961914E0,7.798828E0,0E0,0E0,0E0,0E0,0E0,0E0,0E0,0E0,0E0,0E0,0E0,0E0,0E0,0E0,0E0,0E0,0E0,0E0,0E0,0E0,0E0,0E0,0E0],"parents":[2147483647,0,0,1,1,2,2,3,3,4,4,5,5,6,6,7,7,8,8,9,9,10,10,11,11,12,12,13,13,14,14,15,15,18,18,19,19,20,20,21,21,23,23,24,24,25,25,26,26,27,27],"right_children":[2,4,6,8,10,12,14,16,18,20,22,24,26,28,30,32,-1,-1,34,36,38,40,-1,42,44,46,48,50,-1,-1,-1,-1,-1,-1,-1,-1,-1,-1,-1,-1,-1,-1,-1,-1,-1,-1,-1,-1,-1,-1,-1],"split_conditions":[7.2E0,-1.1E0,1.38E1,-6E0,4.4E0,1.03E1,1.88E1,1.5E-1,-3.6E0,1.4E0,1.74E1,8.6E0,1.17E1,1.67E1,2.04E1,-8.8E0,-8.805268E-2,-1.0002943E-1,5.8E0,1.23E1,1.6E-1,6E0,-3.8373735E-2,1.0044E0,6.9E-1,1.0147E0,3.6E-1,1.47E1,8.754983E-2,1.0178603E-1,1.250691E-1,-1.5281282E-1,-1.2331474E-1,-6.948246E-2,-8.3734185E-2,-5.739296E-2,-7.518388E-2,-4.4072807E-2,-3.187199E-2,-1.8841548E-2,-6.591527E-3,-1.6196014E-2,7.792584E-3,1.7498897E-2,3.1024529E-2,2.9312825E-2,3.8073193E-2,3.7636526E-2,4.9538564E-2,7.1798444E-2,4.8053846E-2],"split_indices":[8,8,8,8,8,8,8,6,8,8,2,8,8,8,8,8,0,0,2,2,6,8,0,4,6,4,5,2,0,0,0,0,0,0,0,0,0,0,0,0,0,0,0,0,0,0,0,0,0,0,0],"split_type":[0,0,0,0,0,0,0,0,0,0,0,0,0,0,0,0,0,0,0,0,0,0,0,0,0,0,0,0,0,0,0,0,0,0,0,0,0,0,0,0,0,0,0,0,0,0,0,0,0,0,0],"sum_hessian":[2.333E3,1.148E3,1.185E3,3.72E2,7.76E2,6.01E2,5.84E2,1.06E2,2.66E2,5.48E2,2.28E2,2.59E2,3.42E2,4.39E2,1.45E2,9.4E1,1.2E1,9.9E1,1.67E2,2.45E2,3.03E2,2.15E2,1.3E1,1.14E2,1.45E2,1.4E2,2.02E2,2.87E2,1.52E2,6.3E1,8.2E1,4.7E1,4.7E1,5.4E1,1.13E2,2.04E2,4.1E1,2.15E2,8.8E1,1.35E2,8E1,1.7E1,9.7E1,1.15E2,3E1,8.6E1,5.4E1,2.2E1,1.8E2,2.77E2,1E1],"tree_param":{"num_deleted":"0","num_feature":"11","num_nodes":"51","size_leaf_vector":"1"}},{"base_weights":[-1.1243031E-1,-5.950013E0,5.820779E0,-9.858645E0,-3.9149697E0,3.1427293E0,8.674449E0,-1.3000763E1,-8.51173E0,-4.9446497E0,-1.6039611E0,1.5684211E0,4.600307E0,7.765478E0,1.1351671E1,-1.3339582E-1,-8.859653E-2,-9.634692E0,-7.7820024E0,-6.063537E0,-4.092738E0,-1.4274508E0,-4.8450798E-2,4.217746E-1,2.276555E0,3.4848692E0,5.096683E0,6.8787622E0,8.302077E0,1.00670174E-1,1.2214923E-1,-8.277171E-2,-1.050677E-1,-6.3096434E-2,-8.0728866E-2,-4.9572013E-2,-6.5062694E-2,-4.3820217E-2,-3.267957E-2,-1.8809522E-2,-6.867245E-3,-4.204561E-4,1.1693476E-2,1.5581244E-2,2.691526E-2,3.6562648E-2,2.2746367E-2,4.6310995E-2,5.513699E-2,7.075792E-2,5.4222215E-2,8.4542155E-2,6.6155285E-2],"categories":[],"categories_nodes":[],"categories_segments":[],"categories_sizes":[],"default_left":[0,0,0,0,0,0,0,0,0,0,0,0,0,0,0,0,0,0,0,0,0,0,0,0,0,0,0,0,0,0,0,0,0,0,0,0,0,0,0,0,0,0,0,0,0,0,0,0,0,0,0,0,0],"id":13,"left_children":[1,3,5,7,9,11,13,15,17,19,21,23,25,27,29,-1,-1,31,33,35,37,39,-1,41,43,45,47,49,51,-1,-1,-1,-1,-1,-1,-1,-1,-1,-1,-1,-1,-1,-1,-1,-1,-1,-1,-1,-1,-1,-1,-1,-1],"loss_changes":[8.101268E4,9.33807E3,8.83659E3,1.5927539E3,1.8403623E3,1.3689736E3,1.2751406E3,4.6564453E1,1.5682617E2,4.8603223E2,1.3033063E2,2.3424402E2,1.5357422E2,1.4216797E2,3.00625E1,0E0,0E0,3.9012695E1,2.3860352E1,7.925781E1,5.8402344E1,7.571323E1,0E0,3.8996716E1,4.8746216E1,1.1625732E1,1.4805664E1,7.7353516E0,8.763672E0,0E0,0E0,0E0,0E0,0E0,0E0,0E0,0E0,0E0,0E0,0E0,0E0,0E0,0E0,0E0,0E0,0E0,0E0,0E0,0E0,0E0,0E0,0E0,0E0],"parents":[2147483647,0,0,1,1,2,2,3,3,4,4,5,5,6,6,7,7,8,8,9,9,10,10,11,11,12,12,13,13,14,14,17,17,18,18,19,19,20,20,21,21,23,23,24,24,25,25,26,26,27,27,28,28],"right_children":[2,4,6,8,10,12,14,16,18,20,22,24,26,28,30,-1,-1,32,34,36,38,40,-1,42,44,46,48,50,52,-1,-1,-1,-1,-1,-1,-1,-1,-1,-1,-1,-1,-1,-1,-1,-1,-1,-1,-1,-1,-1,-1,-1,-1],"split_conditions":[7.1E0,-1E0,1.42E1,-5.7E0,4.4E0,1.07E1,1.88E1,2.2E-1,-3.4E0,1.4E0,1.74E1,8.6E0,1.19E1,1.58E1,2.02E1,-1.3339582E-1,-8.859653E-2,5.9E0,-6.6E0,6.4E0,1.6E-1,6E0,-4.8450798E-2,2E-2,9.4E0,8.8E-1,7.1E-1,1.21E1,1.25E1,1.00670174E-1,1.2214923E-1,-8.277171E-2,-1.050677E-1,-6.3096434E-2,-8.0728866E-2,-4.9572013E-2,-6.5062694E-2,-4.3820217E-2,-3.267957E-2,-1.8809522E-2,-6.867245E-3,-4.204561E-4,1.1693476E-2,1.5581244E-2,2.691526E-2,3.6562648E-2,2.2746367E-2,4.6310995E-2,5.513699E-2,7.075792E-2,5.4222215E-2,8.4542155E-2,6.6155285E-2],"split_indices":[8,8,8,8,8,8,8,6,8,8,2,8,8,8,8,0,0,2,9,2,6,8,0,6,8,3,3,2,2,0,0,0,0,0,0,0,0,0,0,0,0,0,0,0,0,0,0,0,0,0,0,0,0],"split_type":[0,0,0,0,0,0,0,0,0,0,0,0,0,0,0,0,0,0,0,0,0,0,0,0,0,0,0,0,0,0,0,0,0,0,0,0,0,0,0,0,0,0,0,0,0,0,0,0,0,0,0,0,0],"sum_hessian":[2.337E3,1.178E3,1.159E3,4.02E2,7.76E2,5.99E2,5.6E2,1.18E2,2.84E2,5.36E2,2.4E2,2.89E2,3.1E2,4.21E2,1.39E2,1.07E2,1.1E1,1.07E2,1.77E2,2.29E2,3.07E2,2.29E2,1.1E1,1.11E2,1.78E2,9.8E1,2.12E2,1.64E2,2.57E2,6.1E1,7.8E1,4.6E1,6.1E1,3.3E1,1.44E2,6.9E1,1.6E2,2.24E2,8.3E1,1.41E2,8.8E1,6.9E1,4.2E1,6.7E1,1.11E2,8.4E1,1.4E1,1.06E2,1.06E2,1.41E2,2.3E1,2.32E2,2.5E1],"tree_param":{"num_deleted":"0","num_feature":"11","num_nodes":"53","size_leaf_vector":"1"}},{"base_weights":[6.3065044E-3,-5.460469E0,5.8109174E0,-9.610965E0,-3.576275E0,3.4653811E0,8.530128E0,-1.2011903E1,-8.095749E0,-4.8117714E0,-1.3698378E0,1.4045489E0,4.717486E0,7.1058617E0,9.645757E0,-1.2483322E1,-7.777659E-2,-7.488025E0,-9.9697225E-2,-5.1766014E0,-1.5583928E0,-2.5029175E0,9.0902E-1,4.8673856E-1,3.280755E0,2.8405368E0,5.513832E0,5.8216333E0,7.9563274E0,7.967661E0,1.0932218E1,-1.3425118E-1,-9.5094375E-2,-7.776694E-2,-4.927309E-2,-5.9526637E-2,-4.4416822E-2,-2.4541253E-2,-4.6107066E-3,-3.5569496E-2,-1.552619E-2,-1.5871191E-2,1.3013985E-2,-1.364792E-2,9.356418E-3,1.861786E-2,3.5975214E-2,1.11533785E-2,3.5801195E-2,4.6605807E-2,6.2193904E-2,3.262093E-2,6.1099216E-2,8.177363E-2,6.022901E-2,7.605713E-2,9.791686E-2,9.561242E-2,1.1921652E-1],"categories":[],"categories_nodes":[],"categories_segments":[],"categories_sizes":[],"default_left":[0,0,0,0,0,0,0,0,0,0,0,0,0,0,0,0,0,0,0,0,0,0,0,0,0,0,0,0,0,0,0,0,0,0,0,0,0,0,0,0,0,0,0,0,0,0,0,0,0,0,0,0,0,0,0,0,0,0,0],"id":14,"left_children":[1,3,5,7,9,11,13,15,17,19,21,23,25,27,29,31,-1,33,-1,35,37,39,41,43,45,47,49,51,53,55,57,-1,-1,-1,-1,-1,-1,-1,-1,-1,-1,-1,-1,-1,-1,-1,-1,-1,-1,-1,-1,-1,-1,-1,-1,-1,-1,-1,-1],"loss_changes":[7.412716E4,9.372176E3,7.1955234E3,1.2649727E3,2.2526816E3,1.566793E3,7.6239844E2,1.8632422E2,1.8895605E2,6.2151953E2,7.7449066E2,3.9753064E2,5.4999414E2,2.0787598E2,5.392168E2,2.2574023E2,0E0,9.346777E1,0E0,2.4457617E2,5.263687E1,1.9429541E2,9.998005E1,1.3172586E2,2.6916931E1,1.422691E2,1.2946094E2,5.070703E1,8.303711E0,9.614258E0,1.0361719E2,0E0,0E0,0E0,0E0,0E0,0E0,0E0,0E0,0E0,0E0,0E0,0E0,0E0,0E0,0E0,0E0,0E0,0E0,0E0,0E0,0E0,0E0,0E0,0E0,0E0,0E0,0E0,0E0],"parents":[2147483647,0,0,1,1,2,2,3,3,4,4,5,5,6,6,7,7,8,8,9,9,10,10,11,11,12,12,13,13,14,14,15,15,17,17,19,19,20,20,21,21,22,22,23,23,24,24,25,25,26,26,27,27,28,28,29,29,30,30],"right_children":[2,4,6,8,10,12,14,16,18,20,22,24,26,28,30,32,-1,34,-1,36,38,40,42,44,46,48,50,52,54,56,58,-1,-1,-1,-1,-1,-1,-1,-1,-1,-1,-1,-1,-1,-1,-1,-1,-1,-1,-1,-1,-1,-1,-1,-1,-1,-1,-1,-1],"split_conditions":[4.5E0,-3.7E0,1.07E1,-8.3E0,1.1E0,9.2E-1,1.65E0,1.5E-1,3.3E0,1.47E0,9.9E-1,8.2E0,6.8E0,1.28E1,1.013E0,5.2E-1,-7.777659E-2,9.5E-1,-9.9697225E-2,-1.1E0,-1E-1,2.3E0,1.0022E0,1.1E-1,1.6E-1,1.47E0,1.0104E0,2.9E-1,1.27E1,1.53E1,1.38E1,-1.3425118E-1,-9.5094375E-2,-7.776694E-2,-4.927309E-2,-5.9526637E-2,-4.4416822E-2,-2.4541253E-2,-4.6107066E-3,-3.5569496E-2,-1.552619E-2,-1.5871191E-2,1.3013985E-2,-1.364792E-2,9.356418E-3,1.861786E-2,3.5975214E-2,1.11533785E-2,3.5801195E-2,4.6605807E-2,6.2193904E-2,3.262093E-2,6.1099216E-2,8.177363E-2,6.022901E-2,7.605713E-2,9.791686E-2,9.561242E-2,1.1921652E-1],"split_indices":[9,9,9,9,9,5,5,6,1,5,5,9,9,9,4,5,0,5,0,9,9,9,4,5,5,5,4,5,2,9,9,0,0,0,0,0,0,0,0,0,0,0,0,0,0,0,0,0,0,0,0,0,0,0,0,0,0,0,0],"split_type":[0,0,0,0,0,0,0,0,0,0,0,0,0,0,0,0,0,0,0,0,0,0,0,0,0,0,0,0,0,0,0,0,0,0,0,0,0,0,0,0,0,0,0,0,0,0,0,0,0,0,0,0,0,0,0,0,0,0,0],"sum_hessian":[2.334E3,1.202E3,1.132E3,3.74E2,8.28E2,6.09E2,5.23E2,1.42E2,2.32E2,5.3E2,2.98E2,2.31E2,3.78E2,2.33E2,2.9E2,1.26E2,1.6E1,1.79E2,5.3E1,4.76E2,5.4E1,1.99E2,9.9E1,1.56E2,7.5E1,1.14E2,2.64E2,9.6E1,1.37E2,1.29E2,1.61E2,9.3E1,3.3E1,1.59E2,2E1,2.28E2,2.48E2,2.9E1,2.5E1,9.3E1,1.06E2,1.3E1,8.6E1,3E1,1.26E2,1.5E1,6E1,3.5E1,7.9E1,1.23E2,1.41E2,1.1E1,8.5E1,1.2E2,1.7E1,1.12E2,1.7E1,7.2E1,8.9E1],"tree_param":{"num_deleted":"0","num_feature":"11","num_nodes":"59","size_leaf_vector":"1"}},{"base_weights":[6.476601E-2,-5.745277E0,5.7509046E0,-8.978046E0,-3.3461301E0,2.7468615E0,8.184097E0,-1.2050496E1,-7.4840126E0,-4.4219713E0,-1.5636628E0,9.741487E-1,3.8137E0,7.3439016E0,1.1375201E1,-1.3540627E1,-1.0644332E-1,-8.825365E-2,-6.906242E0,-5.340748E0,-3.844428E0,-1.4264566E0,-4.157716E-2,3.2416815E-1,1.7566344E0,3.1059887E0,4.706851E0,6.568436E0,8.239484E-2,1.0217491E-1,1.2394125E-1,-1.4018844E-1,-7.014746E-2,-6.5555975E-2,-8.24663E-2,-3.37117E-2,-5.7444744E-2,-4.2759918E-2,-2.8034749E-2,-1.8872986E-2,-6.551167E-3,4.4849294E-4,2.0835308E-2,1.9003015E-2,-5.5475566E-3,2.7204046E-2,3.4380943E-2,3.2375332E-2,4.8529617E-2,6.69457E-2,4.7746457E-2],"categories":[],"categories_nodes":[],"categories_segments":[],"categories_sizes":[],"default_left":[0,0,0,0,0,0,0,0,0,0,0,0,0,0,0,0,0,0,0,0,0,0,0,0,0,0,0,0,0,0,0,0,0,0,0,0,0,0,0,0,0,0,0,0,0,0,0,0,0,0,0],"id":15,"left_children":[1,3,5,7,9,11,13,15,17,19,21,23,25,27,29,31,-1,-1,33,35,37,39,-1,41,43,45,47,49,-1,-1,-1,-1,-1,-1,-1,-1,-1,-1,-1,-1,-1,-1,-1,-1,-1,-1,-1,-1,-1,-1,-1],"loss_changes":[7.661213E4,8.86473E3,8.5430625E3,2.1479492E3,1.2581372E3,9.905764E2,1.649293E3,1.8451953E2,1.94E2,1.9664014E2,8.2490906E1,1.00434006E2,1.9192578E2,3.020625E2,2.7990234E1,1.2737598E2,0E0,0E0,5.537793E1,1.0377002E2,1.02309326E2,8.346564E1,0E0,5.3750275E1,3.1075134E1,1.3849365E1,1.4179199E1,3.0466797E1,0E0,0E0,0E0,0E0,0E0,0E0,0E0,0E0,0E0,0E0,0E0,0E0,0E0,0E0,0E0,0E0,0E0,0E0,0E0,0E0,0E0,0E0,0E0],"parents":[2147483647,0,0,1,1,2,2,3,3,4,4,5,5,6,6,7,7,8,8,9,9,10,10,11,11,12,12,13,13,14,14,15,15,18,18,19,19,20,20,21,21,23,23,24,24,25,25,26,26,27,27],"right_children":[2,4,6,8,10,12,14,16,18,20,22,24,26,28,30,32,-1,-1,34,36,38,40,-1,42,44,46,48,50,-1,-1,-1,-1,-1,-1,-1,-1,-1,-1,-1,-1,-1,-1,-1,-1,-1,-1,-1,-1,-1,-1,-1],"split_conditions":[7.2E0,4E-1,1.34E1,-4.5E0,4.4E0,9.8E0,1.9E1,-7.8E0,-2.8E0,1.8E0,1.74E1,8.6E0,1.19E1,1.62E1,2.08E1,1.4E-1,-1.0644332E-1,-8.825365E-2,1.17E1,4.8E0,1.6E-1,6.1E0,-4.157716E-2,7.6E-1,1.48E1,1.08E1,9.994E-1,1.35E1,8.239484E-2,1.0217491E-1,1.2394125E-1,-1.4018844E-1,-7.014746E-2,-6.5555975E-2,-8.24663E-2,-3.37117E-2,-5.7444744E-2,-4.2759918E-2,-2.8034749E-2,-1.8872986E-2,-6.551167E-3,4.4849294E-4,2.0835308E-2,1.9003015E-2,-5.5475566E-3,2.7204046E-2,3.4380943E-2,3.2375332E-2,4.8529617E-2,6.69457E-2,4.7746457E-2],"split_indices":[8,8,8,8,8,8,8,8,8,8,2,8,8,8,8,6,0,0,2,2,6,8,0,6,2,8,4,2,0,0,0,0,0,0,0,0,0,0,0,0,0,0,0,0,0,0,0,0,0,0,0],"split_type":[0,0,0,0,0,0,0,0,0,0,0,0,0,0,0,0,0,0,0,0,0,0,0,0,0,0,0,0,0,0,0,0,0,0,0,0,0,0,0,0,0,0,0,0,0,0,0,0,0,0,0],"sum_hessian":[2.317E3,1.146E3,1.171E3,4.87E2,6.59E2,5.25E2,6.46E2,1.57E2,3.3E2,4.1E2,2.49E2,1.98E2,3.27E2,5.14E2,1.32E2,7.2E1,8.5E1,9.5E1,2.35E2,1.55E2,2.55E2,2.38E2,1.1E1,1.09E2,8.9E1,1.85E2,1.42E2,2.8E2,2.34E2,6.7E1,6.5E1,6.6E1,6E0,1.91E2,4.4E1,2.8E1,1.27E2,1.78E2,7.7E1,1.48E2,9E1,9.5E1,1.4E1,8.4E1,5E0,9E1,9.5E1,1.5E1,1.27E2,2.59E2,2.1E1],"tree_param":{"num_deleted":"0","num_feature":"11","num_nodes":"51","size_leaf_vector":"1"}},{"base_weights":[3.3580944E-2,-5.6909056E0,5.641099E0,-1.0158188E1,-3.9933581E0,2.8570223E0,8.336131E0,-1.2903426E1,-8.730447E0,-5.566077E0,-2.349281E0,1.5397662E0,4.3275003E0,7.4334073E0,1.0993743E1,-1.3544811E-1,-8.1027016E-2,-9.502587E0,-7.8595E0,-6.095528E0,-4.3128996E0,-3.5265837E0,-1.5002476E0,3.7541893E-1,2.2060816E0,3.4457784E0,4.763358E0,6.550395E0,8.131449E0,1.0093431E-1,1.2268046E-1,-9.991091E-2,-7.91239E-2,-6.389168E-2,-8.335164E-2,-5.327107E-2,-6.693941E-2,-4.6232913E-2,-3.069007E-2,-3.0824196E-2,-3.8404364E-2,-1.3457967E-2,-4.31433E-2,-1.940159E-3,1.3092434E-2,1.5841397E-2,2.5040975E-2,1.7747048E-2,3.538412E-2,5.207013E-2,4.0714808E-2,6.772516E-2,5.287854E-2,8.2356766E-2,6.1121847E-2],"categories":[],"categories_nodes":[],"categories_segments":[],"categories_sizes":[],"default_left":[0,0,0,0,0,0,0,0,0,0,0,0,0,0,0,0,0,0,0,0,0,0,0,0,0,0,0,0,0,0,0,0,0,0,0,0,0,0,0,0,0,0,0,0,0,0,0,0,0,0,0,0,0,0,0],"id":16,"left_children":[1,3,5,7,9,11,13,15,17,19,21,23,25,27,29,-1,-1,31,33,35,37,39,41,43,45,47,49,51,53,-1,-1,-1,-1,-1,-1,-1,-1,-1,-1,-1,-1,-1,-1,-1,-1,-1,-1,-1,-1,-1,-1,-1,-1,-1,-1],"loss_changes":[7.460077E4,8.678961E3,8.783793E3,1.1237422E3,2.145169E3,1.114271E3,1.3462969E3,2.1447266E2,6.547461E1,2.5531836E2,4.0403027E2,2.3709119E2,8.768115E1,2.2140625E2,4.488086E1,0E0,0E0,2.2763672E0,1.8708008E1,9.9708984E1,3.5234375E1,1.1307617E1,9.7940735E1,6.0453537E1,3.1767334E1,7.73999E0,3.312378E1,1.9911133E1,9.765625E-4,0E0,0E0,0E0,0E0,0E0,0E0,0E0,0E0,0E0,0E0,0E0,0E0,0E0,0E0,0E0,0E0,0E0,0E0,0E0,0E0,0E0,0E0,0E0,0E0,0E0,0E0],"parents":[2147483647,0,0,1,1,2,2,3,3,4,4,5,5,6,6,7,7,8,8,9,9,10,10,11,11,12,12,13,13,14,14,17,17,18,18,19,19,20,20,21,21,22,22,23,23,24,24,25,25,26,26,27,27,28,28],"right_children":[2,4,6,8,10,12,14,16,18,20,22,24,26,28,30,-1,-1,32,34,36,38,40,42,44,46,48,50,52,54,-1,-1,-1,-1,-1,-1,-1,-1,-1,-1,-1,-1,-1,-1,-1,-1,-1,-1,-1,-1,-1,-1,-1,-1,-1,-1],"split_conditions":[7.2E0,-1.8E0,1.38E1,-6E0,2.6E0,1.08E1,1.88E1,1.5E-1,-3.4E0,1.4E0,4.4E0,8.6E0,1.19E1,1.58E1,2.67E1,-1.3544811E-1,-8.1027016E-2,8.8E-1,-6.6E0,2E0,2.7E-1,5E-1,1.74E1,6E-2,9.4E0,6.2E0,6.5E0,3.8E0,1.29E1,1.0093431E-1,1.2268046E-1,-9.991091E-2,-7.91239E-2,-6.389168E-2,-8.335164E-2,-5.327107E-2,-6.693941E-2,-4.6232913E-2,-3.069007E-2,-3.0824196E-2,-3.8404364E-2,-1.3457967E-2,-4.31433E-2,-1.940159E-3,1.3092434E-2,1.5841397E-2,2.5040975E-2,1.7747048E-2,3.538412E-2,5.207013E-2,4.0714808E-2,6.772516E-2,5.287854E-2,8.2356766E-2,6.1121847E-2],"split_indices":[8,8,8,8,8,8,8,6,8,8,8,8,8,8,10,0,0,3,9,1,6,7,2,6,8,2,7,1,2,0,0,0,0,0,0,0,0,0,0,0,0,0,0,0,0,0,0,0,0,0,0,0,0,0,0],"split_type":[0,0,0,0,0,0,0,0,0,0,0,0,0,0,0,0,0,0,0,0,0,0,0,0,0,0,0,0,0,0,0,0,0,0,0,0,0,0,0,0,0,0,0,0,0,0,0,0,0,0,0,0,0,0,0],"sum_hessian":[2.322E3,1.149E3,1.173E3,3.15E2,8.34E2,5.78E2,5.95E2,1.05E2,2.1E2,4.25E2,4.09E2,3.06E2,2.72E2,4.47E2,1.48E2,9.1E1,1.4E1,1.06E2,1.04E2,2.96E2,1.29E2,1.7E2,2.39E2,1.12E2,1.94E2,9.3E1,1.79E2,2.02E2,2.45E2,9.2E1,5.6E1,7.7E1,2.9E1,2.9E1,7.5E1,1.34E2,1.62E2,1.01E2,2.8E1,7.5E1,9.5E1,2.28E2,1.1E1,7E1,4.2E1,6.5E1,1.29E2,6E0,8.7E1,1.05E2,7.4E1,1.68E2,3.4E1,2.3E2,1.5E1],"tree_param":{"num_deleted":"0","num_feature":"11","num_nodes":"55","size_leaf_vector":"1"}},{"base_weights":[5.774429E-3,-5.75369E0,5.5523624E0,-1.0127325E1,-4.0980167E0,2.7760572E0,8.074496E0,-1.2904638E1,-8.899748E0,-5.5539694E0,-2.2960484E0,6.4208525E-1,3.732274E0,6.9575596E0,1.0401528E1,-1.3239655E-1,-8.2583986E-2,-8.427125E0,-1.1424703E-1,-7.0351086E0,-4.828509E0,-3.4504058E0,-1.2295893E0,8.962819E-2,2.727338E0,2.703317E0,4.706056E0,6.15689E0,7.7666826E0,9.599475E-2,1.2243533E-1,-7.6056875E-2,-9.460279E-2,-8.152754E-2,-5.994953E-2,-5.5534378E-2,-3.8612388E-2,-3.7893463E-2,-2.175354E-2,-1.7785583E-2,3.2291254E-3,-9.933248E-3,5.6010652E-3,2.2004792E-2,3.919809E-2,3.0085316E-2,1.3324518E-2,3.982634E-2,6.112963E-2,2.035549E-2,6.263458E-2,7.975174E-2,5.7476588E-2],"categories":[],"categories_nodes":[],"categories_segments":[],"categories_sizes":[],"default_left":[0,0,0,0,0,0,0,0,0,0,0,0,0,0,0,0,0,0,0,0,0,0,0,0,0,0,0,0,0,0,0,0,0,0,0,0,0,0,0,0,0,0,0,0,0,0,0,0,0,0,0,0,0],"id":17,"left_children":[1,3,5,7,9,11,13,15,17,19,21,23,25,27,29,-1,-1,31,-1,33,35,37,39,41,43,45,47,49,51,-1,-1,-1,-1,-1,-1,-1,-1,-1,-1,-1,-1,-1,-1,-1,-1,-1,-1,-1,-1,-1,-1,-1,-1],"loss_changes":[7.4624375E4,8.255617E3,8.309133E3,9.535137E2,2.1719053E3,1.1561924E3,1.5451641E3,3.483008E1,1.654707E2,4.5911816E2,4.5571143E2,2.0338008E2,3.79313E2,2.2547461E2,1.7576172E2,0E0,0E0,8.758887E1,0E0,1.2292578E2,1.9639062E2,6.851807E1,1.6776584E2,7.235338E1,1.400827E1,7.630994E1,1.7820215E2,8.216699E1,3.992578E1,0E0,0E0,0E0,0E0,0E0,0E0,0E0,0E0,0E0,0E0,0E0,0E0,0E0,0E0,0E0,0E0,0E0,0E0,0E0,0E0,0E0,0E0,0E0,0E0],"parents":[2147483647,0,0,1,1,2,2,3,3,4,4,5,5,6,6,7,7,8,8,9,9,10,10,11,11,12,12,13,13,14,14,17,17,19,19,20,20,21,21,22,22,23,23,24,24,25,25,26,26,27,27,28,28],"right_children":[2,4,6,8,10,12,14,16,18,20,22,24,26,28,30,-1,-1,32,-1,34,36,38,40,42,44,46,48,50,52,-1,-1,-1,-1,-1,-1,-1,-1,-1,-1,-1,-1,-1,-1,-1,-1,-1,-1,-1,-1,-1,-1,-1,-1],"split_conditions":[1.07E1,6E-1,1.82E1,-3.7E0,5.9E0,5E0,2.34E1,3.3E-1,1.19E1,7.5E-1,1.5E0,1.55E1,1.53E1,1.2E1,2.67E1,-1.3239655E-1,-8.2583986E-2,2E-1,-1.1424703E-1,3.4E0,3.5E0,3E-2,5.4E0,1.1E0,1.28E1,5.1E0,1.11E1,4.7E0,1.27E1,9.599475E-2,1.2243533E-1,-7.6056875E-2,-9.460279E-2,-8.152754E-2,-5.994953E-2,-5.5534378E-2,-3.8612388E-2,-3.7893463E-2,-2.175354E-2,-1.7785583E-2,3.2291254E-3,-9.933248E-3,5.6010652E-3,2.2004792E-2,3.919809E-2,3.0085316E-2,1.3324518E-2,3.982634E-2,6.112963E-2,2.035549E-2,6.263458E-2,7.975174E-2,5.7476588E-2],"split_indices":[10,10,10,10,10,9,10,6,2,3,9,10,10,9,10,0,0,7,0,10,10,6,9,9,7,7,9,9,2,0,0,0,0,0,0,0,0,0,0,0,0,0,0,0,0,0,0,0,0,0,0,0,0],"split_type":[0,0,0,0,0,0,0,0,0,0,0,0,0,0,0,0,0,0,0,0,0,0,0,0,0,0,0,0,0,0,0,0,0,0,0,0,0,0,0,0,0,0,0,0,0,0,0,0,0,0,0,0,0],"sum_hessian":[2.334E3,1.145E3,1.189E3,3.13E2,8.32E2,5.67E2,6.22E2,9.3E1,2.2E2,4.59E2,3.73E2,1.76E2,3.91E2,4.23E2,1.99E2,8.5E1,8E0,1.89E2,3.1E1,1.48E2,3.11E2,1.78E2,1.95E2,1.4E2,3.6E1,1.92E2,1.99E2,2.17E2,2.06E2,1.43E2,5.6E1,1.1E2,7.9E1,6.8E1,8E1,1.75E2,1.36E2,1.39E2,3.9E1,1.44E2,5.1E1,4.2E1,9.8E1,2.7E1,9E0,1.56E2,3.6E1,1.34E2,6.5E1,6E0,2.11E2,1.84E2,2.2E1],"tree_param":{"num_deleted":"0","num_feature":"11","num_nodes":"53","size_leaf_vector":"1"}},{"base_weights":[-6.466745E-2,-5.3002934E0,5.9065104E0,-8.800511E0,-2.9217381E0,3.3740103E0,8.19786E0,-1.2535898E1,-7.568003E0,-4.277916E0,-1.1723603E0,2.1736882E0,4.498383E0,7.37492E0,1.0932028E1,-1.4194253E-1,-1.1204227E-1,-8.966695E0,-6.7602887E0,-5.382988E0,-3.8023164E0,-2.1248486E0,-3.8304108E-1,1.4126765E0,2.6530876E0,3.991341E0,5.3174906E0,6.680839E0,8.0507144E-2,9.90886E-2,1.2029601E-1,-7.611571E-2,-9.8188855E-2,-7.2227664E-2,-6.136011E-2,-5.730158E-2,-4.0566377E-2,-4.389521E-2,-3.2992452E-2,-1.7559383E-2,-3.3926222E-2,-1.7144991E-3,-1.4681178E-2,2.0002594E-2,5.1590456E-3,3.0663433E-2,2.3401722E-2,2.4168422E-2,4.074537E-2,4.5367148E-2,6.1880797E-2,6.80164E-2,4.3758478E-2],"categories":[],"categories_nodes":[],"categories_segments":[],"categories_sizes":[],"default_left":[0,0,0,0,0,0,0,0,0,0,0,0,0,0,0,0,0,0,0,0,0,0,0,0,0,0,0,0,0,0,0,0,0,0,0,0,0,0,0,0,0,0,0,0,0,0,0,0,0,0,0,0,0],"id":18,"left_children":[1,3,5,7,9,11,13,15,17,19,21,23,25,27,29,-1,-1,31,33,35,37,39,41,43,45,47,49,51,-1,-1,-1,-1,-1,-1,-1,-1,-1,-1,-1,-1,-1,-1,-1,-1,-1,-1,-1,-1,-1,-1,-1,-1,-1],"loss_changes":[7.2873695E4,1.031334E4,6.2904805E3,2.2142734E3,1.7524385E3,6.9000195E2,1.202332E3,1.1005469E2,3.6711133E2,1.9777686E2,2.4327594E2,8.814697E1,8.873633E1,1.520664E2,2.4595703E1,0E0,0E0,8.0575195E1,2.5081055E1,3.241382E1,7.1893555E1,6.227899E1,4.068142E1,5.140924E1,1.2197876E1,1.1641113E1,3.814795E1,3.149121E1,0E0,0E0,0E0,0E0,0E0,0E0,0E0,0E0,0E0,0E0,0E0,0E0,0E0,0E0,0E0,0E0,0E0,0E0,0E0,0E0,0E0,0E0,0E0,0E0,0E0],"parents":[2147483647,0,0,1,1,2,2,3,3,4,4,5,5,6,6,7,7,8,8,9,9,10,10,11,11,12,12,13,13,14,14,17,17,18,18,19,19,20,20,21,21,22,22,23,23,24,24,25,25,26,26,27,27],"right_children":[2,4,6,8,10,12,14,16,18,20,22,24,26,28,30,-1,-1,32,34,36,38,40,42,44,46,48,50,52,-1,-1,-1,-1,-1,-1,-1,-1,-1,-1,-1,-1,-1,-1,-1,-1,-1,-1,-1,-1,-1,-1,-1,-1,-1],"split_conditions":[8.2E0,4E-1,1.41E1,-5.7E0,4.4E0,1.13E1,1.9E1,-8.8E0,-2.8E0,1.4E0,6E0,9.4E0,1.31E1,1.63E1,2.1E1,-1.4194253E-1,-1.1204227E-1,1.6E0,-1E0,9E-1,8E-1,1.28E1,1.25E1,3E0,6.6E0,1.33E1,7.3E-1,1.35E1,8.0507144E-2,9.90886E-2,1.2029601E-1,-7.611571E-2,-9.8188855E-2,-7.2227664E-2,-6.136011E-2,-5.730158E-2,-4.0566377E-2,-4.389521E-2,-3.2992452E-2,-1.7559383E-2,-3.3926222E-2,-1.7144991E-3,-1.4681178E-2,2.0002594E-2,5.1590456E-3,3.0663433E-2,2.3401722E-2,2.4168422E-2,4.074537E-2,4.5367148E-2,6.1880797E-2,6.80164E-2,4.3758478E-2],"split_indices":[8,8,8,8,8,8,8,8,8,8,8,8,8,8,8,0,0,1,8,3,3,2,2,1,9,10,3,2,0,0,0,0,0,0,0,0,0,0,0,0,0,0,0,0,0,0,0,0,0,0,0,0,0],"split_type":[0,0,0,0,0,0,0,0,0,0,0,0,0,0,0,0,0,0,0,0,0,0,0,0,0,0,0,0,0,0,0,0,0,0,0,0,0,0,0,0,0,0,0,0,0,0,0,0,0,0,0,0,0],"sum_hessian":[2.329E3,1.241E3,1.088E3,5.01E2,7.4E2,5.18E2,5.7E2,1.22E2,3.79E2,4.16E2,3.24E2,2.52E2,2.66E2,4.41E2,1.29E2,5E1,7.2E1,1.35E2,2.44E2,1.22E2,2.94E2,1.46E2,1.78E2,9.9E1,1.53E2,1.68E2,9.8E1,2.23E2,2.18E2,7.2E1,5.7E1,5.6E1,7.9E1,1.34E2,1.1E2,9.4E1,2.8E1,1.32E2,1.62E2,1.15E2,3.1E1,1.5E2,2.8E1,5.9E1,4E1,6.2E1,9.1E1,1E1,1.58E2,5.5E1,4.3E1,2.1E2,1.3E1],"tree_param":{"num_deleted":"0","num_feature":"11","num_nodes":"53","size_leaf_vector":"1"}},{"base_weights":[5.8387376E-2,-5.11569E0,5.9962053E0,-8.777204E0,-2.8114526E0,3.4953952E0,8.2701435E0,-1.2567358E1,-7.6691184E0,-4.066791E0,-9.655031E-1,2.255024E0,4.5413E0,7.293804E0,1.0772726E1,-1.1424588E1,-1.4339107E-1,-8.960597E0,-6.830408E0,-5.065267E0,-3.4753985E0,-1.8791134E0,-3.889472E-1,1.3382689E0,2.6902328E0,3.921913E0,5.051289E0,6.6865053E0,8.043004E0,9.738896E-2,1.18275605E-1,-1.17475115E-1,-7.4409895E-2,-8.072934E-2,-9.7822286E-2,-5.9587E-2,-7.194813E-2,-3.6244035E-2,-5.379217E-2,-4.406633E-2,-3.252062E-2,-2.843259E-2,-1.3964207E-2,-1.0857157E-2,3.952214E-3,1.6046172E-2,-2.742275E-3,2.8045211E-2,1.6832083E-2,2.6902663E-2,4.069009E-2,4.501105E-2,5.6818094E-2,6.750826E-2,4.0211342E-2,5.142896E-2,8.1305504E-2],"categories":[],"categories_nodes":[],"categories_segments":[],"categories_sizes":[],"default_left":[0,0,0,0,0,0,0,0,0,0,0,0,0,0,0,0,0,0,0,0,0,0,0,0,0,0,0,0,0,0,0,0,0,0,0,0,0,0,0,0,0,0,0,0,0,0,0,0,0,0,0,0,0,0,0,0,0],"id":19,"left_children":[1,3,5,7,9,11,13,15,17,19,21,23,25,27,29,31,-1,33,35,37,39,41,43,45,47,49,51,53,55,-1,-1,-1,-1,-1,-1,-1,-1,-1,-1,-1,-1,-1,-1,-1,-1,-1,-1,-1,-1,-1,-1,-1,-1,-1,-1,-1,-1],"loss_changes":[7.152256E4,1.0469785E4,6.1342812E3,1.9175039E3,1.7682983E3,6.610864E2,1.3050078E3,5.0248047E1,3.4232422E2,2.5021582E2,1.6286081E2,9.135303E1,6.773828E1,1.3175E2,5.3867188E1,7.158203E-1,0E0,2.4267578E1,2.919043E1,5.514746E1,4.5009766E1,5.1451996E1,1.054039E2,3.450244E1,1.3360107E1,1.2110596E1,2.5442627E1,1.1722656E1,2.3046875E0,0E0,0E0,0E0,0E0,0E0,0E0,0E0,0E0,0E0,0E0,0E0,0E0,0E0,0E0,0E0,0E0,0E0,0E0,0E0,0E0,0E0,0E0,0E0,0E0,0E0,0E0,0E0,0E0],"parents":[2147483647,0,0,1,1,2,2,3,3,4,4,5,5,6,6,7,7,8,8,9,9,10,10,11,11,12,12,13,13,14,14,15,15,17,17,18,18,19,19,20,20,21,21,22,22,23,23,24,24,25,25,26,26,27,27,28,28],"right_children":[2,4,6,8,10,12,14,16,18,20,22,24,26,28,30,32,-1,34,36,38,40,42,44,46,48,50,52,54,56,-1,-1,-1,-1,-1,-1,-1,-1,-1,-1,-1,-1,-1,-1,-1,-1,-1,-1,-1,-1,-1,-1,-1,-1,-1,-1,-1,-1],"split_conditions":[8.4E0,4E-1,1.43E1,-6E0,4.7E0,1.13E1,1.88E1,8.7E0,-2.8E0,1.8E0,6E0,9.4E0,1.28E1,1.66E1,2.08E1,-6.5E0,-1.4339107E-1,2.2E0,5.8E0,4.8E0,6.1E-1,1.0019E0,1.0124E0,4.2E0,1.43E1,9.995E-1,7.2E-1,4.9E0,9.973E-1,9.738896E-2,1.18275605E-1,-1.17475115E-1,-7.4409895E-2,-8.072934E-2,-9.7822286E-2,-5.9587E-2,-7.194813E-2,-3.6244035E-2,-5.379217E-2,-4.406633E-2,-3.252062E-2,-2.843259E-2,-1.3964207E-2,-1.0857157E-2,3.952214E-3,1.6046172E-2,-2.742275E-3,2.8045211E-2,1.6832083E-2,2.6902663E-2,4.069009E-2,4.501105E-2,5.6818094E-2,6.750826E-2,4.0211342E-2,5.142896E-2,8.1305504E-2],"split_indices":[8,8,8,8,8,8,8,2,8,8,8,8,8,8,8,8,0,1,2,2,3,4,4,1,2,4,3,1,4,0,0,0,0,0,0,0,0,0,0,0,0,0,0,0,0,0,0,0,0,0,0,0,0,0,0,0,0],"split_type":[0,0,0,0,0,0,0,0,0,0,0,0,0,0,0,0,0,0,0,0,0,0,0,0,0,0,0,0,0,0,0,0,0,0,0,0,0,0,0,0,0,0,0,0,0,0,0,0,0,0,0,0,0,0,0,0,0],"sum_hessian":[2.326E3,1.243E3,1.083E3,4.79E2,7.64E2,5.17E2,5.66E2,1.06E2,3.73E2,4.54E2,3.1E2,2.38E2,2.79E2,4.1E2,1.56E2,6.9E1,3.7E1,1.43E2,2.3E2,1.66E2,2.88E2,1.19E2,1.91E2,7.8E1,1.6E2,1.3E2,1.49E2,2.32E2,1.78E2,8.4E1,7.2E1,6.2E1,7E0,7.4E1,6.9E1,7.3E1,1.57E2,3.2E1,1.34E2,5.2E1,2.36E2,3.8E1,8.1E1,1.01E2,9E1,6.7E1,1.1E1,1.42E2,1.8E1,1.6E1,1.14E2,8.4E1,6.5E1,2.25E2,7E0,7E0,1.71E2],"tree_param":{"num_deleted":"0","num_feature":"11","num_nodes":"57","size_leaf_vector":"1"}},{"base_weights":[-1.6945414E-2,-5.432272E0,5.407505E0,-9.214965E0,-3.6028037E0,2.5567086E0,7.719141E0,-1.2544494E1,-7.998072E0,-4.9905987E0,-2.0969448E0,7.9595816E-1,3.4470723E0,6.924495E0,1.0537937E1,-1.2915747E-1,-7.864515E-2,-8.807596E0,-7.113891E0,-5.64588E0,-4.089518E0,-3.2325892E0,-1.4819118E0,-1.6609905E-2,9.5175976E-1,2.8448179E0,4.4360123E0,6.041605E0,7.5220466E0,9.21342E-2,1.14040814E-1,-7.8585215E-2,-9.968493E-2,-5.47092E-2,-7.454148E-2,-4.947022E-2,-6.154408E-2,-4.4387367E-2,-2.8875802E-2,-4.1696154E-2,-2.773582E-2,-1.3584551E-2,-3.819217E-2,3.0073444E-3,1.7431363E-2,2.4763979E-2,3.1997412E-2,4.491455E-2,2.5157094E-2,5.3627662E-2,6.4225525E-2,7.637244E-2,5.8748875E-2],"categories":[],"categories_nodes":[],"categories_segments":[],"categories_sizes":[],"default_left":[0,0,0,0,0,0,0,0,0,0,0,0,0,0,0,0,0,0,0,0,0,0,0,0,0,0,0,0,0,0,0,0,0,0,0,0,0,0,0,0,0,0,0,0,0,0,0,0,0,0,0,0,0],"id":20,"left_children":[1,3,5,7,9,11,13,15,17,19,21,23,25,27,29,-1,-1,31,33,35,37,39,41,-1,43,45,47,49,51,-1,-1,-1,-1,-1,-1,-1,-1,-1,-1,-1,-1,-1,-1,-1,-1,-1,-1,-1,-1,-1,-1,-1,-1],"loss_changes":[6.926665E4,8.131492E3,7.742258E3,1.453459E3,1.654416E3,8.2614966E2,1.38125E3,7.183008E1,1.390293E2,2.2038965E2,2.629464E2,7.0030525E1,1.9570557E2,2.2225781E2,5.4626953E1,0E0,0E0,7.853613E1,3.675049E1,5.2671387E1,6.116382E1,4.5374634E1,6.67215E1,0E0,8.634126E1,2.0406738E1,1.9475098E0,1.894336E1,1.0705078E1,0E0,0E0,0E0,0E0,0E0,0E0,0E0,0E0,0E0,0E0,0E0,0E0,0E0,0E0,0E0,0E0,0E0,0E0,0E0,0E0,0E0,0E0,0E0,0E0],"parents":[2147483647,0,0,1,1,2,2,3,3,4,4,5,5,6,6,7,7,8,8,9,9,10,10,11,11,12,12,13,13,14,14,17,17,18,18,19,19,20,20,21,21,22,22,24,24,25,25,26,26,27,27,28,28],"right_children":[2,4,6,8,10,12,14,16,18,20,22,24,26,28,30,-1,-1,32,34,36,38,40,42,-1,44,46,48,50,52,-1,-1,-1,-1,-1,-1,-1,-1,-1,-1,-1,-1,-1,-1,-1,-1,-1,-1,-1,-1,-1,-1,-1,-1],"split_conditions":[7.2E0,-1E0,1.34E1,-6.5E0,3E0,9.4E0,1.88E1,2.2E-1,-2.8E0,1.4E0,4.4E0,9.928E-1,1.19E1,1.55E1,2.02E1,-1.2915747E-1,-7.864515E-2,2.2E0,-6.4E0,2E0,2.7E-1,1E-1,1.76E1,-1.6609905E-2,2E-2,1.07E1,4.8E0,1.43E1,1.27E1,9.21342E-2,1.14040814E-1,-7.8585215E-2,-9.968493E-2,-5.47092E-2,-7.454148E-2,-4.947022E-2,-6.154408E-2,-4.4387367E-2,-2.8875802E-2,-4.1696154E-2,-2.773582E-2,-1.3584551E-2,-3.819217E-2,3.0073444E-3,1.7431363E-2,2.4763979E-2,3.1997412E-2,4.491455E-2,2.5157094E-2,5.3627662E-2,6.4225525E-2,7.637244E-2,5.8748875E-2],"split_indices":[8,8,8,8,8,8,8,6,8,8,8,4,8,8,8,0,0,1,9,1,6,5,2,0,6,8,1,8,2,0,0,0,0,0,0,0,0,0,0,0,0,0,0,0,0,0,0,0,0,0,0,0,0],"split_type":[0,0,0,0,0,0,0,0,0,0,0,0,0,0,0,0,0,0,0,0,0,0,0,0,0,0,0,0,0,0,0,0,0,0,0,0,0,0,0,0,0,0,0,0,0,0,0,0,0,0,0,0,0],"sum_hessian":[2.356E3,1.179E3,1.177E3,3.83E2,7.96E2,5.28E2,6.49E2,1E2,2.83E2,4.13E2,3.83E2,1.78E2,3.5E2,5.09E2,1.4E2,9.1E1,9E0,1.43E2,1.4E2,2.36E2,1.77E2,1.33E2,2.5E2,1E1,1.68E2,2.2E2,1.3E2,2.1E2,2.99E2,6E1,8E1,8.3E1,6E1,2.7E1,1.13E2,1.04E2,1.32E2,1.35E2,4.2E1,4.1E1,9.2E1,2.39E2,1.1E1,9.3E1,7.5E1,1.12E2,1.08E2,1.25E2,5E0,8.1E1,1.29E2,2.76E2,2.3E1],"tree_param":{"num_deleted":"0","num_feature":"11","num_nodes":"53","size_leaf_vector":"1"}},{"base_weights":[-1.0292596E-2,-5.075006E0,5.879593E0,-8.478022E0,-2.7382038E0,3.3734207E0,8.056619E0,-1.1896327E1,-7.3310647E0,-4.0943503E0,-1.004274E0,2.1784487E0,4.4900866E0,7.202091E0,1.07290745E1,-1.2372147E1,-8.111829E-2,-8.197413E0,-6.275894E0,-4.982302E0,-3.525219E0,-1.6526783E0,2.9873932E-3,1.5274435E0,2.683457E0,3.4086702E0,4.7793007E0,6.250573E0,7.726884E-2,9.788893E-2,1.1676446E-1,-1.130505E-1,-1.395444E-1,-7.665425E-2,-9.343393E-2,-5.058525E-2,-6.796672E-2,-5.74253E-2,-4.400646E-2,-3.908725E-2,-2.6424306E-2,-2.2105627E-2,-1.1414158E-2,-9.766468E-3,3.2385786E-3,8.958969E-3,2.2005638E-2,3.0716747E-2,2.3448007E-2,3.735692E-2,2.1069085E-2,4.2392716E-2,5.0796468E-2,6.484937E-2,5.2871663E-2],"categories":[],"categories_nodes":[],"categories_segments":[],"categories_sizes":[],"default_left":[0,0,0,0,0,0,0,0,0,0,0,0,0,0,0,0,0,0,0,0,0,0,0,0,0,0,0,0,0,0,0,0,0,0,0,0,0,0,0,0,0,0,0,0,0,0,0,0,0,0,0,0,0,0,0],"id":21,"left_children":[1,3,5,7,9,11,13,15,17,19,21,23,25,27,29,31,-1,33,35,37,39,41,43,45,47,49,51,53,-1,-1,-1,-1,-1,-1,-1,-1,-1,-1,-1,-1,-1,-1,-1,-1,-1,-1,-1,-1,-1,-1,-1,-1,-1,-1,-1],"loss_changes":[6.9296375E4,9.907932E3,5.831426E3,1.9025586E3,1.7401636E3,6.580786E2,1.2317734E3,1.24484375E2,2.9722266E2,1.918164E2,2.137377E2,7.5698364E1,6.358203E1,1.6901953E2,5.580078E0,2.5449219E1,0E0,5.2875977E1,7.664746E1,4.4465576E1,7.602515E1,5.390149E1,4.080032E1,4.4055527E1,1.0136108E1,1.62359E1,1.0134766E1,8.876953E-1,0E0,0E0,0E0,0E0,0E0,0E0,0E0,0E0,0E0,0E0,0E0,0E0,0E0,0E0,0E0,0E0,0E0,0E0,0E0,0E0,0E0,0E0,0E0,0E0,0E0,0E0,0E0],"parents":[2147483647,0,0,1,1,2,2,3,3,4,4,5,5,6,6,7,7,8,8,9,9,10,10,11,11,12,12,13,13,14,14,15,15,17,17,18,18,19,19,20,20,21,21,22,22,23,23,24,24,25,25,26,26,27,27],"right_children":[2,4,6,8,10,12,14,16,18,20,22,24,26,28,30,32,-1,34,36,38,40,42,44,46,48,50,52,54,-1,-1,-1,-1,-1,-1,-1,-1,-1,-1,-1,-1,-1,-1,-1,-1,-1,-1,-1,-1,-1,-1,-1,-1,-1,-1,-1],"split_conditions":[8.4E0,4E-1,1.41E1,-5.7E0,4.4E0,1.13E1,1.9E1,1.5E-1,-1.8E0,1.8E0,6.7E0,9.8E0,1.19E1,1.57E1,2.1E1,7E0,-8.111829E-2,3.1E0,5.8E0,7E0,1.5E-1,7E0,2.2E-1,1E-1,6.6E0,4.2E-1,6E0,1.14E1,7.726884E-2,9.788893E-2,1.1676446E-1,-1.130505E-1,-1.395444E-1,-7.665425E-2,-9.343393E-2,-5.058525E-2,-6.796672E-2,-5.74253E-2,-4.400646E-2,-3.908725E-2,-2.6424306E-2,-2.2105627E-2,-1.1414158E-2,-9.766468E-3,3.2385786E-3,8.958969E-3,2.2005638E-2,3.0716747E-2,2.3448007E-2,3.735692E-2,2.1069085E-2,4.2392716E-2,5.0796468E-2,6.484937E-2,5.2871663E-2],"split_indices":[8,8,8,8,8,8,8,6,8,8,8,8,8,8,8,2,0,1,2,0,6,0,5,6,9,6,0,2,0,0,0,0,0,0,0,0,0,0,0,0,0,0,0,0,0,0,0,0,0,0,0,0,0,0,0],"split_type":[0,0,0,0,0,0,0,0,0,0,0,0,0,0,0,0,0,0,0,0,0,0,0,0,0,0,0,0,0,0,0,0,0,0,0,0,0,0,0,0,0,0,0,0,0,0,0,0,0,0,0,0,0,0,0],"sum_hessian":[2.321E3,1.248E3,1.073E3,5.07E2,7.41E2,5E2,5.73E2,1.25E2,3.82E2,4.15E2,3.26E2,2.43E2,2.57E2,4.37E2,1.36E2,1.09E2,1.6E1,2.06E2,1.76E2,1.59E2,2.56E2,1.98E2,1.28E2,1.08E2,1.35E2,5.7E1,2E2,1.6E2,2.77E2,7.4E1,6.2E1,7E1,3.9E1,1.46E2,6E1,5.6E1,1.2E2,6.5E1,9.4E1,1.76E2,8E1,9.3E1,1.05E2,3.1E1,9.7E1,5.7E1,5.1E1,5.9E1,7.6E1,4.4E1,1.3E1,7.7E1,1.23E2,1.24E2,3.6E1],"tree_param":{"num_deleted":"0","num_feature":"11","num_nodes":"55","size_leaf_vector":"1"}},{"base_weights":[-2.0572314E-2,-5.062192E0,5.81997E0,-8.483317E0,-2.7699976E0,3.3278582E0,7.99029E0,-1.0919082E1,-6.8008976E0,-4.12658E0,-1.1304991E0,2.1549451E0,4.4026294E0,7.0957785E0,1.0482732E1,-1.237086E1,-9.268013E-2,-5.919673E0,-7.3113837E0,-4.9299793E0,-3.608147E0,-1.782886E0,-2.3557886E-3,1.3793184E0,2.56285E0,3.6671038E0,4.7285676E0,6.2075745E-2,7.5491406E-2,9.493261E-2,1.1505251E-1,-1.2778208E-1,-7.213234E-2,-6.391673E-2,-4.6042707E-2,-7.841277E-2,-6.0141813E-2,-5.2914012E-2,-3.803399E-2,-3.950721E-2,-2.6359092E-2,-2.5384555E-2,-1.4254255E-2,-2.2324512E-3,2.1063633E-2,5.5730958E-3,2.0474255E-2,2.4596997E-2,4.42228E-2,4.0280424E-2,2.4458691E-2,4.1396037E-2,5.2330382E-2],"categories":[],"categories_nodes":[],"categories_segments":[],"categories_sizes":[],"default_left":[0,0,0,0,0,0,0,0,0,0,0,0,0,0,0,0,0,0,0,0,0,0,0,0,0,0,0,0,0,0,0,0,0,0,0,0,0,0,0,0,0,0,0,0,0,0,0,0,0,0,0,0,0],"id":22,"left_children":[1,3,5,7,9,11,13,15,17,19,21,23,25,27,29,31,-1,33,35,37,39,41,43,45,47,49,51,-1,-1,-1,-1,-1,-1,-1,-1,-1,-1,-1,-1,-1,-1,-1,-1,-1,-1,-1,-1,-1,-1,-1,-1,-1,-1],"loss_changes":[6.85792E4,9.777729E3,5.808242E3,1.9770586E3,1.6628955E3,6.2520654E2,1.2080625E3,3.6977148E2,8.990234E1,1.5212744E2,2.5078842E2,7.295166E1,4.4631348E1,1.2370508E2,4.0441406E1,1.26427734E2,0E0,4.0871582E1,7.862012E1,4.329834E1,7.319287E1,5.4323853E1,5.897192E1,4.582878E1,1.8738892E1,2.6967773E1,3.0286621E1,0E0,0E0,0E0,0E0,0E0,0E0,0E0,0E0,0E0,0E0,0E0,0E0,0E0,0E0,0E0,0E0,0E0,0E0,0E0,0E0,0E0,0E0,0E0,0E0,0E0,0E0],"parents":[2147483647,0,0,1,1,2,2,3,3,4,4,5,5,6,6,7,7,8,8,9,9,10,10,11,11,12,12,13,13,14,14,15,15,17,17,18,18,19,19,20,20,21,21,22,22,23,23,24,24,25,25,26,26],"right_children":[2,4,6,8,10,12,14,16,18,20,22,24,26,28,30,32,-1,34,36,38,40,42,44,46,48,50,52,-1,-1,-1,-1,-1,-1,-1,-1,-1,-1,-1,-1,-1,-1,-1,-1,-1,-1,-1,-1,-1,-1,-1,-1,-1,-1],"split_conditions":[8.4E0,4E-1,1.41E1,-3.7E0,4.4E0,1.13E1,1.88E1,-6.5E0,1.7E0,1.8E0,6.7E0,9.4E0,1.23E1,1.57E1,2.08E1,2.2E-1,-9.268013E-2,1E-2,1.6E-1,9E-1,1.6E-1,1.0006E0,9.5E-1,2E-2,1.31E0,1.02E1,7.1E-1,6.2075745E-2,7.5491406E-2,9.493261E-2,1.1505251E-1,-1.2778208E-1,-7.213234E-2,-6.391673E-2,-4.6042707E-2,-7.841277E-2,-6.0141813E-2,-5.2914012E-2,-3.803399E-2,-3.950721E-2,-2.6359092E-2,-2.5384555E-2,-1.4254255E-2,-2.2324512E-3,2.1063633E-2,5.5730958E-3,2.0474255E-2,2.4596997E-2,4.42228E-2,4.0280424E-2,2.4458691E-2,4.1396037E-2,5.2330382E-2],"split_indices":[8,8,8,8,8,8,8,8,1,8,8,8,8,8,8,6,0,6,6,3,6,4,6,6,6,9,3,0,0,0,0,0,0,0,0,0,0,0,0,0,0,0,0,0,0,0,0,0,0,0,0,0,0],"split_type":[0,0,0,0,0,0,0,0,0,0,0,0,0,0,0,0,0,0,0,0,0,0,0,0,0,0,0,0,0,0,0,0,0,0,0,0,0,0,0,0,0,0,0,0,0,0,0,0,0,0,0,0,0],"sum_hessian":[2.327E3,1.249E3,1.078E3,5E2,7.49E2,5.03E2,5.75E2,2.02E2,2.98E2,4.09E2,3.4E2,2.42E2,2.61E2,4.26E2,1.49E2,1.04E2,9.8E1,1.14E2,1.84E2,1.57E2,2.52E2,2.15E2,1.25E2,8.5E1,1.57E2,8.4E1,1.77E2,1.49E2,2.77E2,8.1E1,6.8E1,9.5E1,9E0,8.1E1,3.3E1,1.27E2,5.7E1,1.16E2,4.1E1,1.84E2,6.8E1,6.7E1,1.48E2,1.14E2,1.1E1,3.9E1,4.6E1,1.51E2,6E0,6.3E1,2.1E1,8.6E1,9.1E1],"tree_param":{"num_deleted":"0","num_feature":"11","num_nodes":"53","size_leaf_vector":"1"}},{"base_weights":[4.7957104E-2,-4.958501E0,5.8095503E0,-8.31403E0,-2.7369223E0,3.309138E0,7.68741E0,-1.19390745E1,-7.2028394E0,-4.010029E0,-1.0424511E0,2.4868004E0,4.6482286E0,6.937793E0,1.0376027E1,-1.2408186E1,-8.471415E-2,-8.820623E0,-6.6588993E0,-4.791488E0,-3.5477803E0,-1.8929744E0,-3.453828E-1,1.4483341E0,2.881168E0,3.9793491E0,4.9705663E0,6.3590593E0,7.8601345E-2,9.3679816E-2,1.1271164E-1,-1.1103466E-1,-1.408518E-1,-9.425344E-2,-7.284406E-2,-6.9704704E-2,-5.5239856E-2,-3.2538924E-2,-5.0827947E-2,-3.9062943E-2,-2.7228905E-2,-2.554806E-2,-1.3359759E-2,-5.473331E-3,1.0613773E-2,6.8715853E-3,2.014614E-2,1.928064E-2,3.0271295E-2,4.517177E-2,3.3140413E-2,3.534843E-2,5.2318122E-2,6.440017E-2,4.197589E-2],"categories":[],"categories_nodes":[],"categories_segments":[],"categories_sizes":[],"default_left":[0,0,0,0,0,0,0,0,0,0,0,0,0,0,0,0,0,0,0,0,0,0,0,0,0,0,0,0,0,0,0,0,0,0,0,0,0,0,0,0,0,0,0,0,0,0,0,0,0,0,0,0,0,0,0],"id":23,"left_children":[1,3,5,7,9,11,13,15,17,19,21,23,25,27,29,31,-1,33,35,37,39,41,43,45,47,49,51,53,-1,-1,-1,-1,-1,-1,-1,-1,-1,-1,-1,-1,-1,-1,-1,-1,-1,-1,-1,-1,-1,-1,-1,-1,-1,-1,-1],"loss_changes":[6.787274E4,9.361445E3,5.110258E3,1.9301797E3,1.6326616E3,5.0638525E2,1.1839141E3,8.149805E1,2.7938672E2,1.3857861E2,1.9299173E2,1.1579834E2,1.770337E1,2.1068555E2,1.3261719E1,5.988867E1,0E0,1.6995117E1,6.385254E1,5.3397705E1,7.032324E1,5.0387634E1,5.1950832E1,3.412166E1,2.3160767E1,6.7894897E0,2.4138916E1,2.5625977E1,0E0,0E0,0E0,0E0,0E0,0E0,0E0,0E0,0E0,0E0,0E0,0E0,0E0,0E0,0E0,0E0,0E0,0E0,0E0,0E0,0E0,0E0,0E0,0E0,0E0,0E0,0E0],"parents":[2147483647,0,0,1,1,2,2,3,3,4,4,5,5,6,6,7,7,8,8,9,9,10,10,11,11,12,12,13,13,14,14,15,15,17,17,18,18,19,19,20,20,21,21,22,22,23,23,24,24,25,25,26,26,27,27],"right_children":[2,4,6,8,10,12,14,16,18,20,22,24,26,28,30,32,-1,34,36,38,40,42,44,46,48,50,52,54,-1,-1,-1,-1,-1,-1,-1,-1,-1,-1,-1,-1,-1,-1,-1,-1,-1,-1,-1,-1,-1,-1,-1,-1,-1,-1,-1],"split_conditions":[8.4E0,4E-1,1.38E1,-5.7E0,4.4E0,1.19E1,1.9E1,1.4E-1,-3.6E0,1.7E0,6E0,9.4E0,6E0,1.67E1,2.08E1,7E0,-8.471415E-2,8.8E-1,8.9E-1,4.8E0,1.4E-1,7E0,1.01E0,2E-2,1.24E1,7.9E0,3.6E-1,1.47E1,7.8601345E-2,9.3679816E-2,1.1271164E-1,-1.1103466E-1,-1.408518E-1,-9.425344E-2,-7.284406E-2,-6.9704704E-2,-5.5239856E-2,-3.2538924E-2,-5.0827947E-2,-3.9062943E-2,-2.7228905E-2,-2.554806E-2,-1.3359759E-2,-5.473331E-3,1.0613773E-2,6.8715853E-3,2.014614E-2,1.928064E-2,3.0271295E-2,4.517177E-2,3.3140413E-2,3.534843E-2,5.2318122E-2,6.440017E-2,4.197589E-2],"split_indices":[8,8,8,8,8,8,8,6,8,8,8,8,0,8,8,2,0,3,3,2,6,0,6,6,10,9,5,2,0,0,0,0,0,0,0,0,0,0,0,0,0,0,0,0,0,0,0,0,0,0,0,0,0,0,0],"split_type":[0,0,0,0,0,0,0,0,0,0,0,0,0,0,0,0,0,0,0,0,0,0,0,0,0,0,0,0,0,0,0,0,0,0,0,0,0,0,0,0,0,0,0,0,0,0,0,0,0,0,0,0,0,0,0],"sum_hessian":[2.351E3,1.258E3,1.093E3,5E2,7.58E2,4.7E2,6.23E2,1.15E2,3.85E2,4.32E2,3.26E2,2.93E2,1.77E2,4.9E2,1.33E2,9.9E1,1.6E1,9.3E1,2.92E2,1.57E2,2.75E2,1.46E2,1.8E2,8.2E1,2.11E2,6.2E1,1.15E2,3.06E2,1.84E2,6.8E1,6.5E1,6E1,3.9E1,6.3E1,3E1,2.25E2,6.7E1,2.7E1,1.3E2,1.89E2,8.6E1,6.5E1,8.1E1,1.58E2,2.2E1,3.6E1,4.6E1,3E1,1.81E2,3.1E1,3.1E1,2E1,9.5E1,2.93E2,1.3E1],"tree_param":{"num_deleted":"0","num_feature":"11","num_nodes":"55","size_leaf_vector":"1"}},{"base_weights":[-1.11945875E-1,-5.38421E0,4.829986E0,-7.5568614E0,-2.8085668E0,2.4010491E0,7.375255E0,-1.0343465E1,-6.360525E0,-3.6881511E0,-1.3457199E0,4.944353E-1,3.4491487E0,6.284647E0,9.453142E0,-1.1678921E1,-8.798279E-2,-7.4703684E0,-5.484429E0,-4.692893E0,-2.9425454E0,-2.109575E0,-3.518853E-1,-1.9981875E-1,2.3392055E0,2.2886465E0,4.347972E0,5.405E0,6.814446E0,8.7091215E-2,1.1240956E-1,-1.2105094E-1,-7.353694E-2,-6.4289846E-2,-8.2286805E-2,-6.870002E-2,-4.8949193E-2,-5.1694114E-2,-3.2883454E-2,-4.1083887E-2,-2.5651865E-2,-1.7841471E-2,-3.6681976E-2,-6.3837087E-3,8.425779E-3,-6.723536E-3,1.2809266E-2,2.3169576E-3,2.6112974E-2,1.5563284E-2,3.0103438E-2,3.665502E-2,5.5842392E-2,4.7744364E-2,6.4055294E-2,6.880746E-2,4.6113595E-2],"categories":[],"categories_nodes":[],"categories_segments":[],"categories_sizes":[],"default_left":[0,0,0,0,0,0,0,0,0,0,0,0,0,0,0,0,0,0,0,0,0,0,0,0,0,0,0,0,0,0,0,0,0,0,0,0,0,0,0,0,0,0,0,0,0,0,0,0,0,0,0,0,0,0,0,0,0],"id":24,"left_children":[1,3,5,7,9,11,13,15,17,19,21,23,25,27,29,31,-1,33,35,37,39,41,43,45,47,49,51,53,55,-1,-1,-1,-1,-1,-1,-1,-1,-1,-1,-1,-1,-1,-1,-1,-1,-1,-1,-1,-1,-1,-1,-1,-1,-1,-1,-1,-1],"loss_changes":[6.042194E4,6.256424E3,7.3815234E3,1.9594375E3,6.571824E2,1.2248691E3,1.2624512E3,2.6869727E2,3.7389258E2,2.2590186E2,1.4704492E2,2.8116324E2,4.0244775E2,1.4183594E2,1.648125E2,8.230664E1,0E0,9.251465E1,1.636792E2,7.251001E1,7.106287E1,4.8704254E1,2.9946354E1,1.12753E2,3.3516876E1,8.734778E1,1.6591064E2,6.2934082E1,1.7382812E0,0E0,0E0,0E0,0E0,0E0,0E0,0E0,0E0,0E0,0E0,0E0,0E0,0E0,0E0,0E0,0E0,0E0,0E0,0E0,0E0,0E0,0E0,0E0,0E0,0E0,0E0,0E0,0E0],"parents":[2147483647,0,0,1,1,2,2,3,3,4,4,5,5,6,6,7,7,8,8,9,9,10,10,11,11,12,12,13,13,14,14,15,15,17,17,18,18,19,19,20,20,21,21,22,22,23,23,24,24,25,25,26,26,27,27,28,28],"right_children":[2,4,6,8,10,12,14,16,18,20,22,24,26,28,30,32,-1,34,36,38,40,42,44,46,48,50,52,54,56,-1,-1,-1,-1,-1,-1,-1,-1,-1,-1,-1,-1,-1,-1,-1,-1,-1,-1,-1,-1,-1,-1,-1,-1,-1,-1,-1,-1],"split_conditions":[1.06E1,4.1E0,1.82E1,-1.4E0,2.1E0,5.6E0,2.32E1,-9.2E0,7E0,5E0,4.5E0,1.49E1,1.47E1,1.05E1,2.67E1,1.4E-1,-8.798279E-2,1.6E0,6E-1,8E0,6.9E-1,1.35E1,6.8E0,7.3E-1,1.1E0,8E0,1.11E1,2.06E1,1.44E1,8.7091215E-2,1.1240956E-1,-1.2105094E-1,-7.353694E-2,-6.4289846E-2,-8.2286805E-2,-6.870002E-2,-4.8949193E-2,-5.1694114E-2,-3.2883454E-2,-4.1083887E-2,-2.5651865E-2,-1.7841471E-2,-3.6681976E-2,-6.3837087E-3,8.425779E-3,-6.723536E-3,1.2809266E-2,2.3169576E-3,2.6112974E-2,1.5563284E-2,3.0103438E-2,3.665502E-2,5.5842392E-2,4.7744364E-2,6.4055294E-2,6.880746E-2,4.6113595E-2],"split_indices":[10,10,10,10,9,9,10,9,0,0,9,10,10,9,10,6,0,1,10,10,3,2,9,3,9,0,9,10,2,0,0,0,0,0,0,0,0,0,0,0,0,0,0,0,0,0,0,0,0,0,0,0,0,0,0,0,0],"split_type":[0,0,0,0,0,0,0,0,0,0,0,0,0,0,0,0,0,0,0,0,0,0,0,0,0,0,0,0,0,0,0,0,0,0,0,0,0,0,0,0,0,0,0,0,0,0,0,0,0,0,0,0,0,0,0,0,0],"sum_hessian":[2.317E3,1.121E3,1.196E3,6.07E2,5.14E2,6.13E2,5.83E2,1.8E2,4.27E2,3.2E2,1.94E2,2.18E2,3.95E2,3.85E2,1.98E2,9.3E1,8.7E1,1.85E2,2.42E2,1.34E2,1.86E2,1.09E2,8.5E1,1.59E2,5.9E1,1.74E2,2.21E2,1.49E2,2.36E2,1.44E2,5.4E1,8.3E1,1E1,8.2E1,1.03E2,6.9E1,1.73E2,9.8E1,3.6E1,4.3E1,1.43E2,9.2E1,1.7E1,6.9E1,1.6E1,1.21E2,3.8E1,7E0,5.2E1,8.8E1,8.6E1,1.45E2,7.6E1,9.5E1,5.4E1,2.27E2,9E0],"tree_param":{"num_deleted":"0","num_feature":"11","num_nodes":"57","size_leaf_vector":"1"}},{"base_weights":[-6.774459E-2,-5.3372483E0,5.251105E0,-8.859788E0,-3.5172985E0,2.5518403E0,7.460809E0,-1.1754584E1,-7.619645E0,-4.8756557E0,-2.0562112E0,7.0150155E-1,3.3426824E0,6.681876E0,1.0326214E1,-1.2261685E-1,-7.717521E-2,-8.533006E-2,-7.004933E0,-5.537624E0,-3.9274194E0,-3.0391247E0,-1.5304368E0,4.01406E-2,1.4491754E0,2.6265848E0,4.103807E0,5.9246244E0,7.502109E-2,9.2359416E-2,1.11135244E-1,-5.33544E-2,-7.324373E-2,-4.8571914E-2,-6.0361676E-2,-4.287045E-2,-2.6489593E-2,-4.0068727E-2,-2.7110126E-2,-1.922707E-2,-8.620897E-3,-1.0530754E-2,4.339504E-3,-7.1379547E-3,1.649054E-2,2.5057558E-2,4.3998513E-2,1.9755684E-2,4.17879E-2,6.0377043E-2,4.443388E-2],"categories":[],"categories_nodes":[],"categories_segments":[],"categories_sizes":[],"default_left":[0,0,0,0,0,0,0,0,0,0,0,0,0,0,0,0,0,0,0,0,0,0,0,0,0,0,0,0,0,0,0,0,0,0,0,0,0,0,0,0,0,0,0,0,0,0,0,0,0,0,0],"id":25,"left_children":[1,3,5,7,9,11,13,15,17,19,21,23,25,27,29,-1,-1,-1,31,33,35,37,39,41,43,45,47,49,-1,-1,-1,-1,-1,-1,-1,-1,-1,-1,-1,-1,-1,-1,-1,-1,-1,-1,-1,-1,-1,-1,-1],"loss_changes":[6.611735E4,7.564453E3,6.982373E3,1.35525E3,1.5432852E3,7.72813E2,1.3689141E3,1.4699023E2,9.86875E1,2.3152441E2,1.9075562E2,7.891006E1,1.907583E2,2.7098242E2,1.2060547E1,0E0,0E0,0E0,5.35166E1,4.9648926E1,6.611084E1,3.006189E1,6.334497E1,3.741972E1,3.369548E1,2.9851318E1,1.9534668E1,1.7348633E1,0E0,0E0,0E0,0E0,0E0,0E0,0E0,0E0,0E0,0E0,0E0,0E0,0E0,0E0,0E0,0E0,0E0,0E0,0E0,0E0,0E0,0E0,0E0],"parents":[2147483647,0,0,1,1,2,2,3,3,4,4,5,5,6,6,7,7,8,8,9,9,10,10,11,11,12,12,13,13,14,14,18,18,19,19,20,20,21,21,22,22,23,23,24,24,25,25,26,26,27,27],"right_children":[2,4,6,8,10,12,14,16,18,20,22,24,26,28,30,-1,-1,-1,32,34,36,38,40,42,44,46,48,50,-1,-1,-1,-1,-1,-1,-1,-1,-1,-1,-1,-1,-1,-1,-1,-1,-1,-1,-1,-1,-1,-1,-1],"split_conditions":[7.2E0,-1E0,1.34E1,-6E0,3E0,9.4E0,1.9E1,1.5E-1,-3.4E0,1.4E0,4.4E0,2E-2,1.15E1,1.62E1,2.08E1,-1.2261685E-1,-7.717521E-2,-8.533006E-2,-6.4E0,2E0,2.7E-1,1E-1,6E0,5.6E-1,8E-2,1.33E0,4.7E0,4.5E0,7.502109E-2,9.2359416E-2,1.11135244E-1,-5.33544E-2,-7.324373E-2,-4.8571914E-2,-6.0361676E-2,-4.287045E-2,-2.6489593E-2,-4.0068727E-2,-2.7110126E-2,-1.922707E-2,-8.620897E-3,-1.0530754E-2,4.339504E-3,-7.1379547E-3,1.649054E-2,2.5057558E-2,4.3998513E-2,1.9755684E-2,4.17879E-2,6.0377043E-2,4.443388E-2],"split_indices":[8,8,8,8,8,8,8,6,8,8,8,6,8,8,8,0,0,0,9,1,6,5,8,5,5,6,9,1,0,0,0,0,0,0,0,0,0,0,0,0,0,0,0,0,0,0,0,0,0,0,0],"split_type":[0,0,0,0,0,0,0,0,0,0,0,0,0,0,0,0,0,0,0,0,0,0,0,0,0,0,0,0,0,0,0,0,0,0,0,0,0,0,0,0,0,0,0,0,0,0,0,0,0,0,0],"sum_hessian":[2.357E3,1.184E3,1.173E3,4.02E2,7.82E2,5.29E2,6.44E2,1.18E2,2.84E2,4.04E2,3.78E2,1.59E2,3.7E2,5.09E2,1.35E2,1.03E2,1.5E1,1.09E2,1.75E2,2.35E2,1.69E2,1.3E2,2.48E2,8.5E1,7.4E1,1.93E2,1.77E2,2.69E2,2.4E2,6.2E1,7.3E1,3.1E1,1.44E2,1.04E2,1.31E2,1.3E2,3.9E1,3E1,1E2,1.55E2,9.3E1,2.2E1,6.3E1,6E0,6.8E1,1.83E2,1E1,7E0,1.7E2,2.47E2,2.2E1],"tree_param":{"num_deleted":"0","num_feature":"11","num_nodes":"51","size_leaf_vector":"1"}},{"base_weights":[-5.5901095E-2,-5.2886E0,5.1499257E0,-8.891021E0,-3.5173526E0,2.6986556E0,7.596412E0,-1.2060304E1,-7.712801E0,-4.8794208E0,-2.1495316E0,1.5821748E0,4.161525E0,6.852793E0,1.002364E1,-1.2479847E1,-6.327258E-2,-8.792533E0,-6.9599185E0,-5.405546E0,-3.9974082E0,-3.0065286E0,-1.3842826E0,3.5064587E-1,2.1767793E0,3.6172304E0,4.6246686E0,6.1430807E0,7.5567617E0,8.56137E-2,1.0730854E-1,-1.1281185E-1,-1.3946791E-1,-7.573043E-2,-9.526223E-2,-7.5566E-2,-6.351225E-2,-5.5394176E-2,-2.6135463E-2,-4.7983844E-2,-3.4958337E-2,-3.3281863E-2,-2.1686826E-2,-2.01203E-2,-9.102843E-3,-1.1339597E-2,7.1481084E-3,1.8128423E-2,2.711415E-2,2.284437E-2,3.797614E-2,5.2576404E-2,3.921179E-2,6.2037934E-2,2.8258514E-2,6.736094E-2,8.044692E-2],"categories":[],"categories_nodes":[],"categories_segments":[],"categories_sizes":[],"default_left":[0,0,0,0,0,0,0,0,0,0,0,0,0,0,0,0,0,0,0,0,0,0,0,0,0,0,0,0,0,0,0,0,0,0,0,0,0,0,0,0,0,0,0,0,0,0,0,0,0,0,0,0,0,0,0,0,0],"id":26,"left_children":[1,3,5,7,9,11,13,15,17,19,21,23,25,27,29,31,-1,33,35,37,39,41,43,45,47,49,51,53,55,-1,-1,-1,-1,-1,-1,-1,-1,-1,-1,-1,-1,-1,-1,-1,-1,-1,-1,-1,-1,-1,-1,-1,-1,-1,-1,-1,-1],"loss_changes":[6.35794E4,7.394713E3,6.994963E3,1.3351719E3,1.4457256E3,9.4993506E2,9.855078E2,1.6449219E2,1.664707E2,1.5889453E2,2.5247913E2,2.4356305E2,4.6225098E1,1.7753516E2,4.5808594E1,5.428711E0,0E0,2.6356445E1,1.272168E1,7.515918E1,4.265869E1,4.1820435E1,6.0064453E1,6.0239197E1,3.8411255E1,1.980664E1,3.7689453E1,2.7888672E1,3.322754E1,0E0,0E0,0E0,0E0,0E0,0E0,0E0,0E0,0E0,0E0,0E0,0E0,0E0,0E0,0E0,0E0,0E0,0E0,0E0,0E0,0E0,0E0,0E0,0E0,0E0,0E0,0E0,0E0],"parents":[2147483647,0,0,1,1,2,2,3,3,4,4,5,5,6,6,7,7,8,8,9,9,10,10,11,11,12,12,13,13,14,14,15,15,17,17,18,18,19,19,20,20,21,21,22,22,23,23,24,24,25,25,26,26,27,27,28,28],"right_children":[2,4,6,8,10,12,14,16,18,20,22,24,26,28,30,32,-1,34,36,38,40,42,44,46,48,50,52,54,56,-1,-1,-1,-1,-1,-1,-1,-1,-1,-1,-1,-1,-1,-1,-1,-1,-1,-1,-1,-1,-1,-1,-1,-1,-1,-1,-1,-1],"split_conditions":[7.2E0,-1E0,1.4E1,-6.5E0,2.9E0,1.13E1,1.9E1,2.2E-1,-3.6E0,1.4E0,4.7E0,8.6E0,1.27E1,1.63E1,1.015E0,7.2E0,-6.327258E-2,5.9E0,1.0113E0,8.6E-1,6E0,1.7E-1,1.0053E0,1.0044E0,1.0148E0,9.995E-1,5.5E0,1.55E1,1.0109E0,8.56137E-2,1.0730854E-1,-1.1281185E-1,-1.3946791E-1,-7.573043E-2,-9.526223E-2,-7.5566E-2,-6.351225E-2,-5.5394176E-2,-2.6135463E-2,-4.7983844E-2,-3.4958337E-2,-3.3281863E-2,-2.1686826E-2,-2.01203E-2,-9.102843E-3,-1.1339597E-2,7.1481084E-3,1.8128423E-2,2.711415E-2,2.284437E-2,3.797614E-2,5.2576404E-2,3.921179E-2,6.2037934E-2,2.8258514E-2,6.736094E-2,8.044692E-2],"split_indices":[8,8,8,8,8,8,8,6,8,8,8,8,8,8,4,2,0,2,4,6,0,6,4,4,4,4,7,2,4,0,0,0,0,0,0,0,0,0,0,0,0,0,0,0,0,0,0,0,0,0,0,0,0,0,0,0,0],"split_type":[0,0,0,0,0,0,0,0,0,0,0,0,0,0,0,0,0,0,0,0,0,0,0,0,0,0,0,0,0,0,0,0,0,0,0,0,0,0,0,0,0,0,0,0,0,0,0,0,0,0,0,0,0,0,0,0,0],"sum_hessian":[2.332E3,1.163E3,1.169E3,3.82E2,7.81E2,5.85E2,5.84E2,1.01E2,2.81E2,3.9E2,3.91E2,3.33E2,2.52E2,4.5E2,1.34E2,9.3E1,8E0,1.11E2,1.7E2,2.41E2,1.49E2,1.83E2,2.08E2,1.09E2,2.24E2,1.2E2,1.32E2,2.29E2,2.21E2,4.8E1,8.6E1,5.6E1,3.7E1,4.6E1,6.5E1,8E1,9E1,2.29E2,1.2E1,5.4E1,9.5E1,1.3E2,5.3E1,8.8E1,1.2E2,2.1E1,8.8E1,1.36E2,8.8E1,1.6E1,1.04E2,6.6E1,6.6E1,2.24E2,5E0,8.8E1,1.33E2],"tree_param":{"num_deleted":"0","num_feature":"11","num_nodes":"57","size_leaf_vector":"1"}},{"base_weights":[-3.2686323E-2,-5.2355175E0,5.1259584E0,-8.772446E0,-3.3418543E0,2.655802E0,7.441261E0,-1.1938024E1,-7.6602983E0,-4.2160196E0,-1.3224677E0,1.3909271E0,3.933242E0,6.6779847E0,9.831736E0,-1.0868516E-1,-1.3255666E-1,-8.8187685E0,-7.004227E0,-5.1517344E0,-3.440673E0,-1.7173452E0,-7.5416017E-1,2.942603E-1,2.0335045E0,3.1357026E0,4.317002E0,6.00447E0,7.470529E-2,8.82156E-2,1.0844412E-1,-7.747874E-2,-1.00960284E-1,-7.689612E-2,-6.390682E-2,-4.7672603E-2,-6.1485615E-2,-4.2125344E-2,-3.1269014E-2,5.1340065E-3,-1.861559E-2,-6.106767E-3,-2.81188E-2,-1.2164697E-2,7.18534E-3,1.6956728E-2,2.5363728E-2,1.0402475E-2,3.26273E-2,3.693082E-2,4.652138E-2,6.1161935E-2,3.4379214E-2],"categories":[],"categories_nodes":[],"categories_segments":[],"categories_sizes":[],"default_left":[0,0,0,0,0,0,0,0,0,0,0,0,0,0,0,0,0,0,0,0,0,0,0,0,0,0,0,0,0,0,0,0,0,0,0,0,0,0,0,0,0,0,0,0,0,0,0,0,0,0,0,0,0],"id":27,"left_children":[1,3,5,7,9,11,13,15,17,19,21,23,25,27,29,-1,-1,31,33,35,37,39,41,43,45,47,49,51,-1,-1,-1,-1,-1,-1,-1,-1,-1,-1,-1,-1,-1,-1,-1,-1,-1,-1,-1,-1,-1,-1,-1,-1,-1],"loss_changes":[6.3019293E4,7.7991406E3,6.7221133E3,1.3394727E3,1.3407773E3,9.182351E2,1.0420469E3,7.8125E-2,1.6770117E2,3.673828E2,5.052127E1,2.028252E2,7.263965E1,2.0147656E2,5.0700195E1,0E0,0E0,6.4981445E1,3.3132812E1,6.1194824E1,5.729712E1,4.4842346E1,2.6579723E1,7.0048294E1,2.6194946E1,2.1729004E1,2.1504639E1,5.1424805E1,0E0,0E0,0E0,0E0,0E0,0E0,0E0,0E0,0E0,0E0,0E0,0E0,0E0,0E0,0E0,0E0,0E0,0E0,0E0,0E0,0E0,0E0,0E0,0E0,0E0],"parents":[2147483647,0,0,1,1,2,2,3,3,4,4,5,5,6,6,7,7,8,8,9,9,10,10,11,11,12,12,13,13,14,14,17,17,18,18,19,19,20,20,21,21,22,22,23,23,24,24,25,25,26,26,27,27],"right_children":[2,4,6,8,10,12,14,16,18,20,22,24,26,28,30,-1,-1,32,34,36,38,40,42,44,46,48,50,52,-1,-1,-1,-1,-1,-1,-1,-1,-1,-1,-1,-1,-1,-1,-1,-1,-1,-1,-1,-1,-1,-1,-1,-1,-1],"split_conditions":[7.2E0,-1E0,1.38E1,-6.5E0,4.4E0,1.08E1,1.88E1,7E0,-3.7E0,1.4E0,5.9E0,8.6E0,1.19E1,1.63E1,2.08E1,-1.0868516E-1,-1.3255666E-1,7.7E0,1.0113E0,3.3E0,7E-1,1.2E0,1.76E1,1.0064E0,1.015E0,6.3E0,6E0,1.45E1,7.470529E-2,8.82156E-2,1.0844412E-1,-7.747874E-2,-1.00960284E-1,-7.689612E-2,-6.390682E-2,-4.7672603E-2,-6.1485615E-2,-4.2125344E-2,-3.1269014E-2,5.1340065E-3,-1.861559E-2,-6.106767E-3,-2.81188E-2,-1.2164697E-2,7.18534E-3,1.6956728E-2,2.5363728E-2,1.0402475E-2,3.26273E-2,3.693082E-2,4.652138E-2,6.1161935E-2,3.4379214E-2],"split_indices":[8,8,8,8,8,8,8,2,8,8,8,8,8,8,8,0,0,2,4,1,3,1,2,4,4,2,0,2,0,0,0,0,0,0,0,0,0,0,0,0,0,0,0,0,0,0,0,0,0,0,0,0,0],"split_type":[0,0,0,0,0,0,0,0,0,0,0,0,0,0,0,0,0,0,0,0,0,0,0,0,0,0,0,0,0,0,0,0,0,0,0,0,0,0,0,0,0,0,0,0,0,0,0,0,0,0,0,0,0],"sum_hessian":[2.346E3,1.168E3,1.178E3,4.06E2,7.62E2,5.71E2,6.07E2,1.03E2,3.03E2,5.31E2,2.31E2,2.88E2,2.83E2,4.63E2,1.44E2,6.2E1,4.1E1,1.05E2,1.98E2,2.38E2,2.93E2,1.35E2,9.6E1,1.07E2,1.81E2,9.5E1,1.88E2,2.55E2,2.08E2,7.7E1,6.7E1,6.1E1,4.4E1,8.8E1,1.1E2,1.76E2,6.2E1,8.1E1,2.12E2,8E0,1.27E2,9.1E1,5E0,2.3E1,8.4E1,1.11E2,7E1,6E0,8.9E1,7E1,1.18E2,2.43E2,1.2E1],"tree_param":{"num_deleted":"0","num_feature":"11","num_nodes":"53","size_leaf_vector":"1"}},{"base_weights":[3.6485296E-2,-4.696937E0,5.5102663E0,-7.6738467E0,-2.3214889E0,3.19076E0,7.5703096E0,-1.1291526E1,-6.6705027E0,-3.6881557E0,-9.436803E-1,2.025692E0,4.2838097E0,6.75676E0,9.861648E0,-1.0555324E1,-1.366966E-1,-7.444204E0,-5.4492874E0,-4.0871935E0,-2.9827907E0,-1.8098147E0,-1.9896957E-1,1.330721E0,2.5353773E0,3.786032E0,4.8793507E0,6.075482E0,7.437821E-2,8.714165E-2,1.0694208E-1,-1.1102998E-1,-8.401399E-2,-7.72681E-2,-5.7575595E-2,-4.5751825E-2,-5.8639083E-2,-4.4324696E-2,-3.1822022E-2,-3.9324842E-2,-2.5922308E-2,6.340267E-3,-1.928754E-2,-1.7132731E-2,-1.3605681E-4,1.4469324E-2,-8.11256E-3,2.6108684E-2,1.5105237E-2,3.959435E-2,2.697284E-2,5.0619356E-2,3.219503E-2,6.149264E-2,3.403649E-2],"categories":[],"categories_nodes":[],"categories_segments":[],"categories_sizes":[],"default_left":[0,0,0,0,0,0,0,0,0,0,0,0,0,0,0,0,0,0,0,0,0,0,0,0,0,0,0,0,0,0,0,0,0,0,0,0,0,0,0,0,0,0,0,0,0,0,0,0,0,0,0,0,0,0,0],"id":28,"left_children":[1,3,5,7,9,11,13,15,17,19,21,23,25,27,29,31,-1,33,35,37,39,41,43,45,47,49,51,53,-1,-1,-1,-1,-1,-1,-1,-1,-1,-1,-1,-1,-1,-1,-1,-1,-1,-1,-1,-1,-1,-1,-1,-1,-1,-1,-1],"loss_changes":[5.8944668E4,8.60841E3,5.0158613E3,1.8865938E3,1.2765E3,6.248828E2,9.7188477E2,5.638086E1,3.6065234E2,8.308203E1,2.1874567E2,8.231409E1,5.6550293E1,1.4601758E2,4.2438477E1,1.4475586E1,0E0,7.7140625E1,3.337744E1,5.2315186E1,3.62594E1,4.6987427E1,5.1452286E1,2.7374237E1,6.3981323E0,1.584082E1,1.7121094E1,2.0104492E1,0E0,0E0,0E0,0E0,0E0,0E0,0E0,0E0,0E0,0E0,0E0,0E0,0E0,0E0,0E0,0E0,0E0,0E0,0E0,0E0,0E0,0E0,0E0,0E0,0E0,0E0,0E0],"parents":[2147483647,0,0,1,1,2,2,3,3,4,4,5,5,6,6,7,7,8,8,9,9,10,10,11,11,12,12,13,13,14,14,15,15,17,17,18,18,19,19,20,20,21,21,22,22,23,23,24,24,25,25,26,26,27,27],"right_children":[2,4,6,8,10,12,14,16,18,20,22,24,26,28,30,32,-1,34,36,38,40,42,44,46,48,50,52,54,-1,-1,-1,-1,-1,-1,-1,-1,-1,-1,-1,-1,-1,-1,-1,-1,-1,-1,-1,-1,-1,-1,-1,-1,-1,-1,-1],"split_conditions":[8.4E0,9E-1,1.43E1,-5.7E0,4.4E0,1.13E1,1.88E1,1.01E1,-1E0,3E0,6E0,9.7E0,1.31E1,1.64E1,2.04E1,-3.7E0,-1.366966E-1,9E-1,6.3E0,8.9E-1,1E-1,1.2E0,1E-1,1.55E1,1.43E1,1.13E1,4.2E0,1.47E1,7.437821E-2,8.714165E-2,1.0694208E-1,-1.1102998E-1,-8.401399E-2,-7.72681E-2,-5.7575595E-2,-4.5751825E-2,-5.8639083E-2,-4.4324696E-2,-3.1822022E-2,-3.9324842E-2,-2.5922308E-2,6.340267E-3,-1.928754E-2,-1.7132731E-2,-1.3605681E-4,1.4469324E-2,-8.11256E-3,2.6108684E-2,1.5105237E-2,3.959435E-2,2.697284E-2,5.0619356E-2,3.219503E-2,6.149264E-2,3.403649E-2],"split_indices":[8,8,8,8,8,8,8,2,8,8,8,8,8,8,8,10,0,3,2,3,5,1,5,2,2,7,1,2,0,0,0,0,0,0,0,0,0,0,0,0,0,0,0,0,0,0,0,0,0,0,0,0,0,0,0],"split_type":[0,0,0,0,0,0,0,0,0,0,0,0,0,0,0,0,0,0,0,0,0,0,0,0,0,0,0,0,0,0,0,0,0,0,0,0,0,0,0,0,0,0,0,0,0,0,0,0,0,0,0,0,0,0,0],"sum_hessian":[2.273E3,1.219E3,1.054E3,5.4E2,6.79E2,4.97E2,5.57E2,1.15E2,4.25E2,3.4E2,3.39E2,2.42E2,2.55E2,4.14E2,1.43E2,9.2E1,2.3E1,2.57E2,1.68E2,2.14E2,1.26E2,1.56E2,1.83E2,1.04E2,1.38E2,1.43E2,1.12E2,2.12E2,2.02E2,6.5E1,7.8E1,7E1,2.2E1,2.17E2,4E1,5.8E1,1.1E2,1.52E2,6.2E1,3.4E1,9.2E1,7E0,1.49E2,1.9E1,1.64E2,9.9E1,5E0,1.27E2,1.1E1,1.21E2,2.2E1,9.9E1,1.3E1,2.05E2,7E0],"tree_param":{"num_deleted":"0","num_feature":"11","num_nodes":"55","size_leaf_vector":"1"}},{"base_weights":[5.216937E-2,-4.6520452E0,5.4328227E0,-7.7392254E0,-2.4925508E0,3.1318233E0,7.410313E0,-1.0028756E1,-6.239368E0,-3.7076504E0,-9.0010273E-1,2.2888517E0,4.3432484E0,6.58561E0,9.76681E0,-1.1977221E1,-8.877829E-2,-6.9490023E0,-5.7942777E0,-4.6011205E0,-3.1616964E0,-1.3122026E0,1.16446994E-1,1.2424829E0,2.6684234E0,3.7306929E0,4.6696897E0,6.1271386E0,7.341267E-2,8.0357604E-2,1.0230978E-1,-1.2445693E-1,-5.901806E-2,-5.5737715E-2,-7.462553E-2,-5.0298166E-2,-6.5530226E-2,-5.242098E-2,-4.0986624E-2,-3.47897E-2,-2.4202928E-2,-1.870449E-2,-7.5136214E-3,-1.2610472E-2,5.6881723E-3,6.896152E-3,2.0227263E-2,1.40741225E-2,2.7413925E-2,4.426792E-2,3.1783067E-2,3.0809944E-2,4.8508253E-2,4.414769E-2,6.201692E-2],"categories":[],"categories_nodes":[],"categories_segments":[],"categories_sizes":[],"default_left":[0,0,0,0,0,0,0,0,0,0,0,0,0,0,0,0,0,0,0,0,0,0,0,0,0,0,0,0,0,0,0,0,0,0,0,0,0,0,0,0,0,0,0,0,0,0,0,0,0,0,0,0,0,0,0],"id":29,"left_children":[1,3,5,7,9,11,13,15,17,19,21,23,25,27,29,31,-1,33,35,37,39,41,43,45,47,49,51,53,-1,-1,-1,-1,-1,-1,-1,-1,-1,-1,-1,-1,-1,-1,-1,-1,-1,-1,-1,-1,-1,-1,-1,-1,-1,-1,-1],"loss_changes":[5.8495496E4,8.199789E3,4.8808594E3,1.6768242E3,1.402935E3,4.9999463E2,1.0592812E3,3.378496E2,5.605957E1,1.8564697E2,1.326511E2,1.1425342E2,2.253125E1,1.0333789E2,3.487793E1,1.26791016E2,0E0,3.7614746E1,7.956787E1,2.7178467E1,5.191382E1,6.877707E1,5.7976727E1,3.3274933E1,1.5694214E1,1.4392944E1,2.1383545E1,6.6660156E0,0E0,0E0,0E0,0E0,0E0,0E0,0E0,0E0,0E0,0E0,0E0,0E0,0E0,0E0,0E0,0E0,0E0,0E0,0E0,0E0,0E0,0E0,0E0,0E0,0E0,0E0,0E0],"parents":[2147483647,0,0,1,1,2,2,3,3,4,4,5,5,6,6,7,7,8,8,9,9,10,10,11,11,12,12,13,13,14,14,15,15,17,17,18,18,19,19,20,20,21,21,22,22,23,23,24,24,25,25,26,26,27,27],"right_children":[2,4,6,8,10,12,14,16,18,20,22,24,26,28,30,32,-1,34,36,38,40,42,44,46,48,50,52,54,-1,-1,-1,-1,-1,-1,-1,-1,-1,-1,-1,-1,-1,-1,-1,-1,-1,-1,-1,-1,-1,-1,-1,-1,-1,-1,-1],"split_conditions":[8.4E0,5E-1,1.41E1,-3.6E0,4.4E0,1.19E1,1.88E1,-7.8E0,-1.8E0,1.8E0,7E0,9.4E0,6E0,1.67E1,1.0126E0,1.9E-1,-8.877829E-2,-6.6E0,-2.6E0,7E0,1.5E-1,7E0,1.0026E0,1E-1,1.12E1,7.6E0,3.4E-1,9.964E-1,7.341267E-2,8.0357604E-2,1.0230978E-1,-1.2445693E-1,-5.901806E-2,-5.5737715E-2,-7.462553E-2,-5.0298166E-2,-6.5530226E-2,-5.242098E-2,-4.0986624E-2,-3.47897E-2,-2.4202928E-2,-1.870449E-2,-7.5136214E-3,-1.2610472E-2,5.6881723E-3,6.896152E-3,2.0227263E-2,1.40741225E-2,2.7413925E-2,4.426792E-2,3.1783067E-2,3.0809944E-2,4.8508253E-2,4.414769E-2,6.201692E-2],"split_indices":[8,8,8,8,8,8,8,8,8,8,8,8,0,8,4,6,0,9,9,0,6,0,4,6,10,9,5,4,0,0,0,0,0,0,0,0,0,0,0,0,0,0,0,0,0,0,0,0,0,0,0,0,0,0,0],"split_type":[0,0,0,0,0,0,0,0,0,0,0,0,0,0,0,0,0,0,0,0,0,0,0,0,0,0,0,0,0,0,0,0,0,0,0,0,0,0,0,0,0,0,0,0,0,0,0,0,0,0,0,0,0,0,0],"sum_hessian":[2.309E3,1.232E3,1.077E3,5.06E2,7.26E2,4.99E2,5.78E2,1.98E2,3.08E2,4.11E2,3.15E2,2.96E2,2.03E2,4.31E2,1.47E2,7E1,1.28E2,1.13E2,1.95E2,1.53E2,2.58E2,2.24E2,9.1E1,8E1,2.16E2,7.5E1,1.28E2,2.74E2,1.57E2,3.5E1,1.12E2,6.4E1,6E0,3.4E1,7.9E1,1.01E2,9.4E1,6.3E1,9E1,1.78E2,8E1,1.11E2,1.13E2,2.2E1,6.9E1,4.8E1,3.2E1,1.3E1,2.03E2,3E1,4.5E1,1.5E1,1.13E2,1.4E1,2.6E2],"tree_param":{"num_deleted":"0","num_feature":"11","num_nodes":"55","size_leaf_vector":"1"}},{"base_weights":[-1.19362906E-1,-4.98564E0,4.9493337E0,-8.460593E0,-3.25274E0,2.5095682E0,7.1700177E0,-1.1396092E1,-7.210979E0,